<?xml version="1.0"?>
<opencv_storage>
<my_svm type_id="opencv-ml-svm">
  <svm_type>C_SVC</svm_type>
  <kernel><type>RBF</type>
    <gamma>5.0625000000000009e-01</gamma></kernel>
  <C>3.1250000000000000e+02</C>
  <term_criteria><epsilon>2.2204460492503131e-16</epsilon>
    <iterations>100000</iterations></term_criteria>
  <var_all>100</var_all>
  <var_count>100</var_count>
  <class_count>11</class_count>
  <class_labels type_id="opencv-matrix">
    <rows>1</rows>
    <cols>11</cols>
    <dt>i</dt>
    <data>
      1 2 3 4 5 6 7 8 9 10 11</data></class_labels>
  <sv_total>187</sv_total>
  <support_vectors>
    <_>
      7.67263444e-03 2.55754474e-03 0. 0. 7.67263444e-03 2.55754474e-03
      2.55754474e-03 1.79028139e-02 0. 5.11508947e-03 0. 1.79028139e-02
      1.02301789e-02 1.02301789e-02 1.02301789e-02 0. 3.58056277e-02
      2.04603579e-02 2.55754478e-02 1.02301789e-02 2.30179019e-02
      7.67263444e-03 0. 1.79028139e-02 0. 5.11508947e-03 1.79028139e-02
      0. 7.67263444e-03 1.53452689e-02 5.11508947e-03 1.79028139e-02
      3.06905378e-02 2.55754474e-03 0. 5.11508947e-03 7.67263444e-03 0.
      2.55754478e-02 0. 1.79028139e-02 1.53452689e-02 0. 2.55754474e-03
      5.11508947e-03 0. 5.11508947e-03 7.67263444e-03 0. 4.34782617e-02
      2.55754474e-03 5.11508947e-03 2.55754474e-03 2.55754474e-03 0.
      1.53452689e-02 2.55754474e-03 5.11508947e-03 2.55754474e-03
      2.30179019e-02 0. 2.55754474e-03 0. 2.55754474e-03 1.02301789e-02
      1.02301789e-02 2.55754474e-03 7.67263444e-03 1.27877239e-02 0.
      2.55754474e-03 4.09207158e-02 0. 3.83631699e-02 4.09207158e-02
      2.55754474e-03 1.02301789e-02 3.06905378e-02 2.55754474e-03 0.
      2.55754474e-03 0. 1.53452689e-02 2.55754474e-03 0. 1.53452689e-02
      2.55754478e-02 1.53452689e-02 5.11508947e-03 1.79028139e-02
      5.11508947e-03 2.55754474e-03 4.85933498e-02 1.27877239e-02
      2.30179019e-02 3.83631699e-02 2.55754474e-03 7.67263444e-03
      5.11508947e-03 2.55754474e-03</_>
    <_>
      1.04438644e-02 1.04438644e-02 5.22193220e-03 2.08877288e-02
      2.61096610e-03 0. 1.30548300e-02 7.83289783e-03 1.30548300e-02 0.
      0. 2.61096600e-02 1.56657957e-02 1.30548300e-02 7.83289783e-03
      1.04438644e-02 2.34986953e-02 1.56657957e-02 2.61096600e-02
      5.22193220e-03 7.83289783e-03 2.61096610e-03 0. 1.56657957e-02 0.
      7.83289783e-03 1.56657957e-02 2.61096610e-03 0. 1.56657957e-02
      2.61096610e-03 1.04438644e-02 1.04438644e-02 2.61096610e-03 0.
      1.04438644e-02 2.34986953e-02 5.22193220e-03 1.56657957e-02
      2.08877288e-02 2.34986953e-02 1.56657957e-02 5.22193220e-03 0. 0.
      2.61096610e-03 7.83289783e-03 7.83289783e-03 1.82767622e-02
      1.04438644e-02 1.82767622e-02 5.22193220e-03 5.22193220e-03 0.
      5.22193220e-03 1.30548300e-02 7.83289783e-03 7.83289783e-03
      5.22193220e-03 7.83289783e-03 0. 5.22193220e-03 2.61096610e-03
      7.83289783e-03 7.83289783e-03 5.22193220e-03 2.61096610e-03
      2.61096610e-03 5.22193220e-03 2.61096610e-03 0. 2.61096600e-02
      5.22193220e-03 5.22193201e-02 1.82767622e-02 7.83289783e-03
      5.22193220e-03 1.56657957e-02 7.83289783e-03 1.56657957e-02
      7.83289783e-03 7.83289783e-03 2.61096600e-02 5.22193220e-03
      1.56657957e-02 5.22193220e-03 2.08877288e-02 1.30548300e-02
      5.22193220e-03 1.56657957e-02 1.04438644e-02 1.04438644e-02
      2.34986953e-02 1.30548300e-02 5.22193220e-03 3.39425579e-02 0.
      1.04438644e-02 2.61096610e-03 7.83289783e-03</_>
    <_>
      4.14364645e-03 1.03591159e-02 1.38121552e-03 1.10497242e-02
      1.51933702e-02 1.38121552e-03 2.76243105e-03 1.51933702e-02
      8.97790026e-03 6.90607727e-03 6.90607761e-04 1.24309389e-02
      1.38121545e-02 6.90607727e-03 4.83425427e-03 3.45303863e-03
      1.17403315e-02 6.21546945e-03 1.45027628e-02 2.07182323e-03
      8.28729291e-03 6.90607727e-03 4.83425427e-03 1.38121545e-02
      4.14364645e-03 9.66850854e-03 7.66574591e-02 4.14364645e-03
      3.45303863e-03 9.66850854e-03 1.17403315e-02 1.31215472e-02
      2.55524870e-02 2.76243105e-03 6.21546945e-03 4.14364645e-03
      1.17403315e-02 2.00276244e-02 1.38121545e-02 1.51933702e-02
      2.14088392e-02 1.65745858e-02 6.90607761e-04 4.14364645e-03
      2.76243105e-03 2.07182323e-03 1.38121552e-03 8.28729291e-03
      6.90607761e-04 7.11326003e-02 9.66850854e-03 4.14364645e-03
      3.45303863e-03 5.52486209e-03 4.83425427e-03 2.27900557e-02
      4.83425427e-03 6.21546945e-03 3.45303863e-03 4.14364645e-03
      2.76243105e-03 8.28729291e-03 5.52486209e-03 1.03591159e-02
      1.10497242e-02 6.90607727e-03 2.76243105e-03 4.83425427e-03
      4.83425427e-03 2.07182323e-03 1.03591159e-02 1.24309389e-02
      1.38121552e-03 1.24309389e-02 1.93370171e-02 2.76243105e-03
      6.21546945e-03 2.07182318e-02 2.76243105e-03 4.83425427e-03
      4.14364645e-03 6.90607727e-03 3.17679569e-02 1.24309389e-02
      5.52486209e-03 1.03591159e-02 9.66850854e-03 1.10497242e-02
      6.21546945e-03 2.27900557e-02 4.14364645e-03 3.45303863e-03
      2.69337017e-02 5.52486209e-03 1.10497242e-02 2.90055256e-02
      8.28729291e-03 1.10497242e-02 2.07182323e-03 6.90607727e-03</_>
    <_>
      1.24031007e-02 7.75193796e-03 4.65116277e-03 2.01550387e-02
      1.55038759e-03 4.65116277e-03 7.75193796e-03 9.30232555e-03
      4.65116277e-03 1.08527131e-02 3.10077518e-03 1.70542635e-02
      1.08527131e-02 6.20155036e-03 0. 4.65116277e-03 1.70542635e-02
      2.32558139e-02 7.75193796e-03 1.39534883e-02 2.48062015e-02 0.
      3.10077518e-03 3.10077518e-03 3.10077518e-03 9.30232555e-03
      5.58139533e-02 1.24031007e-02 1.24031007e-02 1.24031007e-02
      4.65116277e-03 1.55038759e-03 1.39534883e-02 4.65116277e-03
      7.75193796e-03 6.20155036e-03 7.75193796e-03 1.39534883e-02
      6.20155036e-03 1.55038759e-02 4.49612401e-02 9.30232555e-03
      4.65116277e-03 1.55038759e-03 9.30232555e-03 6.20155036e-03
      3.10077518e-03 4.65116277e-03 1.24031007e-02 5.42635657e-02
      3.10077518e-03 0. 7.75193796e-03 9.30232555e-03 9.30232555e-03
      1.39534883e-02 4.65116277e-03 1.08527131e-02 6.20155036e-03
      1.39534883e-02 7.75193796e-03 4.65116277e-03 3.10077518e-03
      6.20155036e-03 7.75193796e-03 7.75193796e-03 4.65116277e-03
      6.20155036e-03 4.65116277e-03 1.55038759e-03 7.75193796e-03
      7.75193796e-03 6.20155036e-03 4.65116277e-03 1.08527131e-02
      9.30232555e-03 3.10077518e-03 1.39534883e-02 3.10077518e-03
      4.65116277e-03 7.75193796e-03 1.70542635e-02 1.86046511e-02
      2.48062015e-02 3.10077518e-03 4.65116277e-03 1.86046511e-02
      1.55038759e-03 4.65116277e-03 7.75193796e-03 3.10077518e-03
      9.30232555e-03 4.03100774e-02 2.79069766e-02 1.08527131e-02
      1.39534883e-02 6.20155036e-03 1.08527131e-02 0. 7.75193796e-03</_>
    <_>
      6.58761524e-03 3.95256933e-03 4.61133057e-03 1.31752305e-02
      1.44927539e-02 5.92885353e-03 3.29380762e-03 1.84453223e-02
      7.90513866e-03 5.92885353e-03 4.61133057e-03 1.51515156e-02
      9.88142285e-03 5.27009228e-03 1.97628466e-03 4.61133057e-03
      9.88142285e-03 7.24637695e-03 1.58102773e-02 7.90513866e-03
      7.24637695e-03 3.95256933e-03 7.24637695e-03 1.18577071e-02
      1.31752307e-03 9.22266115e-03 3.95256914e-02 3.29380762e-03
      4.61133057e-03 7.90513866e-03 8.56389944e-03 2.04216074e-02
      2.23978925e-02 3.95256933e-03 1.05401846e-02 5.27009228e-03
      1.71277989e-02 2.17391308e-02 7.90513866e-03 2.04216074e-02
      2.63504609e-02 1.44927539e-02 5.92885353e-03 0. 1.31752307e-03
      3.29380762e-03 3.95256933e-03 8.56389944e-03 7.24637695e-03
      7.50988126e-02 4.61133057e-03 3.29380762e-03 2.63504614e-03
      3.29380762e-03 5.27009228e-03 1.71277989e-02 5.92885353e-03
      2.63504614e-03 7.90513866e-03 9.22266115e-03 5.27009228e-03
      8.56389944e-03 3.95256933e-03 5.27009228e-03 9.88142285e-03
      5.92885353e-03 4.61133057e-03 8.56389944e-03 5.27009228e-03
      2.63504614e-03 5.27009228e-03 9.22266115e-03 3.95256933e-03
      1.84453223e-02 3.03030312e-02 6.58761524e-03 3.95256933e-03
      2.30566543e-02 5.92885353e-03 4.61133057e-03 7.90513866e-03
      5.92885353e-03 1.05401846e-02 1.18577071e-02 5.92885353e-03
      4.61133057e-03 1.11989463e-02 6.58761524e-03 7.90513866e-03
      1.51515156e-02 8.56389944e-03 3.29380762e-03 4.80895899e-02
      8.56389944e-03 1.31752305e-02 1.51515156e-02 1.31752305e-02
      1.18577071e-02 2.63504614e-03 7.24637695e-03</_>
    <_>
      5.20833349e-03 6.62878808e-03 2.84090918e-03 9.94318165e-03
      5.68181835e-03 3.78787890e-03 2.84090918e-03 1.75189395e-02
      9.94318165e-03 4.73484863e-03 2.84090918e-03 7.10227294e-03
      5.20833349e-03 3.31439404e-03 5.20833349e-03 3.78787890e-03
      9.46969725e-03 5.68181835e-03 1.18371211e-02 3.78787890e-03
      5.68181835e-03 5.68181835e-03 5.68181835e-03 1.89393945e-02
      3.31439404e-03 1.04166670e-02 1.39678031e-01 1.42045459e-03
      5.20833349e-03 2.84090918e-03 5.68181835e-03 6.15530321e-03
      2.17803027e-02 2.36742431e-03 8.52272753e-03 1.42045459e-03
      5.20833349e-03 1.04166670e-02 5.68181835e-03 5.20833349e-03
      1.23106064e-02 1.13636367e-02 2.36742431e-03 1.89393945e-03
      4.26136376e-03 2.84090918e-03 2.36742431e-03 5.68181835e-03
      4.26136376e-03 1.81344703e-01 5.20833349e-03 1.08901514e-02
      4.73484863e-04 4.26136376e-03 4.73484863e-03 1.75189395e-02
      9.46969725e-04 5.20833349e-03 3.78787890e-03 1.42045459e-02
      6.15530321e-03 3.31439404e-03 3.78787890e-03 1.89393945e-03
      5.20833349e-03 4.73484863e-03 2.84090918e-03 5.68181835e-03
      3.31439404e-03 4.73484863e-04 5.20833349e-03 1.56250000e-02
      6.15530321e-03 9.94318165e-03 1.42045459e-02 2.36742431e-03
      6.62878808e-03 1.23106064e-02 5.20833349e-03 2.84090918e-03
      8.04924220e-03 5.68181835e-03 9.94318165e-03 1.08901514e-02
      2.84090918e-03 1.18371211e-02 6.15530321e-03 7.10227294e-03
      5.68181835e-03 2.03598477e-02 2.84090918e-03 2.36742431e-03
      2.88825762e-02 6.15530321e-03 8.52272753e-03 2.65151523e-02
      6.15530321e-03 7.10227294e-03 1.89393945e-03 8.52272753e-03</_>
    <_>
      7.93650839e-03 4.53514745e-03 5.66893443e-03 1.92743763e-02
      2.26757373e-03 4.53514745e-03 2.26757373e-03 1.47392293e-02
      9.07029491e-03 2.26757373e-03 4.53514745e-03 5.66893443e-03
      9.07029491e-03 2.26757373e-03 3.40136047e-03 6.80272095e-03
      4.53514745e-03 1.81405898e-02 7.93650839e-03 6.80272095e-03
      3.40136047e-03 3.40136047e-03 1.13378686e-03 4.53514745e-03
      3.40136047e-03 2.04081628e-02 1.45124719e-01 1.13378686e-03 0.
      5.66893443e-03 2.26757373e-03 7.93650839e-03 2.94784587e-02
      6.80272095e-03 1.13378686e-03 9.07029491e-03 1.47392293e-02
      2.49433108e-02 1.13378689e-02 1.36054419e-02 1.92743763e-02
      4.53514745e-03 4.53514745e-03 3.40136047e-03 4.53514745e-03 0.
      3.40136047e-03 5.66893443e-03 3.40136047e-03 1.20181404e-01
      3.40136047e-03 1.24716554e-02 1.02040814e-02 1.02040814e-02
      2.26757373e-03 6.80272095e-03 4.53514745e-03 3.40136047e-03 0.
      1.24716554e-02 2.26757373e-03 6.80272095e-03 3.40136047e-03
      2.26757373e-03 3.40136047e-03 1.13378686e-03 4.53514745e-03 0.
      4.53514745e-03 2.26757373e-03 3.40136047e-03 1.13378689e-02
      4.53514745e-03 2.15419494e-02 1.13378689e-02 4.53514745e-03
      3.40136047e-03 1.13378689e-02 2.26757373e-03 2.26757373e-03
      9.07029491e-03 1.58730168e-02 2.94784587e-02 7.93650839e-03
      1.47392293e-02 2.26757373e-03 6.80272095e-03 1.02040814e-02
      3.40136047e-03 1.02040814e-02 6.80272095e-03 3.40136047e-03
      2.60770973e-02 1.36054419e-02 7.93650839e-03 2.15419494e-02
      6.80272095e-03 1.02040814e-02 0. 1.13378686e-03</_>
    <_>
      6.66666683e-03 3.33333341e-03 3.33333341e-03 9.99999978e-03
      6.66666683e-03 3.33333341e-03 6.66666683e-03 3.33333341e-03
      3.33333341e-03 0. 1.66666675e-02 1.33333337e-02 9.99999978e-03
      3.33333341e-03 0. 1.66666675e-02 1.99999996e-02 6.66666683e-03
      1.99999996e-02 9.99999978e-03 6.66666683e-03 3.33333341e-03
      1.33333337e-02 1.66666675e-02 3.33333341e-03 3.33333341e-03
      6.66666683e-03 0. 3.33333341e-03 2.33333334e-02 1.99999996e-02
      1.99999996e-02 2.33333334e-02 0. 6.66666683e-03 1.33333337e-02
      1.33333337e-02 0. 2.33333334e-02 3.33333351e-02 2.33333334e-02
      6.66666683e-03 1.33333337e-02 3.33333341e-03 9.99999978e-03
      3.33333341e-03 6.66666683e-03 1.33333337e-02 3.33333341e-03
      9.99999978e-03 1.99999996e-02 3.33333341e-03 6.66666683e-03
      6.66666683e-03 0. 2.99999993e-02 0. 3.33333341e-03 1.33333337e-02
      6.66666683e-03 3.33333341e-03 9.99999978e-03 3.33333341e-03
      6.66666683e-03 9.99999978e-03 6.66666683e-03 6.66666683e-03
      6.66666683e-03 1.66666675e-02 0. 6.66666683e-03 3.99999991e-02
      6.66666683e-03 1.99999996e-02 3.33333341e-03 6.66666683e-03 0.
      2.66666673e-02 6.66666683e-03 6.66666683e-03 0. 6.66666683e-03
      1.33333337e-02 1.66666675e-02 6.66666683e-03 6.66666683e-03
      1.66666675e-02 2.33333334e-02 3.33333341e-03 9.99999978e-03
      6.66666683e-03 0. 1.33333337e-02 2.99999993e-02 6.66666683e-03
      1.66666675e-02 1.66666675e-02 6.66666683e-03 3.33333341e-03
      2.33333334e-02</_>
    <_>
      4.66200477e-03 4.66200477e-03 2.33100238e-03 1.22377621e-02
      1.34032629e-02 4.07925388e-03 2.91375280e-03 1.04895104e-02
      8.74125864e-03 4.07925388e-03 1.74825173e-03 9.32400953e-03
      5.82750561e-03 4.66200477e-03 2.91375280e-03 4.66200477e-03
      1.80652682e-02 8.15850776e-03 6.41025649e-03 4.66200477e-03
      2.91375280e-03 4.66200477e-03 2.33100238e-03 1.28205130e-02
      4.07925388e-03 1.28205130e-02 6.41025677e-02 5.82750596e-04
      9.90675949e-03 1.22377621e-02 4.07925388e-03 1.74825173e-02
      5.01165502e-02 5.82750561e-03 6.99300691e-03 1.16550119e-03
      1.28205130e-02 1.10722613e-02 6.41025649e-03 1.86480191e-02
      2.03962699e-02 5.24475519e-03 0. 2.33100238e-03 3.49650346e-03
      2.33100238e-03 2.91375280e-03 1.34032629e-02 3.49650346e-03
      8.91608372e-02 9.32400953e-03 3.49650346e-03 5.82750596e-04
      2.91375280e-03 4.07925388e-03 9.32400953e-03 7.57575780e-03
      3.49650346e-03 4.66200477e-03 4.66200477e-03 1.74825173e-03
      8.74125864e-03 3.49650346e-03 6.99300691e-03 3.49650346e-03
      4.07925388e-03 2.91375280e-03 2.91375280e-03 9.32400953e-03
      1.74825173e-03 6.99300691e-03 5.24475519e-03 4.07925388e-03
      1.86480191e-02 3.55477855e-02 4.07925388e-03 5.82750561e-03
      4.60372977e-02 3.49650346e-03 5.24475519e-03 4.66200477e-03
      5.24475519e-03 7.57575780e-03 1.16550112e-02 4.07925388e-03 0.
      1.45687647e-02 1.04895104e-02 1.45687647e-02 1.63170155e-02
      1.04895104e-02 6.41025649e-03 6.23543113e-02 2.91375280e-03
      1.45687647e-02 1.86480191e-02 8.74125864e-03 1.10722613e-02
      3.49650346e-03 3.49650346e-03</_>
    <_>
      3.84615385e-03 1.08974362e-02 2.56410264e-03 7.05128210e-03
      6.41025649e-03 5.12820529e-03 4.48717969e-03 1.02564106e-02
      1.15384618e-02 5.76923089e-03 3.20512825e-03 1.47435898e-02
      9.61538497e-03 7.05128210e-03 7.05128210e-03 7.05128210e-03
      8.33333377e-03 7.05128210e-03 8.97435937e-03 3.20512825e-03
      1.92307692e-03 7.69230770e-03 7.69230770e-03 8.97435937e-03
      5.12820529e-03 1.47435898e-02 1.10256411e-01 1.92307692e-03
      8.97435937e-03 7.69230770e-03 1.21794874e-02 7.05128210e-03
      1.73076931e-02 8.97435937e-03 1.15384618e-02 2.56410264e-03
      8.97435937e-03 8.97435937e-03 1.15384618e-02 1.34615386e-02
      1.41025642e-02 1.47435898e-02 3.84615385e-03 4.48717969e-03
      4.48717969e-03 3.20512825e-03 7.05128210e-03 8.97435937e-03
      5.12820529e-03 7.11538494e-02 1.34615386e-02 7.05128210e-03
      4.48717969e-03 3.84615385e-03 7.69230770e-03 1.79487187e-02
      5.12820529e-03 5.12820529e-03 4.48717969e-03 8.97435937e-03
      5.76923089e-03 1.41025642e-02 1.02564106e-02 6.41025649e-03
      3.20512825e-03 8.33333377e-03 7.05128210e-03 3.20512825e-03
      3.84615385e-03 1.28205132e-03 6.41025649e-03 1.92307699e-02
      2.56410264e-03 8.97435937e-03 8.97435937e-03 6.41025649e-03
      3.20512825e-03 1.21794874e-02 5.76923089e-03 4.48717969e-03
      2.56410264e-03 1.02564106e-02 4.93589751e-02 1.02564106e-02
      7.05128210e-03 8.97435937e-03 5.76923089e-03 1.02564106e-02
      7.05128210e-03 1.34615386e-02 8.33333377e-03 4.48717969e-03
      2.05128212e-02 3.84615385e-03 7.05128210e-03 2.17948724e-02
      1.02564106e-02 9.61538497e-03 1.92307692e-03 8.33333377e-03</_>
    <_>
      7.05645140e-03 7.05645140e-03 2.01612897e-03 1.91532262e-02
      9.07258037e-03 1.00806449e-03 3.02419346e-03 1.41129028e-02
      1.00806449e-02 5.04032243e-03 3.02419346e-03 1.10887093e-02
      1.20967738e-02 8.06451589e-03 2.01612897e-03 1.00806449e-03
      1.91532262e-02 1.71370972e-02 1.51209673e-02 5.04032243e-03
      8.06451589e-03 6.04838692e-03 7.05645140e-03 1.10887093e-02
      1.00806449e-03 2.11693551e-02 1.03830643e-01 1.00806449e-03 0.
      8.06451589e-03 9.07258037e-03 8.06451589e-03 5.14112897e-02
      6.04838692e-03 9.07258037e-03 4.03225794e-03 2.11693551e-02
      2.11693551e-02 1.20967738e-02 1.91532262e-02 2.11693551e-02
      5.04032243e-03 2.01612897e-03 0. 4.03225794e-03 1.00806449e-03 0.
      1.00806449e-03 5.04032243e-03 5.44354841e-02 1.31048383e-02
      6.04838692e-03 6.04838692e-03 8.06451589e-03 3.02419346e-03
      8.06451589e-03 1.00806449e-03 2.01612897e-03 4.03225794e-03
      6.04838692e-03 3.02419346e-03 6.04838692e-03 3.02419346e-03
      5.04032243e-03 7.05645140e-03 1.51209673e-02 6.04838692e-03
      5.04032243e-03 1.00806449e-03 0. 5.04032243e-03 1.81451607e-02
      9.07258037e-03 1.20967738e-02 2.11693551e-02 4.03225794e-03
      1.20967738e-02 1.00806449e-02 5.04032243e-03 3.02419346e-03
      4.03225794e-03 9.07258037e-03 3.12500000e-02 1.61290318e-02
      3.02419346e-03 6.04838692e-03 1.41129028e-02 1.51209673e-02
      3.02419346e-03 2.21774187e-02 1.00806449e-03 7.05645140e-03
      1.20967738e-02 8.06451589e-03 8.06451589e-03 7.05645140e-03
      6.04838692e-03 1.41129028e-02 4.03225794e-03 6.04838692e-03</_>
    <_>
      8.98410473e-03 1.10573601e-02 2.76434002e-03 8.98410473e-03
      8.29301961e-03 4.14650980e-03 1.03662750e-02 6.91084983e-03
      1.45127848e-02 5.52868005e-03 6.21976517e-03 9.67518985e-03
      8.98410473e-03 1.10573601e-02 2.76434002e-03 6.21976517e-03
      3.24809961e-02 1.10573601e-02 1.10573601e-02 7.60193495e-03
      4.83759493e-03 6.21976517e-03 6.91084983e-03 1.38216997e-02
      3.45542491e-03 8.29301961e-03 5.66689707e-02 2.07325490e-03
      2.76434002e-03 1.24395303e-02 6.91084983e-03 1.10573601e-02
      2.14236360e-02 4.83759493e-03 8.98410473e-03 6.21976517e-03
      1.03662750e-02 1.10573601e-02 9.67518985e-03 1.52038699e-02
      1.86592955e-02 6.21976517e-03 6.91085006e-04 6.91085006e-04
      6.91084983e-03 6.21976517e-03 7.60193495e-03 4.83759493e-03
      2.76434002e-03 4.21561860e-02 6.91084983e-03 1.10573601e-02
      4.14650980e-03 2.76434002e-03 5.52868005e-03 8.98410473e-03
      6.21976517e-03 2.76434002e-03 4.14650980e-03 1.03662750e-02
      4.83759493e-03 4.14650980e-03 6.21976517e-03 6.91084983e-03
      4.83759493e-03 8.98410473e-03 6.21976517e-03 2.07325490e-03
      6.21976517e-03 3.45542491e-03 9.67518985e-03 1.17484452e-02
      1.31306155e-02 1.65860392e-02 2.90255696e-02 4.83759493e-03
      4.83759493e-03 2.90255696e-02 2.76434002e-03 2.07325490e-03
      6.91084983e-03 9.67518985e-03 2.41879746e-02 1.45127848e-02
      7.60193495e-03 4.83759493e-03 1.79682095e-02 1.52038699e-02
      1.03662750e-02 1.03662750e-02 6.21976517e-03 5.52868005e-03
      4.63026948e-02 9.67518985e-03 2.07325500e-02 1.31306155e-02
      6.91084983e-03 1.17484452e-02 2.07325490e-03 6.91084983e-03</_>
    <_>
      8.59950855e-03 6.14250591e-03 3.68550373e-03 1.47420149e-02 0. 0.
      1.22850121e-03 1.96560193e-02 7.37100746e-03 1.35135138e-02
      2.45700241e-03 9.82800964e-03 2.21130215e-02 2.45700241e-03
      3.68550373e-03 6.14250591e-03 1.22850118e-02 8.59950855e-03
      1.71990171e-02 2.45700241e-03 1.47420149e-02 8.59950855e-03
      1.22850121e-03 7.37100746e-03 3.68550373e-03 3.31695341e-02
      7.12530687e-02 3.68550373e-03 3.68550373e-03 1.35135138e-02
      1.10565107e-02 4.91400482e-03 2.21130215e-02 1.59705151e-02
      6.14250591e-03 2.45700241e-03 4.91400482e-03 2.94840299e-02
      6.14250591e-03 4.91400482e-03 1.22850118e-02 1.22850121e-03
      3.68550373e-03 2.45700241e-03 1.47420149e-02 1.22850121e-03
      1.22850121e-03 3.68550373e-03 0. 7.00245723e-02 8.59950855e-03
      9.82800964e-03 4.91400482e-03 1.84275191e-02 3.68550373e-03
      1.59705151e-02 8.59950855e-03 1.10565107e-02 7.37100746e-03
      9.82800964e-03 7.37100746e-03 9.82800964e-03 6.14250591e-03
      4.91400482e-03 2.45700241e-03 2.45700241e-03 3.68550373e-03
      2.45700241e-03 4.91400482e-03 2.45700241e-03 4.91400482e-03
      1.84275191e-02 2.45700241e-03 2.45700241e-03 1.22850118e-02
      8.59950855e-03 7.37100746e-03 8.59950855e-03 3.68550373e-03
      6.14250591e-03 3.68550373e-03 1.59705151e-02 5.77395596e-02
      2.21130215e-02 9.82800964e-03 6.14250591e-03 9.82800964e-03
      1.22850121e-03 3.68550373e-03 7.37100746e-03 3.68550373e-03
      3.68550373e-03 3.80835384e-02 1.10565107e-02 8.59950855e-03
      1.47420149e-02 3.68550373e-03 1.35135138e-02 0. 3.68550373e-03</_>
    <_>
      9.85221658e-03 0. 0. 4.92610829e-03 2.46305410e-02 0.
      4.92610829e-03 0. 1.97044332e-02 9.85221658e-03 4.92610829e-03
      4.92610829e-03 9.85221658e-03 4.92610829e-03 4.92610829e-03
      9.85221658e-03 2.46305410e-02 1.47783253e-02 3.44827585e-02 0.
      2.46305410e-02 0. 0. 1.47783253e-02 0. 9.85221658e-03
      5.91133013e-02 0. 4.92610829e-03 4.92610829e-03 4.92610829e-03
      1.47783253e-02 2.95566507e-02 0. 1.97044332e-02 1.47783253e-02
      3.44827585e-02 9.85221658e-03 9.85221658e-03 2.46305410e-02
      3.44827585e-02 9.85221658e-03 4.92610829e-03 0. 9.85221658e-03 0.
      0. 4.92610829e-03 9.85221658e-03 0. 9.85221658e-03 4.92610829e-03
      0. 9.85221658e-03 9.85221658e-03 4.92610829e-03 0. 4.92610829e-03
      9.85221658e-03 0. 1.47783253e-02 4.92610829e-03 9.85221658e-03 0.
      4.92610829e-03 0. 0. 4.92610829e-03 4.92610829e-03 0.
      4.92610829e-03 5.91133013e-02 4.92610829e-03 3.44827585e-02
      9.85221658e-03 0. 0. 9.85221658e-03 1.47783253e-02 9.85221658e-03
      4.92610829e-03 9.85221658e-03 3.44827585e-02 0. 4.92610829e-03
      4.92610829e-03 2.46305410e-02 3.44827585e-02 0. 1.47783253e-02 0.
      4.92610829e-03 4.92610829e-03 4.92610829e-03 4.92610829e-03
      4.43349741e-02 0. 1.47783253e-02 0. 0.</_>
    <_>
      1.17994100e-02 2.94985250e-03 1.76991150e-02 3.83480825e-02 0. 0.
      5.89970499e-03 1.17994100e-02 5.89970499e-03 2.94985250e-03 0.
      5.89970499e-03 1.17994100e-02 8.84955749e-03 0. 2.94985250e-03
      2.35988200e-02 2.35988200e-02 1.17994100e-02 2.94985250e-03
      1.47492625e-02 5.89970499e-03 0. 5.89970499e-03 5.89970499e-03
      2.35988200e-02 9.43952799e-02 2.94985250e-03 5.89970499e-03
      8.84955749e-03 2.94985250e-03 1.76991150e-02 3.24483775e-02
      2.94985250e-03 2.94985250e-03 1.47492625e-02 1.47492625e-02
      1.76991150e-02 1.47492625e-02 1.76991150e-02 2.06489675e-02
      2.94985250e-03 2.94985250e-03 8.84955749e-03 5.89970499e-03 0.
      5.89970499e-03 5.89970499e-03 2.94985250e-03 1.17994100e-02
      5.89970499e-03 2.94985250e-03 5.89970499e-03 5.89970499e-03
      2.94985250e-03 2.06489675e-02 0. 2.94985250e-03 0. 2.35988200e-02
      2.94985250e-03 2.94985250e-03 8.84955749e-03 5.89970499e-03 0.
      5.89970499e-03 5.89970499e-03 5.89970499e-03 2.94985250e-03
      5.89970499e-03 5.89970499e-03 1.47492625e-02 5.89970499e-03
      5.89970499e-03 1.47492625e-02 1.17994100e-02 0. 2.35988200e-02
      8.84955749e-03 2.94985250e-03 0. 0. 4.12979349e-02 1.17994100e-02
      2.94985250e-03 1.47492625e-02 1.17994100e-02 1.47492625e-02
      5.89970499e-03 8.84955749e-03 0. 2.94985250e-03 3.83480825e-02
      2.94985250e-03 1.17994100e-02 2.06489675e-02 1.17994100e-02
      5.89970499e-03 5.89970499e-03 1.17994100e-02</_>
    <_>
      5.20833349e-03 1.04166670e-02 0. 2.08333340e-02 0. 5.20833349e-03
      0. 1.56250000e-02 2.08333340e-02 1.04166670e-02 5.20833349e-03
      3.12500000e-02 1.56250000e-02 0. 0. 1.56250000e-02 4.68750000e-02
      1.56250000e-02 2.60416660e-02 0. 2.08333340e-02 0. 0.
      1.56250000e-02 0. 1.56250000e-02 2.08333340e-02 0. 0.
      2.08333340e-02 0. 2.60416660e-02 3.12500000e-02 5.20833349e-03
      1.04166670e-02 5.20833349e-03 3.12500000e-02 2.08333340e-02
      2.08333340e-02 1.56250000e-02 0. 2.08333340e-02 0. 5.20833349e-03
      0. 0. 0. 5.20833349e-03 0. 1.56250000e-02 1.56250000e-02
      1.04166670e-02 5.20833349e-03 0. 0. 1.04166670e-02 1.04166670e-02
      0. 5.20833349e-03 5.20833349e-03 1.04166670e-02 0. 1.04166670e-02
      0. 1.56250000e-02 1.04166670e-02 5.20833349e-03 1.56250000e-02 0.
      0. 1.56250000e-02 4.16666679e-02 0. 1.56250000e-02 1.04166670e-02
      0. 0. 2.08333340e-02 0. 0. 5.20833349e-03 0. 3.64583321e-02
      5.20833349e-03 1.04166670e-02 1.56250000e-02 1.56250000e-02
      1.04166670e-02 0. 2.08333340e-02 0. 0. 1.04166670e-02
      1.04166670e-02 0. 6.25000000e-02 0. 5.20833349e-03 0.
      5.20833349e-03</_>
    <_>
      1.25419935e-02 3.35946260e-03 7.16685317e-03 1.47816353e-02
      5.37513988e-03 3.13549838e-03 5.37513988e-03 1.94848832e-02
      8.06271005e-03 3.80739081e-03 4.25531901e-03 5.37513988e-03
      1.52295632e-02 3.58342659e-03 8.51063803e-03 5.37513988e-03
      6.04703231e-03 4.92721144e-03 8.06271005e-03 4.70324745e-03
      9.63045936e-03 5.82306832e-03 2.23964173e-03 9.18253046e-03
      5.59910433e-03 9.40649491e-03 9.47368443e-02 4.70324745e-03
      8.95856647e-04 3.58342659e-03 1.97088458e-02 1.09742442e-02
      1.03023518e-02 1.79171339e-02 6.94288919e-03 9.18253046e-03
      4.70324745e-03 1.34378504e-02 7.83874560e-03 5.59910433e-03
      2.19484884e-02 6.49496075e-03 3.80739081e-03 3.58342659e-03
      9.85442288e-03 4.70324745e-03 7.16685317e-03 5.37513988e-03
      7.39081763e-03 8.06270987e-02 4.70324745e-03 1.72452405e-02
      7.16685317e-03 1.09742442e-02 4.47928347e-03 8.06271005e-03
      6.04703231e-03 6.04703231e-03 4.25531901e-03 5.15117589e-03
      4.25531901e-03 9.40649491e-03 7.39081763e-03 5.15117589e-03
      4.92721144e-03 6.27099676e-03 1.20940646e-02 7.16685317e-03
      4.47928347e-03 2.23964173e-03 5.15117589e-03 1.63493846e-02
      4.70324745e-03 7.61478161e-03 1.72452405e-02 4.47928347e-03
      1.20940646e-02 8.28667451e-03 4.25531901e-03 3.13549838e-03
      1.41097428e-02 2.77715567e-02 1.99328102e-02 2.21724529e-02
      6.49496075e-03 2.46360572e-03 6.49496075e-03 8.06271005e-03
      3.80739081e-03 8.06271005e-03 4.70324745e-03 6.71892520e-03
      3.80739085e-02 1.32138859e-02 1.32138859e-02 1.11982087e-02
      4.92721144e-03 7.83874560e-03 3.35946260e-03 4.03135503e-03</_>
    <_>
      9.37577058e-03 4.93461639e-03 8.38884804e-03 1.35701951e-02
      1.08561562e-02 4.19442402e-03 7.15519348e-03 1.38169257e-02
      7.89538585e-03 9.62250214e-03 6.16827048e-03 6.41500112e-03
      1.35701951e-02 6.41500112e-03 7.89538585e-03 5.42807812e-03
      3.94769292e-03 9.37577058e-03 9.12903994e-03 6.41500112e-03
      8.38884804e-03 7.89538585e-03 7.15519348e-03 6.66173222e-03
      5.42807812e-03 1.65309645e-02 7.13052079e-02 1.01159634e-02
      3.70096229e-03 7.40192458e-03 1.45571185e-02 7.89538585e-03
      1.57907717e-02 1.06094247e-02 6.90846285e-03 1.06094247e-02
      5.67480875e-03 1.65309645e-02 8.88230931e-03 5.67480875e-03
      2.56600045e-02 8.14211741e-03 4.93461639e-03 4.93461639e-03
      7.89538585e-03 6.16827048e-03 8.88230931e-03 4.44115466e-03
      1.11028869e-02 8.01875144e-02 3.20750056e-03 1.65309645e-02
      5.92153938e-03 8.63557868e-03 7.40192458e-03 3.94769292e-03
      7.64865521e-03 1.03626940e-02 2.96076969e-03 4.44115466e-03
      6.90846285e-03 9.37577058e-03 9.62250214e-03 4.68788529e-03
      5.18134702e-03 4.19442402e-03 1.11028869e-02 6.41500112e-03
      8.14211741e-03 3.20750056e-03 6.41500112e-03 1.25832716e-02
      5.92153938e-03 7.40192458e-03 1.11028869e-02 6.16827048e-03
      1.11028869e-02 5.42807812e-03 3.70096229e-03 7.64865521e-03
      1.01159634e-02 1.52973104e-02 2.68936586e-02 1.35701951e-02
      8.63557868e-03 4.93461639e-03 1.18430788e-02 8.14211741e-03
      2.71403906e-03 7.89538585e-03 5.18134702e-03 7.15519348e-03
      2.24525034e-02 1.03626940e-02 1.11028869e-02 1.60375033e-02
      6.41500112e-03 8.88230931e-03 3.45423142e-03 6.90846285e-03</_>
    <_>
      3.75586865e-03 7.51173729e-03 1.87793432e-03 9.38967150e-03
      4.69483575e-03 1.87793432e-03 2.81690131e-03 2.25352105e-02
      1.50234746e-02 2.81690131e-03 2.81690131e-03 3.75586865e-03
      1.78403761e-02 3.75586865e-03 7.51173729e-03 4.69483575e-03
      7.51173729e-03 7.51173729e-03 1.22065730e-02 9.38967161e-04
      3.75586865e-03 1.87793432e-03 3.75586865e-03 1.69014093e-02
      1.87793432e-03 8.45070463e-03 8.63849744e-02 3.75586865e-03
      1.69014093e-02 6.57276995e-03 9.38967150e-03 3.28638479e-02
      1.87793430e-02 9.38967150e-03 1.03286384e-02 1.87793432e-03
      4.69483575e-03 1.12676052e-02 6.57276995e-03 1.12676052e-02
      2.34741792e-02 1.40845068e-02 5.63380262e-03 1.87793432e-03
      5.63380262e-03 8.45070463e-03 5.63380262e-03 3.75586865e-03
      4.69483575e-03 8.45070407e-02 1.12676052e-02 3.75586865e-03
      2.81690131e-03 7.51173729e-03 4.69483575e-03 1.31455399e-02
      4.69483575e-03 3.75586865e-03 2.81690131e-03 1.03286384e-02
      1.87793432e-03 1.87793432e-03 9.38967150e-03 3.75586865e-03
      1.03286384e-02 7.51173729e-03 1.87793432e-03 9.38967161e-04
      9.38967150e-03 1.87793432e-03 8.45070463e-03 5.63380262e-03
      3.75586865e-03 2.81690136e-02 2.15962436e-02 1.87793432e-03
      4.69483575e-03 1.50234746e-02 5.63380262e-03 3.75586865e-03
      5.63380262e-03 6.57276995e-03 2.53521129e-02 8.45070463e-03
      5.63380262e-03 2.81690131e-03 4.69483575e-03 9.38967150e-03
      3.75586865e-03 1.31455399e-02 1.59624405e-02 3.75586865e-03
      4.41314541e-02 1.03286384e-02 8.45070463e-03 3.38028185e-02
      5.63380262e-03 8.45070463e-03 3.75586865e-03 2.81690131e-03</_>
    <_>
      8.21508560e-03 1.34428674e-02 2.98730400e-03 5.97460801e-03
      2.24047806e-03 3.73412995e-03 2.98730400e-03 1.12023903e-02
      6.72143372e-03 4.48095612e-03 2.98730400e-03 1.12023903e-02
      8.96191224e-03 1.41896941e-02 2.98730400e-03 7.46825989e-03
      5.22778183e-03 1.12023903e-02 8.96191224e-03 3.73412995e-03
      4.48095612e-03 5.22778183e-03 1.49365200e-03 1.04555637e-02
      2.98730400e-03 6.72143372e-03 8.14040303e-02 2.98730400e-03
      6.72143372e-03 1.19492160e-02 8.21508560e-03 1.12023903e-02
      2.46452577e-02 5.22778183e-03 6.72143372e-03 5.97460801e-03
      3.73412995e-03 2.24047806e-02 5.97460801e-03 8.96191224e-03
      2.61389092e-02 1.56833455e-02 4.48095612e-03 2.24047806e-03
      1.49365200e-03 2.98730400e-03 5.97460801e-03 8.21508560e-03
      2.24047806e-03 9.85810310e-02 1.04555637e-02 6.72143372e-03
      5.22778183e-03 5.22778183e-03 3.73412995e-03 1.19492160e-02
      5.22778183e-03 1.49365200e-03 3.73412995e-03 5.22778183e-03
      3.73412995e-03 7.46825989e-03 5.97460801e-03 3.73412995e-03
      1.04555637e-02 5.22778183e-03 5.97460801e-03 5.22778183e-03
      5.22778183e-03 2.98730400e-03 5.22778183e-03 1.49365198e-02
      3.73412995e-03 9.70873795e-03 2.16579530e-02 4.48095612e-03
      2.98730400e-03 2.76325624e-02 2.98730400e-03 4.48095612e-03
      5.22778183e-03 3.73412995e-03 1.49365198e-02 1.86706502e-02
      2.24047806e-03 7.46826001e-04 1.19492160e-02 1.26960417e-02 0.
      1.49365198e-02 3.73412995e-03 2.98730400e-03 6.27333820e-02
      8.21508560e-03 2.76325624e-02 2.38984320e-02 7.46825989e-03
      1.34428674e-02 1.49365200e-03 5.97460801e-03</_>
    <_>
      0. 2.08333340e-02 0. 1.04166670e-02 3.12500000e-02 1.04166670e-02
      0. 2.08333340e-02 0. 0. 0. 0. 2.08333340e-02 1.04166670e-02 0. 0.
      5.20833321e-02 0. 2.08333340e-02 0. 0. 0. 0. 1.04166670e-02
      2.08333340e-02 0. 0. 0. 0. 4.16666679e-02 0. 5.20833321e-02
      5.20833321e-02 0. 0. 0. 4.16666679e-02 1.04166670e-02
      1.04166670e-02 5.20833321e-02 3.12500000e-02 2.08333340e-02 0.
      1.04166670e-02 0. 1.04166670e-02 0. 0. 0. 3.12500000e-02
      3.12500000e-02 2.08333340e-02 0. 0. 0. 3.12500000e-02 0. 0. 0.
      1.04166670e-02 0. 0. 0. 0. 0. 1.04166670e-02 1.04166670e-02 0. 0.
      0. 1.04166670e-02 5.20833321e-02 0. 2.08333340e-02 0.
      1.04166670e-02 0. 2.08333340e-02 1.04166670e-02 0. 0.
      1.04166670e-02 0. 0. 0. 0. 3.12500000e-02 1.04166670e-02 0.
      2.08333340e-02 1.04166670e-02 0. 0. 1.04166670e-02 0.
      6.25000000e-02 0. 0. 0. 1.04166670e-02</_>
    <_>
      0. 0. 0. 0. 1.49253728e-02 0. 0. 7.46268639e-03 1.49253728e-02 0.
      0. 1.49253728e-02 0. 0. 7.46268639e-03 0. 2.23880596e-02 0.
      2.23880596e-02 7.46268639e-03 0. 7.46268639e-03 7.46268639e-03
      2.98507456e-02 0. 0. 0. 0. 0. 2.23880596e-02 0. 1.49253728e-02
      2.98507456e-02 7.46268639e-03 0. 7.46268639e-03 4.47761193e-02
      7.46268639e-03 3.73134315e-02 7.46268630e-02 2.23880596e-02
      7.46268639e-03 0. 0. 7.46268639e-03 0. 0. 0. 0. 1.49253728e-02
      4.47761193e-02 1.49253728e-02 0. 7.46268639e-03 0. 2.98507456e-02
      0. 1.49253728e-02 0. 2.23880596e-02 0. 0. 0. 0. 0. 0.
      2.23880596e-02 7.46268639e-03 0. 0. 1.49253728e-02 5.22388071e-02
      0. 3.73134315e-02 0. 7.46268639e-03 0. 2.23880596e-02 0. 0. 0. 0.
      7.46268639e-03 1.49253728e-02 7.46268639e-03 2.23880596e-02
      1.49253728e-02 0. 7.46268639e-03 3.73134315e-02 0. 1.49253728e-02
      1.49253728e-02 7.46268639e-03 0. 3.73134315e-02 2.23880596e-02
      2.98507456e-02 0. 7.46268639e-03</_>
    <_>
      7.26978993e-03 1.61550883e-02 2.42326339e-03 1.05008073e-02
      4.84652678e-03 5.65428101e-03 1.61550893e-03 8.88529886e-03
      8.07754416e-03 7.26978993e-03 3.23101785e-03 8.88529886e-03
      1.05008073e-02 8.07754416e-03 2.42326339e-03 4.84652678e-03
      1.21163167e-02 8.88529886e-03 8.07754416e-03 0. 4.84652678e-03
      5.65428101e-03 4.84652678e-03 8.88529886e-03 8.07754463e-04
      1.69628430e-02 7.91599378e-02 3.23101785e-03 5.65428101e-03
      8.88529886e-03 9.69305355e-03 8.88529886e-03 2.26171240e-02
      1.61550893e-03 1.13085620e-02 2.42326339e-03 6.46203570e-03
      2.98869144e-02 1.37318252e-02 1.29240714e-02 2.42326334e-02
      1.53473346e-02 4.03877208e-03 2.42326339e-03 4.03877208e-03
      8.07754463e-04 2.42326339e-03 7.26978993e-03 4.84652678e-03
      9.45072696e-02 6.46203570e-03 3.23101785e-03 8.07754416e-03
      4.03877208e-03 4.03877208e-03 1.61550883e-02 4.03877208e-03
      1.61550893e-03 8.07754416e-03 4.03877208e-03 6.46203570e-03
      6.46203570e-03 8.88529886e-03 3.23101785e-03 8.07754416e-03
      4.03877208e-03 4.03877208e-03 4.03877208e-03 5.65428101e-03
      8.07754463e-04 4.84652678e-03 1.05008073e-02 3.23101785e-03
      1.69628430e-02 2.82714050e-02 4.03877208e-03 5.65428101e-03
      2.74636503e-02 3.23101785e-03 4.84652678e-03 4.84652678e-03
      5.65428101e-03 1.45395799e-02 1.69628430e-02 7.26978993e-03
      8.07754463e-04 1.21163167e-02 1.21163167e-02 1.61550893e-03
      1.21163167e-02 3.23101785e-03 2.42326339e-03 5.16962856e-02
      1.61550893e-03 2.82714050e-02 2.18093693e-02 4.84652678e-03
      1.45395799e-02 2.42326339e-03 2.42326339e-03</_>
    <_>
      0. 8.43881816e-03 4.21940908e-03 8.43881816e-03 8.43881816e-03 0.
      4.21940908e-03 1.68776363e-02 1.26582282e-02 4.21940908e-03 0.
      8.43881816e-03 1.68776363e-02 1.26582282e-02 0. 2.53164563e-02
      2.10970473e-02 2.53164563e-02 3.79746817e-02 4.21940908e-03
      1.26582282e-02 4.21940908e-03 4.21940908e-03 8.43881816e-03
      4.21940908e-03 4.21940945e-02 2.53164563e-02 0. 0. 4.21940908e-03
      0. 3.37552726e-02 2.53164563e-02 1.26582282e-02 0. 4.21940908e-03
      2.95358654e-02 1.26582282e-02 2.10970473e-02 1.68776363e-02
      3.37552726e-02 8.43881816e-03 4.21940908e-03 0. 0. 0.
      4.21940908e-03 4.21940908e-03 8.43881816e-03 8.43881816e-03
      1.26582282e-02 0. 8.43881816e-03 2.53164563e-02 4.21940908e-03
      8.43881816e-03 8.43881816e-03 0. 0. 8.43881816e-03 0.
      4.21940908e-03 0. 0. 0. 0. 4.21940908e-03 4.21940908e-03 0. 0.
      8.43881816e-03 4.21940945e-02 4.21940908e-03 2.10970473e-02
      8.43881816e-03 4.21940908e-03 1.26582282e-02 2.95358654e-02
      8.43881816e-03 4.21940908e-03 4.21940908e-03 4.21940908e-03
      7.17299581e-02 4.21940908e-03 0. 8.43881816e-03 1.26582282e-02
      1.26582282e-02 4.21940908e-03 4.21940908e-03 0. 0. 1.68776363e-02
      4.21940908e-03 8.43881816e-03 3.37552726e-02 4.21940908e-03
      1.68776363e-02 4.21940908e-03 0.</_>
    <_>
      2.73972610e-03 5.47945220e-03 2.73972610e-03 1.57534238e-02
      5.47945220e-03 2.05479446e-03 1.36986305e-03 4.79452033e-03
      6.84931502e-03 5.47945220e-03 2.05479446e-03 3.42465751e-03
      1.36986300e-02 8.21917783e-03 1.36986305e-03 3.42465751e-03
      1.91780813e-02 8.90410971e-03 4.79452033e-03 6.84931525e-04
      4.10958892e-03 1.36986305e-03 5.47945220e-03 8.90410971e-03 0.
      6.16438361e-03 1.28767118e-01 6.84931525e-04 1.09589044e-02
      1.09589044e-02 4.10958892e-03 8.90410971e-03 4.79452051e-02
      8.90410971e-03 1.02739725e-02 4.10958892e-03 4.79452033e-03
      2.12328769e-02 6.84931502e-03 1.57534238e-02 1.30136991e-02
      9.58904065e-03 6.84931525e-04 2.05479446e-03 2.05479446e-03
      1.36986305e-03 2.05479446e-03 7.53424643e-03 2.05479446e-03
      1.34931505e-01 6.84931502e-03 4.10958892e-03 5.47945220e-03
      6.16438361e-03 6.84931525e-04 7.53424643e-03 1.36986305e-03
      4.79452033e-03 4.10958892e-03 4.10958892e-03 6.84931525e-04
      5.47945220e-03 2.05479446e-03 3.42465751e-03 4.10958892e-03
      4.79452033e-03 2.73972610e-03 3.42465751e-03 3.42465751e-03 0.
      4.10958892e-03 1.30136991e-02 3.42465751e-03 5.47945220e-03
      3.28767113e-02 4.10958892e-03 2.73972610e-03 2.94520557e-02
      2.05479446e-03 3.42465751e-03 2.73972610e-03 2.73972610e-03
      6.16438361e-03 6.16438361e-03 6.16438361e-03 7.53424643e-03
      4.79452033e-03 1.09589044e-02 3.42465751e-03 1.50684929e-02
      4.10958892e-03 5.47945220e-03 8.56164396e-02 6.84931525e-04
      1.71232875e-02 1.78082194e-02 1.09589044e-02 5.47945220e-03 0.
      6.84931502e-03</_>
    <_>
      6.96677389e-03 4.28724522e-03 4.82315104e-03 1.07181137e-02
      8.57449044e-03 6.43086806e-03 6.96677389e-03 9.11039673e-03
      7.50267971e-03 4.82315104e-03 1.07181130e-03 6.96677389e-03
      8.57449044e-03 3.75133986e-03 3.75133986e-03 6.96677389e-03
      4.28724522e-03 5.35905687e-03 1.12540191e-02 4.28724522e-03
      5.89496270e-03 4.82315104e-03 4.28724522e-03 8.57449044e-03
      3.21543403e-03 3.75133986e-03 1.35048226e-01 5.35905687e-03
      6.43086806e-03 4.82315104e-03 5.35905687e-03 2.67952844e-03
      1.44694531e-02 3.21543403e-03 1.33976424e-02 4.82315104e-03
      5.35905687e-03 9.64630209e-03 8.03858507e-03 6.43086806e-03
      1.23258308e-02 3.21543403e-03 5.35905687e-03 4.28724522e-03
      5.89496270e-03 3.75133986e-03 7.50267971e-03 5.89496270e-03
      5.89496270e-03 1.76848873e-01 1.01822084e-02 1.07181137e-02
      5.35905687e-03 2.14362261e-03 7.50267971e-03 1.60771701e-02
      4.82315104e-03 3.75133986e-03 2.67952844e-03 2.14362261e-03
      7.50267971e-03 5.89496270e-03 4.82315104e-03 6.43086806e-03
      1.60771701e-03 2.67952844e-03 5.35905687e-03 5.35905687e-03
      4.82315104e-03 4.28724522e-03 5.89496270e-03 5.89496270e-03
      2.67952844e-03 6.96677389e-03 1.82207935e-02 4.28724522e-03
      6.43086806e-03 1.33976424e-02 4.28724522e-03 1.60771701e-03
      1.17899254e-02 4.82315104e-03 2.84030009e-02 1.28617361e-02
      4.28724522e-03 2.67952844e-03 7.50267971e-03 5.89496270e-03
      4.82315104e-03 1.12540191e-02 6.43086806e-03 6.96677389e-03
      3.96570191e-02 4.82315104e-03 1.17899254e-02 1.66130755e-02
      5.89496270e-03 1.07181137e-02 2.14362261e-03 3.75133986e-03</_>
    <_>
      8.63930862e-03 1.07991360e-02 1.61987043e-03 1.24190068e-02
      7.55939540e-03 2.69978400e-03 2.69978400e-03 1.34989200e-02
      5.93952462e-03 3.23974085e-03 6.47948170e-03 5.93952462e-03
      1.56587474e-02 4.31965431e-03 4.85961139e-03 4.31965431e-03
      1.24190068e-02 1.07991358e-03 1.29589634e-02 4.85961139e-03
      9.17926524e-03 4.31965431e-03 5.39956801e-03 1.18790492e-02
      3.23974085e-03 8.63930862e-03 1.86285093e-01 3.23974085e-03
      3.23974085e-03 4.85961139e-03 5.93952462e-03 8.09935201e-03
      1.51187908e-02 4.85961139e-03 1.18790492e-02 3.77969770e-03
      5.39956801e-03 9.17926524e-03 6.47948170e-03 7.01943832e-03
      1.88984890e-02 9.17926524e-03 0. 2.15982716e-03 7.55939540e-03
      2.15982716e-03 1.07991358e-03 9.17926524e-03 5.39956801e-03
      1.43628508e-01 6.47948170e-03 6.47948170e-03 5.93952462e-03
      2.69978400e-03 3.77969770e-03 2.26781853e-02 3.77969770e-03
      3.23974085e-03 5.93952462e-03 1.61987043e-03 1.07991358e-03
      3.23974085e-03 5.39956801e-03 3.23974085e-03 7.01943832e-03
      4.85961139e-03 7.55939540e-03 4.85961139e-03 1.61987043e-03
      1.61987043e-03 5.93952462e-03 1.40388766e-02 8.63930862e-03
      8.09935201e-03 1.40388766e-02 1.61987043e-03 5.93952462e-03
      1.40388766e-02 3.23974085e-03 1.07991358e-03 9.17926524e-03
      3.77969770e-03 7.01943832e-03 7.55939540e-03 2.69978400e-03
      2.15982716e-03 5.39956801e-03 6.47948170e-03 4.85961139e-03
      1.40388766e-02 7.01943832e-03 4.31965431e-03 3.18574496e-02
      8.63930862e-03 1.29589634e-02 1.51187908e-02 4.85961139e-03
      5.39956801e-03 1.61987043e-03 5.93952462e-03</_>
    <_>
      4.58415179e-03 3.92927323e-03 5.89390984e-03 1.17878197e-02
      7.20366742e-03 3.92927323e-03 1.30975770e-03 1.11329406e-02
      8.51342548e-03 6.54878840e-03 2.61951541e-03 7.85854645e-03
      1.24426978e-02 3.27439420e-03 3.92927323e-03 3.27439420e-03
      1.17878197e-02 7.20366742e-03 7.20366742e-03 4.58415179e-03
      7.20366742e-03 4.58415179e-03 3.27439420e-03 9.82318260e-03
      3.27439420e-03 1.37524558e-02 8.05500969e-02 5.23903081e-03
      1.96463661e-03 3.92927323e-03 5.23903081e-03 2.35756394e-02
      2.48853955e-02 3.92927323e-03 9.16830357e-03 1.04780616e-02
      6.54878840e-03 1.30975768e-02 8.51342548e-03 7.20366742e-03
      2.09561232e-02 3.92927323e-03 1.30975770e-03 1.30975770e-03
      4.58415179e-03 4.58415179e-03 3.27439420e-03 5.89390984e-03
      5.89390984e-03 1.72888011e-01 3.92927323e-03 5.89390984e-03
      3.92927323e-03 7.85854645e-03 2.61951541e-03 3.92927323e-03
      5.89390984e-03 5.89390984e-03 5.89390984e-03 3.92927323e-03
      3.27439420e-03 5.23903081e-03 3.92927323e-03 3.92927323e-03
      4.58415179e-03 6.54878840e-03 4.58415179e-03 6.54878840e-03
      3.27439420e-03 6.54878851e-04 6.54878840e-03 1.17878197e-02
      7.85854645e-03 2.35756394e-02 2.16110013e-02 1.96463661e-03
      4.58415179e-03 1.04780616e-02 7.20366742e-03 3.27439420e-03
      9.82318260e-03 3.92927323e-03 1.44073348e-02 1.17878197e-02
      5.89390984e-03 1.30975770e-03 7.20366742e-03 2.61951541e-03 0.
      8.51342548e-03 5.23903081e-03 1.96463661e-03 6.74525201e-02
      5.23903081e-03 1.30975768e-02 3.01244278e-02 7.20366742e-03
      7.20366742e-03 3.27439420e-03 2.61951541e-03</_>
    <_>
      1.16959065e-02 0. 5.84795326e-03 5.84795326e-03 5.84795326e-03 0.
      5.84795326e-03 5.84795326e-03 5.84795326e-03 0. 0. 5.84795326e-03
      1.16959065e-02 2.33918130e-02 1.16959065e-02 5.84795326e-03
      2.33918130e-02 4.09356728e-02 1.16959065e-02 1.16959065e-02
      5.84795326e-03 0. 0. 5.84795326e-03 0. 1.16959065e-02 0.
      1.16959065e-02 0. 2.92397663e-02 1.16959065e-02 2.33918130e-02
      2.33918130e-02 1.16959065e-02 0. 0. 4.09356728e-02 2.33918130e-02
      1.75438598e-02 1.75438598e-02 5.84795326e-03 5.84795326e-03 0. 0.
      5.84795326e-03 0. 0. 2.92397663e-02 0. 0. 2.92397663e-02
      5.84795326e-03 0. 5.84795326e-03 1.16959065e-02 0. 2.33918130e-02
      0. 1.16959065e-02 5.84795326e-03 0. 5.84795326e-03 5.84795326e-03
      0. 0. 1.75438598e-02 0. 5.84795326e-03 0. 0. 0. 6.43274859e-02 0.
      6.43274859e-02 1.75438598e-02 5.84795326e-03 1.16959065e-02
      5.84795326e-03 5.84795326e-03 2.92397663e-02 0. 5.84795326e-03
      2.33918130e-02 1.75438598e-02 0. 2.33918130e-02 0. 1.16959065e-02
      0. 1.16959065e-02 5.84795326e-03 0. 0. 0. 5.84795326e-03
      6.43274859e-02 0. 1.75438598e-02 0. 5.84795326e-03</_>
    <_>
      5.87199070e-03 9.98238381e-03 6.45918958e-03 1.64415743e-02
      7.63358781e-03 6.45918958e-03 4.69759246e-03 1.52671756e-02
      1.29183792e-02 7.04638893e-03 1.05695827e-02 8.22078716e-03
      7.04638893e-03 9.98238381e-03 5.28479135e-03 5.87199070e-03
      4.69759246e-03 1.05695827e-02 1.11567825e-02 7.04638893e-03
      1.35055780e-02 6.45918958e-03 5.87199070e-03 1.29183792e-02
      3.52319446e-03 1.17439814e-02 6.63534924e-02 7.04638893e-03
      1.35055780e-02 8.80798604e-03 4.69759246e-03 8.22078716e-03
      1.76159721e-02 4.69759246e-03 5.87199070e-03 4.11039358e-03
      7.63358781e-03 7.63358781e-03 8.80798604e-03 1.11567825e-02
      1.23311803e-02 1.46799767e-02 4.69759246e-03 5.28479135e-03
      3.52319446e-03 3.52319446e-03 5.28479135e-03 7.04638893e-03
      8.22078716e-03 6.57662973e-02 8.22078716e-03 7.04638893e-03
      3.52319446e-03 5.28479135e-03 5.28479135e-03 2.17263661e-02
      1.76159723e-03 5.28479135e-03 9.39518493e-03 1.23311803e-02
      6.45918958e-03 1.05695827e-02 5.28479135e-03 6.45918958e-03
      4.69759246e-03 6.45918958e-03 8.22078716e-03 7.63358781e-03
      7.63358781e-03 5.87199058e-04 7.04638893e-03 9.98238381e-03
      5.28479135e-03 1.46799767e-02 2.64239572e-02 2.34879623e-03
      1.35055780e-02 1.29183792e-02 6.45918958e-03 2.34879623e-03
      9.39518493e-03 7.04638893e-03 1.82031710e-02 5.87199070e-03
      1.17439814e-02 8.22078716e-03 1.05695827e-02 1.52671756e-02
      7.04638893e-03 1.93775687e-02 8.80798604e-03 9.39518493e-03
      2.23135650e-02 5.28479135e-03 1.11567825e-02 2.05519665e-02
      1.11567825e-02 9.39518493e-03 3.52319446e-03 7.04638893e-03</_>
    <_>
      1.08303251e-02 1.15523469e-02 2.16606492e-03 1.15523469e-02
      7.94223789e-03 5.05415164e-03 2.88808672e-03 1.80505421e-02
      1.29963895e-02 3.61010828e-03 7.22021656e-03 7.94223789e-03
      1.08303251e-02 5.77617344e-03 1.44404336e-03 2.16606492e-03
      1.01083033e-02 9.38628148e-03 6.49819477e-03 4.33212984e-03
      7.22021656e-03 5.77617344e-03 2.88808672e-03 1.01083033e-02
      3.61010828e-03 1.29963895e-02 1.34296030e-01 1.44404336e-03
      1.29963895e-02 3.61010828e-03 7.94223789e-03 7.94223789e-03
      1.22743687e-02 3.61010828e-03 2.88808672e-03 1.44404336e-03
      6.49819477e-03 1.80505421e-02 1.29963895e-02 5.77617344e-03
      2.88808662e-02 1.08303251e-02 1.44404336e-03 2.16606492e-03
      4.33212984e-03 2.88808672e-03 2.16606492e-03 6.49819477e-03
      2.16606492e-03 8.44765380e-02 1.01083033e-02 5.05415164e-03
      5.77617344e-03 7.94223789e-03 6.49819477e-03 1.58844758e-02
      4.33212984e-03 2.88808672e-03 5.77617344e-03 5.77617344e-03
      7.22021656e-03 8.66425969e-03 5.77617344e-03 6.49819477e-03
      7.94223789e-03 5.05415164e-03 2.16606492e-03 7.94223789e-03
      5.77617344e-03 0. 4.33212984e-03 1.66064985e-02 2.88808672e-03
      1.08303251e-02 2.23826710e-02 1.44404336e-03 2.16606492e-03
      1.94945857e-02 3.61010828e-03 5.05415164e-03 4.33212984e-03
      7.94223789e-03 3.61010842e-02 1.22743687e-02 3.61010828e-03
      8.66425969e-03 3.61010828e-03 5.77617344e-03 5.05415164e-03
      1.44404331e-02 2.16606492e-03 5.05415164e-03 2.16606501e-02
      7.22021656e-03 1.08303251e-02 3.24909762e-02 5.05415164e-03
      1.66064985e-02 2.88808672e-03 5.77617344e-03</_>
    <_>
      8.27165879e-03 4.35350463e-03 3.04745324e-03 1.82847194e-02
      6.09490648e-03 6.96560740e-03 5.22420555e-03 1.61079671e-02
      6.96560740e-03 5.22420555e-03 5.22420555e-03 3.48280370e-03
      1.00130606e-02 4.78885509e-03 1.30605139e-03 1.08837616e-02
      2.17675231e-03 8.70700926e-03 3.48280370e-03 5.22420555e-03
      5.22420555e-03 2.17675231e-03 4.35350463e-03 5.22420555e-03
      4.35350463e-03 9.14235972e-03 1.48889855e-01 5.65955602e-03
      5.65955602e-03 3.48280370e-03 1.39312148e-02 4.78885509e-03
      1.17544625e-02 1.00130606e-02 1.08837616e-02 6.09490648e-03
      2.61210278e-03 9.57771018e-03 5.22420555e-03 6.53025694e-03
      1.78493690e-02 3.04745324e-03 6.09490648e-03 4.35350463e-03
      5.22420555e-03 7.40095787e-03 6.09490648e-03 3.91815417e-03
      5.65955602e-03 1.23204179e-01 4.35350463e-03 1.04484111e-02
      6.53025694e-03 1.08837616e-02 4.78885509e-03 1.34958643e-02
      3.91815417e-03 3.91815417e-03 7.83630833e-03 2.61210278e-03
      1.26251634e-02 1.00130606e-02 9.57771018e-03 6.09490648e-03
      3.91815417e-03 2.17675231e-03 7.83630833e-03 4.78885509e-03
      7.40095787e-03 3.04745324e-03 6.09490648e-03 6.53025694e-03
      4.78885509e-03 3.91815417e-03 2.04614718e-02 3.04745324e-03
      6.53025694e-03 9.14235972e-03 1.30605139e-03 3.48280370e-03
      6.53025694e-03 1.39312148e-02 1.87200699e-02 5.22420555e-03
      5.22420555e-03 2.61210278e-03 8.27165879e-03 5.65955602e-03
      5.65955602e-03 7.40095787e-03 2.61210278e-03 6.96560740e-03
      5.00653014e-02 1.13191120e-02 2.04614718e-02 1.21898130e-02
      4.35350463e-03 8.70700926e-03 6.09490648e-03 2.17675231e-03</_>
    <_>
      5.07614203e-03 1.01522841e-02 5.07614203e-03 6.09137043e-02
      1.01522841e-02 1.01522841e-02 0. 6.59898445e-02 2.03045681e-02
      1.01522841e-02 0. 5.07614203e-03 1.52284261e-02 5.07614203e-03 0.
      1.01522841e-02 6.09137043e-02 0. 1.52284261e-02 0. 1.01522841e-02
      0. 0. 3.04568522e-02 0. 2.03045681e-02 0. 0. 5.07614203e-03
      3.55329961e-02 1.01522841e-02 1.01522841e-02 3.55329961e-02
      5.07614203e-03 5.07614203e-03 0. 6.09137043e-02 5.07614203e-03
      2.03045681e-02 2.03045681e-02 3.55329961e-02 0. 5.07614203e-03 0.
      0. 0. 1.01522841e-02 0. 0. 5.07614203e-03 2.53807101e-02
      1.01522841e-02 0. 0. 0. 0. 1.01522841e-02 0. 2.03045681e-02
      5.07614203e-03 5.07614203e-03 0. 0. 0. 5.07614203e-03
      5.07614203e-03 5.07614203e-03 5.07614203e-03 0. 0. 1.01522841e-02
      7.10659921e-02 5.07614203e-03 2.03045681e-02 5.07614203e-03 0.
      1.01522841e-02 4.06091362e-02 0. 5.07614203e-03 0. 5.07614203e-03
      5.07614203e-03 0. 1.01522841e-02 0. 2.03045681e-02 5.07614203e-03
      0. 0. 0. 5.07614203e-03 1.01522841e-02 5.07614203e-03
      5.07614203e-03 2.03045681e-02 5.07614203e-03 0. 0. 0.</_>
    <_>
      5.50054992e-03 1.10010998e-02 3.30033014e-03 1.21012097e-02
      1.32013205e-02 6.60066027e-03 2.20022001e-03 1.65016502e-02
      7.70077016e-03 2.20022001e-03 2.20022001e-03 1.43014304e-02
      6.60066027e-03 5.50054992e-03 2.20022001e-03 2.20022001e-03
      8.80088005e-03 5.50054992e-03 2.09020898e-02 6.60066027e-03
      9.90098994e-03 6.60066027e-03 2.20022001e-03 2.86028609e-02
      2.20022001e-03 1.21012097e-02 4.84048389e-02 0. 4.40044003e-03
      8.80088005e-03 1.10011001e-03 9.90098994e-03 2.75027510e-02
      1.10011001e-03 7.70077016e-03 4.40044003e-03 9.90098994e-03
      2.42024194e-02 1.10010998e-02 1.54015403e-02 2.86028609e-02
      8.80088005e-03 2.20022001e-03 1.10011001e-03 3.30033014e-03
      5.50054992e-03 5.50054992e-03 3.30033014e-03 1.10011001e-03
      9.13091302e-02 1.43014304e-02 7.70077016e-03 4.40044003e-03
      6.60066027e-03 4.40044003e-03 8.80088005e-03 3.30033014e-03
      5.50054992e-03 2.20022001e-03 1.10010998e-02 4.40044003e-03
      8.80088005e-03 1.10011001e-03 3.30033014e-03 4.40044003e-03
      5.50054992e-03 7.70077016e-03 8.80088005e-03 4.40044003e-03
      1.10011001e-03 6.60066027e-03 1.98019799e-02 4.40044003e-03
      3.52035202e-02 3.41034122e-02 4.40044003e-03 1.10010998e-02
      1.21012097e-02 9.90098994e-03 3.30033014e-03 4.40044003e-03
      7.70077016e-03 2.20021997e-02 5.50054992e-03 7.70077016e-03
      3.30033014e-03 1.32013205e-02 8.80088005e-03 2.20022001e-03
      1.32013205e-02 5.50054992e-03 9.90098994e-03 4.18041795e-02
      4.40044003e-03 5.50054992e-03 2.20021997e-02 3.30033014e-03
      1.10010998e-02 2.20022001e-03 6.60066027e-03</_>
    <_>
      6.53167861e-03 4.57217498e-03 1.95950363e-03 1.17570218e-02
      5.87851088e-03 3.26583930e-03 3.26583930e-03 1.37165254e-02
      5.22534270e-03 7.18484633e-03 1.30633567e-03 9.14434996e-03
      1.89418681e-02 4.57217498e-03 1.30633567e-03 5.87851088e-03
      9.79751814e-03 1.37165254e-02 1.17570218e-02 6.53167861e-03
      8.49118177e-03 1.95950363e-03 3.91900726e-03 9.79751814e-03
      2.61267135e-03 2.67798826e-02 1.14957541e-01 0. 2.02482045e-02
      5.22534270e-03 1.11038536e-02 4.57217498e-03 1.43696927e-02
      3.91900726e-03 2.74330508e-02 5.22534270e-03 6.53167861e-03
      2.48203781e-02 3.91900726e-03 1.04506854e-02 3.13520581e-02
      1.37165254e-02 1.30633567e-03 1.30633567e-03 7.18484633e-03
      2.61267135e-03 3.91900726e-03 3.91900726e-03 9.14434996e-03
      7.83801451e-02 3.91900726e-03 7.83801451e-03 1.95950363e-03
      1.30633572e-02 6.53167861e-03 1.17570218e-02 4.57217498e-03
      3.91900726e-03 4.57217498e-03 7.18484633e-03 4.57217498e-03
      9.79751814e-03 5.87851088e-03 3.26583930e-03 8.49118177e-03
      3.26583930e-03 7.18484633e-03 5.87851088e-03 6.53167861e-03
      2.61267135e-03 3.91900726e-03 7.18484633e-03 5.87851088e-03
      1.30633572e-02 1.24101890e-02 2.61267135e-03 5.22534270e-03
      1.11038536e-02 3.91900726e-03 3.91900726e-03 1.50228608e-02
      8.49118177e-03 3.26583944e-02 1.24101890e-02 6.53167861e-03
      7.83801451e-03 9.79751814e-03 7.83801451e-03 5.87851088e-03
      7.83801451e-03 8.49118177e-03 3.91900726e-03 2.35140435e-02
      3.26583930e-03 6.53167861e-03 2.02482045e-02 3.26583930e-03
      7.83801451e-03 3.26583930e-03 7.83801451e-03</_>
    <_>
      5.39083546e-03 8.08625296e-03 0. 1.07816709e-02 5.39083546e-03
      8.08625296e-03 0. 0. 2.69541773e-03 1.34770889e-02 0.
      5.39083546e-03 5.39083546e-03 8.08625296e-03 0. 1.34770889e-02
      8.08625296e-03 2.42587607e-02 2.15633418e-02 0. 2.69541773e-03
      2.69541773e-03 5.39083546e-03 1.34770889e-02 2.69541773e-03
      1.61725059e-02 1.72506735e-01 2.69541773e-03 2.69541773e-03 0.
      2.69541773e-03 1.34770889e-02 3.50404307e-02 5.39083546e-03
      5.39083546e-03 0. 2.96495948e-02 1.34770889e-02 1.61725059e-02
      1.34770889e-02 2.96495948e-02 2.69541773e-03 0. 2.69541773e-03
      2.69541773e-03 0. 0. 0. 2.69541773e-03 4.04312685e-02
      1.34770889e-02 2.69541773e-03 2.69541773e-03 2.69541773e-03
      2.69541773e-03 8.08625296e-03 2.69541773e-03 0. 5.39083546e-03
      2.69541773e-03 0. 5.39083546e-03 2.69541773e-03 2.69541773e-03
      2.69541773e-03 5.39083546e-03 2.69541773e-03 2.69541773e-03
      8.08625296e-03 0. 5.39083546e-03 5.66037744e-02 0. 3.23450118e-02
      2.69541773e-03 2.69541773e-03 0. 2.69541778e-02 8.08625296e-03
      5.39083546e-03 0. 5.39083546e-03 7.54716992e-02 5.39083546e-03
      5.39083546e-03 0. 1.07816709e-02 1.07816709e-02 0. 1.34770889e-02
      8.08625296e-03 5.39083546e-03 1.07816709e-02 2.69541773e-03
      2.69541773e-03 4.04312685e-02 2.69541773e-03 5.39083546e-03
      2.69541773e-03 0.</_>
    <_>
      1.38953216e-02 3.70541913e-03 1.01899030e-02 9.81936045e-03
      7.78138032e-03 5.00231609e-03 7.96665158e-03 9.44881886e-03
      6.02130638e-03 9.91199631e-03 4.07596119e-03 5.65076433e-03
      9.63408966e-03 6.29921257e-03 3.33487731e-03 5.28022228e-03
      8.42982903e-03 6.94766082e-03 8.33719317e-03 3.70541913e-03
      3.24224168e-03 4.35386738e-03 4.81704483e-03 4.90968022e-03
      6.02130638e-03 9.17091221e-03 9.32839289e-02 1.04678096e-02
      1.25057893e-02 9.54145472e-03 1.22278836e-02 4.81704483e-03
      5.92867052e-03 1.64891146e-02 9.26354807e-03 4.81704483e-03
      4.07596119e-03 1.32468734e-02 2.77906447e-03 8.42982903e-03
      2.26030573e-02 5.28022228e-03 1.44511349e-02 8.70773476e-03
      7.59610953e-03 7.41083827e-03 5.18758688e-03 4.53913864e-03
      7.22556747e-03 7.88327903e-02 2.22325162e-03 5.65076433e-03
      6.85502542e-03 1.50995832e-02 4.07596119e-03 6.76239002e-03
      5.09495148e-03 7.31820287e-03 6.29921257e-03 5.55812893e-03
      6.85502542e-03 9.54145472e-03 8.15192237e-03 7.13293208e-03
      6.20657718e-03 2.77906447e-03 8.24455731e-03 5.55812893e-03
      1.43584991e-02 3.01065315e-02 5.65076433e-03 3.05697089e-03
      5.74339973e-03 8.80037062e-03 1.07457153e-02 3.79805476e-03
      7.96665158e-03 5.37285767e-03 6.02130638e-03 8.24455731e-03
      7.31820287e-03 2.64937468e-02 2.77906433e-02 2.26030573e-02
      9.26354807e-03 2.87169986e-03 7.59610953e-03 8.80037062e-03
      1.06530804e-02 6.57711923e-03 7.22556747e-03 6.48448337e-03
      2.26030573e-02 1.64891146e-02 7.31820287e-03 8.05928651e-03
      5.55812893e-03 4.72440943e-03 7.87401572e-03 6.76239002e-03</_>
    <_>
      1.66510120e-02 3.50098195e-03 5.46494732e-03 1.37477582e-02
      7.77047221e-03 3.84254125e-03 5.46494732e-03 9.56365839e-03
      8.02664179e-03 9.64904763e-03 3.33020231e-03 6.83118450e-03
      1.27230808e-02 3.84254125e-03 2.90325331e-03 6.83118450e-03
      4.69643902e-03 9.47826821e-03 4.44026990e-03 3.24481260e-03
      7.94125162e-03 4.01332090e-03 2.98864325e-03 6.48962520e-03
      4.26949002e-03 1.05029456e-02 9.02570263e-02 3.92793119e-03
      6.74579432e-03 5.12338849e-03 2.22013500e-02 4.44026990e-03
      9.47826821e-03 3.02279908e-02 6.06267620e-03 5.20877820e-03
      4.69643902e-03 1.81880277e-02 3.75715131e-03 5.55033749e-03
      2.04935540e-02 7.00196391e-03 5.20877820e-03 6.66040462e-03
      5.80650661e-03 3.41559225e-03 3.58637189e-03 4.35488019e-03
      7.08735362e-03 8.16326514e-02 3.41559225e-03 8.79514962e-03
      7.94125162e-03 1.36623690e-02 2.64708395e-03 8.70976038e-03
      3.41559225e-03 7.68508250e-03 4.44026990e-03 5.03799831e-03
      8.28281138e-03 8.45359080e-03 6.74579432e-03 5.72111690e-03
      8.02664179e-03 2.98864325e-03 4.69643902e-03 5.97728649e-03
      1.03321662e-02 1.22107416e-02 5.72111690e-03 5.89189632e-03
      5.97728649e-03 5.72111690e-03 1.71633512e-02 9.64904763e-03
      6.14806591e-03 6.40423549e-03 2.56169424e-03 5.55033749e-03
      6.83118450e-03 3.14234495e-02 3.15088369e-02 2.52753813e-02
      7.42891291e-03 2.04935530e-03 4.86721890e-03 1.00759966e-02
      4.52565961e-03 9.13670938e-03 5.37955761e-03 3.92793119e-03
      4.01332080e-02 2.18597893e-02 1.40039278e-02 8.88053980e-03
      4.01332090e-03 6.40423549e-03 6.23345561e-03 6.74579432e-03</_>
    <_>
      1.22208642e-02 3.22186435e-03 8.88790097e-03 1.26652597e-02
      6.88812369e-03 4.77724709e-03 8.55460484e-03 1.26652597e-02
      7.99911097e-03 7.66581483e-03 7.11032096e-03 6.11043209e-03
      1.63315181e-02 8.22130870e-03 5.11054322e-03 7.22141983e-03
      3.33296298e-03 1.41095435e-02 6.55482709e-03 4.77724709e-03
      5.44383936e-03 5.33274096e-03 6.66592596e-03 7.22141983e-03
      5.33274096e-03 2.12198645e-02 6.28819019e-02 9.88779031e-03
      1.72203090e-02 8.22130870e-03 1.89978890e-02 6.44372869e-03
      5.22164209e-03 1.44428397e-02 2.13309638e-02 4.77724709e-03
      4.55504935e-03 1.33318519e-02 3.66625935e-03 7.44361756e-03
      2.22197529e-02 5.55493822e-03 6.55482709e-03 7.88801257e-03
      9.11009870e-03 7.55471596e-03 5.33274096e-03 3.44406185e-03
      9.88779031e-03 5.34385070e-02 2.33307411e-03 6.88812369e-03
      8.33240710e-03 1.96644813e-02 6.44372869e-03 5.66603709e-03
      4.99944435e-03 7.33251870e-03 6.33262983e-03 5.99933323e-03
      5.55493822e-03 1.19986665e-02 7.22141983e-03 8.22130870e-03
      6.22153096e-03 5.11054322e-03 8.88790097e-03 4.88834595e-03
      1.39984442e-02 2.72191986e-02 4.77724709e-03 6.99922210e-03
      4.66614822e-03 5.11054322e-03 1.01099880e-02 9.55449417e-03
      8.44350643e-03 2.99966661e-03 5.99933323e-03 8.99900030e-03
      7.11032096e-03 2.99966671e-02 3.86623703e-02 1.26652597e-02
      8.88790097e-03 4.11065435e-03 8.11021030e-03 6.22153096e-03
      7.11032096e-03 4.44395049e-03 5.88823482e-03 5.22164209e-03
      2.38862354e-02 1.03321858e-02 7.11032096e-03 8.55460484e-03
      6.33262983e-03 4.99944435e-03 9.66559257e-03 4.66614822e-03</_>
    <_>
      1.63972825e-02 4.09932062e-03 5.85617218e-03 1.47575540e-02
      9.01850592e-03 6.44178968e-03 7.14453030e-03 1.01897400e-02
      9.48699936e-03 8.55001155e-03 5.15343156e-03 5.15343156e-03
      1.30007025e-02 6.32466609e-03 2.81096273e-03 6.67603640e-03
      7.14453030e-03 1.13609741e-02 5.50480187e-03 3.04520968e-03
      6.67603640e-03 4.56781453e-03 7.26165390e-03 4.91918484e-03
      3.74795031e-03 1.81541350e-02 7.01569468e-02 5.27055515e-03
      1.54602956e-02 7.96439406e-03 2.49472950e-02 3.51370336e-03
      9.72124655e-03 1.62801594e-02 1.68657769e-02 3.27945664e-03
      7.02740671e-03 1.14780981e-02 3.51370336e-03 4.56781453e-03
      3.31459343e-02 5.62192546e-03 5.85617218e-03 7.49590062e-03
      7.02740671e-03 5.50480187e-03 4.45069093e-03 3.16233304e-03
      8.08151811e-03 6.61747456e-02 4.33356781e-03 6.09041937e-03
      7.14453030e-03 1.99109856e-02 6.09041937e-03 4.45069093e-03
      4.56781453e-03 7.61302421e-03 6.09041937e-03 4.91918484e-03
      5.03630843e-03 1.01897400e-02 6.79315999e-03 6.20754296e-03
      4.45069093e-03 3.74795031e-03 8.55001155e-03 4.33356781e-03
      1.48746781e-02 1.83883812e-02 5.27055515e-03 4.91918484e-03
      6.91028358e-03 6.32466609e-03 1.30007025e-02 6.91028358e-03
      5.03630843e-03 5.73904905e-03 2.22534547e-03 6.09041937e-03
      5.27055515e-03 3.17404531e-02 3.93534787e-02 1.49918012e-02
      6.44178968e-03 3.51370336e-03 8.31576437e-03 8.55001155e-03
      6.44178968e-03 7.14453030e-03 4.21644421e-03 3.86507390e-03
      2.90466156e-02 1.48746781e-02 9.01850592e-03 9.83836967e-03
      7.49590062e-03 5.97329577e-03 9.01850592e-03 8.66713561e-03</_>
    <_>
      9.02201328e-03 5.05232764e-03 8.30025226e-03 1.47961024e-02
      9.38289426e-03 5.41320816e-03 7.21761119e-03 1.08264163e-02
      9.38289426e-03 1.73222665e-02 5.05232764e-03 8.66113324e-03
      3.78924571e-02 9.38289426e-03 4.33056662e-03 1.22699384e-02
      6.49584970e-03 1.01046553e-02 1.26308193e-02 6.85673021e-03
      1.08264163e-02 4.33056662e-03 4.33056662e-03 6.13496918e-03
      6.49584970e-03 5.41320816e-03 9.02201328e-03 6.49584970e-03
      2.88704433e-03 5.77408867e-03 1.37134604e-02 5.77408867e-03
      1.66005045e-02 1.51569834e-02 9.02201328e-03 1.26308193e-02
      1.62396245e-02 1.33525804e-02 6.13496918e-03 8.66113324e-03
      3.96968611e-02 1.01046553e-02 5.05232764e-03 1.01046553e-02
      1.58787444e-02 2.88704433e-03 6.85673021e-03 5.05232764e-03
      1.19090583e-02 3.17574888e-02 3.96968611e-03 7.93937221e-03
      2.30963547e-02 1.04655363e-02 3.60880559e-03 9.38289426e-03
      5.05232764e-03 7.93937221e-03 3.60880559e-03 3.60880559e-03
      1.01046553e-02 9.74377524e-03 1.01046553e-02 3.24792485e-03
      3.96968611e-03 7.93937221e-03 1.19090583e-02 5.41320816e-03
      5.77408867e-03 3.24792485e-03 6.13496918e-03 1.08264163e-02
      6.85673021e-03 5.77408867e-03 2.09310725e-02 1.44352224e-02
      2.02093106e-02 9.38289426e-03 2.52616382e-03 6.49584970e-03
      1.01046553e-02 1.01046553e-02 1.69613864e-02 1.29916994e-02
      1.51569834e-02 1.80440280e-03 9.02201328e-03 1.04655363e-02
      5.77408867e-03 1.44352224e-02 3.96968611e-03 4.69144713e-03
      2.05701906e-02 2.41789967e-02 1.37134604e-02 6.13496918e-03
      6.85673021e-03 1.69613864e-02 4.33056662e-03 9.38289426e-03</_>
    <_>
      1.51617248e-02 6.40161708e-03 6.73854444e-03 1.11185983e-02
      1.41509436e-02 6.73854444e-03 7.74932606e-03 1.04447436e-02
      1.04447436e-02 2.05525607e-02 4.04312648e-03 1.14555256e-02
      2.72911042e-02 1.04447436e-02 5.39083546e-03 8.76010768e-03
      8.76010768e-03 8.76010768e-03 9.09703504e-03 1.07816709e-02
      7.74932606e-03 6.73854444e-03 6.40161708e-03 6.40161708e-03
      6.06469018e-03 9.43396240e-03 1.07816709e-02 5.39083546e-03
      2.35849060e-03 8.08625296e-03 1.24663077e-02 6.73854444e-03
      1.88679248e-02 1.38140162e-02 1.04447436e-02 5.72776282e-03
      1.28032342e-02 1.65094342e-02 1.04447436e-02 1.21293804e-02
      3.26819420e-02 8.76010768e-03 4.04312648e-03 1.01078171e-02
      6.73854444e-03 4.71698120e-03 1.04447436e-02 9.43396240e-03
      1.24663077e-02 2.05525607e-02 9.43396240e-03 1.07816709e-02
      1.98787060e-02 1.07816709e-02 5.05390856e-03 1.14555256e-02
      4.38005384e-03 1.28032342e-02 5.72776282e-03 9.09703504e-03
      1.17924530e-02 9.77088977e-03 1.51617248e-02 6.40161708e-03
      2.35849060e-03 7.07547180e-03 1.01078171e-02 9.77088977e-03
      2.69541773e-03 6.73854433e-04 7.07547180e-03 9.43396240e-03
      9.09703504e-03 1.07816709e-02 1.51617248e-02 9.43396240e-03
      1.68463606e-02 1.17924530e-02 3.70619935e-03 7.41239870e-03
      8.76010768e-03 9.43396240e-03 1.24663077e-02 9.43396240e-03
      1.44878710e-02 7.41239870e-03 1.04447436e-02 8.76010768e-03
      5.39083546e-03 1.07816709e-02 6.73854444e-03 4.38005384e-03
      1.41509436e-02 2.39218324e-02 9.09703504e-03 1.04447436e-02
      8.42318032e-03 1.48247974e-02 2.02156324e-03 9.09703504e-03</_>
    <_>
      1.82289071e-02 4.18368354e-03 6.17591385e-03 9.76192858e-03
      5.87707944e-03 4.98057576e-03 5.67785650e-03 1.08576547e-02
      5.77746797e-03 1.07580433e-02 3.08795692e-03 5.08018723e-03
      8.36736709e-03 5.87707944e-03 3.88484914e-03 7.17202900e-03
      6.17591385e-03 7.37125194e-03 5.08018723e-03 5.17979870e-03
      4.58212988e-03 5.47863310e-03 4.08407208e-03 7.47086341e-03
      3.58601450e-03 9.06464830e-03 9.02480334e-02 6.87319459e-03
      8.16814415e-03 5.17979870e-03 1.61370654e-02 4.48251795e-03
      1.32483318e-02 2.11176407e-02 1.24514392e-02 6.77358313e-03
      4.48251795e-03 1.53401736e-02 2.88873399e-03 7.76969828e-03
      2.33090948e-02 6.77358313e-03 6.77358313e-03 8.06853268e-03
      8.96503590e-03 5.87707944e-03 4.98057576e-03 5.08018723e-03
      6.67397166e-03 8.57655108e-02 3.18756839e-03 6.57436019e-03
      9.16425977e-03 1.16545474e-02 3.58601450e-03 9.46309417e-03
      4.68174135e-03 4.38290648e-03 4.28329501e-03 4.28329501e-03
      7.86930975e-03 8.66620149e-03 9.66231711e-03 4.98057576e-03
      6.07630238e-03 5.37902163e-03 6.77358313e-03 5.87707944e-03
      6.77358313e-03 1.64359007e-02 3.38679156e-03 2.78912252e-03
      4.98057576e-03 7.07241753e-03 1.46428924e-02 6.67397166e-03
      6.87319459e-03 8.16814415e-03 4.48251795e-03 6.57436019e-03
      9.46309417e-03 2.87877284e-02 3.62585932e-02 2.62974408e-02
      6.47474825e-03 3.58601450e-03 5.47863310e-03 7.86930975e-03
      8.06853268e-03 1.01603745e-02 4.98057576e-03 3.98446061e-03
      3.14772390e-02 1.81292966e-02 1.17541589e-02 7.37125194e-03
      4.08407208e-03 4.88096429e-03 5.97669091e-03 8.26775562e-03</_>
    <_>
      2.40713228e-02 5.64635964e-03 6.83506671e-03 1.27786035e-02
      7.13224383e-03 3.86329857e-03 5.34918299e-03 1.09955426e-02
      4.45765210e-03 1.15898959e-02 2.37741461e-03 4.45765210e-03
      3.09063885e-02 7.13224383e-03 2.97176815e-03 5.94353629e-03
      1.21842492e-02 5.05200587e-03 1.36701334e-02 5.64635964e-03
      7.13224383e-03 3.56612192e-03 4.45765210e-03 5.94353629e-03
      6.24071341e-03 5.64635964e-03 4.13075797e-02 2.37741461e-03
      2.97176815e-03 6.53789006e-03 1.66419018e-02 3.86329857e-03
      1.06983660e-02 2.08023768e-02 4.75482922e-03 1.06983660e-02
      7.42942048e-03 1.06983660e-02 3.56612192e-03 8.91530421e-03
      2.70430911e-02 9.21248179e-03 1.48588407e-03 8.91530421e-03
      1.75334327e-02 6.24071341e-03 5.94353629e-03 7.72659713e-03
      1.57503709e-02 6.44873679e-02 5.64635964e-03 1.15898959e-02
      2.97176819e-02 7.72659713e-03 6.53789006e-03 1.48588410e-02
      4.16047545e-03 8.61812755e-03 4.16047545e-03 1.12927193e-02
      8.02377425e-03 5.64635964e-03 1.09955426e-02 2.08023773e-03
      4.75482922e-03 4.75482922e-03 9.50965844e-03 6.83506671e-03
      4.16047545e-03 1.18870731e-03 4.45765210e-03 5.64635964e-03
      9.80683509e-03 7.13224383e-03 8.32095090e-03 5.05200587e-03
      2.34769695e-02 9.21248179e-03 3.26894503e-03 1.78306096e-03
      1.63447242e-02 1.42644877e-02 2.94205043e-02 9.50965844e-03
      1.90193169e-02 3.26894503e-03 8.32095090e-03 8.91530421e-03
      4.16047545e-03 1.09955426e-02 4.16047545e-03 4.75482922e-03
      2.64487378e-02 2.43684985e-02 1.06983660e-02 3.26894503e-03
      4.45765210e-03 1.60475485e-02 4.16047545e-03 5.34918299e-03</_>
    <_>
      1.42283523e-02 5.41201094e-03 7.68156443e-03 9.77653638e-03
      6.89594960e-03 3.49162007e-03 5.93575416e-03 7.76885496e-03
      6.98324014e-03 9.60195530e-03 3.84078221e-03 6.11033523e-03
      9.34008416e-03 5.23743033e-03 4.10265382e-03 1.03002796e-02
      7.41969282e-03 1.05621507e-02 7.59427389e-03 4.18994436e-03
      6.80865906e-03 4.10265382e-03 3.66620114e-03 5.93575416e-03
      4.53910604e-03 1.03002796e-02 7.45460913e-02 6.37220684e-03
      8.81634094e-03 5.32472087e-03 2.04259772e-02 6.72136853e-03
      9.60195530e-03 2.50523742e-02 1.10858940e-02 6.02304470e-03
      5.15013980e-03 1.60614531e-02 5.41201094e-03 4.71368711e-03
      1.52758379e-02 6.80865906e-03 4.97555872e-03 8.03072657e-03
      5.23743033e-03 6.28491631e-03 6.02304470e-03 5.49930148e-03
      1.09113129e-02 7.53317028e-02 4.62639658e-03 7.59427389e-03
      1.08240219e-02 1.23952515e-02 5.41201094e-03 6.80865906e-03
      4.10265382e-03 9.60195530e-03 6.45949738e-03 5.49930148e-03
      8.29259772e-03 1.11731840e-02 1.16096372e-02 4.97555872e-03
      1.01256985e-02 4.10265382e-03 8.20530765e-03 5.58659201e-03
      8.90363101e-03 1.15223462e-02 3.75349168e-03 7.50698335e-03
      9.68924537e-03 3.92807275e-03 1.76326819e-02 9.16550308e-03
      7.15782121e-03 7.59427389e-03 3.66620114e-03 5.58659201e-03
      7.41969282e-03 2.47032121e-02 2.55761165e-02 2.15607546e-02
      6.11033523e-03 2.96787708e-03 6.72136853e-03 1.16969272e-02
      6.45949738e-03 1.01256985e-02 3.49162007e-03 4.88826819e-03
      3.26466486e-02 2.00768150e-02 1.36173181e-02 9.51466523e-03
      5.41201094e-03 6.28491631e-03 7.59427389e-03 8.11801665e-03</_>
    <_>
      1.46312332e-02 5.27520664e-03 7.46491505e-03 1.08490093e-02
      9.65462346e-03 6.37006061e-03 8.06210842e-03 8.75883363e-03
      9.25649423e-03 7.06678629e-03 5.17567433e-03 5.77286771e-03
      1.03513487e-02 6.56912522e-03 3.68269137e-03 6.66865753e-03
      9.05742962e-03 8.95789824e-03 5.37473895e-03 5.17567433e-03
      5.27520664e-03 4.08082036e-03 4.08082036e-03 5.77286771e-03
      4.67801327e-03 6.86772168e-03 8.81855264e-02 5.27520664e-03
      7.06678629e-03 7.46491505e-03 1.49298301e-02 4.97660972e-03
      7.16631813e-03 1.70200057e-02 1.47307655e-02 5.37473895e-03
      4.67801327e-03 1.35363787e-02 3.98128806e-03 8.65930133e-03
      2.51816455e-02 6.66865753e-03 1.26405889e-02 7.86304381e-03
      7.06678629e-03 8.26117210e-03 6.27052831e-03 4.77754558e-03
      8.16164073e-03 7.68388584e-02 3.28456261e-03 6.17099646e-03
      6.27052831e-03 9.85368807e-03 4.27988451e-03 8.36070441e-03
      4.87707788e-03 6.17099646e-03 5.47427079e-03 6.17099646e-03
      8.75883363e-03 9.25649423e-03 7.76351150e-03 5.37473895e-03
      7.06678629e-03 4.77754558e-03 7.46491505e-03 6.46959292e-03
      8.85836594e-03 1.65223442e-02 5.67333540e-03 5.47427079e-03
      6.56912522e-03 7.26585044e-03 1.09485416e-02 5.87239955e-03
      8.06210842e-03 5.27520664e-03 4.27988451e-03 6.37006061e-03
      5.17567433e-03 2.77694836e-02 3.64287831e-02 2.57788394e-02
      7.56444689e-03 2.68736947e-03 8.46023671e-03 8.75883363e-03
      8.46023671e-03 6.66865753e-03 7.46491505e-03 5.57380309e-03
      2.67741606e-02 1.45317009e-02 1.02518164e-02 9.75415576e-03
      6.27052831e-03 7.66397920e-03 5.77286771e-03 7.46491505e-03</_>
    <_>
      1.43729327e-02 6.61409320e-03 8.39481037e-03 1.50089040e-02
      1.01755280e-02 6.61409320e-03 9.79394559e-03 1.09386928e-02
      1.00483336e-02 1.28466040e-02 7.50445202e-03 7.88603444e-03
      2.04782505e-02 6.99567562e-03 3.56143480e-03 1.36097688e-02
      8.52200482e-03 1.33553799e-02 1.10658864e-02 4.57898760e-03
      8.64919834e-03 6.35970477e-03 6.99567562e-03 4.45179362e-03
      9.03078075e-03 1.37369623e-02 1.08114984e-02 5.21495799e-03
      8.77639279e-03 9.66675114e-03 1.57720689e-02 4.83337557e-03
      1.24650216e-02 1.47545151e-02 2.22589672e-02 7.75883999e-03
      1.01755280e-02 1.48817096e-02 3.30704660e-03 1.09386928e-02
      3.76494527e-02 7.37725757e-03 9.53955762e-03 1.05571104e-02
      1.29737984e-02 7.63164600e-03 1.13202743e-02 5.59654040e-03
      1.41185448e-02 2.00966671e-02 3.68862879e-03 1.05571104e-02
      1.65352318e-02 1.43729327e-02 6.86848117e-03 7.12286960e-03
      6.10531680e-03 9.79394559e-03 4.83337557e-03 7.25006359e-03
      9.53955762e-03 1.06843039e-02 1.39913512e-02 7.25006359e-03
      6.10531680e-03 7.37725757e-03 1.00483336e-02 8.14042240e-03
      6.23251079e-03 5.08776400e-03 8.01322795e-03 5.59654040e-03
      8.52200482e-03 8.90358724e-03 1.36097688e-02 1.03027215e-02
      1.00483336e-02 7.25006359e-03 4.32459917e-03 4.07021120e-03
      9.53955762e-03 1.80615615e-02 2.00966671e-02 8.39481037e-03
      1.11930808e-02 5.08776400e-03 1.06843039e-02 6.48689922e-03
      7.75883999e-03 1.01755280e-02 6.74128719e-03 8.26761592e-03
      1.58992615e-02 2.09870264e-02 8.90358724e-03 7.63164600e-03
      7.63164600e-03 7.88603444e-03 6.74128719e-03 9.53955762e-03</_>
    <_>
      1.96595285e-02 2.41625472e-03 5.27182873e-03 1.01043386e-02
      5.27182873e-03 3.95387132e-03 4.72267997e-03 1.32894013e-02
      5.49148815e-03 9.00604110e-03 3.29489284e-03 3.62438220e-03
      1.14222951e-02 5.27182873e-03 3.95387132e-03 6.69961562e-03
      5.71114756e-03 7.90774263e-03 4.61285003e-03 3.07523343e-03
      2.63591437e-03 3.62438220e-03 2.96540372e-03 5.27182873e-03
      4.06370126e-03 7.46842381e-03 9.77484882e-02 6.26029633e-03
      9.55518987e-03 4.94233938e-03 1.47171887e-02 5.49148815e-03
      1.14222951e-02 2.24052723e-02 1.24107637e-02 7.13893445e-03
      4.61285003e-03 1.23009337e-02 2.52608466e-03 4.28336067e-03
      2.20757835e-02 5.38165821e-03 1.02141676e-02 9.88467876e-03
      8.23723245e-03 4.28336067e-03 7.68808369e-03 4.39319061e-03
      9.11587011e-03 9.93959382e-02 2.30642501e-03 4.94233938e-03
      9.66501888e-03 1.44975288e-02 3.62438220e-03 1.21911038e-02
      3.95387132e-03 4.17353120e-03 4.39319061e-03 5.38165821e-03
      9.33552999e-03 7.57825375e-03 1.17517849e-02 5.16199879e-03
      4.72267997e-03 3.73421190e-03 7.90774263e-03 7.35859433e-03
      8.34706239e-03 1.32894013e-02 3.07523343e-03 3.62438220e-03
      6.04063692e-03 4.94233938e-03 1.55958263e-02 6.37012627e-03
      6.26029633e-03 8.89621116e-03 3.40472278e-03 5.05216932e-03
      9.55518987e-03 2.61394847e-02 3.87699082e-02 2.36133989e-02
      5.16199879e-03 4.17353120e-03 6.69961562e-03 6.26029633e-03
      5.49148815e-03 7.02910498e-03 5.82097750e-03 4.39319061e-03
      3.05326749e-02 2.00988464e-02 1.10928062e-02 6.47995621e-03
      4.72267997e-03 5.16199879e-03 5.38165821e-03 8.56672134e-03</_>
    <_>
      1.77659784e-02 3.06309992e-03 6.12619985e-03 1.12313665e-02
      5.92199294e-03 4.90095979e-03 8.16826615e-03 1.06187463e-02
      3.87992640e-03 1.32734329e-02 2.65468657e-03 8.98509286e-03
      2.04206649e-02 8.78088642e-03 3.87992640e-03 1.42944660e-02
      7.75985280e-03 1.51112927e-02 4.49254643e-03 3.87992640e-03
      6.94302656e-03 4.69675334e-03 5.30937314e-03 6.12619985e-03
      9.39350668e-03 2.00122520e-02 5.41147627e-02 5.10516623e-03
      9.59771313e-03 5.71778649e-03 1.55197056e-02 3.47151328e-03
      1.14355730e-02 1.40902596e-02 1.10271592e-02 7.75985280e-03
      5.30937314e-03 2.69552786e-02 3.06309992e-03 7.35143945e-03
      3.28772701e-02 6.12619985e-03 1.02103325e-02 7.75985280e-03
      1.65407397e-02 5.51357958e-03 7.75985280e-03 4.08413308e-03
      1.20481923e-02 3.28772701e-02 2.45047989e-03 5.71778649e-03
      2.75678989e-02 1.87870134e-02 6.94302656e-03 4.69675334e-03
      4.90095979e-03 9.39350668e-03 5.71778649e-03 5.51357958e-03
      5.51357958e-03 7.96405971e-03 1.04145398e-02 7.35143945e-03
      2.65468657e-03 5.71778649e-03 7.35143945e-03 3.26730660e-03
      9.18929931e-03 3.87992640e-03 4.90095979e-03 6.94302656e-03
      9.59771313e-03 4.90095979e-03 1.75617728e-02 9.39350668e-03
      1.12313665e-02 6.33040629e-03 2.45047989e-03 3.47151328e-03
      8.16826615e-03 1.63365323e-02 3.53277512e-02 1.08229527e-02
      8.57667997e-03 2.45047989e-03 1.14355730e-02 6.53461320e-03
      6.12619985e-03 9.59771313e-03 3.26730660e-03 5.71778649e-03
      2.75678989e-02 2.18501128e-02 1.14355730e-02 6.53461320e-03
      6.73881965e-03 9.39350668e-03 7.96405971e-03 8.37247260e-03</_>
    <_>
      1.36449775e-02 6.82248874e-03 7.95957074e-03 1.08654452e-02
      8.59128218e-03 7.07517378e-03 6.69614645e-03 8.08591302e-03
      7.45420111e-03 1.33922929e-02 6.56980416e-03 6.31711958e-03
      2.13518627e-02 8.59128218e-03 4.29564109e-03 1.31396083e-02
      1.26342392e-02 8.97030998e-03 8.71762447e-03 7.32785836e-03
      6.56980416e-03 8.21225531e-03 5.43272262e-03 6.31711958e-03
      1.02337338e-02 8.71762447e-03 1.35186352e-02 5.68540767e-03
      6.19077682e-03 6.44346187e-03 1.86986737e-02 1.09917875e-02
      1.17498422e-02 1.61718260e-02 1.64245106e-02 8.33859760e-03
      1.23815536e-02 1.36449775e-02 4.92735300e-03 1.01073906e-02
      2.37523690e-02 1.04864184e-02 9.09665227e-03 8.21225531e-03
      1.40240053e-02 4.92735300e-03 8.46493989e-03 7.20151607e-03
      1.12444721e-02 3.58812399e-02 3.91661422e-03 1.09917875e-02
      2.08464935e-02 7.20151607e-03 7.07517378e-03 1.26342392e-02
      5.30638034e-03 1.17498422e-02 1.01073906e-02 8.84396676e-03
      1.13708153e-02 1.17498422e-02 8.71762447e-03 8.08591302e-03
      7.32785836e-03 8.08591302e-03 7.07517378e-03 6.94883149e-03
      5.05369529e-03 2.90587498e-03 6.06443454e-03 5.43272262e-03
      9.47567914e-03 5.55906491e-03 1.44030321e-02 7.45420111e-03
      1.64245106e-02 1.22552114e-02 6.82248874e-03 4.54832613e-03
      7.58054340e-03 1.75615922e-02 1.28869237e-02 1.35186352e-02
      1.11181298e-02 6.44346187e-03 7.32785836e-03 1.09917875e-02
      4.54832613e-03 1.09917875e-02 6.19077682e-03 5.18003805e-03
      2.14782059e-02 2.32469998e-02 1.30132660e-02 6.56980416e-03
      7.83322845e-03 8.97030998e-03 7.32785836e-03 1.02337338e-02</_>
    <_>
      1.28108514e-02 4.52147704e-03 7.53579522e-03 1.40668172e-02
      9.04295407e-03 5.27505670e-03 4.52147704e-03 9.04295407e-03
      6.78221555e-03 1.98442601e-02 3.01431795e-03 7.53579522e-03
      4.11956795e-02 4.77267010e-03 5.27505670e-03 7.28460168e-03
      7.28460168e-03 1.23084653e-02 1.33132376e-02 3.76789761e-03
      7.78698828e-03 3.76789761e-03 6.27982896e-03 5.02386317e-03
      9.79653373e-03 1.05501134e-02 2.96407938e-02 4.77267010e-03
      4.01909091e-03 6.02863589e-03 1.43180108e-02 5.52624976e-03
      1.48203969e-02 1.70811359e-02 2.81336345e-02 9.04295407e-03
      7.03340862e-03 1.02989199e-02 4.52147704e-03 6.78221555e-03
      5.87792024e-02 6.02863589e-03 4.27028397e-03 8.79176054e-03
      1.73323285e-02 4.01909091e-03 9.04295407e-03 7.53579522e-03
      1.23084653e-02 2.78824419e-02 3.01431795e-03 1.48203969e-02
      2.21049991e-02 1.15548857e-02 4.01909091e-03 7.78698828e-03
      4.52147704e-03 8.54056794e-03 2.26073852e-03 5.02386317e-03
      9.54534020e-03 1.00477263e-02 7.78698828e-03 4.77267010e-03
      6.78221555e-03 6.78221555e-03 9.79653373e-03 5.77744283e-03
      5.27505670e-03 2.00954545e-03 3.51670431e-03 5.52624976e-03
      7.53579522e-03 4.77267010e-03 1.83371007e-02 7.03340862e-03
      1.15548857e-02 9.79653373e-03 5.27505670e-03 5.27505670e-03
      7.53579522e-03 1.83371007e-02 1.60763636e-02 1.20572718e-02
      1.40668172e-02 2.76312488e-03 1.55739766e-02 6.02863589e-03
      7.03340862e-03 1.23084653e-02 4.01909091e-03 5.52624976e-03
      1.98442601e-02 1.90906804e-02 1.13036921e-02 8.28937441e-03
      5.52624976e-03 1.10524995e-02 4.52147704e-03 7.78698828e-03</_>
    <_>
      4.16171225e-03 1.15933409e-02 6.83709886e-03 1.27824023e-02
      9.80975013e-03 5.94530301e-03 7.13436399e-03 1.18906060e-02
      1.27824023e-02 1.15933409e-02 6.83709886e-03 7.43162911e-03
      1.09988106e-02 8.62068962e-03 5.64803788e-03 1.27824023e-02
      7.13436399e-03 8.62068962e-03 1.27824023e-02 1.12960758e-02
      8.91795475e-03 5.35077276e-03 1.04042804e-02 1.09988106e-02
      1.24851363e-02 8.91795475e-03 3.35909650e-02 7.43162911e-03
      5.94530313e-04 6.53983373e-03 9.80975013e-03 4.16171225e-03
      1.84304398e-02 4.75624250e-03 3.86444712e-03 1.18906060e-02
      1.07015455e-02 1.39714628e-02 7.72889424e-03 7.13436399e-03
      1.45659931e-02 7.72889424e-03 8.62068962e-03 1.09988106e-02
      8.02615937e-03 8.62068962e-03 1.24851363e-02 8.91795475e-03
      1.21878712e-02 4.34007123e-02 6.53983373e-03 1.24851363e-02
      8.62068962e-03 5.64803788e-03 1.42687280e-02 8.02615937e-03
      5.94530301e-03 5.94530301e-03 1.01070153e-02 6.53983373e-03
      8.91795475e-03 1.30796675e-02 1.24851363e-02 1.07015455e-02
      5.94530301e-03 7.13436399e-03 8.62068962e-03 5.05350763e-03
      3.26991687e-03 5.94530301e-03 1.07015455e-02 6.83709886e-03
      1.21878712e-02 9.21521988e-03 1.78359095e-02 9.51248500e-03
      7.43162911e-03 1.12960758e-02 6.53983373e-03 7.13436399e-03
      1.63495839e-02 6.83709886e-03 1.07015455e-02 1.24851363e-02
      9.21521988e-03 5.35077276e-03 7.43162911e-03 7.43162911e-03
      6.53983373e-03 1.48632582e-02 9.80975013e-03 1.18906060e-02
      2.02140305e-02 9.51248500e-03 1.27824023e-02 1.18906060e-02
      9.51248500e-03 1.39714628e-02 7.13436399e-03 1.21878712e-02</_>
    <_>
      5.45454537e-03 1.18181817e-02 9.99999978e-03 9.09090880e-03
      7.27272732e-03 6.36363635e-03 4.54545440e-03 2.72727269e-03
      1.81818183e-03 3.63636366e-03 3.63636366e-03 9.99999978e-03
      1.27272727e-02 9.99999978e-03 1.81818183e-03 1.36363637e-02
      1.54545456e-02 8.18181783e-03 7.27272732e-03 1.45454546e-02
      1.90909095e-02 6.36363635e-03 8.18181783e-03 5.45454537e-03
      4.54545440e-03 9.09090880e-03 5.00000007e-02 3.63636366e-03
      8.18181783e-03 1.18181817e-02 1.81818183e-03 1.54545456e-02
      2.99999993e-02 5.45454537e-03 1.09090907e-02 7.27272732e-03
      1.36363637e-02 3.54545452e-02 6.36363635e-03 1.36363637e-02
      2.27272734e-02 1.81818183e-03 4.54545440e-03 7.27272732e-03
      1.36363637e-02 3.63636366e-03 8.18181783e-03 1.09090907e-02
      9.09090880e-03 3.09090912e-02 6.36363635e-03 1.72727276e-02
      2.72727269e-03 1.09090907e-02 8.18181783e-03 3.63636366e-03
      4.54545440e-03 8.18181783e-03 3.63636366e-03 3.63636366e-03
      6.36363635e-03 1.54545456e-02 9.09090915e-04 9.99999978e-03
      2.72727269e-03 1.81818183e-03 7.27272732e-03 1.81818183e-03
      3.63636366e-03 2.72727269e-03 3.63636366e-03 2.18181815e-02
      4.54545440e-03 1.18181817e-02 2.09090915e-02 6.36363635e-03
      7.27272732e-03 1.81818176e-02 4.54545440e-03 3.63636366e-03
      4.54545440e-03 8.18181783e-03 3.09090912e-02 1.09090907e-02
      9.09090880e-03 1.81818183e-03 1.45454546e-02 7.27272732e-03
      8.18181783e-03 2.81818174e-02 7.27272732e-03 9.09090880e-03
      1.90909095e-02 7.27272732e-03 6.36363635e-03 2.27272734e-02
      5.45454537e-03 1.36363637e-02 9.09090880e-03 1.27272727e-02</_>
    <_>
      1.19112078e-02 4.87276679e-03 7.57985935e-03 1.35354633e-02
      1.24526257e-02 6.49702223e-03 7.57985935e-03 1.78668108e-02
      1.51597187e-02 8.12127814e-03 6.49702223e-03 1.13697890e-02
      1.62425563e-02 8.66269600e-03 5.41418500e-04 6.49702223e-03
      1.02869514e-02 3.24851112e-03 5.41418511e-03 5.95560391e-03
      1.40768811e-02 6.49702223e-03 5.41418511e-03 1.78668108e-02
      3.78992967e-03 1.02869514e-02 5.14347591e-02 6.49702223e-03
      5.41418511e-03 3.24851112e-03 3.78992967e-03 7.57985935e-03
      1.24526257e-02 5.95560391e-03 7.57985935e-03 1.84082296e-02
      7.03844056e-03 1.40768811e-02 4.87276679e-03 1.08283702e-02
      2.92365998e-02 9.20411479e-03 3.24851112e-03 7.03844056e-03
      1.19112078e-02 1.02869514e-02 1.46182999e-02 8.12127814e-03
      1.40768811e-02 4.87276651e-02 5.41418511e-03 1.62425563e-02
      1.08283702e-02 7.03844056e-03 5.41418511e-03 1.89496484e-02
      4.87276679e-03 8.66269600e-03 4.87276679e-03 5.95560391e-03
      1.08283702e-02 1.35354633e-02 6.49702223e-03 8.66269600e-03
      5.41418511e-03 4.87276679e-03 1.24526257e-02 8.66269600e-03
      5.41418511e-03 2.16567400e-03 4.33134800e-03 5.95560391e-03
      3.78992967e-03 1.24526257e-02 1.19112078e-02 4.33134800e-03
      1.13697890e-02 9.74553358e-03 4.87276679e-03 5.95560391e-03
      1.62425563e-02 9.74553358e-03 1.57011375e-02 1.19112078e-02
      8.66269600e-03 5.41418511e-03 4.87276679e-03 4.33134800e-03
      1.13697890e-02 1.02869514e-02 1.40768811e-02 7.57985935e-03
      1.40768811e-02 1.02869514e-02 4.33134800e-03 2.49052513e-02
      3.78992967e-03 1.62425563e-02 3.24851112e-03 7.57985935e-03</_>
    <_>
      7.87401572e-03 1.40903443e-02 1.16038127e-02 1.61624532e-02
      1.20182345e-02 1.36759225e-02 5.80190634e-03 1.16038127e-02
      1.40903443e-02 6.63074991e-03 7.04517215e-03 1.03605473e-02
      1.28470780e-02 1.24326563e-02 2.90095317e-03 8.28843750e-03
      8.28843750e-03 7.04517215e-03 1.20182345e-02 1.11893909e-02
      1.11893909e-02 5.80190634e-03 5.80190634e-03 1.36759225e-02
      4.97306278e-03 9.53170285e-03 2.98383757e-02 8.28843750e-03
      1.24326569e-03 7.45959394e-03 5.38748456e-03 5.80190634e-03
      1.36759225e-02 6.63074991e-03 1.28470780e-02 1.49191879e-02
      4.55864053e-03 9.11728106e-03 9.94612556e-03 1.36759225e-02
      2.40364689e-02 3.31537495e-03 3.31537495e-03 4.97306278e-03
      9.94612556e-03 8.28843750e-03 1.28470780e-02 4.14421875e-03
      1.53336097e-02 5.51181100e-02 1.20182345e-02 1.28470780e-02
      5.80190634e-03 2.07210938e-03 9.53170285e-03 2.48653139e-03
      7.45959394e-03 9.94612556e-03 5.80190634e-03 6.21632813e-03
      1.20182345e-02 1.65768750e-02 8.28843750e-03 9.94612556e-03
      4.55864053e-03 7.45959394e-03 1.03605473e-02 1.20182345e-02
      4.14421875e-03 5.38748456e-03 8.70285928e-03 5.38748456e-03
      5.80190634e-03 1.28470780e-02 7.04517215e-03 7.87401572e-03
      1.16038127e-02 1.36759225e-02 9.11728106e-03 4.55864053e-03
      1.45047661e-02 1.28470780e-02 9.11728106e-03 4.97306278e-03
      1.03605473e-02 5.38748456e-03 1.16038127e-02 4.14421875e-03
      6.63074991e-03 1.11893909e-02 1.20182345e-02 1.20182345e-02
      2.40364689e-02 1.16038127e-02 4.14421875e-03 1.65768750e-02
      1.11893909e-02 1.28470780e-02 4.97306278e-03 6.63074991e-03</_>
    <_>
      9.24024638e-03 5.13347005e-03 9.24024638e-03 8.21355265e-03
      5.13347005e-03 6.16016425e-03 8.21355265e-03 1.33470222e-02
      1.54004106e-02 2.05338802e-02 1.02669408e-03 5.13347005e-03
      7.18685845e-03 6.16016425e-03 6.16016425e-03 1.64271053e-02
      3.08008213e-03 8.21355265e-03 5.13347005e-03 1.43737169e-02
      4.10677632e-03 3.08008213e-03 5.13347005e-03 6.16016425e-03
      6.16016425e-03 5.13347005e-03 7.08418861e-02 1.12936348e-02
      1.02669408e-03 6.16016425e-03 6.16016425e-03 3.08008213e-03
      1.33470222e-02 2.05338802e-02 7.18685845e-03 1.54004106e-02
      4.10677632e-03 1.64271053e-02 4.10677632e-03 9.24024638e-03
      2.77207401e-02 1.02669408e-03 1.02669408e-03 1.02669401e-02
      1.33470222e-02 4.10677632e-03 1.84804928e-02 6.16016425e-03
      1.84804928e-02 5.03080077e-02 7.18685845e-03 3.18275169e-02
      1.95071865e-02 9.24024638e-03 9.24024638e-03 2.05338816e-03
      5.13347005e-03 8.21355265e-03 7.18685845e-03 6.16016425e-03
      6.16016425e-03 1.12936348e-02 6.16016425e-03 1.02669401e-02
      2.05338816e-03 3.08008213e-03 1.23203285e-02 5.13347005e-03
      5.13347005e-03 4.10677632e-03 2.05338816e-03 6.16016425e-03
      8.21355265e-03 5.13347005e-03 1.02669401e-02 7.18685845e-03
      8.21355265e-03 5.13347005e-03 6.16016425e-03 1.02669408e-03
      2.87474338e-02 1.95071865e-02 4.20944542e-02 8.21355265e-03
      6.16016425e-03 3.08008213e-03 1.43737169e-02 2.05338816e-03
      2.05338816e-03 2.05338816e-03 7.18685845e-03 1.23203285e-02
      2.97741275e-02 1.74537990e-02 3.08008213e-03 7.18685845e-03
      1.02669408e-03 9.24024638e-03 3.08008213e-03 7.18685845e-03</_>
    <_>
      3.97111895e-03 1.29963895e-02 6.85920566e-03 1.51624549e-02
      6.85920566e-03 6.49819477e-03 6.85920566e-03 1.08303251e-02
      8.30324925e-03 1.11913355e-02 1.11913355e-02 7.58122746e-03
      1.15523469e-02 9.02527105e-03 7.22021656e-03 1.01083033e-02
      3.61010828e-03 6.13718433e-03 8.30324925e-03 9.02527105e-03
      7.22021656e-03 6.49819477e-03 2.52707582e-03 1.04693137e-02
      5.41516254e-03 5.77617344e-03 5.52346557e-02 9.02527105e-03
      2.88808672e-03 4.69314074e-03 6.49819477e-03 8.30324925e-03
      2.92418767e-02 7.22021656e-03 6.13718433e-03 1.19133573e-02
      9.74729285e-03 2.59927791e-02 1.01083033e-02 6.85920566e-03
      2.92418767e-02 2.88808672e-03 5.05415164e-03 9.74729285e-03
      1.40794227e-02 3.97111895e-03 1.51624549e-02 4.69314074e-03
      1.58844758e-02 6.85920566e-02 3.24909738e-03 1.37184113e-02
      1.19133573e-02 4.69314074e-03 6.85920566e-03 3.61010828e-03
      6.49819477e-03 8.66425969e-03 5.41516254e-03 6.85920566e-03
      9.74729285e-03 1.11913355e-02 1.04693137e-02 2.88808672e-03
      3.97111895e-03 3.61010828e-03 7.58122746e-03 6.49819477e-03
      1.80505414e-03 3.97111895e-03 3.97111895e-03 9.38628148e-03
      9.74729285e-03 9.38628148e-03 1.40794227e-02 6.85920566e-03
      5.41516254e-03 4.33212984e-03 5.77617344e-03 3.97111895e-03
      1.04693137e-02 1.11913355e-02 1.11913355e-02 1.51624549e-02
      7.58122746e-03 1.80505414e-03 5.41516254e-03 3.24909738e-03
      7.22021656e-03 1.55234654e-02 1.11913355e-02 9.74729285e-03
      2.16606501e-02 1.48014445e-02 7.22021656e-03 3.35740075e-02
      4.69314074e-03 1.37184113e-02 6.85920566e-03 7.22021656e-03</_>
    <_>
      3.78787890e-03 7.57575780e-03 1.51515156e-02 2.46212129e-02
      1.51515156e-02 9.46969725e-03 9.46969725e-03 1.51515156e-02
      3.78787890e-03 1.32575762e-02 5.68181835e-03 5.68181835e-03
      2.08333340e-02 7.57575780e-03 7.57575780e-03 1.13636367e-02
      1.13636367e-02 1.13636367e-02 1.13636367e-02 5.68181835e-03
      9.46969725e-03 3.78787890e-03 5.68181835e-03 7.57575780e-03
      7.57575780e-03 0. 1.89393945e-03 1.70454551e-02 0. 1.13636367e-02
      3.78787890e-03 1.70454551e-02 2.27272734e-02 7.57575780e-03
      3.78787890e-03 1.13636367e-02 1.70454551e-02 1.89393945e-02
      1.51515156e-02 3.78787890e-03 3.03030312e-02 1.32575762e-02
      9.46969725e-03 1.32575762e-02 1.51515156e-02 1.89393945e-03
      1.32575762e-02 7.57575780e-03 1.70454551e-02 1.13636367e-02
      1.13636367e-02 7.57575780e-03 1.89393945e-02 3.78787890e-03
      1.13636367e-02 3.78787890e-03 7.57575780e-03 7.57575780e-03
      1.89393945e-03 1.70454551e-02 0. 1.32575762e-02 1.51515156e-02
      7.57575780e-03 0. 7.57575780e-03 1.32575762e-02 1.89393945e-03
      5.68181835e-03 1.89393945e-03 1.32575762e-02 3.21969688e-02
      5.68181835e-03 1.13636367e-02 2.46212129e-02 1.32575762e-02
      7.57575780e-03 1.51515156e-02 5.68181835e-03 5.68181835e-03
      9.46969725e-03 5.68181835e-03 1.89393945e-03 3.78787890e-03
      7.57575780e-03 1.89393945e-03 9.46969725e-03 5.68181835e-03
      3.78787890e-03 1.89393945e-02 3.78787890e-03 5.68181835e-03
      5.68181835e-03 2.08333340e-02 3.78787890e-03 1.70454551e-02
      7.57575780e-03 2.08333340e-02 5.68181835e-03 1.51515156e-02</_>
    <_>
      6.77710865e-03 6.40060240e-03 6.40060240e-03 6.40060240e-03
      9.03614424e-03 4.51807212e-03 8.65963846e-03 6.77710865e-03
      4.89457836e-03 1.09186750e-02 1.09186750e-02 3.38855432e-03
      1.58132538e-02 4.89457836e-03 4.89457836e-03 7.15361442e-03
      1.01656625e-02 7.53012067e-03 6.77710865e-03 6.02409616e-03
      7.53012067e-03 7.53012067e-03 5.27108414e-03 4.14156634e-03
      5.27108414e-03 9.41265095e-03 7.19126537e-02 5.27108414e-03
      1.16716865e-02 3.38855432e-03 6.40060240e-03 1.12951808e-02
      1.69427712e-02 6.77710865e-03 7.90662691e-03 1.31777106e-02
      5.27108414e-03 1.58132538e-02 6.77710865e-03 1.12951808e-02
      1.95783135e-02 6.40060240e-03 2.63554207e-03 3.38855432e-03
      9.41265095e-03 1.12951808e-02 1.73192769e-02 6.02409616e-03
      1.92018077e-02 7.07831308e-02 3.38855432e-03 8.65963846e-03
      1.05421683e-02 5.27108414e-03 1.05421683e-02 1.88253017e-03
      5.27108414e-03 1.31777106e-02 4.14156634e-03 4.89457836e-03
      1.12951808e-02 7.53012067e-03 9.03614424e-03 7.53012067e-03
      6.02409616e-03 7.53012067e-03 1.05421683e-02 5.64759038e-03
      6.40060240e-03 3.01204808e-03 6.02409616e-03 9.78915673e-03
      8.28313269e-03 1.16716865e-02 1.99548192e-02 6.02409616e-03
      6.02409616e-03 2.52259038e-02 4.51807212e-03 4.51807212e-03
      9.03614424e-03 1.16716865e-02 2.22138558e-02 9.41265095e-03
      3.76506033e-03 1.50602404e-03 7.53012067e-03 3.01204808e-03
      5.27108414e-03 7.15361442e-03 6.02409616e-03 7.90662691e-03
      3.65210846e-02 1.43072288e-02 9.03614424e-03 2.18373500e-02
      1.12951808e-02 7.90662691e-03 4.14156634e-03 8.65963846e-03</_>
    <_>
      8.28729291e-03 1.10497242e-02 5.52486209e-03 1.38121545e-02
      2.20994484e-02 2.20994484e-02 1.93370171e-02 1.10497242e-02
      2.76243105e-03 1.65745858e-02 0. 1.10497242e-02 1.93370171e-02
      5.52486209e-03 5.52486209e-03 8.28729291e-03 2.76243105e-03
      5.52486209e-03 2.76243105e-03 1.38121545e-02 8.28729291e-03
      1.38121545e-02 2.76243105e-03 8.28729291e-03 5.52486209e-03
      8.28729291e-03 0. 1.10497242e-02 5.52486209e-03 1.10497242e-02
      8.28729291e-03 1.65745858e-02 1.93370171e-02 2.76243105e-03
      2.76243105e-03 1.10497242e-02 5.52486209e-03 2.76243105e-03
      2.20994484e-02 2.48618778e-02 1.38121545e-02 1.65745858e-02
      2.76243105e-03 5.52486209e-03 2.48618778e-02 5.52486209e-03
      3.31491716e-02 5.52486209e-03 2.48618778e-02 0. 8.28729291e-03
      1.93370171e-02 1.93370171e-02 1.10497242e-02 8.28729291e-03
      8.28729291e-03 8.28729291e-03 5.52486209e-03 5.52486209e-03
      2.76243105e-03 1.10497242e-02 5.52486209e-03 8.28729291e-03
      1.10497242e-02 2.76243105e-03 2.76243105e-03 5.52486209e-03
      5.52486209e-03 8.28729291e-03 2.76243105e-03 8.28729291e-03
      4.69613262e-02 8.28729291e-03 2.76243091e-02 1.10497242e-02
      1.10497242e-02 5.52486209e-03 5.52486209e-03 2.76243105e-03
      5.52486209e-03 2.20994484e-02 2.76243105e-03 1.38121545e-02
      1.10497242e-02 5.52486209e-03 0. 5.52486209e-03 1.93370171e-02
      5.52486209e-03 0. 1.65745858e-02 5.52486209e-03 0. 1.65745858e-02
      5.52486209e-03 2.76243091e-02 0. 1.10497242e-02 0. 8.28729291e-03</_>
    <_>
      0. 0. 0. 3.03030312e-02 3.03030312e-02 0. 0. 0. 3.03030312e-02 0.
      0. 3.03030312e-02 0. 3.03030312e-02 0. 0. 3.03030312e-02 0.
      3.03030312e-02 0. 0. 0. 0. 0. 0. 0. 0. 0. 0. 0. 0. 0. 0. 0. 0. 0.
      3.03030312e-02 0. 0. 3.03030312e-02 6.06060624e-02 0. 0. 0. 0. 0.
      0. 6.06060624e-02 0. 0. 3.03030312e-02 1.21212125e-01 0. 0. 0. 0.
      0. 0. 0. 0. 0. 0. 0. 0. 0. 3.03030312e-02 3.03030312e-02
      3.03030312e-02 0. 0. 0. 0. 0. 9.09090936e-02 3.03030312e-02 0. 0.
      0. 0. 0. 6.06060624e-02 0. 0. 3.03030312e-02 0. 0. 0. 0. 0. 0. 0.
      0. 3.03030312e-02 0. 0. 6.06060624e-02 0. 3.03030312e-02 0.
      3.03030312e-02</_>
    <_>
      8.20859522e-03 1.11057460e-02 1.01400288e-02 1.01400288e-02
      1.06228879e-02 5.79430209e-03 6.76001934e-03 8.69145337e-03
      8.20859522e-03 2.89715105e-03 7.72573659e-03 6.76001934e-03
      1.11057460e-02 7.24287797e-03 1.44857552e-03 1.40028968e-02
      8.20859522e-03 1.25543214e-02 1.15886042e-02 1.01400288e-02
      6.76001934e-03 8.20859522e-03 7.24287797e-03 1.01400288e-02
      6.27716072e-03 1.54514732e-02 7.43602142e-02 1.11057460e-02
      5.31144394e-03 4.82858531e-03 3.38000967e-03 3.38000967e-03
      1.15886042e-02 5.79430209e-03 7.72573659e-03 1.54514732e-02
      2.89715105e-03 1.20714633e-02 3.86286830e-03 5.31144394e-03
      2.46257838e-02 4.82858531e-03 7.24287797e-03 9.17431153e-03
      8.20859522e-03 6.76001934e-03 1.40028968e-02 2.41429266e-03
      1.06228879e-02 8.64316747e-02 6.27716072e-03 1.15886042e-02
      8.20859522e-03 6.76001934e-03 9.65717062e-03 1.73829067e-02
      3.86286830e-03 5.31144394e-03 3.86286830e-03 4.82858531e-03
      9.17431153e-03 1.40028968e-02 7.72573659e-03 5.79430209e-03
      2.89715105e-03 2.41429266e-03 6.27716072e-03 8.69145337e-03
      1.35200387e-02 3.86286830e-03 7.72573659e-03 2.41429266e-03
      2.89715105e-03 1.20714633e-02 2.41429266e-02 6.76001934e-03
      8.69145337e-03 1.20714633e-02 8.20859522e-03 2.89715105e-03
      1.40028968e-02 5.79430209e-03 1.44857559e-02 4.82858531e-03
      8.69145337e-03 1.06228879e-02 8.20859522e-03 1.93143415e-03
      4.82858531e-03 7.24287797e-03 1.01400288e-02 4.34572669e-03
      3.86286825e-02 9.65717062e-03 1.11057460e-02 1.30371805e-02
      1.44857552e-03 8.20859522e-03 4.34572669e-03 9.65717062e-03</_>
    <_>
      3.77833750e-03 1.51133500e-02 1.51133500e-02 1.88916884e-02
      1.76322423e-02 7.55667500e-03 8.81612115e-03 8.81612115e-03
      1.38539039e-02 1.51133500e-02 7.55667500e-03 2.51889159e-03
      1.13350125e-02 5.03778318e-03 5.03778318e-03 1.00755664e-02
      1.13350125e-02 1.76322423e-02 1.63727961e-02 6.29722932e-03
      1.38539039e-02 5.03778318e-03 3.77833750e-03 1.25944586e-02
      8.81612115e-03 7.55667500e-03 1.38539039e-02 6.29722932e-03
      5.03778318e-03 1.13350125e-02 3.77833750e-03 8.81612115e-03
      1.25944586e-02 8.81612115e-03 8.81612115e-03 1.88916884e-02
      2.51889159e-03 6.29722932e-03 1.13350125e-02 1.25944586e-02
      4.03022654e-02 8.81612115e-03 6.29722932e-03 2.51889159e-03
      5.03778318e-03 3.77833750e-03 1.51133500e-02 7.55667500e-03
      1.00755664e-02 1.00755664e-02 1.25944586e-02 1.38539039e-02
      7.55667500e-03 3.77833750e-03 1.88916884e-02 8.81612115e-03
      8.81612115e-03 1.13350125e-02 3.77833750e-03 1.13350125e-02
      1.25944586e-02 6.29722932e-03 7.55667500e-03 5.03778318e-03
      1.13350125e-02 1.00755664e-02 1.25944586e-02 1.13350125e-02
      8.81612115e-03 1.25944579e-03 1.25944586e-02 1.51133500e-02
      5.03778318e-03 1.63727961e-02 1.00755664e-02 6.29722932e-03
      8.81612115e-03 1.76322423e-02 8.81612115e-03 6.29722932e-03
      1.00755664e-02 1.00755664e-02 6.29722932e-03 6.29722932e-03
      1.25944586e-02 7.55667500e-03 8.81612115e-03 1.51133500e-02
      1.13350125e-02 1.38539039e-02 3.77833750e-03 8.81612115e-03
      1.25944586e-02 5.03778318e-03 5.03778318e-03 1.88916884e-02
      1.00755664e-02 1.63727961e-02 2.51889159e-03 1.00755664e-02</_>
    <_>
      8.18330608e-03 3.27332248e-03 1.39116207e-02 3.02782319e-02
      8.18330608e-03 6.54664496e-03 1.14566283e-02 1.55482814e-02
      1.06382975e-02 1.80032738e-02 3.27332248e-03 1.14566283e-02
      1.71849430e-02 4.90998384e-03 5.72831417e-03 1.14566283e-02
      6.54664496e-03 7.36497529e-03 1.30932899e-02 1.88216045e-02
      1.55482814e-02 1.63666124e-03 4.90998384e-03 3.27332248e-03
      6.54664496e-03 8.18330608e-03 9.81996767e-03 3.27332248e-03
      5.72831417e-03 4.90998384e-03 7.36497529e-03 4.90998384e-03
      1.80032738e-02 4.09165304e-03 9.81996767e-03 4.90998384e-03
      1.06382975e-02 1.22749591e-02 5.72831417e-03 1.06382975e-02
      2.94599012e-02 9.00163688e-03 5.72831417e-03 1.14566283e-02
      8.18330608e-03 1.22749591e-02 1.22749591e-02 9.81996767e-03
      1.30932899e-02 2.04582643e-02 5.72831417e-03 6.54664496e-03
