<?xml version="1.0"?>
<opencv_storage>
<my_svm type_id="opencv-ml-svm">
  <svm_type>C_SVC</svm_type>
  <kernel><type>RBF</type>
    <gamma>5.0625000000000009e-01</gamma></kernel>
  <C>3.1250000000000000e+02</C>
  <term_criteria><epsilon>2.2204460492503131e-16</epsilon>
    <iterations>100000</iterations></term_criteria>
  <var_all>100</var_all>
  <var_count>100</var_count>
  <class_count>9</class_count>
  <class_labels type_id="opencv-matrix">
    <rows>1</rows>
    <cols>9</cols>
    <dt>i</dt>
    <data>
      1 2 3 4 5 6 7 8 9</data></class_labels>
  <sv_total>147</sv_total>
  <support_vectors>
    <_>
      2.70270277e-02 0. 1.35135138e-02 4.72972989e-02 0. 2.70270277e-02
      6.75675692e-03 0. 0. 6.75675692e-03 6.75675692e-03 6.75675692e-03
      1.35135138e-02 6.75675692e-03 0. 3.37837823e-02 0. 6.75675692e-03
      0. 0. 6.75675692e-03 0. 1.35135138e-02 4.05405387e-02
      2.02702694e-02 6.75675692e-03 0. 0. 1.35135138e-02 6.75675692e-03
      1.35135138e-02 6.75675692e-03 6.75675692e-03 0. 0. 0.
      6.75675692e-03 4.72972989e-02 0. 2.02702694e-02 0. 0.
      4.05405387e-02 0. 0. 6.08108118e-02 6.75675692e-03 1.35135138e-02
      0. 1.35135138e-02 6.75675692e-03 0. 0. 2.70270277e-02
      6.75675692e-03 0. 0. 2.70270277e-02 6.75675692e-03 6.75675692e-03
      0. 0. 0. 1.35135138e-02 2.70270277e-02 0. 6.75675692e-03
      6.75675692e-03 5.40540554e-02 6.75675692e-03 0. 6.75675692e-03
      2.70270277e-02 2.02702694e-02 0. 0. 1.35135138e-02 3.37837823e-02
      2.02702694e-02 6.75675692e-03 0. 2.70270277e-02 6.75675692e-03
      6.75675692e-03 1.35135138e-02 2.02702694e-02 6.75675692e-03
      6.75675692e-03 1.35135138e-02 0. 0. 1.35135138e-02 0. 0. 0.
      6.75675692e-03 0. 0. 0. 6.75675692e-03</_>
    <_>
      3.61445770e-02 6.02409616e-03 0. 1.80722885e-02 0. 0.
      6.02409616e-03 6.02409616e-03 0. 1.20481923e-02 0. 3.01204827e-02
      3.61445770e-02 0. 0. 1.08433738e-01 6.02409616e-03 3.01204827e-02
      0. 2.40963846e-02 1.20481923e-02 0. 0. 1.80722885e-02
      1.20481923e-02 6.02409616e-03 0. 1.20481923e-02 1.80722885e-02
      1.20481923e-02 6.02409616e-03 1.20481923e-02 1.80722885e-02 0.
      6.02409616e-03 0. 1.20481923e-02 0. 1.80722885e-02 6.02409616e-03
      0. 0. 2.40963846e-02 0. 0. 1.80722885e-02 1.20481923e-02
      1.02409638e-01 6.02409616e-03 6.02409616e-03 6.02409616e-03
      1.20481923e-02 0. 0. 0. 1.20481923e-02 0. 6.02409616e-03 0. 0. 0.
      6.02409616e-03 0. 2.40963846e-02 0. 0. 0. 6.02409616e-03
      6.02409616e-03 0. 0. 2.40963846e-02 6.02409616e-03 2.40963846e-02
      0. 1.20481923e-02 1.20481923e-02 6.02409616e-03 0. 0. 0. 0.
      6.02409616e-03 0. 3.01204827e-02 0. 1.80722885e-02 1.20481923e-02
      6.02409616e-03 3.01204827e-02 0. 3.61445770e-02 1.20481923e-02
      1.20481923e-02 6.02409616e-03 6.02409616e-03 0. 0. 6.02409616e-03
      0.</_>
    <_>
      6.99300691e-03 0. 0. 5.94405606e-02 0. 3.49650346e-03
      3.49650346e-03 3.49650346e-03 0. 1.04895104e-02 0. 3.49650346e-03
      6.99300691e-03 3.49650346e-03 0. 2.62237757e-01 0. 4.89510484e-02
      6.99300691e-03 3.49650346e-03 1.74825173e-02 3.49650346e-03 0.
      1.74825173e-02 1.04895104e-02 0. 3.49650346e-03 3.49650346e-03
      1.04895104e-02 3.49650346e-03 6.99300691e-03 0. 0. 0. 0.
      3.49650346e-03 0. 3.49650346e-03 1.04895104e-02 0. 6.99300691e-03
      6.99300691e-03 0. 6.99300691e-03 3.49650346e-03 1.39860138e-02
      3.49650346e-03 2.30769232e-01 3.49650346e-03 1.04895104e-02 0. 0.
      0. 1.04895104e-02 1.39860138e-02 0. 0. 3.49650346e-03
      3.49650346e-03 1.04895104e-02 0. 0. 0. 1.39860138e-02 0. 0. 0. 0.
      3.49650346e-03 1.04895104e-02 0. 1.04895104e-02 3.49650346e-03
      6.99300691e-03 0. 3.49650346e-03 3.49650346e-03 1.39860138e-02 0.
      1.74825173e-02 3.49650346e-03 3.49650346e-03 3.49650346e-03 0.
      1.04895104e-02 6.99300691e-03 0. 0. 3.49650346e-03 0. 0.
      6.99300691e-03 3.49650346e-03 1.04895104e-02 0. 6.99300691e-03 0.
      0. 0. 6.99300691e-03</_>
    <_>
      1.94174759e-02 0. 0. 1.94174759e-02 0. 5.33980578e-02 0. 0.
      1.94174759e-02 9.70873795e-03 0. 7.28155375e-02 1.45631069e-02 0.
      0. 5.33980578e-02 0. 2.42718440e-02 0. 9.70873795e-03
      3.88349518e-02 0. 4.85436898e-03 2.42718440e-02 1.94174759e-02 0.
      0. 0. 2.42718440e-02 1.45631069e-02 0. 4.85436898e-03 0.
      4.85436898e-03 4.85436898e-03 0. 4.85436898e-03 0. 0. 0. 0.
      1.94174759e-02 4.85436898e-03 0. 0. 1.45631069e-02 4.85436898e-03
      2.62135923e-01 4.85436898e-03 9.70873795e-03 4.85436898e-03 0.
      4.85436898e-03 9.70873795e-03 4.85436898e-03 4.85436898e-03
      1.94174759e-02 9.70873795e-03 0. 0. 0. 0. 0. 0. 0. 0.
      1.94174759e-02 5.33980578e-02 0. 0. 0. 9.70873795e-03 0.
      4.85436898e-03 0. 9.70873795e-03 0. 4.85436898e-03 0. 0.
      1.94174759e-02 9.70873795e-03 0. 0. 4.85436898e-03 4.85436898e-03
      0. 0. 0. 0. 0. 4.85436898e-03 0. 0. 4.85436898e-03 0.
      1.45631069e-02 0. 0. 1.45631069e-02</_>
    <_>
      1.22591946e-02 1.75131345e-03 3.50262690e-03 4.02802117e-02 0.
      7.00525381e-03 3.50262690e-03 0. 1.05078807e-02 1.22591946e-02
      5.25394036e-03 5.25394036e-03 2.10157614e-02 3.50262690e-03 0.
      2.76707530e-01 3.50262690e-03 3.67775820e-02 8.75656772e-03
      1.05078807e-02 1.05078807e-02 1.75131345e-03 1.75131345e-03
      4.55341488e-02 1.75131345e-03 0. 0. 3.50262690e-03 1.40105076e-02
      5.95446602e-02 3.50262690e-03 1.75131345e-03 1.57618206e-02
      1.75131345e-03 1.75131345e-03 0. 4.20315228e-02 1.40105076e-02
      5.25394036e-03 1.05078807e-02 1.75131345e-03 1.75131345e-03
      1.75131345e-03 3.50262690e-03 0. 3.50262690e-03 1.75131345e-03
      4.72854637e-02 0. 1.05078807e-02 0. 3.50262690e-03 7.00525381e-03
      7.00525381e-03 1.05078807e-02 5.25394036e-03 3.50262690e-03
      2.80210152e-02 1.75131345e-03 1.40105076e-02 0. 3.50262690e-03 0.
      1.75131345e-03 1.75131345e-03 0. 1.05078807e-02 3.50262690e-03
      1.22591946e-02 0. 1.75131345e-03 1.75131345e-03 7.00525381e-03
      3.50262690e-03 0. 8.75656772e-03 0. 5.25394036e-03 8.75656772e-03
      1.75131345e-03 8.75656772e-03 2.27670744e-02 0. 3.50262690e-03
      3.50262690e-03 3.50262690e-03 1.75131345e-03 3.50262690e-03 0.
      1.75131345e-03 1.75131345e-03 5.25394036e-03 3.50262690e-03
      5.25394036e-03 0. 5.25394036e-03 1.75131345e-03 0. 7.00525381e-03
      0.</_>
    <_>
      1.25404531e-02 8.09061527e-03 8.09061527e-03 8.29287991e-02
      1.21359224e-03 1.37540456e-02 4.44983831e-03 1.01132682e-02
      1.77993532e-02 1.13268606e-02 4.85436898e-03 5.66343032e-03
      9.70873795e-03 5.82524277e-02 7.68608414e-03 3.68122980e-02
      6.47249212e-03 1.65857598e-02 3.23624606e-03 6.47249212e-03
      1.98220070e-02 4.44983831e-03 4.85436898e-03 6.47249212e-03
      1.17313918e-02 3.64077673e-03 6.06796099e-03 1.21359220e-02
      1.01132682e-02 6.47249212e-03 1.57766994e-02 1.86084136e-02
      8.09061527e-03 2.83171516e-03 6.06796099e-03 3.23624606e-03
      6.47249212e-03 3.23624606e-03 6.47249212e-03 5.66343032e-03
      4.85436898e-03 6.87702280e-03 1.01132682e-02 5.25889965e-03
      2.02265382e-03 2.66990289e-02 4.85436898e-03 4.73300964e-02
      4.44983831e-03 6.47249212e-03 3.23624606e-03 7.28155347e-03
      5.66343032e-03 1.09223304e-02 1.77993532e-02 4.04530764e-03
      3.64077673e-03 1.09223304e-02 1.25404531e-02 5.25889965e-03
      5.25889965e-03 4.04530764e-03 6.87702280e-03 6.87702280e-03
      1.13268606e-02 6.06796099e-03 1.01132682e-02 7.28155347e-03
      2.42718440e-02 5.66343032e-03 3.23624606e-03 1.13268606e-02
      1.33495145e-02 6.87702280e-03 6.06796099e-03 9.30420682e-03
      1.29449842e-02 1.49676371e-02 5.66343032e-03 6.47249212e-03
      1.13268606e-02 4.44983831e-03 5.66343032e-03 4.44983831e-03
      2.42718449e-03 4.04530764e-03 4.04530764e-03 7.28155347e-03
      6.87702280e-03 3.64077673e-03 5.25889965e-03 6.47249212e-03
      1.37540456e-02 7.28155347e-03 4.85436898e-03 1.05177993e-02
      4.04530764e-03 1.13268606e-02 6.06796099e-03 9.70873795e-03</_>
    <_>
      1.08695654e-02 1.08695654e-02 0. 1.08695654e-02 0. 4.34782617e-02
      0. 2.17391308e-02 1.08695654e-02 0. 0. 3.26086953e-02 0.
      4.34782617e-02 0. 1.08695654e-02 0. 5.43478243e-02 1.08695654e-02
      0. 4.34782617e-02 0. 0. 1.08695654e-02 0. 1.08695654e-02 0. 0.
      3.26086953e-02 0. 0. 0. 0. 0. 0. 1.08695654e-02 2.17391308e-02 0.
      0. 0. 0. 0. 0. 0. 1.08695654e-02 6.52173907e-02 1.08695654e-02
      2.17391308e-02 0. 1.08695654e-02 0. 0. 0. 3.26086953e-02 0. 0. 0.
      4.34782617e-02 1.08695654e-02 1.08695654e-02 0. 1.08695654e-02 0.
      2.17391308e-02 0. 1.08695654e-02 0. 1.08695654e-02 5.43478243e-02
      0. 0. 0. 1.08695654e-02 5.43478243e-02 1.08695654e-02
      1.08695654e-02 3.26086953e-02 3.26086953e-02 0. 0. 0. 0.
      2.17391308e-02 0. 1.08695654e-02 0. 0. 0. 1.08695654e-02 0. 0.
      1.08695654e-02 3.26086953e-02 0. 1.08695654e-02 2.17391308e-02 0.
      0. 0. 1.08695654e-02</_>
    <_>
      4.78898548e-03 1.04759056e-02 7.78210117e-03 2.45435499e-02
      5.08829672e-03 1.07752169e-02 7.78210117e-03 1.28703984e-02
      5.08829672e-03 7.48278946e-03 9.87728219e-03 7.48278946e-03
      4.19036206e-03 1.64621379e-02 1.04759056e-02 7.93175697e-02
      7.78210117e-03 1.19724637e-02 8.97934753e-03 8.68003629e-03
      1.07752169e-02 7.48278946e-03 4.19036206e-03 1.46662677e-02
      1.07752169e-02 1.13738403e-02 8.38072412e-03 1.10745290e-02
      1.01765934e-02 6.28554309e-03 1.64621379e-02 1.55642023e-02
      7.18347821e-03 6.58485480e-03 1.22717749e-02 6.58485480e-03
      6.88416651e-03 7.78210117e-03 6.58485480e-03 9.27865878e-03
      7.18347821e-03 5.08829672e-03 1.10745290e-02 7.48278946e-03
      7.78210117e-03 1.91559419e-02 3.89105058e-03 4.45974246e-02
      8.08141287e-03 8.08141287e-03 8.38072412e-03 7.18347821e-03
      9.27865878e-03 8.68003629e-03 1.40676443e-02 5.68692014e-03
      5.68692014e-03 8.08141287e-03 1.07752169e-02 8.08141287e-03
      2.39449274e-03 8.08141287e-03 6.88416651e-03 9.27865878e-03
      7.78210117e-03 5.38760843e-03 5.68692014e-03 8.97934753e-03
      1.76593829e-02 1.76593829e-02 9.87728219e-03 6.58485480e-03
      1.37683330e-02 6.88416651e-03 5.68692014e-03 6.88416651e-03
      1.16731515e-02 1.04759056e-02 8.97934753e-03 8.38072412e-03
      8.68003629e-03 1.04759056e-02 5.38760843e-03 8.08141287e-03
      5.98623184e-03 8.97934753e-03 7.18347821e-03 1.34690208e-02
      8.38072412e-03 8.08141287e-03 8.08141287e-03 6.58485480e-03
      1.07752169e-02 1.01765934e-02 8.97934753e-03 1.28703984e-02
      5.68692014e-03 4.19036206e-03 3.89105058e-03 4.48967377e-03</_>
    <_>
      1.13960113e-02 2.84900283e-03 4.27350448e-03 3.70370373e-02
      4.27350448e-03 1.42450146e-02 5.69800567e-03 4.27350448e-03
      4.27350448e-03 2.42165234e-02 1.42450142e-03 9.97150969e-03
      1.70940179e-02 7.12250732e-03 2.84900283e-03 1.70940179e-02
      4.27350448e-03 8.54700897e-03 5.69800567e-03 7.12250732e-03
      4.27350448e-03 0. 1.42450142e-03 1.85185187e-02 1.85185187e-02
      9.97150969e-03 1.42450142e-03 8.54700897e-03 4.27350448e-03
      1.28205130e-02 7.12250732e-03 1.70940179e-02 1.13960113e-02
      7.12250732e-03 4.27350448e-03 9.97150969e-03 2.84900283e-03
      8.54700897e-03 2.84900283e-03 1.56695154e-02 4.27350448e-03
      4.27350448e-03 8.54700897e-03 7.12250732e-03 4.27350448e-03
      2.27920227e-02 1.99430194e-02 1.28205130e-02 2.13675220e-02
      5.69800567e-03 4.27350448e-03 2.84900283e-03 2.84900283e-03
      1.70940179e-02 1.28205130e-02 1.28205130e-02 4.27350448e-03
      2.42165234e-02 1.56695154e-02 9.97150969e-03 1.42450142e-03
      4.27350448e-03 2.84900283e-03 1.13960113e-02 9.97150969e-03
      1.85185187e-02 5.69800567e-03 0. 1.85185187e-02 9.97150969e-03
      7.12250732e-03 1.56695154e-02 7.12250732e-03 1.13960113e-02
      5.69800567e-03 2.42165234e-02 1.13960113e-02 3.27635333e-02
      4.27350448e-03 9.97150969e-03 1.56695154e-02 1.85185187e-02
      8.54700897e-03 5.69800567e-03 2.27920227e-02 4.27350448e-03
      4.27350448e-03 4.27350448e-03 1.13960113e-02 4.27350448e-03
      8.54700897e-03 9.97150969e-03 7.12250732e-03 1.56695154e-02
      7.12250732e-03 1.56695154e-02 7.12250732e-03 1.85185187e-02
      1.42450142e-03 1.85185187e-02</_>
    <_>
      3.03030293e-03 4.76190494e-03 1.42857144e-02 2.16450226e-02
      6.06060587e-03 1.29870130e-02 9.52380989e-03 1.12554114e-02
      3.46320355e-03 5.19480510e-03 5.19480510e-03 8.22510850e-03
      6.49350649e-03 1.29870130e-02 1.42857144e-02 3.67965363e-02
      7.79220788e-03 7.35930726e-03 9.95671004e-03 3.46320355e-03
      2.55411249e-02 6.49350649e-03 4.76190494e-03 1.38528142e-02
      1.42857144e-02 1.73160173e-02 1.03896102e-02 9.95671004e-03
      4.76190494e-03 4.76190494e-03 1.29870130e-02 2.07792204e-02
      3.89610394e-03 6.06060587e-03 7.79220788e-03 6.06060587e-03
      3.46320355e-03 9.09090880e-03 6.92640711e-03 6.49350649e-03
      6.49350649e-03 5.19480510e-03 8.65800865e-03 9.09090880e-03
      9.09090880e-03 1.38528142e-02 1.29870130e-02 7.87878782e-02
      1.42857144e-02 3.89610394e-03 6.06060587e-03 3.89610394e-03
      9.09090880e-03 4.32900432e-03 1.34199131e-02 7.35930726e-03
      4.32900432e-03 6.49350649e-03 1.08225113e-02 1.08225113e-02
      3.46320355e-03 9.95671004e-03 8.22510850e-03 6.06060587e-03
      1.08225113e-02 4.76190494e-03 9.52380989e-03 5.62770572e-03
      1.68831162e-02 1.12554114e-02 3.46320355e-03 4.76190494e-03
      2.77056284e-02 6.06060587e-03 5.19480510e-03 8.65800865e-03
      1.64502170e-02 1.73160173e-02 1.08225113e-02 6.06060587e-03
      4.32900432e-03 1.94805190e-02 6.92640711e-03 6.92640711e-03
      3.46320355e-03 4.76190494e-03 5.19480510e-03 1.68831162e-02
      4.76190494e-03 6.49350649e-03 1.16883116e-02 3.89610394e-03
      1.38528142e-02 9.95671004e-03 6.49350649e-03 2.03463212e-02
      6.49350649e-03 4.32900432e-03 6.49350649e-03 4.76190494e-03</_>
    <_>
      5.33238519e-03 9.24280100e-03 1.03092780e-02 3.16388197e-02
      1.42196938e-03 1.24422321e-02 6.75435457e-03 1.49306785e-02
      5.68787754e-03 1.13757551e-02 6.75435457e-03 1.10202627e-02
      6.39886223e-03 2.52399575e-02 9.24280100e-03 4.12371121e-02
      4.62140050e-03 9.59829334e-03 7.10984692e-03 6.04336988e-03
      2.87948810e-02 6.39886223e-03 5.33238519e-03 1.42196938e-02
      1.24422321e-02 7.46533927e-03 9.59829334e-03 1.49306785e-02
      6.04336988e-03 4.62140050e-03 1.81301106e-02 2.27515101e-02
      9.59829334e-03 3.55492346e-03 7.46533927e-03 4.97689284e-03
      3.55492346e-03 4.62140050e-03 5.68787754e-03 6.75435457e-03
      7.10984692e-03 4.62140050e-03 9.59829334e-03 5.33238519e-03
      1.31532168e-02 1.24422321e-02 6.75435457e-03 5.01244217e-02
      7.10984692e-03 1.03092780e-02 5.68787754e-03 5.33238519e-03
      3.55492346e-03 6.04336988e-03 1.49306785e-02 4.62140050e-03
      5.33238519e-03 8.53181630e-03 1.31532168e-02 7.82083161e-03
      5.68787754e-03 5.68787754e-03 6.75435457e-03 9.59829334e-03
      1.42196938e-02 2.48844642e-03 5.68787754e-03 8.88730865e-03
      2.45289728e-02 1.67081412e-02 9.24280100e-03 8.17632396e-03
      1.63526479e-02 4.26590815e-03 6.04336988e-03 7.82083161e-03
      8.17632396e-03 1.63526479e-02 7.10984692e-03 7.10984692e-03
      6.75435457e-03 6.39886223e-03 7.46533927e-03 8.53181630e-03
      7.10984692e-03 7.46533927e-03 7.82083161e-03 1.13757551e-02
      4.62140050e-03 4.62140050e-03 1.06647704e-02 4.97689284e-03
      2.34624948e-02 1.42196938e-02 7.10984692e-03 1.27977245e-02
      4.26590815e-03 6.04336988e-03 8.88730865e-03 9.59829334e-03</_>
    <_>
      1.35746608e-02 4.52488707e-03 9.04977415e-03 4.29864265e-02
      2.26244354e-03 1.35746608e-02 0. 4.52488707e-03 2.94117648e-02
      1.13122175e-02 2.26244354e-03 4.52488707e-03 2.03619916e-02
      6.78733038e-03 0. 4.29864265e-02 6.78733038e-03 1.35746608e-02
      2.26244354e-03 1.13122175e-02 4.52488707e-03 1.35746608e-02
      3.39366533e-02 1.13122175e-02 1.58371050e-02 2.26244354e-03
      4.52488707e-03 1.35746608e-02 4.52488707e-03 9.04977415e-03
      2.26244354e-03 6.78733038e-03 2.03619916e-02 6.78733038e-03
      9.04977415e-03 9.04977415e-03 4.52488707e-03 1.13122175e-02
      2.26244354e-03 2.26244354e-03 9.04977415e-03 1.13122175e-02
      1.35746608e-02 1.58371050e-02 6.78733038e-03 3.61990966e-02
      9.04977415e-03 3.61990966e-02 2.03619916e-02 6.78733038e-03
      4.52488707e-03 2.26244354e-03 4.52488707e-03 1.13122175e-02
      6.78733038e-03 4.52488707e-03 2.26244354e-03 1.58371050e-02
      6.78733038e-03 1.13122175e-02 9.04977415e-03 1.35746608e-02
      4.52488707e-03 1.35746608e-02 1.13122175e-02 4.52488707e-03
      4.52488707e-03 6.78733038e-03 9.04977415e-03 1.58371050e-02
      4.52488707e-03 2.26244354e-03 6.78733038e-03 1.35746608e-02 0.
      1.13122175e-02 4.52488707e-03 1.58371050e-02 4.52488707e-03
      6.78733038e-03 1.80995483e-02 2.03619916e-02 9.04977415e-03
      6.78733038e-03 2.03619916e-02 4.52488707e-03 4.52488707e-03
      2.26244354e-03 6.78733038e-03 2.26244354e-03 4.52488707e-03
      6.78733038e-03 2.26244349e-02 1.35746608e-02 0. 2.03619916e-02 0.
      4.52488707e-03 0. 4.52488707e-03</_>
    <_>
      2.38532107e-02 3.66972480e-03 7.33944960e-03 2.20183488e-02
      1.28440363e-02 9.17431153e-03 7.33944960e-03 9.17431153e-03
      9.17431153e-03 2.38532107e-02 5.50458720e-03 3.66972480e-03
      1.10091744e-02 1.46788992e-02 7.33944960e-03 5.13761453e-02
      1.28440363e-02 2.20183488e-02 5.50458720e-03 1.83486231e-02
      1.46788992e-02 1.10091744e-02 1.83486240e-03 1.65137611e-02
      1.46788992e-02 3.66972480e-03 1.10091744e-02 1.28440363e-02
      1.83486231e-02 9.17431153e-03 3.66972480e-03 1.28440363e-02
      1.83486240e-03 7.33944960e-03 3.66972480e-03 7.33944960e-03
      2.01834869e-02 2.01834869e-02 1.28440363e-02 1.83486231e-02
      7.33944960e-03 9.17431153e-03 1.10091744e-02 9.17431153e-03
      5.50458720e-03 1.65137611e-02 5.50458720e-03 1.65137611e-02
      1.46788992e-02 9.17431153e-03 1.10091744e-02 1.83486240e-03
      1.83486240e-03 1.10091744e-02 1.46788992e-02 5.50458720e-03
      1.83486240e-03 1.46788992e-02 5.50458720e-03 1.46788992e-02
      7.33944960e-03 3.66972480e-03 5.50458720e-03 5.50458720e-03
      3.66972480e-03 0. 1.65137611e-02 5.50458720e-03 9.17431153e-03
      5.50458720e-03 7.33944960e-03 1.46788992e-02 3.66972480e-03
      1.28440363e-02 1.83486240e-03 2.20183488e-02 5.50458720e-03
      1.28440363e-02 5.50458720e-03 1.28440363e-02 7.33944960e-03
      2.38532107e-02 1.10091744e-02 5.50458720e-03 1.28440363e-02
      1.10091744e-02 5.50458720e-03 5.50458720e-03 5.50458720e-03
      7.33944960e-03 3.66972480e-03 1.83486240e-03 5.50458720e-03
      5.50458720e-03 9.17431153e-03 3.66972480e-03 3.66972480e-03
      9.17431153e-03 1.83486240e-03 9.17431153e-03</_>
    <_>
      5.05050505e-03 1.01010101e-02 0. 1.51515156e-02 0. 5.05050505e-03
      0. 0. 0. 2.52525248e-02 0. 1.51515156e-02 2.52525248e-02
      1.01010101e-02 0. 1.46464646e-01 0. 2.52525248e-02 1.01010101e-02
      2.52525248e-02 5.05050505e-03 0. 0. 1.51515156e-02 1.51515156e-02
      5.05050505e-03 3.03030312e-02 0. 2.02020202e-02 0. 0.
      1.51515156e-02 2.02020202e-02 5.05050505e-03 0. 5.05050505e-03
      2.52525248e-02 5.05050495e-02 5.05050505e-03 5.05050505e-03 0. 0.
      5.05050505e-03 0. 1.01010101e-02 3.03030312e-02 1.51515156e-02
      2.02020202e-02 5.05050505e-03 3.03030312e-02 1.01010101e-02
      5.05050505e-03 0. 5.05050505e-03 0. 5.05050505e-03 0.
      1.51515156e-02 1.01010101e-02 1.01010101e-02 5.05050505e-03 0. 0.
      5.05050505e-03 1.51515156e-02 0. 5.05050505e-03 1.51515156e-02
      1.01010101e-02 0. 0. 0. 5.05050505e-03 1.01010101e-02 0.
      1.51515156e-02 5.05050505e-03 5.05050505e-03 0. 1.01010101e-02
      5.05050505e-03 4.04040404e-02 0. 1.51515156e-02 5.05050505e-03
      5.05050505e-03 0. 5.05050505e-03 1.51515156e-02 5.05050505e-03 0.
      1.51515156e-02 0. 5.05050505e-03 5.05050505e-03 1.51515156e-02
      2.02020202e-02 5.05050505e-03 0. 1.51515156e-02</_>
    <_>
      0. 0. 1.03092780e-02 3.09278350e-02 0. 2.06185561e-02 0. 0. 0. 0.
      1.03092780e-02 4.12371121e-02 2.06185561e-02 2.06185561e-02 0.
      1.03092780e-02 2.06185561e-02 2.06185561e-02 0. 0. 0. 0.
      1.03092780e-02 2.06185561e-02 4.12371121e-02 0. 1.03092780e-02 0.
      0. 2.06185561e-02 0. 2.06185561e-02 1.03092780e-02 1.03092780e-02
      0. 1.03092780e-02 0. 3.09278350e-02 0. 1.03092780e-02 0. 0. 0. 0.
      0. 5.15463911e-02 1.03092780e-02 0. 3.09278350e-02 0.
      3.09278350e-02 1.03092780e-02 0. 1.03092780e-02 0. 1.03092780e-02
      0. 2.06185561e-02 0. 1.03092780e-02 0. 0. 1.03092780e-02
      2.06185561e-02 0. 1.03092780e-02 0. 0. 3.09278350e-02 0. 0.
      3.09278350e-02 3.09278350e-02 4.12371121e-02 0. 1.03092780e-02 0.
      2.06185561e-02 0. 0. 1.03092780e-02 5.15463911e-02 0. 0.
      2.06185561e-02 2.06185561e-02 1.03092780e-02 1.03092780e-02 0. 0.
      0. 2.06185561e-02 1.03092780e-02 0. 1.03092780e-02 1.03092780e-02
      0. 0. 0. 3.09278350e-02</_>
    <_>
      4.65616025e-03 7.87965581e-03 8.59598815e-03 2.11318061e-02
      1.03868190e-02 1.82664748e-02 1.14613185e-02 9.67048667e-03
      3.93982790e-03 7.87965581e-03 5.73065924e-03 7.16332393e-03
      2.86532962e-03 1.57593116e-02 9.31232050e-03 3.15186232e-02
      3.58166196e-03 1.03868190e-02 6.08882541e-03 7.16332393e-03
      9.31232050e-03 8.23782198e-03 6.08882541e-03 1.00286528e-02
      1.50429802e-02 1.54011464e-02 1.00286528e-02 1.28939832e-02
      3.58166196e-03 8.59598815e-03 1.36103155e-02 2.14899722e-02
      4.65616025e-03 6.44699158e-03 8.95415433e-03 4.65616025e-03
      2.14899704e-03 9.67048667e-03 1.28939832e-02 5.73065924e-03
      4.29799408e-03 5.01432642e-03 1.03868190e-02 6.44699158e-03
      8.95415433e-03 2.86532957e-02 1.28939832e-02 5.15759327e-02
      8.95415433e-03 3.93982790e-03 9.67048667e-03 5.73065924e-03
      5.01432642e-03 1.18194846e-02 1.64756440e-02 8.23782198e-03
      5.01432642e-03 9.67048667e-03 1.61174778e-02 7.87965581e-03
      6.08882541e-03 1.14613185e-02 6.44699158e-03 8.95415433e-03
      1.39684817e-02 5.01432642e-03 5.01432642e-03 7.52149010e-03
      2.82951295e-02 8.23782198e-03 1.07449861e-02 1.03868190e-02
      1.39684817e-02 7.16332393e-03 3.93982790e-03 1.14613185e-02
      1.79083087e-02 1.14613185e-02 1.18194846e-02 5.01432642e-03
      5.37249306e-03 9.31232050e-03 8.23782198e-03 6.08882541e-03
      2.86532962e-03 8.59598815e-03 5.73065924e-03 1.18194846e-02
      6.44699158e-03 5.73065924e-03 7.16332393e-03 9.31232050e-03
      1.54011464e-02 7.52149010e-03 7.16332393e-03 2.00573057e-02
      4.29799408e-03 2.86532962e-03 8.59598815e-03 1.28939832e-02</_>
    <_>
      1.24127232e-02 3.87897599e-03 8.92164465e-03 3.99534516e-02
      4.26687347e-03 6.59425929e-03 5.43056615e-03 1.12490300e-02
      7.37005426e-03 1.04732355e-02 3.49107827e-03 3.49107827e-03
      1.35764154e-02 3.33591923e-02 5.81846386e-03 8.37858841e-02
      5.04266890e-03 1.51280062e-02 5.43056615e-03 9.69744008e-03
      6.98215654e-03 3.10318079e-03 4.26687347e-03 2.17222646e-02
      1.16369277e-02 1.16369277e-02 8.14584922e-03 9.69744008e-03
      5.43056615e-03 6.59425929e-03 1.20248254e-02 2.01706756e-02
      7.37005426e-03 6.20636158e-03 7.37005426e-03 7.37005426e-03
      1.59038007e-02 8.92164465e-03 6.98215654e-03 5.04266890e-03
      6.98215654e-03 8.53374694e-03 7.75795197e-03 4.26687347e-03
      6.98215654e-03 1.82311870e-02 6.59425929e-03 4.46082242e-02
      7.75795197e-03 8.14584922e-03 2.32738559e-03 6.98215654e-03
      7.37005426e-03 5.04266890e-03 2.36617532e-02 5.04266890e-03
      5.81846386e-03 1.35764154e-02 6.98215654e-03 8.53374694e-03
      8.53374694e-03 4.65477118e-03 5.04266890e-03 1.00853378e-02
      5.04266890e-03 5.04266890e-03 8.92164465e-03 5.81846386e-03
      2.52133440e-02 4.26687347e-03 5.04266890e-03 5.81846386e-03
      1.24127232e-02 1.28006209e-02 4.65477118e-03 1.12490300e-02
      1.31885186e-02 1.16369277e-02 3.10318079e-03 8.14584922e-03
      1.39643131e-02 8.92164465e-03 7.75795197e-03 4.65477118e-03
      7.75795197e-03 5.81846386e-03 6.98215654e-03 8.92164465e-03
      5.04266890e-03 1.93948799e-03 6.20636158e-03 6.59425929e-03
      1.35764154e-02 6.59425929e-03 6.20636158e-03 1.35764154e-02
      3.87897599e-03 7.37005426e-03 5.43056615e-03 6.98215654e-03</_>
    <_>
      8.28729291e-03 0. 1.38121552e-03 9.66850854e-03 0. 4.28176783e-02
      0. 2.76243105e-03 4.14364645e-03 2.07182318e-02 0. 3.45303863e-02
      6.90607727e-03 8.28729291e-03 5.52486209e-03 7.45856389e-02 0.
      1.24309389e-02 0. 5.52486209e-03 6.90607727e-02 0. 0.
      1.38121545e-02 1.51933702e-02 5.52486209e-03 0. 8.28729291e-03
      2.76243105e-03 5.52486209e-03 2.76243105e-03 6.90607727e-03
      8.28729291e-03 0. 1.38121552e-03 1.38121552e-03 6.90607727e-03
      5.52486209e-03 0. 2.76243105e-03 1.38121552e-03 4.14364645e-03
      4.14364645e-03 0. 4.14364645e-03 6.90607727e-03 6.90607727e-03
      3.37016582e-01 1.38121552e-03 5.52486209e-03 0. 1.38121552e-03 0.
      2.76243105e-03 1.38121552e-03 0. 1.38121552e-03 1.10497242e-02
      5.52486209e-03 5.52486209e-03 0. 1.38121552e-03 0. 1.51933702e-02
      0. 0. 1.10497242e-02 6.07734807e-02 2.76243105e-03 2.76243105e-03
      0. 4.14364645e-03 1.65745858e-02 1.38121552e-03 1.38121552e-03
      9.66850854e-03 1.38121552e-03 8.28729291e-03 1.38121552e-03
      2.76243105e-03 2.76243105e-03 0. 0. 0. 4.14364645e-03
      8.28729291e-03 4.14364645e-03 2.76243105e-03 1.38121552e-03 0.
      4.14364645e-03 6.90607727e-03 4.14364645e-03 1.38121552e-03 0.
      1.10497242e-02 2.76243105e-03 0. 1.38121552e-03 9.66850854e-03</_>
    <_>
      2.31461637e-02 2.57179607e-03 4.28632647e-03 3.85769387e-03
      1.24303475e-02 1.28589794e-02 1.11444490e-02 3.42906127e-03
      1.02871843e-02 1.20017147e-02 1.28589794e-02 1.11444490e-02
      2.95756534e-02 2.14316323e-03 1.84312053e-02 1.71453063e-03
      8.57265294e-03 3.85769387e-03 3.00042867e-03 3.42906127e-03
      1.28589803e-03 5.14359213e-03 1.02871843e-02 7.71538774e-03
      1.07158162e-02 1.07158162e-02 3.85769387e-03 1.41448779e-02
      8.14402103e-03 3.98628376e-02 3.85769387e-03 8.14402103e-03
      6.85812254e-03 3.00042867e-03 1.24303475e-02 1.11444490e-02
      4.71495930e-03 6.85812254e-03 6.85812254e-03 6.42948970e-03
      2.57179607e-03 8.57265317e-04 3.34333479e-02 5.14359213e-03
      9.42991860e-03 1.71453059e-02 1.67166740e-02 4.28632658e-04
      8.57265294e-03 2.14316323e-03 1.11444490e-02 1.07158162e-02
      2.57179607e-03 2.82897558e-02 3.42906127e-03 4.71495930e-03
      1.67166740e-02 2.52893269e-02 1.62880421e-02 1.02871843e-02
      5.14359213e-03 5.57222450e-03 2.48606950e-02 1.28589794e-02
      3.42906127e-03 2.57179607e-03 1.28589803e-03 9.42991860e-03
      8.57265294e-03 1.58594083e-02 9.42991860e-03 4.28632647e-03
      8.57265294e-03 3.25760841e-02 3.85769387e-03 1.07158162e-02
      5.57222450e-03 1.71453059e-02 4.71495930e-03 5.14359213e-03
      8.57265317e-04 2.05743685e-02 1.71453059e-02 8.57265294e-03
      9.00128577e-03 8.57265294e-03 2.14316323e-02 1.50021436e-02
      2.01457348e-02 3.00042871e-02 9.42991860e-03 8.57265294e-03
      2.57179607e-03 6.42948970e-03 1.07158162e-02 4.28632647e-03
      3.42906127e-03 4.28632658e-04 7.28675537e-03 5.14359213e-03</_>
    <_>
      7.06627686e-03 4.87329438e-03 7.30994157e-03 8.77192989e-03
      2.29044836e-02 1.19395712e-02 1.02339182e-02 6.33528270e-03
      5.36062382e-03 1.07212476e-02 1.07212476e-02 9.50292405e-03
      7.79727101e-03 5.60428854e-03 1.16959065e-02 5.84795326e-03
      1.12085771e-02 6.09161798e-03 1.19395712e-02 7.06627686e-03
      8.04093573e-03 1.07212476e-02 9.50292405e-03 1.24269007e-02
      2.31481474e-02 1.53508773e-02 8.04093573e-03 6.09161798e-03
      7.79727101e-03 7.06627686e-03 8.28460045e-03 7.06627686e-03
      9.99025349e-03 1.14522418e-02 1.41325537e-02 8.52826517e-03
      7.79727101e-03 1.68128647e-02 8.52826517e-03 1.73001941e-02
      1.12085771e-02 5.11695910e-03 9.01559461e-03 5.84795326e-03
      1.16959065e-02 1.12085771e-02 1.02339182e-02 2.19298247e-03
      1.36452243e-02 8.52826517e-03 1.63255353e-02 1.51072126e-02
      9.50292405e-03 1.43762184e-02 6.09161798e-03 7.79727101e-03
      1.07212476e-02 1.24269007e-02 7.55360629e-03 1.63255353e-02
      3.89863551e-03 1.63255353e-02 9.01559461e-03 1.53508773e-02
      6.82261214e-03 3.89863551e-03 4.38596494e-03 2.21734885e-02
      6.82261214e-03 1.65692009e-02 1.43762184e-02 1.04775829e-02
      9.01559461e-03 1.12085771e-02 3.16764135e-03 1.29142301e-02
      3.16764135e-03 1.21832360e-02 4.62962966e-03 8.04093573e-03
      4.38596494e-03 1.31578948e-02 9.25925933e-03 1.14522418e-02
      1.38888890e-02 1.73001941e-02 1.21832360e-02 9.50292405e-03
      1.34015596e-02 7.30994157e-03 3.89863551e-03 9.50292405e-03
      5.11695910e-03 9.50292405e-03 2.02241708e-02 5.60428854e-03
      1.04775829e-02 3.41130607e-03 9.74658877e-03 1.02339182e-02</_>
    <_>
      4.28477256e-03 2.63678306e-03 5.27356612e-03 8.89914297e-03
      2.14238632e-02 9.55833867e-03 1.38431117e-02 2.63678306e-03
      7.91034941e-03 1.35135138e-02 1.28543181e-02 1.05471322e-02
      1.21951215e-02 3.62557685e-03 1.12063279e-02 3.62557685e-03
      1.12063279e-02 5.27356612e-03 1.28543181e-02 7.91034941e-03
      1.97758735e-03 6.92155585e-03 1.12063279e-02 1.02175344e-02
      1.64798945e-02 1.38431117e-02 6.26236014e-03 8.89914297e-03
      4.94396826e-03 1.35135138e-02 6.92155585e-03 5.93276182e-03
      8.23994726e-03 7.91034941e-03 1.48319053e-02 1.35135138e-02
      7.91034941e-03 1.15359258e-02 7.25115370e-03 1.45023074e-02
      1.02175344e-02 1.31839153e-03 1.31839160e-02 5.27356612e-03
      1.71390902e-02 1.41727095e-02 1.21951215e-02 3.29597882e-04
      1.21951215e-02 5.27356612e-03 1.38431117e-02 1.45023074e-02
      8.56954511e-03 1.77982859e-02 5.93276182e-03 1.41727095e-02
      9.55833867e-03 1.61502957e-02 9.88793653e-03 1.87870804e-02
      3.62557685e-03 1.51615031e-02 1.02175344e-02 1.41727095e-02
      7.25115370e-03 5.27356612e-03 2.96638091e-03 1.05471322e-02
      8.23994726e-03 1.54911010e-02 1.45023074e-02 6.92155585e-03
      4.28477256e-03 1.25247203e-02 4.28477256e-03 1.31839160e-02
      5.27356612e-03 1.91166773e-02 3.62557685e-03 5.93276182e-03
      4.61437041e-03 1.87870804e-02 9.88793653e-03 1.12063279e-02
      1.38431117e-02 1.61502957e-02 2.80158203e-02 1.15359258e-02
      1.21951215e-02 1.25247203e-02 5.60316397e-03 1.38431117e-02
      7.58075155e-03 6.92155585e-03 1.54911010e-02 5.60316397e-03
      7.58075155e-03 3.95517470e-03 8.56954511e-03 8.89914297e-03</_>
    <_>
      6.92640711e-03 2.59740255e-03 4.32900432e-03 5.62770572e-03
      1.94805190e-02 1.12554114e-02 6.06060587e-03 6.49350649e-03
      6.49350649e-03 9.09090880e-03 1.08225113e-02 1.08225113e-02
      1.16883116e-02 3.46320355e-03 6.92640711e-03 9.09090880e-03
      7.35930726e-03 1.12554114e-02 7.79220788e-03 1.38528142e-02
      4.32900432e-03 6.06060587e-03 7.35930726e-03 2.20779218e-02
      2.42424235e-02 1.38528142e-02 6.92640711e-03 4.32900432e-03
      6.92640711e-03 1.03896102e-02 4.76190494e-03 4.32900432e-03
      1.21212117e-02 1.38528142e-02 1.51515156e-02 7.35930726e-03
      9.52380989e-03 1.29870130e-02 1.03896102e-02 1.60173159e-02
      8.22510850e-03 4.32900432e-03 1.29870130e-02 4.76190494e-03
      1.12554114e-02 8.65800865e-03 5.62770572e-03 3.89610394e-03
      2.03463212e-02 4.76190494e-03 2.33766232e-02 1.25541128e-02
      3.46320355e-03 1.99134201e-02 3.46320355e-03 1.12554114e-02
      6.92640711e-03 1.29870130e-02 6.06060587e-03 1.90476198e-02
      3.03030293e-03 1.51515156e-02 6.92640711e-03 1.68831162e-02
      6.92640711e-03 7.35930726e-03 5.62770572e-03 2.07792204e-02
      7.35930726e-03 1.86147187e-02 1.42857144e-02 8.65800865e-03
      3.89610394e-03 1.16883116e-02 4.76190494e-03 1.21212117e-02
      4.32900432e-03 1.34199131e-02 3.46320355e-03 5.19480510e-03
      6.06060587e-03 1.29870130e-02 1.08225113e-02 1.16883116e-02
      1.47186145e-02 2.16450226e-02 2.03463212e-02 1.25541128e-02
      1.16883116e-02 7.35930726e-03 4.76190494e-03 9.52380989e-03
      3.46320355e-03 1.08225113e-02 1.81818176e-02 1.08225113e-02
      9.09090880e-03 4.76190494e-03 8.65800865e-03 1.12554114e-02</_>
    <_>
      5.65824211e-02 2.26329686e-03 5.65824239e-03 5.28102601e-03
      4.52659372e-03 2.41418332e-02 4.14937781e-03 1.88608072e-03
      6.78989058e-03 3.96076962e-02 6.78989058e-03 3.80988307e-02
      4.26254235e-02 2.64051300e-03 8.67597107e-03 7.54432287e-04
      4.14937781e-03 2.26329686e-03 3.01772915e-03 7.54432287e-04
      3.77216144e-04 3.77216144e-04 7.92153925e-03 3.01772915e-03
      7.54432287e-03 1.58430785e-02 1.50886457e-03 7.16710696e-03
      8.67597107e-03 5.01697473e-02 3.01772915e-03 5.65824239e-03
      3.77216144e-03 2.64051300e-03 7.16710696e-03 8.67597107e-03
      1.50886457e-03 1.13164843e-03 2.64051300e-03 4.14937781e-03
      2.64051300e-03 1.88608072e-03 3.31950225e-02 4.14937781e-03
      7.54432287e-03 2.33874004e-02 1.20709166e-02 1.50886457e-03
      7.16710696e-03 1.13164843e-03 3.39494529e-03 8.29875562e-03
      3.77216144e-04 3.31950225e-02 4.14937781e-03 7.16710696e-03
      3.99849117e-02 8.67597107e-03 2.52734814e-02 5.28102601e-03
      2.64051300e-03 8.67597107e-03 3.73443998e-02 7.92153925e-03
      2.26329686e-03 2.64051300e-03 1.13164843e-03 1.09392684e-02
      2.64051300e-03 7.92153925e-03 5.28102601e-03 2.64051300e-03
      5.28102601e-03 2.37646177e-02 3.77216144e-03 7.16710696e-03
      7.92153925e-03 1.16937002e-02 1.88608072e-03 1.50886457e-03
      1.88608072e-03 1.20709166e-02 1.16937002e-02 4.90381010e-03
      7.54432287e-03 6.41267467e-03 6.41267467e-03 7.92153925e-03
      1.88608076e-02 7.20482841e-02 1.20709166e-02 1.05620520e-02
      3.77216144e-03 6.41267467e-03 6.03545830e-03 2.26329686e-03
      1.13164843e-03 7.54432287e-04 1.43342139e-02 3.77216144e-03</_>
    <_>
      2.10772827e-02 5.85480081e-03 1.63934417e-02 3.27868834e-02
      2.34192028e-03 1.75644029e-02 5.85480081e-03 1.28805619e-02
      4.68384055e-03 1.05386414e-02 2.34192028e-03 1.05386414e-02
      8.19672085e-03 2.22482439e-02 1.17096016e-02 3.74707244e-02
      4.68384055e-03 1.17096016e-02 3.51288053e-03 4.68384055e-03
      8.19672085e-03 3.51288053e-03 9.36768111e-03 1.05386414e-02
      9.36768111e-03 2.34192028e-03 4.68384055e-03 7.02576106e-03
      1.17096016e-02 2.34192032e-02 1.28805619e-02 1.99063234e-02
      5.85480081e-03 4.68384055e-03 7.02576106e-03 4.68384055e-03
      7.02576106e-03 5.85480081e-03 5.85480081e-03 5.85480081e-03
      7.02576106e-03 1.63934417e-02 1.40515221e-02 1.05386414e-02
      5.85480081e-03 2.92740054e-02 4.68384055e-03 2.22482439e-02
      2.34192028e-03 5.85480081e-03 1.17096014e-03 5.85480081e-03
      4.68384055e-03 1.40515221e-02 2.10772827e-02 8.19672085e-03
      3.51288053e-03 1.87353622e-02 1.75644029e-02 2.34192028e-03
      1.75644029e-02 2.34192028e-03 7.02576106e-03 8.19672085e-03
      5.85480081e-03 1.40515221e-02 1.99063234e-02 4.68384055e-03
      2.22482439e-02 7.02576106e-03 2.34192028e-03 2.34192028e-03
      5.85480081e-03 7.02576106e-03 9.36768111e-03 2.10772827e-02
      1.40515221e-02 1.63934417e-02 1.17096016e-02 5.85480081e-03
      1.52224824e-02 8.19672085e-03 4.68384055e-03 8.19672085e-03
      9.36768111e-03 3.51288053e-03 8.19672085e-03 1.75644029e-02
      5.85480081e-03 4.68384055e-03 7.02576106e-03 1.05386414e-02
      1.40515221e-02 2.34192028e-03 3.51288053e-03 5.85480081e-03
      8.19672085e-03 1.28805619e-02 5.85480081e-03 7.02576106e-03</_>
    <_>
      1.36531368e-02 7.74907740e-03 8.11808091e-03 3.57933566e-02
      4.05904045e-03 1.99261997e-02 4.05904045e-03 1.66051667e-02
      1.51291518e-02 9.22509190e-03 5.16605144e-03 8.48708488e-03
      1.40221398e-02 2.28782296e-02 5.90405893e-03 2.32472327e-02
      2.95202946e-03 1.91881917e-02 3.32103320e-03 6.27306290e-03
      1.10701108e-02 4.42804443e-03 6.64206641e-03 1.14391148e-02
      1.54981548e-02 1.36531368e-02 9.59409587e-03 7.74907740e-03
      8.85608885e-03 8.85608885e-03 1.73431728e-02 1.58671588e-02
      4.42804443e-03 6.27306290e-03 5.53505542e-03 5.90405893e-03
      5.53505542e-03 8.85608885e-03 7.74907740e-03 5.53505542e-03
      6.64206641e-03 5.53505542e-03 1.66051667e-02 5.53505542e-03
      6.64206641e-03 2.87822876e-02 1.10701108e-02 2.87822876e-02
      6.27306290e-03 5.53505542e-03 9.22509190e-03 7.01106992e-03
      3.32103320e-03 2.14022137e-02 1.73431728e-02 1.07011069e-02
      5.90405893e-03 1.21771218e-02 1.07011069e-02 5.90405893e-03
      1.10701108e-02 6.27306290e-03 5.16605144e-03 9.59409587e-03
      1.29151288e-02 8.11808091e-03 7.74907740e-03 4.79704794e-03
      2.25092247e-02 5.90405893e-03 6.27306290e-03 6.64206641e-03
      1.29151288e-02 1.36531368e-02 3.69003695e-03 1.14391148e-02
      1.80811808e-02 1.66051667e-02 7.74907740e-03 4.79704794e-03
      1.14391148e-02 9.22509190e-03 4.79704794e-03 4.42804443e-03
      2.58302572e-03 5.90405893e-03 4.05904045e-03 9.59409587e-03
      5.53505542e-03 4.05904045e-03 5.53505542e-03 8.11808091e-03
      1.43911438e-02 5.90405893e-03 5.90405893e-03 2.02952027e-02
      5.53505542e-03 9.59409587e-03 5.90405893e-03 9.59409587e-03</_>
    <_>
      1.43198092e-02 8.35322216e-03 2.38663494e-03 4.05727923e-02
      2.38663494e-03 1.31264916e-02 4.77326987e-03 1.67064443e-02
      4.77326987e-03 1.07398564e-02 2.38663494e-03 5.96658699e-03
      8.35322216e-03 2.98329350e-02 5.96658699e-03 1.19331740e-02
      1.07398564e-02 1.07398564e-02 5.96658699e-03 1.43198092e-02
      1.43198092e-02 9.54653975e-03 3.57995229e-03 8.35322216e-03
      7.15990458e-03 5.96658699e-03 5.96658699e-03 1.07398564e-02
      8.35322216e-03 2.38663494e-03 1.19331740e-02 2.02863961e-02
      1.67064443e-02 1.07398564e-02 8.35322216e-03 1.19331740e-02
      2.38663480e-02 1.67064443e-02 1.07398564e-02 5.96658699e-03
      7.15990458e-03 1.43198092e-02 7.15990458e-03 7.15990458e-03
      9.54653975e-03 3.10262535e-02 2.38663494e-03 7.15990458e-03
      3.57995229e-03 8.35322216e-03 3.57995229e-03 1.19331740e-02
      1.43198092e-02 7.15990458e-03 2.62529831e-02 7.15990458e-03
      3.57995229e-03 1.43198092e-02 7.15990458e-03 1.07398564e-02
      1.43198092e-02 1.19331740e-02 5.96658699e-03 1.31264916e-02
      1.31264916e-02 5.96658699e-03 8.35322216e-03 7.15990458e-03
      1.67064443e-02 1.31264916e-02 7.15990458e-03 8.35322216e-03
      9.54653975e-03 1.43198092e-02 7.15990458e-03 2.26730313e-02
      4.77326987e-03 1.31264916e-02 1.19331740e-02 1.19331740e-02
      1.43198092e-02 1.19331740e-02 3.57995229e-03 3.57995229e-03
      1.31264916e-02 3.57995229e-03 3.57995229e-03 4.77326987e-03
      5.96658699e-03 4.77326987e-03 3.57995229e-03 1.19331740e-02
      5.96658699e-03 3.57995229e-03 5.96658699e-03 8.35322216e-03
      8.35322216e-03 5.96658699e-03 2.38663494e-03 1.19331740e-02</_>
    <_>
      1.52838426e-02 7.42358062e-03 1.17903929e-02 3.62445414e-02
      3.93013097e-03 8.29694327e-03 1.04803490e-02 1.09170303e-02
      1.00436686e-02 4.36681230e-03 6.11353712e-03 6.98689977e-03
      1.48471612e-02 3.49344984e-02 4.80349362e-03 2.53275111e-02
      7.42358062e-03 1.83406118e-02 6.11353712e-03 9.17030592e-03
      1.74672492e-02 9.60698724e-03 2.18340615e-03 9.60698724e-03
      1.44104799e-02 4.80349362e-03 8.73362459e-03 1.39737995e-02
      1.44104799e-02 7.42358062e-03 2.27074232e-02 2.31441054e-02
      5.67685580e-03 3.93013097e-03 4.80349362e-03 5.67685580e-03
      5.67685580e-03 1.13537116e-02 5.24017448e-03 4.36681230e-03
      5.24017448e-03 6.11353712e-03 4.80349362e-03 1.04803490e-02
      8.29694327e-03 1.09170303e-02 7.86026195e-03 3.71179022e-02
      3.05676856e-03 7.42358062e-03 6.98689977e-03 5.24017448e-03
      3.49344988e-03 9.17030592e-03 1.83406118e-02 5.67685580e-03
      6.55021844e-03 6.11353712e-03 5.67685580e-03 6.98689977e-03
      1.13537116e-02 6.11353712e-03 7.42358062e-03 7.86026195e-03
      1.17903929e-02 8.29694327e-03 1.22270742e-02 1.22270742e-02
      2.27074232e-02 6.55021844e-03 5.24017448e-03 1.13537116e-02
      1.96506549e-02 6.98689977e-03 3.49344988e-03 8.29694327e-03
      1.39737995e-02 1.79039296e-02 7.42358062e-03 6.11353712e-03
      1.35371182e-02 5.24017448e-03 9.60698724e-03 6.55021844e-03
      5.24017448e-03 8.29694327e-03 2.62008724e-03 4.80349362e-03
      8.73362459e-03 4.36681230e-03 8.29694327e-03 1.04803490e-02
      1.48471612e-02 9.17030592e-03 2.18340615e-03 2.13973802e-02
      9.17030592e-03 9.17030592e-03 8.29694327e-03 7.42358062e-03</_>
    <_>
      6.00436702e-03 3.82096064e-03 8.73362459e-03 2.42903922e-02
      4.09388635e-03 7.91484676e-03 6.00436702e-03 9.55240149e-03
      8.18777271e-03 6.27729250e-03 6.00436702e-03 4.36681230e-03
      1.36462878e-02 1.61026195e-02 7.09606986e-03 5.10371178e-02
      6.27729250e-03 1.06441053e-02 4.91266372e-03 1.00982534e-02
      6.55021844e-03 6.82314392e-03 1.06441053e-02 7.91484676e-03
      1.11899562e-02 1.00982534e-02 7.64192129e-03 1.06441053e-02
      5.45851514e-03 7.64192129e-03 1.66484714e-02 1.85589511e-02
      7.36899581e-03 6.27729250e-03 6.82314392e-03 1.09170303e-02
      1.91048030e-02 1.28275109e-02 5.73144108e-03 9.00655054e-03
      9.00655054e-03 1.11899562e-02 6.82314392e-03 7.91484676e-03
      7.36899581e-03 2.01965068e-02 1.03711793e-02 2.64737997e-02
      6.27729250e-03 7.91484676e-03 1.06441053e-02 7.36899581e-03
      9.00655054e-03 3.82096064e-03 1.93777289e-02 7.64192129e-03
      3.82096064e-03 1.41921397e-02 1.17358081e-02 1.09170303e-02
      2.72925757e-03 7.64192129e-03 4.36681230e-03 8.73362459e-03
      8.73362459e-03 4.63973777e-03 8.73362459e-03 1.03711793e-02
      1.20087340e-02 8.18777271e-03 7.64192129e-03 9.55240149e-03
      1.47379916e-02 1.52838426e-02 8.18777271e-03 1.22816591e-02
      1.25545850e-02 1.88318770e-02 1.17358081e-02 7.64192129e-03
      1.28275109e-02 1.44650657e-02 1.06441053e-02 9.00655054e-03
      1.11899562e-02 6.00436702e-03 7.09606986e-03 8.73362459e-03
      7.09606986e-03 4.09388635e-03 1.06441053e-02 1.03711793e-02
      9.55240149e-03 7.36899581e-03 8.73362459e-03 1.20087340e-02
      5.18558966e-03 5.45851514e-03 7.91484676e-03 1.20087340e-02</_>
    <_>
      1.39860138e-02 2.33100238e-03 4.66200477e-03 1.63170155e-02
      4.66200477e-03 4.66200477e-03 9.32400953e-03 4.66200477e-03
      1.16550112e-02 1.39860138e-02 0. 1.63170155e-02 6.99300691e-03
      9.32400953e-03 0. 3.72960381e-02 2.33100238e-03 3.72960381e-02
      6.99300691e-03 3.03030312e-02 1.86480191e-02 2.33100238e-03
      4.66200477e-03 4.66200477e-03 1.16550112e-02 4.66200477e-03
      4.66200477e-03 4.66200477e-03 3.72960381e-02 2.33100238e-03
      2.33100238e-03 4.66200477e-03 3.72960381e-02 0. 2.33100238e-03
      6.99300691e-03 6.99300691e-03 6.99300691e-03 4.66200477e-03
      6.99300691e-03 2.33100238e-03 1.39860138e-02 1.16550112e-02
      2.33100238e-03 0. 1.86480191e-02 2.33100238e-03 1.39860138e-01
      9.32400953e-03 1.39860138e-02 0. 2.33100238e-03 9.32400953e-03 0.
      4.66200477e-03 2.33100238e-03 4.66200477e-03 9.32400953e-03
      2.33100238e-03 4.66200477e-03 1.16550112e-02 4.66200477e-03
      4.66200477e-03 4.66200477e-03 4.66200477e-03 1.39860138e-02
      3.72960381e-02 1.16550112e-02 4.66200477e-03 2.33100238e-03 0.
      3.72960381e-02 6.99300691e-03 1.39860138e-02 6.99300691e-03
      1.86480191e-02 1.16550112e-02 1.16550112e-02 1.16550112e-02
      9.32400953e-03 1.63170155e-02 1.16550112e-02 0. 4.66200477e-03 0.
      4.66200477e-03 2.33100238e-03 2.33100238e-03 2.33100238e-03
      2.33100238e-03 0. 6.99300691e-03 0. 0. 0. 1.63170155e-02
      1.63170155e-02 1.16550112e-02 0. 1.16550112e-02</_>
    <_>
      3.56477797e-02 8.51290207e-03 1.03751002e-02 2.15482842e-02
      5.58659201e-03 2.15482842e-02 7.71481777e-03 9.04495921e-03
      9.31098685e-03 2.42085662e-02 3.72439483e-03 1.03751002e-02
      2.20803414e-02 1.67597774e-02 5.05453581e-03 6.81032166e-02
      5.85262058e-03 2.76669320e-02 6.91673299e-03 9.84304305e-03
      7.71481777e-03 8.77893064e-03 3.99042293e-03 7.98084587e-03
      1.03751002e-02 9.04495921e-03 7.18276156e-03 5.05453581e-03
      1.43655231e-02 2.55387072e-02 6.38467679e-03 1.01090716e-02
      1.06411278e-02 7.44878966e-03 8.24687444e-03 6.38467679e-03
      5.85262058e-03 5.05453581e-03 8.51290207e-03 5.58659201e-03
      3.45836650e-03 8.24687444e-03 1.43655231e-02 7.44878966e-03
      7.98084587e-03 3.43176387e-02 4.25645104e-03 5.05453572e-02
      4.78850771e-03 1.33014098e-02 6.65070489e-03 6.11864869e-03
      8.24687444e-03 7.98084587e-03 6.11864869e-03 5.58659201e-03
      8.24687444e-03 6.91673299e-03 7.71481777e-03 5.85262058e-03
      3.99042293e-03 4.78850771e-03 3.45836650e-03 8.51290207e-03
      1.06411278e-02 4.52247960e-03 1.27693536e-02 7.98084587e-03
      1.27693536e-02 5.05453581e-03 3.72439483e-03 5.05453581e-03
      1.06411278e-02 7.71481777e-03 3.19233839e-03 8.77893064e-03
      1.30353821e-02 8.24687444e-03 9.57701541e-03 8.51290207e-03
      1.11731840e-02 7.98084587e-03 3.99042293e-03 7.18276156e-03
      6.38467679e-03 5.05453581e-03 3.72439483e-03 7.18276156e-03
      9.04495921e-03 2.92631029e-03 6.11864869e-03 8.24687444e-03
      6.65070489e-03 2.66028196e-03 5.05453581e-03 6.91673299e-03
      4.52247960e-03 7.44878966e-03 5.05453581e-03 7.44878966e-03</_>
    <_>
      2.11267602e-02 3.52112669e-03 1.05633801e-02 4.22535203e-02 0.
      2.81690136e-02 1.05633801e-02 0. 2.81690136e-02 1.05633801e-02
      1.05633801e-02 1.05633801e-02 1.76056344e-02 3.16901393e-02
      2.46478878e-02 1.40845068e-02 0. 1.05633801e-02 1.76056344e-02
      1.76056344e-02 3.52112669e-03 1.05633801e-02 0. 7.04225339e-03
      7.04225339e-03 1.40845068e-02 0. 3.52112669e-03 0. 1.76056344e-02
      1.76056344e-02 1.76056344e-02 1.05633801e-02 0. 3.52112669e-03
      7.04225339e-03 1.40845068e-02 7.04225339e-03 0. 1.76056344e-02 0.
      1.40845068e-02 2.81690136e-02 7.04225339e-03 0. 2.11267602e-02
      3.52112669e-03 0. 0. 3.52112669e-03 0. 1.76056344e-02
      7.04225339e-03 7.04225339e-03 1.40845068e-02 7.04225339e-03
      3.52112669e-03 2.81690136e-02 1.76056344e-02 3.52112669e-03
      2.46478878e-02 0. 1.05633801e-02 3.52112669e-03 3.52112669e-03
      3.52112669e-03 3.52112669e-03 7.04225339e-03 3.87323946e-02 0. 0.
      0. 3.52112688e-02 1.05633801e-02 3.52112669e-03 7.04225339e-03
      2.81690136e-02 1.76056344e-02 1.05633801e-02 7.04225339e-03
      7.04225339e-03 3.52112669e-03 3.52112669e-03 3.52112669e-03
      7.04225339e-03 1.76056344e-02 0. 1.05633801e-02 3.52112669e-03
      1.40845068e-02 0. 3.52112669e-03 1.05633801e-02 1.40845068e-02 0.
      7.04225339e-03 3.52112669e-03 1.40845068e-02 3.52112669e-03
      7.04225339e-03</_>
    <_>
      0. 8.69565178e-03 1.73913036e-02 4.34782617e-02 0. 2.60869563e-02
      0. 8.69565178e-03 1.73913036e-02 0. 0. 8.69565178e-03
      1.73913036e-02 8.69565178e-03 8.69565178e-03 1.73913036e-02
      1.73913036e-02 1.73913036e-02 0. 0. 0. 0. 0. 8.69565178e-03
      8.69565178e-03 1.73913036e-02 8.69565178e-03 8.69565178e-03
      8.69565178e-03 0. 0. 6.08695634e-02 0. 2.60869563e-02
      8.69565178e-03 1.73913036e-02 8.69565178e-03 0. 8.69565178e-03
      8.69565178e-03 0. 1.73913036e-02 1.73913036e-02 8.69565178e-03 0.
      6.08695634e-02 0. 0. 3.47826071e-02 0. 0. 8.69565178e-03 0. 0. 0.
      0. 0. 3.47826071e-02 8.69565178e-03 1.73913036e-02 0.
      8.69565178e-03 0. 3.47826071e-02 0. 0. 0. 0. 8.69565178e-03
      8.69565178e-03 1.73913036e-02 0. 1.73913036e-02 8.69565178e-03 0.
      8.69565178e-03 2.60869563e-02 8.69565178e-03 0. 0. 1.73913036e-02
      0. 8.69565178e-03 0. 3.47826071e-02 3.47826071e-02 0. 0.
      1.73913036e-02 8.69565178e-03 0. 2.60869563e-02 8.69565178e-03 0.
      8.69565178e-03 0. 2.60869563e-02 8.69565178e-03 1.73913036e-02
      8.69565178e-03</_>
    <_>
      8.44238047e-03 3.79907130e-03 2.53271428e-03 1.35078095e-02
      4.22119047e-04 1.68847619e-03 8.44238093e-04 3.79907130e-03
      6.33178558e-03 3.79907130e-03 8.44238093e-04 2.53271428e-03
      8.02026130e-03 4.64330940e-03 2.11059512e-03 2.55804151e-01
      2.53271428e-03 5.31869978e-02 2.53271428e-03 1.81511194e-02
      3.12368087e-02 5.90966642e-03 1.26635714e-03 2.11059512e-03
      3.79907130e-03 4.64330940e-03 1.68847619e-03 2.11059512e-03
      1.18193328e-02 5.06542856e-03 5.06542856e-03 4.64330940e-03
      3.08146905e-02 2.53271428e-03 1.26635714e-03 3.37695237e-03
      8.86449963e-03 8.44238093e-04 2.95483321e-03 3.37695237e-03
      9.28661879e-03 1.01308571e-02 2.53271428e-03 1.68847619e-03
      2.11059512e-03 9.70873795e-03 2.95483321e-03 1.12705782e-01
      8.44238093e-04 2.23723091e-02 2.53271428e-03 2.53271428e-03
      1.68847619e-03 1.68847619e-03 7.17602344e-03 2.95483321e-03
      2.53271428e-03 5.06542856e-03 2.53271428e-03 3.37695237e-03
      1.26635714e-03 1.68847619e-03 5.06542856e-03 2.95483321e-03
      4.22119047e-04 8.02026130e-03 4.09455448e-02 2.53271428e-03
      6.75390474e-03 2.11059512e-03 3.79907130e-03 1.68847609e-02
      1.68847619e-03 5.90966642e-03 3.79907130e-03 1.26635714e-03
      4.22119023e-03 7.17602344e-03 2.95483321e-03 8.02026130e-03
      4.05234285e-02 3.79907130e-03 1.68847619e-03 4.64330940e-03
      3.37695237e-03 4.64330940e-03 2.95483321e-03 6.33178558e-03
      7.17602344e-03 2.11059512e-03 2.95483321e-03 1.22414520e-02
      3.37695237e-03 3.37695237e-03 2.11059512e-03 3.79907130e-03
      5.48754726e-03 1.26635712e-02 1.26635714e-03 1.26635712e-02</_>
    <_>
      6.50406489e-03 1.13821141e-02 1.30081298e-02 5.52845523e-02 0.
      2.92682927e-02 4.87804879e-03 1.13821141e-02 3.25203245e-03 0.
      4.87804879e-03 1.78861786e-02 1.13821141e-02 2.92682927e-02
      3.25203245e-03 2.92682927e-02 1.62601622e-03 6.50406489e-03
      6.50406489e-03 9.75609757e-03 4.87804879e-03 4.87804879e-03
      8.13008100e-03 9.75609757e-03 2.60162596e-02 4.87804879e-03
      8.13008100e-03 8.13008100e-03 8.13008100e-03 1.62601620e-02
      1.46341464e-02 1.95121951e-02 1.62601622e-03 8.13008100e-03
      1.30081298e-02 1.78861786e-02 1.13821141e-02 1.30081298e-02
      1.13821141e-02 8.13008100e-03 6.50406489e-03 8.13008100e-03
      1.13821141e-02 4.87804879e-03 0. 2.92682927e-02 0. 9.75609757e-03
      1.78861786e-02 8.13008100e-03 8.13008100e-03 1.62601622e-03
      8.13008100e-03 8.13008100e-03 3.25203245e-03 6.50406489e-03
      3.25203245e-03 3.25203240e-02 6.50406489e-03 8.13008100e-03
      1.62601622e-03 4.87804879e-03 4.87804879e-03 1.30081298e-02
      9.75609757e-03 9.75609757e-03 2.11382117e-02 9.75609757e-03
      2.27642283e-02 1.62601622e-03 3.25203245e-03 8.13008100e-03
      1.30081298e-02 1.30081298e-02 4.87804879e-03 6.50406489e-03
      1.78861786e-02 1.95121951e-02 8.13008100e-03 6.50406489e-03
      6.50406489e-03 1.46341464e-02 4.87804879e-03 6.50406489e-03
      9.75609757e-03 1.62601620e-02 6.50406489e-03 1.62601622e-03
      3.25203245e-03 3.25203245e-03 6.50406489e-03 4.87804879e-03
      1.30081298e-02 1.95121951e-02 1.62601622e-03 4.87804879e-03
      4.87804879e-03 1.13821141e-02 3.25203245e-03 1.62601622e-03</_>
    <_>
      3.97351012e-03 6.29139086e-03 7.94702023e-03 2.58278139e-02
      1.05960267e-02 1.35761593e-02 9.93377529e-03 9.27152298e-03
      6.29139086e-03 7.94702023e-03 5.62913902e-03 7.28476839e-03
      4.30463580e-03 1.55629143e-02 1.02649005e-02 3.04635763e-02
      1.02649005e-02 1.22516556e-02 1.05960267e-02 5.96026471e-03
      3.34437080e-02 6.29139086e-03 7.28476839e-03 1.55629143e-02
      8.60927161e-03 7.94702023e-03 4.30463580e-03 1.25827817e-02
      4.63576149e-03 4.96688765e-03 1.22516556e-02 1.45695368e-02
      7.61589408e-03 7.61589408e-03 7.94702023e-03 7.94702023e-03
      6.62251655e-03 9.93377529e-03 6.29139086e-03 9.93377529e-03
      1.19205294e-02 1.29139069e-02 6.29139086e-03 1.02649005e-02
      8.94039776e-03 1.62251648e-02 1.02649005e-02 3.84105965e-02
      9.93377529e-03 7.94702023e-03 5.62913902e-03 8.94039776e-03
      1.22516556e-02 4.96688765e-03 1.09271519e-02 8.94039776e-03
      3.97351012e-03 1.05960267e-02 8.94039776e-03 1.22516556e-02
      4.30463580e-03 1.19205294e-02 9.60264914e-03 9.27152298e-03
      5.96026471e-03 6.95364224e-03 7.28476839e-03 8.60927161e-03
      1.65562909e-02 8.27814545e-03 1.32450331e-02 5.62913902e-03
      1.45695368e-02 1.32450331e-02 7.94702023e-03 6.29139086e-03
      7.94702023e-03 1.05960267e-02 9.27152298e-03 1.09271519e-02
      7.28476839e-03 1.45695368e-02 5.62913902e-03 9.93377529e-03
      1.02649005e-02 7.61589408e-03 9.27152298e-03 1.39072845e-02
      7.94702023e-03 8.60927161e-03 9.93377529e-03 7.94702023e-03
      1.15894042e-02 8.27814545e-03 6.95364224e-03 9.60264914e-03
      7.94702023e-03 6.95364224e-03 5.96026471e-03 1.02649005e-02</_>
    <_>
      2.32738559e-03 3.87897599e-03 4.65477118e-03 2.79286262e-02
      3.10318079e-03 5.43056615e-03 2.32738559e-03 2.32738559e-03
      7.75795197e-03 9.30954237e-03 3.87897599e-03 9.30954237e-03
      1.08611323e-02 8.53374694e-03 6.98215654e-03 6.90457746e-02
      3.10318079e-03 1.62916984e-02 7.75795197e-03 1.93948802e-02
      1.00853378e-02 1.47401085e-02 1.16369277e-02 5.27540743e-02
      8.53374694e-03 4.65477118e-03 5.43056615e-03 5.43056615e-03
      4.65477118e-03 4.65477118e-03 1.08611323e-02 7.75795197e-03
      1.55159039e-02 1.55159039e-03 1.31885186e-02 1.39643131e-02
      1.93948802e-02 6.20636158e-03 3.87897599e-03 5.43056615e-03
      5.43056615e-03 3.87897599e-03 6.98215654e-03 3.87897599e-03
      6.20636158e-03 2.24980600e-02 4.65477118e-03 1.16369277e-01
      1.70674939e-02 1.08611323e-02 6.20636158e-03 3.87897599e-03
      3.87897599e-03 4.65477118e-03 7.75795197e-03 4.65477118e-03
      3.10318079e-03 7.75795197e-03 5.43056615e-03 1.00853378e-02
      3.10318079e-03 9.30954237e-03 7.75795197e-04 6.98215654e-03
      3.87897599e-03 8.53374694e-03 1.78432893e-02 8.53374694e-03
      1.08611323e-02 1.86190847e-02 4.65477118e-03 5.43056615e-03
      3.10318079e-03 1.08611323e-02 7.75795197e-04 7.75795197e-03
      3.87897599e-03 1.39643131e-02 3.10318079e-03 7.75795197e-03
      1.00853378e-02 1.00853378e-02 3.10318079e-03 1.31885186e-02
      8.53374694e-03 2.32738559e-03 1.16369277e-02 3.87897599e-03
      6.20636158e-03 3.10318079e-03 1.55159039e-03 7.75795197e-03
      4.65477118e-03 1.24127232e-02 2.32738559e-03 1.55159039e-02
      8.53374694e-03 1.47401085e-02 4.65477118e-03 6.20636158e-03</_>
    <_>
      1.32158594e-02 8.81057233e-03 8.07635859e-03 3.59765068e-02
      4.40528616e-03 1.02790017e-02 7.34214392e-03 1.10132154e-02
      9.54478700e-03 5.87371504e-03 2.20264308e-03 3.67107196e-03
      1.02790017e-02 9.54478700e-03 1.17474301e-02 8.00293684e-02
      3.67107196e-03 1.61527172e-02 2.20264308e-03 1.90895740e-02
      1.02790017e-02 1.68869309e-02 1.32158594e-02 5.87371513e-02
      5.13950083e-03 2.93685752e-03 3.67107196e-03 2.93685752e-03
      1.02790017e-02 9.54478700e-03 5.87371504e-03 5.13950083e-03
      1.39500732e-02 5.13950083e-03 6.60792971e-03 2.93685752e-03
      1.32158594e-02 4.40528616e-03 9.54478700e-03 5.13950083e-03
      3.67107196e-03 4.40528616e-03 1.68869309e-02 5.87371504e-03
      4.40528616e-03 3.01027894e-02 5.13950083e-03 6.24082237e-02
      5.87371504e-03 1.24816447e-02 5.13950083e-03 5.13950083e-03
      4.40528616e-03 5.87371504e-03 8.07635859e-03 4.40528616e-03
      9.54478700e-03 1.83553603e-02 4.40528616e-03 1.02790017e-02
      5.13950083e-03 8.07635859e-03 2.20264308e-03 1.46842876e-03
      8.07635859e-03 1.10132154e-02 2.79001463e-02 5.13950083e-03
      8.07635859e-03 4.40528616e-03 2.20264308e-03 3.67107196e-03
      8.81057233e-03 7.34214392e-03 2.93685752e-03 1.32158594e-02
      1.02790017e-02 2.20264308e-03 5.87371504e-03 8.81057233e-03
      2.49632895e-02 1.10132154e-02 2.20264308e-03 1.02790017e-02
      3.67107196e-03 4.40528616e-03 3.67107196e-03 4.40528616e-03
      8.81057233e-03 1.46842876e-03 2.93685752e-03 9.54478700e-03
      3.67107196e-03 3.67107196e-03 3.67107196e-03 1.39500732e-02
      9.54478700e-03 1.32158594e-02 8.81057233e-03 3.67107196e-03</_>
    <_>
      3.77765787e-03 5.93631947e-03 1.02536427e-02 3.61575820e-02
      8.09498131e-03 1.29519701e-02 7.55531574e-03 6.47598505e-03
      5.39665390e-03 8.09498131e-03 5.39665390e-03 4.85698879e-03
      7.55531574e-03 2.48246081e-02 9.71397758e-03 5.77441975e-02
      3.77765787e-03 1.67296268e-02 1.61899626e-03 8.09498131e-03
      2.15866156e-02 8.09498131e-03 1.02536427e-02 5.39665390e-03
      1.24123041e-02 1.02536427e-02 7.01565016e-03 9.17431153e-03
      8.09498131e-03 8.63464642e-03 8.63464642e-03 2.05072854e-02
      1.02536427e-02 7.01565016e-03 4.31732321e-03 2.69832695e-03
      5.93631947e-03 7.01565016e-03 9.71397758e-03 3.77765787e-03
      6.47598505e-03 8.09498131e-03 8.63464642e-03 8.63464642e-03
      7.55531574e-03 2.10469514e-02 1.29519701e-02 6.63788468e-02
      5.39665390e-03 1.51106315e-02 4.85698879e-03 6.47598505e-03
      1.45709664e-02 9.17431153e-03 1.13329738e-02 1.18726389e-02
      8.09498131e-03 1.18726389e-02 9.71397758e-03 4.85698879e-03
      5.39665390e-03 3.77765787e-03 4.85698879e-03 6.47598505e-03
      8.63464642e-03 5.39665390e-03 1.83486231e-02 1.02536427e-02
      1.94279552e-02 8.09498131e-03 4.85698879e-03 7.01565016e-03
      1.56502966e-02 4.31732321e-03 8.63464642e-03 1.07933078e-02
      1.94279552e-02 1.45709664e-02 5.93631947e-03 1.02536427e-02
      1.18726389e-02 6.47598505e-03 5.39665390e-03 5.39665390e-03
      3.77765787e-03 5.39665390e-03 4.85698879e-03 3.23799253e-03
      6.47598505e-03 2.69832695e-03 5.93631947e-03 6.47598505e-03
      1.13329738e-02 3.23799253e-03 3.77765787e-03 1.02536427e-02
      7.01565016e-03 9.71397758e-03 5.93631947e-03 9.71397758e-03</_>
    <_>
      4.45632776e-03 7.57575780e-03 8.02139007e-03 2.58467030e-02
      8.46702326e-03 1.15864528e-02 7.57575780e-03 2.13903747e-02
      9.80392192e-03 6.23885915e-03 5.34759369e-03 5.79322642e-03
      5.79322642e-03 2.04991084e-02 9.35828872e-03 1.78253110e-02
      5.34759369e-03 8.46702326e-03 4.90196096e-03 7.57575780e-03
      6.68449188e-03 1.06951874e-02 4.01069503e-03 7.13012461e-03
      1.51515156e-02 1.51515156e-02 1.29233515e-02 7.13012461e-03
      4.45632776e-03 7.13012461e-03 1.47058824e-02 2.85204984e-02
      5.79322642e-03 5.34759369e-03 8.02139007e-03 4.01069503e-03
      2.67379684e-03 6.68449188e-03 8.02139007e-03 4.01069503e-03
      9.35828872e-03 4.01069503e-03 6.68449188e-03 7.57575780e-03
      1.24777183e-02 1.73796788e-02 1.78253110e-02 3.74331549e-02
      9.35828872e-03 4.45632776e-03 5.34759369e-03 8.02139007e-03
      5.34759369e-03 1.29233515e-02 1.55971479e-02 9.80392192e-03
      4.90196096e-03 7.57575780e-03 1.55971479e-02 7.13012461e-03
      6.23885915e-03 9.35828872e-03 7.13012461e-03 1.02495542e-02
      1.60427801e-02 3.11942957e-03 4.90196096e-03 4.45632776e-03
      2.18360070e-02 1.06951874e-02 6.23885915e-03 1.55971479e-02
      2.09447406e-02 6.68449188e-03 4.01069503e-03 1.51515156e-02
      1.82709452e-02 1.38146169e-02 1.06951874e-02 8.02139007e-03
      4.01069503e-03 7.13012461e-03 8.02139007e-03 9.80392192e-03
      3.56506230e-03 8.02139007e-03 6.68449188e-03 1.11408196e-02
      5.34759369e-03 5.34759369e-03 1.02495542e-02 1.42602492e-02
      2.00534761e-02 1.15864528e-02 5.79322642e-03 1.20320851e-02
      6.68449188e-03 6.23885915e-03 8.02139007e-03 2.36185379e-02</_>
    <_>
      1.27737224e-02 5.47445239e-03 2.73722620e-03 4.01459858e-02
      2.73722620e-03 1.09489048e-02 7.29927002e-03 1.00364964e-02
      1.27737224e-02 1.00364964e-02 3.64963501e-03 1.00364964e-02
      1.00364964e-02 2.09854022e-02 3.64963501e-03 7.39051104e-02
      6.38686121e-03 1.27737224e-02 2.73722620e-03 1.36861317e-02
      1.27737224e-02 8.21167883e-03 8.21167883e-03 5.47445239e-03
      1.09489048e-02 9.12408717e-03 4.56204358e-03 3.64963501e-03
      1.18613141e-02 1.73357669e-02 1.09489048e-02 2.09854022e-02
      5.47445239e-03 9.12408717e-03 7.29927002e-03 5.47445239e-03
      9.12408717e-03 7.29927002e-03 3.64963501e-03 1.82481750e-03
      5.47445239e-03 1.45985400e-02 1.36861317e-02 9.12408717e-03
      7.29927002e-03 4.37956192e-02 2.73722620e-03 6.56934306e-02
      1.82481750e-03 2.73722620e-03 6.38686121e-03 5.47445239e-03
      1.18613141e-02 7.29927002e-03 9.12408717e-03 5.47445239e-03
      2.73722620e-03 9.12408717e-03 2.73722634e-02 5.47445239e-03
      1.09489048e-02 3.64963501e-03 5.47445239e-03 9.12408717e-03
      6.38686121e-03 9.12408717e-03 1.09489048e-02 4.56204358e-03
      1.45985400e-02 2.73722620e-03 5.47445239e-03 1.00364964e-02
      1.00364964e-02 5.47445239e-03 1.00364964e-02 7.29927002e-03
      2.18978096e-02 1.55109493e-02 8.21167883e-03 2.73722620e-03
      2.09854022e-02 7.29927002e-03 2.73722620e-03 5.47445239e-03
      5.47445239e-03 2.73722620e-03 0. 3.64963501e-03 2.73722620e-03
      4.56204358e-03 2.73722620e-03 5.47445239e-03 1.09489048e-02
      6.38686121e-03 1.82481750e-03 1.00364964e-02 6.38686121e-03
      1.00364964e-02 6.38686121e-03 6.38686121e-03</_>
    <_>
      2.05479451e-02 3.42465751e-03 3.42465751e-03 5.82191795e-02 0.
      1.36986300e-02 0. 2.05479451e-02 1.02739725e-02 6.84931502e-03 0.
      6.84931502e-03 2.39726026e-02 2.05479451e-02 0. 7.53424689e-02 0.
      2.39726026e-02 0. 1.36986300e-02 1.71232875e-02 1.02739725e-02 0.
      0. 6.84931502e-03 3.42465751e-03 0. 0. 1.71232875e-02
      6.84931502e-03 2.05479451e-02 1.71232875e-02 2.73972601e-02
      6.84931502e-03 3.42465751e-03 1.02739725e-02 2.05479451e-02 0. 0.
      3.42465751e-03 3.42465751e-03 6.84931502e-03 3.42465751e-02
      3.42465751e-03 6.84931502e-03 5.47945201e-02 6.84931502e-03
      4.79452051e-02 0. 6.84931502e-03 0. 3.42465751e-03 0.
      1.02739725e-02 1.02739725e-02 3.42465751e-03 0. 3.08219176e-02
      1.36986300e-02 3.42465751e-03 0. 3.42465751e-03 0. 0. 0. 0.
      1.71232875e-02 1.02739725e-02 1.71232875e-02 3.42465751e-03 0.
      3.42465751e-03 2.73972601e-02 2.05479451e-02 3.42465751e-03
      3.42465751e-03 1.36986300e-02 6.84931502e-03 1.71232875e-02
      1.02739725e-02 1.02739725e-02 1.36986300e-02 0. 0. 1.36986300e-02
      6.84931502e-03 0. 2.05479451e-02 3.42465751e-03 3.42465751e-03
      3.42465751e-03 3.42465751e-03 3.42465751e-03 3.42465751e-03
      3.42465751e-03 1.36986300e-02 3.42465751e-03 6.84931502e-03 0.
      1.02739725e-02</_>
    <_>
      0. 0. 0. 1.50000006e-01 0. 5.00000007e-02 0. 1.66666675e-02
      1.66666675e-02 0. 0. 1.66666675e-02 3.33333351e-02 5.00000007e-02
      0. 0. 1.66666675e-02 1.66666675e-02 0. 0. 0. 0. 0. 1.66666675e-02
      0. 0. 0. 0. 0. 0. 0. 1.66666675e-02 0. 0. 0. 1.66666675e-02 0. 0.
      0. 0. 0. 3.33333351e-02 0. 0. 0. 8.33333358e-02 0. 0.
      1.66666675e-02 0. 0. 0. 0. 0. 3.33333351e-02 0. 0. 5.00000007e-02
      5.00000007e-02 3.33333351e-02 0. 0. 0. 0. 1.66666675e-02 0.
      1.66666675e-02 0. 1.66666675e-02 3.33333351e-02 0. 0.
      1.66666675e-02 0. 0. 1.66666675e-02 0. 1.66666675e-02 0. 0. 0.
      1.66666675e-02 1.66666675e-02 0. 3.33333351e-02 1.66666675e-02 0.
      0. 1.66666675e-02 0. 0. 1.66666675e-02 1.66666675e-02
      1.66666675e-02 0. 0. 0. 0. 0. 0.</_>
    <_>
      8.73965025e-03 9.19963233e-03 1.05795767e-02 2.89788414e-02
      6.89972378e-03 1.10395588e-02 5.97976102e-03 8.27966910e-03
      7.35970540e-03 5.97976102e-03 3.67985270e-03 4.13983455e-03
      1.24195032e-02 1.93192270e-02 6.43974263e-03 9.88960415e-02
      5.97976102e-03 1.74793005e-02 7.35970540e-03 7.35970540e-03
      1.60993561e-02 1.01195956e-02 5.05979778e-03 1.47194108e-02
      1.56393740e-02 1.10395588e-02 8.73965025e-03 8.27966910e-03
      5.05979778e-03 4.59981617e-03 1.37994476e-02 1.33394664e-02
      5.51977940e-03 5.51977940e-03 7.81968702e-03 5.51977940e-03
      1.83992647e-02 7.81968702e-03 1.05795767e-02 5.51977940e-03
      6.43974263e-03 2.75988970e-03 6.43974263e-03 5.97976102e-03
      7.35970540e-03 1.51793929e-02 1.14995399e-02 5.24379015e-02
      5.05979778e-03 5.05979778e-03 6.89972378e-03 6.89972378e-03
      8.27966910e-03 6.43974263e-03 1.37994476e-02 6.43974263e-03
      9.19963233e-03 6.89972378e-03 7.81968702e-03 4.59981617e-03
      5.05979778e-03 3.67985270e-03 5.97976102e-03 6.89972378e-03
      1.24195032e-02 7.81968702e-03 1.10395588e-02 1.14995399e-02
      2.39190441e-02 3.21987132e-03 6.89972378e-03 1.42594296e-02
      1.10395588e-02 5.51977940e-03 6.43974263e-03 1.01195956e-02
      1.33394664e-02 8.73965025e-03 7.81968702e-03 8.27966910e-03
      1.05795767e-02 4.13983455e-03 3.67985270e-03 6.89972378e-03
      5.97976102e-03 9.19963233e-03 3.67985270e-03 7.81968702e-03
      6.43974263e-03 3.21987132e-03 7.35970540e-03 6.43974263e-03
      1.33394664e-02 7.81968702e-03 4.59981617e-03 1.19595220e-02
      5.05979778e-03 4.59981617e-03 5.05979778e-03 1.33394664e-02</_>
    <_>
      8.47457629e-03 8.47457629e-03 6.35593198e-03 1.90677959e-02
      1.05932206e-02 1.80084743e-02 7.41525413e-03 7.41525413e-03
      1.16525423e-02 9.53389797e-03 5.29661030e-03 1.16525423e-02
      2.11864412e-02 2.01271195e-02 5.29661030e-03 1.58898309e-02
      7.41525413e-03 7.41525413e-03 8.47457629e-03 9.53389797e-03
      1.48305083e-02 2.11864407e-03 6.35593198e-03 8.47457629e-03
      1.16525423e-02 9.53389797e-03 4.23728814e-03 4.23728814e-03
      1.90677959e-02 1.48305083e-02 1.05932206e-02 1.37711866e-02
      8.47457629e-03 8.47457629e-03 6.35593198e-03 9.53389797e-03
      3.17796599e-03 9.53389797e-03 4.23728814e-03 4.23728814e-03
      8.47457629e-03 7.41525413e-03 7.41525413e-03 1.16525423e-02
      6.35593198e-03 1.05932206e-02 1.37711866e-02 2.75423732e-02
      1.16525423e-02 1.27118640e-02 5.29661030e-03 1.27118640e-02
      9.53389797e-03 1.16525423e-02 4.23728814e-03 7.41525413e-03
      7.41525413e-03 1.37711866e-02 9.53389797e-03 1.27118640e-02
      1.16525423e-02 8.47457629e-03 0. 1.05932206e-02 6.35593198e-03
      1.27118640e-02 8.47457629e-03 2.86016949e-02 1.58898309e-02
      9.53389797e-03 9.53389797e-03 8.47457629e-03 1.58898309e-02
      1.48305083e-02 3.17796599e-03 8.47457629e-03 2.22457629e-02
      1.16525423e-02 7.41525413e-03 1.16525423e-02 4.23728814e-03
      1.05932206e-02 1.37711866e-02 9.53389797e-03 1.05932206e-02
      8.47457629e-03 2.11864407e-03 8.47457629e-03 5.29661030e-03
      2.11864407e-03 2.11864407e-03 1.80084743e-02 1.16525423e-02
      7.41525413e-03 1.05932206e-02 1.05932206e-02 1.27118640e-02
      1.16525423e-02 2.11864407e-03 7.41525413e-03</_>
    <_>
      2.54335254e-02 4.62427735e-03 3.46820801e-03 1.73410401e-02
      8.09248537e-03 2.71676295e-02 2.31213868e-03 2.89017335e-03
      9.82658938e-03 2.42774561e-02 3.46820801e-03 9.82658938e-03
      1.73410401e-02 8.09248537e-03 5.20231202e-03 9.19075161e-02
      1.15606934e-03 2.83236988e-02 3.46820801e-03 1.04046240e-02
      3.29479761e-02 3.46820801e-03 1.15606934e-03 4.04624268e-03
      2.19653174e-02 5.20231202e-03 4.62427735e-03 3.46820801e-03
      1.79190747e-02 5.20231202e-03 9.24855471e-03 5.20231202e-03
      1.56069361e-02 3.46820801e-03 6.93641603e-03 1.32947974e-02
      1.04046240e-02 3.46820801e-03 5.20231202e-03 2.89017335e-03
      5.20231202e-03 4.62427735e-03 4.62427735e-03 2.31213868e-03
      6.35838136e-03 1.44508667e-02 2.89017335e-03 1.59537569e-01 0.
      1.27167627e-02 2.31213868e-03 4.04624268e-03 1.73410401e-03
      6.35838136e-03 1.15606934e-02 1.73410401e-03 5.20231202e-03
      1.32947974e-02 2.31213868e-03 3.46820801e-03 7.51445070e-03
      5.20231202e-03 2.31213868e-03 9.82658938e-03 8.09248537e-03
      4.62427735e-03 2.48554908e-02 1.38728321e-02 7.51445070e-03
      4.62427735e-03 4.62427735e-03 1.61849707e-02 7.51445070e-03
      5.20231202e-03 4.04624268e-03 8.09248537e-03 6.93641603e-03
      1.04046240e-02 2.31213868e-03 6.93641603e-03 8.67052004e-03
      2.89017335e-03 5.20231202e-03 4.04624268e-03 5.20231202e-03
      8.67052004e-03 2.89017335e-03 3.46820801e-03 5.78034669e-03
      3.46820801e-03 7.51445070e-03 6.35838136e-03 5.20231202e-03
      3.46820801e-03 5.78034669e-04 5.78034669e-03 1.73410401e-03
      5.20231202e-03 2.31213868e-03 5.78034669e-03</_>
    <_>
      3.93239036e-02 8.27871636e-03 5.51914470e-03 2.03518458e-02
      2.41462584e-03 5.51914470e-03 4.13935818e-03 8.96861032e-03
      8.96861032e-03 1.55225936e-02 2.41462584e-03 3.79441190e-03
      1.03483964e-02 8.96861032e-03 2.75957235e-03 1.60400137e-01
      1.72473269e-03 5.10520861e-02 5.17419819e-03 5.17419819e-03
      1.96619518e-02 2.75957235e-03 3.44946538e-03 7.93377031e-03
      3.10451887e-03 2.41462584e-03 3.79441190e-03 5.17419819e-03
      1.62124876e-02 5.17419819e-03 4.82925167e-03 8.62366334e-03
      8.27871636e-03 3.44946538e-03 4.48430516e-03 3.79441190e-03
      4.48430516e-03 4.13935818e-03 4.82925167e-03 4.13935818e-03
      4.13935818e-03 2.75957235e-03 3.79441190e-03 4.82925167e-03
      1.37978618e-03 6.55398425e-03 4.82925167e-03 2.33528808e-01
      1.72473269e-03 5.51914470e-03 0. 5.86409122e-03 4.48430516e-03
      1.37978618e-03 6.89893076e-03 3.79441190e-03 5.86409122e-03
      4.82925167e-03 5.17419819e-03 1.72473269e-03 6.55398425e-03
      2.41462584e-03 3.44946538e-03 4.48430516e-03 3.79441190e-03
      1.03483964e-02 1.17281824e-02 5.51914470e-03 4.48430516e-03
      3.44946538e-03 6.89893088e-04 5.17419819e-03 4.48430516e-03
      5.51914470e-03 7.58882379e-03 5.86409122e-03 1.27630215e-02
      2.41462584e-03 1.37978615e-02 2.41462584e-03 6.89893076e-03
      3.10451887e-03 2.06967909e-03 3.44946538e-03 3.44946538e-03
      3.44946538e-03 3.44946544e-04 1.72473269e-03 6.20903773e-03
      1.72473269e-03 2.75957235e-03 7.93377031e-03 3.10451887e-03
      1.72473269e-03 1.03483954e-03 1.51776476e-02 1.72473269e-03
      7.93377031e-03 4.13935818e-03 4.48430516e-03</_>
    <_>
      3.65408044e-03 7.30816089e-03 2.43605371e-03 8.52618739e-03
      1.21802685e-03 6.09013392e-03 4.87210741e-03 4.87210741e-03
      1.09622413e-02 2.43605371e-03 2.43605371e-03 1.21802685e-03
      2.43605357e-02 6.09013392e-03 3.65408044e-03 2.37515226e-01
      2.43605371e-03 4.50669900e-02 2.43605371e-03 9.74421483e-03
      3.65408044e-03 4.87210741e-03 1.58343483e-02 9.74421483e-03
      4.87210741e-03 0. 2.43605371e-03 2.43605371e-03 7.30816089e-03
      2.67965887e-02 1.21802685e-03 8.52618739e-03 4.87210741e-03
      3.65408044e-03 2.43605371e-03 6.09013392e-03 1.07186355e-01
      6.09013392e-03 2.43605371e-03 1.21802685e-03 2.43605371e-03
      1.94884297e-02 2.43605371e-03 1.21802685e-03 3.65408044e-03
      6.09013392e-03 2.43605371e-03 3.16686966e-02 3.65408044e-03
      3.53227779e-02 0. 2.43605371e-03 2.43605371e-03 3.65408044e-03
      9.74421483e-03 3.65408044e-03 2.43605371e-03 6.09013392e-03
      1.21802685e-03 0. 2.43605371e-03 0. 1.21802685e-03 6.09013392e-03
      4.87210741e-03 2.43605371e-03 4.01948839e-02 4.87210741e-03
      9.74421483e-03 0. 2.43605371e-03 3.65408044e-03 4.87210741e-03
      1.09622413e-02 4.87210741e-03 2.43605371e-03 3.65408044e-03
      4.87210741e-03 6.09013392e-03 4.87210741e-03 5.35931773e-02
      1.09622413e-02 4.87210741e-03 0. 1.21802678e-02 2.43605371e-03
      1.21802685e-03 1.21802685e-03 1.09622413e-02 0. 1.21802685e-03
      2.43605371e-03 0. 4.87210741e-03 0. 7.30816089e-03 3.65408044e-03
      7.30816089e-03 0. 6.09013392e-03</_>
    <_>
      1.08527131e-02 6.20155036e-03 1.24031007e-02 3.25581394e-02
      3.10077518e-03 9.30232555e-03 7.75193796e-03 6.20155036e-03
      1.55038759e-02 6.20155036e-03 1.55038759e-03 1.24031007e-02
      7.75193796e-03 2.01550387e-02 0. 8.52713212e-02 3.10077518e-03
      4.18604650e-02 0. 1.24031007e-02 1.08527131e-02 3.10077518e-03
      9.30232555e-03 1.39534883e-02 3.10077518e-03 7.75193796e-03
      6.20155036e-03 4.65116277e-03 1.39534883e-02 1.24031007e-02
      4.65116277e-03 9.30232555e-03 1.86046511e-02 1.55038759e-02
      1.55038759e-03 1.55038759e-03 1.86046511e-02 2.01550387e-02
      1.55038759e-03 6.20155036e-03 6.20155036e-03 1.55038759e-02
      7.75193796e-03 4.65116277e-03 7.75193796e-03 1.39534883e-02
      1.55038759e-03 5.58139533e-02 1.24031007e-02 1.08527131e-02
      1.55038759e-03 3.10077518e-03 1.24031007e-02 7.75193796e-03
      6.20155036e-03 6.20155036e-03 3.10077518e-03 3.10077518e-02 0.
      7.75193796e-03 9.30232555e-03 0. 3.10077518e-03 1.39534883e-02
      6.20155036e-03 7.75193796e-03 2.48062015e-02 1.55038759e-03
      1.24031007e-02 3.10077518e-03 7.75193796e-03 7.75193796e-03
      6.20155036e-03 9.30232555e-03 1.08527131e-02 7.75193796e-03
      1.24031007e-02 1.55038759e-03 6.20155036e-03 3.10077518e-03
      1.70542635e-02 1.08527131e-02 3.10077518e-03 4.65116277e-03
      1.08527131e-02 3.10077518e-03 3.10077518e-03 1.55038759e-03 0.
      3.10077518e-03 1.55038759e-03 1.24031007e-02 1.39534883e-02
      1.24031007e-02 3.10077518e-03 9.30232555e-03 3.10077518e-03
      1.86046511e-02 1.39534883e-02 6.20155036e-03</_>
    <_>
      8.35073087e-03 1.04384134e-02 4.17536544e-03 3.34029235e-02
      2.08768272e-03 6.26304792e-03 2.08768272e-03 1.04384134e-02
      6.26304792e-03 6.26304792e-03 2.08768272e-03 2.08768272e-03
      2.08768267e-02 3.34029235e-02 4.17536544e-03 1.87891442e-02
      4.17536544e-03 8.35073087e-03 0. 8.35073087e-03 3.34029235e-02
      8.35073087e-03 8.35073087e-03 1.67014617e-02 1.46137783e-02
      8.35073087e-03 4.17536544e-03 2.08768272e-03 8.35073087e-03
      4.17536544e-03 1.67014617e-02 1.46137783e-02 1.04384134e-02
      4.17536544e-03 8.35073087e-03 1.04384134e-02 4.17536544e-03
      8.35073087e-03 6.26304792e-03 1.04384134e-02 4.17536544e-03
      6.26304792e-03 2.08768272e-03 2.08768272e-03 4.17536544e-03
      2.71398742e-02 2.50521917e-02 2.50521917e-02 4.17536544e-03
      1.04384134e-02 0. 4.17536544e-03 4.17536544e-03 2.08768272e-03
      1.04384134e-02 4.17536544e-03 0. 1.25260958e-02 1.25260958e-02
      1.46137783e-02 4.17536544e-03 0. 0. 1.25260958e-02 4.17536544e-03
      4.17536544e-03 2.71398742e-02 6.26304792e-03 2.50521917e-02
      4.17536544e-03 2.08768272e-03 1.46137783e-02 1.87891442e-02
      1.04384134e-02 2.08768272e-03 1.87891442e-02 2.71398742e-02
      2.29645092e-02 1.25260958e-02 8.35073087e-03 6.26304792e-03
      8.35073087e-03 1.04384134e-02 2.08768267e-02 1.04384134e-02
      1.67014617e-02 0. 2.08768267e-02 8.35073087e-03 0. 0.
      1.46137783e-02 2.08768267e-02 1.04384134e-02 0. 2.29645092e-02
      2.08768272e-03 2.08768272e-03 0. 2.92275567e-02</_>
    <_>
      2.09790207e-02 1.63170155e-02 9.32400953e-03 7.45920762e-02
      1.16550119e-03 4.66200477e-03 5.82750561e-03 1.16550112e-02
      9.32400953e-03 9.32400953e-03 2.33100238e-03 5.82750561e-03
      1.98135190e-02 5.24475537e-02 1.16550119e-03 3.37995328e-02
      9.32400953e-03 2.91375294e-02 6.99300691e-03 1.39860138e-02
      8.15850776e-03 2.33100238e-03 2.33100238e-03 6.99300691e-03
      3.49650346e-03 3.49650346e-03 1.04895104e-02 9.32400953e-03
      6.99300691e-03 1.74825173e-02 8.15850776e-03 2.09790207e-02
      1.39860138e-02 5.82750561e-03 4.66200477e-03 6.99300691e-03
      1.16550112e-02 4.66200477e-03 1.04895104e-02 4.66200477e-03
      8.15850776e-03 2.21445225e-02 5.82750561e-03 9.32400953e-03
      1.16550119e-03 2.79720277e-02 8.15850776e-03 1.28205130e-02
      8.15850776e-03 8.15850776e-03 3.49650346e-03 4.66200477e-03
      9.32400953e-03 5.82750561e-03 1.39860138e-02 5.82750561e-03
      2.33100238e-03 1.28205130e-02 4.66200477e-03 5.82750561e-03
      4.66200477e-03 3.49650346e-03 4.66200477e-03 6.99300691e-03
      5.82750561e-03 1.86480191e-02 1.39860138e-02 3.49650346e-03
      9.32400953e-03 3.49650346e-03 4.66200477e-03 1.16550119e-03
      1.16550112e-02 1.16550112e-02 1.63170155e-02 9.32400953e-03
      1.04895104e-02 9.32400953e-03 1.86480191e-02 1.39860138e-02
      1.39860138e-02 1.16550112e-02 1.16550119e-03 3.49650346e-03
      6.99300691e-03 9.32400953e-03 6.99300691e-03 4.66200477e-03
      3.49650346e-03 2.33100238e-03 9.32400953e-03 5.82750561e-03
      1.04895104e-02 5.82750561e-03 3.49650346e-03 9.32400953e-03
      4.66200477e-03 1.39860138e-02 2.33100238e-03 6.99300691e-03</_>
    <_>
      8.13008100e-03 0. 8.13008100e-03 1.62601620e-02 0. 1.62601620e-02
      0. 8.13008100e-03 2.43902430e-02 0. 0. 1.62601620e-02 0.
      8.13008100e-03 8.13008100e-03 1.62601620e-02 0. 0. 0.
      8.13008100e-03 0. 0. 8.13008100e-03 2.43902430e-02 3.25203240e-02
      0. 0. 0. 8.13008100e-03 8.13008100e-03 0. 8.13008100e-03 0.
      8.13008100e-03 1.62601620e-02 8.13008100e-03 3.25203240e-02
      2.43902430e-02 0. 8.13008100e-03 3.25203240e-02 1.62601620e-02
      1.62601620e-02 1.62601620e-02 0. 1.62601620e-02 1.62601620e-02 0.
      2.43902430e-02 0. 0. 2.43902430e-02 8.13008100e-03 8.13008100e-03
      8.13008100e-03 0. 0. 4.87804860e-02 1.62601620e-02 4.06504050e-02
      0. 0. 0. 8.13008100e-03 8.13008100e-03 0. 8.13008100e-03
      1.62601620e-02 2.43902430e-02 8.13008100e-03 0. 1.62601620e-02 0.
      8.13008100e-03 1.62601620e-02 8.13008100e-03 0. 4.06504050e-02
      8.13008100e-03 8.13008100e-03 3.25203240e-02 2.43902430e-02
      8.13008100e-03 0. 3.25203240e-02 0. 0. 0. 8.13008100e-03 0. 0.
      1.62601620e-02 8.13008100e-03 0. 2.43902430e-02 3.25203240e-02 0.
      1.62601620e-02 0. 0.</_>
    <_>
      1.49068320e-02 1.05590066e-02 8.07453413e-03 5.52795045e-02
      6.83229836e-03 1.24223605e-02 5.59006212e-03 1.67701859e-02
      9.31677036e-03 1.49068320e-02 4.34782589e-03 3.72670800e-03
      1.36645967e-02 2.85714287e-02 8.07453413e-03 4.09937873e-02
      4.34782589e-03 2.54658386e-02 4.96894401e-03 1.86335407e-02
      1.30434781e-02 4.96894401e-03 8.69565178e-03 1.18012419e-02
      8.69565178e-03 9.31677036e-03 4.96894401e-03 5.59006212e-03
      7.45341601e-03 4.96894401e-03 1.61490683e-02 1.24223605e-02
      1.18012419e-02 6.21118024e-03 2.48447200e-03 4.96894401e-03
      1.18012419e-02 8.69565178e-03 8.69565178e-03 6.83229836e-03
      9.93788801e-03 1.36645967e-02 3.72670800e-03 6.83229836e-03
      4.96894401e-03 1.55279506e-02 1.24223600e-03 3.66459638e-02
      3.10559012e-03 1.05590066e-02 6.21118024e-03 8.07453413e-03
      1.24223605e-02 6.21118024e-03 2.23602485e-02 6.21118024e-03
      4.96894401e-03 8.07453413e-03 6.21118024e-03 8.07453413e-03
      8.69565178e-03 4.96894401e-03 3.72670800e-03 1.18012419e-02
      8.07453413e-03 4.96894401e-03 1.24223605e-02 6.21118024e-03
      1.05590066e-02 1.11801242e-02 3.72670800e-03 6.21118024e-03
      8.07453413e-03 9.31677036e-03 7.45341601e-03 1.86335407e-02
      1.42857144e-02 8.07453413e-03 7.45341601e-03 7.45341601e-03
      1.98757760e-02 7.45341601e-03 7.45341601e-03 1.18012419e-02
      1.42857144e-02 4.34782589e-03 3.72670800e-03 6.21118024e-03
      6.83229836e-03 3.10559012e-03 4.96894401e-03 4.96894401e-03
      1.30434781e-02 3.72670800e-03 1.24223600e-03 1.11801242e-02
      6.83229836e-03 1.11801242e-02 6.21118024e-03 6.21118024e-03</_>
    <_>
      3.87096778e-02 1.61290320e-03 0. 4.19354849e-02 4.83870972e-03
      2.25806460e-02 1.61290320e-03 1.61290320e-03 1.61290320e-03
      2.58064512e-02 0. 8.06451589e-03 1.77419353e-02 1.29032256e-02
      1.61290320e-03 1.64516136e-01 0. 2.74193548e-02 3.22580640e-03
      4.83870972e-03 2.74193548e-02 4.83870972e-03 0. 8.06451589e-03
      1.45161292e-02 1.61290320e-03 0. 1.61290320e-03 1.45161292e-02
      1.12903230e-02 1.45161292e-02 8.06451589e-03 4.83870972e-03
      6.45161280e-03 1.29032256e-02 3.22580640e-03 1.61290320e-03
      8.06451589e-03 0. 0. 3.22580640e-03 1.29032256e-02 1.29032256e-02
      0. 4.83870972e-03 1.93548389e-02 6.45161280e-03 1.27419353e-01
      3.22580640e-03 1.12903230e-02 4.83870972e-03 1.61290320e-03
      1.61290320e-03 1.29032256e-02 1.12903230e-02 4.83870972e-03
      1.61290320e-03 1.12903230e-02 1.61290320e-03 3.22580640e-03
      6.45161280e-03 4.83870972e-03 1.61290320e-03 1.12903230e-02
      1.61290320e-03 6.45161280e-03 1.77419353e-02 4.83870972e-03
      1.12903230e-02 6.45161280e-03 4.83870972e-03 9.67741944e-03
      1.29032256e-02 4.83870972e-03 0. 1.29032256e-02 4.83870972e-03
      4.83870972e-03 1.61290320e-03 1.61290320e-03 6.45161280e-03
      8.06451589e-03 1.45161292e-02 3.22580640e-03 1.61290320e-03
      3.22580640e-03 1.61290320e-03 1.61290320e-03 3.22580640e-03 0. 0.
      8.06451589e-03 8.06451589e-03 3.22580640e-03 8.06451589e-03
      6.45161280e-03 3.22580640e-03 6.45161280e-03 0. 1.61290320e-03</_>
    <_>
      2.67379684e-03 5.34759369e-03 0. 2.67379675e-02 2.67379684e-03
      1.06951874e-02 5.34759369e-03 2.40641702e-02 2.67379684e-03
      8.02139007e-03 0. 1.06951874e-02 8.02139007e-03 1.60427801e-02
      1.06951874e-02 2.13903747e-02 0. 2.67379684e-03 2.67379684e-03
      1.33689838e-02 7.75401071e-02 1.06951874e-02 1.60427801e-02
      2.67379684e-03 1.33689838e-02 5.34759369e-03 2.67379684e-03
      8.02139007e-03 1.06951874e-02 0. 5.34759369e-03 1.60427801e-02
      1.06951874e-02 8.02139007e-03 8.02139007e-03 5.34759369e-03
      2.67379684e-03 5.34759369e-03 2.67379684e-03 2.67379684e-03
      5.34759369e-03 1.60427801e-02 1.06951874e-02 1.60427801e-02
      5.34759369e-03 1.87165774e-02 0. 6.68449178e-02 8.02139007e-03
      2.13903747e-02 2.67379684e-03 1.33689838e-02 8.02139007e-03
      2.67379684e-03 1.87165774e-02 5.34759369e-03 8.02139007e-03
      8.02139007e-03 8.02139007e-03 5.34759369e-03 2.94117648e-02 0.
      5.34759369e-03 1.06951874e-02 1.33689838e-02 5.34759369e-03
      2.67379684e-03 1.06951874e-02 1.87165774e-02 5.34759369e-03
      8.02139007e-03 1.33689838e-02 2.67379684e-03 0. 8.02139007e-03
      8.02139007e-03 4.54545468e-02 5.34759369e-03 8.02139007e-03
      1.06951874e-02 5.34759369e-03 5.34759369e-03 2.67379684e-03
      5.34759369e-03 1.60427801e-02 8.02139007e-03 8.02139007e-03
      8.02139007e-03 5.34759369e-03 1.33689838e-02 2.67379684e-03
      8.02139007e-03 1.60427801e-02 2.67379684e-03 2.67379684e-03
      1.06951874e-02 8.02139007e-03 1.60427801e-02 8.02139007e-03 0.</_>
    <_>
      0. 0. 1.08695654e-02 3.26086953e-02 0. 0. 1.08695654e-02 0. 0.
      1.08695654e-02 0. 1.08695654e-02 2.17391308e-02 3.26086953e-02
      1.08695654e-02 0. 3.26086953e-02 3.26086953e-02 0. 1.08695654e-02
      1.08695654e-02 0. 0. 3.26086953e-02 0. 0. 3.26086953e-02 0.
      2.17391308e-02 1.08695654e-02 4.34782617e-02 2.17391308e-02
      1.08695654e-02 0. 0. 3.26086953e-02 0. 0. 2.17391308e-02 0.
      1.08695654e-02 0. 1.08695654e-02 2.17391308e-02 0. 2.17391308e-02
      2.17391308e-02 4.34782617e-02 1.08695654e-02 0. 0. 0. 0.
      1.08695654e-02 4.34782617e-02 3.26086953e-02 0. 1.08695654e-02 0.
      0. 0. 0. 0. 0. 0. 0. 0. 1.08695654e-02 1.08695654e-02 0. 0.
      1.08695654e-02 0. 2.17391308e-02 1.08695654e-02 1.08695654e-02
      1.08695654e-02 1.08695654e-02 1.08695654e-02 1.08695654e-02 0.
      1.08695654e-02 0. 0. 2.17391308e-02 1.08695654e-02 0.
      1.08695654e-02 3.26086953e-02 0. 0. 2.17391308e-02 0. 0.
      1.08695654e-02 3.26086953e-02 1.08695654e-02 2.17391308e-02 0. 0.</_>
    <_>
      3.47947120e-03 7.65483640e-03 4.17536544e-03 2.64439806e-02
      6.26304792e-03 9.74251889e-03 4.87125944e-03 8.35073087e-03
      1.18302014e-02 1.25260958e-02 2.78357696e-03 7.65483640e-03
      5.56715392e-03 1.11343078e-02 4.17536544e-03 4.38413359e-02
      4.87125944e-03 1.39178848e-02 8.35073087e-03 1.60055663e-02
      1.94850378e-02 9.74251889e-03 9.04662535e-03 1.87891442e-02
      1.25260958e-02 1.32219903e-02 9.74251889e-03 4.17536544e-03
      1.18302014e-02 4.17536544e-03 9.04662535e-03 1.25260958e-02
      1.11343078e-02 1.11343078e-02 8.35073087e-03 1.04384134e-02
      2.78357696e-03 8.35073087e-03 9.74251889e-03 4.87125944e-03
      5.56715392e-03 1.11343078e-02 8.35073087e-03 5.56715392e-03
      7.65483640e-03 9.04662535e-03 9.04662535e-03 4.31454405e-02
      7.65483640e-03 1.60055663e-02 6.95894239e-03 6.26304792e-03
      6.26304792e-03 6.26304792e-03 1.18302014e-02 7.65483640e-03
      4.87125944e-03 7.65483640e-03 7.65483640e-03 9.04662535e-03
      9.04662535e-03 5.56715392e-03 3.47947120e-03 1.18302014e-02
      1.11343078e-02 1.11343078e-02 1.60055663e-02 1.46137783e-02
      1.46137783e-02 2.08768272e-03 7.65483640e-03 9.74251889e-03
      1.46137783e-02 4.87125944e-03 9.04662535e-03 9.74251889e-03
      1.67014617e-02 1.32219903e-02 1.11343078e-02 1.11343078e-02
      1.73973553e-02 6.26304792e-03 6.26304792e-03 1.04384134e-02
      6.26304792e-03 7.65483640e-03 6.95894239e-03 4.17536544e-03
      8.35073087e-03 7.65483640e-03 6.26304792e-03 8.35073087e-03
      1.46137783e-02 4.17536544e-03 5.56715392e-03 1.87891442e-02
      9.04662535e-03 1.53096728e-02 6.95894239e-03 9.74251889e-03</_>
    <_>
      1.62162166e-02 5.40540554e-03 1.62162166e-02 4.32432443e-02
      5.40540554e-03 1.62162166e-02 5.40540554e-03 1.62162166e-02
      1.08108111e-02 1.08108111e-02 5.40540554e-03 1.08108111e-02
      2.16216221e-02 1.08108111e-02 1.08108111e-02 1.08108111e-02 0.
      1.08108111e-02 0. 0. 1.08108111e-02 0. 2.16216221e-02
      2.16216221e-02 2.70270277e-02 1.62162166e-02 1.08108111e-02
      5.40540554e-03 0. 5.40540554e-03 2.70270277e-02 5.40540554e-03 0.
      1.08108111e-02 5.40540554e-03 2.70270277e-02 0. 1.08108111e-02
      1.62162166e-02 5.40540554e-03 5.40540554e-03 1.08108111e-02
      1.08108111e-02 1.08108111e-02 5.40540554e-03 2.70270277e-02 0.
      1.62162166e-02 1.08108111e-02 1.08108111e-02 5.40540554e-03
      5.40540554e-03 1.08108111e-02 1.08108111e-02 1.62162166e-02
      5.40540554e-03 5.40540554e-03 1.08108111e-02 0. 1.08108111e-02
      2.16216221e-02 2.16216221e-02 0. 0. 0. 5.40540554e-03 0.
      2.16216221e-02 5.40540554e-03 1.62162166e-02 0. 1.62162166e-02
      5.40540554e-03 1.62162166e-02 5.40540554e-03 1.08108111e-02
      5.40540554e-03 1.08108111e-02 1.08108111e-02 1.08108111e-02
      5.40540554e-03 2.70270277e-02 1.08108111e-02 0. 1.08108111e-02
      1.08108111e-02 5.40540554e-03 2.70270277e-02 1.62162166e-02
      5.40540554e-03 0. 0. 1.08108111e-02 5.40540554e-03 0.
      1.08108111e-02 0. 5.40540554e-03 1.08108111e-02 1.08108111e-02</_>
    <_>
      1.20481923e-02 5.56070451e-03 6.48748828e-03 3.61445770e-02
      2.78035225e-03 2.22428180e-02 3.70713626e-03 1.48285450e-02
      4.63392027e-03 1.48285450e-02 9.26784065e-04 1.20481923e-02
      7.41427252e-03 3.42910103e-02 9.26784053e-03 7.97034279e-02
      2.78035225e-03 2.22428180e-02 6.48748828e-03 9.26784053e-03
      1.48285450e-02 4.63392027e-03 1.11214090e-02 1.11214090e-02
      2.13160329e-02 1.85356813e-03 2.78035225e-03 1.01946248e-02
      1.85356811e-02 4.63392027e-03 1.20481923e-02 2.50231698e-02
      1.48285450e-02 3.70713626e-03 7.41427252e-03 2.78035225e-03
      5.56070451e-03 3.70713626e-03 5.56070451e-03 1.85356813e-03
      3.70713626e-03 6.48748828e-03 4.63392027e-03 1.01946248e-02
      3.70713626e-03 2.22428180e-02 4.63392027e-03 4.35588509e-02
      6.48748828e-03 1.48285450e-02 2.78035225e-03 5.56070451e-03
      7.41427252e-03 1.85356813e-03 1.20481923e-02 1.85356813e-03
      3.70713626e-03 5.56070451e-03 7.41427252e-03 4.63392027e-03
      3.70713626e-03 1.85356813e-03 6.48748828e-03 1.57553293e-02
      7.41427252e-03 5.56070451e-03 7.41427252e-03 6.48748828e-03
      2.68767383e-02 8.34105629e-03 1.39017608e-02 1.29749766e-02
      1.57553293e-02 6.48748828e-03 2.78035225e-03 1.57553293e-02
      1.48285450e-02 7.41427252e-03 1.48285450e-02 2.78035225e-03
      1.11214090e-02 7.41427252e-03 9.26784065e-04 3.70713626e-03
      9.26784065e-04 4.63392027e-03 9.26784065e-04 3.70713626e-03 0.
      9.26784065e-04 4.63392027e-03 4.63392027e-03 1.94624644e-02
      1.01946248e-02 1.01946248e-02 1.66821126e-02 8.34105629e-03
      8.34105629e-03 7.41427252e-03 1.39017608e-02</_>
    <_>
      1.50206536e-02 1.16410060e-02 9.01239179e-03 2.47840788e-02
      4.50619590e-03 9.38790850e-03 3.00413067e-03 8.63687601e-03
      6.38377760e-03 9.01239179e-03 3.00413067e-03 4.13067965e-03
      1.23920394e-02 1.84003003e-02 4.88171214e-03 1.30304173e-01
      3.75516340e-03 3.60495672e-02 4.50619590e-03 1.38941044e-02
      1.23920394e-02 9.01239179e-03 7.51032680e-03 4.88171214e-03
      2.06533987e-02 7.51032680e-03 7.51032680e-03 2.62861443e-03
      1.76492669e-02 8.26135930e-03 1.12654902e-02 1.12654902e-02
      1.53961694e-02 6.75929384e-03 8.26135930e-03 4.13067965e-03
      1.16410060e-02 1.08899735e-02 6.38377760e-03 4.88171214e-03
      3.75516340e-03 7.51032680e-03 7.88584258e-03 7.13481056e-03
      3.00413067e-03 1.65227186e-02 4.13067965e-03 6.45888075e-02
      3.75516340e-03 1.87758170e-02 4.50619590e-03 3.75516340e-03
      5.25722886e-03 3.00413067e-03 9.01239179e-03 1.01389410e-02
      3.37964692e-03 9.01239179e-03 4.50619590e-03 3.75516340e-03
      5.25722886e-03 1.50206534e-03 3.75516340e-03 4.50619590e-03
      6.75929384e-03 7.88584258e-03 1.91513337e-02 7.51032680e-03
      1.72737520e-02 6.00826135e-03 6.00826135e-03 1.20165227e-02
      1.57716852e-02 6.75929384e-03 3.00413067e-03 1.27675552e-02
      1.38941044e-02 6.38377760e-03 6.75929384e-03 9.76342428e-03
      1.68982353e-02 8.63687601e-03 2.62861443e-03 2.62861443e-03
      3.00413067e-03 5.63274510e-03 3.00413067e-03 5.25722886e-03
      2.25309795e-03 2.25309795e-03 4.88171214e-03 7.88584258e-03
      1.01389410e-02 2.62861443e-03 1.87758170e-03 8.26135930e-03
      3.37964692e-03 8.26135930e-03 6.00826135e-03 6.75929384e-03</_>
    <_>
      2.73396429e-02 4.20609862e-03 2.10304931e-03 3.47003154e-02
      4.20609862e-03 1.57728698e-02 3.15457419e-03 4.20609862e-03
      1.36698214e-02 1.57728698e-02 3.15457419e-03 7.36067304e-03
      1.78759210e-02 2.41850689e-02 4.20609862e-03 1.26182958e-01
      3.15457419e-03 3.36487889e-02 4.20609862e-03 9.46372282e-03
      2.31335443e-02 1.05152475e-02 1.15667721e-02 4.20609862e-03
      8.41219723e-03 9.46372282e-03 2.10304931e-03 1.05152465e-03
      2.62881182e-02 9.46372282e-03 1.26182968e-02 8.41219723e-03
      5.25762374e-03 3.15457419e-03 4.20609862e-03 9.46372282e-03
      7.36067304e-03 1.05152465e-03 1.05152465e-03 5.25762374e-03
      5.25762374e-03 3.15457419e-03 1.68243945e-02 5.25762374e-03
      5.25762374e-03 4.52155620e-02 3.15457419e-03 7.04521537e-02
      9.46372282e-03 1.05152475e-02 3.15457419e-03 7.36067304e-03
      8.41219723e-03 2.10304931e-03 6.30914839e-03 7.36067304e-03
      2.10304931e-03 9.46372282e-03 4.20609862e-03 6.30914839e-03
      8.41219723e-03 6.30914839e-03 3.15457419e-03 1.05152475e-02
      6.30914839e-03 5.25762374e-03 6.30914839e-03 8.41219723e-03
      7.36067304e-03 4.20609862e-03 3.15457419e-03 7.36067304e-03
      2.10304931e-03 7.36067304e-03 2.10304931e-03 1.05152475e-02
      6.30914839e-03 7.36067304e-03 6.30914839e-03 1.15667721e-02
      1.57728698e-02 5.25762374e-03 7.36067304e-03 4.20609862e-03
      4.20609862e-03 8.41219723e-03 3.15457419e-03 3.15457419e-03
      6.30914839e-03 1.05152465e-03 3.15457419e-03 5.25762374e-03
      6.30914839e-03 2.10304931e-03 9.46372282e-03 3.15457419e-03
      1.05152465e-03 5.25762374e-03 7.36067304e-03 1.36698214e-02</_>
    <_>
      7.62195140e-03 0. 4.57317056e-03 2.89634150e-02 3.04878037e-03
      4.57317056e-03 0. 4.57317056e-03 4.57317056e-03 4.57317056e-03
      3.04878037e-03 4.57317056e-03 1.06707318e-02 7.62195140e-03
      4.57317056e-03 1.84451222e-01 4.57317056e-03 6.09756075e-03
      3.04878037e-03 1.21951215e-02 2.13414636e-02 4.57317056e-03 0.
      3.04878037e-03 7.62195140e-03 3.04878037e-03 0. 1.06707318e-02
      1.37195121e-02 3.04878037e-03 7.62195140e-03 7.62195140e-03
      1.06707318e-02 1.52439019e-03 6.09756075e-03 0. 4.57317056e-03
      3.04878037e-03 3.04878037e-03 3.04878037e-03 7.62195140e-03
      4.57317056e-03 1.52439019e-03 6.09756075e-03 0. 2.28658542e-02
      4.57317056e-03 2.28658542e-01 1.52439019e-03 1.21951215e-02
      6.09756075e-03 0. 1.37195121e-02 1.52439019e-03 7.62195140e-03
      4.57317056e-03 3.04878037e-03 3.04878037e-03 6.09756075e-03
      4.57317056e-03 9.14634112e-03 1.52439019e-03 3.04878037e-03
      6.09756075e-03 1.52439019e-03 1.52439019e-03 2.28658542e-02
      3.04878037e-03 9.14634112e-03 3.04878037e-03 1.52439019e-03
      4.57317056e-03 1.06707318e-02 3.04878037e-03 3.04878037e-03
      3.04878037e-03 1.98170729e-02 9.14634112e-03 1.98170729e-02
      4.57317056e-03 1.37195121e-02 1.37195121e-02 9.14634112e-03 0.
      1.52439019e-03 1.52439019e-03 4.57317056e-03 1.06707318e-02
      4.57317056e-03 4.57317056e-03 1.52439019e-03 7.62195140e-03
      6.09756075e-03 1.52439019e-03 3.04878037e-03 1.21951215e-02 0.
      3.04878037e-03 1.52439019e-03 1.52439019e-03</_>
    <_>
      1.09841824e-02 7.02987704e-03 3.07557127e-03 1.66959576e-02
      4.39367304e-03 1.05448151e-02 7.90861156e-03 6.59050979e-03
      1.36203868e-02 6.59050979e-03 2.63620378e-03 3.95430578e-03
      9.66608059e-03 9.66608059e-03 3.07557127e-03 3.86643223e-02
      5.27240755e-03 3.07557117e-02 7.90861156e-03 1.53778559e-02
      3.20738144e-02 1.31810196e-02 8.78734607e-03 1.31810196e-02
      1.23022851e-02 1.27416523e-02 4.83304029e-03 5.71177527e-03
      1.44991213e-02 2.63620378e-03 1.01054478e-02 1.01054478e-02
      1.93321612e-02 8.34797882e-03 7.90861156e-03 8.78734607e-03
      1.14235505e-02 1.40597541e-02 6.15114253e-03 9.66608059e-03
      1.05448151e-02 1.09841824e-02 3.07557127e-03 7.46924430e-03
      6.59050979e-03 1.66959576e-02 6.15114253e-03 4.30579968e-02
      1.01054478e-02 1.40597541e-02 1.31810189e-03 7.46924430e-03
      6.59050979e-03 6.59050979e-03 1.14235505e-02 8.78734607e-03
      6.15114253e-03 3.07557127e-03 5.71177527e-03 6.15114253e-03
      7.02987704e-03 4.39367304e-03 3.51493852e-03 7.46924430e-03
      5.27240755e-03 6.15114253e-03 2.46045701e-02 2.85588745e-02
      1.97715294e-02 4.39367304e-03 4.83304029e-03 1.18629178e-02
      1.14235505e-02 1.23022851e-02 6.15114253e-03 7.46924430e-03
      1.23022851e-02 4.39367304e-03 7.02987704e-03 1.23022851e-02
      2.24077329e-02 5.27240755e-03 4.39367304e-03 9.66608059e-03
      1.27416523e-02 1.31810196e-02 6.59050979e-03 4.39367304e-03
      7.46924430e-03 1.75746926e-03 4.83304029e-03 1.62565913e-02
      1.01054478e-02 4.39367304e-03 6.15114253e-03 8.78734607e-03
      1.09841824e-02 6.59050979e-03 2.63620378e-03 7.90861156e-03</_>
    <_>
      5.49752591e-03 9.62067116e-03 9.75810923e-03 2.18526665e-02
      2.61132489e-03 1.26443105e-02 6.73446944e-03 1.18196812e-02
      7.69653637e-03 7.55909830e-03 4.12314478e-03 7.83397444e-03
      6.45959331e-03 1.44310063e-02 9.34579410e-03 9.57943946e-02
      3.29851569e-03 2.14403514e-02 6.59703137e-03 1.01704234e-02
      7.69653637e-03 4.26058285e-03 5.22264978e-03 8.10885057e-03
      1.00329854e-02 8.79604183e-03 7.00934557e-03 1.12699289e-02
      5.90984058e-03 8.52116570e-03 1.45684443e-02 1.31940627e-02
      8.65860377e-03 5.90984058e-03 7.69653637e-03 3.98570625e-03
      8.65860377e-03 6.45959331e-03 4.67289705e-03 6.04727864e-03
      6.87190751e-03 1.30566247e-02 1.26443105e-02 1.04452996e-02
      7.42166024e-03 2.25398578e-02 2.74876296e-03 6.81693256e-02
      5.36008785e-03 1.30566247e-02 5.63496444e-03 3.98570625e-03
      1.08576138e-02 5.22264978e-03 1.38812531e-02 4.67289705e-03
      3.57339205e-03 1.19571192e-02 1.14073670e-02 6.45959331e-03
      4.53545898e-03 4.53545898e-03 6.87190751e-03 9.20835603e-03
      8.38372763e-03 1.12699289e-02 1.58053879e-02 5.63496444e-03
      1.36063769e-02 7.00934557e-03 8.65860377e-03 1.78669603e-03
      1.26443105e-02 7.97141250e-03 1.01704234e-02 9.34579410e-03
      1.53930727e-02 1.31940627e-02 1.19571192e-02 7.55909830e-03
      1.75920837e-02 9.07091796e-03 5.77240251e-03 6.32215524e-03
      3.43595375e-03 4.12314478e-03 6.04727864e-03 1.07201757e-02
      6.73446944e-03 6.45959331e-03 8.52116570e-03 4.81033558e-03
      1.08576138e-02 5.36008785e-03 4.26058285e-03 7.14678410e-03
      4.39802092e-03 1.29191866e-02 4.26058285e-03 3.71083012e-03</_>
    <_>
      4.96962992e-03 8.83489754e-03 1.02153504e-02 1.76697951e-02
      9.93925985e-03 9.38707869e-03 7.17835454e-03 1.15958033e-02
      7.17835454e-03 1.29762562e-02 7.17835454e-03 7.45444512e-03
      8.55880696e-03 9.38707869e-03 1.15958033e-02 1.35284374e-02
      9.11098812e-03 8.28271639e-03 8.28271639e-03 6.62617339e-03
      6.07399223e-03 5.24572050e-03 9.66316927e-03 6.35008281e-03
      1.43567091e-02 9.93925985e-03 9.11098812e-03 1.35284374e-02
      6.62617339e-03 8.28271639e-03 1.38045279e-02 1.82219762e-02
      5.24572050e-03 8.83489754e-03 1.21479845e-02 6.62617339e-03
      3.58917727e-03 8.00662581e-03 6.90226397e-03 1.04914410e-02
      8.28271639e-03 8.00662581e-03 1.18718939e-02 1.32523468e-02
      9.11098812e-03 1.27001656e-02 5.24572050e-03 5.24572050e-03
      1.04914410e-02 7.73053570e-03 1.32523468e-02 3.58917727e-03
      9.11098812e-03 7.73053570e-03 1.24240750e-02 6.35008281e-03
      7.45444512e-03 1.43567091e-02 9.38707869e-03 1.90502480e-02
      3.03699612e-03 1.54610714e-02 9.93925985e-03 1.21479845e-02
      9.93925985e-03 6.07399223e-03 3.03699612e-03 8.55880696e-03
      1.24240750e-02 1.49088902e-02 1.15958033e-02 5.79790166e-03
      1.90502480e-02 1.35284374e-02 8.28271639e-03 1.43567091e-02
      1.68415233e-02 1.98785197e-02 1.18718939e-02 1.29762562e-02
      5.52181108e-03 1.84980668e-02 1.10436222e-02 8.83489754e-03
      1.04914410e-02 9.66316927e-03 1.13197127e-02 1.54610714e-02
      5.79790166e-03 5.52181108e-03 1.32523468e-02 7.45444512e-03
      1.10436222e-02 1.02153504e-02 9.38707869e-03 1.21479845e-02
      9.38707869e-03 1.18718939e-02 8.00662581e-03 7.73053570e-03</_>
    <_>
      1.79193635e-02 2.98656058e-03 6.96864119e-03 4.92782481e-02
      5.97312115e-03 2.83723250e-02 4.47984086e-03 1.04529615e-02
      4.97760065e-03 1.19462423e-02 6.96864119e-03 1.24440016e-02
      1.54305622e-02 1.49328019e-02 5.47536090e-03 4.28073667e-02
      4.97760065e-03 1.19462423e-02 3.48432059e-03 7.96416122e-03
      6.47088094e-03 4.47984086e-03 5.97312115e-03 1.24440016e-02
      9.95520130e-03 7.46640097e-03 1.49328029e-03 8.95968173e-03
      1.19462423e-02 2.38924846e-02 8.95968173e-03 1.39372824e-02
      8.46192148e-03 1.99104031e-03 3.98208061e-03 9.45744198e-03
      4.47984086e-03 9.95520130e-03 5.97312115e-03 8.95968173e-03
      3.98208061e-03 2.48880032e-03 1.84171237e-02 4.47984086e-03
      8.46192148e-03 3.23544070e-02 3.98208061e-03 3.98208052e-02
      2.48880032e-03 6.47088094e-03 6.96864119e-03 7.46640097e-03
      5.47536090e-03 1.09507218e-02 1.79193635e-02 1.99104031e-03
      6.96864119e-03 2.33947244e-02 1.74216032e-02 5.47536090e-03
      3.48432059e-03 6.96864119e-03 3.98208061e-03 6.96864119e-03
      1.99104031e-03 2.48880032e-03 1.04529615e-02 8.95968173e-03
      1.34395221e-02 3.98208061e-03 6.96864119e-03 2.48880032e-03
      1.74216032e-02 1.09507218e-02 2.98656058e-03 1.29417619e-02
      1.49328019e-02 2.68790442e-02 3.98208061e-03 4.97760065e-03
      1.14484821e-02 9.45744198e-03 8.46192148e-03 5.97312115e-03
      1.19462423e-02 8.46192148e-03 7.46640097e-03 8.46192148e-03
      8.95968173e-03 8.46192148e-03 4.97760065e-03 1.44350426e-02
      6.96864119e-03 4.97760065e-03 5.97312115e-03 1.69238430e-02
      6.96864119e-03 2.98656058e-03 4.97760065e-03 8.46192148e-03</_>
    <_>
      9.18964110e-03 5.84795326e-03 5.84795326e-03 3.00751887e-02
      2.50626565e-03 1.67084374e-02 8.35421868e-03 1.16959065e-02
      1.33667504e-02 9.18964110e-03 6.68337522e-03 1.08604841e-02
      2.42272355e-02 1.42021719e-02 1.42021719e-02 1.58730168e-02
      3.34168761e-03 1.08604841e-02 6.68337522e-03 2.50626565e-03
      5.01253130e-03 5.01253130e-03 1.67084374e-02 8.35421868e-03
      1.00250626e-02 1.33667504e-02 3.34168761e-03 9.18964110e-03
      7.51879718e-03 1.92147028e-02 6.68337522e-03 1.25313280e-02
      5.01253130e-03 7.51879718e-03 5.84795326e-03 1.50375944e-02
      1.08604841e-02 6.68337522e-03 5.84795326e-03 7.51879718e-03
