<?xml version="1.0"?>
<opencv_storage>
<my_svm type_id="opencv-ml-svm">
  <svm_type>C_SVC</svm_type>
  <kernel><type>RBF</type>
    <gamma>5.0625000000000009e-01</gamma></kernel>
  <C>3.1250000000000000e+02</C>
  <term_criteria><epsilon>2.2204460492503131e-16</epsilon>
    <iterations>100000</iterations></term_criteria>
  <var_all>100</var_all>
  <var_count>100</var_count>
  <class_count>4</class_count>
  <class_labels type_id="opencv-matrix">
    <rows>1</rows>
    <cols>4</cols>
    <dt>i</dt>
    <data>
      1 2 3 4</data></class_labels>
  <sv_total>54</sv_total>
  <support_vectors>
    <_>
      2.67062318e-02 0. 0. 8.90207756e-03 2.96735903e-03 0.
      2.07715128e-02 2.96735903e-03 1.18694361e-02 8.01186934e-02 0.
      2.96735903e-03 1.18694361e-02 8.90207756e-03 0. 9.49554890e-02 0.
      1.78041551e-02 0. 5.93471806e-03 0. 0. 2.96735903e-03
      2.96735903e-03 2.96735903e-03 0. 8.90207756e-03 2.96735903e-03 0.
      1.18694361e-02 3.85756679e-02 2.96735903e-03 1.78041551e-02 0. 0.
      2.67062318e-02 0. 5.93471806e-03 5.93471806e-03 1.78041551e-02
      4.45103869e-02 0. 0. 2.37388723e-02 2.96735903e-03 0. 0.
      2.96735903e-03 5.93471806e-03 5.93471806e-03 1.48367956e-02
      2.96735903e-03 0. 0. 2.96735903e-03 0. 5.93471806e-03
      2.96735903e-03 2.96735903e-03 1.30563796e-01 5.93471806e-03
      1.18694361e-02 1.18694361e-02 0. 2.96735903e-03 3.85756679e-02
      2.96735903e-03 0. 5.93471806e-03 0. 8.90207756e-03 0.
      8.90207756e-03 2.96735903e-03 0. 1.18694361e-02 2.07715128e-02 0.
      2.96735903e-03 5.93471806e-03 2.96735903e-03 0. 6.52818978e-02 0.
      5.93471806e-03 2.96735903e-03 3.26409489e-02 0. 5.93471806e-03
      5.93471806e-03 2.96735903e-03 2.96735903e-03 0. 2.96735903e-03
      5.93471806e-03 2.96735903e-03 2.96735903e-03 5.93471806e-03
      1.48367956e-02 0.</_>
    <_>
      8.77192989e-03 0. 1.16959065e-02 0. 8.77192989e-03 0.
      1.16959065e-02 5.84795326e-03 2.04678364e-02 4.38596494e-02 0. 0.
      8.77192989e-03 1.46198831e-02 0. 4.97076027e-02 0. 1.75438598e-02
      0. 8.77192989e-03 8.77192989e-03 5.84795326e-03 2.92397663e-03
      2.92397663e-03 0. 5.84795326e-03 2.92397663e-03 5.84795326e-03
      8.77192989e-03 8.77192989e-03 1.75438598e-02 2.92397663e-03
      8.77192989e-03 5.84795326e-03 0. 5.26315793e-02 0. 8.77192989e-03
      8.77192989e-03 8.77192989e-03 3.21637429e-02 2.92397663e-03
      2.92397663e-03 2.92397663e-03 5.84795326e-03 0. 2.33918130e-02 0.
      1.16959065e-02 3.21637429e-02 8.77192989e-03 0. 5.84795326e-03
      2.92397663e-03 0. 1.16959065e-02 2.92397663e-03 8.77192989e-03
      8.77192989e-03 1.40350878e-01 8.77192989e-03 0. 2.04678364e-02
      1.46198831e-02 0. 2.04678364e-02 8.77192989e-03 5.84795326e-03
      8.77192989e-03 0. 8.77192989e-03 5.84795326e-03 2.04678364e-02 0.
      5.84795326e-03 0. 1.75438598e-02 0. 0. 1.16959065e-02
      2.92397663e-03 5.84795326e-03 3.80116962e-02 5.84795326e-03 0.
      2.92397663e-03 2.63157897e-02 2.92397663e-03 1.16959065e-02 0.
      2.92397663e-03 2.92397663e-03 2.92397663e-03 5.84795326e-03
      2.92397663e-03 1.75438598e-02 2.92397663e-03 8.77192989e-03
      1.46198831e-02 2.92397663e-03</_>
    <_>
      2.07253881e-02 5.18134702e-03 1.20898103e-02 1.20898103e-02
      6.90846285e-03 3.45423142e-03 5.18134702e-03 6.90846285e-03
      6.90846285e-03 2.93609668e-02 6.90846285e-03 6.90846285e-03
      6.90846285e-03 3.28151993e-02 5.18134702e-03 3.62694301e-02
      5.18134702e-03 8.63557868e-03 5.18134702e-03 5.18134702e-03
      8.63557868e-03 6.90846285e-03 6.90846285e-03 6.90846285e-03
      6.90846285e-03 1.38169257e-02 3.45423142e-03 8.63557868e-03
      1.55440411e-02 6.90846285e-03 4.14507762e-02 3.45423142e-03
      5.18134702e-03 1.03626940e-02 5.18134702e-03 5.18134702e-03
      1.03626940e-02 6.90846285e-03 1.89982727e-02 1.55440411e-02
      6.90846285e-03 0. 1.72711571e-03 3.45423142e-03 2.41796207e-02
      1.72711571e-03 1.03626940e-02 3.45423142e-03 5.18134702e-03
      1.55440411e-02 6.90846285e-03 5.18134702e-03 5.18134702e-03
      3.45423142e-03 1.72711571e-03 6.90846285e-03 8.63557868e-03
      3.45423142e-03 0. 5.00863567e-02 5.18134702e-03 1.38169257e-02
      3.28151993e-02 6.90846285e-03 1.72711571e-03 2.41796207e-02
      1.55440411e-02 6.90846285e-03 8.63557868e-03 0. 3.45423142e-03
      1.38169257e-02 8.63557868e-03 1.89982727e-02 5.18134702e-03
      6.90846285e-03 8.63557868e-03 1.03626940e-02 1.03626940e-02
      6.90846285e-03 1.03626940e-02 1.03626940e-02 2.24525034e-02
      1.20898103e-02 5.18134702e-03 6.90846285e-03 4.66321260e-02
      1.72711571e-03 5.18134702e-03 3.45423142e-03 6.90846285e-03 0.
      1.89982727e-02 5.18134702e-03 1.72711571e-03 1.20898103e-02
      1.03626940e-02 1.72711571e-03 5.18134702e-03 5.18134702e-03</_>
    <_>
      1.22850118e-02 0. 0. 0. 0. 2.21130215e-02 2.21130215e-02
      7.37100746e-03 2.45700241e-03 7.12530687e-02 4.91400482e-03
      7.37100746e-03 1.22850118e-02 2.94840299e-02 0. 5.40540554e-02
      2.45700241e-03 2.45700241e-03 2.45700241e-03 0. 4.91400482e-03 0.
      4.91400482e-03 1.22850118e-02 0. 4.91400482e-03 2.45700241e-03
      4.91400482e-03 2.45700236e-02 2.45700241e-03 1.22850118e-02 0.
      7.37100746e-03 0. 7.37100746e-03 4.91400482e-03 2.45700241e-03
      7.37100746e-03 9.82800964e-03 3.43980342e-02 1.71990171e-02
      4.91400482e-03 0. 1.22850118e-02 9.82800964e-03 1.22850118e-02 0.
      1.71990171e-02 2.45700241e-03 9.82800964e-03 4.91400482e-03
      7.37100746e-03 2.45700241e-03 2.45700241e-03 0. 4.91400482e-03 0.
      0. 2.94840299e-02 5.40540554e-02 2.21130215e-02 2.45700241e-03
      2.45700241e-03 9.82800964e-03 2.45700241e-03 3.19410302e-02
      2.45700241e-03 9.82800964e-03 0. 0. 0. 3.19410302e-02
      1.22850118e-02 0. 2.45700241e-03 7.37100746e-03 4.17690426e-02 0.
      4.91400482e-03 0. 0. 1.96560193e-02 2.70270277e-02 0.
      3.68550383e-02 0. 5.40540554e-02 2.45700241e-03 2.45700236e-02
      1.47420149e-02 0. 0. 2.45700241e-03 2.45700241e-03 2.45700241e-03
      9.82800964e-03 1.71990171e-02 2.45700241e-03 2.45700241e-03
      4.91400482e-03</_>
    <_>
      1.79445352e-02 0. 4.89396416e-03 8.15660693e-03 3.26264277e-03
      4.07830328e-02 2.28384994e-02 9.78792831e-03 1.63132139e-03
      4.89396416e-02 1.63132139e-03 1.14192497e-02 1.63132139e-03
      1.63132139e-02 1.63132139e-03 2.44698208e-02 3.26264277e-03
      3.26264277e-03 3.26264277e-03 1.63132139e-03 4.89396416e-03
      1.14192497e-02 0. 4.89396416e-03 4.89396416e-03 3.26264277e-03
      4.89396416e-03 4.89396416e-03 2.61011422e-02 3.26264277e-03
      2.44698208e-02 4.89396416e-03 3.26264277e-03 0. 0. 8.15660693e-03
      6.52528554e-03 3.26264277e-03 3.26264277e-03 7.01468214e-02
      1.46818925e-02 3.26264277e-03 4.89396416e-03 3.26264277e-03
      8.15660693e-03 8.15660693e-03 3.26264277e-03 2.12071780e-02
      4.89396416e-03 1.46818925e-02 1.63132139e-03 6.52528554e-03 0.
      1.63132139e-03 0. 3.26264277e-03 1.63132139e-03 0. 1.95758566e-02
      3.58890705e-02 2.77324636e-02 1.63132139e-03 1.46818925e-02
      8.15660693e-03 0. 2.12071780e-02 9.78792831e-03 4.89396416e-03
      6.52528554e-03 0. 4.89396416e-03 4.89396416e-03 8.15660693e-03
      1.63132139e-03 4.89396416e-03 1.63132139e-03 4.07830328e-02 0.
      6.52528554e-03 3.26264277e-03 0. 2.12071780e-02 4.24143560e-02
      1.63132139e-03 3.26264277e-02 1.30505711e-02 3.09951063e-02
      3.26264277e-03 1.30505711e-02 4.73083183e-02 0. 1.63132139e-03
      1.63132139e-03 1.63132139e-03 1.63132139e-03 1.95758566e-02 0.
      4.89396416e-03 1.46818925e-02 1.63132139e-03</_>
    <_>
      1.00822495e-02 1.00822495e-02 1.11435391e-02 8.75563826e-03
      1.19395060e-02 1.48580521e-02 1.35314409e-02 9.55160521e-03
      8.75563826e-03 2.99814269e-02 6.63305912e-03 1.03475722e-02
      9.28628258e-03 1.27354739e-02 6.89838175e-03 5.51870540e-02
      6.36773696e-03 1.32661182e-02 6.89838175e-03 1.67153087e-02
      1.16741844e-02 7.42902607e-03 4.24515782e-03 1.03475722e-02
      6.89838175e-03 5.57176955e-03 3.97983566e-03 8.49031564e-03
      9.02096089e-03 1.40620852e-02 2.91854609e-03 7.16370391e-03
      1.80419218e-02 8.22499301e-03 7.69434869e-03 1.24701513e-02
      1.14088617e-02 5.57176955e-03 5.30644739e-03 5.57176955e-03
      9.55160521e-03 1.43274078e-02 7.16370391e-03 5.57176955e-03
      7.42902607e-03 7.16370391e-03 1.40620852e-02 7.69434869e-03
      1.69806313e-02 9.02096089e-03 3.97983566e-03 5.83709218e-03
      6.63305912e-03 5.83709218e-03 7.16370391e-03 9.02096089e-03
      7.42902607e-03 6.10241434e-03 6.36773696e-03 3.36959399e-02
      1.00822495e-02 9.55160521e-03 1.06128948e-02 7.42902607e-03
      6.10241434e-03 6.10241434e-03 1.56540200e-02 8.49031564e-03
      1.11435391e-02 8.22499301e-03 6.89838175e-03 7.95967132e-03
      1.19395060e-02 5.83709218e-03 1.19395060e-02 9.02096089e-03
      7.69434869e-03 6.36773696e-03 9.02096089e-03 1.22048287e-02
      8.22499301e-03 6.36773696e-03 1.24701513e-02 7.69434869e-03
      1.19395060e-02 1.24701513e-02 1.80419218e-02 8.75563826e-03
      1.06128948e-02 7.69434869e-03 8.75563826e-03 1.35314409e-02
      7.95967132e-03 5.83709218e-03 6.10241434e-03 5.57176955e-03
      4.77580260e-03 8.22499301e-03 1.37967635e-02 8.75563826e-03</_>
    <_>
      6.76954864e-03 1.51454303e-02 8.20377469e-03 9.58063267e-03
      1.31948823e-02 1.25064543e-02 9.86747723e-03 1.00969533e-02
      8.77746567e-03 3.49377543e-02 9.23641771e-03 5.90901263e-03
      9.63800121e-03 7.51534617e-03 1.09574897e-02 5.32384850e-02
      1.43422633e-02 9.35115572e-03 1.05559062e-02 9.86747723e-03
      8.03166814e-03 9.35115572e-03 1.23343468e-02 7.85956066e-03
      9.17904917e-03 9.86747723e-03 9.86747723e-03 7.91692920e-03
      8.03166814e-03 1.15885492e-02 3.84372659e-03 6.94165565e-03
      1.19901327e-02 8.94957222e-03 6.71217963e-03 1.02116922e-02
      9.92484670e-03 1.03264302e-02 9.23641771e-03 7.11376267e-03
      5.39269112e-03 1.54322758e-02 1.09001203e-02 5.73690562e-03
      8.66272766e-03 8.31851270e-03 1.17606567e-02 1.13017038e-02
      1.04411682e-02 5.56479814e-03 5.16321510e-03 1.01543227e-02
      9.69537068e-03 7.40060816e-03 9.23641771e-03 5.85164363e-03
      7.40060816e-03 6.42533414e-03 6.08111965e-03 2.29476225e-02
      9.40852519e-03 7.63008418e-03 5.39269112e-03 1.11295963e-02
      1.01543227e-02 4.41741711e-03 1.28506683e-02 8.26114416e-03
      1.43422633e-02 1.15311798e-02 8.31851270e-03 5.96638164e-03
      8.94957222e-03 8.43325071e-03 1.15885492e-02 7.80219166e-03
      9.40852519e-03 9.69537068e-03 6.76954864e-03 8.31851270e-03
      1.00395847e-02 7.85956066e-03 1.43422633e-02 5.22058411e-03
      8.08903668e-03 1.11869657e-02 1.22769782e-02 9.69537068e-03
      1.03837987e-02 8.08903668e-03 9.92484670e-03 1.22769782e-02
      9.69537068e-03 7.34323915e-03 1.07853822e-02 6.19585812e-03
      9.40852519e-03 8.31851270e-03 8.43325071e-03 7.22850114e-03</_>
    <_>
      1.18568232e-02 1.02908276e-02 7.15883682e-03 8.72483198e-03
      9.39597283e-03 7.82997720e-03 6.93512289e-03 7.82997720e-03
      1.11856824e-02 2.41610743e-02 9.39597283e-03 1.09619685e-02
      7.15883682e-03 1.54362414e-02 1.11856824e-02 4.45190147e-02
      8.94854590e-03 1.20805372e-02 8.50111898e-03 1.31991049e-02
      8.05369113e-03 1.16331093e-02 8.94854590e-03 1.05145415e-02
      7.60626420e-03 1.09619685e-02 1.00671137e-02 8.50111898e-03
      1.02908276e-02 8.50111898e-03 1.09619685e-02 6.04026858e-03
      1.43176736e-02 8.94854590e-03 5.81655465e-03 1.16331093e-02
      9.39597283e-03 7.60626420e-03 6.48769597e-03 9.84340068e-03
      8.05369113e-03 1.11856824e-02 1.27516780e-02 4.02684556e-03
      7.38255028e-03 5.81655465e-03 1.94630865e-02 6.71140943e-03
      1.00671137e-02 8.50111898e-03 1.20805372e-02 8.27740505e-03
      7.15883682e-03 7.82997720e-03 7.15883682e-03 9.61968675e-03
      9.17225983e-03 8.50111898e-03 8.27740505e-03 2.23713648e-02
      1.20805372e-02 1.29753919e-02 5.81655465e-03 8.50111898e-03
      1.07382555e-02 7.60626420e-03 1.70022380e-02 6.04026858e-03
      1.20805372e-02 8.50111898e-03 7.15883682e-03 6.04026858e-03
      1.20805372e-02 6.71140943e-03 1.49888145e-02 7.38255028e-03
      9.61968675e-03 7.60626420e-03 8.72483198e-03 1.27516780e-02
      8.50111898e-03 7.82997720e-03 1.18568232e-02 7.82997720e-03
      7.15883682e-03 8.50111898e-03 1.14093963e-02 6.04026858e-03
      6.48769597e-03 9.39597283e-03 6.48769597e-03 1.43176736e-02
      9.61968675e-03 1.31991049e-02 8.72483198e-03 6.71140943e-03
      5.81655465e-03 6.04026858e-03 1.23042502e-02 1.00671137e-02</_>
    <_>
      1.35331079e-02 1.37747703e-02 9.66650527e-03 7.49154203e-03
      1.23247942e-02 1.90913491e-02 9.90816858e-03 5.79990353e-03
      1.69163849e-02 3.28661203e-02 5.07491548e-03 1.66747216e-02
      6.52489113e-03 9.90816858e-03 1.25664575e-02 1.32914456e-02
      7.73320440e-03 2.12663114e-02 4.10826504e-03 1.37747703e-02
      7.73320440e-03 6.76655397e-03 3.86660220e-03 7.00821634e-03
      7.97486678e-03 7.00821634e-03 6.52489113e-03 6.28322875e-03
      1.06331557e-02 1.98163372e-02 7.00821634e-03 9.42484289e-03
      1.73997097e-02 9.66650527e-03 7.24987919e-03 1.98163372e-02
      8.94151721e-03 6.76655397e-03 6.76655397e-03 8.45819246e-03
      1.03914933e-02 1.61913969e-02 5.55824069e-03 1.08748190e-02
      4.34992742e-03 6.76655397e-03 2.07829867e-02 5.07491548e-03
      1.78830344e-02 5.79990353e-03 4.59159026e-03 6.76655397e-03
      4.83325263e-03 5.31657785e-03 5.55824069e-03 5.31657785e-03
      5.31657785e-03 4.10826504e-03 6.28322875e-03 4.13243100e-02
      1.15998071e-02 6.28322875e-03 5.79990353e-03 7.49154203e-03
      8.21653008e-03 5.79990353e-03 1.81246977e-02 7.49154203e-03
      9.66650527e-03 1.01498310e-02 5.07491548e-03 4.34992742e-03
      1.81246977e-02 2.65828893e-03 1.73997097e-02 4.59159026e-03
      9.66650527e-03 7.97486678e-03 5.55824069e-03 1.08748190e-02
      4.83325263e-03 7.97486678e-03 7.49154203e-03 5.55824069e-03
      8.21653008e-03 1.11164814e-02 2.65828911e-02 7.00821634e-03
      1.30497823e-02 7.73320440e-03 5.07491548e-03 1.54664088e-02
      6.04156591e-03 5.55824069e-03 9.42484289e-03 7.24987919e-03
      6.76655397e-03 8.45819246e-03 1.83663610e-02 1.06331557e-02</_>
    <_>
      1.13097411e-02 6.56694639e-03 9.48558934e-03 1.05800806e-02
      8.75592884e-03 6.93177665e-03 7.29660690e-03 8.75592884e-03
      1.24042323e-02 8.71944577e-02 5.47245517e-03 1.24042323e-02
      9.48558934e-03 1.24042323e-02 6.56694639e-03 1.78766865e-02
      6.93177665e-03 1.09449103e-02 7.29660690e-03 8.75592884e-03
      8.02626740e-03 8.39109812e-03 4.74279467e-03 8.02626740e-03
      8.02626740e-03 1.09449103e-02 6.93177665e-03 9.48558934e-03
      7.66143762e-03 6.20211614e-03 4.37796442e-03 9.85041913e-03
      1.09449103e-02 9.12075862e-03 9.48558934e-03 1.31338928e-02
      6.93177665e-03 6.93177665e-03 1.02152498e-02 1.49580445e-02
      1.34987235e-02 1.13097411e-02 9.48558934e-03 1.42283840e-02
      1.20394016e-02 5.83728589e-03 1.67821962e-02 9.12075862e-03
      1.49580445e-02 6.56694639e-03 4.01313370e-03 5.83728589e-03
      7.29660690e-03 9.85041913e-03 7.66143762e-03 1.02152498e-02
      6.56694639e-03 8.39109812e-03 7.66143762e-03 2.37139724e-02
      8.39109812e-03 1.49580445e-02 5.47245517e-03 6.20211614e-03
      6.20211614e-03 6.56694639e-03 9.85041913e-03 6.20211614e-03
      1.16745718e-02 8.75592884e-03 7.29660690e-03 5.83728589e-03
      1.67821962e-02 5.10762492e-03 5.10762492e-03 4.37796442e-03
      1.56877059e-02 9.48558934e-03 1.05800806e-02 7.66143762e-03
      7.66143762e-03 1.02152498e-02 7.66143762e-03 4.74279467e-03
      7.29660690e-03 8.39109812e-03 1.45932138e-02 8.75592884e-03
      6.56694639e-03 1.13097411e-02 1.34987235e-02 1.02152498e-02
      8.75592884e-03 7.29660690e-03 8.02626740e-03 9.85041913e-03
      6.56694639e-03 6.93177665e-03 1.05800806e-02 1.20394016e-02</_>
    <_>
      8.01489595e-03 1.53821241e-02 6.23380812e-03 1.03626940e-02
      9.14831646e-03 1.05246110e-02 7.28626922e-03 9.71502624e-03
      1.05246110e-02 5.29468916e-02 8.74352362e-03 6.55764248e-03
      1.04436530e-02 7.77202053e-03 1.15770726e-02 2.50161923e-02
      1.02007771e-02 9.87694319e-03 1.22247413e-02 1.44915804e-02
      6.88147685e-03 1.14151556e-02 9.39119142e-03 1.02817360e-02
      9.14831646e-03 8.01489595e-03 1.01198191e-02 8.90544057e-03
      1.00388601e-02 1.00388601e-02 3.96696897e-03 7.93393794e-03
      9.87694319e-03 8.66256468e-03 6.55764248e-03 1.19818654e-02
      9.47215036e-03 8.74352362e-03 9.22927447e-03 5.34326443e-03
      6.47668401e-03 1.20628234e-02 1.02817360e-02 7.93393794e-03
      9.55310836e-03 1.03626940e-02 1.05246110e-02 1.10103628e-02
      1.11722797e-02 4.53367876e-03 7.04339379e-03 8.98639858e-03
      9.87694319e-03 8.98639858e-03 9.87694319e-03 9.95790120e-03
      7.69106206e-03 9.87694319e-03 1.06055699e-02 1.62726678e-02
      7.04339379e-03 8.98639858e-03 5.82901575e-03 9.39119142e-03
      1.07674869e-02 4.53367876e-03 1.07674869e-02 9.39119142e-03
      1.39248706e-02 1.09294038e-02 9.22927447e-03 7.69106206e-03
      1.48154143e-02 9.47215036e-03 1.14961136e-02 8.33873078e-03
      9.06735752e-03 1.48154143e-02 7.85297900e-03 9.55310836e-03
      9.95790120e-03 7.69106206e-03 5.34326443e-03 5.58613986e-03
      8.09585489e-03 9.71502624e-03 1.14151556e-02 1.02007771e-02
      1.12532387e-02 1.09294038e-02 8.66256468e-03 1.12532387e-02
      1.19818654e-02 7.44818663e-03 1.27104921e-02 5.66709833e-03
      8.58160667e-03 9.31023341e-03 6.80051791e-03 7.36722816e-03</_>
    <_>
      1.46159073e-02 1.01971449e-02 1.05370497e-02 9.51733533e-03
      8.15771613e-03 1.12168593e-02 6.45819167e-03 9.17743053e-03
      1.12168593e-02 2.51529571e-02 2.37933383e-03 1.12168593e-02
      1.12168593e-02 2.24337187e-02 6.79809647e-03 1.12168593e-02
      9.17743053e-03 1.39360977e-02 9.51733533e-03 1.05370497e-02
      9.51733533e-03 9.85724013e-03 6.79809647e-03 9.17743053e-03
      6.11828687e-03 7.13800127e-03 3.39904823e-03 7.81781133e-03
      5.77838207e-03 1.08769545e-02 6.79809647e-03 4.75866767e-03
      1.18966689e-02 9.17743053e-03 7.81781133e-03 2.24337187e-02
      7.13800127e-03 7.81781133e-03 8.83752573e-03 7.81781133e-03
      1.05370497e-02 9.17743053e-03 1.35961929e-02 3.60299125e-02
      8.49762093e-03 1.15567641e-02 1.83548611e-02 5.43847727e-03
      8.15771613e-03 8.49762093e-03 7.13800127e-03 4.41876287e-03
      7.13800127e-03 6.11828687e-03 4.75866767e-03 8.49762093e-03
      8.49762093e-03 4.41876287e-03 5.77838207e-03 2.75322907e-02
      1.35961929e-02 1.59755275e-02 9.51733533e-03 9.17743053e-03
      6.79809647e-03 2.37933379e-02 1.25764785e-02 6.45819167e-03
      1.12168593e-02 4.41876287e-03 6.79809647e-03 8.49762093e-03
      1.15567641e-02 5.43847727e-03 9.17743053e-03 7.13800127e-03
      1.12168593e-02 9.85724013e-03 1.12168593e-02 1.29163833e-02
      1.32562881e-02 9.85724013e-03 7.13800127e-03 3.39904823e-03
      1.05370497e-02 6.45819167e-03 1.52957169e-02 1.05370497e-02
      6.45819167e-03 9.51733533e-03 7.81781133e-03 1.08769545e-02
      7.81781133e-03 1.01971449e-02 4.75866767e-03 7.81781133e-03
      8.49762093e-03 8.15771613e-03 1.18966689e-02 1.25764785e-02</_>
    <_>
      1.04931798e-02 7.08289631e-03 8.91920272e-03 1.07555091e-02
      8.13221373e-03 9.44386143e-03 6.03357796e-03 1.23294862e-02
      1.02308495e-02 2.04616990e-02 8.39454308e-03 8.91920272e-03
      1.23294862e-02 9.96852014e-03 1.02308495e-02 1.20671559e-02
      1.18048266e-02 1.36411330e-02 8.39454308e-03 9.96852014e-03
      1.04931798e-02 9.70619079e-03 5.77124860e-03 1.02308495e-02
      9.44386143e-03 9.96852014e-03 1.04931798e-02 7.86988437e-03
      8.39454308e-03 1.36411330e-02 2.88562430e-03 8.13221373e-03
      1.18048266e-02 7.86988437e-03 7.60755502e-03 1.39034623e-02
      9.44386143e-03 9.18153208e-03 7.86988437e-03 3.67261283e-03
      1.04931798e-02 1.10178385e-02 1.04931798e-02 3.22665274e-02
      8.13221373e-03 9.44386143e-03 1.31164743e-02 1.02308495e-02
      1.23294862e-02 7.34522566e-03 5.77124860e-03 8.65687337e-03
      8.39454308e-03 7.86988437e-03 8.65687337e-03 5.77124860e-03
      9.96852014e-03 1.15424972e-02 6.29590778e-03 1.70514174e-02
      9.70619079e-03 1.23294862e-02 5.24658989e-03 1.12801678e-02
      1.04931798e-02 2.30849944e-02 1.18048266e-02 6.03357796e-03
      1.41657926e-02 9.70619079e-03 9.18153208e-03 9.70619079e-03
      1.31164743e-02 1.07555091e-02 1.07555091e-02 8.91920272e-03
      4.19727154e-03 1.10178385e-02 1.04931798e-02 1.31164743e-02
      1.15424972e-02 7.86988437e-03 3.14795389e-03 7.34522566e-03
      5.77124860e-03 1.28541449e-02 1.39034623e-02 1.15424972e-02
      8.65687337e-03 5.77124860e-03 7.86988437e-03 1.36411330e-02
      9.18153208e-03 1.10178385e-02 7.34522566e-03 7.60755502e-03
      9.44386143e-03 8.65687337e-03 7.34522566e-03 1.15424972e-02</_>
    <_>
      1.01643726e-02 1.21391648e-02 7.43451249e-03 1.05128651e-02
      1.17325895e-02 7.95725174e-03 1.12679331e-02 1.01643726e-02
      9.93204396e-03 2.68920250e-02 9.58355144e-03 8.71231966e-03
      1.00482078e-02 1.01643726e-02 1.17906723e-02 4.43166643e-02
      1.36492997e-02 1.20230010e-02 1.15002617e-02 1.17325895e-02
      7.02793756e-03 1.00482078e-02 1.07451938e-02 9.69971530e-03
      9.00273025e-03 7.84108695e-03 1.05128651e-02 7.43451249e-03
      8.24766234e-03 1.17325895e-02 2.43944931e-03 9.40930471e-03
      1.16164256e-02 1.12098511e-02 7.66684068e-03 1.01643726e-02
      1.01643726e-02 1.08032757e-02 8.59615486e-03 9.29314084e-03
      4.58848802e-03 1.12679331e-02 8.47999100e-03 7.49259442e-03
      9.46738664e-03 7.78300501e-03 1.27780680e-02 7.78300501e-03
      9.99012589e-03 5.57588413e-03 5.51780220e-03 9.75779723e-03
      8.65423679e-03 9.00273025e-03 8.18958040e-03 5.69204846e-03
      9.40930471e-03 8.18958040e-03 7.26026623e-03 1.81216244e-02
      7.43451249e-03 1.08613577e-02 5.11122728e-03 1.01062907e-02
      1.08032757e-02 5.69204846e-03 1.42301209e-02 9.35122278e-03
      1.16164256e-02 1.33588891e-02 9.00273025e-03 7.78300501e-03
      7.08601950e-03 6.79560890e-03 1.08613577e-02 7.49259442e-03
      9.99012589e-03 1.16745075e-02 1.01062907e-02 9.87396203e-03
      1.00482078e-02 8.59615486e-03 1.57402568e-02 5.34355594e-03
      8.82848352e-03 9.75779723e-03 9.17697605e-03 9.69971530e-03
      9.06081218e-03 7.84108695e-03 9.87396203e-03 1.45205325e-02
      1.08613577e-02 8.53807293e-03 1.08032757e-02 6.27286965e-03
      8.07341561e-03 7.84108695e-03 9.75779723e-03 9.75779723e-03</_>
    <_>
      1.17647061e-02 9.12364945e-03 9.84393712e-03 4.80192062e-03
      1.12845134e-02 1.17647061e-02 6.48259325e-03 7.68307317e-03
      1.20048020e-02 4.08163257e-02 7.92316906e-03 1.36854742e-02
      4.32172883e-03 1.03241298e-02 9.36374534e-03 6.98679462e-02
      8.16326495e-03 2.06482597e-02 7.44297728e-03 1.15246102e-02
      1.08043216e-02 6.96278503e-03 5.04201697e-03 7.92316906e-03
      4.80192062e-03 4.32172883e-03 7.20288092e-03 6.00240100e-03
      6.72268914e-03 1.08043216e-02 4.80192062e-03 7.68307317e-03
      1.56062422e-02 5.52220875e-03 5.52220875e-03 1.63265299e-02
      1.08043216e-02 4.80192062e-03 5.76230511e-03 7.68307317e-03
      7.44297728e-03 1.24849938e-02 5.04201697e-03 9.84393712e-03
      9.60384123e-03 8.40336177e-03 2.30492204e-02 2.40096031e-03
      1.17647061e-02 6.00240100e-03 6.48259325e-03 6.96278503e-03
      7.68307317e-03 6.24249689e-03 5.52220875e-03 7.92316906e-03
      4.80192062e-03 5.76230511e-03 9.12364945e-03 4.82593030e-02
      1.65666267e-02 1.03241298e-02 6.48259325e-03 7.20288092e-03
      7.92316906e-03 6.48259325e-03 1.68067235e-02 5.52220875e-03
      7.68307317e-03 6.96278503e-03 4.56182472e-03 4.56182472e-03
      1.12845134e-02 5.28211286e-03 7.92316906e-03 7.20288092e-03
      8.64345767e-03 6.72268914e-03 4.56182472e-03 1.36854742e-02
      7.68307317e-03 8.64345767e-03 1.05642257e-02 6.00240100e-03
      8.40336177e-03 7.92316906e-03 2.97719091e-02 8.64345767e-03
      9.60384123e-03 1.08043216e-02 3.84153659e-03 1.17647061e-02
      7.92316906e-03 7.20288092e-03 4.08163248e-03 7.92316906e-03
      5.04201697e-03 3.60144046e-03 1.94477793e-02 6.00240100e-03</_>
    <_>
      9.77443624e-03 9.45220236e-03 1.49301821e-02 1.02040814e-02
      7.84103107e-03 1.10633727e-02 3.43716424e-03 1.17078414e-02
      8.48549977e-03 1.70784108e-02 6.22986024e-03 1.16004292e-02
      8.16326495e-03 1.38560692e-02 1.06337275e-02 4.02792692e-02
      7.73361977e-03 9.23737884e-03 1.09559614e-02 9.45220236e-03
      1.28893666e-02 7.51879718e-03 8.59291106e-03 6.87432848e-03
      5.90762636e-03 1.07411388e-02 8.70032236e-03 1.40708918e-02
      1.02040814e-02 7.73361977e-03 3.61976363e-02 9.12996754e-03
      1.33190118e-02 9.34479013e-03 1.09559614e-02 1.06337275e-02
      9.12996754e-03 8.70032236e-03 7.51879718e-03 8.48549977e-03
      6.44468330e-03 1.05263162e-02 9.23737884e-03 4.83351247e-03
      1.19226640e-02 1.09559614e-02 7.41138542e-03 9.66702495e-03
      9.34479013e-03 1.19226640e-02 9.55961365e-03 8.91514495e-03
      9.55961365e-03 7.84103107e-03 8.27067625e-03 9.12996754e-03
      8.05585366e-03 7.62620848e-03 5.47798071e-03 1.98711064e-02
      1.12781953e-02 9.34479013e-03 8.70032236e-03 1.04189040e-02
      7.62620848e-03 7.41138542e-03 1.03114927e-02 5.47798071e-03
      9.98925883e-03 7.51879718e-03 1.11707840e-02 5.47798071e-03
      4.83351247e-03 8.59291106e-03 1.11707840e-02 9.23737884e-03
      5.37056942e-03 9.12996754e-03 8.48549977e-03 9.66702495e-03
      9.02255625e-03 6.76691718e-03 1.09559614e-02 1.18152527e-02
      1.00966701e-02 9.66702495e-03 1.04189040e-02 1.16004292e-02
      9.98925883e-03 1.27819553e-02 8.70032236e-03 9.55961365e-03
      9.77443624e-03 7.94844236e-03 9.02255625e-03 1.00966701e-02
      9.34479013e-03 4.72610118e-03 1.05263162e-02 1.06337275e-02</_>
    <_>
      1.36015872e-02 8.78435839e-03 8.78435839e-03 6.51742704e-03
      9.35109053e-03 7.93425925e-03 1.47350524e-02 5.10059530e-03
      1.27514880e-02 2.63530742e-02 6.80079358e-03 1.10512897e-02
      7.65089272e-03 8.78435839e-03 8.50099139e-03 2.83366386e-02
      9.35109053e-03 1.38849532e-02 7.36752618e-03 8.78435839e-03
      1.02011906e-02 5.38396137e-03 1.02011906e-02 6.51742704e-03
      9.63445753e-03 8.50099139e-03 7.08415965e-03 7.36752618e-03
      6.51742704e-03 1.38849532e-02 1.24681210e-02 1.02011906e-02
      1.81354489e-02 1.10512897e-02 3.11703025e-03 1.70019828e-02
      5.95069444e-03 8.78435839e-03 9.35109053e-03 1.47350524e-02
      1.02011906e-02 1.07679227e-02 6.23406051e-03 5.38396137e-03
      1.13346558e-02 5.38396137e-03 1.13346558e-02 6.51742704e-03
      1.70019828e-02 1.50184184e-02 4.81722876e-03 5.66732790e-03
      6.51742704e-03 8.21762532e-03 6.80079358e-03 9.91782360e-03
      7.36752618e-03 6.80079358e-03 5.38396137e-03 3.65542658e-02
      1.50184184e-02 1.33182202e-02 9.06772446e-03 5.38396137e-03
      5.95069444e-03 7.93425925e-03 1.21847549e-02 5.66732790e-03
      8.21762532e-03 5.95069444e-03 9.06772446e-03 9.91782360e-03
      1.67186167e-02 6.51742704e-03 1.04845567e-02 7.36752618e-03
      1.13346558e-02 8.21762532e-03 6.80079358e-03 9.63445753e-03
      8.21762532e-03 7.36752618e-03 2.06857473e-02 8.78435839e-03
      1.41683193e-02 8.21762532e-03 1.89855490e-02 8.50099139e-03
      9.06772446e-03 8.21762532e-03 6.51742704e-03 8.50099139e-03
      5.38396137e-03 8.50099139e-03 3.68376309e-03 8.21762532e-03
      7.65089272e-03 7.65089272e-03 1.38849532e-02 1.53017854e-02</_>
    <_>
      8.86661559e-03 1.31071704e-02 1.04086353e-02 1.11796455e-02
      1.19506549e-02 1.34926755e-02 7.71010015e-03 1.00231301e-02
      6.93909032e-03 7.32459500e-03 4.24055522e-03 7.71010015e-03
      1.00231301e-02 1.04086353e-02 1.19506549e-02 3.31534296e-02
      1.46491900e-02 1.34926755e-02 1.15651507e-02 1.04086353e-02
      8.48111045e-03 5.78257535e-03 5.78257535e-03 1.07941404e-02
      9.25212074e-03 8.09560530e-03 7.32459500e-03 5.78257535e-03
      1.15651507e-02 1.50346952e-02 3.85505008e-03 8.48111045e-03
      1.58057064e-02 8.09560530e-03 4.62606037e-03 1.50346952e-02
      1.27216652e-02 7.32459500e-03 8.09560530e-03 1.15651507e-02
      5.01156505e-03 1.23361601e-02 8.48111045e-03 8.86661559e-03
      7.71010015e-03 9.63762496e-03 1.46491900e-02 8.86661559e-03
      1.46491900e-02 7.32459500e-03 5.78257535e-03 8.09560530e-03
      7.32459500e-03 9.63762496e-03 6.55358518e-03 4.62606037e-03
      9.25212074e-03 8.48111045e-03 8.48111045e-03 4.04780246e-02
      1.11796455e-02 8.09560530e-03 9.63762496e-03 8.86661559e-03
      1.19506549e-02 7.32459500e-03 1.23361601e-02 8.09560530e-03
      1.19506549e-02 1.23361601e-02 1.00231301e-02 8.48111045e-03
      1.15651507e-02 6.16808003e-03 1.19506549e-02 6.16808003e-03
      8.86661559e-03 7.32459500e-03 1.07941404e-02 1.19506549e-02
      8.09560530e-03 8.48111045e-03 7.71010015e-03 6.16808003e-03
      1.15651507e-02 9.25212074e-03 1.73477251e-02 9.63762496e-03
      1.04086353e-02 1.11796455e-02 7.71010015e-03 1.19506549e-02
      8.09560530e-03 1.11796455e-02 9.25212074e-03 3.46954516e-03
      8.48111045e-03 9.25212074e-03 1.07941404e-02 6.55358518e-03</_>
    <_>
      1.22055067e-02 1.19216572e-02 1.16378088e-02 8.23162124e-03
      9.65086557e-03 1.01239476e-02 6.81237597e-03 9.46163293e-03
      1.00293308e-02 8.13700445e-03 5.77159598e-03 1.01239476e-02
      8.89393501e-03 1.91124994e-02 1.04077961e-02 1.42870657e-02
      9.17778444e-03 1.10701108e-02 9.27240029e-03 1.27732046e-02
      1.51386131e-02 1.05970288e-02 8.32623709e-03 6.90699229e-03
      9.46163293e-03 1.14485761e-02 8.79931916e-03 1.10701108e-02
      8.51546973e-03 9.46163293e-03 2.01532785e-02 1.30570540e-02
      1.42870657e-02 8.04238766e-03 1.23947393e-02 1.38139846e-02
      8.51546973e-03 8.32623709e-03 7.00160861e-03 8.70470237e-03
      5.39313070e-03 1.23001235e-02 1.05024129e-02 6.52852701e-03
      1.31516699e-02 1.06916456e-02 1.26785887e-02 8.79931916e-03
      1.12593435e-02 1.05970288e-02 1.01239476e-02 7.38007389e-03
      1.16378088e-02 9.93471500e-03 8.32623709e-03 8.79931916e-03
      9.27240029e-03 8.98855180e-03 6.05544494e-03 2.40325481e-02
      1.05970288e-02 1.18270414e-02 8.98855180e-03 8.79931916e-03
      8.42085388e-03 8.61008652e-03 1.16378088e-02 8.51546973e-03
      9.27240029e-03 7.85315502e-03 9.93471500e-03 7.09622493e-03
      7.09622493e-03 8.32623709e-03 1.12593435e-02 8.42085388e-03
      8.04238766e-03 7.38007389e-03 8.79931916e-03 1.19216572e-02
      1.09754940e-02 7.09622493e-03 8.70470237e-03 1.00293308e-02
      9.27240029e-03 9.27240029e-03 1.23947393e-02 9.17778444e-03
      7.56930653e-03 8.70470237e-03 9.74548236e-03 9.36701708e-03
      8.04238766e-03 9.36701708e-03 8.70470237e-03 8.89393501e-03
      1.07862614e-02 6.81237597e-03 1.00293308e-02 1.26785887e-02</_>
    <_>
      7.16355443e-03 1.37636829e-02 9.17578861e-03 7.80746946e-03
      1.07050873e-02 7.40502262e-03 7.88795855e-03 1.33612361e-02
      7.08306488e-03 3.88763696e-02 1.03026405e-02 7.96844810e-03
      1.24758529e-02 8.53187405e-03 1.45685766e-02 1.39246620e-02
      1.26368320e-02 8.85383133e-03 1.19124278e-02 9.81970411e-03
      6.27817120e-03 1.32002579e-02 1.15099810e-02 1.05441082e-02
      1.14294915e-02 1.03026405e-02 9.73921455e-03 4.58789431e-03
      1.21538956e-02 9.57823545e-03 5.47327753e-03 8.37089494e-03
      1.03026405e-02 9.65872500e-03 6.43914985e-03 8.77334177e-03
      9.57823545e-03 1.00611718e-02 9.73921455e-03 6.43914985e-03
      6.19768212e-03 1.10270446e-02 1.11880228e-02 7.80746946e-03
      8.04893766e-03 8.61236360e-03 9.98068228e-03 1.32002579e-02
      9.09529906e-03 5.23180934e-03 1.00611718e-02 1.13490019e-02
      8.29040539e-03 9.09529906e-03 9.81970411e-03 9.65872500e-03
      9.41725727e-03 9.81970411e-03 9.73921455e-03 1.19124278e-02
      8.45138449e-03 1.15904696e-02 5.87572437e-03 1.04636187e-02
      1.07050873e-02 4.99034114e-03 1.12685123e-02 1.06245978e-02
      1.56149389e-02 1.40051516e-02 1.08660655e-02 8.29040539e-03
      1.08660655e-02 8.20991583e-03 9.49774589e-03 1.08660655e-02
      1.13490019e-02 1.52124921e-02 8.61236360e-03 1.02221509e-02
      8.12942721e-03 7.40502262e-03 4.99034114e-03 6.35866076e-03
      7.56600127e-03 1.03026405e-02 8.45138449e-03 1.22343851e-02
      9.01481044e-03 8.69285222e-03 9.90019273e-03 1.09465551e-02
      1.20734060e-02 1.17514487e-02 1.59368962e-02 5.07083070e-03
      1.07050873e-02 8.77334177e-03 1.00611718e-02 6.11719256e-03</_>
    <_>
      9.60859098e-03 9.04337969e-03 6.49992935e-03 8.76077451e-03
      1.05977105e-02 7.34774629e-03 8.05426016e-03 9.60859098e-03
      1.21520422e-02 9.55206975e-02 7.77165452e-03 9.46728885e-03
      8.19556322e-03 1.15868310e-02 1.03151053e-02 3.10866181e-02
      8.76077451e-03 1.14455279e-02 7.63035193e-03 8.19556322e-03
      8.61947145e-03 8.61947145e-03 6.49992935e-03 7.34774629e-03
      6.64123194e-03 7.77165452e-03 9.04337969e-03 1.05977105e-02
      6.21732371e-03 1.10216197e-02 4.38038725e-03 6.78253500e-03
      1.00324992e-02 7.77165452e-03 1.04564084e-02 1.54020069e-02
      5.65211242e-03 7.48904888e-03 9.74989403e-03 9.18468274e-03
      9.74989403e-03 1.04564084e-02 4.94559854e-03 2.33149640e-02
      6.78253500e-03 7.77165452e-03 1.52607039e-02 1.15868310e-02
      1.07390136e-02 4.94559854e-03 4.09778161e-03 5.51080983e-03
      8.33686627e-03 7.34774629e-03 6.92383759e-03 1.11629218e-02
      6.35862676e-03 7.63035193e-03 7.06514064e-03 2.35975701e-02
      6.64123194e-03 1.29998587e-02 4.38038725e-03 7.34774629e-03
      7.06514064e-03 4.94559854e-03 1.31411618e-02 7.48904888e-03
      1.07390136e-02 9.04337969e-03 5.51080983e-03 5.93471806e-03
      1.58259142e-02 7.20644323e-03 1.04564084e-02 6.49992935e-03
      1.32824639e-02 9.60859098e-03 8.47816840e-03 1.17281331e-02
      7.48904888e-03 6.49992935e-03 5.93471806e-03 4.94559854e-03
      7.20644323e-03 9.89119709e-03 1.08803166e-02 1.07390136e-02
      9.18468274e-03 8.76077451e-03 9.32598580e-03 1.03151053e-02
      6.35862676e-03 7.20644323e-03 7.20644323e-03 8.19556322e-03
      7.34774629e-03 9.18468274e-03 9.32598580e-03 1.11629218e-02</_>
    <_>
      1.18778283e-02 3.67647060e-03 1.07466066e-02 9.75678768e-03
      6.36312226e-03 1.25848418e-02 2.07861997e-02 4.94909519e-03
      1.08880093e-02 5.82579188e-02 4.66628978e-03 8.34276062e-03
      9.19117685e-03 6.50452496e-03 8.90837144e-03 7.49434382e-02
      5.51470602e-03 7.21153850e-03 6.36312226e-03 9.61538497e-03
      8.48416332e-03 5.51470602e-03 4.52488707e-03 7.49434391e-03
      5.93891414e-03 8.20135791e-03 6.64592767e-03 7.21153850e-03
      1.17364256e-02 7.91855250e-03 4.66628978e-03 1.08880093e-02
      9.61538497e-03 7.21153850e-03 7.63574662e-03 1.21606337e-02
      1.20192310e-02 4.66628978e-03 7.07013579e-03 1.61199104e-02
      1.04638012e-02 1.03223985e-02 7.77714932e-03 7.91855250e-03
      8.05995520e-03 9.33257956e-03 8.90837144e-03 8.76696873e-03
      1.23020364e-02 7.49434391e-03 6.50452496e-03 5.09049790e-03
      8.48416332e-03 6.92873308e-03 7.21153850e-03 1.17364256e-02
      4.24208166e-03 4.38348437e-03 9.75678768e-03 2.72907242e-02
      1.32918553e-02 1.24434391e-02 6.64592767e-03 7.49434391e-03
      7.63574662e-03 4.80769249e-03 6.36312226e-03 8.34276062e-03
      8.62556603e-03 4.38348437e-03 7.49434391e-03 1.18778283e-02
      1.28676472e-02 4.66628978e-03 7.35294120e-03 6.22171955e-03
      2.34728511e-02 6.08031685e-03 8.62556603e-03 5.93891414e-03
      9.61538497e-03 1.10294120e-02 2.34728511e-02 6.92873308e-03
      1.21606337e-02 3.53506790e-03 1.55542986e-02 1.23020364e-02
      8.76696873e-03 1.14536202e-02 5.79751143e-03 4.94909519e-03
      6.36312226e-03 5.37330331e-03 5.93891414e-03 8.05995520e-03
      8.05995520e-03 7.21153850e-03 8.05995520e-03 1.08880093e-02</_>
    <_>
      1.74927115e-02 4.08163248e-03 1.39941694e-02 8.16326495e-03
      8.16326495e-03 8.74635577e-03 1.45772593e-02 1.16618071e-03
      6.41399436e-03 5.42274043e-02 2.91545200e-03 8.74635577e-03
      7.58017506e-03 1.16618080e-02 6.99708471e-03 1.16618074e-01
      4.66472283e-03 1.45772593e-02 2.91545200e-03 8.74635577e-03
      1.92419831e-02 5.83090400e-03 3.49854236e-03 4.08163248e-03
      4.08163248e-03 6.99708471e-03 3.49854236e-03 6.41399436e-03
      8.16326495e-03 1.34110786e-02 8.16326495e-03 6.99708471e-03
      2.21574344e-02 2.91545200e-03 4.66472283e-03 1.22448979e-02
      8.16326495e-03 2.33236142e-03 4.66472283e-03 1.28279887e-02
      6.41399436e-03 5.83090400e-03 7.58017506e-03 1.22448979e-02
      3.49854236e-03 7.58017506e-03 1.92419831e-02 4.66472283e-03
      6.99708471e-03 1.34110786e-02 3.49854236e-03 6.41399436e-03
      2.91545200e-03 2.91545200e-03 4.66472283e-03 1.04956264e-02
      3.49854236e-03 2.33236142e-03 4.08163248e-03 5.59766777e-02
      2.39067059e-02 6.41399436e-03 6.99708471e-03 2.91545200e-03
      5.24781318e-03 8.74635577e-03 8.16326495e-03 5.83090400e-03
      5.24781318e-03 3.49854236e-03 4.66472283e-03 9.32944566e-03
      1.86588913e-02 1.16618071e-03 8.16326495e-03 5.24781318e-03
      1.57434400e-02 4.08163248e-03 2.91545200e-03 4.08163248e-03
      6.41399436e-03 7.58017506e-03 1.28279887e-02 7.58017506e-03
      8.16326495e-03 1.04956264e-02 2.50728857e-02 5.24781318e-03
      1.22448979e-02 1.34110786e-02 2.91545200e-03 4.08163248e-03
      3.49854236e-03 3.49854236e-03 6.41399436e-03 1.69096217e-02
      5.83090400e-03 8.16326495e-03 1.28279887e-02 8.74635577e-03</_>
    <_>
      1.19956378e-02 4.72555449e-03 1.05416216e-02 6.17957115e-03
      7.27008376e-03 1.01781171e-02 9.45110898e-03 6.54307520e-03
      1.23591423e-02 6.43402413e-02 3.99854593e-03 8.36059637e-03
      3.99854593e-03 6.54307520e-03 1.01781171e-02 1.85387135e-02
      4.72555449e-03 1.30861504e-02 4.72555449e-03 1.89022180e-02
      9.81461257e-03 7.63358781e-03 3.63504188e-03 9.45110898e-03
      6.54307520e-03 1.45401675e-02 4.72555449e-03 9.08760447e-03
      1.85387135e-02 1.12686297e-02 9.81461257e-03 9.81461257e-03
      8.36059637e-03 5.45256259e-03 8.72409996e-03 1.74481999e-02
      1.05416216e-02 2.90803355e-03 1.12686297e-02 1.01781171e-02
      1.38131585e-02 4.72555449e-03 7.27008376e-03 1.67211927e-02
      1.01781171e-02 7.27008376e-03 1.63576882e-02 7.27008376e-03
      1.16321342e-02 5.45256259e-03 6.54307520e-03 5.45256259e-03
      9.08760447e-03 3.99854593e-03 7.27008376e-03 2.68993098e-02
      7.99709186e-03 5.81606710e-03 1.38131585e-02 1.45401675e-02
      1.30861504e-02 9.81461257e-03 1.05416216e-02 3.63504188e-03
      6.17957115e-03 5.45256259e-03 9.08760447e-03 7.63358781e-03
      9.81461257e-03 3.99854593e-03 6.17957115e-03 8.72409996e-03
      2.79898215e-02 7.27008376e-03 7.27008376e-03 7.27008376e-03
      1.41766630e-02 6.17957115e-03 5.81606710e-03 9.45110898e-03
      7.99709186e-03 1.05416216e-02 3.99854593e-03 8.72409996e-03
      1.27226459e-02 6.54307520e-03 1.70846973e-02 5.45256259e-03
      1.16321342e-02 1.16321342e-02 7.63358781e-03 5.45256259e-03
      9.45110898e-03 8.72409996e-03 8.72409996e-03 1.01781171e-02
      2.90803355e-03 2.03562342e-02 9.08760447e-03 1.30861504e-02</_>
    <_>
      1.24653736e-02 1.38504151e-03 4.15512454e-03 5.54016605e-03
      4.15512454e-03 1.10803321e-02 4.15512454e-03 1.38504151e-03
      1.24653736e-02 3.32409963e-02 6.92520756e-03 8.31024908e-03
      4.15512454e-03 6.92520756e-03 5.54016605e-03 9.41828266e-02
      4.15512454e-03 1.66204982e-02 2.77008303e-03 8.31024908e-03
      5.54016605e-03 2.77008303e-03 2.77008303e-03 5.54016605e-03
      6.92520756e-03 6.92520756e-03 1.38504151e-03 1.52354566e-02
      1.66204982e-02 9.69529059e-03 1.24653736e-02 1.66204982e-02
      8.31024908e-03 0. 4.15512454e-03 1.38504151e-02 4.15512454e-03
      2.77008303e-03 4.15512454e-03 2.77008303e-02 1.24653736e-02
      5.54016605e-03 9.69529059e-03 2.77008303e-03 8.31024908e-03
      5.54016605e-03 6.92520756e-03 2.77008303e-03 4.15512454e-03
      1.52354566e-02 4.15512454e-03 2.77008303e-03 2.77008303e-03
      1.38504151e-03 5.54016605e-03 2.77008303e-02 4.15512454e-03
      2.77008303e-03 1.52354566e-02 4.84764539e-02 3.04709133e-02
      4.15512454e-03 2.21606642e-02 4.15512454e-03 1.38504151e-03
      5.54016605e-03 4.15512454e-03 9.69529059e-03 0. 4.15512454e-03
      2.77008303e-03 1.66204982e-02 1.38504151e-02 6.92520756e-03
      9.69529059e-03 2.77008303e-03 3.18559557e-02 0. 5.54016605e-03 0.
      8.31024908e-03 1.38504151e-02 1.24653736e-02 8.31024908e-03
      1.80055406e-02 4.15512454e-03 4.98614945e-02 1.38504151e-03
      1.10803321e-02 1.80055406e-02 4.15512454e-03 4.15512454e-03
      5.54016605e-03 1.10803321e-02 5.54016605e-03 6.92520756e-03
      2.77008303e-03 8.31024908e-03 1.93905812e-02 6.92520756e-03</_>
    <_>
      2.10696924e-02 5.67260943e-03 4.86223679e-03 3.64667736e-03
      1.09400321e-02 1.41815236e-02 1.49918962e-02 5.26742311e-03
      8.50891415e-03 6.28038868e-02 3.24149104e-03 1.17504047e-02
      5.67260943e-03 1.25607783e-02 9.72447358e-03 1.94489472e-02
      6.48298208e-03 1.66126415e-02 2.83630472e-03 1.70178283e-02
      1.05348462e-02 7.69854151e-03 2.83630472e-03 7.69854151e-03
      7.29335472e-03 1.49918962e-02 4.86223679e-03 3.24149104e-03
      1.17504047e-02 1.86385736e-02 8.50891415e-03 6.48298208e-03
      1.29659642e-02 5.26742311e-03 4.45705047e-03 2.30956245e-02
      7.29335472e-03 1.21555920e-03 8.91410094e-03 1.53970830e-02
      8.91410094e-03 6.88816840e-03 8.10372736e-03 1.49918962e-02
      9.31928679e-03 5.67260943e-03 1.53970830e-02 5.67260943e-03
      1.29659642e-02 1.58022698e-02 6.88816840e-03 6.48298208e-03
      7.69854151e-03 1.62074552e-03 4.05186368e-03 1.25607783e-02
      5.67260943e-03 2.02593184e-03 1.45867094e-02 3.36304717e-02
      1.78282019e-02 8.10372736e-03 7.69854151e-03 6.88816840e-03
      6.48298208e-03 6.88816840e-03 1.01296594e-02 8.91410094e-03
      9.31928679e-03 8.50891415e-03 4.86223679e-03 8.10372736e-03
      2.55267415e-02 1.62074552e-03 7.29335472e-03 4.86223679e-03
      2.22852509e-02 3.24149104e-03 8.10372736e-03 9.72447358e-03
      4.86223679e-03 1.17504047e-02 8.91410094e-03 4.86223679e-03
      9.72447358e-03 5.67260943e-03 2.18800642e-02 5.26742311e-03
      1.29659642e-02 1.05348462e-02 5.26742311e-03 4.45705047e-03
      4.86223679e-03 8.10372736e-03 6.48298208e-03 1.01296594e-02
      4.86223679e-03 1.33711509e-02 1.25607783e-02 7.69854151e-03</_>
    <_>
      1.34243462e-02 6.14334457e-03 1.34243462e-02 7.28100119e-03
      5.46075078e-03 1.70648471e-02 6.37087598e-03 4.77815699e-03
      6.82593836e-03 1.41069395e-02 3.64050060e-03 9.10125114e-03
      4.77815699e-03 9.55631398e-03 9.32878256e-03 5.27872592e-02
      8.41865782e-03 8.87371972e-03 3.41296918e-03 1.04664387e-02
      2.52559725e-02 5.00568841e-03 5.23321936e-03 4.32309462e-03
      6.59840740e-03 8.41865782e-03 7.05346977e-03 2.45733783e-02
      1.43344710e-02 1.00113768e-02 4.39135395e-02 1.20591577e-02
      9.32878256e-03 6.59840740e-03 1.56996585e-02 7.28100119e-03
      7.28100119e-03 5.46075078e-03 7.28100119e-03 1.11490330e-02
      8.41865782e-03 1.06939701e-02 6.82593836e-03 6.82593836e-03
      7.96359498e-03 6.82593836e-03 1.09215016e-02 8.64618924e-03
      7.28100119e-03 2.13879403e-02 1.11490330e-02 6.14334457e-03
      7.28100119e-03 5.91581361e-03 7.96359498e-03 1.29692834e-02
      5.91581361e-03 6.14334457e-03 6.37087598e-03 1.97952222e-02
      2.13879403e-02 9.78384539e-03 1.36518767e-02 5.68828220e-03
      4.09556320e-03 7.73606356e-03 8.87371972e-03 8.19112640e-03
      9.78384539e-03 6.59840740e-03 5.91581361e-03 5.68828220e-03
      6.82593836e-03 5.46075078e-03 7.50853261e-03 5.68828220e-03
      7.28100119e-03 6.14334457e-03 5.23321936e-03 1.04664387e-02
      7.05346977e-03 8.87371972e-03 1.70648471e-02 1.68373156e-02
      1.29692834e-02 9.55631398e-03 1.38794081e-02 8.19112640e-03
      1.02389082e-02 8.87371972e-03 5.68828220e-03 5.46075078e-03
      4.55062557e-03 7.96359498e-03 4.77815699e-03 1.86575651e-02
      2.73037539e-03 6.82593836e-03 1.11490330e-02 1.91126280e-02</_>
    <_>
      9.68523044e-03 2.90556904e-03 1.25907995e-02 9.20096878e-03
      6.77966094e-03 1.16222762e-02 1.30750602e-02 8.23244546e-03
      5.32687642e-03 1.74334142e-02 9.68523044e-03 8.23244546e-03
      1.16222762e-02 3.87409190e-03 7.74818379e-03 1.64648909e-02
      8.23244546e-03 1.21065378e-02 3.38983047e-03 1.35593219e-02
      1.30750602e-02 3.38983047e-03 6.29539974e-03 1.16222762e-02
      5.81113808e-03 7.74818379e-03 7.26392260e-03 6.77966094e-03
      1.06537528e-02 1.25907995e-02 1.54963676e-02 8.71670712e-03
      8.23244546e-03 3.87409190e-03 1.16222762e-02 2.17917673e-02
      5.81113808e-03 1.93704595e-03 1.01694912e-02 1.35593219e-02
      1.84019376e-02 1.01694912e-02 9.20096878e-03 2.37288140e-02
      5.81113808e-03 6.29539974e-03 1.45278452e-02 7.26392260e-03
      1.30750602e-02 9.20096878e-03 1.01694912e-02 7.26392260e-03
      7.26392260e-03 5.32687642e-03 5.81113808e-03 1.59806293e-02
      5.32687642e-03 3.38983047e-03 1.16222762e-02 1.64648909e-02
      2.22760290e-02 1.69491526e-02 1.25907995e-02 6.77966094e-03
      4.35835356e-03 4.06779647e-02 6.77966094e-03 6.29539974e-03
      6.29539974e-03 3.38983047e-03 4.84261522e-03 1.35593219e-02
      1.06537528e-02 8.71670712e-03 8.23244546e-03 9.20096878e-03
      2.03389823e-02 5.81113808e-03 7.26392260e-03 8.71670712e-03
      9.68523044e-03 1.74334142e-02 1.54963676e-02 8.71670712e-03
      9.20096878e-03 4.35835356e-03 2.17917673e-02 4.84261522e-03
      1.01694912e-02 7.74818379e-03 5.32687642e-03 2.42130761e-03
      5.32687642e-03 1.59806293e-02 5.81113808e-03 1.21065378e-02
      5.81113808e-03 9.20096878e-03 1.01694912e-02 1.01694912e-02</_>
    <_>
      1.52795836e-02 3.90117033e-03 7.80234067e-03 7.15214573e-03
      5.52665815e-03 7.47724297e-03 1.10533163e-02 3.25097539e-03
      7.80234067e-03 1.28088430e-01 5.52665815e-03 4.22626780e-03
      5.52665815e-03 5.20156045e-03 4.87646274e-03 7.31469467e-02
      3.25097539e-03 1.20286085e-02 3.25097539e-03 1.56046813e-02
      1.36540961e-02 1.00780232e-02 4.22626780e-03 6.50195079e-03
      6.82704803e-03 6.82704803e-03 4.22626780e-03 1.20286085e-02
      1.20286085e-02 7.15214573e-03 1.04031209e-02 4.87646274e-03
      1.10533163e-02 3.25097539e-03 1.23537062e-02 1.43042915e-02
      5.85175538e-03 2.92587769e-03 6.17685309e-03 7.80234067e-03
      1.91807542e-02 6.17685309e-03 7.47724297e-03 5.42912856e-02
      6.50195079e-03 3.25097539e-03 8.77763331e-03 3.57607286e-03
      6.17685309e-03 8.77763331e-03 4.22626780e-03 5.20156045e-03
      3.90117033e-03 3.57607286e-03 3.25097528e-04 1.98309496e-02
      3.90117033e-03 2.27568275e-03 9.42782871e-03 1.91807542e-02
      1.20286085e-02 1.04031209e-02 8.77763331e-03 1.95058517e-03
      2.60078022e-03 8.45253561e-03 6.50195079e-03 9.42782871e-03
      6.50195079e-03 8.12743790e-03 4.22626780e-03 1.10533163e-02
      1.46293892e-02 2.92587769e-03 6.82704803e-03 5.52665815e-03
      1.98309496e-02 2.60078022e-03 2.92587769e-03 1.17035108e-02
      3.90117033e-03 9.75292549e-03 1.43042915e-02 5.85175538e-03
      6.82704803e-03 6.50195079e-03 1.36540961e-02 4.22626780e-03
      6.82704803e-03 4.87646274e-03 4.87646274e-03 3.90117033e-03
      3.57607286e-03 6.17685309e-03 5.85175538e-03 1.59297790e-02
      2.92587769e-03 1.43042915e-02 9.75292549e-03 1.04031209e-02</_>
    <_>
      2.37203501e-02 0. 1.24843942e-03 3.74531839e-03 1.24843942e-03
      6.24219747e-03 3.74531839e-03 2.49687885e-03 6.24219747e-03
      2.98377037e-01 0. 1.24843942e-03 0. 7.49063678e-03 3.74531839e-03
      6.11735322e-02 2.49687885e-03 1.12359552e-02 1.24843942e-03
      4.99375770e-03 7.49063678e-03 4.99375770e-03 0. 2.49687885e-03
      2.49687885e-03 4.99375770e-03 2.49687885e-03 1.62297133e-02
      1.49812736e-02 4.99375770e-03 1.24843949e-02 0. 6.24219747e-03 0.
      4.99375770e-03 6.24219747e-03 0. 4.99375770e-03 1.24843949e-02
      1.49812736e-02 2.37203501e-02 2.49687885e-03 4.99375770e-03
      7.24094883e-02 3.74531839e-03 1.24843942e-03 1.49812736e-02
      2.49687885e-03 3.74531839e-03 8.73907655e-03 6.24219747e-03 0.
      2.49687885e-03 2.49687885e-03 1.24843942e-03 2.87141073e-02 0. 0.
      9.98751540e-03 3.49563062e-02 1.62297133e-02 4.99375770e-03
      4.99375770e-03 1.24843942e-03 2.49687885e-03 4.99375770e-03
      1.24843942e-03 0. 2.49687885e-03 3.74531839e-03 2.49687885e-03
      2.49687885e-03 2.37203501e-02 3.74531839e-03 3.74531839e-03
      1.24843942e-03 6.24219747e-03 0. 0. 7.49063678e-03 1.24843942e-03
      4.99375770e-03 1.12359552e-02 1.24843942e-03 9.98751540e-03
      4.99375770e-03 1.87265910e-02 0. 3.74531839e-03 8.73907655e-03
      1.24843942e-03 4.99375770e-03 4.99375770e-03 2.49687885e-03
      4.99375770e-03 1.24843949e-02 1.24843942e-03 8.73907655e-03
      3.74531839e-03 7.49063678e-03</_>
    <_>
      1.13879004e-02 5.21945441e-03 9.48991720e-03 8.06642976e-03
      3.55871883e-03 2.27758009e-02 1.92170814e-02 6.40569394e-03
      8.54092557e-03 8.63582417e-02 3.32147093e-03 1.04389088e-02
      6.16844604e-03 5.93119813e-03 7.35468557e-03 9.44246724e-02
      6.64294185e-03 1.18623963e-02 4.03321488e-03 1.20996442e-02
      1.18623963e-02 5.93119813e-03 2.13523139e-03 4.98220650e-03
      3.79596674e-03 8.54092557e-03 4.03321488e-03 7.35468557e-03
      7.82918185e-03 1.16251484e-02 5.93119813e-03 5.45670232e-03
      9.72716510e-03 2.60972721e-03 7.11743766e-03 1.56583637e-02
      7.82918185e-03 2.84697511e-03 8.30367766e-03 1.61328595e-02
      9.96441301e-03 1.18623963e-02 6.88018976e-03 8.77817348e-03
      7.35468557e-03 7.35468557e-03 8.30367766e-03 4.27046278e-03
      1.28113879e-02 5.69395022e-03 1.89798337e-03 4.98220650e-03
      4.74495860e-03 4.50771069e-03 4.50771069e-03 9.96441301e-03
      4.74495860e-03 3.08422302e-03 1.09134046e-02 2.77580079e-02
      1.49466190e-02 1.16251484e-02 6.40569394e-03 3.55871883e-03
      4.27046278e-03 5.45670232e-03 5.21945441e-03 3.55871883e-03
      4.27046278e-03 3.79596674e-03 4.03321488e-03 6.16844604e-03
      1.73190981e-02 2.60972721e-03 6.88018976e-03 4.03321488e-03
      2.60972716e-02 2.37247930e-03 7.59193348e-03 1.13879004e-02
      4.74495860e-03 1.02016609e-02 3.15539725e-02 8.06642976e-03
      1.63701065e-02 6.16844604e-03 1.96915772e-02 1.13879004e-02
      9.25266929e-03 1.23368921e-02 3.79596674e-03 4.50771069e-03
      5.69395022e-03 4.74495860e-03 3.08422302e-03 1.02016609e-02
      5.21945441e-03 1.20996442e-02 7.82918185e-03 8.06642976e-03</_>
    <_>
      1.44230770e-02 5.07478649e-03 1.12179490e-02 8.01282097e-03
      4.54059849e-03 9.88247897e-03 1.33547010e-02 5.07478649e-03
      1.17521370e-02 3.63247879e-02 6.41025649e-03 6.41025649e-03
      6.94444450e-03 8.54700897e-03 8.54700897e-03 6.43696561e-02
      2.67094024e-03 1.30876070e-02 4.00641048e-03 1.06837610e-02
      1.60256419e-02 5.07478649e-03 3.20512825e-03 5.87606849e-03
      5.07478649e-03 6.94444450e-03 4.80769249e-03 6.94444450e-03
      1.36217950e-02 6.14316249e-03 2.40384620e-02 7.47863250e-03
      1.94978639e-02 5.60897449e-03 1.12179490e-02 1.68269239e-02
      5.07478649e-03 4.80769249e-03 4.27350448e-03 1.46901710e-02
      1.01495730e-02 7.21153850e-03 7.21153850e-03 7.21153850e-03
      5.07478649e-03 6.67735050e-03 1.04166670e-02 4.54059849e-03
      8.54700897e-03 1.28205130e-02 1.01495730e-02 2.93803425e-03
      5.34188049e-03 4.80769249e-03 5.60897449e-03 8.81410297e-03
      4.80769249e-03 5.07478649e-03 5.60897449e-03 6.59722239e-02
      1.94978639e-02 1.14850430e-02 8.81410297e-03 5.60897449e-03
      3.20512825e-03 1.06837610e-02 9.61538497e-03 6.41025649e-03
      7.47863250e-03 4.00641048e-03 5.87606849e-03 8.01282097e-03
      8.27991497e-03 5.87606849e-03 9.61538497e-03 5.07478649e-03
      1.62927359e-02 3.20512825e-03 5.07478649e-03 1.25534190e-02
      8.27991497e-03 5.87606849e-03 1.73611119e-02 8.27991497e-03
      1.04166670e-02 6.41025649e-03 2.53739320e-02 7.74572650e-03
      1.04166670e-02 1.57585479e-02 4.54059849e-03 6.67735050e-03
      8.54700897e-03 8.54700897e-03 5.34188049e-03 8.54700897e-03
      4.00641048e-03 4.27350448e-03 1.49572650e-02 1.44230770e-02</_>
    <_>
      2.03972086e-02 5.36768639e-04 1.66398287e-02 1.07353730e-02
      4.83091781e-03 6.44122390e-03 1.01986043e-02 6.97799260e-03
      6.97799260e-03 3.70370373e-02 5.36768651e-03 6.97799260e-03
      1.71765964e-02 2.73752008e-02 3.22061195e-03 2.79119704e-02
      6.44122390e-03 1.28824478e-02 1.07353728e-03 1.07353730e-02
      1.07353730e-02 5.36768651e-03 3.22061195e-03 8.05152953e-03
      7.51476130e-03 4.83091781e-03 3.22061195e-03 6.44122390e-03
      1.71765964e-02 1.61030591e-02 8.05152953e-03 6.97799260e-03
      4.83091781e-03 4.83091781e-03 9.66183562e-03 1.44927539e-02
      4.29414911e-03 3.22061195e-03 4.29414911e-03 1.50295226e-02
      2.41545886e-02 4.83091781e-03 1.07353730e-02 2.95222756e-02
      4.29414911e-03 1.01986043e-02 4.29414911e-03 4.29414911e-03
      5.36768651e-03 1.28824478e-02 8.58829822e-03 6.97799260e-03
      3.22061195e-03 3.22061195e-03 9.66183562e-03 1.61030591e-02
      9.66183562e-03 3.22061195e-03 5.90445520e-03 3.70370373e-02
      1.98604409e-02 8.05152953e-03 9.66183562e-03 8.58829822e-03
      5.36768651e-03 3.32796574e-02 1.07353730e-02 8.05152953e-03
      1.23456791e-02 2.68384325e-03 3.75738065e-03 1.77133661e-02
      1.18089104e-02 4.83091781e-03 3.22061195e-03 8.05152953e-03
      1.07353730e-02 5.90445520e-03 6.44122390e-03 1.44927539e-02
      1.07353730e-02 1.12721417e-02 1.07353730e-02 1.07353730e-02
      1.07353730e-02 5.90445520e-03 1.82501338e-02 9.66183562e-03
      4.83091781e-03 6.44122390e-03 4.29414911e-03 2.68384325e-03
      5.36768651e-03 6.97799260e-03 5.90445520e-03 1.66398287e-02
      6.97799260e-03 1.50295226e-02 1.07353730e-02 8.05152953e-03</_>
    <_>
      1.85277909e-02 4.00600908e-03 1.10165244e-02 7.51126697e-03
      6.00901339e-03 6.50976459e-03 2.45368052e-02 6.50976459e-03
      1.55232847e-02 1.03655480e-01 4.00600908e-03 4.50676028e-03
      3.00450670e-03 4.00600908e-03 2.00300454e-03 1.22684024e-01
      1.00150227e-03 1.20180268e-02 1.00150227e-03 1.15172761e-02
      1.10165244e-02 7.01051578e-03 2.00300454e-03 5.00751147e-03
      4.00600908e-03 5.50826220e-03 2.50375574e-03 1.50225339e-02
      8.01201817e-03 1.65247880e-02 4.00600908e-03 6.00901339e-03
      1.30195292e-02 4.00600908e-03 9.51427128e-03 2.35353038e-02
      3.50525789e-03 5.50826220e-03 6.50976459e-03 1.40210316e-02
      1.40210316e-02 1.05157737e-02 3.50525789e-03 1.00150229e-02
      7.51126697e-03 4.00600908e-03 1.20180268e-02 5.00751147e-03
      6.00901339e-03 9.51427128e-03 7.01051578e-03 2.50375574e-03
      1.50225335e-03 1.00150227e-03 3.50525789e-03 1.70255378e-02
      2.50375574e-03 1.50225335e-03 8.01201817e-03 3.30495760e-02
      1.40210316e-02 5.00751147e-03 5.50826220e-03 1.50225335e-03
      3.50525789e-03 5.50826220e-03 8.51276889e-03 4.00600908e-03
      3.50525789e-03 4.50676028e-03 3.00450670e-03 1.45217823e-02
      1.15172761e-02 1.50225335e-03 8.01201817e-03 6.50976459e-03
      2.90435646e-02 3.00450670e-03 8.01201817e-03 1.25187784e-02
      3.00450670e-03 6.50976459e-03 3.20480727e-02 7.51126697e-03
      1.25187784e-02 6.00901339e-03 1.25187784e-02 6.00901339e-03
      7.01051578e-03 7.51126697e-03 1.50225335e-03 5.00751147e-03
      3.00450670e-03 3.00450670e-03 4.00600908e-03 9.51427128e-03
      3.00450670e-03 6.50976459e-03 9.01352055e-03 6.00901339e-03</_>
    <_>
      1.29310349e-02 4.31034481e-03 8.62068962e-03 4.78927186e-03
      5.26819937e-03 1.81992333e-02 9.09961667e-03 7.18390802e-03
      1.34099619e-02 6.46551698e-02 4.78927186e-03 7.18390802e-03
      9.09961667e-03 7.66283507e-03 5.74712642e-03 3.49616855e-02
      3.83141753e-03 1.34099619e-02 4.31034481e-03 1.29310349e-02
      6.22605346e-03 6.70498097e-03 4.78927186e-03 6.70498097e-03
      6.22605346e-03 4.78927186e-03 3.83141753e-03 6.22605346e-03
      1.29310349e-02 1.19731799e-02 6.70498097e-03 1.00574717e-02
      1.24521069e-02 6.70498097e-03 5.26819937e-03 2.44252868e-02
      9.57854372e-03 6.70498097e-03 8.14176258e-03 1.05363987e-02
      1.29310349e-02 3.35249049e-03 5.74712642e-03 1.48467431e-02
      1.10153258e-02 8.62068962e-03 1.48467431e-02 6.22605346e-03
      1.00574717e-02 7.18390802e-03 3.35249049e-03 4.78927186e-03
      3.83141753e-03 1.43678160e-03 1.91570877e-03 1.10153258e-02
      3.35249049e-03 2.39463593e-03 1.34099619e-02 4.45402302e-02
      1.81992333e-02 1.14942528e-02 1.34099619e-02 6.22605346e-03
      8.62068962e-03 1.58045981e-02 1.14942528e-02 7.66283507e-03
      9.09961667e-03 8.62068962e-03 7.66283507e-03 6.70498097e-03
      3.01724132e-02 3.35249049e-03 8.62068962e-03 8.62068962e-03
      1.34099619e-02 3.35249049e-03 9.09961667e-03 1.00574717e-02
      1.05363987e-02 1.38888890e-02 5.74712642e-03 6.22605346e-03
      1.14942528e-02 2.87356321e-03 3.44827585e-02 8.62068962e-03
      1.43678160e-02 8.14176258e-03 3.35249049e-03 5.26819937e-03
      7.18390802e-03 7.66283507e-03 4.78927186e-03 2.39463593e-03
      6.70498097e-03 7.66283507e-03 9.57854372e-03 9.09961667e-03</_>
    <_>
      1.46822203e-02 5.02815749e-03 8.24617874e-03 4.62590484e-03
      5.83266281e-03 1.06596947e-02 7.44167343e-03 6.63716812e-03
      7.44167343e-03 3.05711981e-02 4.42477874e-03 1.16653256e-02
      6.03378937e-03 1.26709575e-02 5.22928406e-03 1.02373287e-01
      5.43041015e-03 1.04585681e-02 2.41351570e-03 1.08608203e-02
      1.52855990e-02 3.41914734e-03 5.02815749e-03 5.22928406e-03
      3.21802101e-03 6.43604202e-03 5.43041015e-03 2.05148831e-02
      1.99115053e-02 5.83266281e-03 2.73531787e-02 8.64843093e-03
      1.60901044e-02 2.61464203e-03 1.52855990e-02 1.72968619e-02
      4.82703140e-03 4.22365265e-03 3.62027343e-03 1.72968619e-02
      7.44167343e-03 1.08608203e-02 9.05068405e-03 1.18664522e-02
      8.64843093e-03 6.23491546e-03 1.06596947e-02 6.43604202e-03
      1.16653256e-02 1.74979884e-02 3.82139976e-03 1.00563152e-03
      2.61464203e-03 5.63153671e-03 3.82139976e-03 1.00563150e-02
      5.22928406e-03 3.21802101e-03 5.43041015e-03 3.17779556e-02
      1.87047459e-02 7.84392562e-03 8.44730530e-03 4.22365265e-03
      3.41914734e-03 8.64843093e-03 6.03378937e-03 3.01689468e-03
      9.05068405e-03 5.02815749e-03 5.02815749e-03 4.42477874e-03
      1.02574416e-02 2.21238937e-03 8.64843093e-03 3.01689468e-03
      1.48833469e-02 1.81013672e-03 3.82139976e-03 1.34754628e-02
      6.83829468e-03 7.44167343e-03 2.27272734e-02 1.54867256e-02
      1.22687044e-02 6.83829468e-03 2.07160097e-02 6.23491546e-03
      8.24617874e-03 1.26709575e-02 4.02252609e-03 9.65406280e-03
      4.42477874e-03 1.10619469e-02 2.61464203e-03 1.56878512e-02
      3.41914734e-03 6.43604202e-03 1.22687044e-02 1.56878512e-02</_>
    <_>
      1.03317024e-02 8.70038103e-03 1.41381184e-02 1.08754756e-02
      7.61283329e-03 1.25067970e-02 7.34094623e-03 1.22349104e-02
      6.79717259e-03 2.12071780e-02 5.98151190e-03 9.78792831e-03
      5.98151190e-03 1.19630238e-02 8.70038103e-03 4.07830328e-02
      1.22349104e-02 1.14192497e-02 9.51604173e-03 1.52256666e-02
      1.52256666e-02 7.34094623e-03 9.51604173e-03 9.78792831e-03
      8.70038103e-03 8.70038103e-03 7.88472034e-03 1.46818925e-02
      9.24415421e-03 1.03317024e-02 1.22349104e-02 9.51604173e-03
      1.33224577e-02 1.14192497e-02 1.06035890e-02 1.27786845e-02
      1.22349104e-02 5.70962485e-03 7.61283329e-03 8.70038103e-03
      1.14192497e-02 1.33224577e-02 7.06905918e-03 6.25339849e-03
      8.42849351e-03 9.51604173e-03 1.06035890e-02 7.06905918e-03
      1.95758566e-02 1.14192497e-02 6.52528554e-03 8.42849351e-03
      1.06035890e-02 7.88472034e-03 5.70962485e-03 8.97226762e-03
      8.42849351e-03 8.70038103e-03 4.89396416e-03 2.17509512e-02
      4.35019052e-03 1.27786845e-02 8.70038103e-03 7.34094623e-03
      7.61283329e-03 5.70962485e-03 9.51604173e-03 4.89396416e-03
      8.70038103e-03 7.06905918e-03 8.97226762e-03 5.43773780e-03
      8.70038103e-03 4.89396416e-03 1.25067970e-02 6.52528554e-03
      6.25339849e-03 6.25339849e-03 6.79717259e-03 1.00598149e-02
      1.22349104e-02 5.98151190e-03 1.95758566e-02 1.16911363e-02
      7.34094623e-03 1.14192497e-02 1.11473631e-02 1.22349104e-02
      6.52528554e-03 5.43773780e-03 9.78792831e-03 9.78792831e-03
      7.61283329e-03 1.06035890e-02 6.52528554e-03 1.68569870e-02
      8.15660693e-03 7.06905918e-03 6.79717259e-03 1.46818925e-02</_>
    <_>
      1.39328688e-02 9.18302685e-03 1.20329326e-02 4.43318533e-03
      6.96643442e-03 5.38315391e-03 7.28309061e-03 7.91640300e-03
      1.26662441e-02 6.52311593e-02 5.06649772e-03 5.06649772e-03
      8.86637066e-03 1.04496516e-02 5.69981011e-03 3.92653570e-02
      5.69981011e-03 1.17162764e-02 3.48321721e-03 1.36162126e-02
      1.61494613e-02 6.01646630e-03 5.69981011e-03 1.01329954e-02
      7.91640300e-03 1.10829640e-02 7.28309061e-03 1.83660537e-02
      1.01329954e-02 1.26662441e-02 1.89993661e-02 8.23305920e-03
      1.58328060e-02 4.43318533e-03 1.10829640e-02 1.58328060e-02
      5.06649772e-03 6.01646630e-03 5.69981011e-03 6.01646630e-03
      1.10829640e-02 1.07663078e-02 7.91640300e-03 1.80493984e-02
      1.01329954e-02 6.33312203e-03 1.36162126e-02 4.74984152e-03
      1.42495250e-02 9.81633924e-03 8.23305920e-03 6.64977822e-03
      4.43318533e-03 6.01646630e-03 9.49968304e-03 1.17162764e-02
      7.59974681e-03 6.96643442e-03 5.38315391e-03 2.81823948e-02
      8.23305920e-03 9.81633924e-03 9.18302685e-03 5.69981011e-03
      5.69981011e-03 7.59974681e-03 1.23495888e-02 5.06649772e-03
      1.07663078e-02 1.36162126e-02 6.01646630e-03 1.13996202e-02
      6.96643442e-03 5.38315391e-03 1.20329326e-02 6.01646630e-03
      9.49968304e-03 8.23305920e-03 7.28309061e-03 1.70994308e-02
      6.33312203e-03 9.81633924e-03 9.81633924e-03 1.13996202e-02
      5.69981011e-03 1.17162764e-02 1.10829640e-02 7.59974681e-03
      3.48321721e-03 5.06649772e-03 8.54971539e-03 6.96643442e-03
      6.33312203e-03 9.81633924e-03 8.86637066e-03 1.20329326e-02
      6.01646630e-03 7.28309061e-03 1.04496516e-02 5.69981011e-03</_>
    <_>
      9.01187491e-03 1.15564037e-02 9.86005086e-03 7.63358781e-03
      8.90585221e-03 8.16369802e-03 1.43129770e-02 1.19804917e-02
      7.95165356e-03 4.51653935e-02 7.63358781e-03 1.07082278e-02
      9.11789667e-03 6.14927895e-03 9.11789667e-03 2.30067857e-02
      9.75402910e-03 1.29346903e-02 8.90585221e-03 1.28286686e-02
      7.73961004e-03 9.11789667e-03 6.57336740e-03 1.07082278e-02
      8.48176423e-03 9.96607263e-03 9.54198465e-03 9.01187491e-03
      8.26971978e-03 1.09202713e-02 4.77099232e-03 8.69380869e-03
      9.54198465e-03 1.09202713e-02 7.10347760e-03 1.09202713e-02
      9.22391843e-03 8.05767626e-03 8.90585221e-03 9.96607263e-03
      1.39949108e-02 1.00720953e-02 8.16369802e-03 1.09202713e-02
      1.07082278e-02 1.07082278e-02 1.25106024e-02 8.69380869e-03
      9.01187491e-03 5.19508077e-03 6.14927895e-03 9.96607263e-03
      1.22985579e-02 9.01187491e-03 8.26971978e-03 1.06022051e-02
      8.69380869e-03 7.95165356e-03 1.36768445e-02 1.61153525e-02
      1.14503819e-02 1.06022051e-02 6.89143362e-03 9.01187491e-03
      1.10262930e-02 8.48176423e-03 1.17684482e-02 9.64800641e-03
      1.14503819e-02 9.54198465e-03 6.67938916e-03 7.84563180e-03
      1.18744699e-02 7.63358781e-03 9.54198465e-03 8.16369802e-03
      1.64334178e-02 8.79983045e-03 9.75402910e-03 1.15564037e-02
      9.54198465e-03 8.16369802e-03 6.89143362e-03 6.99745538e-03
      9.22391843e-03 7.20949937e-03 1.12383375e-02 1.01781171e-02
      1.25106024e-02 8.58778600e-03 9.32994019e-03 9.01187491e-03
      7.84563180e-03 7.42154382e-03 1.01781171e-02 9.43596289e-03
      9.11789667e-03 7.20949937e-03 7.52756558e-03 8.37574247e-03</_>
    <_>
      1.90413650e-02 9.19238385e-03 1.37885753e-02 1.24753779e-02
      1.18187787e-02 9.19238385e-03 3.28299403e-03 4.59619192e-03
      1.90413650e-02 1.96979637e-03 8.53578467e-03 1.31319761e-02
      8.53578467e-03 1.31319761e-02 1.18187787e-02 3.93959275e-03
      1.31319761e-02 1.70715693e-02 1.37885753e-02 9.19238385e-03
      7.22258678e-03 1.18187787e-02 9.19238385e-03 1.05055813e-02
      8.53578467e-03 1.31319761e-02 7.87918549e-03 6.56598806e-03
      1.77281685e-02 1.77281685e-02 6.56598806e-03 1.11621795e-02
      1.24753779e-02 9.84898210e-03 8.53578467e-03 1.83847677e-02
      1.05055813e-02 8.53578467e-03 4.59619192e-03 4.59619192e-03
      1.05055813e-02 9.19238385e-03 7.87918549e-03 3.28299403e-03
      8.53578467e-03 4.59619192e-03 1.77281685e-02 9.19238385e-03
      8.53578467e-03 3.28299403e-03 8.53578467e-03 1.18187787e-02
      7.22258678e-03 6.56598806e-03 2.62639532e-03 9.19238385e-03
      1.24753779e-02 7.22258678e-03 8.53578467e-03 3.08601446e-02
      1.11621795e-02 1.11621795e-02 1.64149702e-02 1.11621795e-02
      1.11621795e-02 1.18187787e-02 1.44451736e-02 7.87918549e-03
      1.11621795e-02 6.56598806e-03 7.87918549e-03 1.18187787e-02
      1.05055813e-02 6.56598806e-03 7.22258678e-03 5.25279064e-03
      7.22258678e-03 5.90938935e-03 9.19238385e-03 7.87918549e-03
      1.24753779e-02 1.18187787e-02 2.62639532e-03 6.56598806e-03
      7.22258678e-03 7.87918549e-03 1.64149702e-02 6.56598806e-03
      7.87918549e-03 9.84898210e-03 5.90938935e-03 1.51017727e-02
      9.19238385e-03 1.57583710e-02 7.22258678e-03 7.22258678e-03
      6.56598806e-03 1.37885753e-02 1.37885753e-02 1.37885753e-02</_>
    <_>
      9.50389635e-03 9.31381900e-03 8.36342946e-03 1.23550659e-02
      8.93366244e-03 1.33054554e-02 7.03288335e-03 8.55350681e-03
      7.60311726e-03 3.49743403e-02 7.60311726e-03 8.17335118e-03
      8.93366244e-03 1.40657667e-02 1.29252998e-02 3.25033255e-02
      1.12145981e-02 7.41303945e-03 6.84280554e-03 7.60311726e-03
      1.08344425e-02 8.93366244e-03 8.55350681e-03 7.22296163e-03
      6.84280554e-03 1.00741303e-02 9.12374072e-03 1.36856111e-02
      8.93366244e-03 1.12145981e-02 1.29252998e-02 1.25451433e-02
      7.98327290e-03 1.06443642e-02 1.10245198e-02 9.12374072e-03
      9.88405291e-03 9.31381900e-03 6.46264991e-03 6.08249381e-03
      9.88405291e-03 1.19749093e-02 8.93366244e-03 2.68009882e-02
      9.31381900e-03 7.98327290e-03 6.84280554e-03 9.50389635e-03
      1.12145981e-02 5.51225990e-03 5.89241600e-03 8.74358509e-03
      9.31381900e-03 7.98327290e-03 8.36342946e-03 8.55350681e-03
      1.10245198e-02 5.89241600e-03 6.27257163e-03 1.23550659e-02
      9.69397463e-03 1.36856111e-02 7.60311726e-03 9.50389635e-03
      8.36342946e-03 7.98327290e-03 7.03288335e-03 8.55350681e-03
      1.12145981e-02 1.17848320e-02 1.14046764e-02 7.22296163e-03
      7.03288335e-03 7.98327290e-03 8.74358509e-03 8.74358509e-03
      5.51225990e-03 8.55350681e-03 1.00741303e-02 1.17848320e-02
      1.55863902e-02 7.79319508e-03 8.74358509e-03 1.31153772e-02
      3.61148082e-03 9.12374072e-03 5.13210427e-03 1.06443642e-02
      7.79319508e-03 7.03288335e-03 1.40657667e-02 1.14046764e-02
      9.12374072e-03 1.12145981e-02 6.46264991e-03 1.34955328e-02
      7.98327290e-03 8.55350681e-03 7.41303945e-03 1.82474814e-02</_>
    <_>
      9.60768573e-03 7.76621280e-03 1.21697355e-02 7.28582870e-03
      9.84787848e-03 7.28582870e-03 7.68614886e-03 1.04083270e-02
      8.88710935e-03 2.98638903e-02 5.04403515e-03 9.84787848e-03
      7.52602099e-03 1.06485188e-02 7.76621280e-03 1.02001600e-01
      8.16653296e-03 1.15292231e-02 6.72538020e-03 9.36749391e-03
      1.54523617e-02 8.24659690e-03 8.08646902e-03 7.60608492e-03
      6.40512398e-03 8.40672571e-03 8.40672571e-03 1.91353075e-02
      8.64691753e-03 1.11289034e-02 9.76781454e-03 8.64691753e-03
      1.28102480e-02 6.96557248e-03 1.50520420e-02 1.12089673e-02
      8.72698147e-03 6.00480381e-03 6.80544414e-03 1.44115295e-02
      8.24659690e-03 9.52762179e-03 7.20576476e-03 7.28582870e-03
      8.88710935e-03 8.24659690e-03 1.04883909e-02 5.84467594e-03
      7.68614886e-03 1.76941548e-02 5.20416349e-03 6.00480381e-03
      8.40672571e-03 6.16493216e-03 5.44435531e-03 8.64691753e-03
      6.88550854e-03 6.08486775e-03 5.76461153e-03 2.12970376e-02
      9.84787848e-03 9.20736603e-03 7.12570036e-03 8.56685359e-03
      7.28582870e-03 6.40512398e-03 1.05684549e-02 6.32506004e-03
      9.12730210e-03 7.20576476e-03 5.52441971e-03 4.88390727e-03
      7.84627721e-03 7.04563642e-03 1.04083270e-02 7.12570036e-03
      7.04563642e-03 5.52441971e-03 6.56525232e-03 9.76781454e-03
      6.32506004e-03 6.40512398e-03 1.65732577e-02 1.16092870e-02
      9.84787848e-03 8.32666177e-03 1.24099283e-02 9.04723816e-03
      8.88710935e-03 7.36589264e-03 8.00640509e-03 1.05684549e-02
      7.12570036e-03 5.68454759e-03 6.48518838e-03 1.52922338e-02
      6.40512398e-03 4.64371499e-03 9.60768573e-03 1.36108883e-02</_>
    <_>
      8.41662288e-03 6.83850609e-03 4.20831144e-03 1.10468175e-02
      5.78642823e-03 1.26249343e-02 9.46870074e-03 5.78642823e-03
      7.36454502e-03 1.94108367e-01 3.15623358e-03 5.26038930e-03
      1.26249343e-02 1.26249343e-02 3.68227251e-03 4.31351922e-02
      3.68227251e-03 1.68332458e-02 2.63019465e-03 6.83850609e-03
      5.26038930e-03 4.20831144e-03 2.63019465e-03 4.73435037e-03
      3.68227251e-03 2.10415572e-03 4.20831144e-03 9.46870074e-03
      7.36454502e-03 4.20831144e-03 3.68227251e-03 6.31246716e-03
      7.36454502e-03 4.73435037e-03 7.36454502e-03 1.15728565e-02
      6.83850609e-03 5.78642823e-03 7.89058395e-03 7.36454502e-03
      2.15675961e-02 9.99473967e-03 4.73435037e-03 4.31351922e-02
      4.20831144e-03 3.68227251e-03 1.73592847e-02 5.78642823e-03
      1.52551290e-02 5.26038930e-03 4.20831144e-03 5.26038930e-03
      3.15623358e-03 9.99473967e-03 6.31246716e-03 1.20988954e-02
      4.73435037e-03 2.10415572e-03 6.31246716e-03 2.26196740e-02
      1.05207786e-02 1.47290900e-02 5.78642823e-03 4.20831144e-03
      5.78642823e-03 1.94634404e-02 7.36454502e-03 5.78642823e-03
      8.94266181e-03 4.20831144e-03 3.15623358e-03 4.73435037e-03
      1.78853236e-02 4.20831144e-03 8.41662288e-03 4.73435037e-03
      9.99473967e-03 3.15623358e-03 7.89058395e-03 5.78642823e-03
      6.83850609e-03 5.26038930e-03 5.78642823e-03 4.73435037e-03
      8.94266181e-03 7.36454502e-03 1.26249343e-02 8.94266181e-03
      6.83850609e-03 2.63019465e-03 5.78642823e-03 8.41662288e-03
      5.26038930e-03 6.31246716e-03 8.41662288e-03 6.31246716e-03
      4.73435037e-03 1.05207786e-02 8.94266181e-03 7.89058395e-03</_>
    <_>
      1.03393430e-02 1.12672318e-02 7.68822897e-03 9.54400841e-03
      1.31230112e-02 8.74867477e-03 9.54400841e-03 8.35100748e-03
      8.48356355e-03 9.80912000e-02 4.90455981e-03 8.08589626e-03
      7.82078505e-03 1.03393430e-02 8.48356355e-03 8.28472972e-02
      7.29056215e-03 1.16648991e-02 6.09756075e-03 1.02067869e-02
      6.89289486e-03 5.43478271e-03 5.43478271e-03 6.62778364e-03
      5.43478271e-03 8.08589626e-03 6.23011682e-03 7.68822897e-03
      7.55567336e-03 7.42311776e-03 3.44644743e-03 5.83244953e-03
      1.47136794e-02 7.29056215e-03 5.16967149e-03 1.02067869e-02
      1.02067869e-02 6.62778364e-03 8.61611869e-03 6.49522804e-03
      6.49522804e-03 1.32555673e-02 6.09756075e-03 8.21845140e-03
      9.27889720e-03 9.54400841e-03 1.37857897e-02 6.09756075e-03
      1.06044542e-02 5.16967149e-03 5.30222710e-03 6.62778364e-03
      5.56733832e-03 7.15800654e-03 8.08589626e-03 6.09756075e-03
      7.95334019e-03 5.16967149e-03 7.29056215e-03 2.86320262e-02
      9.41145327e-03 9.54400841e-03 5.56733832e-03 5.03711542e-03
      6.23011682e-03 4.90455981e-03 1.04718981e-02 7.55567336e-03
      9.14634112e-03 7.68822897e-03 6.62778364e-03 4.77200421e-03
      1.69671271e-02 5.03711542e-03 1.06044542e-02 5.83244953e-03
      1.16648991e-02 4.63944860e-03 9.67656448e-03 1.39183458e-02
      7.68822897e-03 9.94167570e-03 1.69671271e-02 4.77200421e-03
      6.76033925e-03 7.15800654e-03 1.55090140e-02 8.74867477e-03
      8.35100748e-03 9.14634112e-03 6.36267243e-03 7.55567336e-03
      8.08589626e-03 7.02545047e-03 5.43478271e-03 6.49522804e-03
      6.62778364e-03 7.55567336e-03 1.15323439e-02 8.21845140e-03</_>
    <_>
      1.00353444e-02 1.43903056e-02 8.20499845e-03 8.83615203e-03
      1.30648827e-02 9.08861402e-03 1.21812671e-02 1.07296137e-02
      9.02549829e-03 5.78767993e-02 7.70007586e-03 9.27796029e-03
      8.20499845e-03 7.44761433e-03 1.07927294e-02 4.72734161e-02
      1.15501136e-02 1.07927294e-02 1.07296137e-02 1.09189600e-02
      8.39434471e-03 1.01615749e-02 1.07927294e-02 9.08861402e-03
      7.95253739e-03 8.52057524e-03 9.84599814e-03 5.42792212e-03
      9.65665281e-03 1.26861902e-02 3.15576885e-03 7.76319113e-03
      1.06033832e-02 8.64680670e-03 5.23857633e-03 1.07296137e-02
      8.58369097e-03 8.45746044e-03 8.20499845e-03 7.95253739e-03
      5.30169159e-03 1.46427667e-02 1.00353444e-02 6.24842197e-03
      7.19515281e-03 8.33122991e-03 1.14869978e-02 1.02246907e-02
      1.11714210e-02 5.93284518e-03 4.54430701e-03 7.57384486e-03
      8.70992150e-03 8.14188365e-03 8.01565219e-03 5.74349891e-03
      7.32138334e-03 6.75334502e-03 6.69022975e-03 1.80509966e-02
      1.07927294e-02 1.06033832e-02 4.73365327e-03 8.20499845e-03
      9.97222960e-03 3.91315343e-03 1.36960363e-02 9.59353708e-03
      1.11083062e-02 1.23706134e-02 7.95253739e-03 6.05907617e-03
      1.23706134e-02 6.05907617e-03 1.01615749e-02 7.76319113e-03
      1.05402675e-02 8.26811418e-03 8.96238349e-03 1.30017670e-02
      8.01565219e-03 8.83615203e-03 1.19919209e-02 4.85988380e-03
      7.70007586e-03 1.05402675e-02 1.31911132e-02 1.31279975e-02
      1.16763441e-02 9.02549829e-03 1.03509212e-02 1.16763441e-02
      9.15172976e-03 6.56399876e-03 9.53042135e-03 5.55415312e-03
      8.77303723e-03 7.19515281e-03 6.81646029e-03 7.19515281e-03</_>
    <_>
      9.90098994e-03 1.35680232e-02 1.13678034e-02 6.41730847e-03
      7.88412150e-03 6.87568774e-03 6.96736341e-03 1.30179683e-02
      7.33406655e-03 2.99779978e-02 7.33406655e-03 1.11844521e-02
      9.62596294e-03 6.87568774e-03 1.30179683e-02 1.06343972e-02
      1.02676935e-02 8.98423139e-03 1.14594791e-02 1.10927755e-02
      1.24679133e-02 1.02676935e-02 8.34250078e-03 1.03593692e-02
      1.05427206e-02 8.70920438e-03 9.07590799e-03 8.98423139e-03
      9.53428634e-03 9.80931427e-03 1.10927755e-02 1.32013205e-02
      9.90098994e-03 1.03593692e-02 1.10010998e-02 9.44261067e-03
      7.60909403e-03 8.25082511e-03 9.99266561e-03 8.70920438e-03
      8.15914944e-03 1.33846719e-02 9.80931427e-03 1.33846719e-02
      1.18261827e-02 9.35093500e-03 9.80931427e-03 9.99266561e-03
      1.06343972e-02 9.16758366e-03 1.09094242e-02 9.80931427e-03
      1.22845620e-02 1.15511548e-02 1.06343972e-02 1.03593692e-02
      8.61752871e-03 7.70077016e-03 7.33406655e-03 1.50348367e-02
      8.61752871e-03 1.40264025e-02 8.06747377e-03 9.71763860e-03
      9.16758366e-03 6.78401161e-03 9.71763860e-03 8.43417645e-03
      1.05427206e-02 9.07590799e-03 9.62596294e-03 9.16758366e-03
      7.79244583e-03 9.53428634e-03 9.71763860e-03 1.05427206e-02
      7.24239089e-03 1.10010998e-02 9.35093500e-03 1.06343972e-02
      1.10010998e-02 6.69233594e-03 7.97579717e-03 1.13678034e-02
      9.53428634e-03 9.99266561e-03 9.62596294e-03 1.39347268e-02
      9.53428634e-03 9.35093500e-03 1.07260728e-02 8.52585305e-03
      9.25925933e-03 8.52585305e-03 1.13678034e-02 7.97579717e-03
      8.89255572e-03 8.61752871e-03 6.87568774e-03 1.02676935e-02</_>
    <_>
      1.20210368e-02 9.76709276e-03 1.42749809e-02 6.76183309e-03
      9.76709276e-03 1.12697221e-02 9.39143542e-03 7.51314778e-03
      8.64011981e-03 3.98196839e-02 7.51314778e-03 8.26446246e-03
      9.01577715e-03 1.16453795e-02 9.76709276e-03 7.02479333e-02
      1.16453795e-02 1.23966942e-02 4.50788857e-03 9.76709276e-03
      1.23966942e-02 5.25920372e-03 5.25920372e-03 6.01051841e-03
      6.01051841e-03 9.01577715e-03 6.38617575e-03 1.08940648e-02
      9.39143542e-03 1.01427501e-02 1.08940648e-02 9.01577715e-03
      1.38993235e-02 6.76183309e-03 7.13749044e-03 1.16453795e-02
      3.38091655e-03 3.75657389e-03 4.88354638e-03 9.39143542e-03
      1.05184074e-02 1.16453795e-02 5.25920372e-03 6.38617575e-03
      8.26446246e-03 4.13223123e-03 1.46506382e-02 7.51314778e-03
      1.69045832e-02 7.88880512e-03 3.75657389e-03 5.25920372e-03
      5.63486107e-03 9.01577715e-03 8.64011981e-03 6.76183309e-03
      5.25920372e-03 5.25920372e-03 7.51314778e-03 4.65815179e-02
      1.20210368e-02 9.76709276e-03 6.76183309e-03 5.25920372e-03
      3.38091655e-03 7.51314778e-03 1.01427501e-02 7.13749044e-03
      6.76183309e-03 7.51314778e-03 5.63486107e-03 9.01577715e-03
      1.16453795e-02 4.50788857e-03 7.88880512e-03 4.13223123e-03
      1.16453795e-02 5.63486107e-03 7.88880512e-03 9.39143542e-03
      6.76183309e-03 5.63486107e-03 2.70473324e-02 9.76709276e-03
      9.01577715e-03 9.39143542e-03 2.02855002e-02 1.20210368e-02
      8.64011981e-03 7.88880512e-03 8.26446246e-03 7.13749044e-03
      7.13749044e-03 6.76183309e-03 4.50788857e-03 7.51314778e-03
      5.63486107e-03 9.01577715e-03 2.06611566e-02 1.08940648e-02</_>
    <_>
      1.41256694e-02 8.11820105e-03 1.33138495e-02 9.25474893e-03
      6.65692473e-03 1.02289328e-02 7.79347308e-03 8.60529300e-03
      1.42880334e-02 3.03620715e-02 6.16983278e-03 9.74184088e-03
      7.95583706e-03 1.88342258e-02 5.68274083e-03 4.27017361e-02
      7.95583706e-03 1.15278456e-02 6.33219676e-03 1.18525736e-02
      1.63987651e-02 6.81928871e-03 4.22146451e-03 6.98165270e-03
      6.65692473e-03 6.49456074e-03 8.60529300e-03 1.28267575e-02
      8.60529300e-03 9.90420487e-03 7.95583706e-03 7.95583706e-03
      1.72105860e-02 6.65692473e-03 6.65692473e-03 1.46127623e-02
      5.52037684e-03 6.00746879e-03 5.84510481e-03 9.57947690e-03
      1.38009414e-02 1.65611301e-02 6.00746879e-03 2.04578657e-02
      5.35801286e-03 4.54619247e-03 1.46127623e-02 6.16983278e-03
      1.75353140e-02 9.74184088e-03 7.79347308e-03 5.68274083e-03
      5.84510481e-03 9.25474893e-03 6.65692473e-03 1.15278456e-02
      1.07160257e-02 4.54619247e-03 5.03328443e-03 3.99415493e-02
      8.93002097e-03 2.06202306e-02 7.14401668e-03 6.81928871e-03
      3.89673654e-03 1.05536617e-02 1.20149376e-02 5.68274083e-03
      8.11820105e-03 8.44292901e-03 5.19564888e-03 5.19564888e-03
      8.60529300e-03 4.54619247e-03 1.26643935e-02 4.05910052e-03
      1.07160257e-02 4.05910052e-03 1.20149376e-02 1.42880334e-02
      9.41711292e-03 5.52037684e-03 1.10407537e-02 1.08783897e-02
      9.09238495e-03 9.41711292e-03 1.57493092e-02 1.02289328e-02
      6.00746879e-03 9.41711292e-03 8.60529300e-03 1.08783897e-02
      6.49456074e-03 9.41711292e-03 3.57200834e-03 1.18525736e-02
      7.14401668e-03 4.22146451e-03 9.57947690e-03 9.09238495e-03</_>
    <_>
      1.00562284e-02 8.97491351e-03 9.94809717e-03 6.37975801e-03
      8.10986198e-03 1.09212799e-02 1.37326987e-02 1.09212799e-02
      1.09212799e-02 3.03849485e-02 6.70415210e-03 1.43814879e-02
      8.32612440e-03 7.02854665e-03 9.73183382e-03 5.70934266e-02
      8.75865016e-03 1.01643596e-02 8.32612440e-03 1.07050175e-02
      1.23269893e-02 8.86678230e-03 7.56920408e-03 8.10986198e-03
      6.81228377e-03 7.46107288e-03 8.10986198e-03 9.29930806e-03
      1.00562284e-02 1.09212799e-02 3.67647060e-03 9.51557048e-03
      1.05968863e-02 7.89359864e-03 1.01643596e-02 1.49221458e-02
      8.10986198e-03 7.89359864e-03 7.78546697e-03 1.36245675e-02
      9.08304472e-03 1.29757784e-02 8.21799319e-03 6.81228377e-03
      8.65051895e-03 1.08131487e-02 1.28676472e-02 7.13667832e-03
      1.07050175e-02 1.16782011e-02 5.83910057e-03 6.59602089e-03
      1.09212799e-02 7.56920408e-03 7.56920408e-03 7.89359864e-03
      7.46107288e-03 5.40657435e-03 7.89359864e-03 2.20588241e-02
      9.08304472e-03 1.22188581e-02 8.54238775e-03 7.13667832e-03
      8.86678230e-03 5.29844314e-03 1.13538066e-02 7.67733576e-03
      1.04887541e-02 8.54238775e-03 8.32612440e-03 6.70415210e-03
      1.10294120e-02 6.59602089e-03 8.54238775e-03 6.81228377e-03
      1.54628027e-02 7.56920408e-03 8.54238775e-03 1.18944636e-02
      6.81228377e-03 9.08304472e-03 1.80579592e-02 6.92041544e-03
      1.16782011e-02 8.21799319e-03 1.28676472e-02 9.29930806e-03
      9.94809717e-03 8.75865016e-03 7.67733576e-03 8.54238775e-03
      9.73183382e-03 7.89359864e-03 5.94723178e-03 8.32612440e-03
      6.70415210e-03 6.70415210e-03 9.62370262e-03 1.30839096e-02</_>
    <_>
      1.00104762e-02 7.68245850e-03 1.29204979e-02 6.63485052e-03
      8.49726424e-03 1.02432780e-02 8.03166069e-03 9.89407487e-03
      6.28564786e-03 2.57245954e-02 5.00523811e-03 1.40845068e-02
      7.68245850e-03 1.08252820e-02 6.40204875e-03 8.98614824e-02
      8.14806204e-03 1.11744851e-02 4.88883723e-03 8.03166069e-03
      2.23489702e-02 7.44965672e-03 6.40204875e-03 6.28564786e-03
      6.63485052e-03 1.12908855e-02 8.26446246e-03 1.86241418e-02
      9.66127310e-03 9.42847133e-03 8.38086382e-03 9.31207091e-03
      1.22220926e-02 9.89407487e-03 1.68781281e-02 1.09416833e-02
      5.35444077e-03 5.93644520e-03 7.10045407e-03 1.00104762e-02
      8.84646736e-03 1.30368993e-02 6.51844963e-03 7.21685495e-03
      8.14806204e-03 8.38086382e-03 1.24548944e-02 5.82004432e-03
      1.40845068e-02 2.03701556e-02 5.93644520e-03 4.88883723e-03
      6.75125141e-03 7.68245850e-03 7.56605761e-03 7.10045407e-03
      5.35444077e-03 5.35444077e-03 6.63485052e-03 1.66453272e-02
      1.04760798e-02 1.31532997e-02 8.03166069e-03 7.56605761e-03
      5.93644520e-03 6.51844963e-03 1.01268766e-02 3.72482836e-03
      1.08252820e-02 8.96286778e-03 7.56605761e-03 4.53963457e-03
      8.96286778e-03 4.88883723e-03 8.38086382e-03 6.16924698e-03
      9.42847133e-03 5.12163900e-03 9.31207091e-03 9.66127310e-03
      7.91526027e-03 7.91526027e-03 1.60633214e-02 1.12908855e-02
      8.49726424e-03 7.91526027e-03 1.30368993e-02 9.31207091e-03
      9.31207091e-03 8.14806204e-03 6.16924698e-03 1.08252820e-02
      6.51844963e-03 7.10045407e-03 6.98405318e-03 1.04760798e-02
      5.82004432e-03 5.35444077e-03 1.14072869e-02 1.73437316e-02</_>
    <_>
      8.92105699e-03 1.29607813e-02 7.91112613e-03 1.39707122e-02
      7.06951693e-03 1.02676321e-02 1.06042754e-02 9.08937864e-03
      7.57448236e-03 5.94176054e-02 6.22790772e-03 1.02676321e-02
      1.32974247e-02 1.12775629e-02 7.91112613e-03 4.81400453e-02
      1.17825279e-02 5.72294230e-03 1.02676321e-02 1.26241371e-02
      1.06042754e-02 8.58441368e-03 6.22790772e-03 9.93098784e-03
      9.93098784e-03 9.08937864e-03 1.24558154e-02 5.89126395e-03
      7.91112613e-03 1.07725970e-02 5.38629852e-03 1.11092413e-02
      1.11092413e-02 1.22874938e-02 8.24776944e-03 1.34657463e-02
      1.56539306e-02 8.92105699e-03 8.41609202e-03 7.40616070e-03
      7.57448236e-03 1.09409187e-02 6.90119527e-03 9.76266619e-03
      8.41609202e-03 7.91112613e-03 8.41609202e-03 8.07944778e-03
      1.24558154e-02 9.25770029e-03 7.06951693e-03 8.75273533e-03
      7.91112613e-03 1.21191721e-02 7.40616070e-03 5.38629852e-03
      8.58441368e-03 6.73287315e-03 7.06951693e-03 1.78421140e-02
      7.23783858e-03 1.51489647e-02 6.56455150e-03 7.74280401e-03
      7.23783858e-03 5.38629852e-03 1.09409187e-02 5.89126395e-03
      1.00993095e-02 7.40616070e-03 6.56455150e-03 5.72294230e-03
      1.07725970e-02 5.04965475e-03 1.12775629e-02 9.76266619e-03
      6.39622938e-03 4.88133309e-03 1.09409187e-02 1.49806431e-02
      9.42602288e-03 6.90119527e-03 9.08937864e-03 8.07944778e-03
      6.39622938e-03 1.14458846e-02 8.58441368e-03 1.00993095e-02
      7.23783858e-03 1.02676321e-02 8.75273533e-03 1.07725970e-02
      1.09409187e-02 8.92105699e-03 5.89126395e-03 6.56455150e-03
      9.08937864e-03 8.07944778e-03 6.39622938e-03 9.76266619e-03</_>
    <_>
      1.16235474e-02 1.01237344e-02 1.53730782e-02 9.56130493e-03
      8.81139841e-03 1.16235474e-02 4.87439055e-03 1.49981249e-02
      1.33108357e-02 1.38732661e-02 6.56167977e-03 9.37382784e-03
      8.81139841e-03 1.16235474e-02 8.81139841e-03 2.79340073e-02
      9.93625820e-03 1.38732661e-02 9.37382784e-03 9.93625820e-03
      1.49981249e-02 9.37382784e-03 7.87401572e-03 1.01237344e-02
      8.99887551e-03 1.34983128e-02 9.74878110e-03 8.43644515e-03
      1.08736409e-02 9.18635167e-03 1.01237344e-02 9.18635167e-03
      1.34983128e-02 8.62392224e-03 1.04986876e-02 8.99887551e-03
      8.24896898e-03 7.12410966e-03 7.49906246e-03 9.56130493e-03
      6.56167977e-03 1.19984997e-02 8.24896898e-03 6.37420313e-03
      9.74878110e-03 1.23734530e-02 8.62392224e-03 1.14360703e-02
      1.38732661e-02 8.62392224e-03 1.10611171e-02 9.93625820e-03
      1.08736409e-02 9.74878110e-03 9.56130493e-03 8.99887551e-03
      8.43644515e-03 7.31158582e-03 7.68653909e-03 1.46231716e-02
      1.03112115e-02 1.34983128e-02 6.93663303e-03 1.23734530e-02
      6.93663303e-03 9.74878110e-03 1.03112115e-02 6.56167977e-03
      1.16235474e-02 9.56130493e-03 1.01237344e-02 6.56167977e-03
      6.18672650e-03 7.31158582e-03 8.62392224e-03 1.04986876e-02
      7.31158582e-03 1.12485941e-02 6.18672650e-03 8.62392224e-03
      1.14360703e-02 9.56130493e-03 1.06861638e-02 8.81139841e-03
      1.18110236e-02 1.25609301e-02 1.08736409e-02 1.51856020e-02
      8.06149188e-03 7.87401572e-03 1.03112115e-02 1.01237344e-02
      6.18672650e-03 8.43644515e-03 7.68653909e-03 4.31196112e-03
      1.04986876e-02 9.93625820e-03 1.12485941e-02 1.08736409e-02</_>
    <_>
      8.38354696e-03 1.46712074e-02 9.69347637e-03 1.07414201e-02
      1.20513495e-02 9.43149067e-03 4.71574534e-03 1.46712074e-02
      1.38852503e-02 2.38407124e-02 8.64553358e-03 1.02174487e-02
      1.17893638e-02 9.95546207e-03 1.20513495e-02 8.38354696e-03
      9.95546207e-03 1.38852503e-02 8.12156126e-03 1.30992923e-02
      4.19177348e-03 8.12156126e-03 1.12653915e-02 9.95546207e-03
      8.64553358e-03 1.15273772e-02 6.81163231e-03 7.59758987e-03
      7.85957556e-03 1.33612789e-02 5.76368859e-03 6.02567475e-03
      9.43149067e-03 1.20513495e-02 6.81163231e-03 1.67670939e-02
      9.43149067e-03 7.33560370e-03 1.07414201e-02 8.90751928e-03
      7.33560370e-03 9.69347637e-03 8.90751928e-03 1.28373066e-02
      8.90751928e-03 1.04794344e-02 1.72910672e-02 9.43149067e-03
      1.38852503e-02 5.23971720e-03 7.59758987e-03 8.38354696e-03
      7.59758987e-03 8.90751928e-03 8.64553358e-03 1.04794344e-02
      1.04794344e-02 8.90751928e-03 8.12156126e-03 1.38852503e-02
      8.90751928e-03 1.17893638e-02 8.38354696e-03 9.16950498e-03
      9.95546207e-03 5.76368859e-03 1.28373066e-02 6.81163231e-03
      1.51951797e-02 1.10034058e-02 9.69347637e-03 8.64553358e-03
      1.88629813e-02 8.12156126e-03 9.95546207e-03 7.59758987e-03
      6.81163231e-03 1.12653915e-02 9.69347637e-03 1.12653915e-02
      1.25753209e-02 9.43149067e-03 3.92978778e-03 5.50170289e-03
      8.12156126e-03 9.16950498e-03 1.25753209e-02 8.90751928e-03
      1.10034058e-02 1.28373066e-02 1.07414201e-02 6.28766045e-03
      1.41472360e-02 9.16950498e-03 9.95546207e-03 6.81163231e-03
      9.16950498e-03 1.20513495e-02 8.90751928e-03 9.16950498e-03</_>
    <_>
      1.07023409e-02 1.04793757e-02 9.14158300e-03 7.80379027e-03
      6.02006679e-03 1.15942033e-02 6.24303240e-03 9.14158300e-03
      8.47268663e-03 4.94983271e-02 6.02006679e-03 8.69565178e-03
      9.58751421e-03 1.51616503e-02 9.36454814e-03 4.10256423e-02
      9.36454814e-03 9.58751421e-03 9.14158300e-03 1.56075805e-02
      1.11482721e-02 7.58082513e-03 6.02006679e-03 5.35117043e-03
      1.02564106e-02 1.00334445e-02 1.09253069e-02 6.68896316e-03
      1.20401336e-02 8.02675541e-03 8.91861785e-03 1.07023409e-02
      1.38238575e-02 9.36454814e-03 5.57413604e-03 1.27090300e-02
      9.36454814e-03 4.01337771e-03 7.35785952e-03 9.36454814e-03
      1.20401336e-02 1.36008915e-02 9.36454814e-03 7.80379027e-03
      9.58751421e-03 1.18171684e-02 7.58082513e-03 8.47268663e-03
      1.80601999e-02 8.91861785e-03 8.91861785e-03 7.13489391e-03
      1.07023409e-02 8.02675541e-03 8.24972149e-03 8.47268663e-03
      7.58082513e-03 6.68896316e-03 4.45930893e-03 1.87290963e-02
      1.04793757e-02 8.47268663e-03 9.36454814e-03 7.80379027e-03
      6.24303240e-03 9.81047936e-03 9.36454814e-03 7.35785952e-03
      1.29319951e-02 7.13489391e-03 7.35785952e-03 6.02006679e-03
      6.91192877e-03 7.58082513e-03 9.58751421e-03 6.24303240e-03
      7.58082513e-03 5.35117043e-03 7.80379027e-03 1.31549612e-02
      1.18171684e-02 7.58082513e-03 1.11482721e-02 1.04793757e-02
      1.02564106e-02 8.91861785e-03 1.15942033e-02 1.27090300e-02
      8.24972149e-03 7.13489391e-03 8.02675541e-03 7.80379027e-03
      8.02675541e-03 1.49386842e-02 6.46599755e-03 1.24860648e-02
      7.35785952e-03 7.35785952e-03 1.36008915e-02 9.36454814e-03</_></support_vectors>
  <decision_functions>
    <_>
      <sv_count>8</sv_count>
      <rho>-8.9123663554339860e-01</rho>
      <alpha>
        6.7778664037220622e+01 2.7938434453741945e+02
        1.0161042016531932e+01 1.0006114846718299e+02
        -1.1390352347185765e+01 -1.1052855266028486e+02
        -4.4787657833821605e+01 -2.9067863621706283e+02</alpha>
      <index>
        1 2 3 4 9 14 15 16</index></_>
    <_>
      <sv_count>10</sv_count>
      <rho>-1.3850175521227683e+00</rho>
      <alpha>
        2.1966191565947941e+00 1.5588878243122360e+02
        3.1250000000000000e+02 1.6528585998909125e+02
        9.5164678325813369e+01 -9.4174172603521086e+01
        -6.0428691918473620e-01 -3.1250000000000000e+02
        -1.7966587129735038e+02 -1.4409160908266685e+02</alpha>
      <index>
        0 1 2 3 4 24 29 31 32 34</index></_>
    <_>
      <sv_count>8</sv_count>
      <rho>-4.3497689109673260e-01</rho>
      <alpha>
        7.4549010139320643e+01 2.5196262309418384e+02
        4.5392084796325612e+01 6.5612806242824291e+01
        -1.1533282437921264e+02 -2.1790872508034326e+01
        -2.8681084589276838e+02 -1.3581981492639148e+01</alpha>
      <index>
        1 2 3 4 39 42 46 47</index></_>
    <_>
      <sv_count>17</sv_count>
      <rho>3.6978374473067549e-01</rho>
      <alpha>
        3.1250000000000000e+02 7.8371178436070066e+00
        2.7055400718138387e+01 3.1250000000000000e+02
        3.1250000000000000e+02 3.1250000000000000e+02
        3.1250000000000000e+02 3.1250000000000000e+02
        3.1003523384150327e+02 -3.1250000000000000e+02
        -3.1250000000000000e+02 -3.1250000000000000e+02
        -3.1250000000000000e+02 -1.9812010310405984e+02
        -2.7486179409168898e+02 -1.8444585520749979e+02
        -3.1250000000000000e+02</alpha>
      <index>
        5 7 8 9 11 14 15 16 20 21 23 25 26 27 31 32 34</index></_>
    <_>
      <sv_count>30</sv_count>
      <rho>-5.1993881226398986e-01</rho>
      <alpha>
        3.1250000000000000e+02 3.1250000000000000e+02
        3.1250000000000000e+02 3.1250000000000000e+02
        3.1250000000000000e+02 2.0074103689593070e+02
        3.1250000000000000e+02 3.1250000000000000e+02
        3.1250000000000000e+02 3.1250000000000000e+02
        3.1250000000000000e+02 2.7343980990796018e+02
        3.1250000000000000e+02 3.1250000000000000e+02
        3.1250000000000000e+02 -3.1250000000000000e+02
        -3.1250000000000000e+02 -3.1250000000000000e+02
        -3.1250000000000000e+02 -3.1250000000000000e+02
        -1.6168084680389092e+02 -3.1250000000000000e+02
        -3.1250000000000000e+02 -3.1250000000000000e+02
        -3.1250000000000000e+02 -3.1250000000000000e+02
        -3.1250000000000000e+02 -3.1250000000000000e+02
        -3.1250000000000000e+02 -3.1250000000000000e+02</alpha>
      <index>
        5 6 7 9 10 11 12 13 14 15 16 17 18 19 20 36 37 38 39 40 43 44 45
        46 47 48 50 51 52 53</index></_>
    <_>
      <sv_count>23</sv_count>
      <rho>1.2178734069250756e+00</rho>
      <alpha>
        3.1250000000000000e+02 3.7639211583426601e+01
        3.1250000000000000e+02 1.1989023791229728e+02
        3.1250000000000000e+02 3.9516791859122380e+00
        2.8516781548801890e+02 3.1250000000000000e+02
        1.7271647047661762e+02 2.2319672948362756e+02
        5.7510962386773215e+01 2.5617613216907864e+02
        3.1250000000000000e+02 -3.1250000000000000e+02
        -7.6998781316011403e+01 -1.4175045736974070e+02
        -3.1250000000000000e+02 -3.1250000000000000e+02
        -3.1250000000000000e+02 -3.1250000000000000e+02
        -3.1250000000000000e+02 -3.1250000000000000e+02
        -3.1250000000000000e+02</alpha>
      <index>
        21 22 23 25 26 27 28 30 31 32 33 34 35 37 38 39 41 42 43 46 47
        48 49</index></_></decision_functions></my_svm>
</opencv_storage>
