<?xml version="1.0"?>
<opencv_storage>
<my_svm type_id="opencv-ml-svm">
  <svm_type>C_SVC</svm_type>
  <kernel><type>RBF</type>
    <gamma>5.0625000000000009e-01</gamma></kernel>
  <C>3.1250000000000000e+02</C>
  <term_criteria><epsilon>2.2204460492503131e-16</epsilon>
    <iterations>100000</iterations></term_criteria>
  <var_all>100</var_all>
  <var_count>100</var_count>
  <class_count>9</class_count>
  <class_labels type_id="opencv-matrix">
    <rows>1</rows>
    <cols>9</cols>
    <dt>i</dt>
    <data>
      1 2 3 4 5 6 7 8 9</data></class_labels>
  <sv_total>148</sv_total>
  <support_vectors>
    <_>
      1.73160173e-02 2.16450216e-03 0. 0. 1.29870130e-02 2.16450216e-03
      2.16450216e-03 1.51515156e-02 8.65800865e-03 2.16450216e-03 0.
      8.65800865e-03 4.32900432e-03 0. 0. 6.49350649e-03 6.49350649e-03
      1.29870130e-02 6.49350649e-03 4.32900432e-03 1.29870130e-02
      4.32900432e-03 4.32900432e-03 0. 4.32900432e-03 2.16450226e-02
      4.54545468e-02 0. 8.65800865e-03 1.73160173e-02 8.65800865e-03
      6.49350649e-03 2.81385276e-02 2.16450216e-03 4.32900432e-03
      6.49350649e-03 4.32900451e-02 4.32900432e-03 1.08225113e-02
      4.11255397e-02 6.06060624e-02 6.49350649e-03 0. 0. 6.49350649e-03
      2.16450216e-03 0. 6.49350649e-03 6.49350649e-03 5.19480519e-02
      6.49350649e-03 2.16450216e-03 4.32900432e-03 0. 2.16450216e-03
      6.49350649e-03 6.49350649e-03 0. 0. 8.65800865e-03 0.
      2.16450216e-03 6.49350649e-03 6.49350649e-03 1.08225113e-02
      2.16450216e-03 0. 2.16450216e-03 8.65800865e-03 0. 0.
      2.81385276e-02 4.32900432e-03 3.89610380e-02 2.59740259e-02 0.
      4.32900432e-03 4.76190485e-02 2.16450216e-03 0. 4.32900432e-03
      6.49350649e-03 6.49350649e-03 8.65800865e-03 2.16450216e-03 0.
      3.03030312e-02 6.49350649e-03 8.65800865e-03 6.49350649e-03
      2.16450216e-03 4.32900432e-03 1.29870130e-02 1.94805190e-02
      1.29870130e-02 5.41125536e-02 1.29870130e-02 3.67965363e-02 0.
      8.65800865e-03</_>
    <_>
      2.13024952e-02 1.21728540e-03 3.65185644e-03 2.43457081e-03
      7.30371289e-03 3.04321363e-03 3.04321363e-03 1.70419961e-02
      1.21728545e-02 3.65185644e-03 1.21728540e-03 7.30371289e-03
      2.43457081e-03 4.86914162e-03 1.21728540e-03 5.47778467e-03
      4.86914162e-03 7.30371289e-03 6.08642725e-03 6.69506984e-03
      1.82592813e-02 1.82592822e-03 4.86914162e-03 5.47778467e-03
      3.04321363e-03 2.31284238e-02 1.15642115e-01 5.47778467e-03
      1.21728545e-02 1.15642119e-02 6.69506984e-03 5.47778467e-03
      1.94765665e-02 1.21728540e-03 2.13024952e-02 5.47778467e-03
      1.39987823e-02 6.08642702e-04 1.15642119e-02 1.58247110e-02
      4.26049903e-02 4.26049903e-03 2.43457081e-03 4.86914162e-03
      6.08642725e-03 1.82592822e-03 2.43457081e-03 1.09555693e-02
      4.86914162e-03 1.11990258e-01 6.69506984e-03 6.69506984e-03
      6.69506984e-03 1.82592822e-03 3.04321363e-03 1.82592822e-03
      6.69506984e-03 2.43457081e-03 2.43457081e-03 6.08642702e-04
      2.43457081e-03 3.04321363e-03 2.43457081e-03 3.65185644e-03
      8.52099806e-03 6.69506984e-03 6.69506984e-03 6.69506984e-03
      4.26049903e-03 1.21728540e-03 6.08642725e-03 1.09555693e-02
      9.12964065e-03 1.58247110e-02 1.39987823e-02 1.82592822e-03
      6.08642725e-03 1.70419961e-02 7.30371289e-03 1.21728540e-03
      1.27814971e-02 6.08642725e-03 8.52099806e-03 1.52160684e-02
      7.30371289e-03 1.82592822e-03 2.00852100e-02 5.47778467e-03
      6.08642725e-03 4.26049903e-03 2.43457081e-03 4.26049903e-03
      3.34753506e-02 1.46074258e-02 1.21728545e-02 1.82592813e-02
      9.12964065e-03 1.82592813e-02 3.04321363e-03 4.86914162e-03</_>
    <_>
      2.49169432e-02 1.66112953e-03 1.66112953e-03 0. 4.98338882e-03
      3.32225906e-03 1.66112953e-03 6.64451811e-03 0. 6.64451811e-03
      4.98338882e-03 4.98338882e-03 9.96677764e-03 3.32225906e-03
      3.32225906e-03 4.98338882e-03 3.32225906e-03 6.64451811e-03
      3.32225906e-03 6.64451811e-03 1.32890362e-02 8.30564741e-03
      3.32225906e-03 4.98338882e-03 3.32225906e-03 2.32558139e-02
      9.96677727e-02 6.64451811e-03 2.49169432e-02 1.32890362e-02
      8.30564741e-03 3.32225906e-03 1.82724260e-02 3.32225906e-03
      3.15614603e-02 8.30564741e-03 1.82724260e-02 3.32225906e-03
      6.64451811e-03 2.32558139e-02 3.32225896e-02 4.98338882e-03
      9.96677764e-03 8.30564741e-03 4.98338882e-03 0. 3.32225906e-03
      2.15946846e-02 4.98338882e-03 1.39534891e-01 8.30564741e-03
      3.32225906e-03 6.64451811e-03 0. 1.66112953e-03 3.32225906e-03
      4.98338882e-03 0. 0. 3.32225906e-03 6.64451811e-03 0.
      1.66112953e-03 1.66112953e-03 8.30564741e-03 3.32225906e-03
      1.66112953e-03 3.32225906e-03 8.30564741e-03 1.66112953e-03 0.
      1.32890362e-02 4.98338882e-03 1.16279069e-02 2.32558139e-02 0.
      3.32225906e-03 1.66112948e-02 3.32225906e-03 1.66112953e-03
      8.30564741e-03 0. 3.32225906e-03 2.99003329e-02 4.98338882e-03
      4.98338882e-03 6.64451811e-03 4.98338882e-03 4.98338882e-03 0. 0.
      1.66112953e-03 4.48504984e-02 1.32890362e-02 1.49501665e-02
      1.82724260e-02 3.32225906e-03 1.99335553e-02 3.32225906e-03
      6.64451811e-03</_>
    <_>
      1.49999997e-02 4.16666688e-03 4.99999989e-03 5.83333336e-03
      5.83333336e-03 2.49999994e-03 1.66666671e-03 1.91666670e-02
      7.49999983e-03 3.33333341e-03 3.33333341e-03 8.33333377e-03
      3.33333341e-03 1.66666671e-03 8.33333354e-04 3.33333341e-03
      1.66666671e-03 1.08333332e-02 3.33333341e-03 2.49999994e-03
      8.33333377e-03 1.66666671e-03 6.66666683e-03 1.66666671e-03
      5.83333336e-03 1.91666670e-02 1.49166673e-01 1.66666671e-03
      8.33333377e-03 6.66666683e-03 1.16666667e-02 1.25000002e-02
      2.50000004e-02 1.66666671e-03 1.08333332e-02 9.16666631e-03
      1.08333332e-02 8.33333354e-04 7.49999983e-03 1.41666671e-02
      4.33333330e-02 3.33333341e-03 1.66666671e-03 1.08333332e-02
      4.16666688e-03 4.16666688e-03 6.66666683e-03 9.16666631e-03
      1.66666671e-03 1.07500002e-01 4.16666688e-03 9.99999978e-03
      1.41666671e-02 2.49999994e-03 1.66666671e-03 3.33333341e-03
      3.33333341e-03 1.66666671e-03 4.99999989e-03 2.49999994e-03 0. 0.
      6.66666683e-03 1.66666671e-03 9.99999978e-03 4.16666688e-03
      2.49999994e-03 1.33333337e-02 2.49999994e-03 1.66666671e-03 0.
      1.41666671e-02 2.49999994e-03 2.41666660e-02 1.16666667e-02
      1.66666671e-03 9.16666631e-03 2.58333329e-02 7.49999983e-03
      4.16666688e-03 1.66666675e-02 1.66666671e-03 7.49999983e-03
      2.25000009e-02 6.66666683e-03 4.99999989e-03 1.16666667e-02
      4.99999989e-03 0. 4.99999989e-03 3.33333341e-03 2.49999994e-03
      4.41666655e-02 9.16666631e-03 1.33333337e-02 1.08333332e-02
      7.49999983e-03 8.33333377e-03 4.99999989e-03 7.49999983e-03</_>
    <_>
      2.00743489e-02 3.71747208e-03 2.23048334e-03 2.23048334e-03
      1.04089221e-02 2.23048334e-03 1.48698885e-03 1.41263939e-02
      8.92193336e-03 2.97397771e-03 3.71747208e-03 1.18959108e-02
      4.46096668e-03 5.20446105e-03 7.43494427e-04 5.94795542e-03
      7.43494416e-03 5.94795542e-03 2.23048334e-03 5.20446105e-03
      1.48698883e-02 2.97397771e-03 2.97397771e-03 0. 5.20446105e-03
      2.89962832e-02 1.41263947e-01 5.20446105e-03 1.85873602e-02
      7.43494416e-03 2.23048334e-03 3.71747208e-03 1.85873602e-02
      2.23048334e-03 2.00743489e-02 5.20446105e-03 1.18959108e-02
      2.97397771e-03 3.71747208e-03 2.30483264e-02 4.16356884e-02
      3.71747208e-03 2.23048334e-03 1.48698885e-03 2.23048334e-03
      2.23048334e-03 4.46096668e-03 8.17843899e-03 1.48698885e-03
      1.18959107e-01 5.94795542e-03 4.46096668e-03 1.11524165e-02
      3.71747208e-03 2.23048334e-03 2.23048334e-03 8.17843899e-03
      3.71747208e-03 2.23048334e-03 5.20446105e-03 3.71747208e-03
      5.94795542e-03 5.94795542e-03 4.46096668e-03 5.94795542e-03
      2.23048334e-03 3.71747208e-03 7.43494416e-03 6.69144979e-03
      1.48698885e-03 2.23048334e-03 1.48698883e-02 1.48698885e-03
      1.56133827e-02 1.04089221e-02 3.71747208e-03 2.23048334e-03
      1.48698883e-02 5.94795542e-03 2.23048334e-03 8.92193336e-03
      4.46096668e-03 1.04089221e-02 1.93308555e-02 8.92193336e-03
      1.48698885e-03 2.15613376e-02 5.94795542e-03 2.97397771e-03
      3.71747208e-03 3.71747208e-03 1.48698885e-03 4.16356884e-02
      1.11524165e-02 6.69144979e-03 2.37918217e-02 4.46096668e-03
      1.04089221e-02 5.20446105e-03 4.46096668e-03</_>
    <_>
      2.05784198e-02 6.67408248e-03 2.22469401e-03 3.33704124e-03
      1.22358175e-02 1.66852062e-03 3.89321474e-03 1.44605115e-02
      6.67408248e-03 3.33704124e-03 2.22469401e-03 1.00111235e-02
      3.89321474e-03 1.66852062e-03 1.66852062e-03 6.67408248e-03
      7.78642949e-03 1.05672972e-02 3.33704124e-03 6.67408248e-03
      1.00111235e-02 3.89321474e-03 4.44938801e-03 7.78642949e-03
      6.67408248e-03 3.17018926e-02 7.78642967e-02 1.66852062e-03
      3.17018926e-02 1.27919912e-02 6.67408248e-03 2.78086774e-03
      1.72413792e-02 2.22469401e-03 1.94660742e-02 5.00556175e-03
      1.11234710e-02 1.11234700e-03 9.45494976e-03 2.16907673e-02
      3.67074534e-02 3.33704124e-03 5.56173502e-04 1.00111235e-02
      3.33704124e-03 7.23025575e-03 5.00556175e-03 2.11345945e-02
      3.33704124e-03 1.09010011e-01 5.56173548e-03 2.78086774e-03
      5.00556175e-03 2.78086774e-03 3.89321474e-03 1.66852062e-03
      6.67408248e-03 1.66852062e-03 2.78086774e-03 0. 2.22469401e-03
      4.44938801e-03 4.44938801e-03 4.44938801e-03 5.00556175e-03
      2.78086774e-03 2.78086774e-03 6.11790875e-03 4.44938801e-03
      1.66852062e-03 1.66852062e-03 2.44716350e-02 5.00556175e-03
      1.39043378e-02 1.33481650e-02 3.89321474e-03 4.44938801e-03
      1.44605115e-02 1.22358175e-02 3.89321474e-03 1.22358175e-02
      5.56173548e-03 1.11234710e-02 2.89210230e-02 4.44938801e-03
      3.33704124e-03 1.11234710e-02 3.89321474e-03 3.89321474e-03
      2.22469401e-03 2.78086774e-03 2.78086774e-03 3.50389332e-02
      7.23025575e-03 1.72413792e-02 3.44827585e-02 1.00111235e-02
      1.33481650e-02 1.66852062e-03 5.56173548e-03</_>
    <_>
      1.81668047e-02 4.12881933e-03 2.47729151e-03 3.30305542e-03
      5.78034669e-03 1.65152771e-03 3.30305542e-03 1.48637490e-02
      5.78034669e-03 4.12881933e-03 6.60611084e-03 9.08340234e-03
      3.30305542e-03 8.25763855e-04 1.65152771e-03 5.78034669e-03
      5.78034669e-03 9.90916602e-03 8.25763855e-04 0. 1.89925674e-02
      1.65152771e-03 2.47729151e-03 3.30305542e-03 4.95458301e-03
      2.22956240e-02 1.09000824e-01 6.60611084e-03 2.31213868e-02
      9.08340234e-03 6.60611084e-03 3.30305542e-03 1.65152773e-02 0.
      2.31213868e-02 3.30305542e-03 1.40379854e-02 2.47729151e-03
      9.08340234e-03 1.98183320e-02 2.64244433e-02 5.78034669e-03
      8.25763855e-04 3.30305542e-03 6.60611084e-03 3.30305542e-03
      3.30305542e-03 1.07349297e-02 3.30305542e-03 1.32122219e-01
      4.12881933e-03 4.12881933e-03 5.78034669e-03 1.65152771e-03
      3.30305542e-03 1.65152771e-03 7.43187452e-03 8.25763855e-04
      4.12881933e-03 4.95458301e-03 3.30305542e-03 0. 1.07349297e-02
      8.25763855e-04 4.95458301e-03 3.30305542e-03 4.12881933e-03
      4.12881933e-03 4.95458301e-03 8.25763855e-04 1.65152771e-03
      1.56895127e-02 4.95458301e-03 2.31213868e-02 2.22956240e-02
      8.25763855e-04 8.25763866e-03 2.31213868e-02 4.95458301e-03
      3.30305542e-03 9.90916602e-03 2.47729151e-03 1.23864571e-02
      3.88109013e-02 1.32122217e-02 4.12881933e-03 1.48637490e-02
      4.12881933e-03 2.47729151e-03 2.47729151e-03 3.30305542e-03
      3.30305542e-03 3.38563174e-02 8.25763866e-03 1.81668047e-02
      1.81668047e-02 7.43187452e-03 1.23864571e-02 0. 4.12881933e-03</_>
    <_>
      2.28161663e-02 7.17079546e-03 5.21512376e-03 3.91134294e-03
      9.77835711e-03 3.25945253e-03 1.30378094e-03 2.08604950e-02
      1.82529334e-02 6.51890505e-03 1.30378094e-03 9.77835711e-03
      3.91134294e-03 2.60756188e-03 3.25945253e-03 1.04302475e-02
      5.86701417e-03 1.30378101e-02 4.56323335e-03 5.86701417e-03
      2.60756202e-02 6.51890505e-03 2.60756188e-03 3.25945253e-03
      7.82268587e-03 1.17340283e-02 8.21382031e-02 4.56323335e-03
      2.60756188e-03 9.12646670e-03 8.47457629e-03 5.86701417e-03
      2.60756202e-02 2.60756188e-03 1.10821379e-02 6.51890505e-03
      1.49934813e-02 3.91134294e-03 1.36897005e-02 1.10821379e-02
      6.25814870e-02 5.21512376e-03 6.51890470e-04 8.47457629e-03
      3.25945253e-03 5.21512376e-03 4.56323335e-03 1.10821379e-02
      3.91134294e-03 4.82398942e-02 5.21512376e-03 8.47457629e-03
      9.77835711e-03 3.91134294e-03 5.21512376e-03 3.25945253e-03
      6.51890505e-03 5.21512376e-03 1.95567147e-03 3.25945253e-03
      1.95567147e-03 6.51890470e-04 1.04302475e-02 4.56323335e-03
      5.21512376e-03 5.21512376e-03 6.51890505e-03 2.60756188e-03
      5.86701417e-03 1.30378094e-03 1.30378094e-03 1.43415909e-02
      4.56323335e-03 1.82529334e-02 1.43415909e-02 3.91134294e-03
      9.12646670e-03 2.99869627e-02 5.86701417e-03 4.56323335e-03
      1.49934813e-02 6.51890505e-03 9.77835711e-03 8.47457629e-03
      1.49934813e-02 4.56323335e-03 2.15123855e-02 3.91134294e-03
      3.25945253e-03 5.21512376e-03 7.82268587e-03 7.17079546e-03
      2.15123855e-02 1.89048238e-02 7.82268587e-03 2.99869627e-02
      1.23859188e-02 1.89048238e-02 2.60756188e-03 2.60756188e-03</_>
    <_>
      2.40000002e-02 4.44444455e-03 3.55555560e-03 3.55555560e-03
      7.11111119e-03 3.55555560e-03 0. 1.77777782e-02 1.24444440e-02
      1.77777780e-03 0. 7.11111119e-03 3.55555560e-03 2.66666664e-03
      8.88888899e-04 8.88888910e-03 6.22222200e-03 1.06666666e-02
      1.77777780e-03 1.77777780e-03 9.77777783e-03 1.77777780e-03 0.
      2.66666664e-03 2.66666664e-03 2.93333326e-02 1.27111107e-01
      1.77777780e-03 2.22222228e-02 1.42222224e-02 5.33333328e-03
      5.33333328e-03 1.95555557e-02 8.88888899e-04 1.77777782e-02
      3.55555560e-03 7.11111119e-03 1.77777780e-03 1.24444440e-02
      1.06666666e-02 5.06666675e-02 4.44444455e-03 8.88888899e-04
      6.22222200e-03 8.88888899e-04 1.77777780e-03 8.88888899e-04
      1.77777782e-02 3.55555560e-03 1.51111111e-01 2.66666664e-03
      8.00000038e-03 3.55555560e-03 8.88888899e-04 1.77777780e-03
      1.77777780e-03 3.55555560e-03 2.66666664e-03 2.66666664e-03 0.
      8.88888899e-04 2.66666664e-03 2.66666664e-03 2.66666664e-03
      2.66666664e-03 8.88888899e-04 2.66666664e-03 3.55555560e-03
      2.66666664e-03 1.77777780e-03 2.66666664e-03 6.22222200e-03
      3.55555560e-03 1.24444440e-02 1.06666666e-02 4.44444455e-03
      2.66666664e-03 1.51111111e-02 4.44444455e-03 4.44444455e-03
      8.88888910e-03 8.88888899e-04 4.44444455e-03 4.44444455e-02
      4.44444455e-03 2.66666664e-03 1.86666660e-02 4.44444455e-03
      2.66666664e-03 1.77777780e-03 2.66666664e-03 4.44444455e-03
      6.13333322e-02 4.44444455e-03 1.24444440e-02 1.77777782e-02
      1.77777780e-03 1.77777782e-02 2.66666664e-03 8.00000038e-03</_>
    <_>
      1.36054419e-02 2.72108847e-03 1.36054424e-03 2.72108847e-03
      2.72108847e-03 0. 2.72108847e-03 9.52380989e-03 1.22448979e-02
      1.36054424e-03 1.36054424e-03 5.44217695e-03 5.44217695e-03
      1.36054424e-03 0. 5.44217695e-03 8.16326495e-03 1.08843539e-02
      4.08163248e-03 1.36054424e-03 5.44217695e-03 2.72108847e-03
      5.44217695e-03 4.08163248e-03 2.72108847e-03 8.16326495e-03
      1.34693876e-01 1.36054424e-03 2.72108847e-03 1.49659868e-02
      8.16326495e-03 9.52380989e-03 3.40136066e-02 0. 9.52380989e-03
      2.72108847e-03 9.52380989e-03 0. 1.63265299e-02 1.08843539e-02
      4.21768725e-02 4.08163248e-03 0. 9.52380989e-03 0. 0.
      5.44217695e-03 1.36054419e-02 1.36054424e-03 9.25170034e-02
      6.80272095e-03 5.44217695e-03 9.52380989e-03 2.72108847e-03
      1.36054424e-03 1.36054424e-03 4.08163248e-03 6.80272095e-03
      1.36054424e-03 0. 2.72108847e-03 5.44217695e-03 2.72108847e-03
      6.80272095e-03 5.44217695e-03 5.44217695e-03 1.36054424e-03
      1.36054424e-03 1.36054424e-03 4.08163248e-03 1.36054424e-03
      1.76870748e-02 6.80272095e-03 3.67346928e-02 2.58503407e-02
      1.36054424e-03 8.16326495e-03 7.34693855e-02 9.52380989e-03
      1.36054424e-03 6.80272095e-03 5.44217695e-03 1.36054419e-02
      1.08843539e-02 6.80272095e-03 1.36054424e-03 1.90476198e-02
      4.08163248e-03 1.36054424e-03 2.72108847e-03 6.80272095e-03
      4.08163248e-03 2.04081628e-02 8.16326495e-03 6.80272095e-03
      3.94557826e-02 5.44217695e-03 2.85714287e-02 1.36054424e-03
      4.08163248e-03</_>
    <_>
      2.23577227e-02 2.03252025e-03 2.03252025e-03 2.03252025e-03
      1.32113826e-02 1.01626012e-03 1.01626012e-03 2.03252025e-02
      5.08130062e-03 5.08130062e-03 1.01626012e-03 1.11788614e-02 0.
      1.01626012e-03 2.03252025e-03 3.04878037e-03 2.03252025e-03
      1.42276427e-02 3.04878037e-03 6.09756075e-03 1.52439028e-02
      2.03252025e-03 3.04878037e-03 4.06504050e-03 1.01626012e-03
      8.13008100e-03 9.65447128e-02 0. 4.06504050e-03 9.14634112e-03
      1.21951215e-02 2.03252025e-03 3.65853645e-02 1.01626012e-03
      1.72764231e-02 3.04878037e-03 1.72764231e-02 3.04878037e-03
      1.82926822e-02 2.64227651e-02 4.87804860e-02 1.32113826e-02
      1.01626012e-03 3.04878037e-03 2.03252025e-03 0. 1.01626012e-03
      1.32113826e-02 3.04878037e-03 7.62195140e-02 2.03252025e-03
      1.01626012e-03 9.14634112e-03 1.01626012e-03 5.08130062e-03
      1.01626012e-03 9.14634112e-03 4.06504050e-03 2.03252025e-03
      4.06504050e-03 5.08130062e-03 1.01626012e-03 5.08130062e-03
      3.04878037e-03 3.04878037e-03 5.08130062e-03 3.04878037e-03
      7.11382134e-03 1.01626012e-03 0. 2.03252025e-03 1.72764231e-02
      5.08130062e-03 3.04878056e-02 2.74390243e-02 1.01626012e-03
      4.06504050e-03 5.48780486e-02 8.13008100e-03 1.01626012e-03
      7.11382134e-03 3.04878037e-03 1.01626012e-02 1.72764231e-02
      1.42276427e-02 4.06504050e-03 1.42276427e-02 1.01626012e-03
      7.11382134e-03 3.04878037e-03 3.04878037e-03 2.03252025e-03
      2.94715445e-02 9.14634112e-03 1.93089433e-02 2.94715445e-02
      1.21951215e-02 1.62601620e-02 5.08130062e-03 9.14634112e-03</_>
    <_>
      1.66130755e-02 2.67952844e-03 1.60771701e-03 1.07181130e-03
      9.11039673e-03 2.14362261e-03 5.35905652e-04 2.03644168e-02
      1.12540191e-02 3.21543403e-03 1.60771701e-03 5.35905687e-03
      3.75133986e-03 4.82315104e-03 4.28724522e-03 3.21543403e-03
      4.82315104e-03 9.11039673e-03 5.35905687e-03 3.75133986e-03
      1.50053594e-02 3.75133986e-03 6.43086806e-03 4.28724522e-03
      6.96677389e-03 1.39335478e-02 9.37834978e-02 5.89496270e-03
      1.98285095e-02 1.12540191e-02 4.82315104e-03 3.21543403e-03
      1.17899254e-02 1.60771701e-03 2.25080382e-02 5.89496270e-03
      1.33976424e-02 4.28724522e-03 8.57449044e-03 2.35798508e-02
      4.55519818e-02 4.82315104e-03 1.60771701e-03 6.43086806e-03
      4.28724522e-03 2.67952844e-03 2.14362261e-03 1.28617361e-02
      2.67952844e-03 1.18435152e-01 6.43086806e-03 5.35905687e-03
      7.50267971e-03 1.60771701e-03 2.14362261e-03 2.14362261e-03
      8.03858507e-03 4.28724522e-03 4.82315104e-03 1.07181130e-03
      2.14362261e-03 2.14362261e-03 4.28724522e-03 3.75133986e-03
      7.50267971e-03 2.67952844e-03 3.21543403e-03 7.50267971e-03
      4.82315104e-03 1.60771701e-03 2.14362261e-03 1.39335478e-02
      4.28724522e-03 2.57234722e-02 2.57234722e-02 1.07181130e-03
      8.03858507e-03 2.35798508e-02 9.11039673e-03 5.35905652e-04
      6.96677389e-03 3.75133986e-03 2.67952844e-03 2.51875669e-02
      9.11039673e-03 3.21543403e-03 1.33976424e-02 4.82315104e-03
      5.89496270e-03 4.28724522e-03 6.96677389e-03 2.14362261e-03
      2.35798508e-02 1.01822084e-02 1.50053594e-02 2.62593776e-02
      9.64630209e-03 2.19721328e-02 2.67952844e-03 8.03858507e-03</_>
    <_>
      2.63157897e-02 6.37958525e-03 3.18979262e-03 5.58213703e-03
      3.98724061e-03 3.18979262e-03 7.97448156e-04 1.75438598e-02
      1.19617227e-02 3.18979262e-03 0. 3.18979262e-03 1.59489631e-03
      2.39234441e-03 3.18979262e-03 1.03668263e-02 6.37958525e-03
      1.91387553e-02 4.78468882e-03 7.97448156e-04 1.03668263e-02
      5.58213703e-03 1.59489631e-03 3.98724061e-03 2.39234441e-03
      4.38596494e-02 1.14035085e-01 0. 2.07336526e-02 1.59489624e-02
      8.77192989e-03 3.98724061e-03 7.17703346e-03 1.59489631e-03
      7.97448121e-03 7.97448156e-04 1.51515156e-02 9.56937764e-03
      1.11642741e-02 7.17703346e-03 3.34928222e-02 3.18979262e-03
      3.18979262e-03 3.18979262e-03 3.18979262e-03 1.59489631e-03
      7.97448156e-04 1.35566192e-02 7.17703346e-03 1.48325354e-01
      7.97448121e-03 6.37958525e-03 9.56937764e-03 2.39234441e-03
      7.97448156e-04 1.59489631e-03 3.98724061e-03 3.98724061e-03
      1.59489631e-03 7.97448156e-04 0. 1.59489631e-03 8.77192989e-03
      4.78468882e-03 1.03668263e-02 3.98724061e-03 4.78468882e-03
      7.17703346e-03 6.37958525e-03 3.18979262e-03 7.97448156e-04
      7.97448121e-03 2.39234441e-03 2.07336526e-02 2.71132383e-02
      2.39234441e-03 6.37958525e-03 3.03030312e-02 5.58213703e-03
      3.18979262e-03 1.19617227e-02 4.78468882e-03 4.78468882e-03
      3.50877196e-02 4.78468882e-03 3.18979262e-03 1.19617227e-02
      4.78468882e-03 4.78468882e-03 4.78468882e-03 3.98724061e-03
      3.18979262e-03 1.19617227e-02 3.98724061e-03 1.43540669e-02
      1.35566192e-02 2.39234441e-03 1.11642741e-02 3.18979262e-03
      7.97448156e-04</_>
    <_>
      1.14942528e-02 1.43678160e-03 5.02873585e-03 6.46551745e-03
      1.00574717e-02 2.15517241e-03 2.15517241e-03 2.37068962e-02
      1.14942528e-02 2.15517241e-03 7.18390802e-04 5.02873585e-03
      2.87356321e-03 2.15517241e-03 3.59195401e-03 4.31034481e-03
      3.59195401e-03 9.33908019e-03 3.59195401e-03 2.15517241e-03
      1.86781604e-02 3.59195401e-03 4.31034481e-03 5.74712642e-03
      3.59195401e-03 2.37068962e-02 1.14942528e-01 2.87356321e-03
      1.58045981e-02 1.29310349e-02 7.18390802e-03 3.59195401e-03
      1.22126434e-02 2.87356321e-03 2.08333340e-02 2.87356321e-03
      1.86781604e-02 7.18390802e-04 9.33908019e-03 1.36494255e-02
      5.60344830e-02 4.31034481e-03 3.59195401e-03 5.74712642e-03
      2.15517241e-03 2.15517241e-03 2.15517241e-03 1.07758623e-02
      2.87356321e-03 1.27873570e-01 2.87356321e-03 4.31034481e-03
      2.15517241e-03 7.18390802e-04 3.59195401e-03 7.18390802e-04
      5.02873585e-03 5.74712642e-03 2.87356321e-03 2.15517241e-03 0.
      1.43678160e-03 5.74712642e-03 2.87356321e-03 5.74712642e-03
      6.46551745e-03 1.43678160e-03 2.15517241e-03 4.31034481e-03
      1.43678160e-03 3.59195401e-03 1.36494255e-02 6.46551745e-03
      1.93965510e-02 2.58620698e-02 7.18390802e-04 8.62068962e-03
      2.58620698e-02 3.59195401e-03 2.87356321e-03 8.62068962e-03
      1.43678160e-03 4.31034481e-03 3.01724132e-02 7.90229905e-03
      2.15517241e-03 1.72413792e-02 2.87356321e-03 2.87356321e-03
      5.02873585e-03 4.31034481e-03 7.90229905e-03 2.44252868e-02
      1.14942528e-02 1.86781604e-02 2.15517245e-02 6.46551745e-03
      1.22126434e-02 2.15517241e-03 6.46551745e-03</_>
    <_>
      2.16754545e-02 2.92911544e-03 4.68658470e-03 2.34329235e-03
      9.95899271e-03 2.34329235e-03 2.34329235e-03 2.28471011e-02
      7.02987704e-03 3.51493852e-03 2.34329235e-03 7.61569990e-03
      3.51493852e-03 2.34329235e-03 2.34329235e-03 4.10076138e-03
      3.51493852e-03 1.05448151e-02 4.68658470e-03 4.68658470e-03
      1.75746921e-02 5.27240755e-03 4.10076138e-03 5.85823087e-03
      5.27240755e-03 2.28471011e-02 8.96309316e-02 4.10076138e-03
      2.57762149e-02 1.34739308e-02 1.23022851e-02 1.17164617e-03
      1.58172231e-02 1.75746926e-03 2.10896302e-02 3.51493852e-03
      1.34739308e-02 2.34329235e-03 1.23022851e-02 8.20152275e-03
      5.74106611e-02 8.20152275e-03 1.17164617e-03 6.44405372e-03
      4.68658470e-03 8.20152275e-03 2.92911544e-03 8.78734607e-03
      5.27240755e-03 1.15407147e-01 3.51493852e-03 2.92911544e-03
      4.68658470e-03 5.27240755e-03 1.17164617e-03 1.75746926e-03
      5.27240755e-03 1.75746926e-03 4.68658470e-03 1.75746926e-03
      2.34329235e-03 0. 4.68658470e-03 1.17164617e-03 9.37316939e-03
      4.68658470e-03 1.75746926e-03 7.61569990e-03 1.75746926e-03
      2.34329235e-03 2.92911544e-03 1.58172231e-02 5.27240755e-03
      1.40597541e-02 1.46455774e-02 1.17164617e-03 7.02987704e-03
      1.64030455e-02 7.61569990e-03 6.44405372e-03 5.27240755e-03
      3.51493852e-03 7.61569990e-03 2.98769772e-02 7.61569990e-03
      3.51493852e-03 1.34739308e-02 5.27240755e-03 3.51493852e-03
      4.68658470e-03 1.17164617e-03 2.34329235e-03 4.10076156e-02
      1.23022851e-02 1.46455774e-02 2.28471011e-02 7.61569990e-03
      1.46455774e-02 4.10076138e-03 5.27240755e-03</_>
    <_>
      1.83112919e-02 2.03458802e-03 1.42421164e-02 1.01729401e-03
      1.52594103e-02 4.06917604e-03 2.03458802e-03 1.62767041e-02
      6.10376382e-03 6.10376382e-03 2.03458802e-03 9.15564597e-03
      3.05188191e-03 5.08646993e-03 4.06917604e-03 2.03458802e-03
      5.08646993e-03 9.15564597e-03 3.05188191e-03 1.01729401e-03
      3.45879942e-02 1.01729399e-02 3.05188191e-03 3.05188191e-03
      4.06917604e-03 2.74669379e-02 3.35707031e-02 0. 7.83316344e-02
      3.05188191e-03 1.32248215e-02 2.64496431e-02 1.22075276e-02
      1.01729401e-03 3.35707031e-02 1.11902338e-02 6.10376382e-03
      3.05188191e-03 2.03458802e-03 1.01729399e-02 4.27263491e-02
      3.05188191e-03 4.06917604e-03 1.01729399e-02 4.06917604e-03
      1.01729399e-02 9.15564597e-03 1.42421164e-02 7.12105818e-03
      3.56052890e-02 8.13835207e-03 9.15564597e-03 1.42421164e-02
      1.11902338e-02 3.05188191e-03 3.05188191e-03 4.06917604e-03
      3.05188191e-03 1.01729401e-03 1.22075276e-02 1.01729401e-03
      4.06917604e-03 1.72939971e-02 7.12105818e-03 5.08646993e-03
      6.10376382e-03 7.12105818e-03 3.05188191e-03 1.11902338e-02
      8.13835207e-03 1.01729401e-03 9.15564597e-03 2.03458802e-03
      1.22075276e-02 1.93285868e-02 5.08646993e-03 1.52594103e-02
      8.13835207e-03 7.12105818e-03 8.13835207e-03 1.72939971e-02
      2.03458802e-03 9.15564597e-03 3.76398787e-02 1.11902338e-02
      3.05188191e-03 1.52594103e-02 2.03458802e-03 1.01729399e-02
      7.12105818e-03 2.03458802e-03 2.03458802e-03 3.05188191e-03
      2.84842327e-02 3.05188191e-03 1.42421164e-02 2.03458802e-03
      8.13835207e-03 4.06917604e-03 5.08646993e-03</_>
    <_>
      9.09090880e-03 2.59740255e-03 5.19480510e-03 1.29870127e-03
      4.54545440e-03 3.24675324e-03 1.29870127e-03 9.09090880e-03
      7.79220788e-03 4.54545440e-03 4.54545440e-03 2.79220771e-02
      5.19480510e-03 3.24675324e-03 7.14285718e-03 5.19480510e-03
      4.54545440e-03 6.49350649e-03 3.24675324e-03 8.44155811e-03
      1.29870127e-03 2.01298706e-02 7.14285718e-03 5.19480510e-03
      6.49350649e-03 5.19480510e-03 4.54545440e-03 3.24675324e-03
      1.16883116e-02 1.62337665e-02 2.59740259e-02 2.79220771e-02
      1.94805197e-03 1.94805197e-03 1.10389609e-02 6.49350649e-03
      3.83116901e-02 6.49350649e-03 5.19480510e-03 3.44155841e-02
      1.94805190e-02 1.75324678e-02 3.89610394e-03 1.03896102e-02
      2.59740255e-03 5.84415579e-03 4.54545440e-03 6.49350649e-03
      6.49350637e-04 4.54545440e-03 9.09090880e-03 3.89610394e-03
      5.19480510e-03 1.10389609e-02 8.44155811e-03 4.54545440e-03
      1.42857144e-02 3.89610394e-03 1.29870127e-03 9.74025950e-03
      8.44155811e-03 1.03896102e-02 1.81818176e-02 1.10389609e-02
      4.54545440e-03 9.09090880e-03 6.49350649e-03 1.29870127e-03
      5.19480510e-03 6.49350649e-03 6.49350649e-03 3.05194799e-02
      9.09090880e-03 7.79220760e-02 1.16883116e-02 1.16883116e-02
      3.89610394e-03 2.92207785e-02 9.74025950e-03 5.19480510e-03
      1.55844158e-02 5.84415579e-03 6.49350649e-03 1.49350651e-02
      3.89610394e-03 9.09090880e-03 5.84415579e-03 3.24675324e-03
      2.46753246e-02 1.29870130e-02 1.16883116e-02 3.24675324e-03
      1.29870127e-03 6.49350649e-03 1.55844158e-02 3.57142873e-02
      8.44155811e-03 6.49350649e-03 8.44155811e-03 1.03896102e-02</_>
    <_>
      1.76544767e-02 3.78310215e-03 1.26103405e-03 1.26103405e-03
      1.51324086e-02 5.04413620e-03 2.52206810e-03 1.51324086e-02
      2.26986129e-02 3.78310215e-03 2.52206810e-03 3.78310215e-03
      5.04413620e-03 1.13493064e-02 1.26103405e-03 1.51324086e-02
      5.04413620e-03 1.13493064e-02 6.30517025e-03 8.82723834e-03
      7.56620429e-03 7.56620429e-03 1.13493064e-02 2.52206810e-03
      6.30517025e-03 3.15258503e-02 1.13493064e-02 3.78310215e-03
      7.18789399e-02 1.00882724e-02 7.56620429e-03 2.52206810e-03
      1.38713745e-02 6.30517025e-03 3.40479203e-02 8.82723834e-03
      1.26103405e-03 6.30517025e-03 8.82723834e-03 8.82723834e-03
      8.95334184e-02 5.04413620e-03 0. 1.76544767e-02 3.78310215e-03
      2.52206810e-03 3.78310215e-03 1.13493064e-02 8.82723834e-03
      2.01765448e-02 2.52206810e-03 8.82723834e-03 1.63934417e-02
      3.78310215e-03 5.04413620e-03 3.78310215e-03 1.26103405e-02
      5.04413620e-03 2.52206810e-03 3.78310215e-03 1.38713745e-02
      3.78310215e-03 1.00882724e-02 6.30517025e-03 3.78310215e-03
      5.04413620e-03 5.04413620e-03 1.38713745e-02 7.56620429e-03
      3.78310215e-03 3.78310215e-03 5.04413620e-03 1.26103405e-03
      1.26103405e-03 2.14375779e-02 3.78310215e-03 7.56620429e-03
      2.52206810e-03 7.56620429e-03 1.26103405e-03 3.27868834e-02
      5.04413620e-03 1.26103405e-02 2.52206810e-02 1.13493064e-02
      7.56620429e-03 1.63934417e-02 6.30517025e-03 1.76544767e-02
      6.30517025e-03 3.78310215e-03 1.26103405e-02 1.00882724e-02
      5.04413620e-03 6.30517025e-03 2.39596460e-02 1.26103405e-03
      1.26103405e-02 1.26103405e-03 5.04413620e-03</_>
    <_>
      6.20567380e-03 5.31914877e-03 2.65957438e-03 8.86524795e-04
      4.43262421e-03 1.77304959e-03 2.65957438e-03 1.15248226e-02
      7.09219836e-03 1.77304959e-03 1.77304959e-03 1.95035469e-02 0.
      4.43262421e-03 4.43262421e-03 1.24113476e-02 8.86524841e-03
      1.24113476e-02 2.65957438e-03 8.86524841e-03 0. 6.20567380e-03
      6.20567380e-03 6.20567380e-03 3.54609918e-03 1.32978726e-02 0.
      2.65957438e-03 1.95035469e-02 2.30496451e-02 5.67375869e-02
      3.54609918e-03 3.54609918e-03 4.43262421e-03 1.86170209e-02
      1.77304959e-03 9.75177344e-03 4.43262421e-03 1.77304968e-02
      7.97872338e-03 3.90070938e-02 2.65957438e-03 7.09219836e-03
      1.15248226e-02 5.31914877e-03 3.54609918e-03 2.65957438e-03
      1.15248226e-02 3.54609918e-03 3.54609918e-03 6.20567380e-03
      5.31914877e-03 1.24113476e-02 6.20567380e-03 8.86524795e-04
      1.77304959e-03 7.97872338e-03 4.43262421e-03 8.86524795e-04
      8.86524841e-03 4.43262421e-03 4.43262421e-03 2.21631210e-02
      8.86524841e-03 7.97872338e-03 5.31914877e-03 5.31914877e-03
      4.43262421e-03 4.43262421e-03 7.09219836e-03 8.86524795e-04
      7.62411356e-02 3.54609918e-03 3.81205678e-02 2.65957438e-03
      1.68439709e-02 4.43262421e-03 9.13120583e-02 9.75177344e-03
      2.65957438e-03 7.97872338e-03 1.77304959e-03 7.09219836e-03
      1.41843967e-02 1.77304959e-03 2.65957438e-03 8.86524841e-03
      3.54609918e-03 6.20567380e-03 2.57092193e-02 1.59574468e-02
      3.54609918e-03 0. 7.09219836e-03 2.12765951e-02 2.83687934e-02
      3.54609918e-03 1.15248226e-02 9.75177344e-03 2.39361711e-02</_>
    <_>
      5.80645166e-03 2.58064526e-03 5.16129052e-03 1.29032263e-03
      2.58064526e-03 2.58064526e-03 0. 9.67741944e-03 5.80645166e-03
      3.87096778e-03 7.09677441e-03 1.93548389e-02 3.22580640e-03
      3.87096778e-03 7.09677441e-03 4.51612892e-03 4.51612892e-03
      1.16129033e-02 4.51612892e-03 8.38709716e-03 1.29032263e-03
      1.87096782e-02 7.09677441e-03 3.22580640e-03 7.09677441e-03
      5.80645166e-03 4.51612892e-03 3.87096778e-03 1.35483872e-02
      1.22580649e-02 2.90322583e-02 3.48387100e-02 2.58064526e-03
      1.93548389e-03 6.45161280e-03 4.51612892e-03 4.12903242e-02
      3.22580640e-03 5.16129052e-03 3.67741920e-02 5.80645166e-03
      1.93548389e-02 3.87096778e-03 1.74193550e-02 1.93548389e-03
      2.58064526e-03 4.51612892e-03 3.87096778e-03 4.51612892e-03
      3.87096778e-03 1.03225810e-02 7.09677441e-03 8.38709716e-03
      1.54838711e-02 7.09677441e-03 4.51612892e-03 1.80645157e-02
      4.51612892e-03 7.09677441e-03 7.09677441e-03 4.51612892e-03
      5.80645166e-03 2.51612905e-02 1.03225810e-02 9.67741944e-03
      3.87096778e-03 7.74193555e-03 1.93548389e-03 3.22580640e-03
      1.93548389e-03 3.22580640e-03 3.80645171e-02 1.09677417e-02
      7.67741948e-02 1.35483872e-02 1.48387095e-02 1.93548389e-03
      3.80645171e-02 8.38709716e-03 1.93548389e-03 1.35483872e-02
      4.51612892e-03 1.16129033e-02 4.51612892e-03 3.87096778e-03
      6.45161280e-03 5.16129052e-03 2.58064526e-03 1.87096782e-02
      1.80645157e-02 7.09677441e-03 3.22580640e-03 2.58064526e-03
      6.45161280e-03 1.67741943e-02 4.38709669e-02 7.09677441e-03
      1.93548389e-03 8.38709716e-03 1.74193550e-02</_>
    <_>
      1.53256701e-02 1.91570877e-03 7.66283507e-03 5.74712642e-03
      6.70498097e-03 0. 9.57854383e-04 1.24521069e-02 6.70498097e-03
      1.91570877e-03 3.83141753e-03 3.06513403e-02 9.57854383e-04
      3.83141753e-03 3.83141753e-03 5.74712642e-03 7.66283507e-03
      1.43678160e-02 2.87356321e-03 9.57854383e-04 1.91570877e-03
      2.39463598e-02 6.70498097e-03 1.05363987e-02 3.83141753e-03
      2.29885057e-02 2.10727975e-02 8.62068962e-03 4.59770113e-02
      4.78927186e-03 3.54406126e-02 1.24521069e-02 8.62068962e-03
      1.91570877e-03 3.83141753e-03 5.74712642e-03 3.83141753e-03
      2.87356321e-03 1.05363987e-02 5.74712642e-03 2.49042138e-02
      1.34099619e-02 9.57854383e-04 1.62835252e-02 1.91570877e-03
      3.83141753e-03 2.87356321e-03 1.14942528e-02 5.74712642e-03
      2.49042138e-02 6.70498097e-03 1.14942528e-02 1.62835252e-02
      1.14942528e-02 8.62068962e-03 2.87356321e-03 1.91570877e-03
      9.57854372e-03 1.91570877e-03 2.01149434e-02 7.66283507e-03
      8.62068962e-03 3.54406126e-02 1.05363987e-02 2.87356321e-03
      9.57854383e-04 3.83141753e-03 8.62068962e-03 2.87356321e-03
      2.87356321e-03 7.66283507e-03 1.53256701e-02 5.74712642e-03
      1.81992333e-02 1.53256701e-02 2.87356321e-03 1.91570877e-03
      1.72413792e-02 1.62835252e-02 9.57854383e-04 4.02298868e-02
      2.87356321e-03 2.87356321e-02 1.72413792e-02 9.57854372e-03
      8.62068962e-03 8.62068962e-03 9.57854383e-04 3.83141753e-03
      1.62835252e-02 8.62068962e-03 3.83141753e-03 1.91570877e-03
      1.14942528e-02 1.05363987e-02 1.53256701e-02 2.87356321e-03
      7.66283507e-03 2.77777780e-02 1.43678160e-02</_>
    <_>
      0. 5.75539563e-03 1.43884891e-03 8.63309391e-03 2.87769781e-03
      2.87769781e-03 7.19424477e-03 1.29496399e-02 4.31654695e-03
      1.00719426e-02 1.87050365e-02 1.15107913e-02 1.15107913e-02
      8.63309391e-03 5.75539563e-03 2.87769781e-03 1.87050365e-02
      1.29496399e-02 8.63309391e-03 7.19424477e-03 2.87769781e-03
      1.87050365e-02 5.75539563e-03 1.58273373e-02 1.87050365e-02
      2.15827338e-02 0. 0. 3.59712243e-02 3.45323756e-02 7.19424477e-03
      1.15107913e-02 0. 5.75539563e-03 1.43884895e-02 5.75539563e-03
      5.46762608e-02 1.43884891e-03 1.29496399e-02 2.30215825e-02
      1.43884895e-02 8.63309391e-03 4.31654695e-03 8.63309391e-03
      5.75539563e-03 1.00719426e-02 7.19424477e-03 2.58992799e-02 0.
      5.75539563e-03 4.31654695e-03 1.43884891e-03 2.87769781e-03
      5.75539563e-03 7.19424477e-03 4.31654695e-03 1.29496399e-02 0.
      1.72661878e-02 5.75539563e-03 7.19424477e-03 1.43884891e-03
      1.43884891e-03 2.01438852e-02 2.15827338e-02 2.87769781e-03
      7.19424477e-03 4.31654695e-03 2.87769781e-03 5.75539563e-03
      7.19424477e-03 2.44604312e-02 5.75539563e-03 2.01438852e-02
      7.19424477e-03 8.63309391e-03 5.75539563e-03 1.87050365e-02
      5.75539563e-03 5.75539563e-03 8.63309391e-03 1.43884891e-03 0.
      3.16546746e-02 5.75539563e-03 2.87769781e-03 1.00719426e-02
      1.43884895e-02 1.29496399e-02 1.58273373e-02 8.63309391e-03
      2.87769781e-03 0. 1.87050365e-02 2.15827338e-02 2.30215825e-02
      1.43884895e-02 4.31654695e-03 4.31654695e-03 8.63309391e-03</_>
    <_>
      5.02933795e-03 6.70578377e-03 1.59262363e-02 4.19111503e-03
      2.09555738e-02 4.19111503e-03 0. 3.68818119e-02 2.09555738e-02
      6.70578377e-03 8.38222972e-04 1.34115675e-02 5.86756086e-03
      6.70578377e-03 6.70578377e-03 8.38223007e-03 4.19111503e-03
      1.00586759e-02 5.02933795e-03 9.22045298e-03 9.22045298e-03
      4.19111503e-03 5.02933795e-03 2.51466897e-03 1.08968988e-02
      2.51466893e-02 8.38223007e-03 9.22045298e-03 6.28667250e-02
      1.50880134e-02 8.38222972e-04 6.70578377e-03 1.67644601e-02
      2.51466897e-03 3.52053642e-02 9.22045298e-03 3.35289189e-03
      8.38223007e-03 5.86756086e-03 2.51466897e-03 4.94551547e-02
      7.54400669e-03 6.70578377e-03 1.84409060e-02 2.51466897e-03
      1.67644601e-02 1.42497905e-02 1.42497905e-02 1.17351217e-02
      1.00586759e-02 5.02933795e-03 1.67644601e-02 9.22045298e-03
      3.35289189e-03 1.00586759e-02 2.51466897e-03 1.00586759e-02
      8.38223007e-03 8.38222972e-04 2.51466897e-03 7.54400669e-03
      9.22045298e-03 3.35289189e-03 1.17351217e-02 3.35289189e-03
      4.19111503e-03 5.86756086e-03 3.35289189e-03 7.54400669e-03
      5.02933795e-03 5.86756086e-03 6.70578377e-03 2.51466897e-03
      1.67644594e-03 1.67644601e-02 8.38223007e-03 2.26320196e-02
      7.54400669e-03 5.02933795e-03 1.92791279e-02 2.51466893e-02
      5.02933795e-03 6.70578377e-03 1.34115675e-02 1.25733446e-02
      5.86756086e-03 1.34115675e-02 3.35289189e-03 1.34115675e-02
      4.19111503e-03 4.19111503e-03 1.34115675e-02 1.08968988e-02
      8.38223007e-03 6.70578377e-03 1.25733446e-02 3.35289189e-03
      1.92791279e-02 2.51466897e-03 1.67644594e-03</_>
    <_>
      2.94550811e-03 5.89101622e-03 1.47275405e-03 5.89101622e-03
      1.03092780e-02 4.41826228e-03 5.89101622e-03 1.03092780e-02
      2.94550811e-03 5.89101622e-03 8.83652456e-03 1.62002947e-02
      8.83652456e-03 4.41826228e-03 1.32547868e-02 5.89101622e-03
      2.65095737e-02 2.20913105e-02 4.41826228e-03 0. 1.76730491e-02
      1.91458035e-02 4.41826228e-03 1.03092780e-02 1.17820324e-02
      1.76730491e-02 1.47275405e-03 0. 3.68188508e-02 3.09278350e-02
      7.36377016e-03 2.94550811e-03 4.41826228e-03 2.94550811e-03
      4.41826228e-03 2.94550811e-03 6.03829175e-02 7.36377016e-03
      1.32547868e-02 1.47275403e-02 4.41826209e-02 1.17820324e-02
      1.47275405e-03 1.32547868e-02 5.89101622e-03 5.89101622e-03
      8.83652456e-03 1.91458035e-02 1.32547868e-02 5.89101622e-03
      4.41826228e-03 1.47275405e-03 1.47275405e-03 1.32547868e-02
      2.94550811e-03 1.47275405e-03 2.20913105e-02 2.94550811e-03
      5.89101622e-03 2.94550811e-03 4.41826228e-03 1.47275405e-03
      2.94550811e-03 1.32547868e-02 8.83652456e-03 1.03092780e-02
      4.41826228e-03 4.41826228e-03 1.47275405e-03 2.94550811e-03
      2.94550811e-03 2.06185561e-02 2.94550811e-03 1.03092780e-02
      1.03092780e-02 1.76730491e-02 4.41826228e-03 8.83652456e-03
      2.94550811e-03 7.36377016e-03 5.89101622e-03 4.41826228e-03
      8.83652456e-03 1.91458035e-02 8.83652456e-03 2.94550811e-03
      1.47275403e-02 1.17820324e-02 8.83652456e-03 2.50368193e-02 0. 0.
      2.94550811e-03 1.17820324e-02 2.20913105e-02 3.82916071e-02
      1.47275403e-02 8.83652456e-03 7.36377016e-03 1.47275403e-02</_>
    <_>
      1.46341464e-02 0. 9.75609757e-04 1.95121951e-03 4.87804879e-03
      1.95121951e-03 1.95121951e-03 1.65853649e-02 1.95121951e-03
      9.75609757e-04 9.75609757e-04 1.36585366e-02 0. 1.95121951e-03
      2.92682927e-03 1.95121951e-03 2.92682927e-03 1.17073171e-02
      3.90243903e-03 2.92682927e-03 2.24390235e-02 3.90243903e-03
      9.75609757e-04 9.75609757e-04 9.75609757e-04 7.80487806e-03
      1.48292676e-01 9.75609757e-04 1.85365845e-02 1.36585366e-02
      6.82926830e-03 1.95121951e-03 3.80487815e-02 9.75609757e-04
      5.85365854e-03 0. 3.90243903e-03 0. 1.36585366e-02 7.80487806e-03
      4.29268293e-02 4.87804879e-03 0. 3.90243903e-03 5.85365854e-03 0.
      9.75609757e-04 1.26829268e-02 9.75609757e-04 1.40487805e-01
      3.90243903e-03 2.92682927e-03 9.75609757e-04 0. 9.75609757e-04
      3.90243903e-03 4.87804879e-03 2.92682927e-03 9.75609757e-04
      1.95121951e-03 9.75609757e-04 0. 1.95121951e-03 0. 5.85365854e-03
      0. 9.75609757e-04 4.87804879e-03 9.75609757e-04 1.95121951e-03
      9.75609757e-04 1.95121951e-02 9.75609757e-04 2.34146342e-02
      4.58536595e-02 1.95121951e-03 3.90243903e-03 6.14634156e-02
      1.07317073e-02 1.95121951e-03 3.90243903e-03 1.95121951e-03
      6.82926830e-03 4.97560985e-02 4.87804879e-03 9.75609757e-04
      1.95121951e-02 2.92682927e-03 2.92682927e-03 2.92682927e-03
      1.95121951e-03 1.95121951e-03 2.82926820e-02 6.82926830e-03
      8.78048781e-03 3.12195122e-02 3.90243903e-03 4.87804879e-03
      9.75609757e-04 3.90243903e-03</_>
    <_>
      2.42483020e-02 4.84966068e-03 0. 9.69932124e-04 4.84966068e-03
      3.87972849e-03 1.93986425e-03 1.06692528e-02 7.75945699e-03 0. 0.
      6.78952457e-03 9.69932124e-04 9.69932124e-04 1.93986425e-03
      7.75945699e-03 1.93986425e-03 7.75945699e-03 1.93986425e-03
      2.90979631e-03 7.75945699e-03 1.93986425e-03 0. 0. 1.93986425e-03
      4.26770113e-02 1.44519880e-01 1.93986425e-03 1.74587779e-02
      9.69932135e-03 1.06692528e-02 1.93986425e-03 2.61881668e-02
      9.69932124e-04 2.42483020e-02 3.87972849e-03 1.06692528e-02 0.
      1.93986427e-02 2.32783705e-02 3.20077613e-02 9.69932124e-04
      1.93986425e-03 2.90979631e-03 2.90979631e-03 1.93986425e-03
      2.90979631e-03 1.06692528e-02 0. 1.64888456e-01 1.93986425e-03
      9.69932124e-04 1.93986425e-03 1.93986425e-03 9.69932124e-04
      1.93986425e-03 4.84966068e-03 9.69932124e-04 0. 5.81959262e-03
      9.69932124e-04 0. 6.78952457e-03 1.93986425e-03 1.06692528e-02
      9.69932124e-04 3.87972849e-03 5.81959262e-03 1.93986425e-03 0. 0.
      9.69932135e-03 1.93986425e-03 2.03685742e-02 2.81280316e-02 0.
      3.87972849e-03 2.61881668e-02 3.87972849e-03 2.90979631e-03
      2.90979631e-03 9.69932124e-04 5.81959262e-03 2.71580983e-02
      8.72938894e-03 0. 1.45489816e-02 9.69932124e-04 2.90979631e-03 0.
      1.93986425e-03 2.90979631e-03 4.07371484e-02 7.75945699e-03
      1.93986427e-02 2.71580983e-02 1.35790491e-02 2.90979631e-03
      9.69932124e-04 4.84966068e-03</_>
    <_>
      3.05584818e-02 1.05374074e-03 1.05374074e-03 0. 6.32244488e-03
      1.05374074e-03 0. 1.47523712e-02 2.10748147e-03 2.10748147e-03 0.
      6.32244488e-03 2.10748147e-03 3.16122244e-03 1.05374074e-03
      1.05374074e-03 4.21496294e-03 4.21496294e-03 1.05374074e-03
      5.26870368e-03 1.68598518e-02 5.26870368e-03 5.26870368e-03
      3.16122244e-03 0. 2.21285559e-02 1.49631187e-01 1.05374074e-03
      2.84510013e-02 7.37618562e-03 9.48366709e-03 2.10748147e-03
      2.95047425e-02 0. 1.26448898e-02 0. 1.47523712e-02 0.
      9.48366709e-03 2.52897795e-02 3.26659642e-02 4.21496294e-03
      1.05374074e-03 2.10748147e-03 2.10748147e-03 4.21496294e-03
      1.05374074e-03 4.21496294e-03 1.05374074e-03 1.59114853e-01
      2.10748147e-03 0. 2.10748147e-03 2.10748147e-03 2.10748147e-03
      1.05374074e-03 7.37618562e-03 0. 1.05374074e-03 3.16122244e-03 0.
      0. 3.16122244e-03 4.21496294e-03 4.21496294e-03 2.10748147e-03
      1.05374074e-03 1.05374074e-03 1.05374074e-03 0. 1.05374074e-03
      2.10748147e-02 2.10748147e-03 2.84510013e-02 2.95047425e-02
      5.26870368e-03 2.10748147e-03 3.89884077e-02 3.16122244e-03
      1.05374074e-03 3.16122244e-03 2.10748147e-03 3.16122244e-03
      1.58061124e-02 6.32244488e-03 5.26870368e-03 1.36986300e-02
      1.05374074e-03 1.05374074e-03 3.16122244e-03 5.26870368e-03 0.
      4.00421508e-02 6.32244488e-03 2.63435189e-02 2.21285559e-02
      1.68598518e-02 8.42992589e-03 3.16122244e-03 4.21496294e-03</_>
    <_>
      3.17002870e-02 6.72430359e-03 9.60614765e-04 1.92122953e-03
      8.64553358e-03 1.92122953e-03 9.60614765e-04 1.34486072e-02
      6.72430359e-03 3.84245906e-03 3.84245906e-03 8.64553358e-03
      5.76368859e-03 1.92122953e-03 1.92122953e-03 1.92122953e-03
      6.72430359e-03 9.60614812e-03 9.60614765e-04 7.68491812e-03
      1.82516817e-02 0. 3.84245906e-03 9.60614765e-04 3.84245906e-03
      2.40153708e-02 1.35446683e-01 0. 3.26609015e-02 1.63304508e-02
      1.44092217e-02 1.92122953e-03 4.13064361e-02 9.60614765e-04
      1.15273772e-02 9.60614765e-04 1.34486072e-02 0. 1.24879926e-02
      1.92122962e-02 4.80307415e-02 4.80307406e-03 0. 3.84245906e-03
      2.88184430e-03 9.60614765e-04 9.60614765e-04 2.88184430e-03
      1.92122953e-03 1.22958690e-01 2.88184430e-03 2.88184430e-03
      5.76368859e-03 2.88184430e-03 9.60614765e-04 1.92122953e-03
      3.84245906e-03 9.60614765e-04 9.60614765e-04 9.60614765e-04
      9.60614765e-04 0. 1.92122953e-03 9.60614765e-04 7.68491812e-03
      4.80307406e-03 1.92122953e-03 2.88184430e-03 0. 4.80307406e-03 0.
      9.60614812e-03 6.72430359e-03 7.68491812e-03 2.11335253e-02
      4.80307406e-03 1.92122953e-03 2.20941398e-02 9.60614812e-03
      1.92122953e-03 3.84245906e-03 4.80307406e-03 3.84245906e-03
      1.63304508e-02 9.60614812e-03 0. 1.44092217e-02 1.92122953e-03
      9.60614765e-04 2.88184430e-03 3.84245906e-03 0. 3.55427489e-02
      1.15273772e-02 3.26609015e-02 2.49759853e-02 9.60614812e-03
      1.44092217e-02 2.88184430e-03 3.84245906e-03</_>
    <_>
      1.89620759e-02 9.98003990e-04 9.98003990e-04 5.98802418e-03
      4.99001984e-03 1.99600798e-03 0. 1.69660673e-02 1.99600798e-03
      1.99600798e-03 9.98003990e-04 3.99201596e-03 1.99600798e-03
      2.99401209e-03 9.98003990e-04 1.99600798e-03 4.99001984e-03
      7.98403192e-03 9.98003990e-04 3.99201596e-03 1.69660673e-02
      3.99201596e-03 1.99600798e-03 2.99401209e-03 1.99600798e-03
      2.49501001e-02 1.58682629e-01 0. 1.69660673e-02 3.99201596e-03
      8.98203626e-03 9.98003990e-04 3.59281451e-02 9.98003990e-04
      1.09780440e-02 0. 2.99401209e-03 9.98003990e-04 1.79640725e-02
      2.39520967e-02 3.49301398e-02 9.98003990e-04 0. 1.99600798e-03
      1.99600798e-03 9.98003990e-04 9.98003990e-04 7.98403192e-03
      5.98802418e-03 1.84630737e-01 1.99600798e-03 9.98003990e-04
      1.99600798e-03 0. 1.99600798e-03 0. 9.98003967e-03 9.98003990e-04
      1.99600798e-03 1.99600798e-03 0. 9.98003990e-04 7.98403192e-03
      1.99600798e-03 1.99600798e-03 2.99401209e-03 9.98003990e-04 0.
      3.99201596e-03 1.99600798e-03 0. 1.89620759e-02 0. 1.79640725e-02
      2.39520967e-02 9.98003990e-04 3.99201596e-03 2.29540914e-02
      9.98003990e-04 0. 0. 1.99600798e-03 5.98802418e-03 2.69461069e-02
      6.98602805e-03 0. 9.98003967e-03 9.98003990e-04 2.99401209e-03 0.
      9.98003990e-04 1.99600798e-03 6.88622743e-02 7.98403192e-03
      1.29740518e-02 2.89421156e-02 9.98003967e-03 1.99600798e-03
      1.99600798e-03 1.09780440e-02</_>
    <_>
      1.48401828e-02 2.28310493e-03 2.28310493e-03 1.14155246e-03
      1.25570772e-02 0. 3.42465751e-03 2.28310507e-02 2.28310493e-03
      4.56620986e-03 1.14155246e-03 5.70776267e-03 0. 3.42465751e-03
      1.14155246e-03 4.56620986e-03 4.56620986e-03 7.99086783e-03 0.
      1.14155246e-03 1.02739725e-02 2.28310493e-03 2.28310493e-03
      1.14155246e-03 2.28310493e-03 2.39726026e-02 1.05022833e-01
      1.14155246e-03 2.16894969e-02 1.14155246e-03 1.59817357e-02
      3.42465751e-03 2.28310507e-02 1.14155246e-03 1.25570772e-02 0.
      1.25570772e-02 0. 5.70776267e-03 1.94063932e-02 5.02283089e-02
      1.59817357e-02 1.14155246e-03 6.84931502e-03 1.14155246e-03
      1.14155246e-03 1.14155246e-03 1.59817357e-02 0. 9.47488621e-02
      1.14155246e-03 4.56620986e-03 7.99086783e-03 5.70776267e-03
      1.14155246e-03 2.28310493e-03 6.84931502e-03 0. 0. 3.42465751e-03
      4.56620986e-03 2.28310493e-03 3.42465751e-03 1.14155246e-03
      5.70776267e-03 1.14155246e-03 2.28310493e-03 1.14155246e-03
      4.56620986e-03 2.28310493e-03 1.14155246e-03 1.48401828e-02
      5.70776267e-03 4.33789939e-02 5.59360720e-02 1.14155246e-03 0.
      7.76255727e-02 1.14155246e-03 1.14155246e-03 4.56620986e-03
      4.56620986e-03 2.28310493e-03 4.79452051e-02 1.36986300e-02
      4.56620986e-03 7.99086783e-03 7.99086783e-03 3.42465751e-03 0. 0.
      0. 1.14155253e-02 7.99086783e-03 1.48401828e-02 2.62557082e-02
      9.13241971e-03 1.36986300e-02 1.14155246e-03 5.70776267e-03</_>
    <_>
      5.85365854e-03 0. 9.75609757e-04 2.92682927e-03 1.36585366e-02
      1.95121951e-03 9.75609757e-04 2.24390235e-02 4.87804879e-03 0.
      1.95121951e-03 8.78048781e-03 2.92682927e-03 9.75609757e-04
      9.75609757e-04 0. 1.95121951e-03 6.82926830e-03 1.95121951e-03
      1.95121951e-03 6.82926830e-03 2.92682927e-03 9.75609757e-04 0.
      3.90243903e-03 1.36585366e-02 2.21463412e-01 0. 1.07317073e-02
      7.80487806e-03 6.82926830e-03 0. 2.14634147e-02 2.92682927e-03
      9.75609757e-03 2.92682927e-03 9.75609757e-03 0. 6.82926830e-03
      2.04878040e-02 5.46341464e-02 3.90243903e-03 3.90243903e-03
      3.90243903e-03 0. 9.75609757e-04 2.92682927e-03 2.92682927e-03
      9.75609757e-04 1.40487805e-01 6.82926830e-03 1.95121951e-03
      9.75609757e-04 9.75609757e-04 1.95121951e-03 0. 6.82926830e-03
      3.90243903e-03 1.95121951e-03 0. 9.75609757e-04 9.75609757e-04
      1.95121951e-03 4.87804879e-03 1.95121951e-03 9.75609757e-04 0.
      1.95121951e-03 0. 1.95121951e-03 0. 7.80487806e-03 9.75609757e-04
      2.14634147e-02 2.53658537e-02 9.75609757e-04 9.75609757e-04
      2.43902430e-02 4.87804879e-03 9.75609757e-04 2.92682927e-03
      9.75609757e-04 4.87804879e-03 3.90243903e-03 7.80487806e-03
      3.90243903e-03 2.14634147e-02 5.85365854e-03 0. 1.95121951e-03
      2.92682927e-03 2.92682927e-03 8.68292674e-02 6.82926830e-03
      2.04878040e-02 2.43902430e-02 6.82926830e-03 1.36585366e-02
      9.75609757e-04 5.85365854e-03</_>
    <_>
      2.55009104e-02 9.10746807e-04 2.73224036e-03 3.64298723e-03
      7.28597445e-03 2.73224036e-03 0. 1.82149354e-02 5.46448072e-03
      1.82149361e-03 2.73224036e-03 9.10746772e-03 0. 1.82149361e-03 0.
      3.64298723e-03 0. 6.37522759e-03 0. 2.73224036e-03 1.00182146e-02
      0. 1.82149361e-03 0. 2.73224036e-03 2.91438978e-02 1.67577416e-01
      0. 2.64116582e-02 1.91256832e-02 1.18397083e-02 2.73224036e-03
      3.00546456e-02 0. 2.00364292e-02 0. 1.09289614e-02 0.
      2.09471770e-02 1.82149354e-02 4.28051017e-02 8.19672085e-03
      9.10746807e-04 1.82149361e-03 2.73224036e-03 0. 9.10746807e-04
      1.00182146e-02 9.10746807e-04 1.55737698e-01 4.55373386e-03
      1.82149361e-03 2.73224036e-03 9.10746807e-04 1.82149361e-03
      9.10746807e-04 2.73224036e-03 0. 2.73224036e-03 9.10746807e-04 0.
      1.82149361e-03 2.73224036e-03 0. 6.37522759e-03 0. 9.10746807e-04
      2.73224036e-03 0. 1.82149361e-03 9.10746807e-04 2.09471770e-02
      9.10746807e-04 3.00546456e-02 1.82149354e-02 0. 3.64298723e-03
      2.91438978e-02 6.37522759e-03 1.82149361e-03 3.64298723e-03
      9.10746807e-04 8.19672085e-03 1.18397083e-02 2.73224036e-03 0.
      1.63934417e-02 5.46448072e-03 2.73224036e-03 7.28597445e-03
      2.73224036e-03 9.10746807e-04 3.18761393e-02 6.37522759e-03
      1.82149354e-02 2.36794166e-02 7.28597445e-03 7.28597445e-03
      9.10746807e-04 3.64298723e-03</_>
    <_>
      2.57558785e-02 3.35946260e-03 0. 1.11982087e-03 5.59910433e-03
      2.23964173e-03 2.23964173e-03 1.11982087e-02 2.23964173e-03 0. 0.
      0. 0. 0. 0. 6.71892520e-03 3.35946260e-03 6.71892520e-03
      1.11982087e-03 3.35946260e-03 1.34378504e-02 2.23964173e-03 0. 0.
      3.35946260e-03 3.35946232e-02 1.71332583e-01 0. 2.12765951e-02
      3.35946260e-03 1.00783873e-02 1.11982087e-03 3.80739085e-02
      2.23964173e-03 1.45576708e-02 0. 8.95856693e-03 3.35946260e-03
      5.59910433e-03 1.34378504e-02 3.58342677e-02 3.35946260e-03
      1.11982087e-03 2.23964173e-03 4.47928347e-03 1.11982087e-03 0.
      1.11982087e-02 3.35946260e-03 1.51175812e-01 1.11982087e-03
      4.47928347e-03 0. 0. 2.23964173e-03 1.11982087e-03 3.35946260e-03
      2.23964173e-03 1.11982087e-03 1.11982087e-03 0. 1.11982087e-03
      2.23964173e-03 2.23964173e-03 5.59910433e-03 4.47928347e-03
      2.23964173e-03 5.59910433e-03 2.23964173e-03 1.11982087e-03
      3.35946260e-03 2.12765951e-02 4.47928347e-03 2.01567747e-02
      3.13549824e-02 1.11982087e-03 1.11982087e-03 4.36730124e-02
      6.71892520e-03 0. 1.00783873e-02 3.35946260e-03 4.47928347e-03
      1.90369543e-02 6.71892520e-03 3.35946260e-03 1.23180291e-02
      4.47928347e-03 0. 2.23964173e-03 1.11982087e-03 3.35946260e-03
      6.49496093e-02 6.71892520e-03 1.00783873e-02 2.12765951e-02
      4.47928347e-03 5.59910433e-03 2.23964173e-03 2.23964173e-03</_>
    <_>
      1.54479919e-02 0. 2.05973233e-03 2.05973233e-03 4.11946466e-03
      1.02986617e-03 1.02986617e-03 1.64778586e-02 3.08959838e-03
      6.17919676e-03 2.05973233e-03 3.08959838e-03 0. 2.05973233e-03 0.
      3.08959838e-03 3.08959838e-03 9.26879514e-03 2.05973233e-03
      2.05973233e-03 1.02986610e-02 0. 2.05973233e-03 1.02986617e-03
      2.05973233e-03 3.50154489e-02 1.28733262e-01 1.02986617e-03
      1.54479919e-02 9.26879514e-03 4.11946466e-03 3.08959838e-03
      3.60453129e-02 2.05973233e-03 1.64778586e-02 1.02986617e-03
      9.26879514e-03 1.02986617e-03 1.64778586e-02 2.67765187e-02
      4.94335741e-02 8.23892932e-03 0. 2.05973233e-03 2.05973233e-03
      3.08959838e-03 1.02986617e-03 1.44181261e-02 4.11946466e-03
      1.58599377e-01 0. 4.11946466e-03 2.05973233e-03 0. 1.02986617e-03
      0. 8.23892932e-03 3.08959838e-03 2.05973233e-03 2.05973233e-03 0.
      2.05973233e-03 3.08959838e-03 1.02986617e-03 4.11946466e-03 0.
      4.11946466e-03 4.11946466e-03 4.11946466e-03 5.14933048e-03 0.
      1.64778586e-02 5.14933048e-03 2.88362522e-02 2.78063845e-02
      1.02986617e-03 1.02986617e-03 3.39855812e-02 2.05973233e-03
      3.08959838e-03 2.05973233e-03 1.02986617e-03 2.05973233e-03
      1.85375903e-02 4.11946466e-03 0. 1.13285277e-02 3.08959838e-03
      1.02986617e-03 4.11946466e-03 1.02986617e-03 1.02986617e-03
      5.14933057e-02 5.14933048e-03 1.54479919e-02 3.29557173e-02
      1.75077245e-02 1.02986610e-02 1.02986617e-03 4.11946466e-03</_>
    <_>
      5.98205393e-03 1.99401798e-03 2.99102697e-03 9.97008989e-04
      1.99401798e-03 0. 9.97008989e-04 1.29611166e-02 5.98205393e-03
      2.99102697e-03 0. 6.97906269e-03 9.97008989e-04 1.99401798e-03
      1.99401798e-03 4.98504471e-03 0. 9.97008942e-03 0. 3.98803595e-03
      7.97607191e-03 1.99401798e-03 9.97008989e-04 9.97008989e-04
      2.99102697e-03 7.97607191e-03 2.02392817e-01 1.99401798e-03
      2.29312070e-02 9.97008942e-03 1.99401798e-03 3.98803595e-03
      3.38983051e-02 1.99401798e-03 1.09670991e-02 3.98803595e-03
      1.59521438e-02 9.97008989e-04 3.98803595e-03 8.97308066e-03
      4.88534383e-02 3.98803595e-03 9.97008989e-04 3.98803595e-03
      5.98205393e-03 9.97008989e-04 3.98803595e-03 6.97906269e-03 0.
      1.95413753e-01 1.99401798e-03 3.98803595e-03 3.98803595e-03 0. 0.
      1.99401798e-03 5.98205393e-03 1.99401798e-03 0. 9.97008989e-04 0.
      2.99102697e-03 1.99401798e-03 0. 9.97008989e-04 2.99102697e-03
      9.97008989e-04 0. 9.97008989e-04 9.97008989e-04 2.99102697e-03
      9.97008942e-03 1.99401798e-03 4.28713858e-02 3.78863402e-02
      2.99102697e-03 9.97008989e-04 5.58325015e-02 2.99102697e-03 0.
      3.98803595e-03 9.97008989e-04 9.97008989e-04 5.98205393e-03
      6.97906269e-03 3.98803595e-03 1.09670991e-02 1.99401798e-03
      2.99102697e-03 1.99401798e-03 2.99102697e-03 2.99102697e-03
      1.69491526e-02 4.98504471e-03 1.89431701e-02 2.39282157e-02
      2.99102697e-03 3.98803595e-03 9.97008989e-04 2.99102697e-03</_>
    <_>
      3.82695496e-02 8.31946731e-04 1.66389346e-03 4.99168038e-03
      5.82362711e-03 8.31946731e-04 0. 1.24792010e-02 4.99168038e-03
      1.66389346e-03 0. 5.82362711e-03 8.31946731e-04 2.49584019e-03
      2.49584019e-03 8.31946731e-04 4.15973365e-03 6.65557384e-03
      1.66389346e-03 0. 1.49750412e-02 4.15973365e-03 1.66389346e-03
      2.49584019e-03 4.15973365e-03 2.16306150e-02 1.29783690e-01
      8.31946731e-04 1.33111477e-02 8.31946731e-03 7.48752058e-03 0.
      3.41098160e-02 2.49584019e-03 2.07986683e-02 1.66389346e-03
      4.99168038e-03 2.49584019e-03 1.33111477e-02 2.24625617e-02
      3.82695496e-02 4.15973365e-03 2.49584019e-03 3.32778692e-03
      2.49584019e-03 0. 8.31946731e-04 9.98336077e-03 3.32778692e-03
      2.01331109e-01 6.65557384e-03 0. 3.32778692e-03 8.31946731e-04
      8.31946731e-04 0. 3.32778692e-03 1.66389346e-03 2.49584019e-03
      4.99168038e-03 1.66389346e-03 0. 4.15973365e-03 0. 3.32778692e-03
      1.66389346e-03 1.66389346e-03 3.32778692e-03 0. 0. 2.49584019e-03
      1.49750412e-02 2.49584019e-03 1.49750412e-02 1.83028281e-02
      3.32778692e-03 0. 2.49584019e-02 6.65557384e-03 8.31946731e-04
      3.32778692e-03 2.49584019e-03 8.31946731e-03 1.41430944e-02
      9.98336077e-03 1.66389346e-03 1.24792010e-02 1.66389346e-03
      4.15973365e-03 3.32778692e-03 2.49584019e-03 4.99168038e-03
      7.07154721e-02 3.32778692e-03 9.98336077e-03 2.57903486e-02
      3.32778692e-03 7.48752058e-03 1.66389346e-03 5.82362711e-03</_>
    <_>
      2.56653987e-02 0. 1.90114067e-03 2.85171112e-03 3.80228134e-03
      9.50570335e-04 0. 2.56653987e-02 2.85171112e-03 2.85171112e-03
      9.50570335e-04 1.52091254e-02 2.85171112e-03 0. 9.50570335e-04
      9.50570335e-04 2.85171112e-03 4.75285156e-03 3.80228134e-03
      9.50570335e-04 1.33079849e-02 1.90114067e-03 0. 9.50570335e-04
      1.90114067e-03 2.09125467e-02 1.20722435e-01 9.50570335e-04
      2.47148294e-02 6.65399246e-03 6.65399246e-03 9.50570335e-04
      2.85171103e-02 0. 2.28136890e-02 0. 1.52091254e-02 0.
      1.90114067e-03 2.94676814e-02 5.22813685e-02 9.50570335e-04 0. 0.
      5.70342224e-03 0. 2.85171112e-03 8.55513290e-03 9.50570335e-04
      1.78707227e-01 1.90114067e-03 0. 9.50570335e-04 9.50570335e-04 0.
      0. 1.90114067e-03 0. 0. 4.75285156e-03 0. 0. 1.90114067e-03
      9.50570335e-04 3.80228134e-03 1.90114067e-03 0. 1.90114067e-03 0.
      9.50570335e-04 0. 2.56653987e-02 3.80228134e-03 3.04182507e-02
      3.89733836e-02 1.90114067e-03 3.80228134e-03 5.89353628e-02
      4.75285156e-03 0. 6.65399246e-03 1.90114067e-03 1.90114067e-03
      2.28136890e-02 4.75285156e-03 9.50570335e-04 1.90114062e-02
      4.75285156e-03 9.50570335e-04 9.50570335e-04 9.50570335e-04
      9.50570335e-04 2.75665391e-02 9.50570335e-04 2.28136890e-02
      2.28136890e-02 4.75285156e-03 9.50570311e-03 0. 7.60456268e-03</_>
    <_>
      4.16666679e-02 0. 1.06837612e-03 3.20512825e-03 1.06837610e-02 0.
      1.06837612e-03 2.67094020e-02 5.34188049e-03 1.06837612e-03 0.
      6.41025649e-03 3.20512825e-03 0. 1.06837612e-03 2.13675224e-03
      6.41025649e-03 1.17521370e-02 0. 1.06837612e-03 2.56410260e-02
      2.13675224e-03 1.06837612e-03 0. 5.34188049e-03 2.24358980e-02
      1.92307696e-01 2.13675224e-03 3.09829060e-02 1.06837610e-02
      2.13675224e-03 0. 4.27350439e-02 0. 1.38888890e-02 1.06837612e-03
      6.41025649e-03 0. 1.70940179e-02 1.49572650e-02 3.95299159e-02
      1.06837612e-03 0. 1.06837612e-03 3.20512825e-03 2.13675224e-03 0.
      6.41025649e-03 1.06837612e-03 1.48504272e-01 1.06837612e-03
      4.27350448e-03 0. 0. 0. 0. 2.13675224e-03 1.06837612e-03
      1.06837612e-03 0. 1.06837612e-03 0. 0. 1.06837612e-03
      3.20512825e-03 0. 0. 5.34188049e-03 1.06837612e-03 1.06837612e-03
      0. 1.06837610e-02 3.20512825e-03 1.38888890e-02 2.02991460e-02
      1.06837612e-03 2.13675224e-03 4.27350439e-02 1.06837612e-03
      1.06837612e-03 1.06837612e-03 0. 3.20512825e-03 1.49572650e-02
      4.27350448e-03 0. 1.28205130e-02 1.06837612e-03 3.20512825e-03
      3.20512825e-03 3.20512825e-03 0. 6.19658120e-02 4.27350448e-03
      9.61538497e-03 2.35042740e-02 1.28205130e-02 1.06837612e-03
      1.06837612e-03 3.20512825e-03</_>
    <_>
      6.58008680e-02 1.73160178e-03 8.65800888e-04 6.92640711e-03
      3.46320355e-03 1.73160178e-03 8.65800888e-04 1.29870130e-02
      3.46320355e-03 3.46320355e-03 8.65800888e-04 6.06060587e-03
      2.59740255e-03 0. 8.65800888e-04 3.46320355e-03 6.92640711e-03
      1.21212117e-02 0. 3.46320355e-03 1.03896102e-02 5.19480510e-03
      2.59740255e-03 8.65800888e-04 0. 7.44588748e-02 1.54978350e-01 0.
      3.20346318e-02 2.59740255e-03 9.52380989e-03 8.65800888e-04
      1.73160173e-02 0. 2.68398263e-02 1.73160178e-03 7.79220788e-03
      8.65800888e-04 6.92640711e-03 1.21212117e-02 4.67532463e-02 0. 0.
      3.46320355e-03 4.32900432e-03 0. 2.59740255e-03 2.94372290e-02
      5.19480510e-03 1.07359305e-01 6.92640711e-03 4.32900432e-03
      2.59740255e-03 8.65800888e-04 0. 0. 4.32900432e-03 8.65800888e-04
      8.65800888e-04 8.65800888e-04 8.65800888e-04 0. 5.19480510e-03
      4.32900432e-03 1.73160178e-03 1.73160178e-03 2.59740255e-03
      3.46320355e-03 8.65800888e-04 1.73160178e-03 2.59740255e-03
      1.12554114e-02 1.73160178e-03 1.64502170e-02 2.16450226e-02 0.
      8.65800888e-04 1.81818176e-02 4.32900432e-03 1.73160178e-03
      5.19480510e-03 1.73160178e-03 6.06060587e-03 2.68398263e-02
      1.73160178e-03 8.65800888e-04 9.52380989e-03 2.59740255e-03
      3.46320355e-03 0. 2.59740255e-03 0. 5.54112568e-02 6.06060587e-03
      7.79220788e-03 1.90476198e-02 8.65800865e-03 1.03896102e-02
      8.65800888e-04 4.32900432e-03</_>
    <_>
      2.39808150e-02 2.39808159e-03 2.39808159e-03 0. 5.99520374e-03
      1.19904079e-03 0. 1.31894480e-02 3.59712238e-03 1.19904079e-03
      2.39808159e-03 8.39328580e-03 2.39808159e-03 0. 0. 5.99520374e-03
      4.79616318e-03 4.79616318e-03 2.39808159e-03 0. 2.03836933e-02
      2.39808159e-03 0. 1.19904079e-03 2.39808159e-03 3.83693054e-02
      1.25899285e-01 0. 2.39808150e-02 1.19904075e-02 2.03836933e-02
      2.39808159e-03 2.99760196e-02 3.59712238e-03 1.19904075e-02
      3.59712238e-03 1.07913669e-02 1.19904079e-03 4.79616318e-03
      2.51798555e-02 3.83693054e-02 3.59712238e-03 0. 4.79616318e-03 0.
      1.19904079e-03 2.39808159e-03 1.43884895e-02 4.79616318e-03
      1.64268583e-01 3.59712238e-03 1.19904079e-03 3.59712238e-03
      1.19904079e-03 0. 1.19904079e-03 1.19904079e-03 3.59712238e-03 0.
      0. 1.19904079e-03 0. 3.59712238e-03 0. 1.19904079e-03 0.
      3.59712238e-03 4.79616318e-03 0. 4.79616318e-03 0. 1.07913669e-02
      0. 4.07673866e-02 4.19664271e-02 0. 0. 3.47721837e-02
      2.39808159e-03 1.19904079e-03 1.19904079e-03 0. 4.79616318e-03
      2.27817744e-02 3.59712238e-03 0. 1.55875301e-02 0. 3.59712238e-03
      3.59712238e-03 0. 0. 4.07673866e-02 8.39328580e-03 2.27817744e-02
      1.43884895e-02 1.55875301e-02 9.59232636e-03 1.19904079e-03
      5.99520374e-03</_>
    <_>
      1.88679248e-02 0. 0. 0. 5.14579751e-03 1.71526591e-03 0.
      3.43053183e-03 1.71526591e-03 1.71526591e-03 1.71526591e-03
      1.71526591e-03 0. 0. 0. 1.71526591e-03 1.71526591e-03
      6.86106365e-03 1.71526591e-03 0. 3.43053183e-03 0. 1.71526591e-03
      0. 0. 4.80274446e-02 2.65866220e-01 0. 5.14579751e-02
      5.14579751e-03 3.43053183e-03 0. 1.88679248e-02 0. 1.88679248e-02
      0. 1.71526591e-03 0. 8.57632887e-03 8.57632887e-03 1.02915950e-02
      1.71526591e-03 0. 1.71526591e-03 0. 0. 1.71526591e-03
      8.57632887e-03 0. 2.43567750e-01 3.43053183e-03 0. 6.86106365e-03
      0. 0. 0. 0. 0. 0. 1.71526591e-03 0. 0. 1.71526591e-03 0. 0. 0. 0.
      0. 1.71526591e-03 0. 1.71526591e-03 5.14579751e-03 0.
      6.86106365e-03 1.20068612e-02 0. 5.14579751e-03 2.91595198e-02
      3.43053183e-03 0. 5.14579751e-03 0. 1.71526591e-03 2.22984571e-02
      0. 0. 0. 0. 1.71526591e-03 0. 0. 0. 9.09090936e-02 1.71526591e-03
      6.86106365e-03 1.54373925e-02 1.71526591e-03 1.02915950e-02 0.
      1.20068612e-02</_>
    <_>
      1.27970753e-02 1.82815362e-03 2.74223043e-03 7.31261447e-03
      1.00548444e-02 2.74223043e-03 9.14076809e-04 2.19378434e-02
      4.57038404e-03 3.65630724e-03 9.14076809e-04 7.31261447e-03
      2.74223043e-03 2.74223043e-03 9.14076809e-04 7.31261447e-03
      4.57038404e-03 9.14076809e-03 0. 9.14076809e-04 8.22669081e-03
      7.31261447e-03 0. 2.74223043e-03 2.74223043e-03 2.37659961e-02
      1.77330896e-01 2.74223043e-03 2.10237652e-02 1.46252289e-02
      6.39853766e-03 2.74223043e-03 2.55941506e-02 9.14076809e-04
      6.39853766e-03 1.82815362e-03 1.00548444e-02 5.48446085e-03
      1.91956125e-02 9.14076809e-03 1.73674580e-02 5.48446085e-03
      9.14076809e-04 8.22669081e-03 1.82815362e-03 2.74223043e-03
      3.65630724e-03 1.82815362e-03 0. 1.30712986e-01 1.18829980e-02
      8.22669081e-03 3.65630724e-03 4.57038404e-03 0. 1.82815362e-03
      6.39853766e-03 9.14076809e-04 2.74223043e-03 9.14076809e-04
      2.74223043e-03 1.82815362e-03 5.48446085e-03 2.74223043e-03
      4.57038404e-03 3.65630724e-03 3.65630724e-03 1.00548444e-02
      3.65630724e-03 9.14076809e-04 1.82815362e-03 1.64533816e-02
      5.48446085e-03 2.01096889e-02 1.18829980e-02 1.82815362e-03
      4.57038404e-03 1.91956125e-02 7.31261447e-03 3.65630724e-03
      1.09689217e-02 5.48446085e-03 5.48446085e-03 3.65630724e-02
      1.09689217e-02 5.48446085e-03 1.37111517e-02 9.14076809e-03
      2.74223043e-03 3.65630724e-03 1.82815362e-03 1.82815362e-03
      4.75319922e-02 6.39853766e-03 7.31261447e-03 1.55393053e-02
      3.65630724e-03 8.22669081e-03 9.14076809e-04 3.65630724e-03</_>
    <_>
      1.06888358e-02 2.96912109e-03 4.75059403e-03 5.93824219e-03
      1.00950114e-02 2.37529702e-03 2.96912109e-03 1.72209032e-02
      2.37529702e-03 4.15676972e-03 2.96912109e-03 7.71971513e-03
      1.78147270e-03 4.15676972e-03 7.12589081e-03 7.71971513e-03
      2.96912109e-03 7.71971513e-03 1.78147270e-03 2.37529702e-03
      1.60332546e-02 4.75059403e-03 2.96912109e-03 2.37529702e-03
      3.56294541e-03 8.31353944e-03 5.81947751e-02 1.78147270e-03
      5.34441788e-03 2.96912109e-03 1.66270789e-02 4.15676972e-03
      2.55344417e-02 4.15676972e-03 1.12826601e-02 4.75059403e-03
      5.34441788e-03 5.34441788e-03 1.78147270e-03 3.20665091e-02
      7.83848017e-02 6.53206650e-03 1.18764851e-03 1.18764844e-02
      7.12589081e-03 5.93824219e-03 7.12589081e-03 5.93824219e-03
      8.90736375e-03 6.88836128e-02 3.56294541e-03 1.06888358e-02
      7.71971513e-03 3.56294541e-03 4.15676972e-03 1.18764851e-03
      5.93824219e-03 8.31353944e-03 3.56294541e-03 4.15676972e-03
      1.18764851e-03 4.75059403e-03 5.93824219e-03 2.96912109e-03
      8.31353944e-03 4.75059403e-03 5.34441788e-03 4.75059403e-03
      7.71971513e-03 7.12589081e-03 2.96912109e-03 8.90736375e-03
      1.78147270e-03 2.61282660e-02 3.74109261e-02 6.53206650e-03
      7.12589081e-03 3.44418064e-02 6.53206650e-03 4.15676972e-03
      6.53206650e-03 1.30641330e-02 2.79097389e-02 1.18764844e-02
      1.00950114e-02 5.34441788e-03 1.48456059e-02 3.56294541e-03
      5.34441788e-03 6.53206650e-03 4.15676972e-03 3.56294541e-03
      1.66270789e-02 3.32541578e-02 1.84085518e-02 1.36579573e-02
      1.12826601e-02 6.53206650e-03 1.78147270e-03 1.48456059e-02</_>
    <_>
      2.57142857e-02 0. 2.85714283e-03 1.42857141e-03 7.14285718e-03
      1.42857141e-03 1.42857141e-03 5.71428565e-03 1.42857141e-03 0.
      1.42857141e-03 5.71428565e-03 4.28571412e-03 0. 1.42857141e-03
      4.28571412e-03 1.42857141e-03 8.57142825e-03 0. 1.42857141e-03
      5.71428565e-03 2.85714283e-03 2.85714283e-03 1.42857141e-03 0.
      1.42857144e-02 1.55714288e-01 0. 5.14285713e-02 1.57142859e-02 0.
      0. 3.85714285e-02 0. 1.14285713e-02 4.28571412e-03 8.57142825e-03
      4.28571412e-03 1.57142859e-02 1.71428565e-02 1.99999996e-02 0. 0.
      1.14285713e-02 2.85714283e-03 5.71428565e-03 0. 9.99999978e-03 0.
      1.50000006e-01 7.14285718e-03 7.14285718e-03 1.28571428e-02 0. 0.
      0. 2.85714283e-03 1.42857141e-03 0. 0. 0. 1.42857141e-03
      2.85714283e-03 1.42857141e-03 0. 0. 5.71428565e-03 1.42857141e-03
      7.14285718e-03 1.42857141e-03 5.71428565e-03 1.14285713e-02
      5.71428565e-03 4.28571440e-02 5.00000007e-02 1.42857141e-03 0.
      5.85714281e-02 5.71428565e-03 1.42857141e-03 7.14285718e-03 0.
      4.28571412e-03 2.14285720e-02 4.28571412e-03 4.28571412e-03
      9.99999978e-03 5.71428565e-03 0. 0. 1.42857141e-03 1.42857141e-03
      3.85714285e-02 4.28571412e-03 7.14285718e-03 1.14285713e-02
      5.71428565e-03 4.28571412e-03 2.85714283e-03 4.28571412e-03</_>
    <_>
      2.60078032e-02 0. 2.60078022e-03 0. 0. 2.60078022e-03 0.
      2.99089719e-02 2.60078022e-03 1.30039011e-03 0. 1.56046813e-02
      1.30039011e-03 2.60078022e-03 2.60078022e-03 3.90117033e-03
      2.60078022e-03 7.80234067e-03 1.30039011e-03 2.60078022e-03
      2.08062418e-02 2.60078022e-03 2.60078022e-03 1.30039011e-03
      1.30039011e-03 1.82054620e-02 1.18335500e-01 0. 1.30039011e-03
      9.10273101e-03 1.30039016e-02 2.60078022e-03 2.73081921e-02
      2.60078022e-03 9.10273101e-03 2.60078022e-03 6.50195079e-03
      1.30039011e-03 1.56046813e-02 2.21066326e-02 6.24187253e-02
      5.20156045e-03 1.30039011e-03 7.80234067e-03 2.60078022e-03 0.
      5.20156045e-03 9.10273101e-03 2.60078022e-03 7.93237984e-02
      1.30039011e-03 2.60078022e-03 6.50195079e-03 3.90117033e-03
      1.30039011e-03 2.60078022e-03 6.50195079e-03 6.50195079e-03
      1.30039011e-03 3.90117033e-03 2.60078022e-03 0. 1.17035108e-02
      2.60078022e-03 3.90117033e-03 5.20156045e-03 1.30039011e-03
      2.60078022e-03 2.60078022e-03 1.30039011e-03 1.30039011e-03
      3.77113149e-02 2.60078022e-03 2.86085829e-02 2.34070215e-02
      5.20156045e-03 0. 5.59167750e-02 1.30039011e-03 0. 3.90117033e-03
      3.90117033e-03 1.17035108e-02 1.82054620e-02 6.50195079e-03
      1.30039011e-03 3.12093627e-02 6.50195079e-03 1.30039011e-03
      2.60078022e-03 3.90117033e-03 1.30039011e-03 2.08062418e-02
      2.47074123e-02 1.43042915e-02 4.03120928e-02 2.60078022e-03
      1.56046813e-02 1.30039011e-03 2.60078022e-03</_>
    <_>
      1.71428565e-02 2.85714283e-03 0. 0. 2.85714283e-03 0. 0.
      2.57142857e-02 0. 0. 0. 2.85714283e-03 2.85714283e-03
      2.85714283e-03 0. 0. 8.57142825e-03 2.85714283e-03 2.85714283e-03
      0. 1.14285713e-02 0. 5.71428565e-03 0. 0. 1.42857144e-02
      1.19999997e-01 0. 2.85714283e-03 1.71428565e-02 1.14285713e-02 0.
      2.57142857e-02 0. 2.85714283e-03 0. 3.42857130e-02 0.
      5.71428565e-03 0. 1.54285714e-01 5.71428565e-03 0. 5.71428565e-03
      2.85714283e-03 0. 2.85714283e-03 2.85714283e-03 2.85714283e-03
      1.51428565e-01 5.71428565e-03 2.85714283e-03 5.71428565e-03 0.
      5.71428565e-03 0. 2.85714283e-03 0. 0. 0. 0. 0. 8.57142825e-03 0.
      5.71428565e-03 0. 2.85714283e-03 0. 2.85714283e-03 0. 0.
      1.99999996e-02 0. 4.57142852e-02 1.71428565e-02 5.71428565e-03
      5.71428565e-03 2.85714287e-02 5.71428565e-03 0. 2.85714283e-03
      2.85714283e-03 1.14285713e-02 8.57142825e-03 5.71428565e-03 0.
      3.14285718e-02 8.57142825e-03 0. 8.57142825e-03 2.85714283e-03
      2.85714283e-03 1.14285713e-02 1.14285713e-02 3.14285718e-02
      1.14285713e-02 2.85714283e-03 1.42857144e-02 2.85714283e-03
      5.71428565e-03</_>
    <_>
      3.19548883e-02 0. 0. 0. 0. 3.75939859e-03 1.87969930e-03
      5.63909765e-03 3.75939859e-03 0. 1.87969930e-03 0. 0.
      1.87969930e-03 0. 3.75939859e-03 0. 5.63909765e-03 0. 0.
      9.39849578e-03 0. 3.75939859e-03 0. 1.87969930e-03 2.25563906e-02
      2.63157904e-01 1.87969930e-03 3.38345878e-02 1.12781953e-02
      1.31578948e-02 0. 3.38345878e-02 0. 1.31578948e-02 0. 0. 0.
      2.44360901e-02 7.51879718e-03 1.12781953e-02 0. 0. 1.87969930e-03
      0. 0. 0. 5.63909765e-03 0. 2.18045115e-01 0. 0. 1.87969930e-03
      1.87969930e-03 0. 0. 1.87969930e-03 0. 0. 1.87969930e-03 0.
      1.87969930e-03 0. 0. 0. 0. 3.75939859e-03 0. 3.75939859e-03
      1.87969930e-03 0. 1.69172939e-02 0. 2.06766911e-02 2.25563906e-02
      0. 1.87969930e-03 2.25563906e-02 1.87969930e-03 0. 0. 0.
      1.87969930e-03 1.12781953e-02 9.39849578e-03 0. 1.69172939e-02
      7.51879718e-03 1.87969930e-03 3.75939859e-03 1.87969930e-03
      3.75939859e-03 6.01503775e-02 0. 7.51879718e-03 9.39849578e-03
      9.39849578e-03 7.51879718e-03 0. 5.63909765e-03</_>
    <_>
      7.78816221e-03 1.55763235e-03 0. 1.55763235e-03 4.67289705e-03
      1.55763235e-03 0. 1.09034264e-02 3.11526470e-03 3.11526470e-03 0.
      1.55763235e-03 0. 1.55763235e-03 0. 3.11526470e-03 4.67289705e-03
      7.78816221e-03 4.67289705e-03 0. 1.55763235e-03 1.55763235e-03
      3.11526470e-03 4.67289705e-03 4.67289705e-03 9.34579410e-03
      1.32398754e-01 1.55763235e-03 9.34579410e-03 1.24610588e-02
      6.23052940e-03 0. 6.07476644e-02 0. 1.09034264e-02 0.
      2.02492215e-02 1.55763235e-03 1.40186911e-02 2.64797509e-02
      2.64797509e-02 4.67289705e-03 0. 6.23052940e-03 1.55763235e-03
      1.55763235e-03 3.11526470e-03 1.09034264e-02 1.55763235e-03
      1.37071654e-01 4.67289705e-03 4.67289705e-03 1.55763235e-03 0. 0.
      0. 3.11526470e-03 1.55763235e-03 1.55763235e-03 0. 6.23052940e-03
      1.55763235e-03 3.11526470e-03 6.23052940e-03 0. 6.23052940e-03
      1.55763235e-03 1.55763235e-03 1.55763235e-03 0. 0. 7.78816221e-03
      1.55763235e-03 6.85358271e-02 3.89408097e-02 0. 6.23052940e-03
      9.65732113e-02 1.55763235e-03 6.23052940e-03 4.67289705e-03
      4.67289705e-03 3.11526470e-03 3.11526470e-03 0. 1.55763235e-03
      3.11526470e-03 4.67289705e-03 3.11526470e-03 1.55763235e-03 0.
      6.23052940e-03 4.04984429e-02 1.55763235e-03 4.04984429e-02
      1.55763244e-02 1.09034264e-02 4.67289705e-03 0. 6.23052940e-03</_>
    <_>
      6.72494946e-03 6.05245447e-03 5.37995948e-03 3.36247473e-03
      1.14324139e-02 2.01748498e-03 3.36247473e-03 1.61398798e-02
      1.00874240e-02 8.06993991e-03 5.37995948e-03 8.74243397e-03
      4.70746448e-03 6.05245447e-03 2.68997974e-03 9.41492897e-03
      2.01748498e-03 2.01748498e-03 3.36247473e-03 5.37995948e-03
      1.07599190e-02 4.03496996e-03 2.01748498e-03 4.03496996e-03
      4.70746448e-03 5.37995948e-03 7.39744455e-02 6.72494934e-04
      2.68997974e-03 6.72494934e-04 1.47948889e-02 1.34498987e-03
      6.05245447e-03 3.36247473e-03 1.41223939e-02 8.06993991e-03
      6.72494946e-03 4.70746448e-03 2.01748498e-03 1.61398798e-02
      5.71620725e-02 7.39744445e-03 4.70746448e-03 9.41492897e-03
      1.07599190e-02 6.72494946e-03 7.39744445e-03 1.88298579e-02
      1.00874240e-02 1.12306654e-01 2.01748498e-03 6.72494946e-03
      1.14324139e-02 4.03496996e-03 4.70746448e-03 3.36247473e-03
      6.05245447e-03 6.72494946e-03 5.37995948e-03 2.68997974e-03
      8.74243397e-03 2.68997974e-03 1.14324139e-02 6.72494946e-03
      7.39744445e-03 8.74243397e-03 4.03496996e-03 5.37995948e-03
      4.70746448e-03 4.03496996e-03 3.36247473e-03 2.01748498e-03
      2.01748498e-03 8.06993991e-03 4.16946858e-02 9.41492897e-03
      8.74243397e-03 7.39744445e-03 3.36247473e-03 2.01748498e-03
      1.41223939e-02 6.05245447e-03 1.95023529e-02 2.35373229e-02
      7.39744445e-03 4.03496996e-03 1.54673839e-02 7.39744445e-03
      4.70746448e-03 4.03496996e-03 7.39744445e-03 6.05245447e-03
      2.28648279e-02 2.68997978e-02 2.68997978e-02 1.07599190e-02
      1.47948889e-02 1.21049089e-02 2.68997974e-03 4.70746448e-03</_>
    <_>
      1.08108111e-03 2.16216221e-03 0. 1.08108111e-03 5.40540554e-03 0.
      0. 1.29729733e-02 1.08108111e-02 5.40540554e-03 4.32432443e-03
      7.56756775e-03 1.08108111e-03 0. 1.08108111e-03 1.08108111e-03
      8.64864886e-03 2.16216221e-03 3.24324332e-03 4.32432443e-03
      5.40540554e-03 2.16216221e-03 1.08108111e-03 3.24324332e-03
      3.24324332e-03 1.40540544e-02 1.23243243e-01 3.24324332e-03
      1.40540544e-02 1.18918922e-02 6.48648664e-03 1.08108111e-03
      3.89189199e-02 1.08108111e-03 8.64864886e-03 4.32432443e-03
      1.18918922e-02 4.32432443e-03 4.32432443e-03 2.27027033e-02
      2.05405410e-02 3.24324332e-03 0. 1.08108111e-03 2.16216221e-03
      1.08108111e-03 0. 3.24324332e-03 1.08108111e-03 2.32432425e-01
      1.08108111e-03 3.24324332e-03 3.24324332e-03 1.08108111e-03
      3.24324332e-03 1.08108111e-03 6.48648664e-03 0. 1.08108111e-03
      1.08108111e-03 1.08108111e-03 0. 3.24324332e-03 1.08108111e-03
      4.32432443e-03 2.16216221e-03 2.16216221e-03 2.16216221e-03
      1.08108111e-03 0. 2.16216221e-03 9.72972997e-03 3.24324332e-03
      4.43243235e-02 3.78378369e-02 1.08108111e-03 5.40540554e-03
      6.91891909e-02 2.16216221e-03 1.08108111e-03 2.16216221e-03
      1.08108111e-03 5.40540554e-03 1.51351355e-02 9.72972997e-03
      1.08108111e-03 9.72972997e-03 8.64864886e-03 3.24324332e-03
      2.16216221e-03 0. 1.08108111e-03 1.08108111e-02 5.40540554e-03
      2.37837844e-02 2.59459466e-02 1.18918922e-02 7.56756775e-03
      1.08108111e-03 1.62162166e-02</_>
    <_>
      3.20334248e-02 4.17827303e-03 1.39275764e-03 0. 0. 0. 0. 0.
      4.17827303e-03 1.39275764e-03 1.39275764e-03 2.78551527e-03 0.
      1.39275764e-03 0. 2.78551527e-03 5.57103055e-03 1.39275764e-03
      2.78551527e-03 2.78551527e-03 6.96378853e-03 1.39275764e-03
      1.39275764e-03 0. 1.39275764e-03 6.12813383e-02 2.04735383e-01
      1.39275764e-03 3.76044586e-02 9.74930357e-03 4.17827303e-03 0.
      3.34261842e-02 1.39275764e-03 1.94986071e-02 1.39275764e-03
      2.78551527e-03 1.39275764e-03 1.53203346e-02 6.96378853e-03
      4.17827303e-03 5.57103055e-03 0. 1.39275764e-03 0. 2.78551527e-03
      2.78551527e-03 5.57103055e-03 6.96378853e-03 2.14484677e-01
      4.17827303e-03 1.39275764e-03 0. 1.39275764e-03 0. 1.39275764e-03
      4.17827303e-03 0. 0. 2.78551527e-03 0. 0. 0. 0. 4.17827303e-03
      1.39275764e-03 0. 0. 0. 0. 0. 1.67130921e-02 0. 1.94986071e-02
      1.94986071e-02 2.78551527e-03 2.78551527e-03 4.17827303e-03 0. 0.
      1.39275764e-03 1.39275764e-03 1.39275764e-03 3.48189399e-02
      5.57103055e-03 1.39275764e-03 1.53203346e-02 1.39275764e-03
      2.78551527e-03 0. 5.57103055e-03 0. 7.93871880e-02 2.78551527e-03
      1.94986071e-02 4.17827303e-03 9.74930357e-03 2.78551527e-03 0.
      4.17827303e-03</_>
    <_>
      1.59235671e-02 6.36942685e-03 8.75796191e-03 2.38853507e-03
      4.77707013e-03 7.16560520e-03 5.57324849e-03 2.54777074e-02
      7.96178356e-03 6.36942685e-03 1.59235671e-03 4.77707013e-03
      1.59235671e-03 7.96178356e-03 7.96178356e-04 1.19426753e-02
      3.18471342e-03 1.03503186e-02 4.77707013e-03 7.16560520e-03
      1.99044589e-02 2.38853507e-03 4.77707013e-03 7.16560520e-03 0.
      6.36942685e-03 2.86624208e-02 3.98089178e-03 3.18471342e-03
      2.38853507e-03 1.43312104e-02 1.59235671e-03 2.30891723e-02
      1.59235671e-03 1.59235671e-02 8.75796191e-03 1.27388537e-02
      3.18471342e-03 5.57324849e-03 2.94585992e-02 4.53821644e-02
      1.11464970e-02 3.98089178e-03 1.03503186e-02 1.03503186e-02
      3.98089178e-03 3.98089178e-03 1.35350320e-02 1.11464970e-02
      6.13057315e-02 3.18471342e-03 1.11464970e-02 1.35350320e-02
      4.77707013e-03 1.03503186e-02 6.36942685e-03 7.96178356e-03
      9.55414027e-03 4.77707013e-03 8.75796191e-03 6.36942685e-03
      1.59235671e-03 1.19426753e-02 7.96178356e-03 7.96178356e-03
      8.75796191e-03 2.38853507e-03 6.36942685e-03 6.36942685e-03
      1.11464970e-02 3.18471342e-03 7.96178356e-03 6.36942685e-03
      3.66242044e-02 2.62738857e-02 7.16560520e-03 3.98089178e-03
      2.78662425e-02 3.98089178e-03 4.77707013e-03 1.27388537e-02
      9.55414027e-03 2.07006373e-02 1.03503186e-02 8.75796191e-03
      3.18471342e-03 9.55414027e-03 5.57324849e-03 6.36942685e-03
      3.18471342e-03 3.18471342e-03 9.55414027e-03 9.55414027e-03
      3.34394909e-02 2.54777074e-02 3.18471342e-03 1.27388537e-02
      5.57324849e-03 2.38853507e-03 1.03503186e-02</_>
    <_>
      1.29032256e-02 3.22580640e-03 3.22580640e-03 4.83870972e-03
      1.61290320e-03 1.61290320e-03 4.83870972e-03 2.90322583e-02
      1.61290320e-03 3.22580640e-03 0. 6.45161280e-03 1.61290320e-03 0.
      0. 0. 3.22580640e-03 4.83870972e-03 3.22580640e-03 8.06451589e-03
      1.93548389e-02 1.61290320e-03 4.83870972e-03 1.61290320e-03 0.
      1.12903230e-02 1.45161286e-01 0. 0. 1.93548389e-02 6.45161280e-03
      1.61290320e-03 3.70967723e-02 0. 1.61290320e-03 3.22580640e-03
      8.06451589e-03 1.61290320e-03 1.12903230e-02 1.12903230e-02
      7.41935447e-02 1.61290320e-03 0. 1.45161292e-02 8.06451589e-03
      1.61290320e-03 3.22580640e-03 1.12903230e-02 8.06451589e-03
      1.19354837e-01 0. 6.45161280e-03 1.61290320e-03 0. 1.61290320e-03
      1.61290320e-03 3.22580640e-03 0. 0. 1.61290320e-03 1.61290320e-03
      3.22580640e-03 8.06451589e-03 0. 4.83870972e-03 3.22580640e-03
      1.61290320e-03 6.45161280e-03 1.61290320e-03 3.22580640e-03 0.
      4.19354849e-02 3.22580640e-03 1.61290318e-02 2.74193548e-02 0. 0.
      7.90322572e-02 4.83870972e-03 0. 0. 4.83870972e-03 2.41935477e-02
      9.67741944e-03 8.06451589e-03 1.61290320e-03 1.77419353e-02
      3.22580640e-03 0. 1.61290320e-03 4.83870972e-03 0. 1.45161292e-02
      1.93548389e-02 8.06451589e-03 1.61290318e-02 0. 1.29032256e-02
      3.22580640e-03 6.45161280e-03</_>
    <_>
      3.14136110e-02 6.54450245e-03 1.30890054e-03 2.61780107e-03
      2.61780107e-03 1.30890054e-03 1.30890054e-03 1.17801046e-02
      1.04712043e-02 2.61780107e-03 1.30890054e-03 3.92670138e-03
      2.61780107e-03 1.30890054e-03 0. 6.54450245e-03 5.23560215e-03
      7.85340276e-03 2.61780107e-03 1.04712043e-02 5.23560215e-03
      5.23560215e-03 2.61780107e-03 9.16230399e-03 1.30890049e-02
      4.31937166e-02 1.64921463e-01 2.61780107e-03 2.87958123e-02
      1.43979061e-02 6.54450245e-03 3.92670138e-03 2.87958123e-02 0.
      1.04712043e-02 0. 1.04712043e-02 1.30890054e-03 1.57068055e-02
      1.17801046e-02 7.85340276e-03 3.92670138e-03 0. 6.54450245e-03
      2.61780107e-03 3.92670138e-03 5.23560215e-03 1.30890054e-03
      9.16230399e-03 1.37434557e-01 1.30890054e-03 2.61780107e-03
      5.23560215e-03 2.61780107e-03 2.61780107e-03 5.23560215e-03
      9.16230399e-03 7.85340276e-03 1.30890054e-03 0. 2.61780107e-03
      1.30890054e-03 5.23560215e-03 3.92670138e-03 1.30890054e-03 0.
      1.30890054e-03 6.54450245e-03 2.61780107e-03 3.92670138e-03 0.
      7.85340276e-03 1.30890054e-03 2.74869110e-02 2.48691104e-02
      2.61780107e-03 9.16230399e-03 3.27225141e-02 2.61780107e-03
      3.92670138e-03 2.61780107e-03 2.61780107e-03 6.54450245e-03
      1.43979061e-02 3.92670138e-03 3.92670138e-03 1.04712043e-02
      1.30890054e-03 3.92670138e-03 2.61780107e-03 1.30890054e-03
      3.92670138e-03 4.05759178e-02 0. 1.57068055e-02 1.17801046e-02
      1.57068055e-02 3.92670138e-03 3.92670138e-03 1.30890054e-03</_>
    <_>
      2.22222228e-02 0. 0. 0. 0. 0. 0. 1.33333340e-01 2.22222228e-02 0.
      0. 0. 0. 0. 0. 0. 0. 4.44444455e-02 2.22222228e-02 0.
      2.22222228e-02 0. 0. 0. 0. 0. 4.44444455e-02 0. 2.22222228e-02
      2.22222228e-02 2.22222228e-02 0. 0. 0. 0. 0. 2.22222228e-02 0. 0.
      0. 3.55555564e-01 0. 0. 0. 0. 0. 0. 0. 0. 0. 0. 0. 0. 0. 0. 0. 0.
      0. 0. 0. 0. 0. 0. 0. 0. 0. 0. 0. 0. 0. 0. 6.66666701e-02 0.
      2.22222228e-02 0. 0. 0. 2.22222228e-02 2.22222228e-02 0. 0. 0. 0.
      0. 0. 0. 2.22222228e-02 2.22222228e-02 0. 0. 0. 0. 0.
      4.44444455e-02 2.22222228e-02 0. 0. 0. 0. 0.</_>
    <_>
      3.42555977e-02 0. 0. 1.31752307e-03 5.27009228e-03 0.
      1.31752307e-03 2.76679844e-02 2.63504614e-03 1.31752307e-03
      1.31752307e-03 2.63504614e-03 1.31752307e-03 0. 1.31752307e-03
      7.90513866e-03 0. 1.18577071e-02 1.31752307e-03 5.27009228e-03
      2.37154141e-02 0. 3.95256933e-03 1.31752307e-03 0. 2.10803691e-02
      1.14624508e-01 0. 9.22266115e-03 3.95256933e-03 1.31752305e-02
      3.95256933e-03 2.63504609e-02 0. 6.58761524e-03 1.31752307e-03
      5.27009228e-03 1.31752307e-03 2.63504614e-03 2.50329375e-02
      9.88142267e-02 5.27009228e-03 0. 6.58761524e-03 1.05401846e-02
      3.95256933e-03 0. 6.58761524e-03 1.31752307e-03 7.90513828e-02
      7.90513866e-03 0. 2.63504614e-03 1.31752307e-03 0. 0.
      2.63504614e-03 3.95256933e-03 2.63504614e-03 5.27009228e-03 0.
      1.31752307e-03 5.27009228e-03 0. 3.95256933e-03 0. 1.31752307e-03
      5.27009228e-03 2.63504614e-03 1.31752307e-03 1.31752307e-03
      1.97628457e-02 3.95256933e-03 5.66534922e-02 1.84453223e-02 0.
      2.63504614e-03 6.19235821e-02 9.22266115e-03 0. 1.18577071e-02
      5.27009228e-03 1.58102773e-02 3.95256933e-03 7.90513866e-03
      5.27009228e-03 2.50329375e-02 2.63504614e-03 3.95256933e-03
      1.31752307e-03 2.63504614e-03 3.95256933e-03 2.63504609e-02
      9.22266115e-03 1.58102773e-02 3.68906446e-02 2.63504614e-03
      1.18577071e-02 0. 3.95256933e-03</_>
    <_>
      9.51086916e-03 4.07608692e-03 3.39673902e-03 2.71739135e-03
      8.83152150e-03 4.07608692e-03 2.71739135e-03 1.69836953e-02
      9.51086916e-03 2.71739135e-03 2.03804346e-03 4.07608692e-03
      1.35869568e-03 4.75543458e-03 4.07608692e-03 1.08695654e-02
      4.75543458e-03 1.35869561e-02 2.71739135e-03 4.07608692e-03
      2.37771738e-02 4.75543458e-03 4.07608692e-03 4.75543458e-03
      4.75543458e-03 4.75543458e-03 4.21195664e-02 4.75543458e-03
      3.39673902e-03 5.43478271e-03 5.43478271e-03 3.39673902e-03
      3.05706523e-02 1.35869568e-03 7.47282617e-03 6.79347804e-03
      1.01902178e-02 6.11413037e-03 1.15489131e-02 1.42663047e-02
      6.79347813e-02 7.47282617e-03 2.03804346e-03 1.15489131e-02
      8.15217383e-03 1.01902178e-02 3.39673902e-03 0. 1.22282607e-02
      6.65760860e-02 3.39673902e-03 4.75543458e-03 1.49456523e-02
      3.39673902e-03 2.71739135e-03 5.43478271e-03 8.83152150e-03
      1.08695654e-02 6.79347804e-03 4.07608692e-03 4.07608692e-03
      4.07608692e-03 6.11413037e-03 3.39673902e-03 5.43478271e-03
      6.79347804e-03 6.79347804e-03 5.43478271e-03 6.11413037e-03
      4.75543458e-03 2.71739135e-03 6.11413037e-03 5.43478271e-03
      3.32880430e-02 2.64945645e-02 6.79347804e-03 8.83152150e-03
      6.04619570e-02 8.15217383e-03 6.79347804e-03 1.42663047e-02
      1.01902178e-02 2.85326093e-02 4.07608692e-03 1.01902178e-02
      4.07608692e-03 1.08695654e-02 8.15217383e-03 1.15489131e-02
      5.43478271e-03 7.47282617e-03 4.75543458e-03 7.47282617e-03
      2.85326093e-02 1.15489131e-02 1.29076084e-02 1.01902178e-02
      8.83152150e-03 4.75543458e-03 6.79347804e-03</_>
    <_>
      4.00593467e-02 0. 0. 1.48367952e-03 2.96735903e-03 1.48367952e-03
      2.96735903e-03 8.90207756e-03 1.48367952e-03 1.48367952e-03 0.
      1.48367952e-03 1.48367952e-03 0. 1.48367952e-03 4.45103878e-03
      4.45103878e-03 7.41839781e-03 0. 2.96735903e-03 1.18694361e-02 0.
      0. 1.48367952e-03 0. 1.63204744e-02 2.35905051e-01 2.96735903e-03
      5.04451022e-02 8.90207756e-03 2.96735903e-03 1.48367952e-03
      3.85756679e-02 0. 1.33531159e-02 0. 2.96735903e-03 1.48367952e-03
      1.63204744e-02 1.33531159e-02 1.33531159e-02 0. 0. 1.48367952e-03
      2.96735903e-03 1.48367952e-03 0. 7.41839781e-03 0. 2.27002963e-01
      0. 0. 1.48367952e-03 1.48367952e-03 2.96735903e-03 0.
      1.48367952e-03 1.48367952e-03 1.48367952e-03 0. 0. 0. 0. 0. 0. 0.
      0. 4.45103878e-03 0. 2.96735903e-03 1.48367952e-03 1.03857564e-02
      1.48367952e-03 1.03857564e-02 2.22551934e-02 0. 1.48367952e-03
      7.41839781e-03 0. 1.48367952e-03 4.45103878e-03 1.48367952e-03 0.
      4.15430255e-02 0. 1.48367952e-03 7.41839781e-03 2.96735903e-03 0.
      1.48367952e-03 1.48367952e-03 1.48367952e-03 5.78635000e-02
      7.41839781e-03 1.18694361e-02 5.93471806e-03 8.90207756e-03
      7.41839781e-03 0. 5.93471806e-03</_>
    <_>
      2.80561130e-02 0. 2.00400804e-03 4.00801608e-03 2.00400804e-03 0.
      0. 2.80561130e-02 0. 2.00400804e-03 0. 6.01202389e-03
      2.00400804e-03 0. 0. 0. 2.00400804e-03 8.01603217e-03 0. 0.
      1.80360731e-02 0. 0. 0. 4.00801608e-03 1.40280565e-02
      1.58316627e-01 2.00400804e-03 2.00400804e-03 2.00400804e-03
      8.01603217e-03 2.00400804e-03 3.60721461e-02 0. 6.01202389e-03 0.
      6.01202389e-03 0. 2.40480956e-02 1.40280565e-02 7.81563148e-02
      4.00801608e-03 0. 8.01603217e-03 2.00400804e-03 2.00400804e-03 0.
      1.00200400e-02 4.00801608e-03 1.26252502e-01 4.00801608e-03 0.
      6.01202389e-03 0. 0. 6.01202389e-03 6.01202389e-03 6.01202389e-03
      2.00400804e-03 4.00801608e-03 4.00801608e-03 0. 2.00400804e-03 0.
      4.00801608e-03 0. 0. 4.00801608e-03 0. 4.00801608e-03 0.
      5.01001999e-02 0. 3.40681374e-02 2.00400800e-02 0. 0.
      5.01001999e-02 6.01202389e-03 4.00801608e-03 0. 0. 1.80360731e-02
      1.00200400e-02 0. 2.00400804e-03 1.60320643e-02 2.00400804e-03
      2.00400804e-03 0. 2.00400804e-03 2.00400804e-03 4.40881774e-02
      1.60320643e-02 8.01603217e-03 1.60320643e-02 0. 1.60320643e-02
      4.00801608e-03 1.00200400e-02</_>
    <_>
      4.93653044e-02 7.05218595e-03 1.41043728e-03 2.82087456e-03
      1.41043728e-03 2.82087456e-03 0. 1.41043719e-02 1.55148096e-02
      2.82087456e-03 0. 7.05218595e-03 4.23131185e-03 0. 1.41043728e-03
      8.46262369e-03 0. 8.46262369e-03 2.82087456e-03 0. 4.23131185e-03
      0. 4.23131185e-03 2.82087456e-03 4.23131185e-03 3.38504948e-02
      1.22708037e-01 1.41043728e-03 1.97461210e-02 1.69252474e-02
      8.46262369e-03 1.41043728e-03 3.52609307e-02 1.41043728e-03
      9.87306051e-03 1.41043728e-03 1.12834983e-02 0. 2.53878701e-02
      2.25669965e-02 1.69252474e-02 2.82087456e-03 4.23131185e-03
      1.41043728e-03 2.82087456e-03 5.64174913e-03 4.23131185e-03
      1.41043728e-03 4.23131185e-03 1.41043723e-01 4.23131185e-03
      5.64174913e-03 2.82087456e-03 2.82087456e-03 0. 2.82087456e-03
      1.41043728e-03 1.41043728e-03 4.23131185e-03 2.82087456e-03
      2.82087456e-03 0. 1.41043728e-03 2.82087456e-03 0. 2.82087456e-03
      0. 7.05218595e-03 0. 0. 2.82087456e-03 9.87306051e-03
      5.64174913e-03 2.82087438e-02 2.67983079e-02 0. 2.82087456e-03
      3.38504948e-02 1.41043728e-03 1.41043728e-03 5.64174913e-03
      1.41043728e-03 4.23131185e-03 2.25669965e-02 4.23131185e-03
      4.23131185e-03 1.41043719e-02 4.23131185e-03 2.82087456e-03
      1.41043728e-03 1.41043728e-03 5.64174913e-03 7.05218613e-02
      1.41043728e-03 2.96191815e-02 9.87306051e-03 7.05218595e-03
      5.64174913e-03 4.23131185e-03 0.</_>
    <_>
      1.15207378e-02 7.68049154e-03 5.37634408e-03 2.30414746e-03
      1.45929344e-02 1.53609831e-03 1.53609831e-03 1.45929344e-02
      2.45775729e-02 6.14439324e-03 7.68049154e-04 3.84024577e-03
      1.53609831e-03 7.68049154e-03 1.53609831e-03 7.68049154e-03
      2.30414746e-03 1.76651310e-02 2.30414746e-03 3.07219662e-03
      1.92012284e-02 3.07219662e-03 4.60829493e-03 4.60829493e-03
      5.37634408e-03 3.07219662e-03 6.22119829e-02 6.14439324e-03
      1.53609831e-03 2.30414746e-03 4.22427021e-02 2.30414746e-03
      1.99692789e-02 3.07219662e-03 1.15207378e-02 6.14439324e-03
      5.37634408e-03 6.14439324e-03 1.53609831e-03 1.53609831e-03
      4.22427021e-02 6.14439324e-03 1.53609831e-03 1.84331797e-02
      9.21658985e-03 2.30414746e-03 3.07219662e-03 1.30568361e-02
      1.38248848e-02 9.60061476e-02 3.84024577e-03 9.21658985e-03
      1.38248848e-02 2.30414746e-03 5.37634408e-03 3.84024577e-03
      9.21658985e-03 1.30568361e-02 5.37634408e-03 2.30414746e-03
      2.30414746e-03 3.07219662e-03 7.68049154e-03 3.07219662e-03
      6.14439324e-03 9.98463947e-03 8.44854116e-03 8.44854116e-03
      6.91244239e-03 3.84024577e-03 3.07219662e-03 6.91244239e-03
      7.68049154e-04 2.30414746e-03 2.84178182e-02 5.37634408e-03
      9.21658985e-03 1.15207378e-02 4.60829493e-03 3.84024577e-03
      1.68970823e-02 7.68049154e-03 2.45775729e-02 3.45622115e-02
      8.44854116e-03 3.07219662e-03 1.38248848e-02 8.44854116e-03
      6.14439324e-03 2.30414746e-03 4.60829493e-03 8.44854116e-03
      1.30568361e-02 3.99385579e-02 1.68970823e-02 1.61290318e-02
      3.07219662e-03 6.91244239e-03 3.84024577e-03 7.68049154e-04</_>
    <_>
      3.40909101e-02 0. 0. 1.62337662e-03 4.87012975e-03 0. 0.
      1.13636367e-02 3.24675324e-03 1.62337662e-03 0. 0. 0. 0. 0.
      3.24675324e-03 4.87012975e-03 0. 0. 0. 1.62337662e-03
      1.62337662e-03 0. 0. 1.62337662e-03 2.59740259e-02 2.43506491e-01
      0. 2.75974032e-02 6.49350649e-03 3.24675324e-03 1.62337662e-03
      2.92207785e-02 1.62337662e-03 1.46103892e-02 0. 1.62337662e-03
      3.24675324e-03 3.24675324e-03 1.78571437e-02 2.43506487e-02 0. 0.
      0. 0. 0. 0. 3.24675324e-03 1.62337662e-03 2.12662339e-01 0.
      1.62337662e-03 0. 1.62337662e-03 0. 0. 1.62337662e-03 0. 0. 0. 0.
      0. 1.62337662e-03 0. 4.87012975e-03 0. 1.62337662e-03
      1.62337662e-03 1.62337662e-03 0. 0. 2.27272734e-02 1.62337662e-03
      5.03246747e-02 2.11038962e-02 0. 0. 4.87012975e-02 0.
      1.62337662e-03 6.49350649e-03 0. 0. 2.43506487e-02 1.62337662e-03
      0. 4.87012975e-03 0. 0. 1.62337662e-03 0. 0. 6.49350658e-02 0.
      8.11688323e-03 1.62337665e-02 4.87012975e-03 4.87012975e-03 0.
      8.11688323e-03</_>
    <_>
      9.06693004e-03 9.89119709e-03 4.45103878e-03 1.08803166e-02
      8.24266393e-03 7.58325076e-03 8.57237075e-03 1.07154632e-02
      8.07781052e-03 9.06693004e-03 8.24266393e-03 1.10451700e-02
      6.26442488e-03 6.42927783e-03 8.07781052e-03 9.06693004e-03
      8.40751734e-03 1.59907676e-02 8.90207756e-03 8.07781052e-03
      1.10451700e-02 1.13748759e-02 7.58325076e-03 1.00560505e-02
      7.08869100e-03 3.79162538e-03 4.22024392e-02 6.26442488e-03
      4.78074513e-03 7.58325076e-03 1.51665015e-02 8.57237075e-03
      9.23178345e-03 5.27530489e-03 5.60501171e-03 5.44015830e-03
      1.30234091e-02 1.03857564e-02 1.07154632e-02 1.15397293e-02
      2.17606332e-02 1.43422354e-02 5.76986466e-03 9.72634368e-03
      7.08869100e-03 6.92383759e-03 6.26442488e-03 4.61589172e-03
      6.59413124e-03 3.72568406e-02 8.24266393e-03 5.11045149e-03
      9.23178345e-03 9.39663686e-03 8.24266393e-03 8.07781052e-03
      8.24266393e-03 8.73722415e-03 9.39663686e-03 1.00560505e-02
      1.12100234e-02 6.26442488e-03 1.30234091e-02 8.90207756e-03
      1.50016481e-02 1.38476752e-02 6.92383759e-03 1.02209030e-02
      7.41839781e-03 9.89119709e-03 5.76986466e-03 1.40125286e-02
      9.06693004e-03 1.05506098e-02 1.28585557e-02 7.74810417e-03
      3.95647855e-03 1.12100234e-02 8.24266393e-03 1.08803166e-02
      5.27530489e-03 7.41839781e-03 1.38476752e-02 1.10451700e-02
      1.33531159e-02 7.58325076e-03 1.15397293e-02 1.30234091e-02
      7.25354441e-03 9.56149027e-03 7.58325076e-03 7.58325076e-03
      1.38476752e-02 1.26937022e-02 1.21991429e-02 1.59907676e-02
      1.15397293e-02 1.17045827e-02 8.40751734e-03 1.26937022e-02</_>
    <_>
      4.77502309e-03 9.18273628e-03 7.16253463e-03 9.18273628e-03
      9.36639123e-03 8.53994489e-03 8.53994489e-03 8.90725479e-03
      1.05601465e-02 1.10192839e-02 8.44811741e-03 1.19375577e-02
      8.44811741e-03 9.91735514e-03 1.04683200e-02 1.13865929e-02
      8.99908133e-03 1.16620753e-02 6.97887968e-03 1.07438015e-02
      8.44811741e-03 9.82552767e-03 9.27456375e-03 8.08080845e-03
      9.55004618e-03 3.48943984e-03 5.69329644e-03 8.53994489e-03
      1.65289256e-03 1.10192839e-02 1.39577594e-02 7.62167107e-03
      8.72359984e-03 9.91735514e-03 6.88705221e-03 1.15702478e-02
      1.30394856e-02 1.00091826e-02 1.16620753e-02 1.26721766e-02
      1.58861335e-02 1.34986229e-02 6.61157025e-03 1.52433421e-02
      9.73370019e-03 1.02846650e-02 9.82552767e-03 7.07070716e-03
      9.73370019e-03 1.00091826e-02 1.04683200e-02 1.10192839e-02
      1.23966942e-02 8.17263499e-03 1.19375577e-02 7.43801659e-03
      9.91735514e-03 1.26721766e-02 9.27456375e-03 8.63177236e-03
      7.89715350e-03 6.61157025e-03 9.55004618e-03 8.17263499e-03
      1.21212117e-02 1.19375577e-02 9.27456375e-03 1.02846650e-02
      1.11111114e-02 7.62167107e-03 7.80532602e-03 1.17539028e-02
      8.44811741e-03 1.34986229e-02 1.98347103e-02 1.07438015e-02
      7.16253463e-03 1.68044083e-02 9.36639123e-03 7.80532602e-03
      1.08356290e-02 1.30394856e-02 1.54269971e-02 5.50964195e-03
      1.04683200e-02 8.26446246e-03 1.26721766e-02 1.34986229e-02
      1.07438015e-02 1.02846650e-02 8.53994489e-03 9.18273628e-03
      3.21395765e-03 1.46923782e-02 1.34067954e-02 1.40495868e-02
      1.19375577e-02 1.02846650e-02 9.18273628e-03 9.27456375e-03</_>
    <_>
      4.37773624e-03 1.00844279e-02 8.59912485e-03 9.14634112e-03
      1.00844279e-02 9.22451541e-03 8.36460292e-03 7.89556000e-03
      1.08661661e-02 1.11006880e-02 7.89556000e-03 1.11006880e-02
      8.98999348e-03 9.06816777e-03 9.22451541e-03 1.39931208e-02
      1.10225137e-02 9.92808025e-03 7.73921190e-03 1.04752975e-02
      9.06816777e-03 9.53721069e-03 7.50469044e-03 1.00062536e-02
      9.38086305e-03 2.73608509e-03 5.39399637e-03 1.00844279e-02
      1.25078170e-03 8.91182013e-03 1.61819886e-02 8.91182013e-03
      8.91182013e-03 8.52095056e-03 6.33208267e-03 1.17260786e-02
      1.20387739e-02 1.15697309e-02 9.92808025e-03 1.21951215e-02
      1.41494684e-02 1.20387739e-02 1.06316451e-02 1.11788614e-02
      1.23514701e-02 1.12570357e-02 1.28205130e-02 3.36147589e-03
      1.12570357e-02 1.06316451e-02 1.07879927e-02 1.15697309e-02
      1.34459035e-02 8.20825528e-03 9.69355833e-03 9.53721069e-03
      1.14133833e-02 1.10225137e-02 8.83364584e-03 9.38086305e-03
      1.00844279e-02 8.20825528e-03 1.23514701e-02 9.06816777e-03
      1.11788614e-02 1.18042529e-02 1.10225137e-02 1.07879927e-02
      1.21169481e-02 8.59912485e-03 8.91182013e-03 9.53721069e-03
      9.38086305e-03 1.04752975e-02 1.12570357e-02 1.03971232e-02
      8.98999348e-03 1.28986863e-02 8.91182013e-03 8.83364584e-03
      1.09443404e-02 1.25078177e-02 1.54002504e-02 6.33208267e-03
      1.04752975e-02 7.42651662e-03 1.11788614e-02 1.32895559e-02
      1.00062536e-02 1.26641653e-02 8.52095056e-03 1.08661661e-02
      2.18886812e-03 1.48530332e-02 8.75547249e-03 1.24296434e-02
      1.32113826e-02 9.77173261e-03 9.92808025e-03 1.14915576e-02</_>
    <_>
      8.84173252e-03 7.95756001e-03 1.06100794e-02 5.30503970e-03
      1.59151200e-02 7.95756001e-03 7.07338657e-03 2.56410260e-02
      1.32625997e-02 4.42086626e-03 3.53669329e-03 1.32625997e-02
      6.18921313e-03 7.95756001e-03 5.30503970e-03 1.32625997e-02
      6.18921313e-03 8.84173252e-03 2.65251985e-03 8.84173252e-03
      1.06100794e-02 4.42086626e-03 1.76834664e-03 4.42086626e-03
      2.65251985e-03 5.30503970e-03 8.84173252e-03 9.72590595e-03
      5.30503970e-03 7.07338657e-03 1.76834650e-02 4.42086626e-03
      9.72590595e-03 7.07338657e-03 1.50309457e-02 1.50309457e-02
      8.84173322e-04 1.14942528e-02 8.84173252e-03 7.07338657e-03
      8.39964598e-02 7.07338657e-03 4.42086626e-03 1.94518119e-02
      1.59151200e-02 2.65251985e-03 9.72590595e-03 1.76834664e-03
      1.41467731e-02 1.41467731e-02 7.07338657e-03 1.50309457e-02
      2.38726791e-02 4.42086626e-03 5.30503970e-03 6.18921313e-03
      9.72590595e-03 1.14942528e-02 5.30503970e-03 7.95756001e-03
      2.65251985e-03 2.65251985e-03 1.32625997e-02 8.84173322e-04
      8.84173252e-03 8.84173252e-03 1.14942528e-02 5.30503970e-03
      1.14942528e-02 2.65251985e-03 3.53669329e-03 1.14942528e-02
      3.53669329e-03 7.07338657e-03 1.23784263e-02 1.50309457e-02
      1.32625997e-02 1.14942528e-02 4.42086626e-03 8.84173252e-03
      2.47568525e-02 4.42086626e-03 1.76834650e-02 5.30503970e-03
      1.50309457e-02 5.30503970e-03 2.12201588e-02 7.07338657e-03
      9.72590595e-03 6.18921313e-03 1.06100794e-02 9.72590595e-03
      4.42086626e-03 2.03359853e-02 1.23784263e-02 3.44827585e-02
      6.18921313e-03 1.23784263e-02 1.76834664e-03 1.76834664e-03</_>
    <_>
      4.74892277e-03 1.15205348e-02 9.49784555e-03 8.97018705e-03
      1.09928763e-02 9.14607290e-03 1.02893328e-02 8.97018705e-03
      1.21361362e-02 1.06411045e-02 8.35458655e-03 1.12567060e-02
      1.02893328e-02 1.19602494e-02 9.23401676e-03 1.10808192e-02
      8.97018705e-03 9.84961726e-03 7.38721294e-03 1.08169904e-02
      8.61841533e-03 1.06411045e-02 1.01134460e-02 9.84961726e-03
      1.10808192e-02 2.90211942e-03 5.10069495e-03 1.00255031e-02
