<?xml version="1.0"?>
<opencv_storage>
<my_svm type_id="opencv-ml-svm">
  <svm_type>C_SVC</svm_type>
  <kernel><type>RBF</type>
    <gamma>5.0625000000000009e-01</gamma></kernel>
  <C>3.1250000000000000e+02</C>
  <term_criteria><epsilon>2.2204460492503131e-16</epsilon>
    <iterations>100000</iterations></term_criteria>
  <var_all>100</var_all>
  <var_count>100</var_count>
  <class_count>13</class_count>
  <class_labels type_id="opencv-matrix">
    <rows>1</rows>
    <cols>13</cols>
    <dt>i</dt>
    <data>
      1 2 3 4 5 6 7 8 9 10 11 12 13</data></class_labels>
  <sv_total>244</sv_total>
  <support_vectors>
    <_>
      2.33853012e-02 4.45434311e-03 2.22717156e-03 4.45434311e-03
      3.34075722e-03 4.45434311e-03 3.00668143e-02 2.22717156e-03
      1.44766150e-02 1.89309586e-02 1.55902002e-02 4.45434311e-03
      3.34075722e-03 3.34075722e-03 1.11358578e-03 2.33853012e-02
      7.79510010e-03 1.22494427e-02 7.79510010e-03 1.89309586e-02
      8.90868623e-03 1.11358576e-02 5.56792878e-03 5.56792878e-03
      2.22717156e-03 1.22494427e-02 0. 2.22717156e-03 7.79510010e-03
      1.67037863e-02 8.90868623e-03 3.34075722e-03 8.90868623e-03
      4.45434311e-03 1.67037863e-02 4.45434311e-03 2.22717151e-02
      8.90868623e-03 1.33630289e-02 2.33853012e-02 3.34075727e-02
      5.56792878e-03 1.00222714e-02 1.00222714e-02 1.22494427e-02
      5.56792878e-03 1.67037863e-02 1.67037863e-02 2.22717156e-03
      4.45434311e-03 3.34075722e-03 6.68151444e-03 3.34075722e-03
      1.11358578e-03 7.79510010e-03 2.33853012e-02 7.79510010e-03
      2.22717156e-03 1.55902002e-02 4.00890857e-02 2.00445428e-02
      1.11358578e-03 8.90868623e-03 0. 3.34075722e-03 6.68151444e-03
      6.68151444e-03 8.90868623e-03 6.68151444e-03 2.22717156e-03
      4.45434311e-03 1.78173725e-02 1.67037863e-02 2.22717156e-03
      2.22717156e-03 4.45434311e-03 1.78173725e-02 7.79510010e-03
      2.22717156e-03 1.22494427e-02 1.22494427e-02 5.45657016e-02
      1.78173725e-02 6.68151444e-03 1.55902002e-02 7.79510010e-03
      2.89532300e-02 1.11358578e-03 1.11358576e-02 1.22494427e-02
      2.22717156e-03 7.79510010e-03 2.22717156e-03 4.45434311e-03
      5.56792878e-03 2.22717156e-03 2.22717156e-03 1.11358576e-02
      1.11358576e-02 8.90868623e-03</_>
    <_>
      2.06185561e-02 0. 1.03092780e-02 0. 2.06185561e-02 0.
      1.03092780e-02 0. 0. 0. 0. 0. 3.09278350e-02 1.03092780e-02
      2.06185561e-02 0. 1.03092780e-02 1.03092780e-02 1.03092780e-02
      1.03092780e-02 2.06185561e-02 1.03092780e-02 0. 0. 1.03092780e-02
      0. 0. 0. 1.03092780e-02 3.09278350e-02 1.03092780e-02
      1.03092780e-02 2.06185561e-02 0. 1.03092780e-02 1.03092780e-02 0.
      0. 0. 3.09278350e-02 0. 0. 0. 0. 0. 0. 0. 2.06185561e-02
      1.03092780e-02 0. 1.03092780e-02 1.03092780e-02 1.03092780e-02 0.
      0. 0. 0. 0. 3.09278350e-02 4.12371121e-02 2.06185561e-02 0.
      1.03092780e-02 1.03092780e-02 0. 1.03092780e-02 2.06185561e-02
      1.03092780e-02 2.06185561e-02 1.03092780e-02 1.03092780e-02 0.
      3.09278350e-02 0. 1.03092780e-02 0. 0. 1.03092780e-02
      2.06185561e-02 0. 1.03092780e-02 1.03092780e-02 1.03092780e-02
      1.03092780e-02 1.03092780e-02 1.03092780e-02 7.21649453e-02
      3.09278350e-02 2.06185561e-02 1.03092780e-02 1.03092780e-02
      1.03092780e-02 1.03092780e-02 1.03092780e-02 2.06185561e-02 0.
      1.03092780e-02 3.09278350e-02 2.06185561e-02 1.03092780e-02</_>
    <_>
      1.54216867e-02 1.34939756e-02 2.89156637e-03 2.16867477e-02
      1.10843377e-02 2.26506032e-02 1.54216867e-02 7.71084335e-03
      5.78313274e-03 3.13253030e-02 8.67469888e-03 6.74698781e-03
      4.33734944e-03 7.71084335e-03 9.63855442e-03 1.54216867e-02
      9.15662665e-03 1.20481923e-02 1.34939756e-02 1.01204822e-02
      7.71084335e-03 8.67469888e-03 6.26506004e-03 8.19277111e-03
      1.39759034e-02 5.30120498e-03 9.15662665e-03 8.67469888e-03
      1.78313255e-02 1.54216867e-02 6.26506004e-03 2.40963860e-03
      1.10843377e-02 1.54216867e-02 4.81927721e-03 8.67469888e-03
      7.71084335e-03 1.49397589e-02 1.25301201e-02 2.89156637e-03
      3.42168659e-02 1.06024100e-02 4.81927721e-03 5.78313274e-03
      6.74698781e-03 5.30120498e-03 1.20481923e-02 7.71084335e-03
      5.78313274e-03 5.78313274e-03 3.37349391e-03 6.74698781e-03
      4.81927721e-03 1.92771084e-03 2.89156637e-03 1.25301201e-02
      3.85542167e-03 4.33734944e-03 1.54216867e-02 1.59036145e-02
      1.92771088e-02 9.63855418e-04 4.81927721e-03 1.44578312e-02
      2.60240957e-02 1.68674700e-02 7.22891558e-03 1.34939756e-02
      7.71084335e-03 2.40963860e-03 3.37349391e-03 1.59036145e-02
      1.10843377e-02 5.78313274e-03 4.81927721e-03 4.81927721e-03
      6.74698781e-03 8.67469888e-03 4.81927721e-03 1.25301201e-02
      8.67469888e-03 2.98795179e-02 1.30120479e-02 3.85542167e-03
      4.33734944e-03 1.20481923e-02 1.97590366e-02 4.81927709e-04
      1.87951811e-02 1.63855422e-02 6.26506004e-03 6.26506004e-03
      1.59036145e-02 8.19277111e-03 1.01204822e-02 3.85542167e-03
      5.78313274e-03 6.74698781e-03 1.15662655e-02 2.89156637e-03</_>
    <_>
      2.21149977e-02 6.43345388e-03 4.02090885e-03 1.44752711e-02
      1.28669078e-02 1.16606355e-02 1.56815443e-02 6.43345388e-03
      1.04543623e-02 4.82509052e-03 9.24808998e-03 7.23763555e-03
      4.02090885e-03 1.16606355e-02 8.84599891e-03 4.02090885e-03
      2.05066353e-02 1.16606355e-02 1.16606355e-02 1.28669078e-02
      5.62927220e-03 1.48773622e-02 1.64857265e-02 3.21672694e-03
      1.32689988e-02 8.84599891e-03 6.43345388e-03 4.02090885e-03
      1.48773622e-02 1.00522721e-02 7.23763555e-03 4.02090885e-03
      1.32689988e-02 1.36710899e-02 9.24808998e-03 7.23763555e-03
      1.28669078e-02 2.09087245e-02 7.23763555e-03 1.32689988e-02
      1.44752711e-02 1.20627265e-02 1.72899067e-02 8.04181769e-03
      1.16606355e-02 6.83554495e-03 1.16606355e-02 8.44390877e-03
      5.22718113e-03 1.00522721e-02 2.81463610e-03 8.84599891e-03
      1.16606355e-02 4.42299945e-03 8.04181769e-03 6.83554495e-03
      9.65018105e-03 7.23763555e-03 1.93003621e-02 1.24648167e-02
      1.80940889e-02 5.62927220e-03 6.03136327e-03 1.16606355e-02
      1.36710899e-02 6.03136327e-03 1.12585444e-02 6.83554495e-03
      7.63972662e-03 1.08564533e-02 1.12585444e-02 1.16606355e-02
      1.32689988e-02 4.42299945e-03 3.61881778e-03 1.04543623e-02
      5.62927220e-03 1.28669078e-02 8.44390877e-03 1.00522721e-02
      8.84599891e-03 1.84961800e-02 1.16606355e-02 1.00522721e-02
      8.44390877e-03 1.04543623e-02 1.60836354e-02 2.81463610e-03
      1.08564533e-02 1.20627265e-02 6.43345388e-03 4.42299945e-03
      6.43345388e-03 1.36710899e-02 1.32689988e-02 7.23763555e-03
      6.03136327e-03 9.24808998e-03 1.36710899e-02 6.03136327e-03</_>
    <_>
      2.18602661e-02 7.71538774e-03 5.14359213e-03 1.45735107e-02
      7.71538774e-03 1.67166740e-02 8.57265294e-03 3.42906127e-03
      5.14359213e-03 1.32876122e-02 9.00128577e-03 3.42906127e-03
      8.57265294e-03 1.80025715e-02 9.00128577e-03 2.05743685e-02
      8.14402103e-03 1.41448779e-02 6.42948970e-03 1.32876122e-02
      3.00042867e-03 7.71538774e-03 1.07158162e-02 8.57265294e-03
      1.45735107e-02 6.85812254e-03 1.37162451e-02 1.07158162e-02
      1.58594083e-02 1.24303475e-02 6.00085733e-03 4.28632647e-03
      8.57265294e-03 6.85812254e-03 8.57265294e-03 7.71538774e-03
      9.42991860e-03 1.20017147e-02 8.57265294e-03 6.00085733e-03
      9.85855144e-03 9.85855144e-03 9.00128577e-03 1.28589794e-02
      7.71538774e-03 3.42906127e-03 1.28589794e-02 9.42991860e-03
      3.00042867e-03 5.57222450e-03 4.71495930e-03 1.80025715e-02
      5.57222450e-03 3.42906127e-03 3.85769387e-03 1.54307755e-02
      3.85769387e-03 1.02871843e-02 1.32876122e-02 2.05743685e-02
      2.44320612e-02 3.42906127e-03 9.85855144e-03 1.32876122e-02
      8.57265294e-03 1.02871843e-02 1.15730818e-02 1.32876122e-02
      1.37162451e-02 1.15730818e-02 4.28632647e-03 1.84312053e-02
      1.07158162e-02 6.85812254e-03 6.85812254e-03 3.85769387e-03
      8.57265294e-03 1.54307755e-02 5.57222450e-03 1.24303475e-02
      1.07158162e-02 1.28589794e-02 1.02871843e-02 3.85769387e-03
      7.28675537e-03 1.37162451e-02 1.24303475e-02 9.85855144e-03
      9.42991860e-03 1.50021436e-02 3.42906127e-03 9.85855144e-03
      9.85855144e-03 1.75739396e-02 1.80025715e-02 6.85812254e-03
      7.28675537e-03 7.71538774e-03 1.15730818e-02 9.85855144e-03</_>
    <_>
      2.20220219e-02 3.00300308e-03 9.00900923e-03 1.00100096e-02
      1.40140140e-02 5.00500482e-03 3.00300308e-02 0. 9.00900923e-03
      2.00200193e-02 5.00500482e-03 6.00600615e-03 2.00200197e-03
      1.30130127e-02 3.00300308e-03 2.70270277e-02 4.00400395e-03
      1.30130127e-02 9.00900923e-03 1.20120123e-02 1.00100099e-03
      1.00100099e-03 2.00200197e-03 2.00200197e-03 6.00600615e-03
      6.00600615e-03 1.00100099e-03 5.00500482e-03 6.00600615e-03
      1.10110110e-02 7.00700702e-03 3.00300308e-03 1.10110110e-02
      7.00700702e-03 2.00200193e-02 1.70170162e-02 1.10110110e-02
      5.00500482e-03 7.00700702e-03 3.60360369e-02 2.70270277e-02
      1.70170162e-02 5.00500482e-03 1.70170162e-02 4.00400395e-03
      6.00600615e-03 1.60160158e-02 1.80180185e-02 7.00700702e-03 0. 0.
      7.00700702e-03 1.00100099e-03 1.00100099e-03 1.10110110e-02
      2.80280281e-02 2.00200197e-03 4.00400395e-03 4.10410427e-02
      2.90290285e-02 2.20220219e-02 2.00200197e-03 9.00900923e-03
      1.00100099e-03 5.00500482e-03 6.00600615e-03 2.00200193e-02
      7.00700702e-03 5.00500482e-03 2.00200197e-03 5.00500482e-03
      1.90190189e-02 1.30130127e-02 1.00100099e-03 6.00600615e-03
      7.00700702e-03 2.10210215e-02 3.00300308e-03 3.00300308e-03
      1.10110110e-02 1.30130127e-02 4.80480492e-02 2.10210215e-02
      4.00400395e-03 1.10110110e-02 7.00700702e-03 1.90190189e-02
      2.00200197e-03 8.00800789e-03 2.40240246e-02 1.00100099e-03
      9.00900923e-03 3.00300308e-03 2.00200197e-03 0. 1.00100099e-03
      8.00800789e-03 3.00300308e-03 1.10110110e-02 1.40140140e-02</_>
    <_>
      2.63036452e-02 1.33825568e-02 5.07614203e-03 1.79972313e-02
      8.76788143e-03 1.43054910e-02 1.29210893e-02 7.84494728e-03
      7.84494728e-03 1.06137516e-02 1.24596218e-02 5.53760957e-03
      4.61467449e-03 1.01522841e-02 9.22934897e-03 1.75357629e-02
      8.76788143e-03 1.15366867e-02 1.10752191e-02 1.10752191e-02
      4.61467449e-03 1.01522841e-02 1.10752191e-02 4.61467449e-03
      1.10752191e-02 1.19981542e-02 9.22934897e-03 5.53760957e-03
      2.16889717e-02 1.10752191e-02 5.53760957e-03 4.61467449e-03
      8.30641482e-03 1.33825568e-02 5.07614203e-03 8.30641482e-03
      1.06137516e-02 1.43054910e-02 1.01522841e-02 8.76788143e-03
      6.92201219e-03 1.19981542e-02 1.24596218e-02 1.15366867e-02
      7.38347927e-03 3.23027233e-03 1.06137516e-02 8.30641482e-03
      4.61467449e-03 5.53760957e-03 3.23027233e-03 5.53760957e-03
      7.38347927e-03 3.23027233e-03 7.84494728e-03 1.89201664e-02
      5.99907711e-03 6.92201219e-03 1.24596218e-02 1.43054910e-02
      1.84586979e-02 2.30733724e-03 1.06137516e-02 1.38440244e-02
      1.70742963e-02 1.10752191e-02 9.22934897e-03 1.47669585e-02
      1.15366867e-02 6.92201219e-03 1.01522841e-02 2.30733734e-02
      1.38440244e-02 9.69081651e-03 6.46054465e-03 7.38347927e-03
      7.84494728e-03 5.53760957e-03 8.30641482e-03 1.66128296e-02
      1.06137516e-02 2.35348400e-02 1.01522841e-02 3.23027233e-03
      1.10752191e-02 1.01522841e-02 1.06137516e-02 1.38440239e-03
      1.15366867e-02 1.98431015e-02 8.30641482e-03 4.61467449e-03
      1.15366867e-02 1.06137516e-02 1.24596218e-02 1.84586982e-03
      4.61467449e-03 5.53760957e-03 1.19981542e-02 5.99907711e-03</_>
    <_>
      0. 0. 0. 0. 0. 0. 4.54545468e-02 0. 0. 0. 0. 0. 0. 0. 0.
      4.54545468e-02 0. 0. 0. 0. 0. 4.54545468e-02 4.54545468e-02 0. 0.
      0. 0. 0. 0. 4.54545468e-02 0. 4.54545468e-02 0. 0. 0. 0. 0. 0. 0.
      0. 0. 4.54545468e-02 0. 0. 4.54545468e-02 0. 0. 4.54545468e-02
      4.54545468e-02 0. 0. 0. 0. 0. 0. 0. 4.54545468e-02 0.
      4.54545468e-02 0. 0. 0. 0. 0. 0. 0. 0. 0. 0. 0. 0. 0.
      9.09090936e-02 0. 4.54545468e-02 0. 0. 0. 4.54545468e-02
      4.54545468e-02 0. 0. 0. 0. 0. 0. 0. 0. 4.54545468e-02
      9.09090936e-02 0. 4.54545468e-02 0. 0. 0. 0. 0. 4.54545468e-02 0.
      0.</_>
    <_>
      1.54545456e-02 9.09090915e-04 1.54545456e-02 1.36363637e-02
      8.18181783e-03 2.54545454e-02 1.72727276e-02 2.72727269e-03
      1.09090907e-02 4.72727269e-02 2.72727269e-03 1.09090907e-02
      6.36363635e-03 3.63636366e-03 3.63636366e-03 2.81818174e-02
      2.72727269e-03 9.99999978e-03 1.81818183e-03 1.45454546e-02
      1.18181817e-02 2.72727269e-03 1.81818183e-03 6.36363635e-03
      2.72727269e-03 9.99999978e-03 3.63636366e-03 9.99999978e-03
      7.27272732e-03 1.81818183e-03 1.09090907e-02 3.63636366e-03
      1.09090907e-02 6.36363635e-03 2.90909093e-02 1.36363637e-02
      4.54545440e-03 3.63636366e-03 5.45454537e-03 1.09090907e-02
      9.09090936e-02 9.99999978e-03 1.45454546e-02 1.63636357e-02
      7.27272732e-03 9.09090915e-04 1.45454546e-02 3.63636366e-03
      7.27272732e-03 7.27272732e-03 9.09090915e-04 2.72727269e-03
      1.81818183e-03 9.09090915e-04 5.45454537e-03 1.72727276e-02
      8.18181783e-03 5.45454537e-03 1.27272727e-02 2.90909093e-02
      2.36363634e-02 6.36363635e-03 1.09090907e-02 4.54545440e-03
      7.27272732e-03 9.99999978e-03 8.18181783e-03 4.54545440e-03
      8.18181783e-03 4.54545440e-03 3.63636366e-03 1.63636357e-02
      8.18181783e-03 2.72727269e-03 5.45454537e-03 3.63636366e-03
      1.18181817e-02 6.36363635e-03 1.81818183e-03 9.09090880e-03
      8.18181783e-03 2.36363634e-02 1.09090907e-02 8.18181783e-03
      1.36363637e-02 1.81818183e-03 3.54545452e-02 4.54545440e-03
      1.45454546e-02 1.81818176e-02 1.81818183e-03 5.45454537e-03
      4.54545440e-03 4.54545440e-03 2.72727269e-03 1.81818183e-03
      9.09090915e-04 2.72727269e-03 1.18181817e-02 1.09090907e-02</_>
    <_>
      0. 9.99999978e-03 0. 0. 1.99999996e-02 0. 0. 9.99999978e-03
      2.99999993e-02 9.99999978e-03 9.99999978e-03 9.99999978e-03 0. 0.
      9.99999978e-03 1.99999996e-02 0. 0. 0. 0. 2.99999993e-02 0. 0.
      1.99999996e-02 9.99999978e-03 0. 0. 1.99999996e-02 9.99999978e-03
      0. 0. 0. 9.99999978e-03 0. 0. 9.99999978e-03 0. 5.00000007e-02
      9.99999978e-03 1.99999996e-02 0. 0. 9.99999978e-03 1.99999996e-02
      1.99999996e-02 0. 9.99999978e-03 0. 1.99999996e-02 9.99999978e-03
      0. 0. 9.99999978e-03 0. 1.99999996e-02 0. 1.99999996e-02 0.
      1.99999996e-02 2.99999993e-02 9.99999978e-03 9.99999978e-03
      9.99999978e-03 2.99999993e-02 0. 0. 0. 0. 0. 0. 9.99999978e-03
      1.99999996e-02 1.99999996e-02 0. 9.99999978e-03 3.99999991e-02
      3.99999991e-02 0. 0. 9.99999978e-03 0. 2.99999993e-02 0. 0.
      1.99999996e-02 9.99999978e-03 3.99999991e-02 9.99999978e-03 0.
      1.99999996e-02 1.99999996e-02 9.99999978e-03 9.99999978e-03
      1.99999996e-02 0. 0. 0. 2.99999993e-02 3.99999991e-02
      1.99999996e-02</_>
    <_>
      0. 0. 0. 0. 2.22222228e-02 4.44444455e-02 0. 0. 2.22222228e-02 0.
      0. 0. 0. 0. 0. 0. 0. 0. 0. 2.22222228e-02 0. 0. 2.22222228e-02 0.
      0. 2.22222228e-02 0. 0. 2.22222228e-02 0. 0. 0. 6.66666701e-02 0.
      2.22222228e-02 0. 4.44444455e-02 0. 8.88888910e-02 0. 0. 0.
      2.22222228e-02 0. 0. 0. 2.22222228e-02 0. 2.22222228e-02 0. 0. 0.
      0. 0. 0. 0. 0. 0. 0. 2.22222228e-02 0. 0. 0. 0. 2.22222228e-02 0.
      2.22222228e-02 0. 2.22222228e-02 0. 0. 2.22222228e-02
      2.22222228e-02 2.22222228e-02 0. 0. 0. 2.22222228e-02 0.
      2.22222228e-02 0. 6.66666701e-02 0. 0. 0. 2.22222228e-02
      6.66666701e-02 2.22222228e-02 4.44444455e-02 0. 2.22222228e-02
      2.22222228e-02 2.22222228e-02 2.22222228e-02 0. 0. 0. 0.
      2.22222228e-02 0.</_>
    <_>
      0. 1.66666675e-02 1.66666675e-02 0. 0. 1.66666675e-02
      1.66666675e-02 0. 1.66666675e-02 0. 0. 1.66666675e-02
      3.33333351e-02 0. 0. 0. 0. 0. 0. 0. 1.66666675e-02 0. 0. 0.
      1.66666675e-02 0. 0. 0. 0. 3.33333351e-02 0. 0. 1.66666675e-02 0.
      0. 3.33333351e-02 1.66666675e-02 0. 0. 5.00000007e-02 0. 0.
      1.66666675e-02 0. 0. 0. 3.33333351e-02 1.66666675e-02 0.
      1.66666675e-02 1.66666675e-02 0. 0. 0. 0. 0. 0. 3.33333351e-02
      6.66666701e-02 1.66666675e-02 1.66666675e-02 0. 1.66666675e-02 0.
      0. 0. 0. 0. 5.00000007e-02 0. 0. 1.66666675e-02 1.66666675e-02
      3.33333351e-02 0. 0. 0. 0. 0. 0. 0. 3.33333351e-02 0. 0.
      3.33333351e-02 0. 6.66666701e-02 1.66666675e-02 5.00000007e-02
      3.33333351e-02 0. 0. 0. 0. 0. 0. 0. 6.66666701e-02 1.66666675e-02
      0.</_>
    <_>
      1.94954127e-02 1.14678894e-03 1.14678894e-03 5.73394494e-03
      6.88073412e-03 1.03211012e-02 2.17889901e-02 3.44036706e-03
      3.44036706e-03 1.34174317e-01 4.58715577e-03 3.44036706e-03
      4.58715577e-03 3.44036706e-03 3.44036706e-03 3.55504602e-02
      3.44036706e-03 2.29357788e-03 2.29357788e-03 1.49082569e-02
      6.88073412e-03 1.14678894e-03 4.58715577e-03 6.88073412e-03
      4.58715577e-03 3.44036706e-03 1.14678894e-03 1.37614682e-02
      3.44036706e-03 6.88073412e-03 0. 8.02752282e-03 5.73394494e-03
      2.29357788e-03 1.83486231e-02 5.73394494e-03 8.02752282e-03
      5.73394494e-03 3.44036706e-03 5.73394494e-03 1.13532111e-01
      6.88073412e-03 1.03211012e-02 1.49082569e-02 3.44036706e-03
      5.73394494e-03 3.44036706e-03 1.14678894e-03 9.17431153e-03
      4.58715577e-03 1.14678894e-03 5.73394494e-03 2.29357788e-03 0.
      1.14678894e-03 1.60550456e-02 6.88073412e-03 2.29357788e-03
      1.72018353e-02 1.37614682e-02 2.40825694e-02 1.14678894e-03
      1.26146786e-02 6.88073412e-03 4.58715577e-03 9.17431153e-03
      2.29357788e-03 5.73394494e-03 1.03211012e-02 2.29357788e-03
      1.14678894e-03 1.14678899e-02 1.03211012e-02 0. 1.14678894e-03
      2.29357788e-03 1.94954127e-02 2.29357788e-03 2.29357788e-03
      1.49082569e-02 5.73394494e-03 2.63761468e-02 6.88073412e-03
      8.02752282e-03 6.88073412e-03 0. 5.84862381e-02 1.14678894e-03
      2.86697242e-02 2.52293572e-02 2.29357788e-03 1.14678894e-03
      5.73394494e-03 3.44036706e-03 6.88073412e-03 1.14678894e-03
      2.29357788e-03 3.44036706e-03 6.88073412e-03 1.37614682e-02</_>
    <_>
      1.74737889e-02 9.48577095e-03 6.49026455e-03 2.19670497e-02
      8.48726928e-03 2.14677975e-02 1.54767847e-02 3.49475793e-03
      1.04842735e-02 2.09685471e-02 6.49026455e-03 4.49326029e-03
      6.98951585e-03 1.49775334e-02 7.48876669e-03 1.64752863e-02
      1.09835248e-02 1.64752863e-02 9.48577095e-03 5.49176242e-03
      4.49326029e-03 1.19820265e-02 8.48726928e-03 7.48876669e-03
      6.49026455e-03 1.49775331e-03 1.24812778e-02 8.48726928e-03
      1.09835248e-02 1.09835248e-02 6.98951585e-03 3.99400899e-03
      9.98502225e-03 9.98502225e-03 1.99700445e-02 1.14827761e-02
      9.48577095e-03 9.98502225e-03 6.98951585e-03 1.49775334e-02
      3.69445831e-02 7.98801798e-03 1.24812778e-02 7.48876669e-03
      7.98801798e-03 6.98951585e-03 1.24812778e-02 8.48726928e-03
      5.99101325e-03 6.98951585e-03 1.99700450e-03 9.98502225e-03
      1.99700450e-03 1.99700450e-03 2.99550663e-03 9.48577095e-03
      4.49326029e-03 1.14827761e-02 1.04842735e-02 1.99700445e-02
      1.79730412e-02 2.99550663e-03 6.49026455e-03 9.48577095e-03
      9.98502225e-03 1.44782830e-02 1.84722915e-02 9.98502225e-03
      9.48577095e-03 9.98502225e-03 4.99251112e-03 6.98951585e-03
      1.14827761e-02 3.49475793e-03 4.49326029e-03 3.99400899e-03
      8.48726928e-03 1.89715419e-02 2.99550663e-03 7.48876669e-03
      7.48876669e-03 2.04692967e-02 1.19820265e-02 1.99700450e-03
      1.19820265e-02 1.14827761e-02 1.84722915e-02 3.49475793e-03
      1.69745386e-02 1.14827761e-02 4.49326029e-03 9.48577095e-03
      7.98801798e-03 1.54767847e-02 1.59760360e-02 4.99251112e-03
      4.49326029e-03 6.98951585e-03 1.14827761e-02 8.98652058e-03</_>
    <_>
      2.27780268e-02 4.91290772e-03 3.12639563e-03 1.78651176e-02
      1.02724433e-02 7.14604743e-03 8.48593097e-03 4.01965156e-03
      5.35953557e-03 5.67217506e-02 1.33988392e-02 9.82581545e-03
      4.46627941e-03 1.07190711e-02 8.93255882e-03 1.51853506e-02
      1.25055825e-02 1.47387227e-02 2.05448866e-02 7.14604743e-03
      2.23313970e-03 1.11656990e-02 1.47387227e-02 6.69941958e-03
      1.20589547e-02 7.59267528e-03 7.59267528e-03 6.69941958e-03
      9.82581545e-03 8.93255882e-03 4.91290772e-03 4.01965156e-03
      7.14604743e-03 1.38454670e-02 2.09915135e-02 4.46627941e-03
      1.42920949e-02 1.56319793e-02 5.35953557e-03 2.23313970e-03
      6.69941902e-02 1.16123268e-02 1.11656990e-02 1.07190711e-02
      4.01965156e-03 8.03930312e-03 6.69941958e-03 8.03930312e-03
      4.91290772e-03 5.80616342e-03 6.25279127e-03 6.25279127e-03
      8.03930312e-03 2.23313970e-03 4.01965156e-03 1.07190711e-02
      7.59267528e-03 7.59267528e-03 7.59267528e-03 1.02724433e-02
      1.47387227e-02 3.12639563e-03 6.25279127e-03 8.93255882e-03
      1.20589547e-02 2.27780268e-02 4.46627941e-03 5.35953557e-03
      4.46627941e-03 4.91290772e-03 1.16123268e-02 1.42920949e-02
      1.25055825e-02 3.57302371e-03 8.03930312e-03 7.14604743e-03
      8.93255882e-03 7.59267528e-03 8.03930312e-03 6.25279127e-03
      8.03930312e-03 1.42920949e-02 7.14604743e-03 5.80616342e-03
      5.80616342e-03 4.91290772e-03 2.50111651e-02 2.67976779e-03
      1.69718619e-02 1.65252350e-02 4.91290772e-03 7.59267528e-03
      5.35953557e-03 9.82581545e-03 1.20589547e-02 1.78651186e-03
      4.46627941e-03 6.25279127e-03 1.07190711e-02 7.59267528e-03</_>
    <_>
      4.35255701e-03 4.35255701e-03 1.30576715e-02 4.35255701e-03
      1.08813925e-03 4.35255701e-03 1.74102280e-02 6.52883574e-03
      6.52883574e-03 8.16104487e-02 2.17627850e-03 3.26441787e-03
      6.52883574e-03 6.52883574e-03 2.17627850e-03 7.94341639e-02
      4.35255701e-03 0. 6.52883574e-03 2.17627850e-03 4.35255701e-03
      2.17627850e-03 1.08813925e-03 4.35255701e-03 3.26441787e-03
      1.08813925e-03 5.44069661e-03 1.08813932e-02 4.35255701e-03 0.
      4.35255701e-03 4.35255701e-03 9.79325362e-03 1.19695319e-02
      3.37323174e-02 7.61697488e-03 4.35255701e-03 8.70511401e-03
      2.17627850e-03 3.04678995e-02 7.07290545e-02 8.70511401e-03
      4.35255701e-03 4.78781275e-02 1.74102280e-02 1.08813925e-03
      6.52883574e-03 1.08813925e-03 0. 2.50272043e-02 9.79325362e-03
      2.17627850e-03 3.26441787e-03 3.26441787e-03 4.35255701e-03
      2.61153430e-02 5.44069661e-03 1.08813925e-03 3.04678995e-02
      2.50272043e-02 3.26441787e-03 9.79325362e-03 2.28509251e-02
      1.08813925e-03 0. 1.30576715e-02 4.35255701e-03 1.08813925e-03
      2.17627850e-03 0. 2.17627850e-03 2.06746459e-02 5.44069661e-03 0.
      5.44069661e-03 7.61697488e-03 4.78781275e-02 0. 5.44069661e-03
      4.35255701e-03 9.79325362e-03 8.70511401e-03 3.48204561e-02
      9.79325362e-03 1.41458111e-02 0. 6.52883574e-03 3.26441787e-03
      1.08813925e-03 7.61697488e-03 1.08813925e-03 1.08813932e-02 0.
      1.08813925e-03 4.35255701e-03 8.70511401e-03 1.08813925e-03 0.
      4.35255701e-03 1.08813932e-02</_>
    <_>
      3.70370373e-02 0. 0. 0. 2.46913582e-02 3.70370373e-02 0.
      2.46913582e-02 2.46913582e-02 0. 0. 1.23456791e-02 1.23456791e-02
      0. 2.46913582e-02 0. 0. 0. 1.23456791e-02 0. 1.23456791e-02 0. 0.
      0. 0. 1.23456791e-02 0. 0. 2.46913582e-02 0. 2.46913582e-02
      1.23456791e-02 8.64197537e-02 0. 0. 3.70370373e-02 0. 0. 0.
      1.23456791e-02 0. 1.23456791e-02 1.23456791e-02 0. 0. 0.
      1.23456791e-02 0. 0. 1.23456791e-02 0. 1.23456791e-02 0.
      1.23456791e-02 0. 3.70370373e-02 0. 1.23456791e-02 1.23456791e-02
      1.23456791e-01 1.23456791e-02 0. 0. 0. 0. 0. 1.23456791e-02 0.
      2.46913582e-02 0. 0. 1.23456791e-02 0. 0. 0. 1.23456791e-02 0.
      1.23456791e-02 0. 0. 0. 1.23456791e-02 0. 1.23456791e-02 0. 0.
      4.93827164e-02 3.70370373e-02 2.46913582e-02 1.23456791e-02 0.
      1.23456791e-02 0. 0. 0. 0. 0. 0. 6.17283955e-02 0.</_>
    <_>
      1.07962210e-02 4.04858310e-03 1.07962210e-02 1.07962210e-02 0.
      4.04858310e-03 4.04858291e-02 8.09716620e-03 9.44669358e-03
      4.72334698e-02 1.34952762e-03 0. 0. 9.44669358e-03 0.
      6.34277984e-02 1.34952762e-03 0. 8.09716620e-03 9.44669358e-03
      2.69905524e-03 0. 0. 1.07962210e-02 2.69905524e-03 2.69905524e-03
      0. 5.39811049e-03 1.34952762e-03 0. 0. 0. 6.74763834e-03
      1.75438598e-02 2.83400808e-02 1.07962210e-02 5.39811049e-03
      2.69905524e-03 1.34952762e-03 3.50877196e-02 7.28744939e-02
      2.56410260e-02 1.34952762e-03 6.07287437e-02 1.21457493e-02 0.
      1.34952767e-02 5.39811049e-03 6.74763834e-03 1.34952767e-02
      1.07962210e-02 0. 2.69905524e-03 4.04858310e-03 4.04858310e-03
      2.69905534e-02 0. 0. 3.50877196e-02 4.18353565e-02 0.
      1.21457493e-02 1.48448041e-02 0. 1.34952762e-03 5.39811049e-03
      1.07962210e-02 0. 1.34952762e-03 1.34952762e-03 0. 6.74763834e-03
      4.04858310e-03 1.07962210e-02 1.34952767e-02 4.04858310e-03
      2.56410260e-02 0. 5.39811049e-03 6.74763834e-03 2.02429146e-02
      5.39811049e-03 5.53306341e-02 6.74763834e-03 1.07962210e-02 0.
      1.34952762e-03 4.04858310e-03 0. 0. 5.39811049e-03 1.07962210e-02
      1.34952762e-03 1.07962210e-02 2.69905524e-03 1.48448041e-02 0. 0.
      4.04858310e-03 1.21457493e-02</_>
    <_>
      0. 0. 1.25000002e-02 0. 1.25000002e-02 0. 0. 1.25000002e-02 0.
      1.25000002e-02 0. 0. 0. 0. 0. 0. 0. 1.25000002e-02 0. 0.
      1.25000002e-02 0. 0. 0. 1.25000002e-02 2.50000004e-02 0.
      1.25000002e-02 0. 1.25000002e-02 0. 1.25000002e-02 1.25000002e-02
      0. 0. 1.87500000e-01 0. 0. 0. 0. 0. 0. 1.25000002e-02 0.
      1.25000002e-02 0. 2.50000004e-02 1.25000002e-02 0. 1.25000002e-02
      0. 2.50000004e-02 0. 0. 1.25000002e-02 1.25000002e-02 0. 0.
      2.50000004e-02 1.74999997e-01 0. 0. 1.25000002e-02 0. 0.
      2.50000004e-02 1.25000002e-02 0. 2.50000004e-02 0. 0.
      1.25000002e-02 0. 0. 1.25000002e-02 0. 0. 0. 0. 0. 1.25000002e-02
      0. 1.25000002e-02 1.25000002e-02 0. 0. 1.00000001e-01 0. 0.
      2.50000004e-02 0. 1.25000002e-02 1.25000002e-02 0. 0. 0. 0. 0.
      2.50000004e-02 1.25000002e-02</_>
    <_>
      3.44827585e-02 0. 1.72413792e-02 0. 0. 1.72413792e-02 0.
      1.72413792e-02 0. 0. 0. 0. 0. 0. 0. 0. 0. 0. 0. 0. 1.72413792e-02
      0. 0. 0. 0. 0. 1.72413792e-02 0. 0. 1.72413792e-02 0. 0.
      6.89655170e-02 0. 0. 1.55172408e-01 0. 0. 0. 5.17241396e-02 0. 0.
      0. 0. 0. 0. 1.72413792e-02 0. 3.44827585e-02 0. 0. 0.
      1.72413792e-02 0. 0. 0. 0. 1.72413792e-02 0. 2.41379306e-01 0. 0.
      1.72413792e-02 0. 0. 0. 3.44827585e-02 0. 0. 0. 0. 0.
      1.72413792e-02 0. 0. 0. 0. 0. 0. 0. 0. 1.72413792e-02 0. 0.
      5.17241396e-02 0. 8.62068981e-02 1.72413792e-02 0. 1.72413792e-02
      0. 0. 0. 0. 0. 0. 0. 0. 0. 0.</_>
    <_>
      2.58732215e-03 1.29366107e-03 1.81112550e-02 6.46830536e-03
      5.17464429e-03 1.29366107e-03 3.88098322e-02 1.29366107e-02
      5.17464429e-03 9.31435972e-02 1.29366107e-03 2.58732215e-03
      2.58732215e-03 1.29366107e-03 1.29366107e-03 9.31435972e-02
      1.29366107e-03 0. 1.29366107e-02 0. 0. 1.29366107e-03
      3.88098322e-03 0. 1.29366107e-03 0. 1.29366107e-03 6.46830536e-03
      1.29366107e-03 0. 2.58732215e-03 6.46830536e-03 1.68175939e-02
      1.29366107e-02 2.71668825e-02 2.19922382e-02 0. 6.46830536e-03 0.
      3.36351879e-02 7.76196644e-02 1.16429497e-02 1.29366107e-03
      3.75161693e-02 1.16429497e-02 0. 0. 6.46830536e-03 3.88098322e-03
      1.94049161e-02 3.88098322e-03 0. 1.29366107e-03 9.05562751e-03
      3.88098322e-03 1.29366107e-02 2.58732215e-03 1.29366107e-03
      2.97542047e-02 3.75161693e-02 7.76196644e-03 3.88098322e-03
      3.10478657e-02 0. 0. 7.76196644e-03 1.29366107e-03 1.29366107e-03
      0. 0. 0. 9.05562751e-03 1.29366107e-03 5.17464429e-03
      6.46830536e-03 5.17464429e-03 4.39844765e-02 1.29366107e-03
      2.58732215e-03 2.58732215e-03 2.84605436e-02 1.29366107e-03
      4.39844765e-02 9.05562751e-03 7.76196644e-03 0. 1.29366107e-03
      1.81112550e-02 2.58732215e-03 5.17464429e-03 1.29366107e-03
      2.58732215e-03 0. 2.58732215e-03 0. 3.88098322e-03 0. 0.
      1.16429497e-02 1.29366107e-02</_>
    <_>
      0. 0. 0. 0. 0. 2.22222228e-02 0. 1.11111114e-02 7.77777806e-02 0.
      0. 0. 0. 0. 0. 0. 0. 0. 1.11111114e-02 1.11111114e-02 0. 0. 0. 0.
      0. 0. 0. 1.11111114e-02 0. 0. 1.11111114e-02 0. 3.33333351e-02 0.
      2.22222228e-02 2.00000003e-01 0. 1.11111114e-02 0. 1.11111114e-02
      0. 1.11111114e-02 0. 1.11111114e-02 2.22222228e-02 2.22222228e-02
      3.33333351e-02 1.11111114e-02 0. 1.11111114e-02 0. 0. 0. 0. 0. 0.
      0. 0. 1.11111114e-02 2.00000003e-01 1.11111114e-02 2.22222228e-02
      0. 0. 0. 0. 0. 0. 0. 0. 0. 1.11111114e-02 2.22222228e-02 0. 0. 0.
      1.11111114e-02 0. 0. 0. 0. 5.55555560e-02 1.11111114e-02
      1.11111114e-02 0. 0. 1.11111114e-02 0. 0. 0. 0. 2.22222228e-02
      1.11111114e-02 0. 0. 0. 1.11111114e-02 0. 2.22222228e-02 0.</_>
    <_>
      0. 0. 0. 0. 0. 0. 0. 3.12500000e-02 3.12500000e-02 0. 0. 0. 0. 0.
      0. 0. 0. 0. 0. 0. 0. 0. 0. 0. 0. 0. 0. 1.56250000e-02 0.
      4.68750000e-02 0. 0. 3.12500000e-02 0. 0. 1.56250000e-01 0. 0. 0.
      0. 1.09375000e-01 0. 1.56250000e-02 0. 0. 0. 3.12500000e-02
      1.56250000e-02 0. 1.56250000e-02 0. 0. 0. 0. 0. 0. 1.56250000e-02
      0. 1.56250000e-02 1.09375000e-01 0. 0. 0. 0. 0. 1.56250000e-02 0.
      0. 0. 0. 1.56250000e-02 0. 0. 0. 1.56250000e-02 0. 0. 0. 0. 0.
      4.68750000e-02 0. 1.56250000e-02 0. 1.56250000e-02 0.
      1.71875000e-01 0. 0. 0. 0. 0. 0. 0. 0. 0. 1.56250000e-02 0.
      1.56250000e-02 3.12500000e-02</_>
    <_>
      2.37247930e-03 5.93119813e-03 1.18623963e-02 1.18623963e-02
      1.18623965e-03 3.55871883e-03 3.44009474e-02 2.37247930e-03
      1.18623963e-02 6.16844594e-02 1.18623965e-03 1.18623965e-03
      2.37247930e-03 1.06761567e-02 2.37247930e-03 7.94780552e-02 0.
      1.18623965e-03 3.55871883e-03 7.11743766e-03 0. 0. 2.37247930e-03
      1.18623963e-02 2.37247930e-03 1.18623965e-03 2.37247930e-03
      1.42348753e-02 2.37247930e-03 3.55871883e-03 2.37247930e-03
      8.30367766e-03 1.66073553e-02 1.77935939e-02 2.25385521e-02
      2.01660730e-02 5.93119813e-03 9.48991720e-03 2.37247930e-03
      2.25385521e-02 3.67734283e-02 3.20284702e-02 3.55871883e-03
      3.20284702e-02 2.84697507e-02 1.18623965e-03 1.18623965e-03
      2.37247930e-03 4.74495860e-03 2.37247925e-02 7.11743766e-03
      4.74495860e-03 0. 2.37247930e-03 7.11743766e-03 3.08422297e-02
      2.37247930e-03 1.18623965e-03 2.25385521e-02 2.13523135e-02
      4.74495860e-03 2.13523135e-02 2.37247925e-02 5.93119813e-03
      1.18623965e-03 3.55871883e-03 8.30367766e-03 4.74495860e-03 0.
      1.18623965e-03 2.37247930e-03 1.18623963e-02 4.74495860e-03
      4.74495860e-03 9.48991720e-03 5.93119813e-03 2.13523135e-02
      1.18623965e-03 3.55871883e-03 8.30367766e-03 1.66073553e-02
      4.74495860e-03 3.32147107e-02 8.30367766e-03 1.18623963e-02
      4.74495860e-03 1.42348753e-02 7.11743766e-03 0. 1.18623965e-03
      2.37247930e-03 9.48991720e-03 0. 5.93119813e-03 2.37247930e-03
      1.06761567e-02 8.30367766e-03 0. 7.11743766e-03 1.30486358e-02</_>
    <_>
      4.86787222e-03 2.78164120e-03 3.12934630e-02 1.94714889e-02
      3.47705139e-03 6.95410278e-03 2.99026426e-02 5.56328241e-03
      1.04311546e-02 5.70236444e-02 0. 4.86787222e-03 6.95410301e-04
      9.04033426e-03 6.25869259e-03 4.79833111e-02 1.39082060e-03
      4.86787222e-03 8.34492315e-03 7.64951343e-03 6.25869259e-03
      6.95410278e-03 0. 1.39082060e-03 5.56328241e-03 2.78164120e-03
      1.39082060e-03 9.73574445e-03 7.64951343e-03 4.17246157e-03
      4.17246157e-03 1.04311546e-02 2.08623093e-02 6.95410278e-03
      1.04311546e-02 2.85118222e-02 7.64951343e-03 4.17246157e-03
      3.47705139e-03 2.78164111e-02 5.14603630e-02 9.73574445e-03
      1.11265648e-02 1.66898463e-02 1.11265648e-02 2.78164120e-03
      6.95410278e-03 4.86787222e-03 1.11265648e-02 2.01668981e-02
      4.86787222e-03 1.39082060e-03 0. 7.64951343e-03 7.64951343e-03
      1.18219750e-02 3.47705139e-03 5.56328241e-03 3.26842852e-02
      4.45062593e-02 6.25869259e-03 7.64951343e-03 2.01668981e-02
      2.78164120e-03 2.78164120e-03 6.25869259e-03 1.25173852e-02
      2.08623079e-03 7.64951343e-03 1.39082060e-03 3.47705139e-03
      3.47705139e-03 5.56328241e-03 4.86787222e-03 1.11265648e-02
      2.08623079e-03 3.40751037e-02 5.56328241e-03 2.78164120e-03
      1.25173852e-02 7.64951343e-03 6.95410278e-03 2.43393611e-02
      1.46036157e-02 9.73574445e-03 6.95410301e-04 1.39082056e-02
      6.25869259e-03 6.25869259e-03 6.25869259e-03 3.47705139e-03
      7.64951343e-03 2.08623079e-03 6.95410278e-03 1.39082060e-03
      3.47705139e-03 4.17246157e-03 1.39082060e-03 1.04311546e-02
      8.34492315e-03</_>
    <_>
      1.42653356e-03 0. 7.13266758e-03 2.56776027e-02 5.70613425e-03
      1.42653356e-03 2.42510699e-02 4.27960046e-03 1.56918690e-02
      1.36947215e-01 0. 2.85306713e-03 0. 1.42653356e-03 1.42653356e-03
      7.27532133e-02 4.27960046e-03 0. 1.56918690e-02 0. 1.42653356e-03
      0. 0. 0. 5.70613425e-03 0. 5.70613425e-03 1.14122685e-02
      4.27960046e-03 1.42653356e-03 1.42653356e-03 2.85306713e-03
      1.28388014e-02 1.42653352e-02 4.27960046e-02 8.55920091e-03 0.
      4.27960046e-03 1.42653356e-03 1.56918690e-02 1.28388017e-01
      2.13980023e-02 1.42653356e-03 3.42368037e-02 1.99714694e-02
      5.70613425e-03 0. 4.27960046e-03 7.13266758e-03 2.99572032e-02
      1.42653356e-03 0. 0. 0. 4.27960046e-03 1.99714694e-02 0. 0.
      9.98573471e-03 2.13980023e-02 1.42653356e-03 8.55920091e-03
      1.99714694e-02 4.27960046e-03 1.42653356e-03 2.85306713e-03
      5.70613425e-03 2.85306713e-03 0. 0. 0. 1.28388014e-02
      5.70613425e-03 2.85306713e-03 1.85449366e-02 5.70613425e-03
      1.99714694e-02 0. 0. 4.27960046e-03 1.85449366e-02 2.85306713e-03
      4.13694717e-02 1.42653356e-03 1.42653356e-03 2.85306713e-03
      2.85306713e-03 4.27960046e-03 1.42653356e-03 7.13266758e-03
      2.85306713e-03 1.42653356e-03 0. 8.55920091e-03 0. 8.55920091e-03
      2.85306713e-03 0. 0. 9.98573471e-03</_>
    <_>
      5.07614203e-03 7.10659893e-03 1.42131979e-02 3.14720795e-02
      2.03045690e-03 6.09137071e-03 1.72588825e-02 4.06091381e-03
      1.92893408e-02 5.48223369e-02 2.03045690e-03 7.10659893e-03
      1.01522841e-02 1.21827414e-02 3.04568536e-03 4.26395945e-02
      3.04568536e-03 5.07614203e-03 1.92893408e-02 9.13705584e-03
      9.13705584e-03 8.12182762e-03 4.06091381e-03 8.12182762e-03
      9.13705584e-03 2.03045690e-03 8.12182762e-03 8.12182762e-03
      3.04568536e-03 4.06091381e-03 1.01522845e-03 3.04568536e-03
      1.21827414e-02 4.06091381e-03 1.31979696e-02 1.52284261e-02
      3.04568536e-03 1.62436552e-02 3.04568536e-03 1.21827414e-02
      5.27918786e-02 1.92893408e-02 5.07614203e-03 2.53807101e-02
      1.92893408e-02 2.03045690e-03 8.12182762e-03 2.03045690e-03
      5.07614203e-03 1.92893408e-02 1.52284261e-02 4.06091381e-03
      6.09137071e-03 8.12182762e-03 8.12182762e-03 1.92893408e-02
      5.07614203e-03 1.01522845e-03 8.12182762e-03 2.63959393e-02
      1.11675123e-02 1.72588825e-02 1.01522841e-02 5.07614203e-03
      2.03045690e-03 1.42131979e-02 3.04568536e-03 4.06091381e-03
      6.09137071e-03 2.03045690e-03 6.09137071e-03 4.06091381e-03
      4.06091381e-03 8.12182762e-03 1.62436552e-02 6.09137071e-03
      1.92893408e-02 5.07614203e-03 5.07614203e-03 1.62436552e-02
      2.03045681e-02 2.03045690e-03 2.23350246e-02 6.09137071e-03
      3.04568536e-03 4.06091381e-03 8.12182762e-03 6.09137071e-03
      4.06091381e-03 9.13705584e-03 7.10659893e-03 8.12182762e-03
      9.13705584e-03 1.11675123e-02 2.03045690e-03 6.09137071e-03
      4.06091381e-03 2.03045690e-03 5.07614203e-03 1.21827414e-02</_>
    <_>
      8.49256944e-03 3.18471342e-03 6.36942685e-03 1.48619954e-02 0.
      3.18471342e-03 3.39702778e-02 6.36942685e-03 2.12314236e-03
      1.30573243e-01 1.06157118e-03 1.06157118e-03 1.06157118e-03
      5.30785555e-03 0. 1.00849256e-01 2.12314236e-03 0. 1.80467088e-02
      3.18471342e-03 3.18471342e-03 4.24628472e-03 1.06157118e-03
      6.36942685e-03 1.06157118e-03 0. 4.24628472e-03 7.43099768e-03
      1.06157118e-03 0. 2.12314236e-03 1.06157118e-03 1.06157111e-02
      3.18471342e-03 1.69851389e-02 1.27388537e-02 1.06157118e-03
      1.06157118e-03 1.06157118e-03 3.29087041e-02 9.34182554e-02
      2.12314222e-02 3.18471342e-03 2.01698523e-02 9.55414027e-03
      1.06157118e-03 5.30785555e-03 2.12314236e-03 4.24628472e-03
      1.69851389e-02 8.49256944e-03 0. 1.06157118e-03 1.06157118e-03
      9.55414027e-03 7.43099768e-03 1.06157118e-03 0. 3.50318477e-02
      2.12314222e-02 6.36942685e-03 6.36942685e-03 4.45859879e-02
      1.06157118e-03 0. 7.43099768e-03 3.18471342e-03 0. 0. 0.
      2.12314236e-03 5.30785555e-03 5.30785555e-03 1.06157118e-03
      4.24628472e-03 2.12314236e-03 4.67091277e-02 1.06157118e-03
      2.12314236e-03 4.24628472e-03 2.33545639e-02 2.12314236e-03
      3.60934176e-02 9.55414027e-03 4.24628472e-03 1.06157118e-03
      1.06157111e-02 7.43099768e-03 0. 6.36942685e-03 3.18471342e-03
      9.55414027e-03 0. 4.24628472e-03 1.06157118e-03 6.36942685e-03
      3.18471342e-03 1.06157118e-03 0. 1.16772819e-02</_>
    <_>
      9.41176433e-03 3.52941174e-03 1.99999996e-02 1.17647061e-02
      4.70588217e-03 0. 2.70588230e-02 8.23529437e-03 1.88235287e-02
      3.88235301e-02 2.35294108e-03 0. 2.35294108e-03 3.52941174e-03
      4.70588217e-03 9.41176489e-02 3.52941174e-03 2.35294108e-03
      3.52941174e-03 4.70588217e-03 3.52941174e-03 2.35294108e-03
      3.52941174e-03 3.52941174e-03 5.88235306e-03 1.17647054e-03 0.
      8.23529437e-03 0. 4.70588217e-03 3.52941174e-03 2.35294108e-03
      2.94117648e-02 1.64705887e-02 1.41176470e-02 1.29411761e-02
      1.17647054e-03 2.35294108e-03 2.35294108e-03 1.41176470e-02
      2.23529413e-02 1.76470596e-02 2.35294108e-03 2.94117648e-02
      2.35294122e-02 2.35294108e-03 2.35294108e-03 4.70588217e-03
      7.05882348e-03 2.47058831e-02 1.17647061e-02 5.88235306e-03
      2.35294108e-03 9.41176433e-03 8.23529437e-03 1.76470596e-02
      1.17647054e-03 3.52941174e-03 2.23529413e-02 3.64705883e-02
      1.17647061e-02 8.23529437e-03 3.52941193e-02 3.52941174e-03 0.
      8.23529437e-03 8.23529437e-03 4.70588217e-03 3.52941174e-03
      1.17647054e-03 4.70588217e-03 1.64705887e-02 4.70588217e-03
      1.17647054e-03 1.52941179e-02 2.35294108e-03 1.52941179e-02
      2.35294108e-03 2.35294108e-03 8.23529437e-03 1.99999996e-02
      3.52941174e-03 3.64705883e-02 1.29411761e-02 1.52941179e-02
      3.52941174e-03 8.23529437e-03 1.52941179e-02 4.70588217e-03
      5.88235306e-03 1.17647054e-03 9.41176433e-03 1.17647054e-03
      1.64705887e-02 3.52941174e-03 8.23529437e-03 2.35294108e-03
      1.17647054e-03 1.88235287e-02 3.52941174e-03</_>
    <_>
      0. 2.18340615e-03 1.09170303e-02 2.51091700e-02 0. 3.27510922e-03
      3.16593871e-02 1.31004369e-02 1.52838426e-02 1.01528384e-01 0.
      2.18340615e-03 2.18340615e-03 2.18340615e-03 1.09170307e-03
      8.18777308e-02 0. 0. 6.55021844e-03 5.45851514e-03 3.27510922e-03
      2.18340615e-03 2.18340615e-03 3.27510922e-03 0. 1.09170307e-03
      1.09170307e-03 8.73362459e-03 2.18340615e-03 0. 0. 4.36681230e-03
      1.09170303e-02 6.55021844e-03 4.14847173e-02 1.96506549e-02
      3.27510922e-03 4.36681230e-03 0. 3.27510908e-02 8.62445384e-02
      1.63755454e-02 4.36681230e-03 4.69432324e-02 7.64192129e-03 0.
      4.36681230e-03 1.09170307e-03 2.18340615e-03 2.18340605e-02
      5.45851514e-03 0. 0. 5.45851514e-03 2.18340615e-03 1.52838426e-02
      0. 0. 3.71179022e-02 2.94759832e-02 5.45851514e-03 1.20087340e-02
      2.07423586e-02 0. 0. 8.73362459e-03 2.18340615e-03 2.18340615e-03
      3.27510922e-03 0. 1.09170307e-03 9.82532743e-03 5.45851514e-03
      4.36681230e-03 4.36681230e-03 2.18340615e-03 3.05676851e-02
      2.18340615e-03 1.09170303e-02 1.52838426e-02 1.31004369e-02
      3.27510922e-03 3.93013097e-02 9.82532743e-03 6.55021844e-03
      1.09170307e-03 0. 2.18340615e-03 1.09170307e-03 1.09170307e-03
      1.09170307e-03 7.64192129e-03 1.09170307e-03 9.82532743e-03
      1.09170307e-03 1.09170303e-02 2.18340615e-03 2.18340615e-03
      3.27510922e-03 4.36681230e-03</_>
    <_>
      1.86915882e-02 1.86915882e-02 9.34579410e-03 0. 0. 0. 0.
      1.86915882e-02 5.60747646e-02 9.34579410e-03 0. 9.34579410e-03
      9.34579410e-03 0. 9.34579410e-03 0. 0. 0. 0. 9.34579410e-03
      2.80373823e-02 0. 0. 0. 9.34579410e-03 0. 0. 9.34579410e-03
      1.86915882e-02 0. 0. 0. 1.86915882e-02 1.86915882e-02
      1.86915882e-02 1.30841121e-01 9.34579410e-03 9.34579410e-03 0.
      1.86915882e-02 5.60747646e-02 9.34579410e-03 9.34579410e-03 0. 0.
      0. 0. 0. 1.86915882e-02 0. 0. 0. 0. 0. 0. 1.86915882e-02 0. 0.
      9.34579410e-03 6.54205605e-02 9.34579410e-03 9.34579410e-03
      9.34579410e-03 0. 0. 0. 1.86915882e-02 9.34579410e-03 0.
      9.34579410e-03 0. 1.86915882e-02 1.86915882e-02 0. 0.
      9.34579410e-03 0. 0. 1.86915882e-02 9.34579410e-03 9.34579410e-03
      1.86915882e-02 1.86915882e-02 9.34579410e-03 3.73831764e-02 0.
      6.54205605e-02 0. 0. 9.34579410e-03 9.34579410e-03 0. 0. 0. 0. 0.
      0. 9.34579410e-03 1.86915882e-02 9.34579410e-03</_>
    <_>
      2.00692043e-02 5.53633226e-03 1.31487893e-02 1.24567477e-02
      4.84429067e-03 4.15224908e-03 1.52249131e-02 8.30449816e-03
      1.79930795e-02 4.91349474e-02 2.07612454e-03 4.84429067e-03
      2.07612454e-03 1.17647061e-02 3.46020772e-03 3.73702422e-02
      6.92041544e-03 1.38408307e-03 1.10726645e-02 8.99653975e-03
      6.92041544e-03 1.10726645e-02 1.38408307e-03 5.53633226e-03
      6.92041544e-03 0. 4.15224908e-03 6.92041544e-03 3.46020772e-03
      6.22837385e-03 6.92041544e-03 1.59169547e-02 1.59169547e-02
      1.10726645e-02 2.07612459e-02 2.56055370e-02 7.61245657e-03
      8.30449816e-03 6.92041544e-03 1.17647061e-02 4.70588244e-02
      1.73010379e-02 3.46020772e-03 2.69896202e-02 6.22837385e-03
      3.46020772e-03 5.53633226e-03 3.46020772e-03 7.61245657e-03
      1.59169547e-02 5.53633226e-03 4.15224908e-03 6.22837385e-03
      8.99653975e-03 4.84429067e-03 2.56055370e-02 6.92041544e-03
      1.38408307e-03 1.52249131e-02 2.28373706e-02 2.07612454e-03
      1.93771627e-02 1.45328715e-02 2.07612454e-03 4.84429067e-03
      4.15224908e-03 1.03806229e-02 1.38408307e-03 4.15224908e-03
      1.38408307e-03 2.07612454e-03 1.31487893e-02 5.53633226e-03
      1.38408307e-03 8.30449816e-03 7.61245657e-03 2.14532875e-02
      2.76816613e-03 1.31487893e-02 2.00692043e-02 3.11418679e-02
      4.15224908e-03 2.90657431e-02 1.73010379e-02 4.15224908e-03
      8.30449816e-03 1.24567477e-02 2.07612454e-03 7.61245657e-03
      6.22837385e-03 2.07612454e-03 6.92041544e-03 1.10726645e-02
      6.22837385e-03 1.38408307e-03 3.46020772e-03 4.15224908e-03
      2.07612454e-03 1.38408307e-03 1.59169547e-02</_>
    <_>
      2.30680499e-03 4.61360998e-03 2.65282579e-02 3.46020772e-03
      1.15340250e-03 1.03806229e-02 3.69088799e-02 5.76701248e-03
      1.03806229e-02 5.99769317e-02 1.15340250e-03 5.76701248e-03
      9.22721997e-03 2.30680499e-03 2.30680499e-03 5.65167256e-02
      5.76701248e-03 0. 4.61360998e-03 1.15340250e-02 9.22721997e-03
      1.15340250e-03 2.30680499e-03 1.15340250e-03 5.76701248e-03
      5.76701248e-03 0. 1.73010379e-02 5.76701248e-03 4.61360998e-03
      1.15340250e-03 8.07381794e-03 1.96078438e-02 1.15340250e-02
      1.26874279e-02 1.38408309e-02 2.30680499e-03 6.92041544e-03
      5.76701248e-03 1.84544399e-02 5.65167256e-02 2.30680499e-03
      8.07381794e-03 1.61476359e-02 1.96078438e-02 0. 3.46020772e-03
      4.61360998e-03 8.07381794e-03 3.11418679e-02 0. 3.46020772e-03
      6.92041544e-03 8.07381794e-03 1.49942329e-02 1.49942329e-02
      4.61360998e-03 2.30680499e-03 2.19146479e-02 3.46020758e-02
      2.30680499e-03 1.03806229e-02 2.07612459e-02 3.46020772e-03
      2.30680499e-03 3.46020772e-03 1.15340250e-02 0. 1.15340250e-03
      2.30680499e-03 0. 9.22721997e-03 2.30680499e-03 5.76701248e-03
      3.46020772e-03 6.92041544e-03 3.92156877e-02 0. 1.15340250e-03
      9.22721997e-03 1.15340250e-02 8.07381794e-03 2.99884658e-02
      6.92041544e-03 1.15340250e-02 3.46020772e-03 1.61476359e-02
      5.76701248e-03 2.30680499e-03 8.07381794e-03 3.46020772e-03
      8.07381794e-03 1.15340250e-03 1.03806229e-02 5.76701248e-03
      1.84544399e-02 1.15340250e-03 1.15340250e-03 1.38408309e-02
      2.19146479e-02</_>
    <_>
      9.97126941e-03 1.09852962e-02 5.74615505e-03 5.23914164e-03
      1.38583742e-02 1.36893699e-02 4.90113255e-03 7.94321485e-03
      3.71810049e-03 1.90975163e-02 1.47033967e-02 1.03092780e-02
      1.21683283e-02 9.80226509e-03 1.35203646e-02 9.97126941e-03
      1.53794149e-02 1.31823560e-02 6.92918710e-03 7.77421007e-03
      8.11221916e-03 1.36893699e-02 1.55484201e-02 1.08162919e-02
      1.23373335e-02 1.65624470e-02 1.55484201e-02 3.71810049e-03
      9.63325985e-03 1.18303197e-02 9.80226509e-03 9.12624598e-03
      6.42217323e-03 6.76018232e-03 6.08416414e-03 5.57715073e-03
      1.62244383e-02 8.28122348e-03 1.01402737e-02 5.40814595e-03
      2.01115422e-02 6.08416414e-03 1.23373335e-02 4.05610958e-03
      7.77421007e-03 8.11221916e-03 6.76018232e-03 1.62244383e-02
      7.26719620e-03 5.57715073e-03 8.61923303e-03 1.69004556e-02
      1.08162919e-02 8.78823735e-03 1.01402737e-02 3.54909594e-03
      8.95724166e-03 1.63934417e-02 4.73212777e-03 6.59117801e-03
      1.06472876e-02 4.56312299e-03 7.09819188e-03 1.52104106e-02
      1.65624470e-02 5.91515983e-03 9.46425553e-03 1.60554331e-02
      1.53794149e-02 1.50414063e-02 1.41963838e-02 1.16613144e-02
      1.08162919e-02 1.60554331e-02 8.61923303e-03 6.76018232e-03
      3.38009116e-03 1.48724020e-02 7.60520529e-03 4.56312299e-03
      7.60520529e-03 9.29525122e-03 2.19705934e-03 6.42217323e-03
      1.11543015e-02 1.33513603e-02 5.74615505e-03 1.16613144e-02
      1.62244383e-02 1.11543015e-02 1.38583742e-02 4.90113255e-03
      1.25063378e-02 9.12624598e-03 1.08162919e-02 3.54909594e-03
      1.18303197e-02 1.13233058e-02 7.43620098e-03 5.07013686e-03</_>
    <_>
      1.11731840e-02 1.09302886e-02 8.50133598e-03 7.28685933e-04
      1.04444986e-02 1.57881957e-02 6.80106878e-03 1.11731840e-02
      8.74423143e-03 1.26305558e-02 1.33592421e-02 1.09302886e-02
      1.87029392e-02 8.01554509e-03 1.72455665e-02 6.80106878e-03
      1.02016032e-02 1.43308230e-02 4.61501116e-03 1.11731840e-02
      9.23002232e-03 1.02016032e-02 8.25844053e-03 1.33592421e-02
      1.28734512e-02 1.02016032e-02 1.38450330e-02 2.42895307e-03
      9.95870773e-03 1.26305558e-02 8.74423143e-03 9.23002232e-03
      5.58659201e-03 4.12922027e-03 7.28685933e-04 5.34369703e-03
      1.45737184e-02 1.04444986e-02 1.38450330e-02 8.74423143e-03
      9.47291683e-03 4.61501116e-03 1.91887300e-02 3.15763894e-03
      6.07238291e-03 1.11731840e-02 1.19018704e-02 1.40879285e-02
      1.21447658e-02 2.42895307e-03 6.80106878e-03 1.67597774e-02
      1.04444986e-02 7.04396423e-03 1.23876613e-02 4.12922027e-03
      8.50133598e-03 9.23002232e-03 9.95870773e-03 1.19018704e-02
      1.62739865e-02 6.07238291e-03 4.85790614e-03 1.36021376e-02
      1.14160795e-02 3.15763894e-03 9.71581228e-03 1.19018704e-02
      1.65168811e-02 1.33592421e-02 1.26305558e-02 7.52975466e-03
      1.67597774e-02 7.52975466e-03 6.07238291e-03 1.26305558e-02
      5.34369703e-03 1.55453002e-02 5.34369703e-03 7.04396423e-03
      1.45737187e-03 9.71581228e-03 4.12922027e-03 7.52975466e-03
      1.65168811e-02 1.11731840e-02 1.02016032e-02 1.55453002e-02
      1.57881957e-02 1.72455665e-02 1.23876613e-02 6.55817334e-03
      1.45737184e-02 8.74423143e-03 8.98712687e-03 1.21447654e-03
      1.48166139e-02 1.82171483e-02 9.47291683e-03 4.37211571e-03</_>
    <_>
      1.14416480e-02 8.00915342e-03 2.17391308e-02 1.14416471e-03
      1.02974828e-02 1.37299774e-02 1.02974828e-02 8.00915342e-03
      2.28832942e-03 2.28832942e-03 9.15331766e-03 1.37299774e-02
      1.14416480e-02 9.15331766e-03 1.25858122e-02 2.28832942e-03
      8.00915342e-03 6.86498871e-03 4.57665883e-03 1.48741417e-02
      9.15331766e-03 1.14416480e-02 9.15331766e-03 1.14416480e-02
      1.02974828e-02 1.14416480e-02 1.37299774e-02 9.15331766e-03
      1.02974828e-02 1.25858122e-02 8.00915342e-03 2.28832942e-03
      3.43249436e-03 4.57665883e-03 0. 4.57665883e-03 1.48741417e-02
      4.57665883e-03 1.25858122e-02 1.14416480e-02 2.28832942e-03
      3.43249436e-03 1.48741417e-02 3.43249436e-03 1.14416480e-02
      4.57665883e-03 1.37299774e-02 1.71624720e-02 5.72082400e-03
      2.28832942e-03 9.15331766e-03 1.71624720e-02 3.43249436e-03
      6.86498871e-03 1.14416480e-02 9.15331766e-03 1.14416480e-02
      1.48741417e-02 1.25858122e-02 8.00915342e-03 2.74599548e-02
      6.86498871e-03 6.86498871e-03 8.00915342e-03 1.60183068e-02
      1.14416471e-03 1.25858122e-02 1.60183068e-02 1.60183068e-02
      4.57665883e-03 1.02974828e-02 1.37299774e-02 1.83066353e-02
      2.28832942e-03 5.72082400e-03 1.25858122e-02 2.28832942e-03
      8.00915342e-03 1.02974828e-02 1.02974828e-02 2.28832942e-03
      2.74599548e-02 2.28832942e-03 5.72082400e-03 2.28832960e-02
      1.02974828e-02 1.83066353e-02 1.37299774e-02 1.83066353e-02
      2.63157897e-02 1.25858122e-02 1.71624720e-02 1.02974828e-02
      1.37299774e-02 3.43249436e-03 2.28832942e-03 1.25858122e-02
      1.71624720e-02 9.15331766e-03 4.57665883e-03</_>
    <_>
      1.15636000e-02 1.34070721e-02 4.52488707e-03 1.84347248e-03
      1.24015417e-02 1.17311878e-02 5.02765225e-03 9.04977415e-03
      7.37388991e-03 1.12284226e-02 1.22339530e-02 1.07256575e-02
      8.37942027e-03 1.15636000e-02 1.18987765e-02 7.70906638e-03
      1.80995483e-02 1.49153676e-02 3.68694495e-03 1.07256575e-02
      8.04424379e-03 1.52505450e-02 1.35746608e-02 7.70906638e-03
      9.55253933e-03 1.74291935e-02 1.27367182e-02 2.34623766e-03
      1.00553045e-02 1.08932462e-02 1.10608349e-02 9.55253933e-03
      8.04424379e-03 7.20630120e-03 3.85453319e-03 7.20630120e-03
      1.44126024e-02 1.00553045e-02 1.79319587e-02 8.04424379e-03
      1.20663652e-02 2.51382613e-03 1.54181328e-02 3.35176801e-03
      8.88218544e-03 9.55253933e-03 1.02228923e-02 1.17311878e-02
      7.87665509e-03 4.86006355e-03 5.86559391e-03 1.42450146e-02
      8.71459674e-03 1.22339530e-02 9.88771580e-03 3.85453319e-03
      1.18987765e-02 1.34070721e-02 7.03871297e-03 1.00553045e-02
      1.27367182e-02 8.21183156e-03 4.69247531e-03 1.35746608e-02
      1.30718956e-02 3.35176801e-03 9.04977415e-03 1.52505450e-02
      1.45801911e-02 1.37422495e-02 1.24015417e-02 1.44126024e-02
      1.17311878e-02 1.00553045e-02 8.04424379e-03 7.20630120e-03
      5.02765225e-03 1.44126024e-02 1.50829563e-02 1.13960113e-02
      4.35729837e-03 1.20663652e-02 4.18971013e-03 7.03871297e-03
      1.40774259e-02 1.25691304e-02 6.03318261e-03 1.07256575e-02
      1.37422495e-02 1.20663652e-02 1.12284226e-02 6.70353603e-03
      1.59208979e-02 7.20630120e-03 1.07256575e-02 3.18417954e-03
      1.35746608e-02 1.34070721e-02 9.38495062e-03 7.03871297e-03</_>
    <_>
      1.74129345e-02 8.29187408e-03 5.80431195e-03 8.29187396e-04
      9.95024852e-03 2.15588715e-02 9.95024852e-03 9.12106130e-03
      5.80431195e-03 0. 1.90713108e-02 9.12106130e-03 9.95024852e-03
      4.97512426e-03 8.29187408e-03 4.14593704e-03 3.31674959e-03
      1.32669983e-02 3.31674959e-03 1.32669983e-02 4.14593704e-03
      1.57545600e-02 1.07794357e-02 1.07794357e-02 6.63349917e-03
      1.32669983e-02 9.12106130e-03 4.14593704e-03 1.16086239e-02
      1.90713108e-02 9.12106130e-03 1.24378111e-02 9.12106130e-03
      5.80431195e-03 0. 7.46268639e-03 1.40961856e-02 5.80431195e-03
      1.82421226e-02 1.40961856e-02 0. 3.31674959e-03 1.82421226e-02
      1.65837479e-03 1.57545600e-02 1.24378111e-02 6.63349917e-03
      1.49253728e-02 2.48756213e-03 8.29187396e-04 4.14593704e-03
      1.32669983e-02 9.12106130e-03 5.80431195e-03 9.12106130e-03
      4.97512426e-03 7.46268639e-03 4.97512426e-03 1.74129345e-02
      5.80431195e-03 3.31674963e-02 9.12106130e-03 4.14593704e-03
      6.63349917e-03 1.65837482e-02 3.31674959e-03 9.95024852e-03
      1.74129345e-02 1.57545600e-02 4.14593704e-03 9.12106130e-03
      2.07296852e-02 2.07296852e-02 9.95024852e-03 5.80431195e-03
      8.29187408e-03 4.14593704e-03 6.63349917e-03 9.12106130e-03
      8.29187408e-03 8.29187396e-04 2.73631848e-02 8.29187396e-04
      5.80431195e-03 2.65339967e-02 1.74129345e-02 1.07794357e-02
      1.07794357e-02 2.48756222e-02 1.65837482e-02 9.12106130e-03
      9.95024852e-03 1.32669983e-02 9.95024852e-03 8.29187408e-03
      1.65837479e-03 9.12106130e-03 2.32172478e-02 9.12106130e-03
      4.14593704e-03</_>
    <_>
      1.72166433e-02 8.60832166e-03 1.00430418e-02 1.43472024e-03
      1.00430418e-02 1.14777619e-02 8.60832166e-03 1.14777619e-02
      7.17360107e-03 1.43472024e-03 8.60832166e-03 1.00430418e-02
      8.60832166e-03 7.17360107e-03 8.60832166e-03 0. 8.60832166e-03
      1.29124820e-02 1.43472024e-03 1.29124820e-02 2.86944048e-03
      1.14777619e-02 7.17360107e-03 1.72166433e-02 1.29124820e-02
      1.00430418e-02 1.43472021e-02 5.73888095e-03 8.60832166e-03
      1.14777619e-02 5.73888095e-03 7.17360107e-03 1.29124820e-02
      1.43472024e-03 1.43472024e-03 1.72166433e-02 1.57819223e-02
      5.73888095e-03 7.17360107e-03 2.58249640e-02 0. 2.86944048e-03
      2.00860836e-02 0. 2.86944048e-03 1.00430418e-02 7.17360107e-03
      1.29124820e-02 7.17360107e-03 2.86944048e-03 2.86944048e-03
      1.29124820e-02 7.17360107e-03 1.86513625e-02 1.29124820e-02
      7.17360107e-03 7.17360107e-03 8.60832166e-03 1.57819223e-02
      2.15208028e-02 2.72596851e-02 5.73888095e-03 2.86944048e-03
      7.17360107e-03 1.43472021e-02 1.43472024e-03 1.43472021e-02
      4.30416083e-03 1.86513625e-02 7.17360107e-03 1.00430418e-02
      2.58249640e-02 1.57819223e-02 5.73888095e-03 5.73888095e-03
      1.29124820e-02 0. 1.43472024e-03 2.00860836e-02 2.00860836e-02
      5.73888095e-03 2.15208028e-02 4.30416083e-03 1.43472021e-02
      1.43472021e-02 8.60832166e-03 2.29555238e-02 5.73888095e-03
      1.72166433e-02 2.00860836e-02 7.17360107e-03 2.00860836e-02
      1.00430418e-02 7.17360107e-03 1.43472024e-03 7.17360107e-03
      8.60832166e-03 1.14777619e-02 1.14777619e-02 1.00430418e-02</_>
    <_>
      1.99146513e-02 5.68990037e-03 1.28022758e-02 1.42247509e-03
      7.11237546e-03 1.84921771e-02 5.68990037e-03 1.28022758e-02
      4.26742528e-03 1.42247509e-03 1.28022758e-02 2.84495018e-03
      5.68990037e-03 9.95732564e-03 1.28022758e-02 2.84495018e-03
      9.95732564e-03 1.13798007e-02 4.26742528e-03 2.27596015e-02
      1.56472269e-02 8.53485055e-03 4.26742528e-03 7.11237546e-03
      1.13798007e-02 9.95732564e-03 9.95732564e-03 5.68990037e-03
      7.11237546e-03 1.13798007e-02 5.68990037e-03 1.13798007e-02
      1.42247509e-02 5.68990037e-03 0. 7.11237546e-03 1.56472269e-02
      1.13798007e-02 8.53485055e-03 1.42247509e-02 1.42247509e-03
      1.42247509e-03 1.70697011e-02 2.84495018e-03 1.28022758e-02
      9.95732564e-03 1.84921771e-02 9.95732564e-03 7.11237546e-03
      1.13798007e-02 8.53485055e-03 1.56472269e-02 1.56472269e-02
      5.68990037e-03 8.53485055e-03 5.68990037e-03 5.68990037e-03
      7.11237546e-03 7.11237546e-03 1.99146513e-02 1.70697011e-02
      8.53485055e-03 5.68990037e-03 1.42247509e-02 8.53485055e-03
      8.53485055e-03 4.26742528e-03 1.99146513e-02 8.53485055e-03
      8.53485055e-03 1.13798007e-02 1.84921771e-02 1.13798007e-02
      7.11237546e-03 2.84495018e-03 2.13371273e-02 7.11237546e-03
      2.84495018e-03 4.26742528e-03 1.42247509e-02 2.84495018e-03
      2.41820775e-02 4.26742528e-03 8.53485055e-03 2.27596015e-02
      7.11237546e-03 1.28022758e-02 7.11237546e-03 1.28022758e-02
      2.13371273e-02 9.95732564e-03 2.13371273e-02 1.28022758e-02
      1.13798007e-02 5.68990037e-03 1.42247509e-03 8.53485055e-03
      1.28022758e-02 1.56472269e-02 9.95732564e-03</_>
    <_>
      2.32558139e-02 1.82002019e-02 4.04448947e-03 1.01112237e-03
      8.08897894e-03 2.02224478e-02 6.06673397e-03 9.10010096e-03
      6.06673397e-03 1.01112237e-03 1.71890799e-02 8.08897894e-03
      4.04448947e-03 9.10010096e-03 9.10010096e-03 4.04448947e-03
      7.07785645e-03 1.92113239e-02 3.03336699e-03 8.08897894e-03
      1.11223459e-02 9.10010096e-03 7.07785645e-03 1.51668349e-02
      3.03336699e-03 5.05561195e-03 5.05561195e-03 5.05561195e-03
      1.31445909e-02 1.51668349e-02 1.01112239e-02 1.21334679e-02
      6.06673397e-03 6.06673397e-03 1.01112237e-03 6.06673397e-03
      1.71890799e-02 6.06673397e-03 1.11223459e-02 2.02224478e-02
      1.01112237e-03 5.05561195e-03 1.61779579e-02 3.03336699e-03
      1.21334679e-02 1.21334679e-02 6.06673397e-03 1.51668349e-02
      1.31445909e-02 2.02224473e-03 3.03336699e-03 1.31445909e-02
      9.10010096e-03 6.06673397e-03 7.07785645e-03 8.08897894e-03
      8.08897894e-03 6.06673397e-03 1.01112239e-02 1.51668349e-02
      2.42669359e-02 1.21334679e-02 2.02224473e-03 9.10010096e-03
      1.61779579e-02 6.06673397e-03 9.10010096e-03 1.11223459e-02
      1.82002019e-02 5.05561195e-03 5.05561195e-03 1.51668349e-02
      2.22446918e-02 1.01112239e-02 1.01112239e-02 8.08897894e-03
      2.02224473e-03 1.21334679e-02 5.05561195e-03 1.71890799e-02
      1.01112237e-03 2.22446918e-02 3.03336699e-03 9.10010096e-03
      3.13447937e-02 8.08897894e-03 1.21334679e-02 1.21334679e-02
      2.12335698e-02 1.61779579e-02 1.01112239e-02 1.01112239e-02
      1.21334679e-02 9.10010096e-03 8.08897894e-03 0. 1.51668349e-02
      1.51668349e-02 1.21334679e-02 8.08897894e-03</_>
    <_>
      8.44510645e-03 1.01010101e-02 6.45802263e-03 3.80857754e-03
      1.37439976e-02 1.57310814e-02 6.45802263e-03 8.61069746e-03
      6.62361318e-03 9.76982899e-03 1.22536840e-02 1.02666002e-02
      8.27951636e-03 1.14257326e-02 1.20880939e-02 6.29243255e-03
      2.00364292e-02 1.70558039e-02 6.12684200e-03 1.07633714e-02
      8.27951636e-03 1.07633714e-02 1.35784075e-02 9.10746772e-03
      9.93542001e-03 1.40751777e-02 1.20880939e-02 3.80857754e-03
      1.05977813e-02 1.37439976e-02 1.22536840e-02 8.61069746e-03
      8.61069746e-03 8.94187763e-03 4.13975818e-03 4.63652937e-03
      1.34128164e-02 8.94187763e-03 1.52343102e-02 4.96771000e-03
      8.11392628e-03 3.14621627e-03 1.35784075e-02 3.80857754e-03
      7.28597445e-03 8.44510645e-03 1.17569137e-02 1.30816363e-02
      9.93542001e-03 3.97416810e-03 5.96125191e-03 1.60622615e-02
      1.09289614e-02 1.29160453e-02 8.94187763e-03 4.63652937e-03
      8.44510645e-03 1.10945525e-02 6.78920373e-03 7.78274564e-03
      1.29160453e-02 8.94187763e-03 4.96771000e-03 1.24192750e-02
      1.80493463e-02 4.30534873e-03 1.05977813e-02 1.77181661e-02
      1.68902129e-02 1.35784075e-02 1.58966724e-02 1.19225038e-02
      1.12601425e-02 1.07633714e-02 1.07633714e-02 1.09289614e-02
      2.48385500e-03 1.39095876e-02 9.27305873e-03 8.94187763e-03
      6.45802263e-03 9.27305873e-03 6.12684200e-03 7.12038437e-03
      1.20880939e-02 1.44063588e-02 7.94833619e-03 8.11392628e-03
      1.39095876e-02 1.07633714e-02 1.20880939e-02 5.29889064e-03
      1.58966724e-02 8.61069746e-03 1.57310814e-02 3.64298723e-03
      9.60423891e-03 1.40751777e-02 9.10746772e-03 6.45802263e-03</_>
    <_>
      8.05931631e-03 1.32172788e-02 6.28626673e-03 4.35203081e-03
      1.28949061e-02 1.06382975e-02 3.86847206e-03 8.70406162e-03
      7.89813045e-03 1.75693110e-02 1.28949061e-02 1.07994843e-02
      9.99355223e-03 1.16054155e-02 1.32172788e-02 5.15796244e-03
      1.49903288e-02 1.27337202e-02 6.28626673e-03 1.25725335e-02
      6.93101203e-03 1.28949061e-02 1.46679562e-02 8.70406162e-03
      1.33784655e-02 1.43455835e-02 1.41843967e-02 5.80270775e-03
      9.34880693e-03 1.43455835e-02 1.01547390e-02 9.34880693e-03
      7.73694413e-03 7.09219836e-03 6.12508040e-03 4.19084448e-03
      1.46679562e-02 9.99355223e-03 1.32172788e-02 6.44745305e-03
      1.91811733e-02 4.99677612e-03 1.41843967e-02 4.83558979e-03
      8.05931631e-03 9.02643427e-03 1.09606702e-02 1.59574468e-02
      7.25338468e-03 4.19084448e-03 4.83558979e-03 1.78916827e-02
      9.50999372e-03 9.99355223e-03 1.12830428e-02 5.48033509e-03
      7.89813045e-03 1.54738883e-02 4.51321714e-03 9.67117958e-03
      1.33784655e-02 7.25338468e-03 3.70728574e-03 1.20889749e-02
      1.48291430e-02 6.28626673e-03 9.99355223e-03 1.53127015e-02
      2.06318498e-02 1.43455835e-02 1.48291430e-02 7.57575780e-03
      1.06382975e-02 1.37008382e-02 1.04771117e-02 9.50999372e-03
      3.22372653e-03 1.74081232e-02 8.38168897e-03 8.54287576e-03
      7.89813045e-03 9.02643427e-03 4.02965816e-03 4.67440346e-03
      1.07994843e-02 1.20889749e-02 6.12508040e-03 8.54287576e-03
      1.19277881e-02 9.18762106e-03 1.20889749e-02 3.70728574e-03
      1.33784655e-02 5.31914877e-03 1.38620241e-02 4.35203081e-03
      1.07994843e-02 1.46679562e-02 7.41457148e-03 5.48033509e-03</_>
    <_>
      1.97823928e-03 9.89119639e-04 4.94559854e-03 3.36300693e-02
      3.95647855e-03 9.89119639e-04 3.95647855e-03 9.89119639e-04
      3.95647855e-03 1.51335314e-01 0. 2.96735903e-03 3.95647855e-03
      5.93471806e-03 1.97823928e-03 6.13254197e-02 0. 3.95647855e-03
      3.16518284e-02 0. 6.92383759e-03 9.89119639e-04 1.97823928e-03
      2.96735903e-03 2.96735903e-03 2.96735903e-03 0. 6.92383759e-03
      9.89119639e-04 9.89119639e-04 2.96735903e-03 2.96735903e-03
      1.18694361e-02 9.89119639e-04 6.13254197e-02 1.48367956e-02
      9.89119639e-04 9.89119639e-04 5.93471806e-03 2.96735903e-03
      1.81998014e-01 1.48367956e-02 0. 2.17606332e-02 3.95647855e-03
      3.95647855e-03 1.97823928e-03 3.95647855e-03 9.89119639e-04
      2.37388723e-02 2.57171113e-02 9.89119639e-04 9.89119639e-04
      3.95647855e-03 9.89119639e-04 5.93471806e-03 0. 0. 9.89119639e-04
      2.17606332e-02 0. 3.95647855e-03 4.94559854e-03 0. 0.
      2.57171113e-02 1.97823928e-03 1.97823928e-03 1.97823928e-03
      9.89119639e-04 0. 9.89119639e-04 5.93471806e-03 9.89119639e-04
      7.91295711e-03 1.97823928e-03 1.28585557e-02 1.97823928e-03
      4.94559854e-03 1.97823928e-03 2.86844708e-02 9.89119639e-04
      2.07715128e-02 9.89119639e-04 1.97823928e-03 1.97823928e-03
      3.95647855e-03 1.97823928e-03 9.89119639e-04 9.89119639e-04
      1.97823928e-03 1.97823928e-03 9.89119639e-04 1.97823928e-03
      1.97823928e-03 5.73689416e-02 0. 9.89119639e-04 5.93471806e-03
      1.18694361e-02</_>
    <_>
      5.29100513e-03 3.52733675e-03 7.05467351e-03 1.49911819e-02
      2.64550257e-03 8.81834188e-04 2.64550257e-03 5.29100513e-03
      1.14638451e-02 1.49029985e-01 0. 7.93650839e-03 7.93650839e-03
      6.17283955e-03 8.81834188e-04 2.38095243e-02 6.17283955e-03
      3.52733675e-03 2.46913582e-02 1.76366838e-03 5.29100513e-03
      1.76366838e-03 6.17283955e-03 4.40917118e-03 1.32275131e-02
      6.17283955e-03 8.81834188e-04 1.23456791e-02 8.81834188e-04
      5.29100513e-03 2.64550257e-03 7.93650839e-03 8.81834235e-03
      7.05467351e-03 4.23280410e-02 1.94003526e-02 3.52733675e-03
      8.81834235e-03 4.40917118e-03 1.76366838e-03 1.18165784e-01
      2.02821866e-02 2.64550257e-03 2.02821866e-02 7.93650839e-03
      2.64550257e-03 5.29100513e-03 3.52733675e-03 3.52733675e-03
      2.11640205e-02 1.23456791e-02 2.64550257e-03 5.29100513e-03
      1.14638451e-02 5.29100513e-03 6.17283955e-03 6.17283955e-03
      3.52733675e-03 8.81834188e-04 1.32275131e-02 4.40917118e-03
      8.81834235e-03 1.76366838e-03 3.52733675e-03 1.76366838e-03
      1.85185187e-02 3.52733675e-03 8.81834188e-04 3.52733675e-03
      5.29100513e-03 8.81834188e-04 8.81834188e-04 6.17283955e-03
      3.52733675e-03 7.93650839e-03 2.64550257e-03 1.05820103e-02 0.
      8.81834235e-03 7.05467351e-03 3.17460336e-02 1.76366838e-03
      2.20458545e-02 8.81834235e-03 1.76366838e-03 3.52733675e-03
      7.05467351e-03 5.29100513e-03 3.52733675e-03 3.52733675e-03
      5.29100513e-03 6.17283955e-03 1.76366838e-03 7.93650839e-03
      7.05467351e-03 3.08641978e-02 8.81834235e-03 1.76366838e-03
      2.64550257e-03 1.67548507e-02</_>
    <_>
      1.07296137e-03 2.14592274e-03 4.29184549e-03 5.04291840e-02
      3.21888411e-03 3.21888411e-03 5.36480686e-03 5.36480686e-03
      5.36480686e-03 1.87768236e-01 3.21888411e-03 2.14592274e-03
      5.36480686e-03 0. 1.07296137e-03 3.21888402e-02 1.07296137e-03
      1.07296137e-03 2.68240348e-02 1.07296137e-03 3.21888411e-03
      2.14592274e-03 2.14592274e-03 5.36480686e-03 3.21888411e-03
      3.21888411e-03 2.14592274e-03 2.57510729e-02 1.07296137e-03
      3.21888411e-03 4.29184549e-03 5.36480686e-03 1.18025756e-02
      2.14592274e-03 6.22317605e-02 1.50214592e-02 3.21888411e-03 0.
      2.14592274e-03 0. 1.36266097e-01 2.36051511e-02 5.36480686e-03
      2.03862656e-02 6.43776823e-03 1.07296137e-03 4.29184549e-03 0.
      3.21888411e-03 2.68240348e-02 2.25321893e-02 2.14592274e-03
      3.21888411e-03 2.14592274e-03 2.14592274e-03 6.43776823e-03
      2.14592274e-03 1.07296137e-03 1.07296137e-03 1.50214592e-02
      3.21888411e-03 2.14592274e-03 1.07296137e-03 2.14592274e-03
      1.07296137e-03 1.39484983e-02 2.14592274e-03 0. 2.14592274e-03 0.
      1.07296137e-03 1.07296137e-03 2.14592274e-03 3.21888411e-03
      8.58369097e-03 2.14592274e-03 1.28755365e-02 2.14592274e-03
      5.36480686e-03 3.21888411e-03 2.14592274e-02 3.21888411e-03
      2.14592274e-02 4.29184549e-03 1.07296137e-03 4.29184549e-03
      3.21888411e-03 4.29184549e-03 1.07296137e-03 0. 3.21888411e-03
      7.51072960e-03 1.07296137e-03 8.58369097e-03 2.14592274e-03
      3.43347639e-02 0. 0. 1.18025756e-02 1.18025756e-02</_>
    <_>
      4.80769239e-02 0. 9.61538497e-03 0. 0. 0. 0. 9.61538497e-03
      9.61538497e-03 0. 0. 0. 0. 0. 0. 9.61538497e-03 0. 0.
      2.88461540e-02 0. 0. 0. 0. 0. 0. 0. 9.61538497e-03 0. 0.
      2.88461540e-02 0. 9.61538497e-03 9.61538497e-03 9.61538497e-03
      9.61538497e-03 1.25000000e-01 0. 0. 0. 0. 2.88461540e-02
      1.05769232e-01 9.61538497e-03 9.61538497e-03 0. 0. 1.92307699e-02
      9.61538497e-03 0. 1.92307699e-02 0. 0. 0. 0. 9.61538497e-03 0. 0.
      9.61538497e-03 0. 8.65384638e-02 9.61538497e-03 9.61538497e-03 0.
      0. 0. 9.61538497e-03 1.92307699e-02 0. 0. 0. 0. 9.61538497e-03
      4.80769239e-02 0. 3.84615399e-02 1.92307699e-02 9.61538497e-03 0.
      0. 0. 0. 2.88461540e-02 0. 0. 9.61538497e-03 0. 3.84615399e-02
      9.61538497e-03 0. 9.61538497e-03 0. 0. 0. 0. 0. 4.80769239e-02
      9.61538497e-03 0. 3.84615399e-02 9.61538497e-03</_>
    <_>
      0. 7.57575780e-03 7.57575780e-03 1.51515156e-02 0. 0. 0. 0.
      3.03030312e-02 6.06060624e-02 0. 0. 7.57575780e-03 7.57575780e-03
      0. 3.03030312e-02 0. 0. 7.57575780e-03 7.57575780e-03
      1.51515156e-02 0. 0. 7.57575780e-03 0. 0. 0. 7.57575780e-03 0.
      1.51515156e-02 7.57575780e-03 0. 7.57575780e-03 0. 3.78787890e-02
      1.36363640e-01 0. 0. 0. 1.51515156e-02 4.54545468e-02
      6.06060624e-02 0. 0. 0. 0. 7.57575780e-03 0. 7.57575780e-03
      2.27272734e-02 7.57575780e-03 0. 0. 7.57575780e-03 7.57575780e-03
      0. 0. 0. 0. 1.06060609e-01 7.57575780e-03 7.57575780e-03
      7.57575780e-03 0. 0. 0. 1.51515156e-02 0. 7.57575780e-03
      7.57575780e-03 0. 0. 7.57575780e-03 7.57575780e-03 7.57575780e-03
      0. 1.51515156e-02 0. 2.27272734e-02 7.57575780e-03 7.57575780e-03
      1.51515156e-02 0. 0. 0. 7.57575780e-03 6.06060624e-02 0.
      7.57575780e-03 0. 0. 1.51515156e-02 0. 1.51515156e-02 0.
      7.57575780e-03 0. 0. 3.03030312e-02 7.57575780e-03</_>
    <_>
      3.67985270e-03 2.75988970e-03 1.10395588e-02 3.21987122e-02
      2.75988970e-03 9.19963175e-04 1.83992635e-03 6.43974263e-03 0.
      1.46274149e-01 0. 3.67985270e-03 4.59981617e-03 1.01195956e-02
      5.51977940e-03 4.32382710e-02 2.75988970e-03 9.19963175e-04
      1.93192270e-02 5.51977940e-03 5.51977940e-03 7.35970540e-03
      9.19963175e-04 6.43974263e-03 7.35970540e-03 0. 2.75988970e-03
      6.43974263e-03 1.83992635e-03 3.67985270e-03 2.75988970e-03
      1.01195956e-02 6.43974263e-03 4.59981617e-03 5.88776432e-02
      1.37994476e-02 5.51977940e-03 5.51977940e-03 2.75988970e-03
      3.67985270e-03 1.39834404e-01 2.39190441e-02 1.83992635e-03
      2.39190441e-02 3.67985270e-03 1.83992635e-03 4.59981617e-03
      3.67985270e-03 3.67985270e-03 1.93192270e-02 1.65593382e-02
      9.19963175e-04 8.27966910e-03 6.43974263e-03 5.51977940e-03
      5.51977940e-03 4.59981617e-03 9.19963175e-04 0. 1.47194108e-02
      9.19963175e-04 1.01195956e-02 8.27966910e-03 1.83992635e-03
      9.19963175e-04 1.83992647e-02 6.43974263e-03 9.19963175e-04
      9.19963175e-04 5.51977940e-03 2.75988970e-03 0. 9.19963175e-04 0.
      1.47194108e-02 1.83992635e-03 1.93192270e-02 9.19963175e-04
      7.35970540e-03 1.19595220e-02 2.75988951e-02 2.75988970e-03
      1.47194108e-02 4.59981617e-03 1.83992635e-03 1.83992635e-03
      2.75988970e-03 1.83992635e-03 2.75988970e-03 0. 3.67985270e-03
      6.43974263e-03 2.75988970e-03 7.35970540e-03 5.51977940e-03
      3.03587858e-02 2.75988970e-03 0. 4.59981617e-03 1.19595220e-02</_>
    <_>
      1.09051252e-02 4.36204998e-03 6.54307520e-03 1.30861504e-02
      7.63358781e-03 1.19956378e-02 3.27153760e-03 2.18102504e-02
      2.18102499e-03 1.37404576e-01 5.45256259e-03 1.09051249e-03
      6.54307520e-03 6.54307520e-03 6.54307520e-03 4.79825512e-02
      8.72409996e-03 1.09051249e-03 1.96292251e-02 8.72409996e-03
      7.63358781e-03 1.09051249e-03 1.09051249e-03 5.45256259e-03
      1.19956378e-02 2.18102499e-03 4.36204998e-03 1.09051252e-02
      4.36204998e-03 1.09051249e-03 1.09051249e-03 4.36204998e-03
      1.41766630e-02 6.54307520e-03 4.36205007e-02 9.81461257e-03
      5.45256259e-03 4.36204998e-03 3.27153760e-03 0. 1.28680483e-01
      1.74481999e-02 2.18102499e-03 1.52671756e-02 2.18102499e-03
      5.45256259e-03 4.36204998e-03 3.27153760e-03 7.63358781e-03
      1.63576882e-02 1.74481999e-02 1.09051249e-03 6.54307520e-03
      7.63358781e-03 4.36204998e-03 3.27153760e-03 7.63358781e-03
      4.36204998e-03 4.36204998e-03 2.39912756e-02 2.18102499e-03
      2.18102499e-03 2.18102499e-03 3.27153760e-03 2.18102499e-03
      1.85387135e-02 3.27153760e-03 2.18102499e-03 8.72409996e-03
      5.45256259e-03 1.09051249e-03 0. 5.45256259e-03 2.18102499e-03
      1.19956378e-02 3.27153760e-03 1.30861504e-02 5.45256259e-03
      5.45256259e-03 7.63358781e-03 2.50817891e-02 2.18102499e-03
      1.09051252e-02 4.36204998e-03 5.45256259e-03 3.27153760e-03
      2.18102499e-03 6.54307520e-03 5.45256259e-03 3.27153760e-03
      1.09051249e-03 1.19956378e-02 0. 3.27153760e-03 6.54307520e-03
      2.94438377e-02 3.27153760e-03 1.09051249e-03 5.45256259e-03
      5.45256259e-03</_>
    <_>
      1.20192312e-03 2.40384624e-03 6.00961549e-03 2.40384620e-02
      2.40384624e-03 8.41346197e-03 6.00961549e-03 1.20192312e-03
      1.20192310e-02 1.73076928e-01 4.80769249e-03 1.20192312e-03
      7.21153850e-03 4.80769249e-03 3.60576925e-03 2.76442301e-02
      6.00961549e-03 2.40384624e-03 2.64423080e-02 2.40384624e-03
      2.40384624e-03 3.60576925e-03 0. 3.60576925e-03 6.00961549e-03
      3.60576925e-03 6.00961549e-03 1.56250000e-02 2.40384624e-03
      3.60576925e-03 6.00961549e-03 1.20192312e-03 1.32211540e-02
      2.40384624e-03 6.37019202e-02 2.76442301e-02 1.20192312e-03
      2.40384624e-03 1.20192312e-03 2.40384624e-03 1.55048072e-01
      2.28365380e-02 3.60576925e-03 1.80288460e-02 3.60576925e-03
      3.60576925e-03 1.20192312e-03 2.40384624e-03 2.40384624e-03
      1.56250000e-02 1.20192310e-02 2.40384624e-03 3.60576925e-03 0.
      4.80769249e-03 3.60576925e-03 0. 0. 0. 1.08173080e-02
      2.40384624e-03 7.21153850e-03 2.40384624e-03 8.41346197e-03 0.
      2.16346160e-02 7.21153850e-03 2.40384624e-03 1.20192312e-03
      3.60576925e-03 0. 4.80769249e-03 1.44230770e-02 1.20192312e-03
      8.41346197e-03 1.20192312e-03 1.08173080e-02 0. 2.40384624e-03
      2.40384624e-03 3.00480761e-02 1.20192312e-03 3.12500000e-02
      2.40384624e-03 2.40384624e-03 1.20192312e-03 1.20192312e-03
      1.20192312e-03 3.60576925e-03 1.20192312e-03 0. 6.00961549e-03 0.
      7.21153850e-03 2.40384624e-03 3.84615399e-02 1.20192312e-03
      1.20192312e-03 0. 8.41346197e-03</_>
    <_>
      6.06060587e-03 3.46320355e-03 8.65800865e-03 2.68398263e-02
      8.65800888e-04 8.65800888e-04 6.92640711e-03 4.32900432e-03
      4.32900432e-03 1.74891770e-01 4.32900432e-03 3.46320355e-03
      2.59740255e-03 3.46320355e-03 0. 5.36796525e-02 3.46320355e-03
      1.73160178e-03 4.93506491e-02 6.06060587e-03 8.65800865e-03
      6.92640711e-03 3.46320355e-03 8.65800888e-04 6.06060587e-03
      3.46320355e-03 2.59740255e-03 8.65800865e-03 2.59740255e-03
      1.73160178e-03 1.73160178e-03 2.59740255e-03 9.52380989e-03
      4.32900432e-03 4.84848469e-02 1.38528142e-02 1.73160178e-03
      4.32900432e-03 3.46320355e-03 8.65800888e-04 1.22077920e-01
      1.99134201e-02 4.32900432e-03 1.12554114e-02 3.46320355e-03
      3.46320355e-03 2.59740255e-03 3.46320355e-03 4.32900432e-03
      1.29870130e-02 1.73160173e-02 8.65800888e-04 1.73160178e-03
      5.19480510e-03 6.06060587e-03 3.46320355e-03 6.06060587e-03
      8.65800888e-04 3.46320355e-03 2.68398263e-02 8.65800888e-04
      7.79220788e-03 4.32900432e-03 4.32900432e-03 1.73160178e-03
      4.24242429e-02 3.46320355e-03 1.73160178e-03 2.59740255e-03
      2.59740255e-03 1.73160178e-03 2.59740255e-03 4.32900432e-03 0.
      1.03896102e-02 1.73160178e-03 8.65800865e-03 8.65800888e-04
      6.92640711e-03 2.59740255e-03 2.77056284e-02 1.73160178e-03
      1.90476198e-02 6.92640711e-03 3.46320355e-03 2.59740255e-03
      2.59740255e-03 2.59740255e-03 0. 8.65800888e-04 8.65800888e-04
      7.79220788e-03 8.65800888e-04 5.19480510e-03 3.46320355e-03
      3.03030312e-02 4.32900432e-03 0. 2.59740255e-03 4.32900432e-03</_>
    <_>
      2.83687934e-02 1.41843967e-02 2.83687934e-02 1.41843967e-02
      7.09219836e-03 7.09219836e-03 2.12765951e-02 3.54609936e-02
      3.54609936e-02 7.09219836e-03 0. 1.41843967e-02 0. 0. 0. 0.
      7.09219836e-03 0. 7.09219836e-03 0. 0. 0. 0. 0. 7.09219836e-03 0.
      0. 1.41843967e-02 7.09219836e-03 0. 0. 1.41843967e-02
      2.12765951e-02 7.09219836e-03 2.12765951e-02 4.96453904e-02 0. 0.
      7.09219836e-03 0. 4.96453904e-02 4.25531901e-02 7.09219836e-03
      7.09219836e-03 0. 0. 0. 0. 0. 0. 7.09219836e-03 0. 0. 0.
      1.41843967e-02 0. 1.41843967e-02 0. 0. 1.56028375e-01
      7.09219836e-03 7.09219836e-03 0. 1.41843967e-02 0. 4.25531901e-02
      0. 0. 0. 0. 0. 0. 1.41843967e-02 0. 7.09219836e-03 7.09219836e-03
      0. 0. 2.12765951e-02 1.41843967e-02 1.41843967e-02 7.09219836e-03
      1.41843967e-02 0. 7.09219836e-03 0. 4.96453904e-02 7.09219836e-03
      7.09219836e-03 0. 1.41843967e-02 7.09219836e-03 1.41843967e-02 0.
      7.09219836e-03 0. 7.09219836e-03 0. 2.83687934e-02 7.09219836e-03</_>
    <_>
      4.96524340e-03 2.97914608e-03 4.96524340e-03 2.38331687e-02
      2.97914608e-03 7.94438925e-03 1.98609731e-03 3.97219462e-03
      1.39026809e-02 1.28103271e-01 1.98609731e-03 1.98609731e-03
      5.95829217e-03 2.97914608e-03 3.97219462e-03 3.77358496e-02
      3.97219462e-03 3.97219462e-03 1.88679248e-02 2.97914608e-03 0.
      1.98609731e-03 1.98609731e-03 3.97219462e-03 2.97914608e-03
      3.97219462e-03 2.97914608e-03 1.68818273e-02 1.98609731e-03
      4.96524340e-03 3.97219462e-03 1.98609731e-03 1.48957297e-02
      3.97219462e-03 6.75273091e-02 2.08540224e-02 4.96524340e-03
      3.97219462e-03 4.96524340e-03 9.93048656e-04 1.21151939e-01
      1.09235356e-02 4.96524340e-03 1.98609736e-02 1.29096322e-02
      9.93048656e-04 5.95829217e-03 7.94438925e-03 1.09235356e-02
      2.48262156e-02 2.28401199e-02 4.96524340e-03 3.97219462e-03
      9.93048656e-04 8.93743802e-03 2.97914608e-03 2.97914608e-03 0.
      1.98609731e-03 3.07845082e-02 6.95134047e-03 6.95134047e-03
      3.97219462e-03 9.93048656e-04 2.97914608e-03 1.29096322e-02
      8.93743802e-03 1.98609731e-03 2.97914608e-03 2.97914608e-03
      9.93048656e-04 2.97914608e-03 7.94438925e-03 1.39026809e-02
      1.29096322e-02 0. 1.29096322e-02 3.97219462e-03 1.98609731e-03
      1.98609731e-03 2.38331687e-02 1.98609731e-03 8.93743802e-03
      8.93743802e-03 9.93048656e-04 3.97219462e-03 2.97914608e-03
      1.98609731e-03 1.98609731e-03 9.93048656e-04 5.95829217e-03
      2.97914608e-03 1.98609731e-03 5.95829217e-03 2.97914608e-03
      4.27010916e-02 9.93048656e-04 9.93048656e-04 1.29096322e-02
      3.97219462e-03</_>
    <_>
      1.81818176e-02 9.09090880e-03 1.81818176e-02 2.72727273e-02
      9.09090880e-03 9.09090880e-03 9.09090880e-03 1.81818176e-02 0.
      1.81818176e-02 0. 0. 0. 0. 0. 0. 0. 0. 0. 0. 0. 9.09090880e-03 0.
      0. 0. 9.09090880e-03 0. 1.81818176e-02 9.09090880e-03 0. 0.
      1.81818176e-02 9.09090880e-03 9.09090880e-03 1.81818176e-02
      5.45454547e-02 1.81818176e-02 9.09090880e-03 9.09090880e-03
      9.09090880e-03 9.09090880e-03 5.45454547e-02 1.81818176e-02 0. 0.
      9.09090880e-03 4.54545468e-02 0. 0. 1.81818176e-02 3.63636352e-02
      0. 0. 9.09090880e-03 9.09090880e-03 0. 0. 0. 0. 1.45454541e-01
      9.09090880e-03 0. 0. 0. 9.09090880e-03 9.09090880e-03
      9.09090880e-03 9.09090880e-03 0. 0. 0. 0. 9.09090880e-03 0.
      4.54545468e-02 0. 1.81818176e-02 0. 0. 9.09090880e-03
      3.63636352e-02 1.81818176e-02 9.09090880e-03 9.09090880e-03
      9.09090880e-03 9.09090880e-03 3.63636352e-02 0. 0. 1.81818176e-02
      0. 0. 0. 0. 0. 9.09090880e-03 0. 0. 2.72727273e-02 0.</_>
    <_>
      8.59291106e-03 7.51879718e-03 6.44468330e-03 9.66702495e-03
      3.22234165e-03 6.44468330e-03 1.28893666e-02 4.29645553e-03
      1.07411388e-02 1.35338351e-01 2.14822777e-03 6.44468330e-03
      3.22234165e-03 6.44468330e-03 3.22234165e-03 2.04081628e-02
      5.37056942e-03 4.29645553e-03 1.07411388e-02 3.22234165e-03
      3.22234165e-03 2.14822777e-03 4.29645553e-03 5.37056942e-03
      5.37056942e-03 3.22234165e-03 0. 8.59291106e-03 0. 5.37056942e-03
      3.22234165e-03 6.44468330e-03 1.18152527e-02 2.14822777e-03
      4.61868942e-02 2.79269610e-02 6.44468330e-03 5.37056942e-03
      1.07411388e-03 3.22234165e-03 1.56820625e-01 2.47046184e-02
      1.07411388e-03 1.18152527e-02 2.14822777e-03 6.44468330e-03
      8.59291106e-03 3.22234165e-03 6.44468330e-03 1.07411388e-02
      1.61117073e-02 4.29645553e-03 1.07411388e-03 2.14822777e-03
      7.51879718e-03 2.14822777e-03 4.29645553e-03 1.07411388e-03
      5.37056942e-03 4.40386683e-02 8.59291106e-03 7.51879718e-03
      2.14822777e-03 2.14822777e-03 3.22234165e-03 1.50375944e-02
      1.28893666e-02 0. 3.22234165e-03 4.29645553e-03 1.07411388e-03
      4.29645553e-03 2.14822777e-03 4.29645553e-03 8.59291106e-03
      3.22234165e-03 1.50375944e-02 2.14822777e-03 3.22234165e-03
      6.44468330e-03 3.00751887e-02 6.44468330e-03 1.28893666e-02
      7.51879718e-03 1.07411388e-03 4.29645553e-03 1.39634805e-02
      2.14822777e-03 7.51879718e-03 4.29645553e-03 1.07411388e-03
      6.44468330e-03 5.37056942e-03 3.22234165e-03 1.07411388e-03
      1.61117073e-02 3.22234165e-03 1.07411388e-03 5.37056942e-03
      1.50375944e-02</_>
    <_>
      6.75675692e-03 5.40540554e-03 1.48648648e-02 2.36486495e-02
      4.72972961e-03 1.35135138e-03 8.10810830e-03 5.40540554e-03
      1.08108111e-02 1.00000001e-01 1.35135138e-03 8.78378376e-03
      4.05405415e-03 6.75675692e-03 2.02702708e-03 1.28378375e-02
      5.40540554e-03 1.35135138e-03 2.29729731e-02 1.14864865e-02
      7.43243238e-03 1.08108111e-02 8.10810830e-03 4.05405415e-03
      8.10810830e-03 2.70270277e-03 8.78378376e-03 1.55405402e-02
      4.05405415e-03 3.37837846e-03 2.02702708e-03 1.08108111e-02
      1.21621620e-02 6.75675692e-03 3.98648642e-02 1.82432439e-02
      3.37837846e-03 5.40540554e-03 6.08108100e-03 2.70270277e-03
      1.00000001e-01 1.82432439e-02 4.72972961e-03 1.82432439e-02
      2.02702708e-03 6.08108100e-03 6.08108100e-03 2.70270277e-03
      4.05405415e-03 1.01351347e-02 1.35135138e-02 3.37837846e-03
      7.43243238e-03 1.28378375e-02 7.43243238e-03 2.70270277e-03
      4.05405415e-03 3.37837846e-03 6.08108100e-03 2.36486495e-02
      1.35135138e-03 1.21621620e-02 2.02702708e-03 6.75675692e-03
      2.02702708e-03 1.75675675e-02 7.43243238e-03 2.70270277e-03
      2.70270277e-03 2.70270277e-03 4.05405415e-03 3.37837846e-03
      6.08108100e-03 4.72972961e-03 9.45945922e-03 1.21621620e-02
      6.75675692e-03 0. 6.08108100e-03 1.75675675e-02 3.85135151e-02
      1.35135138e-03 1.82432439e-02 1.35135138e-02 1.35135138e-03
      4.72972961e-03 6.75675692e-04 8.10810830e-03 2.70270277e-03 0.
      2.70270277e-03 1.01351347e-02 2.02702708e-03 7.43243238e-03
      4.72972961e-03 2.90540531e-02 2.02702708e-03 4.05405415e-03
      4.05405415e-03 2.16216221e-02</_>
    <_>
      2.41691852e-03 4.22960706e-03 1.32930512e-02 2.29607243e-02
      1.81268877e-03 2.41691852e-03 4.83383704e-03 7.85498507e-03
      9.66767408e-03 1.57703921e-01 1.20845926e-03 9.06344410e-03
      5.43806655e-03 8.45921412e-03 7.25075509e-03 4.16918434e-02
      2.41691852e-03 3.02114803e-03 1.75226592e-02 1.26888221e-02
      7.25075509e-03 3.62537755e-03 3.62537755e-03 3.02114803e-03
      4.22960706e-03 2.41691852e-03 3.02114803e-03 1.57099701e-02
      1.20845926e-03 2.41691852e-03 6.04229607e-03 9.66767408e-03
      1.99395772e-02 6.04229630e-04 3.62537764e-02 2.17522662e-02
      3.62537755e-03 2.41691852e-03 2.41691852e-03 1.20845926e-03
      1.00302115e-01 9.66767408e-03 2.41691852e-03 1.45015102e-02
      4.83383704e-03 4.22960706e-03 8.45921412e-03 2.41691852e-03
      6.04229607e-03 1.93353482e-02 1.32930512e-02 1.20845926e-03
      3.62537755e-03 6.04229607e-03 6.64652558e-03 3.02114803e-03
      2.41691852e-03 4.22960706e-03 4.22960706e-03 2.47734133e-02
      3.62537755e-03 7.25075509e-03 3.02114803e-03 3.02114803e-03
      2.41691852e-03 1.32930512e-02 1.26888221e-02 1.20845926e-03
      6.04229630e-04 2.41691852e-03 3.02114803e-03 6.04229630e-04
      8.45921412e-03 6.04229630e-04 4.22960706e-03 3.62537755e-03
      1.63141992e-02 6.04229630e-04 2.41691852e-03 5.43806655e-03
      3.50453183e-02 2.41691852e-03 1.38972811e-02 2.17522662e-02
      3.02114803e-03 3.62537755e-03 2.41691852e-03 9.06344410e-03
      1.81268877e-03 3.62537755e-03 4.22960706e-03 1.02719031e-02
      4.22960706e-03 4.83383704e-03 1.81268877e-03 3.02114803e-02
      5.43806655e-03 1.20845926e-03 2.41691852e-03 1.57099701e-02</_>
    <_>
      2.47933883e-02 0. 0. 0. 8.26446246e-03 0. 8.26446246e-03 0.
      3.30578499e-02 4.95867766e-02 8.26446246e-03 0. 0. 0. 0.
      3.30578499e-02 8.26446246e-03 0. 4.13223132e-02 8.26446246e-03
      1.65289249e-02 0. 0. 8.26446246e-03 0. 0. 8.26446246e-03 0. 0. 0.
      0. 0. 0. 8.26446246e-03 1.65289249e-02 1.32231399e-01 0. 0. 0. 0.
      4.95867766e-02 4.95867766e-02 0. 8.26446246e-03 0. 0.
      1.65289249e-02 0. 0. 0. 1.65289249e-02 0. 0. 0. 0. 8.26446246e-03
      0. 0. 0. 1.15702480e-01 0. 1.65289249e-02 0. 0. 0. 1.65289249e-02
      0. 0. 0. 0. 0. 1.65289249e-02 8.26446246e-03 8.26446246e-03
      3.30578499e-02 0. 2.47933883e-02 1.65289249e-02 8.26446246e-03 0.
      1.65289249e-02 1.65289249e-02 0. 8.26446246e-03 0. 0.
      6.61156997e-02 8.26446246e-03 0. 0. 0. 0. 0. 0. 8.26446246e-03
      8.26446246e-03 8.26446246e-03 0. 3.30578499e-02 0.</_>
    <_>
      4.13793093e-03 0. 1.37931039e-03 1.93103440e-02 1.37931039e-03 0.
      0. 0. 5.51724155e-03 1.79310352e-01 1.37931039e-03 1.37931039e-03
      2.75862077e-03 1.37931039e-03 1.37931039e-03 3.58620696e-02
      2.75862077e-03 1.37931039e-03 2.89655179e-02 0. 2.75862077e-03
      1.37931039e-03 2.75862077e-03 1.37931039e-03 2.75862077e-03
      1.37931039e-03 1.37931039e-03 8.27586185e-03 2.75862077e-03
      6.89655170e-03 1.37931039e-03 2.75862077e-03 8.27586185e-03
      2.75862077e-03 9.93103459e-02 1.79310348e-02 2.75862077e-03
      1.37931039e-03 4.13793093e-03 0. 1.59999996e-01 2.62068957e-02
      1.37931039e-03 1.65517237e-02 4.13793093e-03 2.75862077e-03
      1.37931039e-03 1.37931039e-03 1.37931039e-03 2.06896551e-02
      2.62068957e-02 0. 1.37931039e-03 1.37931039e-03 5.51724155e-03
      5.51724155e-03 2.75862077e-03 0. 1.37931039e-03 2.89655179e-02
      5.51724155e-03 5.51724155e-03 1.37931039e-03 2.75862077e-03
      2.75862077e-03 2.34482754e-02 5.51724155e-03 0. 1.37931039e-03
      1.37931039e-03 1.37931039e-03 1.37931039e-03 0. 4.13793093e-03
      6.89655170e-03 1.37931039e-03 1.93103440e-02 2.75862077e-03
      1.37931039e-03 2.75862077e-03 2.62068957e-02 1.37931039e-03
      1.93103440e-02 1.37931039e-03 4.13793093e-03 2.75862077e-03
      4.13793093e-03 1.37931039e-03 2.75862077e-03 1.37931039e-03 0.
      2.75862077e-03 2.75862077e-03 4.13793093e-03 1.37931039e-03
      3.99999991e-02 2.75862077e-03 1.37931039e-03 1.10344831e-02
      8.27586185e-03</_>
    <_>
      2.03556381e-02 1.09967245e-02 1.07627511e-02 4.21151146e-03
      1.26345344e-02 1.68460459e-02 8.42302293e-03 8.89096875e-03
      1.24005619e-02 1.59101542e-02 9.12494119e-03 5.84932137e-03
      7.72110419e-03 1.52082359e-02 1.38043985e-02 9.59288701e-03
      1.05287787e-02 1.28685068e-02 3.97753855e-03 1.61441267e-02
      9.59288701e-03 4.67945728e-03 7.25315884e-03 1.09967245e-02
      9.59288701e-03 9.82686039e-03 9.12494119e-03 6.55124011e-03
      7.72110419e-03 1.24005619e-02 9.35891457e-03 8.42302293e-03
      1.68460459e-02 4.67945728e-03 8.42302293e-03 1.49742626e-02
      1.12306969e-02 7.72110419e-03 8.42302293e-03 5.61534846e-03
      1.66120734e-02 8.42302293e-03 1.28685068e-02 6.55124011e-03
      6.78521302e-03 6.55124011e-03 2.10575573e-02 5.84932137e-03
      1.21665886e-02 7.25315884e-03 7.48713128e-03 1.09967245e-02
      7.25315884e-03 8.42302293e-03 8.42302293e-03 4.67945728e-03
      5.61534846e-03 8.65699537e-03 7.48713128e-03 2.08235849e-02
      1.56761818e-02 7.25315884e-03 8.65699537e-03 9.59288701e-03
      1.16986427e-02 5.14740311e-03 1.77819375e-02 6.78521302e-03
      1.07627511e-02 1.02948062e-02 7.95507710e-03 9.35891457e-03
      1.91857740e-02 5.61534846e-03 9.59288701e-03 4.67945728e-03
      7.72110419e-03 9.35891457e-03 6.78521302e-03 1.45063177e-02
      3.50959296e-03 1.77819375e-02 6.08329428e-03 1.00608328e-02
      1.02948062e-02 8.89096875e-03 1.63781010e-02 1.19326161e-02
      1.47402901e-02 1.12306969e-02 7.25315884e-03 1.21665886e-02
      8.89096875e-03 8.42302293e-03 6.31726719e-03 6.08329428e-03
      6.78521302e-03 8.18905048e-03 1.45063177e-02 8.42302293e-03</_>
    <_>
      1.67373884e-02 8.25082511e-03 1.27298441e-02 6.12918427e-03
      1.15511548e-02 1.83875524e-02 9.90098994e-03 1.41442716e-02
      1.46157471e-02 1.74446013e-02 1.13154175e-02 7.07213581e-03
      8.95803887e-03 1.15511548e-02 1.01367282e-02 8.95803887e-03
      1.20226312e-02 1.29655823e-02 5.18623274e-03 1.79160777e-02
      1.03724655e-02 6.60066027e-03 8.01508687e-03 8.72230064e-03
      6.60066027e-03 1.06082037e-02 8.01508687e-03 6.83639804e-03
      9.66525264e-03 1.13154175e-02 6.36492204e-03 7.54361134e-03
      1.93305053e-02 4.71475720e-03 8.01508687e-03 1.24941068e-02
      9.42951441e-03 6.83639804e-03 1.01367282e-02 1.27298441e-02
      2.12164074e-02 6.83639804e-03 7.54361134e-03 5.42197097e-03
      1.01367282e-02 4.00754344e-03 1.69731267e-02 9.19377618e-03
      1.65016502e-02 4.47901944e-03 3.77180567e-03 9.19377618e-03
      4.71475720e-03 8.72230064e-03 9.90098994e-03 7.54361134e-03
      9.90098994e-03 8.01508687e-03 1.10796792e-02 2.00377181e-02
      1.62659120e-02 8.25082511e-03 4.24328167e-03 9.90098994e-03
      8.72230064e-03 7.07213581e-03 1.50872227e-02 8.25082511e-03
      9.42951441e-03 9.90098994e-03 7.07213581e-03 9.66525264e-03
      2.02734563e-02 5.89344651e-03 9.19377618e-03 9.90098994e-03
      1.22583685e-02 6.36492204e-03 5.89344651e-03 1.20226312e-02
      8.48656334e-03 2.07449310e-02 4.00754344e-03 1.03724655e-02
      7.30787357e-03 8.72230064e-03 2.02734563e-02 9.42951441e-03
      1.72088630e-02 1.17868930e-02 5.65770874e-03 6.83639804e-03
      8.25082511e-03 4.95049497e-03 6.12918427e-03 2.59311637e-03
      6.83639804e-03 6.12918427e-03 1.39085334e-02 9.19377618e-03</_>
    <_>
      1.49948290e-02 7.49741448e-03 1.70630813e-02 5.42916218e-03
      1.03412615e-02 1.31851090e-02 1.29265767e-02 7.75594637e-03
      1.00827301e-02 1.93898659e-02 8.53154063e-03 6.46328833e-03
      8.79007205e-03 8.27300921e-03 6.46328833e-03 1.18924510e-02
      9.56566725e-03 1.03412615e-02 6.46328833e-03 1.99069288e-02
      6.46328833e-03 7.23888306e-03 6.20475691e-03 8.79007205e-03
      7.49741448e-03 9.30713583e-03 7.49741448e-03 5.68769407e-03
      1.11168567e-02 1.57704242e-02 1.18924510e-02 8.27300921e-03
      1.39607033e-02 6.46328833e-03 7.49741448e-03 1.47362975e-02
      7.75594637e-03 6.46328833e-03 8.53154063e-03 8.53154063e-03
      2.53360905e-02 8.01447779e-03 1.34436404e-02 7.49741448e-03
      6.72182022e-03 6.46328833e-03 1.29265767e-02 9.82419867e-03
      8.53154063e-03 4.91209934e-03 3.10237845e-03 1.18924510e-02
      1.00827301e-02 8.53154063e-03 8.53154063e-03 7.49741448e-03
      6.20475691e-03 6.98035164e-03 9.30713583e-03 2.35263705e-02
      2.14581173e-02 6.98035164e-03 6.98035164e-03 6.20475691e-03
      1.03412615e-02 6.20475691e-03 1.62874870e-02 8.01447779e-03
      7.23888306e-03 9.04860348e-03 9.04860348e-03 1.11168567e-02
      1.57704242e-02 1.05997929e-02 6.72182022e-03 1.00827301e-02
      8.53154063e-03 7.49741448e-03 1.11168567e-02 1.57704242e-02
      5.17063076e-03 2.24922448e-02 8.53154063e-03 1.00827301e-02
      1.05997929e-02 1.21509824e-02 1.68045498e-02 1.13753881e-02
      9.82419867e-03 1.44777661e-02 5.42916218e-03 8.01447779e-03
      1.03412615e-02 8.01447779e-03 6.72182022e-03 4.65356791e-03
      6.46328833e-03 9.56566725e-03 9.82419867e-03 1.00827301e-02</_>
    <_>
      1.69088505e-02 9.24702734e-03 1.24174375e-02 5.81241725e-03
      1.29458392e-02 1.13606341e-02 8.71862657e-03 8.45442526e-03
      1.37384413e-02 1.63804498e-02 1.08322324e-02 6.34081895e-03
      5.81241725e-03 1.03038307e-02 1.13606341e-02 7.39762234e-03
      1.21532362e-02 1.16248345e-02 3.69881117e-03 1.53236464e-02
      9.77542903e-03 8.71862657e-03 6.07661810e-03 7.66182318e-03
      5.54821687e-03 8.71862657e-03 6.60501979e-03 6.86922064e-03
      6.60501979e-03 1.18890358e-02 5.81241725e-03 7.92602357e-03
      1.87582560e-02 3.96301178e-03 1.18890358e-02 1.87582560e-02
      1.08322324e-02 7.13342149e-03 1.10964337e-02 8.19022488e-03
      2.19286662e-02 6.34081895e-03 1.37384413e-02 5.54821687e-03
      1.29458392e-02 6.86922064e-03 2.08718628e-02 9.24702734e-03
      8.19022488e-03 9.24702734e-03 5.54821687e-03 7.66182318e-03
      5.81241725e-03 7.39762234e-03 8.98282696e-03 3.69881117e-03
      7.66182318e-03 7.39762234e-03 1.03038307e-02 3.14398929e-02
      1.84940547e-02 8.45442526e-03 8.45442526e-03 6.07661810e-03
      9.24702734e-03 4.75561433e-03 1.74372531e-02 8.19022488e-03
      1.03038307e-02 9.24702734e-03 7.92602357e-03 9.77542903e-03
      2.50990745e-02 8.98282696e-03 6.86922064e-03 1.08322324e-02
      6.60501979e-03 6.07661810e-03 7.92602357e-03 1.05680320e-02
      4.22721263e-03 2.14002635e-02 6.07661810e-03 9.77542903e-03
      9.51122865e-03 7.39762234e-03 1.79656539e-02 1.32100396e-02
      1.18890358e-02 9.51122865e-03 6.86922064e-03 9.24702734e-03
      7.66182318e-03 8.19022488e-03 5.01981517e-03 3.96301178e-03
      5.54821687e-03 1.21532362e-02 1.50594451e-02 9.51122865e-03</_>
    <_>
      4.04040404e-02 0. 0. 0. 3.03030312e-02 2.02020202e-02
      1.01010101e-02 2.02020202e-02 2.02020202e-02 0. 0. 2.02020202e-02
      0. 0. 1.01010101e-02 0. 0. 1.01010101e-02 0. 0. 1.01010101e-02
      2.02020202e-02 0. 2.02020202e-02 1.01010101e-02 1.01010101e-02 0.
      2.02020202e-02 0. 1.01010101e-02 0. 1.01010101e-02 0. 0. 0.
      2.02020202e-02 1.01010101e-02 0. 1.01010101e-02 3.03030312e-02 0.
      1.01010101e-02 2.02020202e-02 0. 0. 2.02020202e-02 2.02020202e-02
      1.01010101e-02 1.01010101e-02 0. 3.03030312e-02 2.02020202e-02 0.
      0. 0. 1.01010101e-02 0. 0. 2.02020202e-02 4.04040404e-02
      1.01010101e-02 0. 2.02020202e-02 0. 1.01010101e-02 0.
      3.03030312e-02 0. 2.02020202e-02 0. 1.01010101e-02 1.01010101e-02
      4.04040404e-02 0. 1.01010101e-02 2.02020202e-02 2.02020202e-02
      1.01010101e-02 0. 0. 0. 3.03030312e-02 0. 0. 4.04040404e-02
      2.02020202e-02 3.03030312e-02 0. 1.01010101e-02 3.03030312e-02
      1.01010101e-02 0. 0. 0. 0. 0. 1.01010101e-02 1.01010101e-02
      1.01010101e-02 1.01010101e-02</_>
    <_>
      1.03092780e-02 0. 1.03092780e-02 0. 1.03092780e-02 1.03092780e-02
      1.03092780e-02 0. 3.09278350e-02 0. 0. 0. 3.09278350e-02 0.
      1.03092780e-02 0. 0. 3.09278350e-02 0. 2.06185561e-02 0. 0.
      1.03092780e-02 1.03092780e-02 0. 1.03092780e-02 3.09278350e-02 0.
      2.06185561e-02 0. 1.03092780e-02 1.03092780e-02 2.06185561e-02 0.
      1.03092780e-02 2.06185561e-02 1.03092780e-02 1.03092780e-02 0.
      7.21649453e-02 0. 0. 1.03092780e-02 0. 1.03092780e-02 0.
      1.03092780e-02 0. 0. 0. 1.03092780e-02 1.03092780e-02 0. 0. 0.
      1.03092780e-02 0. 0. 0. 3.09278350e-02 4.12371121e-02 0. 0.
      1.03092780e-02 4.12371121e-02 0. 1.03092780e-02 1.03092780e-02
      1.03092780e-02 2.06185561e-02 1.03092780e-02 1.03092780e-02
      8.24742243e-02 0. 1.03092780e-02 0. 0. 1.03092780e-02 0.
      1.03092780e-02 1.03092780e-02 2.06185561e-02 0. 1.03092780e-02
      5.15463911e-02 1.03092780e-02 2.06185561e-02 1.03092780e-02
      1.03092780e-02 3.09278350e-02 0. 0. 1.03092780e-02 1.03092780e-02
      0. 0. 0. 0. 0. 1.03092780e-02</_>
    <_>
      1.97183099e-02 8.45070463e-03 1.15236873e-02 9.21894982e-03
      9.47503187e-03 9.47503187e-03 9.21894982e-03 9.73111391e-03
      1.30601795e-02 2.76568495e-02 9.47503187e-03 7.17029441e-03
      7.68245850e-03 9.98719595e-03 7.42637645e-03 1.40845068e-02
      8.19462258e-03 1.45966709e-02 4.86555696e-03 1.45966709e-02
      1.25480155e-02 8.96286778e-03 7.68245850e-03 8.45070463e-03
      6.91421237e-03 6.65813079e-03 8.96286778e-03 5.63380262e-03
      8.96286778e-03 8.96286778e-03 8.96286778e-03 6.65813079e-03
      1.63892452e-02 8.96286778e-03 7.17029441e-03 1.89500637e-02
      8.96286778e-03 6.91421237e-03 8.70678574e-03 1.58770811e-02
      2.61203591e-02 8.19462258e-03 1.02432780e-02 2.81690131e-03
      1.07554421e-02 7.42637645e-03 1.58770811e-02 1.07554421e-02
      1.12676052e-02 7.17029441e-03 7.68245850e-03 4.86555696e-03
      5.63380262e-03 6.91421237e-03 7.68245850e-03 9.98719595e-03
      4.35339287e-03 6.40204875e-03 1.17797693e-02 2.91933417e-02
      1.69014093e-02 1.12676052e-02 6.40204875e-03 5.88988466e-03
      8.19462258e-03 6.65813079e-03 1.58770811e-02 1.20358514e-02
      1.07554421e-02 4.35339287e-03 9.73111391e-03 9.47503187e-03
      1.89500637e-02 5.88988466e-03 6.40204875e-03 5.63380262e-03
      7.17029441e-03 6.65813079e-03 1.17797693e-02 1.74135715e-02
      7.17029441e-03 1.43405888e-02 7.68245850e-03 8.96286778e-03
      9.21894982e-03 7.42637645e-03 1.56209990e-02 9.47503187e-03
      1.35723427e-02 1.17797693e-02 7.17029441e-03 8.19462258e-03
      7.42637645e-03 8.70678574e-03 5.37772104e-03 3.58514721e-03
      6.14596670e-03 8.70678574e-03 1.25480155e-02 7.42637645e-03</_>
    <_>
      2.77777780e-02 0. 0. 0. 0. 0. 1.85185187e-02 9.25925933e-03 0. 0.
      0. 1.85185187e-02 0. 0. 9.25925933e-03 9.25925933e-03
      9.25925933e-03 0. 0. 0. 0. 9.25925933e-03 9.25925933e-03 0. 0.
      9.25925933e-03 0. 0. 1.85185187e-02 9.25925933e-03 9.25925933e-03
      1.85185187e-02 0. 0. 9.25925933e-03 1.85185187e-02 1.85185187e-02
      0. 0. 1.85185187e-02 0. 1.85185187e-02 3.70370373e-02 0. 0.
      2.77777780e-02 1.85185187e-02 9.25925933e-03 0. 0. 0.
      4.62962948e-02 0. 0. 0. 2.77777780e-02 9.25925933e-03 0.
      1.85185187e-02 4.62962948e-02 3.70370373e-02 9.25925933e-03
      9.25925933e-03 9.25925933e-03 0. 9.25925933e-03 9.25925933e-03 0.
      9.25925933e-03 0. 0. 9.25925933e-03 9.25925933e-03 2.77777780e-02
      0. 9.25925933e-03 1.85185187e-02 9.25925933e-03 1.85185187e-02 0.
      4.62962948e-02 9.25925933e-03 3.70370373e-02 9.25925933e-03
      3.70370373e-02 0. 1.85185187e-02 0. 1.85185187e-02 3.70370373e-02
      0. 1.85185187e-02 1.85185187e-02 1.85185187e-02 0. 0. 0.
      9.25925933e-03 9.25925933e-03 9.25925933e-03</_>
    <_>
      1.81575436e-02 6.40854472e-03 1.81575436e-02 7.47663574e-03
      9.87983961e-03 1.57543384e-02 1.04138851e-02 1.14819761e-02
      1.06809083e-02 1.22830439e-02 8.27770401e-03 8.01068079e-03
      9.34579410e-03 1.14819761e-02 8.54472630e-03 1.09479306e-02
      9.07877181e-03 1.04138851e-02 5.60747646e-03 1.46862483e-02
      1.44192260e-02 5.34045417e-03 1.01468628e-02 6.67556748e-03
      8.27770401e-03 5.87449921e-03 3.73831787e-03 5.34045417e-03
      1.17489984e-02 1.44192260e-02 8.01068079e-03 5.60747646e-03
      1.94926560e-02 5.87449921e-03 6.14152197e-03 1.38851805e-02
      8.81174859e-03 8.01068079e-03 6.94259023e-03 1.36181572e-02
      1.30841117e-02 1.22830439e-02 1.38851805e-02 5.34045417e-03
      4.53938590e-03 9.07877181e-03 2.02937257e-02 7.47663574e-03
      1.12149529e-02 3.47129512e-03 5.07343141e-03 8.54472630e-03
      5.34045417e-03 7.74365803e-03 9.87983961e-03 8.01068079e-03
      4.80640866e-03 8.27770401e-03 1.36181572e-02 2.91054733e-02
      1.54873161e-02 1.25500672e-02 8.81174859e-03 5.60747646e-03
      8.54472630e-03 3.73831787e-03 1.22830439e-02 7.74365803e-03
      9.34579410e-03 6.94259023e-03 7.47663574e-03 1.70894526e-02
      1.76234972e-02 3.73831787e-03 4.53938590e-03 1.01468628e-02
      6.67556748e-03 6.40854472e-03 1.12149529e-02 2.32309755e-02
      4.00534039e-03 1.57543384e-02 7.74365803e-03 7.20961299e-03
      1.68224294e-02 8.54472630e-03 1.38851805e-02 8.01068079e-03
      1.09479306e-02 1.65554080e-02 5.87449921e-03 1.22830439e-02
      1.22830439e-02 1.14819761e-02 5.34045417e-03 8.81174859e-03
      8.01068079e-03 8.54472630e-03 1.36181572e-02 4.53938590e-03</_>
    <_>
      1.72413792e-02 0. 0. 0. 0. 1.72413792e-02 0. 1.72413792e-02
      1.72413792e-02 1.72413792e-02 0. 0. 0. 0. 0. 0. 0. 1.72413792e-02
      0. 1.72413792e-02 1.72413792e-02 0. 0. 0. 1.72413792e-02 0. 0. 0.
      0. 0. 1.72413792e-02 0. 0. 0. 0. 1.72413792e-02 0. 0. 0.
      5.17241396e-02 0. 1.72413792e-02 1.72413792e-02 0. 0. 0.
      3.44827585e-02 0. 0. 0. 1.72413792e-02 0. 0. 0. 0. 0.
      1.72413792e-02 0. 6.89655170e-02 5.17241396e-02 0. 0. 0. 0.
      3.44827585e-02 1.72413792e-02 1.72413792e-02 3.44827585e-02 0. 0.
      0. 0. 6.89655170e-02 0. 1.72413792e-02 0. 1.72413792e-02 0. 0. 0.
      1.72413792e-02 1.03448279e-01 0. 1.72413792e-02 3.44827585e-02
      1.72413792e-02 0. 0. 6.89655170e-02 1.72413792e-02 0.
      3.44827585e-02 0. 0. 1.72413792e-02 0. 0. 0. 0. 0.</_>
    <_>
      1.40175810e-02 1.02162035e-02 1.30672371e-02 3.80137796e-03
      1.25920642e-02 1.66310295e-02 5.93965314e-03 1.02162035e-02
      2.09075790e-02 2.68472321e-02 6.65241154e-03 8.79068673e-03
      5.46448072e-03 1.11665474e-02 1.14041343e-02 1.09289614e-02
      9.26585868e-03 1.18793063e-02 5.93965314e-03 1.90068893e-02
      6.88999752e-03 8.31551477e-03 5.70206717e-03 6.41482556e-03
      6.17723912e-03 6.41482556e-03 7.36516993e-03 9.26585868e-03
      7.60275591e-03 1.33048231e-02 9.74103156e-03 8.07792787e-03
      1.47303399e-02 4.51413635e-03 1.14041343e-02 1.54430978e-02
      9.97861754e-03 6.17723912e-03 8.55310075e-03 7.84034189e-03
      2.37586126e-02 9.74103156e-03 1.11665474e-02 4.75172233e-03
      7.36516993e-03 4.27655037e-03 1.82941314e-02 7.60275591e-03
      1.09289614e-02 6.41482556e-03 7.36516993e-03 6.88999752e-03
      5.46448072e-03 8.07792787e-03 1.14041343e-02 8.55310075e-03
      4.75172233e-03 6.65241154e-03 6.41482556e-03 1.94820631e-02
      1.87693033e-02 9.02827270e-03 8.55310075e-03 4.03896393e-03
      1.09289614e-02 8.55310075e-03 2.30458546e-02 5.22689475e-03
