<?xml version="1.0"?>
<opencv_storage>
<my_svm type_id="opencv-ml-svm">
  <svm_type>C_SVC</svm_type>
  <kernel><type>RBF</type>
    <gamma>5.0625000000000009e-01</gamma></kernel>
  <C>3.1250000000000000e+02</C>
  <term_criteria><epsilon>2.2204460492503131e-16</epsilon>
    <iterations>100000</iterations></term_criteria>
  <var_all>100</var_all>
  <var_count>100</var_count>
  <class_count>7</class_count>
  <class_labels type_id="opencv-matrix">
    <rows>1</rows>
    <cols>7</cols>
    <dt>i</dt>
    <data>
      1 2 3 4 5 6 7</data></class_labels>
  <sv_total>99</sv_total>
  <support_vectors>
    <_>
      9.12584085e-03 3.36215179e-03 3.36215179e-03 1.20076854e-02
      2.40153703e-03 7.68491812e-03 1.96926035e-02 1.92122953e-03
      1.92122953e-03 1.72910672e-02 1.15273772e-02 3.36215179e-03
      1.00864554e-02 8.16522539e-03 5.76368859e-03 1.24399617e-01
      1.44092215e-03 5.42747341e-02 4.80307406e-03 6.24399632e-03
      1.10470699e-02 2.88184430e-03 4.32276679e-03 4.80307383e-04
      9.12584085e-03 5.28338132e-03 1.00864554e-02 7.20461085e-03
      2.40153703e-03 1.72910672e-02 5.76368859e-03 6.72430359e-03
      8.64553358e-03 8.16522539e-03 8.64553358e-03 8.16522539e-03
      2.06532180e-02 2.88184430e-03 4.80307406e-03 6.24399632e-03
      9.12584085e-03 6.24399632e-03 1.58501435e-02 5.76368859e-03
      5.28338132e-03 1.24879926e-02 6.72430359e-03 9.02977884e-02
      6.24399632e-03 1.96926035e-02 6.24399632e-03 3.36215179e-03
      4.32276679e-03 7.68491812e-03 1.10470699e-02 3.84245906e-03
      9.60614812e-03 1.20076854e-02 4.32276679e-03 4.32276679e-03
      2.40153703e-03 1.92122953e-03 3.36215179e-03 4.32276679e-03
      1.92122953e-03 1.44092217e-02 1.10470699e-02 1.05667626e-02
      7.20461085e-03 5.76368859e-03 5.28338132e-03 1.92122962e-02
      6.24399632e-03 2.88184430e-03 6.72430359e-03 8.64553358e-03
      4.80307406e-03 4.80307406e-03 6.24399632e-03 1.10470699e-02
      1.63304508e-02 6.24399632e-03 1.92122953e-03 1.58501435e-02
      8.64553358e-03 2.88184430e-03 7.20461085e-03 1.72910672e-02
      8.64553358e-03 2.88184430e-03 3.36215179e-03 1.53698362e-02
      6.72430359e-03 4.32276679e-03 2.40153703e-03 1.44092217e-02
      2.40153703e-03 8.64553358e-03 8.16522539e-03 3.36215179e-03</_>
    <_>
      8.29875562e-03 1.18553648e-02 5.33491420e-03 2.90456433e-02
      5.92768239e-03 8.89152382e-03 1.18553648e-02 4.14937781e-03
      7.70598697e-03 8.29875562e-03 1.54119739e-02 5.33491420e-03
      2.37107300e-03 3.37877907e-02 1.30409012e-02 1.83758158e-02
      9.48429201e-03 1.77830476e-02 1.18553648e-02 1.24481330e-02
      7.70598697e-03 2.43034977e-02 5.33491420e-03 1.18553650e-03
      7.70598697e-03 5.92768239e-03 1.54119739e-02 1.83758158e-02
      1.06698284e-02 5.33491420e-03 1.12625966e-02 6.52045058e-03
      5.33491420e-03 7.11321877e-03 8.29875562e-03 1.18553648e-02
      4.14937781e-03 2.37107300e-03 6.52045058e-03 1.36336694e-02
      1.54119739e-02 1.30409012e-02 5.92768239e-03 2.25251932e-02
      1.95613522e-02 7.11321877e-03 2.13396568e-02 4.74214600e-03
      7.11321877e-03 8.89152382e-03 1.06698284e-02 1.24481330e-02
      5.33491420e-03 8.29875562e-03 1.48192057e-02 1.12625966e-02
      7.11321877e-03 3.55660939e-03 8.89152382e-03 5.33491420e-03
      1.36336694e-02 2.96384119e-03 5.33491420e-03 1.00770602e-02
      1.06698284e-02 1.00770602e-02 1.48192057e-02 5.33491420e-03
      1.00770602e-02 6.52045058e-03 7.70598697e-03 1.00770602e-02
      8.89152382e-03 4.74214600e-03 1.65975112e-02 5.33491420e-03
      9.48429201e-03 4.74214600e-03 1.42264375e-02 1.06698284e-02
      2.43034977e-02 5.33491420e-03 5.92768239e-03 5.33491420e-03
      4.14937781e-03 8.29875562e-03 5.33491420e-03 8.29875562e-03
      1.12625966e-02 1.60047431e-02 5.92768239e-03 3.55660939e-03
      2.96384119e-03 1.06698284e-02 2.37107300e-03 4.14937772e-02
      4.14937781e-03 7.70598697e-03 8.89152382e-03 2.37107300e-03</_>
    <_>
      2.44221538e-02 8.72219820e-03 7.41386833e-03 1.54819014e-02
      6.54164841e-03 6.97775837e-03 1.24291321e-02 3.48887919e-03
      7.63192307e-03 2.24596597e-02 1.11208027e-02 7.84997828e-03
      7.41386833e-03 8.50414298e-03 6.75970362e-03 5.34234643e-02
      5.88748371e-03 3.37985158e-02 9.15830769e-03 1.83166154e-02
      1.37374615e-02 9.81247239e-03 7.41386833e-03 1.52638461e-03
      6.97775837e-03 6.54164841e-03 8.28608777e-03 6.10553846e-03
      9.81247239e-03 1.22110769e-02 5.45137376e-03 6.97775837e-03
      1.67902317e-02 6.54164841e-03 1.26471873e-02 9.81247239e-03
      1.04666380e-02 6.75970362e-03 6.54164841e-03 8.28608777e-03
      1.37374615e-02 6.54164841e-03 1.48277367e-02 7.19581312e-03
      4.36109910e-03 9.15830769e-03 8.72219796e-04 3.29262987e-02
      6.32359367e-03 1.85346715e-02 7.41386833e-03 7.63192307e-03
      6.97775837e-03 8.94025341e-03 8.06803349e-03 1.00305276e-02
      9.81247239e-03 8.06803349e-03 8.72219820e-03 4.36109910e-03
      3.48887919e-03 5.23331901e-03 8.94025341e-03 5.88748371e-03
      7.63192307e-03 1.22110769e-02 1.91888362e-02 1.15569122e-02
      6.75970362e-03 3.92498914e-03 4.79720905e-03 5.01526380e-03
      1.02485828e-02 3.48887919e-03 8.94025341e-03 9.15830769e-03
      8.72219820e-03 4.79720905e-03 1.15569122e-02 1.13388570e-02
      2.11513303e-02 5.45137376e-03 8.94025341e-03 2.28957701e-02
      1.43916262e-02 9.15830769e-03 6.97775837e-03 1.13388570e-02
      9.81247239e-03 9.15830769e-03 4.57915384e-03 1.30832968e-02
      7.63192307e-03 5.88748371e-03 3.48887919e-03 3.70693416e-03
      8.06803349e-03 1.04666380e-02 8.28608777e-03 7.63192307e-03</_>
    <_>
      3.20354849e-03 1.13356337e-02 6.40709698e-03 1.42927552e-02
      7.39280414e-03 9.11779236e-03 6.40709698e-03 4.18925565e-03
      2.46426812e-03 1.60177425e-02 8.87136534e-03 2.95712170e-03
      8.37851129e-03 1.97141450e-02 9.36421845e-03 6.35781139e-02
      1.72498764e-03 3.10497787e-02 5.17496280e-03 1.77427307e-02
      2.14391332e-02 6.40709698e-03 1.10892067e-02 7.39280425e-04
      7.63923116e-03 3.94282909e-03 2.95712170e-03 7.14637758e-03
      7.39280414e-03 2.71069491e-03 1.18284868e-02 8.87136534e-03
      1.33070480e-02 8.37851129e-03 6.65352400e-03 1.10892067e-02
      6.40709698e-03 5.66781685e-03 4.92853625e-03 4.18925565e-03
      1.89748649e-02 1.20749138e-02 8.62493832e-03 9.85707249e-03
      1.60177425e-02 9.61064547e-03 5.17496280e-03 8.69886652e-02
      5.17496280e-03 2.36569736e-02 8.62493832e-03 5.42138983e-03
      2.95712170e-03 6.16067043e-03 1.40463281e-02 8.37851129e-03
      8.62493832e-03 3.44997528e-03 8.13208520e-03 3.20354849e-03
      5.91424340e-03 4.18925565e-03 5.42138983e-03 7.88565818e-03
      7.39280414e-03 1.28141940e-02 2.48891078e-02 7.88565818e-03
      5.91424340e-03 4.68210923e-03 7.88565818e-03 1.62641704e-02
      1.03499256e-02 1.47856085e-03 1.97141450e-02 6.40709698e-03
      7.14637758e-03 2.46426812e-03 1.74963027e-02 6.40709698e-03
      1.87284369e-02 2.21784133e-03 4.43568267e-03 1.35534750e-02
      4.92853625e-03 3.69640207e-03 4.92853625e-03 1.40463281e-02
      6.89995056e-03 9.85707249e-03 2.46426812e-03 1.45391822e-02
      6.65352400e-03 1.03499256e-02 3.20354849e-03 3.44997528e-03
      4.43568267e-03 9.61064547e-03 9.11779236e-03 2.95712170e-03</_>
    <_>
      1.10066039e-02 9.20552295e-03 1.22073246e-02 2.26135682e-02
      8.00480321e-03 1.04062436e-02 1.08064841e-02 7.60456268e-03
      4.80288174e-03 1.32079246e-02 9.60576348e-03 7.00420234e-03
      4.00240161e-03 1.44086452e-02 5.60336187e-03 5.46327792e-02
      1.02061238e-02 2.68160906e-02 7.40444288e-03 1.08064841e-02
      3.94236557e-02 1.28076850e-02 6.20372221e-03 2.00120077e-04
      8.40504281e-03 1.14068445e-02 1.04062436e-02 1.00060040e-02
      7.40444288e-03 4.20252141e-03 1.10066039e-02 4.00240161e-03
      1.92115270e-02 5.80348214e-03 8.40504281e-03 4.60276147e-03
      1.02061238e-02 5.00300201e-03 5.00300201e-03 1.50090056e-02
      1.74104460e-02 9.20552295e-03 4.40264167e-03 1.18070841e-02
      5.80348214e-03 8.80528335e-03 2.40144087e-03 9.18551162e-02
      2.60156090e-03 1.34080453e-02 4.60276147e-03 6.40384248e-03
      5.20312181e-03 6.80408254e-03 1.08064841e-02 9.80588328e-03
      1.02061238e-02 3.80228134e-03 6.60396228e-03 4.60276147e-03
      9.20552295e-03 3.40204127e-03 4.20252141e-03 9.80588328e-03
      8.80528335e-03 1.64098460e-02 1.30078048e-02 7.40444288e-03
      6.60396228e-03 4.40264167e-03 3.60216131e-03 1.20072039e-02
      1.20072039e-02 2.20132084e-03 1.74104460e-02 5.60336187e-03
      1.00060040e-02 4.80288174e-03 1.28076850e-02 9.20552295e-03
      1.36081651e-02 3.60216131e-03 5.40324207e-03 1.50090056e-02
      3.40204127e-03 7.60456268e-03 3.60216131e-03 3.20192124e-03
      7.80468294e-03 7.00420234e-03 1.60096062e-03 7.60456268e-03
      2.80168094e-03 5.60336187e-03 2.40144087e-03 5.60336187e-03
      7.20432261e-03 1.02061238e-02 1.16069643e-02 6.60396228e-03</_>
    <_>
      1.08514186e-02 2.78241513e-03 9.73845273e-03 1.58597659e-02
      5.84307173e-03 7.51252100e-03 6.95603807e-03 3.61713977e-03
      3.61713977e-03 2.86588762e-02 9.18196980e-03 2.22593220e-03
      9.46021173e-03 1.02949357e-02 8.90372880e-03 3.89538109e-02
      5.28658880e-03 3.22760157e-02 6.12131320e-03 6.95603807e-03
      4.06232625e-02 9.18196980e-03 5.28658880e-03 1.39120757e-03
      1.27991093e-02 1.11296605e-02 9.18196980e-03 1.41903171e-02
      5.84307173e-03 4.45186440e-03 1.08514186e-02 9.18196980e-03
      1.58597659e-02 1.02949357e-02 9.73845273e-03 1.00166947e-02
      1.25208683e-02 5.28658880e-03 5.00834733e-03 1.02949357e-02
      1.47468001e-02 4.73010587e-03 4.73010587e-03 1.14079025e-02
      8.34724586e-03 3.89538123e-03 7.51252100e-03 8.43071789e-02
      4.73010587e-03 1.78074576e-02 9.46021173e-03 6.67779613e-03
      6.12131320e-03 6.39955467e-03 1.11296605e-02 7.23427953e-03
      1.47468001e-02 3.89538123e-03 3.89538123e-03 5.84307173e-03
      1.00166947e-02 2.22593220e-03 6.95603807e-03 7.79076247e-03
      2.50417367e-03 2.00333893e-02 1.19643854e-02 1.14079025e-02
      8.34724586e-03 3.89538123e-03 7.79076247e-03 1.97551474e-02
      4.73010587e-03 2.22593220e-03 1.44685591e-02 1.05731776e-02
      5.84307173e-03 7.79076247e-03 1.16861435e-02 6.12131320e-03
      1.86421815e-02 2.22593220e-03 4.17362293e-03 1.86421815e-02
      5.28658880e-03 4.17362293e-03 3.06065660e-03 8.34724586e-03
      6.39955467e-03 4.73010587e-03 2.50417367e-03 1.41903171e-02
      6.95603807e-03 7.23427953e-03 2.78241513e-03 1.11296605e-02
      3.89538123e-03 1.11296605e-02 8.06900393e-03 4.45186440e-03</_>
    <_>
      5.72409853e-03 5.72409830e-04 8.01373739e-03 1.88895240e-02
      1.71722949e-03 8.01373739e-03 4.00686869e-03 2.86204927e-03
      2.28963932e-03 1.03033772e-02 1.37378359e-02 6.86891796e-03
      5.72409853e-03 1.43102463e-02 4.00686869e-03 1.48254156e-01
      4.57927864e-03 3.26273628e-02 4.57927864e-03 8.58614780e-03
      2.91929021e-02 5.15168859e-03 2.28963932e-03 2.86204927e-03
      1.37378359e-02 5.72409853e-03 4.00686869e-03 9.73096769e-03
      2.28963932e-03 7.44132791e-03 5.72409853e-03 1.03033772e-02
      1.08757867e-02 3.43445898e-03 4.00686869e-03 1.25930170e-02
      7.44132791e-03 2.28963932e-03 2.28963932e-03 7.44132791e-03
      9.73096769e-03 5.15168859e-03 1.08757867e-02 6.86891796e-03
      8.01373739e-03 1.77447051e-02 1.14481971e-02 1.74012586e-01
      5.15168859e-03 6.29650848e-03 5.72409853e-03 4.00686869e-03
      4.00686869e-03 5.72409853e-03 1.20206065e-02 8.01373739e-03
      6.86891796e-03 7.44132791e-03 1.25930170e-02 4.00686869e-03
      3.43445898e-03 4.00686869e-03 4.00686869e-03 4.57927864e-03
      1.71722949e-03 6.29650848e-03 6.29650848e-03 4.57927864e-03
      3.43445898e-03 5.15168859e-03 6.29650848e-03 1.37378359e-02
      1.20206065e-02 1.14481966e-03 1.03033772e-02 4.57927864e-03
      4.00686869e-03 6.86891796e-03 1.08757867e-02 5.72409853e-03
      6.86891796e-03 4.00686869e-03 2.86204927e-03 9.15855728e-03
      6.29650848e-03 4.57927864e-03 2.86204927e-03 6.86891796e-03
      6.86891796e-03 4.57927864e-03 1.71722949e-03 8.01373739e-03
      5.72409853e-03 5.15168859e-03 1.14481966e-03 8.01373739e-03
      1.14481966e-03 6.86891796e-03 6.29650848e-03 1.71722949e-03</_>
    <_>
      6.28930796e-03 1.57232699e-03 3.14465398e-03 2.25366876e-02
      1.57232699e-03 6.81341719e-03 8.38574395e-03 3.14465398e-03
      3.66876321e-03 1.10062892e-02 1.46750528e-02 3.66876321e-03
      6.28930796e-03 1.57232713e-02 5.76519920e-03 9.95807126e-02
      6.28930796e-03 3.40670869e-02 4.71698120e-03 1.46750528e-02
      3.61635238e-02 6.28930796e-03 2.09643599e-03 2.62054498e-03
      8.90985318e-03 6.28930796e-03 6.81341719e-03 1.57232713e-02
      4.19287197e-03 1.04821799e-02 1.04821799e-02 9.43396240e-03
      1.36268344e-02 4.19287197e-03 4.71698120e-03 1.20545076e-02
      8.38574395e-03 6.28930796e-03 5.24108997e-03 5.76519920e-03
      7.86163565e-03 6.81341719e-03 1.41509436e-02 8.90985318e-03
      6.81341719e-03 1.62473787e-02 4.71698120e-03 1.20020963e-01
      5.76519920e-03 7.86163565e-03 1.31027251e-02 2.62054498e-03
      5.24108997e-03 4.19287197e-03 1.36268344e-02 3.14465398e-03
      9.43396240e-03 7.33752642e-03 1.20545076e-02 5.76519920e-03
      3.66876321e-03 2.09643599e-03 3.14465398e-03 3.66876321e-03
      4.71698120e-03 4.71698120e-03 2.83018872e-02 6.81341719e-03
      7.33752642e-03 5.76519920e-03 6.81341719e-03 6.28930796e-03
      8.90985318e-03 6.28930796e-03 1.25786159e-02 1.31027251e-02
      1.04821799e-03 3.66876321e-03 1.25786159e-02 6.28930796e-03
      1.67714879e-02 0. 2.62054498e-03 9.43396240e-03 8.38574395e-03
      3.66876321e-03 4.71698120e-03 9.95807163e-03 4.19287197e-03
      5.76519920e-03 3.66876321e-03 5.24108997e-03 5.24108997e-03
      6.28930796e-03 3.66876321e-03 9.95807163e-03 5.24108997e-03
      9.95807163e-03 4.71698120e-03 3.66876321e-03</_>
    <_>
      4.67047235e-03 1.55682405e-02 4.67047235e-03 2.64660101e-02
      7.78412027e-03 5.70835499e-03 2.07576547e-02 1.19356513e-02
      3.11364816e-03 9.34094470e-03 1.14167100e-02 3.63258948e-03
      2.07576551e-03 3.00985985e-02 1.34924753e-02 1.86818894e-02
      1.19356513e-02 1.45303579e-02 1.55682405e-02 1.14167100e-02
      4.67047235e-03 1.97197720e-02 7.26517895e-03 1.55682408e-03
      1.29735339e-02 1.40114166e-02 1.40114166e-02 1.34924753e-02
      6.22729631e-03 4.15153103e-03 1.50492992e-02 1.14167100e-02
      7.78412027e-03 7.26517895e-03 8.30306206e-03 5.70835499e-03
      2.59470684e-03 3.63258948e-03 5.18941367e-03 1.81629471e-02
      6.74623763e-03 2.07576547e-02 6.74623763e-03 2.75038928e-02
      1.29735339e-02 5.70835499e-03 7.26517895e-03 1.03788273e-02
      7.26517895e-03 1.14167100e-02 8.30306206e-03 7.78412027e-03
      8.30306206e-03 6.22729631e-03 1.29735339e-02 2.12765951e-02
      3.63258948e-03 3.63258948e-03 6.74623763e-03 2.07576551e-03
      1.19356513e-02 3.63258948e-03 8.30306206e-03 1.66061241e-02
      8.82200338e-03 7.26517895e-03 1.50492992e-02 4.15153103e-03
      2.12765951e-02 5.70835499e-03 7.78412027e-03 4.15153103e-03
      9.85988602e-03 5.18941379e-04 2.43902430e-02 7.26517895e-03
      1.45303579e-02 5.18941367e-03 2.59470679e-02 1.24545926e-02
      1.55682405e-02 4.67047235e-03 8.30306206e-03 9.85988602e-03
      3.11364816e-03 8.82200338e-03 3.63258948e-03 7.78412027e-03
      5.18941367e-03 8.30306206e-03 3.11364816e-03 6.74623763e-03
      5.70835499e-03 1.29735339e-02 6.74623763e-03 1.29735339e-02
      5.18941367e-03 1.50492992e-02 1.40114166e-02 3.63258948e-03</_>
    <_>
      1.29652228e-02 8.38926155e-03 8.69432557e-03 1.55582670e-02
      8.23672954e-03 7.01647345e-03 8.23672954e-03 6.55887742e-03
      7.47406948e-03 1.57107990e-02 8.38926155e-03 4.42342879e-03
      6.10128138e-03 9.15192161e-03 8.08419753e-03 6.17754720e-02
      6.10128138e-03 2.97437459e-02 8.54179356e-03 1.54057350e-02
      2.01342274e-02 9.91458166e-03 6.55887742e-03 2.13544839e-03
      3.35570471e-03 6.25381339e-03 1.08297747e-02 6.10128138e-03
      1.00671137e-02 6.71140943e-03 7.16900546e-03 8.38926155e-03
      9.15192161e-03 9.60951764e-03 8.54179356e-03 8.54179356e-03
      5.94874937e-03 4.88102483e-03 4.57596080e-03 8.38926155e-03
      1.76937152e-02 8.38926155e-03 5.33862133e-03 1.43380109e-02
      4.88102483e-03 7.93166552e-03 1.83038437e-03 1.09670527e-01
      5.64368535e-03 1.63209271e-02 5.03355684e-03 6.40634540e-03
      4.57596080e-03 4.88102483e-03 1.03721777e-02 1.11348387e-02
      1.22025628e-02 4.11836477e-03 5.64368535e-03 3.35570471e-03
      8.84685759e-03 3.66076874e-03 1.06772427e-02 7.93166552e-03
      6.71140943e-03 1.02196457e-02 2.07443554e-02 7.47406948e-03
      9.60951764e-03 1.98291638e-03 5.33862133e-03 3.66076874e-03
      8.23672954e-03 3.50823672e-03 1.57107990e-02 7.93166552e-03
      8.23672954e-03 4.88102483e-03 1.12873707e-02 1.18974987e-02
      2.05918234e-02 3.20317270e-03 4.88102483e-03 2.13544853e-02
      6.86394144e-03 2.59304442e-03 4.57596080e-03 8.23672954e-03
      7.47406948e-03 9.45698563e-03 3.05064069e-03 9.91458166e-03
      4.27089678e-03 7.01647345e-03 2.59304442e-03 5.03355684e-03
      6.25381339e-03 1.32702868e-02 1.09823067e-02 6.25381339e-03</_>
    <_>
      2.25818586e-02 6.39819354e-03 5.64546464e-03 2.63455026e-02
      7.15092197e-03 1.35491155e-02 1.31727513e-02 3.38727888e-03
      6.39819354e-03 2.07000375e-02 1.76891237e-02 1.01618366e-02
      1.43018439e-02 1.99473090e-02 8.65637977e-03 2.37109531e-02
      7.90365040e-03 1.46782082e-02 9.40910820e-03 1.05382008e-02
      1.76891237e-02 1.16672935e-02 6.39819354e-03 3.38727888e-03
      1.05382008e-02 1.12909293e-02 1.88182164e-02 7.90365040e-03
      5.64546464e-03 7.52728619e-03 8.65637977e-03 1.05382008e-02
      1.01618366e-02 9.40910820e-03 1.35491155e-02 9.40910820e-03
      1.31727513e-02 8.65637977e-03 5.64546464e-03 1.09145651e-02
      7.52728619e-03 7.15092197e-03 1.20436586e-02 1.27963871e-02
      1.39254797e-02 1.24200229e-02 1.54309375e-02 2.40873173e-02
      4.51637199e-03 7.90365040e-03 9.40910820e-03 8.28001462e-03
      5.64546464e-03 1.12909293e-02 1.24200229e-02 6.77455775e-03
      6.77455775e-03 9.03274398e-03 1.39254797e-02 4.89273621e-03
      8.28001462e-03 3.76364309e-03 6.02182932e-03 7.15092197e-03
      6.77455775e-03 6.02182932e-03 7.90365040e-03 7.52728619e-03
      9.40910820e-03 4.51637199e-03 4.89273621e-03 9.03274398e-03
      9.40910820e-03 6.39819354e-03 1.43018439e-02 1.43018439e-02
      7.90365040e-03 6.77455775e-03 1.12909293e-02 8.28001462e-03
      1.01618366e-02 4.14000731e-03 9.40910820e-03 2.03236733e-02
      7.52728619e-03 1.27963871e-02 4.51637199e-03 9.40910820e-03
      7.52728619e-03 7.52728619e-03 3.38727888e-03 6.77455775e-03
      1.05382008e-02 4.89273621e-03 4.89273621e-03 1.73127595e-02
      2.25818600e-03 8.65637977e-03 1.05382008e-02 7.90365040e-03</_>
    <_>
      4.57285391e-03 9.14570782e-03 6.44356664e-03 1.93307009e-02
      3.53356893e-03 7.06713786e-03 1.35107050e-02 5.19642467e-03
      6.02785265e-03 9.97713581e-03 1.76678449e-02 4.57285391e-03
      5.40428190e-03 1.82914156e-02 9.14570782e-03 2.76449807e-02
      4.98856790e-03 1.82914156e-02 6.44356664e-03 1.01849930e-02
      2.70214099e-02 8.72999337e-03 7.06713786e-03 1.87071296e-03
      1.41342757e-02 7.48285186e-03 1.78757012e-02 1.60049889e-02
      8.31427984e-03 7.48285186e-03 1.53814172e-02 1.22635625e-02
      1.53814172e-02 1.43421330e-02 6.65142387e-03 6.02785265e-03
      6.44356664e-03 7.27499463e-03 4.36499668e-03 9.76927858e-03
      1.18478490e-02 8.10642261e-03 5.81999589e-03 1.47578465e-02
      1.26792770e-02 1.20557053e-02 9.14570782e-03 2.88921222e-02
      1.66285597e-03 1.87071301e-02 1.49657037e-02 4.57285391e-03
      5.40428190e-03 6.23570988e-03 1.95385572e-02 7.89856538e-03
      1.64207034e-02 4.57285391e-03 9.97713581e-03 3.74142593e-03
      7.69070862e-03 5.19642467e-03 8.52213707e-03 5.61213866e-03
      1.16399918e-02 1.37185613e-02 1.62128452e-02 8.31427984e-03
      1.01849930e-02 4.78071067e-03 7.27499463e-03 1.41342757e-02
      9.35356505e-03 3.53356893e-03 2.18249839e-02 1.06007066e-02
      9.14570782e-03 4.15713992e-03 1.60049889e-02 1.08085638e-02
      1.51735609e-02 6.02785265e-03 3.94928269e-03 1.82914156e-02
      2.49428395e-03 2.28642696e-03 6.23570988e-03 7.48285186e-03
      4.98856790e-03 6.23570988e-03 5.81999589e-03 5.19642467e-03
      3.74142593e-03 1.08085638e-02 2.70214095e-03 2.34878398e-02
      9.97713581e-03 1.26792770e-02 7.89856538e-03 7.48285186e-03</_>
    <_>
      2.47218786e-03 1.73053145e-02 3.70828179e-03 6.55129775e-02
      6.18046988e-03 2.47218786e-03 1.66872684e-02 1.29789868e-02
      2.47218786e-03 1.17428927e-02 1.42150801e-02 2.47218786e-03
      1.23609393e-03 1.66872684e-02 4.32632864e-03 9.27070435e-03
      8.03461019e-03 8.03461019e-03 2.34857854e-02 8.65265727e-03
      1.35970330e-02 2.59579737e-02 3.09023494e-03 2.47218786e-03
      1.48331271e-02 1.17428927e-02 1.79233626e-02 1.42150801e-02
      3.70828179e-03 3.70828179e-03 2.03955509e-02 9.88875143e-03
      1.23609398e-02 9.27070435e-03 4.32632864e-03 1.85414089e-03
      2.47218786e-03 4.32632864e-03 8.65265727e-03 2.16316432e-02
      7.41656357e-03 2.10135970e-02 1.23609393e-03 3.52286771e-02
      6.79851649e-03 7.41656357e-03 1.54511742e-02 6.79851649e-03
      3.70828179e-03 1.05067985e-02 9.88875143e-03 9.88875143e-03
      6.18046988e-03 3.70828179e-03 1.11248456e-02 1.23609398e-02
      1.11248456e-02 1.23609393e-03 8.65265727e-03 6.18046988e-03
      6.18046988e-03 4.94437572e-03 4.32632864e-03 1.60692204e-02
      1.29789868e-02 5.56242280e-03 1.11248456e-02 6.18046988e-03
      1.79233626e-02 8.65265727e-03 1.05067985e-02 7.41656357e-03
      9.27070435e-03 1.85414089e-03 4.14091460e-02 9.27070435e-03
      1.17428927e-02 2.47218786e-03 3.46106291e-02 1.17428927e-02
      1.48331271e-02 3.70828179e-03 2.47218786e-03 4.94437572e-03
      2.47218786e-03 1.85414089e-03 4.94437572e-03 5.56242280e-03
      1.85414089e-03 3.70828179e-03 1.85414089e-03 3.09023494e-03
      2.47218786e-03 1.05067985e-02 1.85414089e-03 2.41038315e-02
      3.70828179e-03 1.79233626e-02 9.27070435e-03 4.32632864e-03</_>
    <_>
      1.16122514e-02 6.90003345e-03 3.53416358e-03 1.78391114e-02
      5.21709863e-03 9.08784941e-03 1.04341973e-02 6.56344648e-03
      8.24638177e-03 1.14439586e-02 1.93537530e-02 8.24638177e-03
      1.41366543e-02 1.63244698e-02 5.72197931e-03 4.24099639e-02
      6.73174020e-03 1.31268930e-02 4.88051167e-03 8.07808805e-03
      1.02659035e-02 8.07808805e-03 1.36317741e-02 6.73174043e-04
      1.27903065e-02 1.14439586e-02 1.19488388e-02 1.16122514e-02
      5.38539235e-03 9.92931705e-03 7.06832716e-03 1.64927635e-02
      4.54392470e-03 4.37563099e-03 1.51464157e-02 6.22685952e-03
      1.09390775e-02 9.76102334e-03 6.22685952e-03 7.90979434e-03
      1.12756649e-02 8.07808805e-03 8.24638177e-03 7.90979434e-03
      1.58195887e-02 9.59272962e-03 1.51464157e-03 5.77246733e-02
      8.91955569e-03 7.57320784e-03 1.36317741e-02 9.42443591e-03
      8.24638177e-03 8.91955569e-03 1.41366543e-02 5.89027256e-03
      3.53416358e-03 9.59272962e-03 1.17805451e-02 1.02659035e-02
      3.87075054e-03 5.89027256e-03 8.24638177e-03 7.90979434e-03
      6.56344648e-03 4.71221795e-03 1.02659035e-02 8.24638177e-03
      9.08784941e-03 1.12756649e-02 1.09390775e-02 6.56344648e-03
      1.46415345e-02 5.89027256e-03 1.12756649e-02 1.21171325e-02
      7.40491413e-03 6.90003345e-03 9.59272962e-03 5.89027256e-03
      1.16122514e-02 9.25614312e-03 1.09390775e-02 1.17805451e-02
      7.90979434e-03 1.04341973e-02 7.74150109e-03 1.22854253e-02
      9.25614312e-03 6.39515324e-03 5.38539235e-03 7.23662088e-03
      1.24537190e-02 9.42443591e-03 1.02659035e-02 1.00976098e-02
      5.55368559e-03 1.02659035e-02 7.23662088e-03 1.07707847e-02</_>
    <_>
      1.10010998e-02 6.05060486e-03 2.47524749e-03 2.22772285e-02
      5.50054992e-03 6.32563233e-03 1.67766772e-02 8.25082511e-03
      8.25082511e-03 1.45764574e-02 1.43014304e-02 6.32563233e-03
      8.80088005e-03 1.21012097e-02 1.07260728e-02 7.75577575e-02
      4.67546750e-03 3.16281617e-02 6.87568774e-03 1.48514854e-02
      1.32013205e-02 6.60066027e-03 1.04510449e-02 1.92519254e-03
      1.29262926e-02 7.97579717e-03 1.37513755e-02 1.48514854e-02
      6.32563233e-03 5.22552244e-03 7.42574269e-03 6.87568774e-03
      9.35093500e-03 8.52585305e-03 9.35093500e-03 1.26512647e-02
      4.95049497e-03 7.70077016e-03 6.32563233e-03 7.97579717e-03
      1.21012097e-02 1.04510449e-02 7.70077016e-03 6.05060486e-03
      7.70077016e-03 9.35093500e-03 1.65016507e-03 3.87788787e-02
      8.25082511e-03 1.48514854e-02 9.90098994e-03 7.15071522e-03
      6.87568774e-03 5.77557739e-03 1.65016502e-02 8.52585305e-03
      6.32563233e-03 9.62596294e-03 8.25082511e-03 7.15071522e-03
      6.32563233e-03 8.80088005e-03 1.04510449e-02 6.60066027e-03
      9.35093500e-03 1.21012097e-02 1.51265124e-02 8.52585305e-03
      6.32563233e-03 8.80088005e-03 9.90098994e-03 3.30033014e-03
      1.32013205e-02 7.15071522e-03 9.90098994e-03 6.60066027e-03
      7.42574269e-03 4.40044003e-03 1.10010998e-02 7.15071522e-03
      2.06270628e-02 7.70077016e-03 7.70077016e-03 1.15511548e-02
      5.50054992e-03 3.85038508e-03 7.15071522e-03 9.35093500e-03
      6.32563233e-03 4.40044003e-03 3.30033014e-03 9.35093500e-03
      1.18261827e-02 9.90098994e-03 5.22552244e-03 7.70077016e-03
      5.22552244e-03 7.97579717e-03 8.80088005e-03 7.42574269e-03</_>
    <_>
      7.82075711e-03 6.97526941e-03 8.87761544e-03 1.60642564e-02
      9.08898748e-03 1.16254492e-02 1.01458468e-02 8.03212821e-03
      7.60938507e-03 7.39801303e-03 1.56415142e-02 8.03212821e-03
      3.59332073e-03 9.93447471e-03 6.97526941e-03 3.84696685e-02
      1.03572188e-02 1.18368212e-02 8.24350026e-03 6.76389784e-03
      9.30035952e-03 1.20481923e-02 8.45487230e-03 2.32508988e-03
      1.20481923e-02 1.09913340e-02 1.37391668e-02 1.24709364e-02
      5.49566699e-03 7.39801303e-03 6.76389784e-03 1.60642564e-02
      6.34115422e-03 6.76389784e-03 1.16254492e-02 8.24350026e-03
      4.01606411e-03 7.18664145e-03 1.14140771e-02 1.26823084e-02
      6.97526941e-03 9.30035952e-03 8.45487230e-03 1.01458468e-02
      7.60938507e-03 8.66624434e-03 3.17057711e-03 6.57366291e-02
      8.03212821e-03 8.03212821e-03 1.50073981e-02 1.05685899e-02
      1.22595644e-02 9.72310267e-03 1.35277957e-02 7.82075711e-03
      8.45487230e-03 7.60938507e-03 1.05685899e-02 1.03572188e-02
      6.76389784e-03 4.43880772e-03 8.66624434e-03 1.07799619e-02
      8.24350026e-03 4.65017976e-03 9.51173156e-03 6.34115422e-03
      1.03572188e-02 8.24350026e-03 1.07799619e-02 6.97526941e-03
      1.26823084e-02 4.65017976e-03 1.33164236e-02 9.30035952e-03
      9.51173156e-03 5.91841061e-03 1.16254492e-02 9.93447471e-03
      1.31050516e-02 9.51173156e-03 1.03572188e-02 8.45487230e-03
      5.70703857e-03 1.01458468e-02 7.18664145e-03 1.16254492e-02
      6.55252580e-03 8.66624434e-03 6.34115422e-03 6.34115422e-03
      1.64870005e-02 1.09913340e-02 9.30035952e-03 1.01458468e-02
      7.18664145e-03 1.14140771e-02 8.66624434e-03 8.24350026e-03</_>
    <_>
      1.25523014e-02 5.72561100e-03 4.84474795e-03 2.37833075e-02
      4.62453207e-03 1.36533799e-02 1.01299277e-02 5.50539512e-03
      1.14512220e-02 1.16714379e-02 1.34331649e-02 9.02884826e-03
      1.65161863e-02 1.12310061e-02 5.28517971e-03 5.61550334e-02
      5.06496383e-03 1.91587750e-02 6.60647452e-03 1.16714379e-02
      1.14512220e-02 5.28517971e-03 1.47544593e-02 1.98194222e-03
      1.12310061e-02 8.14798474e-03 1.01299277e-02 9.24906414e-03
      5.28517971e-03 1.03501435e-02 8.58841650e-03 1.32129490e-02
      7.92776886e-03 5.50539512e-03 1.27725173e-02 9.02884826e-03
      1.36533799e-02 9.46928002e-03 7.26712169e-03 5.94582688e-03
      1.18916538e-02 7.92776886e-03 9.68949590e-03 4.62453207e-03
      7.48733757e-03 1.18916538e-02 2.42237397e-03 4.05197106e-02
      7.92776886e-03 8.14798474e-03 9.24906414e-03 6.60647452e-03
      8.58841650e-03 9.24906414e-03 1.29927332e-02 4.18410031e-03
      7.70755345e-03 1.60757545e-02 1.25523014e-02 1.29927332e-02
      4.18410031e-03 7.48733757e-03 7.92776886e-03 5.28517971e-03
      6.82668993e-03 6.16604276e-03 9.02884826e-03 9.46928002e-03
      7.70755345e-03 6.16604276e-03 8.80863238e-03 3.52345291e-03
      1.10107902e-02 8.80863238e-03 1.25523014e-02 9.68949590e-03
      5.94582688e-03 9.24906414e-03 1.18916538e-02 9.02884826e-03
      1.47544593e-02 9.90971178e-03 8.80863238e-03 1.05703594e-02
      1.10107902e-02 1.05703594e-02 6.16604276e-03 1.36533799e-02
      1.01299277e-02 5.72561100e-03 4.18410031e-03 9.02884826e-03
      1.38735957e-02 8.80863238e-03 8.80863238e-03 7.70755345e-03
      3.74366879e-03 1.14512220e-02 1.03501435e-02 7.92776886e-03</_>
    <_>
      1.13126235e-02 6.10522553e-03 4.84826742e-03 1.56221939e-02
      5.92566002e-03 1.02352304e-02 8.26001074e-03 3.77087458e-03
      7.00305263e-03 1.59813259e-02 1.20308856e-02 8.08044523e-03
      9.87609942e-03 1.14921890e-02 5.20739798e-03 3.71700488e-02
      6.82348711e-03 2.80122105e-02 7.36218365e-03 1.83156766e-02
      1.95726342e-02 7.90087972e-03 8.61914176e-03 2.33435095e-03
      1.04147960e-02 8.61914176e-03 9.15783830e-03 4.48913639e-03
      7.72131421e-03 7.36218365e-03 5.56652900e-03 8.08044523e-03
      1.75974146e-02 5.56652900e-03 1.29287122e-02 2.17274204e-02
      1.18513200e-02 4.66870191e-03 5.38696349e-03 7.54174916e-03
      1.40061053e-02 6.46435609e-03 9.15783830e-03 4.84826742e-03
      8.61914176e-03 8.79870728e-03 2.33435095e-03 5.94361648e-02
      6.82348711e-03 2.22661160e-02 7.00305263e-03 1.04147960e-02
      5.02783246e-03 9.33740381e-03 9.33740381e-03 7.00305263e-03
      1.32878432e-02 7.36218365e-03 8.26001074e-03 8.08044523e-03
      4.66870191e-03 6.28479058e-03 1.00556649e-02 5.56652900e-03
      7.54174916e-03 1.41856708e-02 2.47800332e-02 1.05943615e-02
      5.02783246e-03 6.28479058e-03 5.74609451e-03 3.77087458e-03
      8.79870728e-03 7.00305263e-03 7.18261814e-03 7.00305263e-03
      7.54174916e-03 5.56652900e-03 6.10522553e-03 1.49039328e-02
      2.26252470e-02 5.56652900e-03 5.74609451e-03 2.38822047e-02
      1.14921890e-02 6.10522553e-03 5.20739798e-03 6.64392160e-03
      9.87609942e-03 1.18513200e-02 5.92566002e-03 1.32878432e-02
      8.79870728e-03 4.13000537e-03 5.92566002e-03 4.30957088e-03
      7.18261814e-03 5.74609451e-03 9.51696932e-03 9.15783830e-03</_>
    <_>
      1.72446836e-02 5.17340470e-03 4.02375916e-03 1.78195052e-02
      6.13144273e-03 1.24544930e-02 1.18796704e-02 7.08948076e-03
      7.28108827e-03 1.37957465e-02 1.53286066e-02 1.30293155e-02
      1.32209240e-02 1.20712779e-02 6.13144273e-03 3.39145437e-02
      6.51465775e-03 1.66698601e-02 4.02375916e-03 7.66430330e-03
      1.20712779e-02 5.93983522e-03 1.47537841e-02 3.06572136e-03
      1.57118216e-02 9.00555681e-03 1.01552019e-02 7.85591081e-03
      4.02375916e-03 8.81394930e-03 6.32305024e-03 1.20712779e-02
      8.62234179e-03 6.70626573e-03 1.39873540e-02 7.66430330e-03
      1.14964554e-02 9.38877184e-03 9.00555681e-03 7.66430330e-03
      1.03468094e-02 6.89787325e-03 1.05384169e-02 4.79018968e-03
      7.08948076e-03 1.36041390e-02 1.91607582e-03 4.52193916e-02
      6.13144273e-03 1.18796704e-02 8.81394930e-03 1.01552019e-02
      1.14964554e-02 1.20712779e-02 1.09216329e-02 5.17340470e-03
      5.36501268e-03 1.57118216e-02 1.51369991e-02 1.03468094e-02
      6.32305024e-03 1.11132404e-02 6.70626573e-03 8.23912583e-03
      9.19716433e-03 8.62234179e-03 6.32305024e-03 1.18796704e-02
      5.93983522e-03 1.01552019e-02 7.66430330e-03 3.44893662e-03
      1.39873540e-02 7.28108827e-03 1.07300254e-02 1.07300254e-02
      8.62234179e-03 6.32305024e-03 8.23912583e-03 6.51465775e-03
      1.37957465e-02 1.05384169e-02 1.16880629e-02 1.18796704e-02
      7.66430330e-03 1.22628855e-02 9.58037935e-03 1.05384169e-02
      8.23912583e-03 7.66430330e-03 5.36501268e-03 7.47269578e-03
      1.51369991e-02 6.89787325e-03 8.62234179e-03 5.55662019e-03
      6.51465775e-03 9.58037935e-03 1.18796704e-02 1.16880629e-02</_>
    <_>
      6.73639448e-03 4.43183817e-03 4.96365875e-03 2.09182762e-02
      6.55912049e-03 8.33185576e-03 7.62276212e-03 8.15458223e-03
      5.49547933e-03 9.39549692e-03 1.52455242e-02 7.97730871e-03
      6.02729991e-03 1.66637115e-02 6.73639448e-03 8.04821849e-02
      7.44548859e-03 2.94274073e-02 9.39549692e-03 9.04094987e-03
      1.66637115e-02 9.92731750e-03 9.21822339e-03 1.24091469e-03
      7.44548859e-03 1.01045910e-02 1.31182410e-02 1.18773263e-02
      5.31820580e-03 4.60911170e-03 7.80003564e-03 1.31182410e-02
      1.31182410e-02 5.31820580e-03 1.22318733e-02 4.78638522e-03
      4.96365875e-03 6.02729991e-03 9.39549692e-03 1.01045910e-02
      1.09909587e-02 4.07729112e-03 9.21822339e-03 6.02729991e-03
      1.38273360e-02 1.29409675e-02 2.30455585e-03 6.04502745e-02
      4.07729112e-03 1.18773263e-02 9.04094987e-03 1.04591381e-02
      8.15458223e-03 6.55912049e-03 1.17000528e-02 6.02729991e-03
      1.27636939e-02 6.02729991e-03 8.86367634e-03 6.20457344e-03
      5.85002638e-03 6.20457344e-03 6.73639448e-03 7.09094154e-03
      8.50912929e-03 1.13455057e-02 1.41818831e-02 8.50912929e-03
      9.21822339e-03 8.50912929e-03 1.02818646e-02 4.43183817e-03
      1.40046095e-02 5.49547933e-03 1.06364116e-02 1.08136851e-02
      6.38184696e-03 5.31820580e-03 7.44548859e-03 9.21822339e-03
      1.25864204e-02 6.91366801e-03 6.20457344e-03 1.40046095e-02
      5.14093228e-03 8.86367634e-03 6.20457344e-03 1.09909587e-02
      5.31820580e-03 7.09094154e-03 4.60911170e-03 7.26821506e-03
      9.92731750e-03 7.44548859e-03 6.91366801e-03 7.26821506e-03
      5.67275286e-03 8.15458223e-03 1.08136851e-02 9.39549692e-03</_>
    <_>
      1.77049171e-02 3.27868853e-03 5.90163935e-03 2.55737696e-02
      4.59016394e-03 1.24590164e-02 5.90163935e-03 4.59016394e-03
      4.59016394e-03 1.31147541e-02 1.37704918e-02 6.55737706e-03
      1.04918033e-02 8.52459017e-03 4.59016394e-03 4.85245883e-02
      7.21311476e-03 1.70491803e-02 4.59016394e-03 4.59016394e-03
      2.16393434e-02 5.90163935e-03 4.59016394e-03 5.24590164e-03
      1.96721312e-02 1.04918033e-02 1.11475410e-02 5.90163935e-03
      4.59016394e-03 7.21311476e-03 4.59016394e-03 9.18032788e-03
      1.24590164e-02 7.21311476e-03 1.50819672e-02 9.83606558e-03
      1.77049171e-02 7.86885247e-03 1.96721312e-03 4.59016394e-03
      1.44262295e-02 6.55737706e-03 1.18032787e-02 4.59016394e-03
      9.18032788e-03 6.55737706e-03 4.59016394e-03 4.78688516e-02
      3.93442623e-03 1.04918033e-02 7.86885247e-03 2.62295082e-03
      3.93442623e-03 9.18032788e-03 1.11475410e-02 5.24590164e-03
      5.24590164e-03 1.50819672e-02 1.50819672e-02 1.57377049e-02
      3.27868853e-03 5.24590164e-03 1.11475410e-02 1.04918033e-02
      3.93442623e-03 6.55737706e-03 1.24590164e-02 7.86885247e-03
      3.93442623e-03 7.86885247e-03 7.86885247e-03 7.21311476e-03
      1.24590164e-02 1.70491803e-02 5.24590164e-03 7.86885247e-03
      2.62295082e-03 5.90163935e-03 7.86885247e-03 8.52459017e-03
      2.09836066e-02 8.52459017e-03 1.57377049e-02 2.68852450e-02
      1.24590164e-02 1.18032787e-02 3.93442623e-03 1.37704918e-02
      9.18032788e-03 4.59016394e-03 8.52459017e-03 1.37704918e-02
      1.24590164e-02 1.18032787e-02 1.18032787e-02 1.11475410e-02
      7.21311476e-03 5.90163935e-03 3.93442623e-03 8.52459017e-03</_>
    <_>
      1.07200649e-02 5.66343032e-03 4.04530764e-03 1.41585758e-02
      6.27022656e-03 1.03155337e-02 8.29287991e-03 5.05663408e-03
      7.68608414e-03 1.41585758e-02 1.25404531e-02 1.17313918e-02
      1.01132682e-02 1.43608414e-02 4.24757274e-03 7.38268644e-02
      4.44983831e-03 2.38673147e-02 7.68608414e-03 1.43608414e-02
      2.30582524e-02 5.25889965e-03 9.30420682e-03 1.61812303e-03
      1.03155337e-02 1.01132682e-02 9.10194218e-03 5.66343032e-03
      6.87702280e-03 7.88834970e-03 7.48381857e-03 1.21359220e-02
      1.17313918e-02 4.24757274e-03 1.41585758e-02 7.28155347e-03
      1.29449842e-02 7.68608414e-03 6.67475723e-03 8.09061527e-03
      1.49676371e-02 5.25889965e-03 6.47249212e-03 7.07928790e-03
      9.50647239e-03 8.29287991e-03 5.66343032e-03 5.62297739e-02
      6.06796099e-03 1.86084136e-02 8.89967661e-03 9.50647239e-03
      6.27022656e-03 1.13268606e-02 7.88834970e-03 6.47249212e-03
      6.47249212e-03 1.11245951e-02 9.70873795e-03 5.86569589e-03
      5.46116522e-03 7.28155347e-03 7.88834970e-03 4.85436898e-03
      6.27022656e-03 1.45631069e-02 1.77993532e-02 6.87702280e-03
      5.25889965e-03 9.50647239e-03 6.87702280e-03 7.88834970e-03
      9.30420682e-03 4.24757274e-03 1.01132682e-02 7.48381857e-03
      4.04530764e-03 5.25889965e-03 6.67475723e-03 1.09223304e-02
      1.73948221e-02 6.67475723e-03 6.87702280e-03 1.73948221e-02
      7.07928790e-03 8.49514548e-03 4.44983831e-03 1.29449842e-02
      8.89967661e-03 7.07928790e-03 6.67475723e-03 1.01132682e-02
      1.07200649e-02 6.67475723e-03 1.05177993e-02 3.64077673e-03
      5.25889965e-03 7.28155347e-03 9.50647239e-03 6.87702280e-03</_>
    <_>
      8.29268247e-03 2.43902439e-03 5.12195099e-03 1.90243907e-02
      6.34146342e-03 9.51219536e-03 9.75609757e-03 7.80487806e-03
      6.34146342e-03 9.02439002e-03 1.53658539e-02 8.29268247e-03
      6.34146342e-03 1.65853649e-02 4.87804879e-03 5.53658530e-02
      5.85365854e-03 2.24390235e-02 6.58536563e-03 1.02439020e-02
      9.75609757e-03 7.80487806e-03 1.14634149e-02 5.36585366e-03
      1.12195117e-02 1.09756095e-02 1.26829268e-02 1.29268290e-02
      9.02439002e-03 9.02439002e-03 8.78048781e-03 1.48780486e-02
      7.31707318e-03 2.92682927e-03 9.99999978e-03 8.53658561e-03
      8.29268247e-03 4.14634123e-03 5.85365854e-03 6.58536563e-03
      1.17073171e-02 7.56097538e-03 1.26829268e-02 7.07317051e-03
      1.46341464e-02 1.26829268e-02 4.87804879e-04 7.65853673e-02
      7.31707318e-03 1.26829268e-02 9.02439002e-03 9.75609757e-03
      4.63414611e-03 9.51219536e-03 1.14634149e-02 5.60975587e-03
      7.07317051e-03 8.78048781e-03 1.07317073e-02 7.31707318e-03
      6.34146342e-03 5.12195099e-03 7.07317051e-03 7.31707318e-03
      8.29268247e-03 7.31707318e-03 1.26829268e-02 7.56097538e-03
      1.17073171e-02 9.26829223e-03 6.82926830e-03 2.43902439e-03
      1.14634149e-02 4.63414611e-03 1.29268290e-02 1.07317073e-02
      6.58536563e-03 4.39024391e-03 1.29268290e-02 1.12195117e-02
      1.95121951e-02 6.34146342e-03 6.82926830e-03 1.53658539e-02
      6.58536563e-03 6.58536563e-03 7.80487806e-03 8.53658561e-03
      6.82926830e-03 6.34146342e-03 7.07317051e-03 8.53658561e-03
      9.26829223e-03 1.14634149e-02 6.09756075e-03 6.58536563e-03
      4.14634123e-03 1.07317073e-02 1.19512193e-02 6.09756075e-03</_>
    <_>
      1.52733121e-02 3.21543403e-03 2.81350478e-03 1.72829591e-02
      5.62700955e-03 1.32636651e-02 1.28617361e-02 4.82315104e-03
      6.83279755e-03 1.68810282e-02 1.28617361e-02 1.36655951e-02
      1.40675241e-02 6.43086806e-03 6.02893904e-03 5.94855323e-02
      6.02893904e-03 2.73311902e-02 5.22508053e-03 1.12540191e-02
      1.64790992e-02 2.41157552e-03 9.64630209e-03 2.00964627e-03
      1.04501611e-02 8.84244405e-03 8.84244405e-03 4.82315104e-03
      6.43086806e-03 1.28617361e-02 4.01929254e-03 8.84244405e-03
      1.08520901e-02 3.61736328e-03 1.28617361e-02 7.63665605e-03
      1.40675241e-02 1.16559481e-02 6.02893904e-03 5.22508053e-03
      1.08520901e-02 5.22508053e-03 1.36655951e-02 4.01929254e-03
      8.03858507e-03 1.04501611e-02 8.03858507e-04 6.31028935e-02
      8.84244405e-03 9.24437307e-03 8.84244405e-03 2.81350478e-03
      7.23472657e-03 9.24437307e-03 1.40675241e-02 4.01929254e-03
      6.02893904e-03 1.88906752e-02 1.44694531e-02 1.32636651e-02
      2.41157552e-03 7.63665605e-03 6.43086806e-03 5.22508053e-03
      2.00964627e-03 9.64630209e-03 1.60771701e-02 9.64630209e-03
      2.81350478e-03 9.64630209e-03 7.63665605e-03 5.22508053e-03
      9.64630209e-03 8.03858507e-03 7.23472657e-03 8.44051410e-03
      4.42122202e-03 7.63665605e-03 8.03858507e-03 6.43086806e-03
      1.92926042e-02 6.02893904e-03 9.64630209e-03 1.32636651e-02
      1.04501611e-02 1.32636651e-02 5.62700955e-03 1.52733121e-02
      8.84244405e-03 8.44051410e-03 8.03858507e-03 8.84244405e-03
      1.00482311e-02 8.84244405e-03 1.16559481e-02 4.82315104e-03
      6.43086806e-03 6.43086806e-03 8.03858507e-03 1.04501611e-02</_>
    <_>
      8.45030043e-03 5.15611563e-03 5.01289032e-03 1.99083351e-02
      9.59610473e-03 1.21741621e-02 8.02062452e-03 7.30449706e-03
      6.73159538e-03 1.03122313e-02 9.16642789e-03 9.02320258e-03
      7.16127176e-03 9.73933004e-03 6.44514477e-03 5.07018045e-02
      7.87739921e-03 1.63276996e-02 7.44772283e-03 1.11715840e-02
      1.18877115e-02 6.73159538e-03 8.02062452e-03 1.43225433e-03
      1.16012599e-02 1.00257806e-02 1.14580346e-02 1.10283587e-02
      7.16127176e-03 9.16642789e-03 7.73417344e-03 1.30335148e-02
      6.01546839e-03 3.58063588e-03 1.47522204e-02 9.16642789e-03
      6.30191900e-03 4.01031226e-03 5.87224308e-03 8.73675197e-03
      1.56115722e-02 7.01804645e-03 1.31767401e-02 9.16642789e-03
      9.88255534e-03 1.40360929e-02 1.57547975e-03 4.72643934e-02
      7.01804645e-03 1.67573765e-02 9.73933004e-03 1.20309368e-02
      7.73417344e-03 8.87997728e-03 1.31767401e-02 7.44772283e-03
      6.73159538e-03 1.14580346e-02 1.43225435e-02 7.87739921e-03
      5.58579201e-03 7.73417344e-03 1.04554566e-02 6.73159538e-03
      6.87482115e-03 5.29934093e-03 1.64709259e-02 7.01804645e-03
      6.44514477e-03 1.11715840e-02 7.44772283e-03 3.15095950e-03
      1.30335148e-02 7.73417344e-03 1.47522204e-02 7.87739921e-03
      6.87482115e-03 7.73417344e-03 1.07419081e-02 1.03122313e-02
      1.86193064e-02 1.03122313e-02 1.10283587e-02 1.03122313e-02
      9.02320258e-03 7.87739921e-03 9.59610473e-03 1.97651107e-02
      6.44514477e-03 8.87997728e-03 6.58837007e-03 4.72643925e-03
      1.07419081e-02 1.08851334e-02 1.16012599e-02 5.44256670e-03
      8.16384982e-03 6.58837007e-03 5.72901731e-03 7.87739921e-03</_>
    <_>
      1.17948717e-02 3.07692308e-03 5.38461516e-03 3.74358967e-02
      5.12820529e-03 1.66666675e-02 8.46153870e-03 6.15384616e-03
      5.12820529e-03 1.97435897e-02 2.07692310e-02 8.46153870e-03
      7.69230770e-03 1.84615385e-02 7.69230770e-03 6.71794862e-02
      6.92307670e-03 1.87179483e-02 6.92307670e-03 1.10256411e-02
      8.20512790e-03 6.15384616e-03 1.12820510e-02 7.69230770e-04
      1.25641022e-02 1.07692303e-02 1.17948717e-02 1.38461534e-02
      3.07692308e-03 8.46153870e-03 9.74358991e-03 1.41025642e-02
      8.97435937e-03 5.38461516e-03 8.20512790e-03 7.43589737e-03
      6.92307670e-03 5.64102549e-03 6.66666683e-03 5.38461516e-03
      1.25641022e-02 6.15384616e-03 8.71794857e-03 1.05128204e-02
      1.38461534e-02 1.33333337e-02 7.69230770e-04 5.56410253e-02
      4.61538462e-03 8.46153870e-03 1.25641022e-02 8.71794857e-03
      6.66666683e-03 7.43589737e-03 1.84615385e-02 6.92307670e-03
      5.38461516e-03 7.17948703e-03 1.33333337e-02 6.92307670e-03
      4.10256395e-03 7.17948703e-03 5.64102549e-03 7.43589737e-03
      5.89743583e-03 6.15384616e-03 9.74358991e-03 7.69230770e-03
      9.99999978e-03 9.99999978e-03 6.15384616e-03 2.82051275e-03
      1.17948717e-02 5.38461516e-03 1.48717947e-02 1.02564106e-02
      7.43589737e-03 7.17948703e-03 1.05128204e-02 6.41025649e-03
      1.48717947e-02 5.12820529e-03 6.15384616e-03 1.41025642e-02
      4.61538462e-03 6.15384616e-03 3.58974352e-03 9.74358991e-03
      5.64102549e-03 5.38461516e-03 4.10256395e-03 8.46153870e-03
      9.99999978e-03 1.12820510e-02 7.17948703e-03 9.48717911e-03
      5.89743583e-03 9.74358991e-03 8.71794857e-03 6.66666683e-03</_>
    <_>
      1.04567967e-02 6.05393527e-03 4.40286193e-03 2.88937818e-02
      4.95321956e-03 7.15465052e-03 8.25536624e-03 4.67804074e-03
      8.25536624e-03 1.21078705e-02 1.07319755e-02 7.98018742e-03
      5.22839837e-03 1.32085858e-02 6.60429290e-03 8.14529434e-02
      8.25536624e-03 1.98128782e-02 5.22839837e-03 6.87947171e-03
      1.23830494e-02 7.42982933e-03 1.21078705e-02 1.65107322e-03
      1.43093010e-02 6.32911408e-03 1.37589434e-02 8.80572386e-03
      7.42982933e-03 6.05393527e-03 8.53054505e-03 8.25536624e-03
      6.60429290e-03 6.32911408e-03 1.10071544e-02 6.32911408e-03
      6.60429290e-03 7.70500815e-03 1.32085858e-02 7.15465052e-03
      1.34837646e-02 6.05393527e-03 7.15465052e-03 5.50357718e-03
      1.04567967e-02 1.29334070e-02 5.50357718e-03 7.23720416e-02
      1.01816179e-02 9.90643911e-03 9.35608149e-03 9.08090267e-03
      6.87947171e-03 1.04567967e-02 1.34837646e-02 2.47660978e-03
      7.15465052e-03 1.01816179e-02 1.32085858e-02 9.35608149e-03
      8.53054505e-03 4.40286193e-03 6.87947171e-03 6.87947171e-03
      7.15465052e-03 6.60429290e-03 1.01816179e-02 7.42982933e-03
      9.08090267e-03 1.10071544e-02 9.35608149e-03 3.30214645e-03
      1.51348375e-02 5.22839837e-03 8.25536624e-03 1.04567967e-02
      4.67804074e-03 4.67804074e-03 8.80572386e-03 9.35608149e-03
      9.35608149e-03 4.95321956e-03 1.10071544e-02 1.15575120e-02
      7.42982933e-03 4.95321956e-03 4.67804074e-03 1.01816179e-02
      7.15465052e-03 1.04567967e-02 3.85250407e-03 5.77875599e-03
      1.07319755e-02 5.77875599e-03 7.15465052e-03 1.76114477e-02
      6.87947171e-03 7.42982933e-03 9.63126030e-03 8.25536624e-03</_>
    <_>
      1.09774610e-02 6.30620122e-03 5.02160471e-03 1.57655030e-02
      8.64183158e-03 1.38969989e-02 9.22573823e-03 6.89010881e-03
      6.89010881e-03 9.45930183e-03 1.55319395e-02 1.07438983e-02
      1.20284948e-02 1.29627464e-02 8.40826798e-03 6.63318932e-02
      9.57608316e-03 1.86850410e-02 7.35723460e-03 1.10942423e-02
      7.35723460e-03 6.77332701e-03 7.82436039e-03 1.86850398e-03
      1.17949313e-02 1.16781499e-02 1.01599908e-02 9.34252050e-03
      7.82436039e-03 8.64183158e-03 7.70757906e-03 1.06271170e-02
      5.02160471e-03 7.00689014e-03 1.26124024e-02 7.24045327e-03
      1.00432094e-02 9.69286449e-03 6.30620122e-03 7.00689014e-03
      1.09774610e-02 1.12110246e-02 1.07438983e-02 9.69286449e-03
      9.22573823e-03 1.22620575e-02 1.28459651e-03 4.53112237e-02
      7.82436039e-03 9.80964582e-03 8.99217557e-03 8.05792399e-03
      7.59079773e-03 8.52504931e-03 1.21452762e-02 7.24045327e-03
      5.60551230e-03 1.20284948e-02 9.69286449e-03 9.57608316e-03
      6.07263809e-03 8.40826798e-03 9.45930183e-03 8.29148665e-03
      1.07438983e-02 6.53976388e-03 8.52504931e-03 1.02767721e-02
      9.10895690e-03 9.69286449e-03 7.94114172e-03 2.80275615e-03
      1.52983768e-02 6.89010881e-03 1.12110246e-02 8.64183158e-03
      7.47401593e-03 6.89010881e-03 9.69286449e-03 7.47401593e-03
      1.41305616e-02 9.22573823e-03 1.34298727e-02 7.70757906e-03
      6.07263809e-03 9.34252050e-03 8.52504931e-03 1.35466540e-02
      7.82436039e-03 8.75861291e-03 5.13838604e-03 5.95585676e-03
      1.00432094e-02 6.89010881e-03 9.34252050e-03 8.64183158e-03
      8.05792399e-03 8.75861291e-03 9.22573823e-03 7.82436039e-03</_>
    <_>
      6.87893061e-03 1.04166670e-02 5.69968531e-03 2.55503152e-02
      1.21855345e-02 1.45440251e-02 9.82704386e-03 7.27201253e-03
      1.02201262e-02 9.63050313e-03 1.47405658e-02 1.06132077e-02
      9.04088095e-03 1.47405658e-02 6.09276723e-03 4.52044047e-03
      7.07547180e-03 1.02201262e-02 7.66509445e-03 7.46855326e-03
      1.15959123e-02 9.43396240e-03 8.05817638e-03 3.53773590e-03
      1.41509436e-02 1.21855345e-02 1.12028299e-02 8.64779856e-03
      6.68238988e-03 1.06132077e-02 9.82704386e-03 1.35613205e-02
      6.87893061e-03 8.45125783e-03 1.21855345e-02 8.84433929e-03
      1.25786159e-02 9.43396240e-03 9.63050313e-03 9.63050313e-03
      7.27201253e-03 1.06132077e-02 1.17924530e-02 9.23742168e-03
      1.23820752e-02 1.47405658e-02 2.55503156e-03 6.09276723e-03
      7.86163565e-03 7.46855326e-03 1.12028299e-02 9.82704386e-03
      9.82704386e-03 9.63050313e-03 1.35613205e-02 8.45125783e-03
      6.87893061e-03 1.63128935e-02 1.69025157e-02 1.45440251e-02
      5.69968531e-03 1.13993706e-02 1.08097484e-02 8.45125783e-03
      1.00235846e-02 7.86163565e-03 6.48584915e-03 1.02201262e-02
      8.05817638e-03 1.04166670e-02 9.82704386e-03 3.73427663e-03
      1.57232713e-02 1.00235846e-02 1.45440251e-02 1.19889937e-02
      1.08097484e-02 7.66509445e-03 9.82704386e-03 1.00235846e-02
      1.41509436e-02 9.63050313e-03 1.49371065e-02 4.91352193e-03
      8.64779856e-03 1.04166670e-02 7.46855326e-03 1.15959123e-02
      9.04088095e-03 8.05817638e-03 7.66509445e-03 5.50314458e-03
      1.23820752e-02 1.33647798e-02 9.82704386e-03 8.05817638e-03
      7.66509445e-03 1.06132077e-02 1.12028299e-02 1.25786159e-02</_>
    <_>
      9.25135240e-03 7.68573862e-03 6.40478218e-03 1.72217470e-02
      8.96669552e-03 1.13862799e-02 1.43751781e-02 8.53970926e-03
      8.82436708e-03 9.82066616e-03 1.39481928e-02 8.25505238e-03
      9.53600928e-03 1.38058644e-02 7.54341017e-03 8.96669552e-03
      1.12439506e-02 9.96299461e-03 8.96669552e-03 9.96299461e-03
      7.82806706e-03 7.68573862e-03 1.09592937e-02 2.41958443e-03
      1.25249075e-02 1.12439506e-02 1.42328497e-02 1.08169653e-02
      5.69313997e-03 8.96669552e-03 8.39738082e-03 1.26672359e-02
      5.69313997e-03 7.25875329e-03 1.72217470e-02 1.18132653e-02
      1.01053230e-02 1.20979222e-02 9.53600928e-03 7.11642485e-03
      7.11642485e-03 1.06746368e-02 1.09592937e-02 1.06746368e-02
      1.13862799e-02 9.53600928e-03 4.98149730e-03 3.84286931e-03
      1.06746368e-02 9.82066616e-03 8.25505238e-03 1.48021635e-02
      9.25135240e-03 1.09592937e-02 1.25249075e-02 1.26672359e-02
      6.40478218e-03 1.36635350e-02 9.67833772e-03 1.15286084e-02
      5.69313997e-03 1.03899799e-02 8.82436708e-03 1.02476515e-02
      7.82806706e-03 7.40108173e-03 7.54341017e-03 1.13862799e-02
      7.40108173e-03 1.26672359e-02 1.12439506e-02 5.69313997e-03
      1.42328497e-02 7.68573862e-03 1.52291488e-02 1.02476515e-02
      7.25875329e-03 8.96669552e-03 1.45175066e-02 1.03899799e-02
      1.55138057e-02 1.18132653e-02 1.06746368e-02 5.97779686e-03
      1.09592937e-02 1.12439506e-02 6.68943906e-03 1.66524332e-02
      8.39738082e-03 8.11272394e-03 7.25875329e-03 7.68573862e-03
      1.13862799e-02 1.40905213e-02 1.12439506e-02 8.82436708e-03
      7.40108173e-03 1.01053230e-02 1.20979222e-02 1.06746368e-02</_>
    <_>
      8.49171076e-03 5.25677297e-03 4.65022260e-03 2.56773159e-02
      1.03113623e-02 1.23331985e-02 1.17266476e-02 6.67205825e-03
      6.67205825e-03 1.49615854e-02 1.51637690e-02 8.89607798e-03
      1.03113623e-02 1.67812370e-02 6.87424187e-03 3.33602913e-02
      7.48079270e-03 1.67812370e-02 6.67205825e-03 8.28952715e-03
      8.69389437e-03 7.68297631e-03 8.49171076e-03 2.62838649e-03
      1.27375657e-02 1.27375657e-02 1.05135459e-02 8.69389437e-03
      7.88515992e-03 1.01091787e-02 8.08734354e-03 1.61746871e-02
      1.01091787e-02 5.86332381e-03 1.59725025e-02 8.69389437e-03
      7.27860909e-03 6.26769103e-03 7.68297631e-03 8.08734354e-03
      8.89607798e-03 1.13222804e-02 1.23331985e-02 7.68297631e-03
      1.39506673e-02 1.39506673e-02 3.03275371e-03 2.02183574e-02
      1.19288312e-02 1.09179132e-02 9.30044521e-03 1.19288312e-02
      8.28952715e-03 8.49171076e-03 1.43550346e-02 5.66114020e-03
      4.85240621e-03 1.23331985e-02 1.47594018e-02 1.13222804e-02
      3.63930454e-03 8.89607798e-03 8.28952715e-03 1.05135459e-02
      7.68297631e-03 7.07642548e-03 7.07642548e-03 6.67205825e-03
      8.89607798e-03 1.17266476e-02 9.09826159e-03 6.26769103e-03
      1.37484837e-02 8.49171076e-03 9.30044521e-03 1.19288312e-02
      9.90699511e-03 5.45895658e-03 1.13222804e-02 1.11200968e-02
      1.47594018e-02 8.49171076e-03 1.11200968e-02 6.26769103e-03
      9.09826159e-03 1.33441165e-02 9.90699511e-03 1.61746871e-02
      1.09179132e-02 5.66114020e-03 8.08734354e-03 4.44803899e-03
      1.33441165e-02 7.68297631e-03 9.50262882e-03 4.85240621e-03
      7.88515992e-03 5.86332381e-03 1.13222804e-02 6.87424187e-03</_>
    <_>
      1.73323285e-02 3.01431795e-03 3.01431795e-03 9.04295407e-03
      3.01431795e-03 1.43180108e-02 9.79653373e-03 6.78221555e-03
      7.53579522e-03 2.78824419e-02 7.53579522e-03 1.20572718e-02
      9.04295407e-03 7.53579522e-03 5.27505670e-03 9.94724929e-02
      9.04295407e-03 6.48078397e-02 1.50715897e-03 1.28108514e-02
      1.65787488e-02 1.50715897e-03 8.28937441e-03 0. 9.04295407e-03
      7.53579522e-03 6.02863589e-03 4.52147704e-03 3.76789761e-03
      6.78221555e-03 6.02863589e-03 1.28108514e-02 1.13036921e-02
      6.78221555e-03 1.28108514e-02 9.79653373e-03 1.35644311e-02
      3.01431795e-03 3.01431795e-03 3.01431795e-03 2.71288622e-02
      7.53579522e-03 8.28937441e-03 4.52147704e-03 9.79653373e-03
      8.28937441e-03 2.26073852e-03 7.15900511e-02 7.53579522e-03
      1.20572718e-02 4.52147704e-03 7.53579522e-03 4.52147704e-03
      6.78221555e-03 8.28937441e-03 6.02863589e-03 2.26073852e-03
      1.20572718e-02 1.05501134e-02 4.52147704e-03 7.53579487e-04
      1.50715897e-03 9.79653373e-03 6.02863589e-03 3.76789761e-03
      6.78221555e-03 1.43180108e-02 9.79653373e-03 7.53579487e-04
      6.78221555e-03 2.26073852e-03 3.76789761e-03 9.04295407e-03
      8.28937441e-03 6.78221555e-03 8.28937441e-03 3.76789761e-03
      1.13036921e-02 6.02863589e-03 8.28937441e-03 1.43180108e-02
      3.76789761e-03 4.52147704e-03 1.28108514e-02 1.05501134e-02
      1.13036921e-02 5.27505670e-03 1.80859081e-02 1.20572718e-02
      4.52147704e-03 9.04295407e-03 1.05501134e-02 9.79653373e-03
      5.27505670e-03 9.04295407e-03 5.27505670e-03 6.02863589e-03
      3.76789761e-03 3.76789761e-03 9.04295407e-03</_>
    <_>
      6.75916066e-03 3.91319813e-03 3.91319813e-03 2.27676984e-02
      4.62468853e-03 6.40341500e-03 1.31625757e-02 3.91319813e-03
      6.40341500e-03 1.70757733e-02 1.28068300e-02 5.33617940e-03
      5.33617940e-03 1.63642839e-02 6.04766980e-03 1.06012098e-01
      4.98043420e-03 3.20170745e-02 7.47065106e-03 1.06723588e-02
      8.18214193e-03 8.89363233e-03 1.06723588e-02 3.20170750e-03
      8.89363233e-03 8.53788666e-03 8.53788666e-03 1.03166131e-02
      4.98043420e-03 2.84596230e-03 7.47065106e-03 8.53788666e-03
      8.89363233e-03 6.75916066e-03 9.24937706e-03 9.24937706e-03
      5.69192460e-03 8.53788666e-03 8.89363233e-03 7.47065106e-03
      1.52970469e-02 1.13838492e-02 8.18214193e-03 5.69192460e-03
      1.10281035e-02 7.82639626e-03 2.49021710e-03 6.33226633e-02
      7.47065106e-03 1.35183213e-02 9.24937706e-03 5.33617940e-03
      6.75916066e-03 4.98043420e-03 1.20953396e-02 1.10281035e-02
      4.98043420e-03 6.40341500e-03 1.06723588e-02 8.18214193e-03
      5.69192460e-03 7.82639626e-03 6.04766980e-03 7.11490586e-03
      3.55745293e-03 1.13838492e-02 1.35183213e-02 7.82639626e-03
      6.04766980e-03 8.89363233e-03 1.10281035e-02 8.18214193e-03
      7.82639626e-03 6.04766980e-03 1.06723588e-02 8.18214193e-03
      5.69192460e-03 4.26894333e-03 9.96086840e-03 1.03166131e-02
      2.17004623e-02 3.20170750e-03 8.18214193e-03 1.38740661e-02
      8.53788666e-03 6.75916066e-03 7.47065106e-03 8.53788666e-03
      6.40341500e-03 4.62468853e-03 1.77872647e-03 7.47065106e-03
      9.24937706e-03 5.69192460e-03 4.98043420e-03 6.04766980e-03
      3.55745293e-03 1.13838492e-02 1.74315199e-02 5.33617940e-03</_>
    <_>
      1.34788193e-02 4.49293945e-03 3.85109126e-03 2.37483960e-02
      7.70218251e-03 8.66495539e-03 5.77663677e-03 5.77663677e-03
      5.45571232e-03 1.09114246e-02 1.41206672e-02 1.05905002e-02
      9.94865224e-03 1.54043650e-02 8.98587890e-03 9.21052620e-02
      3.85109126e-03 1.54043650e-02 5.13478834e-03 8.66495539e-03
      7.70218251e-03 4.81386390e-03 6.41848519e-03 7.06033362e-03
      1.09114246e-02 7.38125807e-03 1.09114246e-02 1.12323491e-02
      3.20924260e-03 5.45571232e-03 6.73940964e-03 1.25160459e-02
      5.77663677e-03 6.09756075e-03 1.15532735e-02 1.31578948e-02
      8.34403094e-03 8.66495539e-03 7.38125807e-03 7.70218251e-03
      6.09756075e-03 8.66495539e-03 1.28369704e-02 5.45571232e-03
      1.09114246e-02 1.60462130e-02 2.56739417e-03 1.03658535e-01
      7.06033362e-03 6.09756075e-03 7.70218251e-03 6.09756075e-03
      6.09756075e-03 8.98587890e-03 1.89345311e-02 4.17201547e-03
      4.17201547e-03 1.12323491e-02 1.41206672e-02 7.06033362e-03
      7.06033362e-03 3.20924260e-03 5.13478834e-03 8.02310649e-03
      3.85109126e-03 3.85109126e-03 9.62772779e-03 8.34403094e-03
      5.45571232e-03 6.73940964e-03 9.62772779e-03 5.45571232e-03
      1.28369704e-02 8.02310649e-03 9.94865224e-03 8.98587890e-03
      2.24646972e-03 8.02310649e-03 9.30680335e-03 2.88831838e-03
      8.34403094e-03 5.77663677e-03 7.70218251e-03 9.94865224e-03
      6.73940964e-03 6.73940964e-03 7.70218251e-03 1.12323491e-02
      8.34403094e-03 7.06033362e-03 5.13478834e-03 8.98587890e-03
      9.94865224e-03 8.98587890e-03 4.49293945e-03 7.70218251e-03
      4.17201547e-03 6.73940964e-03 1.02695767e-02 1.02695767e-02</_>
    <_>
      3.40983607e-02 3.93442623e-03 4.59016394e-03 2.16393434e-02
      3.27868853e-03 1.57377049e-02 5.24590164e-03 1.96721312e-03
      5.24590164e-03 2.68852450e-02 1.11475410e-02 7.86885247e-03
      1.44262295e-02 7.21311476e-03 2.62295082e-03 6.36065602e-02
      6.55737706e-03 1.96721312e-02 7.21311476e-03 7.86885247e-03
      1.50819672e-02 5.90163935e-03 1.11475410e-02 1.31147541e-03
      9.18032788e-03 6.55737706e-03 7.21311476e-03 1.04918033e-02
      9.83606558e-03 1.18032787e-02 6.55737706e-03 1.37704918e-02
      5.90163935e-03 9.83606558e-03 1.63934417e-02 1.44262295e-02
      1.96721312e-02 7.21311476e-03 4.59016394e-03 5.24590164e-03
      7.21311476e-03 6.55737706e-03 9.83606558e-03 1.96721312e-03
      1.11475410e-02 1.24590164e-02 4.59016394e-03 7.86885247e-02
      1.11475410e-02 1.24590164e-02 8.52459017e-03 7.21311476e-03
      7.21311476e-03 6.55737706e-03 1.31147541e-02 5.24590164e-03
      4.59016394e-03 1.44262295e-02 1.24590164e-02 9.83606558e-03
      6.55737706e-03 7.21311476e-03 7.86885247e-03 9.18032788e-03
      5.90163935e-03 5.24590164e-03 1.18032787e-02 5.24590164e-03
      3.27868853e-03 9.18032788e-03 3.27868853e-03 3.93442623e-03
      1.24590164e-02 7.86885247e-03 1.11475410e-02 8.52459017e-03
      1.96721312e-03 7.86885247e-03 5.24590164e-03 4.59016394e-03
      1.31147541e-02 3.93442623e-03 8.52459017e-03 1.04918033e-02
      4.59016394e-03 4.59016394e-03 8.52459017e-03 1.44262295e-02
      8.52459017e-03 7.21311476e-03 5.24590164e-03 7.21311476e-03
      1.18032787e-02 7.21311476e-03 3.93442623e-03 7.21311476e-03
      7.21311476e-03 4.59016394e-03 7.21311476e-03 7.86885247e-03</_>
    <_>
      8.29493068e-03 4.60829493e-03 4.60829493e-03 2.30414756e-02
      8.29493068e-03 8.29493068e-03 1.38248848e-02 7.37327198e-03
      5.52995410e-03 1.47465440e-02 1.47465440e-02 8.29493068e-03
      6.45161280e-03 2.30414756e-02 6.91244239e-03 5.48387095e-02
      5.99078322e-03 1.15207378e-02 6.91244239e-03 7.83410110e-03
      5.52995410e-03 9.21658985e-03 1.01382490e-02 9.21658997e-04
      1.24423960e-02 9.67741944e-03 1.38248848e-02 1.15207378e-02
      3.22580640e-03 9.67741944e-03 7.83410110e-03 1.47465440e-02
      4.60829493e-03 6.91244239e-03 1.24423960e-02 4.60829493e-03
      7.83410110e-03 7.37327198e-03 7.37327198e-03 8.29493068e-03
      1.19815664e-02 9.21658985e-03 1.33640552e-02 9.21658985e-03
      1.33640552e-02 1.47465440e-02 4.60829498e-04 4.74654362e-02
      7.83410110e-03 1.19815664e-02 1.33640552e-02 1.10599082e-02
      5.99078322e-03 5.52995410e-03 1.24423960e-02 9.67741944e-03
      5.52995410e-03 1.33640552e-02 8.75576027e-03 1.01382490e-02
      5.99078322e-03 5.52995410e-03 8.29493068e-03 7.37327198e-03
      5.99078322e-03 7.37327198e-03 1.29032256e-02 3.22580640e-03
      1.10599082e-02 9.67741944e-03 9.67741944e-03 8.29493068e-03
      1.24423960e-02 4.14746534e-03 1.47465440e-02 1.15207378e-02
      7.37327198e-03 2.76497705e-03 9.21658985e-03 1.33640552e-02
      1.75115205e-02 9.21658985e-03 4.60829493e-03 1.19815664e-02
      4.60829493e-03 5.52995410e-03 6.45161280e-03 1.24423960e-02
      9.67741944e-03 7.83410110e-03 6.91244239e-03 5.99078322e-03
      1.15207378e-02 1.19815664e-02 6.45161280e-03 1.15207378e-02
      5.99078322e-03 1.38248848e-02 1.05990786e-02 5.52995410e-03</_>
    <_>
      6.15763525e-03 2.46305414e-03 4.10509016e-03 2.83251237e-02
      4.51559946e-03 8.62068962e-03 1.06732352e-02 6.15763525e-03
      7.38916267e-03 1.35467984e-02 1.80623978e-02 6.56814454e-03
      7.38916267e-03 1.92939248e-02 9.85221658e-03 6.77339882e-02
      5.33661759e-03 1.35467984e-02 4.92610829e-03 9.44170728e-03
      1.55993430e-02 1.02627259e-02 1.31362891e-02 8.21018068e-04
      1.14942528e-02 4.92610829e-03 1.39573067e-02 6.56814454e-03
      7.38916267e-03 5.33661759e-03 6.97865337e-03 1.55993430e-02
      2.05254508e-03 3.69458133e-03 1.02627259e-02 5.74712642e-03
      1.02627259e-02 4.51559946e-03 1.35467984e-02 7.38916267e-03
      6.97865337e-03 7.79967150e-03 9.44170728e-03 1.02627259e-02
      1.80623978e-02 1.23152705e-02 4.92610829e-03 5.82922809e-02
      6.15763525e-03 1.02627259e-02 1.23152705e-02 9.85221658e-03
      6.56814454e-03 7.38916267e-03 1.27257798e-02 7.38916267e-03
      2.87356321e-03 7.38916267e-03 1.14942528e-02 9.44170728e-03
      4.92610829e-03 4.92610829e-03 5.74712642e-03 1.02627259e-02
      7.38916267e-03 6.15763525e-03 7.38916267e-03 1.06732352e-02
      9.85221658e-03 6.97865337e-03 1.14942528e-02 4.51559946e-03
      1.51888337e-02 3.28407227e-03 1.31362891e-02 1.23152705e-02
      7.79967150e-03 4.92610829e-03 8.62068962e-03 7.38916267e-03
      1.60098523e-02 6.15763525e-03 1.06732352e-02 9.85221658e-03
      3.69458133e-03 7.79967150e-03 6.97865337e-03 1.23152705e-02
      4.10509016e-03 4.92610829e-03 6.97865337e-03 8.62068962e-03
      1.43678160e-02 9.85221658e-03 6.97865337e-03 1.23152705e-02
      3.28407227e-03 9.85221658e-03 1.51888337e-02 1.14942528e-02</_>
    <_>
      7.59144221e-03 2.07039341e-03 5.52104879e-03 3.07108350e-02
      6.21118024e-03 5.17598353e-03 1.31124910e-02 6.21118024e-03
      5.52104879e-03 1.34575572e-02 1.48378192e-02 5.52104879e-03
      4.48585209e-03 1.69082116e-02 5.52104879e-03 6.24568686e-02
      9.66183562e-03 1.86335407e-02 7.59144221e-03 6.55624550e-03
      1.75983440e-02 1.48378192e-02 1.44927539e-02 3.79572110e-03
      1.48378192e-02 1.10420976e-02 1.31124910e-02 1.00069009e-02
      2.41545890e-03 5.17598353e-03 4.14078683e-03 1.69082116e-02
      7.59144221e-03 5.17598353e-03 1.44927539e-02 7.93650839e-03
      7.93650839e-03 6.90131122e-03 8.62663891e-03 1.20772943e-02
      9.66183562e-03 8.28157365e-03 4.48585209e-03 8.97170417e-03
      8.97170417e-03 1.03519671e-02 3.45065549e-04 9.10973102e-02
      4.14078683e-03 1.24223605e-02 9.66183562e-03 1.10420976e-02
      4.48585209e-03 3.10559012e-03 1.20772943e-02 6.55624550e-03
      3.79572110e-03 7.24637695e-03 1.51828844e-02 7.93650839e-03
      8.28157365e-03 3.79572110e-03 3.79572110e-03 5.17598353e-03
      5.86611452e-03 6.55624550e-03 7.59144221e-03 5.17598353e-03
      1.06970323e-02 5.52104879e-03 5.17598353e-03 3.10559012e-03
      1.55279506e-02 3.79572110e-03 1.44927539e-02 8.62663891e-03
      8.62663891e-03 5.17598353e-03 1.13871638e-02 7.93650839e-03
      2.24292614e-02 4.48585209e-03 5.52104879e-03 1.48378192e-02
      3.79572110e-03 9.66183562e-03 6.90131122e-03 1.24223605e-02
      4.14078683e-03 5.52104879e-03 4.83091781e-03 5.52104879e-03
      8.97170417e-03 7.24637695e-03 6.21118024e-03 1.27674257e-02
      1.72532781e-03 1.13871638e-02 1.17322290e-02 6.90131122e-03</_>
    <_>
      8.05477239e-03 4.43012500e-03 3.62464762e-03 2.13451479e-02
      8.05477239e-03 1.16794202e-02 8.86025000e-03 5.63834049e-03
      4.02738620e-03 1.81232374e-02 1.57068055e-02 8.86025000e-03
      1.12766810e-02 8.45751073e-03 3.62464762e-03 7.20902160e-02
      4.83286334e-03 3.26218270e-02 8.86025000e-03 1.53040681e-02
      4.83286334e-03 3.62464762e-03 7.24929525e-03 4.02738620e-03
      1.57068055e-02 1.04712043e-02 7.24929525e-03 9.26298834e-03
      4.02738620e-03 4.43012500e-03 1.00684660e-02 1.16794202e-02
      6.04107929e-03 4.02738620e-03 1.69150215e-02 1.69150215e-02
      1.12766810e-02 8.45751073e-03 6.84655644e-03 3.22190905e-03
      1.97341926e-02 9.26298834e-03 1.69150215e-02 5.63834049e-03
      1.53040681e-02 1.49013288e-02 4.43012500e-03 3.42327841e-02
      1.00684660e-02 1.36931129e-02 1.12766810e-02 1.04712043e-02
      8.05477239e-03 6.84655644e-03 1.93314534e-02 5.63834049e-03
      3.22190905e-03 1.85259767e-02 1.16794202e-02 9.26298834e-03
      3.22190905e-03 6.44381810e-03 4.83286334e-03 3.22190905e-03
      6.84655644e-03 4.83286334e-03 1.65122841e-02 6.84655644e-03
      5.23560215e-03 7.65203405e-03 7.24929525e-03 6.44381810e-03
      7.24929525e-03 6.04107929e-03 5.63834049e-03 1.24848969e-02
      2.01369310e-03 3.22190905e-03 4.83286334e-03 9.26298834e-03
      2.13451479e-02 7.24929525e-03 8.05477239e-03 1.32903745e-02
      1.12766810e-02 8.45751073e-03 6.84655644e-03 6.44381810e-03
      8.86025000e-03 7.24929525e-03 7.24929525e-03 8.86025000e-03
      8.86025000e-03 8.05477239e-03 9.26298834e-03 1.44985905e-02
      4.83286334e-03 5.63834049e-03 7.65203405e-03 5.63834049e-03</_>
    <_>
      1.58013552e-02 3.10383737e-03 3.10383737e-03 1.89051926e-02
      7.33634317e-03 1.74943563e-02 9.59367957e-03 4.51467279e-03
      7.33634317e-03 1.29796844e-02 9.59367957e-03 1.58013552e-02
      1.12866815e-02 1.01580136e-02 6.20767474e-03 6.85665905e-02
      4.23250580e-03 1.69300232e-02 3.66817159e-03 8.18284415e-03
      1.38261849e-02 7.33634317e-03 6.20767474e-03 2.53950339e-03
      1.04401810e-02 1.35440184e-02 1.26975169e-02 7.33634317e-03
      7.90067762e-03 9.02934559e-03 6.48984220e-03 1.21331830e-02
      1.43905189e-02 2.53950339e-03 1.72121897e-02 8.46501160e-03
      1.55191878e-02 5.92550775e-03 7.90067762e-03 8.18284415e-03
      1.35440184e-02 8.74717813e-03 1.07223475e-02 6.48984220e-03
      7.33634317e-03 1.18510155e-02 1.69300230e-03 7.47742653e-02
      8.74717813e-03 6.20767474e-03 1.24153495e-02 8.46501160e-03
      4.79683978e-03 1.26975169e-02 9.02934559e-03 6.20767474e-03
      5.92550775e-03 1.43905189e-02 1.21331830e-02 1.15688490e-02
      5.07900678e-03 1.01580136e-02 6.77200919e-03 8.74717813e-03
      4.51467279e-03 5.07900678e-03 7.05417618e-03 9.59367957e-03
      6.48984220e-03 6.48984220e-03 9.59367957e-03 3.10383737e-03
      9.87584610e-03 5.64334076e-03 8.46501160e-03 7.90067762e-03
      4.23250580e-03 1.04401810e-02 4.79683978e-03 3.95033881e-03
      1.07223475e-02 7.33634317e-03 1.12866815e-02 1.43905189e-02
      1.24153495e-02 1.07223475e-02 8.74717813e-03 6.48984220e-03
      7.33634317e-03 7.05417618e-03 4.79683978e-03 9.02934559e-03
      1.04401810e-02 5.92550775e-03 8.46501160e-03 4.79683978e-03
      6.20767474e-03 6.48984220e-03 9.59367957e-03 7.61851016e-03</_>
    <_>
      1.86941214e-02 4.87672724e-03 5.14765643e-03 1.67976152e-02
      5.96044445e-03 1.27336765e-02 9.21159610e-03 6.77323202e-03
      8.94066691e-03 1.84231922e-02 1.27336765e-02 8.94066691e-03
      1.35464640e-02 1.00243837e-02 7.31509086e-03 3.95556763e-02
      5.96044445e-03 1.73394736e-02 4.60579805e-03 9.48252529e-03
      1.92359798e-02 4.33486840e-03 1.67976152e-02 1.08371710e-03
      1.35464640e-02 1.11081004e-02 9.21159610e-03 7.85694923e-03
      5.14765643e-03 9.48252529e-03 5.96044445e-03 1.24627473e-02
      1.08371712e-02 5.68951527e-03 1.59848277e-02 1.02953129e-02
      1.35464640e-02 1.08371712e-02 7.04416167e-03 7.04416167e-03
      1.51720401e-02 7.85694923e-03 1.05662420e-02 4.06393921e-03
      8.12787842e-03 7.85694923e-03 2.43836362e-03 3.57626677e-02
      8.94066691e-03 8.66973680e-03 1.02953129e-02 8.39880761e-03
      7.31509086e-03 1.13790305e-02 9.75345448e-03 5.68951527e-03
      5.68951527e-03 1.51720401e-02 1.51720401e-02 1.46301817e-02
      5.68951527e-03 9.48252529e-03 8.66973680e-03 8.39880761e-03
      7.31509086e-03 9.48252529e-03 9.21159610e-03 1.32755348e-02
      5.41858561e-03 1.13790305e-02 1.02953129e-02 3.52208083e-03
      1.32755348e-02 7.58602004e-03 8.66973680e-03 8.66973680e-03
      7.04416167e-03 1.05662420e-02 7.04416167e-03 7.58602004e-03
      7.58602004e-03 1.08371712e-02 8.94066691e-03 1.86941214e-02
      8.66973680e-03 1.24627473e-02 5.41858561e-03 1.19208889e-02
      5.68951527e-03 5.96044445e-03 7.31509086e-03 8.66973680e-03
      1.59848277e-02 6.23137364e-03 1.02953129e-02 7.58602004e-03
      5.96044445e-03 6.23137364e-03 8.66973680e-03 6.77323202e-03</_>
    <_>
      1.36791104e-02 4.55970364e-03 5.98461088e-03 2.96380743e-02
      3.41977761e-03 1.08292960e-02 1.05443150e-02 3.98974074e-03
      6.55457377e-03 1.45340553e-02 1.51040182e-02 1.05443150e-02
      9.11940727e-03 1.65289249e-02 6.55457377e-03 4.81618680e-02
      7.97948148e-03 1.39640924e-02 3.98974074e-03 7.12453714e-03
      2.76432037e-02 6.26959233e-03 9.97435208e-03 4.84468509e-03
      1.02593331e-02 9.97435208e-03 1.28241666e-02 7.12453714e-03
      7.40951858e-03 7.69450003e-03 7.40951858e-03 1.39640924e-02
      9.68937017e-03 3.98974074e-03 1.39640924e-02 7.40951858e-03
      6.55457377e-03 6.83955522e-03 1.02593331e-02 5.69962943e-03
      1.62439439e-02 1.02593331e-02 9.68937017e-03 6.83955522e-03
      1.51040182e-02 1.02593331e-02 8.54944403e-04 6.12710156e-02
      7.97948148e-03 7.69450003e-03 8.83442536e-03 9.40438826e-03
      8.26446246e-03 1.31091475e-02 1.48190372e-02 7.69450003e-03
      5.69962943e-03 1.25391847e-02 1.36791104e-02 6.26959233e-03
      4.84468509e-03 4.55970364e-03 5.69962943e-03 7.97948148e-03
      4.55970364e-03 8.26446246e-03 9.68937017e-03 9.68937017e-03
      7.12453714e-03 7.12453714e-03 1.08292960e-02 3.13479616e-03
      1.65289249e-02 5.69962943e-03 1.05443150e-02 1.08292960e-02
      5.69962943e-03 9.97435208e-03 1.05443150e-02 6.55457377e-03
      1.02593331e-02 4.55970364e-03 1.05443150e-02 1.62439439e-02
      7.69450003e-03 1.19692218e-02 4.55970364e-03 9.11940727e-03
      7.12453714e-03 6.26959233e-03 3.70475929e-03 4.55970364e-03
      1.11142779e-02 1.13992589e-02 8.54944438e-03 7.97948148e-03
      5.98461088e-03 4.27472219e-03 7.97948148e-03 7.12453714e-03</_>
    <_>
      1.03051923e-02 4.35988884e-03 3.56718199e-03 3.52754667e-02
      4.75624250e-03 1.50614344e-02 1.03051923e-02 3.17082833e-03
      4.75624250e-03 1.34760207e-02 2.89338082e-02 7.53071718e-03
      8.32342450e-03 3.56718190e-02 9.11613181e-03 3.25009897e-02
      9.90883913e-03 1.22869601e-02 8.32342450e-03 5.15259616e-03
      7.92707130e-03 5.94530301e-03 1.18906060e-02 1.58541417e-03
      1.66468490e-02 1.18906060e-02 1.58541426e-02 9.90883913e-03
      4.75624250e-03 9.51248500e-03 1.14942528e-02 1.70432031e-02
      6.34165667e-03 4.35988884e-03 1.07015455e-02 8.71977769e-03
      1.22869601e-02 7.13436399e-03 9.11613181e-03 7.53071718e-03
      8.71977769e-03 1.07015455e-02 1.14942528e-02 9.90883913e-03
      1.42687280e-02 1.38723738e-02 5.54894982e-03 9.11613181e-03
      1.14942528e-02 6.73801033e-03 1.90249700e-02 9.90883913e-03
      7.13436399e-03 7.92707130e-03 2.10067388e-02 9.11613181e-03
      5.15259616e-03 1.50614344e-02 1.62504949e-02 8.32342450e-03
      2.77447491e-03 5.54894982e-03 7.53071718e-03 3.56718199e-03
      5.94530301e-03 9.51248500e-03 1.03051923e-02 1.10978996e-02
      7.92707130e-03 7.53071718e-03 7.53071718e-03 2.77447491e-03
      1.86286159e-02 5.15259616e-03 1.07015455e-02 8.32342450e-03
      5.54894982e-03 3.96353565e-03 1.07015455e-02 1.07015455e-02
      1.42687280e-02 4.75624250e-03 1.14942528e-02 5.94530301e-03
      7.53071718e-03 7.53071718e-03 2.37812125e-03 1.42687280e-02
      6.73801033e-03 5.54894982e-03 5.94530301e-03 5.15259616e-03
      1.30796675e-02 1.22869601e-02 7.53071718e-03 1.03051923e-02
      6.73801033e-03 7.92707130e-03 1.26833133e-02 7.92707130e-03</_>
    <_>
      5.90783777e-03 3.15084681e-03 4.72627021e-03 2.28436384e-02
      6.69554947e-03 7.87711702e-03 1.26033872e-02 3.54470266e-03
      6.69554947e-03 1.37849543e-02 1.57542340e-02 5.12012606e-03
      8.27097241e-03 1.37849543e-02 1.22095309e-02 4.84442711e-02
      8.27097241e-03 2.12682150e-02 6.69554947e-03 6.69554947e-03
      1.26033872e-02 9.05868411e-03 9.05868411e-03 3.54470266e-03
      1.65419448e-02 1.10279638e-02 1.10279638e-02 9.84639581e-03
      7.08940532e-03 8.27097241e-03 9.84639581e-03 1.69358011e-02
      4.72627021e-03 2.75699096e-03 1.37849543e-02 1.49665223e-02
      4.72627021e-03 7.87711702e-03 9.05868411e-03 8.27097241e-03
      1.14218192e-02 7.48326117e-03 8.27097241e-03 6.30169362e-03
      1.45726660e-02 1.26033872e-02 7.87711702e-04 8.42851549e-02
      4.33241436e-03 9.45254043e-03 1.26033872e-02 1.22095309e-02
      5.51398192e-03 5.51398192e-03 1.41788106e-02 6.69554947e-03
      1.02402521e-02 6.69554947e-03 7.08940532e-03 6.69554947e-03
      6.30169362e-03 6.30169362e-03 1.02402521e-02 5.90783777e-03
      9.05868411e-03 3.93855851e-03 1.81173682e-02 8.66482873e-03
      1.18156755e-02 8.66482873e-03 7.08940532e-03 2.36313511e-03
      1.26033872e-02 2.36313511e-03 1.45726660e-02 8.66482873e-03
      9.84639581e-03 3.15084681e-03 1.29972426e-02 8.66482873e-03
      1.41788106e-02 5.90783777e-03 9.84639581e-03 1.26033872e-02
      6.69554947e-03 7.48326117e-03 6.69554947e-03 1.02402521e-02
      8.66482873e-03 4.72627021e-03 5.12012606e-03 4.33241436e-03
      1.02402521e-02 7.08940532e-03 6.69554947e-03 5.90783777e-03
      4.33241436e-03 8.66482873e-03 1.18156755e-02 5.12012606e-03</_>
    <_>
      9.28792544e-03 9.28792544e-03 3.09597515e-03 3.71517017e-02
      3.09597515e-03 1.23839006e-02 3.40557285e-02 1.23839006e-02
      3.09597515e-03 6.19195029e-03 1.23839006e-02 6.19195029e-03
      9.28792544e-03 9.28792544e-03 6.19195029e-03 1.54798757e-02
      1.23839006e-02 3.09597515e-03 6.19195029e-03 1.85758509e-02
      2.78637763e-02 3.09597515e-03 6.19195029e-03 6.19195029e-03
      2.47678012e-02 6.19195029e-03 1.54798757e-02 6.19195029e-03
      9.28792544e-03 6.19195029e-03 6.19195029e-03 6.19195029e-03
      1.23839006e-02 1.54798757e-02 1.85758509e-02 3.09597515e-02
      9.28792544e-03 9.28792544e-03 1.54798757e-02 1.85758509e-02
      3.09597515e-03 6.19195029e-03 1.23839006e-02 1.23839006e-02
      6.19195029e-03 6.19195029e-03 9.28792544e-03 9.28792544e-03
      9.28792544e-03 3.09597515e-03 6.19195029e-03 9.28792544e-03
      6.19195029e-03 6.19195029e-03 2.16718260e-02 3.09597515e-03
      3.09597515e-03 1.54798757e-02 1.85758509e-02 9.28792544e-03
      3.09597515e-03 0. 0. 1.23839006e-02 6.19195029e-03 6.19195029e-03
      9.28792544e-03 6.19195029e-03 3.09597515e-03 1.23839006e-02
      3.09597515e-03 3.09597515e-03 6.19195029e-03 0. 1.23839006e-02
      9.28792544e-03 1.23839006e-02 0. 9.28792544e-03 1.23839006e-02
      4.02476788e-02 1.23839006e-02 1.23839006e-02 3.09597515e-03
      1.85758509e-02 9.28792544e-03 3.09597515e-03 9.28792544e-03 0. 0.
      3.09597515e-03 9.28792544e-03 9.28792544e-03 1.23839006e-02
      6.19195029e-03 2.47678012e-02 3.09597515e-03 9.28792544e-03
      1.85758509e-02 9.28792544e-03</_>
    <_>
      1.55279506e-02 7.24637695e-03 4.14078683e-03 3.51966880e-02
      8.28157365e-03 1.44927539e-02 1.13871638e-02 1.03519671e-02
      6.21118024e-03 4.14078683e-03 1.34575572e-02 7.24637695e-03
      1.03519671e-02 2.48447210e-02 3.10559012e-03 1.34575572e-02
      6.21118024e-03 9.31677036e-03 4.14078683e-03 4.14078683e-03
      3.51966880e-02 7.24637695e-03 5.17598353e-03 5.17598353e-03
      9.31677036e-03 1.34575572e-02 1.44927539e-02 1.03519671e-02
      7.24637695e-03 5.17598353e-03 6.21118024e-03 2.58799177e-02
      2.27743275e-02 4.14078683e-03 7.24637695e-03 9.31677036e-03
      1.55279506e-02 6.21118024e-03 4.14078683e-03 8.28157365e-03
      1.34575572e-02 1.13871638e-02 1.13871638e-02 9.31677036e-03
      7.24637695e-03 1.13871638e-02 0. 2.69151144e-02 8.28157365e-03
      4.14078683e-03 9.31677036e-03 3.10559012e-03 8.28157365e-03
      1.44927539e-02 1.75983440e-02 8.28157365e-03 1.24223605e-02
      6.21118024e-03 1.44927539e-02 6.21118024e-03 8.28157365e-03
      4.14078683e-03 7.24637695e-03 1.24223605e-02 1.03519671e-03
      1.34575572e-02 6.21118024e-03 8.28157365e-03 3.10559012e-03
      8.28157365e-03 5.17598353e-03 1.75983440e-02 7.24637695e-03
      1.13871638e-02 1.96687374e-02 1.03519671e-02 6.21118024e-03
      1.34575572e-02 1.34575572e-02 9.31677036e-03 2.27743275e-02
      3.10559012e-03 1.13871638e-02 1.96687374e-02 1.86335407e-02
      4.14078683e-03 4.14078683e-03 8.28157365e-03 7.24637695e-03
      3.10559012e-03 4.14078683e-03 5.17598353e-03 1.03519671e-02
      8.28157365e-03 1.03519671e-02 9.31677036e-03 2.07039341e-03
      5.17598353e-03 4.14078683e-03 1.24223605e-02</_>
    <_>
      1.63934417e-02 3.53089534e-03 5.29634301e-03 1.61412358e-02
      6.30517025e-03 1.84110962e-02 1.13493064e-02 7.31399748e-03
      9.83606558e-03 1.76544767e-02 1.38713745e-02 1.33669609e-02
      1.66456494e-02 8.07061791e-03 6.30517025e-03 2.64817141e-02
      8.32282472e-03 1.74022689e-02 8.32282472e-03 1.13493064e-02
      7.81841110e-03 7.06179067e-03 1.33669609e-02 2.01765448e-03
      1.18537201e-02 7.81841110e-03 1.43757882e-02 9.58385877e-03
      6.05296344e-03 1.31147541e-02 5.29634301e-03 1.68978553e-02
      5.54854982e-03 7.31399748e-03 1.56368222e-02 1.28625473e-02
      2.01765448e-02 9.07944515e-03 7.06179067e-03 4.53972258e-03
      1.41235813e-02 1.13493064e-02 9.07944515e-03 9.07944515e-03
      8.32282472e-03 8.82723834e-03 1.26103405e-03 2.59773005e-02
      8.57503153e-03 7.31399748e-03 1.18537201e-02 1.13493064e-02
      8.82723834e-03 1.13493064e-02 1.00882724e-02 4.79192939e-03
      3.78310215e-03 1.68978553e-02 1.26103405e-02 1.43757882e-02
      4.79192939e-03 6.05296344e-03 8.82723834e-03 9.07944515e-03
      1.00882724e-02 6.80958387e-03 5.80075663e-03 1.08448928e-02
      4.79192939e-03 1.16015133e-02 9.58385877e-03 3.78310215e-03
      1.56368222e-02 5.29634301e-03 8.57503153e-03 1.23581337e-02
      5.80075663e-03 8.32282472e-03 8.57503153e-03 8.32282472e-03
      9.33165196e-03 9.83606558e-03 1.05926860e-02 9.58385877e-03
      9.58385877e-03 9.33165196e-03 7.06179067e-03 1.89155098e-02
      1.18537201e-02 4.79192939e-03 6.80958387e-03 9.83606558e-03
      9.07944515e-03 9.58385877e-03 1.10970996e-02 4.53972258e-03
      5.80075663e-03 8.32282472e-03 1.00882724e-02 9.33165196e-03</_>
    <_>
      4.16666679e-02 0. 0. 4.16666679e-02 0. 2.08333340e-02 0.
      2.08333340e-02 0. 0. 2.08333340e-02 0. 0. 1.04166664e-01 0. 0. 0.
      2.08333340e-02 0. 0. 4.16666679e-02 0. 0. 0. 2.08333340e-02
      4.16666679e-02 0. 0. 0. 0. 2.08333340e-02 4.16666679e-02
      4.16666679e-02 0. 0. 2.08333340e-02 2.08333340e-02 0. 0. 0.
      2.08333340e-02 2.08333340e-02 4.16666679e-02 0. 8.33333358e-02
      2.08333340e-02 4.16666679e-02 0. 2.08333340e-02 0. 0.
      2.08333340e-02 0. 2.08333340e-02 0. 0. 0. 2.08333340e-02 0. 0. 0.
      0. 0. 0. 0. 0. 0. 0. 0. 0. 0. 0. 0. 0. 0. 0. 0. 0. 2.08333340e-02
      0. 0. 0. 2.08333340e-02 0. 4.16666679e-02 2.08333340e-02
      2.08333340e-02 0. 0. 0. 0. 0. 2.08333340e-02 0. 0. 2.08333340e-02
      0. 0. 0. 0.</_>
    <_>
      1.22773228e-02 4.81463643e-03 5.53683192e-03 7.22195487e-03
      5.05536841e-03 1.44439097e-02 8.90707783e-03 3.61097744e-03
      8.66634585e-03 1.99807417e-02 8.90707783e-03 8.90707783e-03
      1.13143958e-02 1.05921999e-02 5.05536841e-03 6.59605190e-02
      7.70341838e-03 5.68127111e-02 3.85170919e-03 1.17958598e-02
      2.31102556e-02 4.33317292e-03 1.17958598e-02 1.44439097e-03
      9.87000484e-03 1.08329318e-02 6.98122289e-03 3.37024545e-03
      4.09244094e-03 1.01107368e-02 6.01829542e-03 8.42561387e-03
      1.05921999e-02 4.57390444e-03 1.27587868e-02 7.94414990e-03
      1.39624458e-02 6.74049091e-03 4.57390444e-03 5.77756390e-03
      2.72026956e-02 7.22195487e-03 5.77756390e-03 4.81463643e-03
      5.05536841e-03 9.87000484e-03 2.40731824e-04 5.29610030e-02
      7.22195487e-03 1.75734237e-02 7.94414990e-03 8.90707783e-03
      6.25902740e-03 5.77756390e-03 7.94414990e-03 5.53683192e-03
      6.49975939e-03 8.66634585e-03 6.25902740e-03 9.38854087e-03
      4.33317292e-03 8.42561387e-03 1.08329318e-02 4.57390444e-03
      6.49975939e-03 5.29609993e-03 2.14251317e-02 8.18488188e-03
      5.53683192e-03 8.18488188e-03 7.22195487e-03 2.40731821e-03
      9.38854087e-03 5.53683192e-03 5.53683192e-03 8.90707783e-03
      5.05536841e-03 6.01829542e-03 8.90707783e-03 8.42561387e-03
      1.78141557e-02 6.74049091e-03 8.42561387e-03 2.62397695e-02
      7.70341838e-03 8.18488188e-03 6.01829542e-03 1.54068368e-02
      9.14780889e-03 5.29609993e-03 3.61097744e-03 1.90178137e-02
      8.90707783e-03 6.74049091e-03 7.46268639e-03 6.25902740e-03
      4.57390444e-03 9.62927286e-03 5.77756390e-03 6.49975939e-03</_>
    <_>
      4.28449037e-03 8.56898027e-04 7.71208247e-03 5.65552711e-02
      1.71379605e-03 5.99828642e-03 1.37103684e-02 9.42587852e-03
      2.57069408e-03 2.22793482e-02 2.39931457e-02 2.57069408e-03
      4.28449037e-03 3.25621255e-02 7.71208247e-03 2.31362469e-02
      5.99828642e-03 2.39931457e-02 2.57069408e-03 9.42587852e-03
      1.37103684e-02 7.71208247e-03 1.71379605e-03 3.34190242e-02
      2.05655526e-02 5.14138816e-03 7.71208247e-03 5.14138816e-03
      4.28449037e-03 5.99828642e-03 3.42759211e-03 6.85518421e-03
      5.14138816e-03 6.85518421e-03 7.71208247e-03 3.59897166e-02
      4.28449037e-03 9.42587852e-03 4.28449037e-03 9.42587852e-03
      8.56898073e-03 7.71208247e-03 7.71208247e-03 5.14138816e-03
      3.08483299e-02 1.02827763e-02 4.19880040e-02 1.11396741e-02
      4.28449037e-03 7.71208247e-03 8.56898073e-03 2.57069408e-03
      7.71208247e-03 3.42759211e-03 1.19965728e-02 7.71208247e-03
      9.42587852e-03 6.85518421e-03 1.71379605e-03 4.28449037e-03
      4.28449037e-03 0. 7.71208247e-03 1.02827763e-02 8.56898027e-04
      1.45672662e-02 9.42587852e-03 5.14138816e-03 1.71379615e-02
      8.56898027e-04 8.56898027e-04 2.22793482e-02 1.11396741e-02
      4.28449037e-03 1.28534706e-02 8.56898073e-03 4.28449037e-03
      5.99828642e-03 5.99828642e-03 5.99828642e-03 1.71379615e-02
      8.56898027e-04 2.57069408e-03 1.97086539e-02 1.19965728e-02
      4.28449037e-03 8.56898073e-03 9.42587852e-03 1.71379605e-03
      3.42759211e-03 3.42759211e-03 1.02827763e-02 5.14138816e-03
      1.02827763e-02 2.57069408e-03 3.94173078e-02 2.57069408e-03
      1.19965728e-02 1.79948583e-02 4.28449037e-03</_>
    <_>
      1.64744642e-03 1.64744649e-02 1.48270177e-02 3.13014835e-02
      4.94233938e-03 4.94233938e-03 6.58978568e-03 1.15321251e-02
      3.29489284e-03 1.81219112e-02 2.63591427e-02 3.29489284e-03
      1.64744642e-03 1.64744649e-02 1.31795714e-02 1.15321251e-02
      1.64744642e-03 1.81219112e-02 8.23723245e-03 1.64744642e-03
      3.29489284e-03 3.29489284e-03 0. 2.47116964e-02 1.81219112e-02
      8.23723245e-03 6.58978568e-03 1.15321251e-02 9.88467876e-03
      3.29489284e-03 1.31795714e-02 6.58978568e-03 4.94233938e-03
      1.97693575e-02 9.88467876e-03 8.23723245e-03 0. 1.48270177e-02
      1.15321251e-02 8.23723245e-03 6.58978568e-03 6.58978568e-03
      3.45963761e-02 4.94233938e-03 8.23723245e-03 2.14168038e-02
      2.80065890e-02 3.29489284e-03 2.14168038e-02 6.58978568e-03
      6.58978568e-03 4.94233938e-03 8.23723245e-03 6.58978568e-03
      8.23723245e-03 1.31795714e-02 2.63591427e-02 1.64744642e-03
      9.88467876e-03 3.29489284e-03 8.23723245e-03 1.64744642e-03
      8.23723245e-03 8.23723245e-03 8.23723245e-03 8.23723245e-03
      8.23723245e-03 6.58978568e-03 1.15321251e-02 6.58978568e-03
      4.94233938e-03 2.63591427e-02 4.94233938e-03 1.15321251e-02
      1.31795714e-02 9.88467876e-03 9.88467876e-03 4.94233938e-03
      1.15321251e-02 8.23723245e-03 9.88467876e-03 1.64744642e-03
      1.64744642e-03 3.78912687e-02 1.31795714e-02 3.29489284e-03
      1.81219112e-02 3.29489284e-03 1.48270177e-02 9.88467876e-03
      9.88467876e-03 0. 1.64744642e-03 4.94233938e-03 3.29489284e-03
      2.47116964e-02 1.64744642e-03 8.23723245e-03 1.15321251e-02
      6.58978568e-03</_>
    <_>
      2.33918126e-03 8.18713475e-03 1.05263162e-02 3.04093566e-02
      9.35672503e-03 0. 2.33918130e-02 1.16959065e-02 4.67836251e-03
      1.16959065e-02 3.04093566e-02 0. 4.67836251e-03 3.04093566e-02
      1.63742695e-02 1.05263162e-02 3.50877200e-03 1.16959065e-02
      1.52046783e-02 1.28654968e-02 3.50877200e-03 1.05263162e-02
      4.67836251e-03 2.80701760e-02 1.16959065e-02 3.50877200e-03
      1.05263162e-02 8.18713475e-03 8.18713475e-03 0. 1.28654968e-02
      1.52046783e-02 4.67836251e-03 1.98830403e-02 4.67836251e-03
      1.63742695e-02 0. 1.05263162e-02 2.33918126e-03 5.84795326e-03
      8.18713475e-03 7.01754401e-03 1.28654968e-02 9.35672503e-03
      2.22222228e-02 7.01754401e-03 2.57309936e-02 7.01754401e-03
      9.35672503e-03 9.35672503e-03 1.52046783e-02 4.67836251e-03
      1.05263162e-02 1.05263162e-02 2.33918130e-02 2.22222228e-02
      1.16959065e-02 0. 1.05263162e-02 0. 1.28654968e-02 3.50877200e-03
      5.84795326e-03 1.16959065e-02 7.01754401e-03 4.67836251e-03
      1.75438598e-02 0. 1.87134501e-02 4.67836251e-03 7.01754401e-03
      1.40350880e-02 5.84795326e-03 1.63742695e-02 1.05263162e-02
      3.50877200e-03 5.84795326e-03 8.18713475e-03 1.16959065e-02
      4.67836251e-03 2.22222228e-02 2.33918126e-03 4.67836251e-03
      7.01754401e-03 4.67836251e-03 3.50877200e-03 1.98830403e-02
      3.50877200e-03 5.84795326e-03 2.33918126e-03 1.16959065e-02
      4.67836251e-03 2.33918126e-03 8.18713475e-03 1.16959063e-03
      3.39181274e-02 8.18713475e-03 1.05263162e-02 4.67836251e-03
      8.18713475e-03</_>
    <_>
      2.63852254e-03 1.61609501e-02 2.80343015e-02 5.60686039e-03
      7.91556761e-03 7.25593651e-03 1.31926117e-02 1.45118730e-02
      1.28627969e-02 4.94722975e-03 3.95778380e-03 5.60686039e-03
      5.27704507e-03 7.91556761e-03 2.86939312e-02 4.94722975e-03
      1.28627969e-02 9.23482887e-03 1.15435356e-02 4.94722975e-03
      1.97889190e-03 8.90501309e-03 6.26649056e-03 9.56464373e-03
      7.91556761e-03 1.05540901e-02 8.57519824e-03 1.15435356e-02
      1.64907649e-02 9.56464373e-03 1.18733505e-02 5.27704507e-03
      4.94722975e-03 3.23219001e-02 5.27704507e-03 1.08839050e-02
      2.96833762e-03 1.51715036e-02 1.12137208e-02 1.22031663e-02
      1.31926127e-03 6.92612119e-03 2.96833762e-03 9.56464373e-03
      8.90501309e-03 2.63852254e-03 2.40765177e-02 1.64907647e-03
      4.94722975e-03 4.28759912e-03 6.26649056e-03 6.92612119e-03
      9.56464373e-03 6.59630587e-03 6.92612119e-03 1.45118730e-02
      3.03430073e-02 7.25593651e-03 8.57519824e-03 4.28759912e-03
      1.61609501e-02 8.90501309e-03 1.15435356e-02 9.56464373e-03
      7.91556761e-03 1.35224275e-02 8.57519824e-03 7.91556761e-03
      1.31926117e-02 3.95778380e-03 3.62796825e-03 1.91292875e-02
      2.96833762e-03 1.97889190e-02 1.08839050e-02 5.93667524e-03
      1.25329811e-02 2.01187339e-02 1.38522424e-02 6.26649056e-03
      8.90501309e-03 9.23482887e-03 1.12137208e-02 9.89445951e-03
      9.56464373e-03 4.28759912e-03 1.15435356e-02 1.18733505e-02
      2.17678100e-02 7.58575182e-03 2.04485487e-02 3.29815294e-03
      5.60686039e-03 6.92612119e-03 3.95778380e-03 1.87994726e-02
      1.28627969e-02 9.56464373e-03 5.60686039e-03 1.05540901e-02</_>
    <_>
      2.11864407e-03 2.54237279e-02 2.01271195e-02 8.47457629e-03
      1.58898309e-02 7.41525413e-03 2.01271195e-02 2.01271195e-02
      6.35593198e-03 2.11864407e-03 1.05932206e-02 5.29661030e-03
      2.11864407e-03 5.29661030e-03 1.80084743e-02 3.17796599e-03
      1.58898309e-02 6.35593198e-03 7.41525413e-03 2.11864407e-03
      3.17796599e-03 6.35593198e-03 4.23728814e-03 4.34322022e-02
      1.37711866e-02 8.47457629e-03 7.41525413e-03 1.80084743e-02
      9.53389797e-03 5.29661030e-03 2.11864412e-02 7.41525413e-03
      2.11864407e-03 1.80084743e-02 3.17796599e-03 1.27118640e-02
      2.11864407e-03 9.53389797e-03 5.29661030e-03 4.23728814e-03
      2.11864407e-03 1.58898309e-02 1.16525423e-02 1.16525423e-02
      3.17796599e-03 1.05932206e-02 1.69491526e-02 0. 3.17796599e-03
      8.47457629e-03 8.47457629e-03 6.35593198e-03 8.47457629e-03
      6.35593198e-03 9.53389797e-03 3.07203382e-02 1.58898309e-02
      3.17796599e-03 2.11864407e-03 5.29661030e-03 1.37711866e-02
      6.35593198e-03 1.16525423e-02 1.16525423e-02 5.29661030e-03
      5.29661030e-03 1.69491526e-02 5.29661030e-03 1.05932206e-02
      1.69491526e-02 9.53389797e-03 2.33050846e-02 4.23728814e-03
      2.11864412e-02 1.58898309e-02 5.29661030e-03 1.58898309e-02
      1.16525423e-02 1.58898309e-02 8.47457629e-03 1.37711866e-02
      4.23728814e-03 9.53389797e-03 4.23728814e-03 7.41525413e-03
      1.05932204e-03 1.80084743e-02 1.58898309e-02 5.29661030e-03
      1.05932206e-02 1.16525423e-02 5.29661030e-03 2.11864407e-03
      8.47457629e-03 9.53389797e-03 1.48305083e-02 5.29661030e-03
      1.16525423e-02 6.35593198e-03 9.53389797e-03</_>
    <_>
      2.71370425e-03 1.15332427e-02 1.76390782e-02 1.22116692e-02
      1.69606507e-02 7.46268639e-03 1.42469471e-02 1.83175039e-02
      3.39213037e-03 2.71370425e-03 1.42469471e-02 7.46268639e-03
      3.39213037e-03 5.42740850e-03 2.03527808e-02 6.78426062e-04
      7.46268639e-03 6.10583462e-03 8.81953910e-03 6.78426062e-04
      2.03527813e-03 5.42740850e-03 4.74898238e-03 1.28900949e-02
      1.69606507e-02 1.01763904e-02 1.69606507e-02 9.49796475e-03
      1.69606507e-02 1.01763904e-02 1.62822250e-02 6.10583462e-03 0.
      3.86702865e-02 6.10583462e-03 1.89959295e-02 6.78426062e-04
      7.46268639e-03 3.39213037e-03 7.46268639e-03 1.35685212e-03
      1.15332427e-02 1.69606507e-02 1.08548170e-02 2.71370425e-03
      6.10583462e-03 1.56037994e-02 6.78426062e-04 1.01763904e-02
      4.07055626e-03 4.74898238e-03 6.10583462e-03 1.08548170e-02
      2.71370425e-03 1.49253728e-02 1.28900949e-02 1.15332427e-02
      7.46268639e-03 1.83175039e-02 6.78426062e-04 1.69606507e-02
      1.15332427e-02 3.39213037e-03 6.78426074e-03 7.46268639e-03
      8.14111251e-03 8.81953910e-03 1.35685212e-03 1.01763904e-02
      8.14111251e-03 7.46268639e-03 1.22116692e-02 6.78426074e-03
      3.32428776e-02 7.46268639e-03 1.01763904e-02 1.69606507e-02
      1.96743552e-02 1.08548170e-02 4.74898238e-03 7.46268639e-03
      8.81953910e-03 1.01763904e-02 6.10583462e-03 2.03527808e-02
      2.71370425e-03 9.49796475e-03 2.17096340e-02 1.49253728e-02
      8.14111251e-03 2.23880596e-02 2.03527813e-03 4.74898238e-03
      8.14111251e-03 5.42740850e-03 3.86702865e-02 1.28900949e-02
      1.08548170e-02 4.07055626e-03 5.42740850e-03</_>
    <_>
      2.88184430e-03 7.20461085e-03 8.64553358e-03 6.19596541e-02
      2.88184430e-03 2.88184430e-03 1.44092217e-02 7.20461085e-03
      2.88184430e-03 3.31412107e-02 3.89048979e-02 2.88184430e-03
      2.88184430e-03 3.31412107e-02 5.76368859e-03 1.15273772e-02
      2.88184430e-03 2.16138326e-02 4.32276679e-03 1.44092217e-02
      8.64553358e-03 7.20461085e-03 2.88184430e-03 2.01729108e-02
      2.44956780e-02 1.44092215e-03 2.59365998e-02 1.15273772e-02
      5.76368859e-03 1.44092215e-03 0. 7.20461085e-03 4.32276679e-03
      8.64553358e-03 1.00864554e-02 2.01729108e-02 1.44092215e-03
      5.76368859e-03 2.88184430e-03 8.64553358e-03 1.44092217e-02
      1.58501435e-02 2.73775216e-02 7.20461085e-03 5.76368859e-03
      1.58501435e-02 3.74639779e-02 2.88184430e-03 7.20461085e-03
      8.64553358e-03 1.00864554e-02 2.88184430e-03 7.20461085e-03
      2.88184430e-03 2.01729108e-02 1.29682999e-02 7.20461085e-03
      1.44092215e-03 1.44092215e-03 0. 5.76368859e-03 0. 5.76368859e-03
      2.88184430e-03 0. 8.64553358e-03 1.58501435e-02 0. 7.20461085e-03
      4.32276679e-03 4.32276679e-03 2.44956780e-02 1.44092215e-03
      8.64553358e-03 1.87319890e-02 8.64553358e-03 8.64553358e-03
      1.15273772e-02 1.87319890e-02 1.15273772e-02 1.87319890e-02
      2.88184430e-03 4.32276679e-03 1.87319890e-02 7.20461085e-03
      2.88184430e-03 7.20461085e-03 0. 2.88184430e-03 1.44092215e-03
      5.76368859e-03 7.20461085e-03 7.20461085e-03 1.00864554e-02 0.
      2.44956780e-02 1.44092215e-03 1.00864554e-02 2.73775216e-02
      2.88184430e-03</_>
    <_>
      6.46830536e-04 1.74644236e-02 1.94049161e-02 6.46830536e-03
      1.35834413e-02 3.88098322e-03 2.06985772e-02 2.58732215e-02
      9.70245805e-03 2.58732215e-03 1.29366107e-02 4.52781375e-03
      5.82147483e-03 4.52781375e-03 2.13454068e-02 1.94049161e-03
      1.42302718e-02 3.23415268e-03 2.19922382e-02 0. 6.46830536e-04
      7.76196644e-03 5.17464429e-03 9.05562751e-03 1.09961191e-02
      7.76196644e-03 1.55239329e-02 1.16429497e-02 9.70245805e-03
      1.94049161e-03 1.03492886e-02 6.46830536e-03 3.23415268e-03
      3.04010343e-02 1.94049161e-03 9.70245805e-03 1.29366107e-03
      5.82147483e-03 7.11513590e-03 1.42302718e-02 1.29366107e-03
      9.05562751e-03 1.03492886e-02 2.06985772e-02 1.61707625e-02
      9.70245805e-03 2.52263900e-02 1.94049161e-03 1.09961191e-02
      2.58732215e-03 1.29366107e-02 3.88098322e-03 1.03492886e-02
      6.46830536e-03 9.70245805e-03 3.04010343e-02 9.70245805e-03
      5.17464429e-03 6.46830536e-03 3.23415268e-03 2.39327289e-02
      7.11513590e-03 6.46830536e-03 4.52781375e-03 1.22897802e-02
      7.11513590e-03 7.76196644e-03 4.52781375e-03 2.19922382e-02
      6.46830536e-03 5.82147483e-03 1.68175939e-02 6.46830536e-03
      7.76196644e-03 9.70245805e-03 1.03492886e-02 2.91073732e-02
      3.04010343e-02 1.22897802e-02 4.52781375e-03 3.23415268e-03
      5.17464429e-03 7.76196644e-03 3.23415268e-03 7.76196644e-03
      7.11513590e-03 1.42302718e-02 1.22897802e-02 5.82147483e-03
      1.03492886e-02 1.61707625e-02 0. 2.58732215e-03 8.40879697e-03
      5.17464429e-03 2.06985772e-02 1.61707625e-02 1.87580846e-02
      3.88098322e-03 7.76196644e-03</_>
    <_>
      2.66990289e-02 0. 0. 1.94174759e-02 2.42718449e-03 2.42718440e-02
      4.85436898e-03 0. 2.42718449e-03 2.42718440e-02 1.45631069e-02
      9.70873795e-03 4.85436898e-03 4.85436898e-03 0. 5.82524277e-02 0.
      3.15533988e-02 4.85436898e-03 9.70873795e-03 2.91262139e-02
      7.28155347e-03 2.42718449e-03 0. 9.70873795e-03 9.70873795e-03
      9.70873795e-03 9.70873795e-03 2.42718449e-03 1.94174759e-02 0.
      9.70873795e-03 4.85436898e-03 4.85436898e-03 2.42718440e-02
      7.28155347e-03 1.94174759e-02 1.45631069e-02 4.85436898e-03 0.
      2.18446609e-02 0. 2.66990289e-02 0. 1.45631069e-02 1.21359220e-02
      9.70873795e-03 1.21359222e-01 7.28155347e-03 2.42718449e-03
      1.21359220e-02 0. 0. 0. 1.94174759e-02 2.42718449e-03
      2.42718449e-03 3.64077687e-02 7.28155347e-03 7.28155347e-03 0.
      7.28155347e-03 2.42718449e-03 2.42718449e-03 9.70873795e-03
      4.85436898e-03 9.70873795e-03 1.69902910e-02 1.69902910e-02
      4.85436898e-03 4.85436898e-03 2.42718449e-03 1.21359220e-02
      2.42718449e-03 4.85436898e-03 0. 4.85436898e-03 1.21359220e-02
      4.85436898e-03 4.85436898e-03 7.28155347e-03 2.42718449e-03 0.
      2.91262139e-02 4.85436898e-03 4.85436898e-03 4.85436898e-03
      9.70873795e-03 7.28155347e-03 0. 2.42718449e-03 9.70873795e-03
      2.42718449e-03 1.69902910e-02 4.85436898e-03 1.69902910e-02
      2.42718449e-03 4.85436898e-03 2.42718449e-03 2.42718449e-03</_>
    <_>
      4.25531901e-02 5.31914877e-03 0. 1.06382981e-01 0. 5.85106388e-02
      0. 0. 0. 2.12765951e-02 2.12765951e-02 5.31914877e-03
      1.59574468e-02 2.12765951e-02 0. 5.31914877e-03 0. 0.
      5.31914877e-03 2.12765951e-02 1.59574468e-02 0. 5.31914877e-03 0.
      2.12765951e-02 1.06382975e-02 5.31914877e-03 5.31914877e-03 0.
      3.19148935e-02 5.31914877e-03 0. 1.06382975e-02 0. 5.31914905e-02
      1.06382975e-02 2.65957452e-02 1.06382975e-02 5.31914877e-03 0.
      2.12765951e-02 5.31914877e-03 1.59574468e-02 0. 5.31914877e-03
      1.06382975e-02 0. 1.06382975e-02 0. 5.31914877e-03 0.
      5.31914877e-03 0. 5.31914877e-03 3.19148935e-02 5.31914877e-03 0.
      4.78723422e-02 5.31914877e-03 5.31914877e-03 0. 0. 1.06382975e-02
      5.31914877e-03 1.59574468e-02 0. 5.31914877e-03 0. 1.06382975e-02
      1.59574468e-02 0. 0. 2.12765951e-02 0. 5.31914877e-03 0. 0.
      5.31914877e-03 5.31914877e-03 0. 0. 1.06382975e-02 4.78723422e-02
      2.65957452e-02 1.06382975e-02 1.06382975e-02 0. 2.12765951e-02
      5.31914877e-03 5.31914877e-03 1.06382975e-02 0. 5.31914877e-03 0.
      0. 0. 0. 0. 1.06382975e-02 5.31914877e-03</_>
    <_>
      3.33333351e-02 8.33333377e-03 1.66666675e-02 4.16666679e-02 0.
      1.66666675e-02 0. 8.33333377e-03 0. 1.66666675e-02 8.33333377e-03
      1.66666675e-02 2.50000004e-02 8.33333377e-03 0. 3.33333351e-02 0.
      1.66666675e-02 0. 0. 2.50000004e-02 0. 8.33333377e-03
      1.66666675e-02 0. 0. 0. 0. 0. 5.83333336e-02 0. 2.50000004e-02 0.
      8.33333377e-03 8.33333377e-03 8.33333377e-03 8.33333377e-03
      5.00000007e-02 0. 0. 3.33333351e-02 8.33333377e-03 2.50000004e-02
      0. 8.33333377e-03 4.16666679e-02 1.66666675e-02 4.16666679e-02 0.
      0. 0. 0. 0. 0. 0. 8.33333377e-03 0. 5.83333336e-02 2.50000004e-02
      4.16666679e-02 0. 0. 1.66666675e-02 0. 0. 0. 0. 8.33333377e-03 0.
      0. 0. 2.50000004e-02 8.33333377e-03 0. 0. 8.33333377e-03
      1.66666675e-02 0. 0. 0. 0. 0. 8.33333377e-03 8.33333377e-03 0.
      2.50000004e-02 8.33333377e-03 8.33333377e-03 0. 0. 8.33333377e-03
      3.33333351e-02 0. 0. 0. 1.66666675e-02 8.33333377e-03 0. 0.
      1.66666675e-02</_>
    <_>
      1.66975874e-02 1.85528758e-03 0. 2.04081628e-02 3.71057517e-03
      1.66975874e-02 5.56586264e-03 1.11317253e-02 3.71057517e-03
      9.27643757e-03 7.42115034e-03 5.56586264e-03 5.56586264e-03
      9.27643757e-03 5.56586264e-03 1.83673471e-01 1.85528758e-03
      2.59740259e-02 1.85528758e-03 3.71057517e-03 2.78293137e-02 0.
      1.85528758e-03 9.27643757e-03 1.48423007e-02 0. 1.11317253e-02
      1.11317253e-02 0. 7.42115034e-03 9.27643757e-03 3.71057517e-03
      1.29870130e-02 5.56586264e-03 2.22634505e-02 2.22634505e-02
      2.78293137e-02 1.48423007e-02 1.85528758e-03 5.56586264e-03
      1.85528758e-03 7.42115034e-03 3.71057517e-03 7.42115034e-03
      3.71057517e-03 1.11317253e-02 2.41187382e-02 1.13172539e-01
      7.42115034e-03 5.56586264e-03 5.56586264e-03 3.71057517e-03 0. 0.
      1.11317253e-02 5.56586264e-03 3.71057517e-03 2.22634505e-02
      3.71057517e-03 9.27643757e-03 7.42115034e-03 3.71057517e-03
      3.71057517e-03 1.85528758e-03 3.71057517e-03 0. 9.27643757e-03 0.
      9.27643757e-03 1.85528758e-03 5.56586264e-03 5.56586264e-03
      9.27643757e-03 1.85528758e-03 9.27643757e-03 7.42115034e-03
      5.56586264e-03 1.85528758e-03 1.11317253e-02 5.56586264e-03
      1.29870130e-02 0. 1.85528758e-03 3.71057517e-03 5.56586264e-03
      5.56586264e-03 1.85528758e-03 1.85528758e-03 1.85528758e-03
      3.71057517e-03 1.85528758e-03 0. 0. 1.48423007e-02 1.85528758e-03
      2.41187382e-02 0. 7.42115034e-03 3.71057517e-03 3.71057517e-03</_>
    <_>
      2.24719103e-02 3.74531839e-03 0. 2.62172278e-02 7.49063678e-03
      3.74531820e-02 1.12359552e-02 1.87265910e-02 7.49063678e-03
      1.87265910e-02 1.87265910e-02 7.49063678e-03 0. 7.49063678e-03
      3.74531839e-03 1.87265910e-02 3.74531839e-03 3.37078646e-02
      3.74531839e-03 7.49063678e-03 7.49063678e-03 0. 0. 3.74531839e-03
      1.12359552e-02 3.74531839e-03 1.12359552e-02 3.74531839e-03
      7.49063678e-03 4.49438207e-02 3.74531839e-03 7.49063678e-03
      7.49063678e-03 1.12359552e-02 2.62172278e-02 1.12359552e-02
      2.24719103e-02 3.74531839e-03 3.74531839e-03 7.49063678e-03 0.
      1.12359552e-02 4.86891381e-02 2.24719103e-02 1.87265910e-02
      2.99625471e-02 0. 3.74531839e-03 3.74531839e-03 7.49063678e-03
      7.49063678e-03 3.74531839e-03 0. 1.49812736e-02 1.87265910e-02
