<?xml version="1.0"?>
<opencv_storage>
<my_svm type_id="opencv-ml-svm">
  <svm_type>C_SVC</svm_type>
  <kernel><type>RBF</type>
    <gamma>5.0625000000000009e-01</gamma></kernel>
  <C>3.1250000000000000e+02</C>
  <term_criteria><epsilon>2.2204460492503131e-16</epsilon>
    <iterations>100000</iterations></term_criteria>
  <var_all>100</var_all>
  <var_count>100</var_count>
  <class_count>6</class_count>
  <class_labels type_id="opencv-matrix">
    <rows>1</rows>
    <cols>6</cols>
    <dt>i</dt>
    <data>
      1 2 3 4 5 6</data></class_labels>
  <sv_total>102</sv_total>
  <support_vectors>
    <_>
      1.09458324e-02 5.05192252e-03 1.45944431e-02 1.20684812e-02
      6.73589669e-03 2.80662370e-03 1.03845075e-02 6.45523425e-03
      1.71204042e-02 5.72551228e-02 1.03845075e-02 5.33258496e-03
      7.57788401e-03 1.17878197e-02 7.01655913e-03 3.22761722e-02
      1.26298061e-02 1.06651699e-02 7.57788401e-03 7.85854645e-03
      4.77126008e-03 1.59977544e-02 3.08728591e-03 7.29722157e-03
      6.45523425e-03 8.98119528e-03 4.77126008e-03 1.34717934e-02
      6.17457181e-03 1.26298061e-02 5.61324740e-03 1.74010657e-02
      1.15071572e-02 4.49059764e-03 7.29722157e-03 2.18916647e-02
      8.41987133e-03 1.43137807e-02 4.20993567e-03 8.41987133e-03
      8.41987133e-03 5.89390984e-03 6.73589669e-03 4.82739247e-02
      3.92927323e-03 4.77126008e-03 2.46982872e-02 5.61324740e-03
      6.73589669e-03 1.59977544e-02 1.68397417e-03 6.17457181e-03
      5.33258496e-03 7.85854645e-03 6.73589669e-03 1.12264948e-02
      4.49059764e-03 8.13920889e-03 1.43137807e-02 3.84507440e-02
      1.03845075e-02 8.98119528e-03 1.12264948e-02 9.26185772e-03
      3.64861079e-03 1.12264941e-03 1.26298061e-02 4.77126008e-03
      4.77126008e-03 5.61324740e-03 1.62784178e-02 7.85854645e-03
      6.45523425e-03 1.17878197e-02 7.29722157e-03 1.06651699e-02
      8.13920889e-03 8.41987133e-03 5.05192252e-03 1.59977544e-02
      6.73589669e-03 3.92927323e-03 1.06651699e-02 9.82318260e-03
      3.64861079e-03 1.15071572e-02 9.54252016e-03 8.13920889e-03
      4.20993567e-03 1.40331185e-03 4.20993567e-03 1.09458324e-02
      5.05192252e-03 6.73589669e-03 5.89390984e-03 1.09458324e-02
      6.17457181e-03 5.61324740e-03 1.34717934e-02 1.17878197e-02</_>
    <_>
      9.18897334e-03 1.19856177e-02 1.43827405e-02 9.58849397e-03
      1.07870558e-02 5.99280884e-03 1.79784261e-02 6.79184962e-03
      1.23851374e-02 2.71673985e-02 7.99041148e-03 7.59089086e-03
      9.18897334e-03 9.58849397e-03 6.79184962e-03 1.83779467e-02
      9.98801459e-03 4.79424698e-03 1.03875352e-02 1.27846580e-02
      6.79184962e-03 7.19137024e-03 2.79664411e-03 8.38993210e-03
      8.78945272e-03 9.18897334e-03 5.19376760e-03 1.19856177e-02
      6.79184962e-03 1.03875352e-02 4.79424698e-03 7.59089086e-03
      8.78945272e-03 6.39232900e-03 7.59089086e-03 1.31841786e-02
      1.15860971e-02 1.27846580e-02 1.03875352e-02 8.78945272e-03
      1.43827405e-02 3.99520574e-03 1.07870558e-02 2.63683572e-02
      4.79424698e-03 5.59328822e-03 3.03635634e-02 9.18897334e-03
      5.19376760e-03 1.15860971e-02 8.38993210e-03 9.58849397e-03
      5.99280884e-03 8.38993210e-03 6.79184962e-03 1.23851374e-02
      1.39832199e-02 8.38993210e-03 1.63803436e-02 3.35597284e-02
      1.31841786e-02 1.23851374e-02 8.78945272e-03 4.39472636e-03
      6.39232900e-03 2.79664411e-03 9.98801459e-03 7.19137024e-03
      7.19137024e-03 5.19376760e-03 1.15860971e-02 4.79424698e-03
      5.59328822e-03 1.15860971e-02 1.03875352e-02 1.11865764e-02
      9.18897334e-03 9.18897334e-03 7.19137024e-03 1.07870558e-02
      6.39232900e-03 1.27846580e-02 2.23731529e-02 1.23851374e-02
      5.99280884e-03 8.38993210e-03 1.35836992e-02 9.98801459e-03
      5.19376760e-03 4.79424698e-03 3.99520574e-03 7.59089086e-03
      5.59328822e-03 9.98801459e-03 9.18897334e-03 1.67798642e-02
      7.99041148e-03 5.59328822e-03 1.11865764e-02 1.19856177e-02</_>
    <_>
      5.15705580e-03 8.90764222e-03 1.12517579e-02 1.07829347e-02
      9.84528847e-03 1.35958744e-02 2.10970473e-02 8.43881816e-03
      7.03234877e-03 7.64181912e-02 9.37646534e-03 5.15705580e-03
      1.12517579e-02 3.28176282e-03 1.21894050e-02 6.00093752e-02
      1.03141116e-02 8.90764222e-03 9.84528847e-03 5.62587893e-03
      8.90764222e-03 9.84528847e-03 1.40646973e-03 3.75058595e-03
      6.56352565e-03 1.26582282e-02 9.37646534e-03 1.12517579e-02
      4.68823267e-03 3.28176282e-03 5.15705580e-03 7.96999503e-03
      8.90764222e-03 6.09470252e-03 4.68823267e-03 1.35958744e-02
      8.43881816e-03 9.84528847e-03 3.28176282e-03 2.62541026e-02
      2.81293946e-03 4.68823267e-03 4.21940908e-03 3.18799801e-02
      7.50117190e-03 3.75058595e-03 1.87529307e-02 2.81293946e-03
      1.17205810e-02 3.46929207e-02 7.96999503e-03 5.62587893e-03
      6.09470252e-03 6.09470252e-03 6.56352565e-03 1.12517579e-02
      5.62587893e-03 7.96999503e-03 1.59399901e-02 2.95358654e-02
      8.43881816e-03 9.37646534e-03 8.43881816e-03 2.81293946e-03
      6.09470252e-03 7.03234877e-03 1.03141116e-02 3.75058595e-03
      4.21940908e-03 4.68823267e-03 1.73464604e-02 1.87529298e-03
      4.68823267e-03 3.75058595e-03 4.21940908e-03 6.09470252e-03
      2.15658695e-02 7.03234877e-03 4.68823267e-03 7.96999503e-03
      6.56352565e-03 7.03234877e-03 1.50023438e-02 1.07829347e-02
      1.21894050e-02 1.03141116e-02 6.09470252e-03 6.09470252e-03
      7.50117190e-03 5.15705580e-03 3.28176282e-03 5.15705580e-03
      7.96999503e-03 4.21940908e-03 3.28176282e-03 9.37646534e-03
      5.62587893e-03 5.62587893e-03 1.64088141e-02 7.96999503e-03</_>
    <_>
      6.50661858e-03 6.50661858e-03 1.27888713e-02 7.85281602e-03
      4.48732311e-03 4.93605575e-03 1.41350683e-02 8.07718188e-03
      7.17971707e-03 5.33991456e-02 6.50661858e-03 8.52591451e-03
      1.16670402e-02 6.28225273e-03 6.95535121e-03 3.90397124e-02
      9.87211149e-03 6.73098490e-03 9.64774471e-03 4.71168943e-03
      6.50661858e-03 6.95535121e-03 5.60915424e-03 5.16042160e-03
      5.60915424e-03 1.12183085e-02 7.17971707e-03 1.54812653e-02
      7.62844970e-03 8.30154773e-03 4.48732311e-03 2.22122502e-02
      8.07718188e-03 6.50661858e-03 6.73098490e-03 1.09939417e-02
      4.93605575e-03 7.62844970e-03 6.50661858e-03 1.59299970e-02
      6.73098490e-03 3.58985853e-03 6.28225273e-03 7.49382973e-02
      8.75028037e-03 6.95535121e-03 1.18914070e-02 4.48732311e-03
      5.83352009e-03 2.35584471e-02 4.71168943e-03 5.83352009e-03
      9.64774471e-03 7.40408339e-03 4.03859094e-03 9.87211149e-03
      6.73098490e-03 8.75028037e-03 1.03208432e-02 2.58021094e-02
      4.03859094e-03 1.57056320e-02 1.16670402e-02 7.17971707e-03
      7.40408339e-03 2.91676004e-03 6.28225273e-03 3.58985853e-03
      6.28225273e-03 5.38478792e-03 2.28853486e-02 5.16042160e-03
      3.36549245e-03 6.95535121e-03 5.38478792e-03 9.19901300e-03
      1.57056320e-02 8.52591451e-03 5.38478792e-03 1.39107024e-02
      2.46802787e-03 1.41350683e-02 1.45838009e-02 1.25645055e-02
      1.07695758e-02 6.28225273e-03 6.50661858e-03 7.62844970e-03
      6.50661858e-03 8.30154773e-03 6.95535121e-03 1.00964773e-02
      6.05788641e-03 4.71168943e-03 8.52591451e-03 6.95535121e-03
      1.05452100e-02 3.14112636e-03 1.68274622e-02 1.39107024e-02</_>
    <_>
      8.09464511e-03 6.84931502e-03 8.40597786e-03 1.05853053e-02
      8.09464511e-03 7.78331235e-03 1.21419672e-02 5.60398493e-03
      1.05853053e-02 3.70485671e-02 1.21419672e-02 6.53798273e-03
      9.02864244e-03 1.33872973e-02 4.98131989e-03 3.33125778e-02
      1.40099628e-02 1.08966380e-02 1.05853053e-02 6.84931502e-03
      4.98131989e-03 8.71730968e-03 3.42465751e-03 5.29265264e-03
      5.60398493e-03 1.15193026e-02 4.04732255e-03 1.40099628e-02
      5.60398493e-03 1.18306354e-02 4.98131989e-03 1.83686186e-02
      1.12079699e-02 6.22664997e-03 7.47198006e-03 1.33872973e-02
      6.53798273e-03 1.49439601e-02 4.66998760e-03 1.27646327e-02
      8.71730968e-03 5.91531768e-03 7.16064777e-03 6.47571608e-02
      7.47198006e-03 6.22664997e-03 3.05105858e-02 5.60398493e-03
      5.91531768e-03 1.58779584e-02 9.96263977e-03 6.84931502e-03
      5.29265264e-03 1.18306354e-02 5.29265264e-03 1.18306354e-02
      7.78331235e-03 7.16064777e-03 9.33997519e-03 3.95392291e-02
      8.09464511e-03 1.21419672e-02 8.40597786e-03 3.42465751e-03
      5.91531768e-03 2.49065994e-03 1.30759655e-02 3.42465751e-03
      4.04732255e-03 4.66998760e-03 1.77459531e-02 7.47198006e-03
      7.78331235e-03 5.29265264e-03 7.78331235e-03 4.35865484e-03
      7.47198006e-03 5.60398493e-03 6.53798273e-03 1.43212955e-02
      4.66998760e-03 8.40597786e-03 1.49439601e-02 1.18306354e-02
      1.02739725e-02 8.09464511e-03 5.91531768e-03 5.91531768e-03
      4.04732255e-03 4.98131989e-03 2.80199246e-03 1.24532999e-02
      7.16064777e-03 5.91531768e-03 6.84931502e-03 1.08966380e-02
      6.84931502e-03 5.91531768e-03 9.02864244e-03 1.74346194e-02</_>
    <_>
      7.37913465e-03 5.59796439e-03 1.67938937e-02 8.14249367e-03
      6.36132294e-03 4.83460538e-03 1.01781171e-02 9.92366392e-03
      1.27226459e-02 8.90585259e-02 8.39694683e-03 1.01781171e-02
      5.59796439e-03 6.87022880e-03 6.87022880e-03 2.72264630e-02
      7.63358781e-03 9.16030537e-03 7.37913465e-03 5.59796439e-03
      7.63358781e-03 6.61577610e-03 5.85241709e-03 4.83460538e-03
      6.10687025e-03 1.73027981e-02 4.58015269e-03 1.19592873e-02
      6.36132294e-03 5.34351123e-03 9.66921076e-03 6.61577610e-03
      9.92366392e-03 5.59796439e-03 3.56234098e-03 1.01781171e-02
      4.58015269e-03 1.09414756e-02 7.88804051e-03 1.29770990e-02
      4.58015269e-03 4.07124683e-03 7.12468196e-03 7.55725205e-02
      7.37913465e-03 6.61577610e-03 8.65139905e-03 7.12468196e-03
      6.61577610e-03 1.42493639e-02 7.37913465e-03 7.37913465e-03
      5.85241709e-03 7.88804051e-03 5.59796439e-03 6.61577610e-03
      1.09414756e-02 6.87022880e-03 1.98473278e-02 2.03562342e-02
      8.65139905e-03 1.17048342e-02 6.61577610e-03 1.06870225e-02
      9.92366392e-03 2.03562342e-03 1.01781171e-02 8.90585221e-03
      5.34351123e-03 8.90585221e-03 1.34860054e-02 4.83460538e-03
      4.83460538e-03 9.66921076e-03 7.37913465e-03 1.06870225e-02
      6.61577610e-03 7.12468196e-03 5.85241709e-03 1.09414756e-02
      2.54452927e-03 1.01781171e-02 1.04325702e-02 1.09414756e-02
      4.83460538e-03 6.61577610e-03 1.22137405e-02 7.37913465e-03
      8.14249367e-03 7.37913465e-03 8.14249367e-03 8.65139905e-03
      7.12468196e-03 5.59796439e-03 5.59796439e-03 1.01781171e-02
      7.37913465e-03 7.12468196e-03 1.47582693e-02 1.52671756e-02</_>
    <_>
      1.15107913e-02 8.63309391e-03 1.15107913e-02 1.29496399e-02
      1.15107913e-02 1.43884891e-03 7.19424477e-03 7.19424477e-03
      8.63309391e-03 2.01438852e-02 1.00719426e-02 7.19424477e-03
      4.31654695e-03 1.15107913e-02 2.87769781e-03 4.31654695e-03
      1.15107913e-02 8.63309391e-03 1.00719426e-02 5.75539563e-03
      8.63309391e-03 8.63309391e-03 7.19424477e-03 1.00719426e-02
      8.63309391e-03 5.75539563e-03 1.15107913e-02 1.00719426e-02
      4.31654695e-03 5.75539563e-03 4.31654695e-03 1.15107913e-02
      1.58273373e-02 7.19424477e-03 4.31654695e-03 8.63309391e-03
      7.19424477e-03 8.63309391e-03 4.31654695e-03 5.75539563e-03
      1.58273373e-02 5.75539563e-03 1.00719426e-02 1.72661878e-02 0.
      2.87769781e-03 2.01438852e-02 7.19424477e-03 1.58273373e-02
      1.43884891e-03 1.15107913e-02 4.31654695e-03 1.43884891e-03
      8.63309391e-03 8.63309391e-03 1.72661878e-02 1.29496399e-02
      1.00719426e-02 1.72661878e-02 3.45323756e-02 1.72661878e-02
      1.00719426e-02 2.30215825e-02 7.19424477e-03 7.19424477e-03
      8.63309391e-03 1.43884895e-02 1.72661878e-02 7.19424477e-03
      7.19424477e-03 1.29496399e-02 1.00719426e-02 7.19424477e-03
      5.75539563e-03 1.43884891e-03 1.00719426e-02 1.15107913e-02
      5.75539563e-03 1.00719426e-02 2.15827338e-02 8.63309391e-03
      1.58273373e-02 2.73381304e-02 7.19424477e-03 1.43884895e-02
      7.19424477e-03 1.29496399e-02 1.87050365e-02 8.63309391e-03
      5.75539563e-03 7.19424477e-03 2.01438852e-02 2.87769781e-03
      8.63309391e-03 5.75539563e-03 5.75539563e-03 5.75539563e-03
      1.87050365e-02 2.15827338e-02 2.87769781e-03</_>
    <_>
      6.15069177e-03 1.17888264e-02 1.28139416e-02 1.23013835e-02
      8.71348009e-03 1.99897494e-02 2.71655563e-02 1.17888264e-02
      3.58790369e-03 2.87032295e-02 3.58790369e-03 1.64018460e-02
      1.02511533e-02 8.71348009e-03 8.20092298e-03 2.76781134e-02
      1.94771904e-02 2.56278832e-03 8.71348009e-03 9.22603812e-03
      1.38390567e-02 6.15069177e-03 1.53767294e-03 3.58790369e-03
      2.05023065e-02 1.23013835e-02 1.23013835e-02 4.61301906e-03
      4.10046149e-03 5.12557663e-03 4.10046149e-03 2.05023065e-02
      8.20092298e-03 5.63813420e-03 2.05023075e-03 1.43516148e-02
      9.22603812e-03 6.15069177e-03 8.20092298e-03 1.79395173e-02
      6.15069177e-03 9.22603812e-03 1.38390567e-02 2.30650939e-02
      4.61301906e-03 5.12557663e-03 1.17888264e-02 7.17580738e-03
      1.17888264e-02 2.10148636e-02 3.58790369e-03 4.61301906e-03
      4.61301906e-03 7.68836495e-03 7.68836495e-03 6.15069177e-03
      1.33264996e-02 7.68836495e-03 9.22603812e-03 1.53767299e-02
      1.53767299e-02 2.20399797e-02 8.20092298e-03 1.07637113e-02
      4.10046149e-03 3.58790369e-03 6.15069177e-03 6.15069177e-03
      4.10046149e-03 4.61301906e-03 1.79395173e-02 2.05023075e-03
      4.61301906e-03 7.17580738e-03 4.10046149e-03 6.66324981e-03
      1.38390567e-02 7.17580738e-03 1.94771904e-02 6.15069177e-03
      5.12557663e-03 7.17580738e-03 9.22603812e-03 1.33264996e-02
      8.71348009e-03 1.12762684e-02 1.94771904e-02 1.43516148e-02
      9.73859522e-03 3.07534589e-03 1.23013835e-02 2.25525368e-02
      8.71348009e-03 3.58790369e-03 4.61301906e-03 8.20092298e-03
      5.63813420e-03 4.61301906e-03 1.23013835e-02 9.73859522e-03</_>
    <_>
      5.13236085e-03 6.48298208e-03 1.59373321e-02 1.43165858e-02
      7.56347924e-03 1.26958396e-02 1.02647217e-02 1.05348462e-02
      8.10372736e-03 4.83522415e-02 8.10372736e-03 1.16153434e-02
      1.26958396e-02 6.21285802e-03 1.08049707e-02 2.99837925e-02
      6.75310660e-03 4.59211227e-03 1.21555915e-02 5.40248537e-03
      1.10750943e-02 8.37385189e-03 3.24149104e-03 4.59211227e-03
      7.56347924e-03 1.51269585e-02 8.64397641e-03 1.53970830e-02
      7.02323066e-03 6.21285802e-03 8.37385189e-03 1.10750943e-02
      1.10750943e-02 9.45434906e-03 9.45434906e-03 1.35062132e-02
      9.45434906e-03 7.83360377e-03 8.64397641e-03 1.24257160e-02
      5.67260943e-03 3.24149104e-03 6.48298208e-03 3.02539170e-02
      5.94273349e-03 6.21285802e-03 1.16153434e-02 7.02323066e-03
      8.91410094e-03 1.80983245e-02 4.05186368e-03 7.83360377e-03
      9.99459717e-03 9.99459717e-03 4.86223679e-03 8.10372736e-03
      1.05348462e-02 1.05348462e-02 1.13452189e-02 2.29605623e-02
      7.02323066e-03 1.43165858e-02 1.94489472e-02 9.72447358e-03
      6.75310660e-03 3.78173962e-03 9.45434906e-03 3.24149104e-03
      9.99459717e-03 6.75310660e-03 1.35062132e-02 3.78173962e-03
      3.51161533e-03 6.75310660e-03 2.16099410e-03 1.05348462e-02
      1.05348462e-02 7.56347924e-03 9.18422453e-03 1.64775793e-02
      7.83360377e-03 7.02323066e-03 9.45434906e-03 1.72879528e-02
      7.29335472e-03 8.37385189e-03 8.91410094e-03 1.02647217e-02
      6.75310660e-03 7.56347924e-03 9.99459717e-03 1.08049707e-02
      8.64397641e-03 7.56347924e-03 5.94273349e-03 8.64397641e-03
      1.10750943e-02 5.94273349e-03 1.21555915e-02 1.40464613e-02</_>
    <_>
      1.12359552e-02 5.07430220e-03 1.34106558e-02 1.05110547e-02
      6.16165297e-03 5.43675246e-03 2.57339608e-02 1.63102578e-02
      8.69880430e-03 4.27691191e-02 1.01486044e-02 1.55853573e-02
      1.34106558e-02 1.70351584e-02 1.19608557e-02 2.75462121e-02
      1.12359552e-02 8.69880430e-03 5.43675246e-03 5.43675246e-03
      1.01486044e-02 8.69880430e-03 2.53715110e-03 3.26205138e-03
      1.34106558e-02 7.97390379e-03 6.88655302e-03 1.08735049e-02
      4.34940215e-03 6.88655302e-03 6.16165297e-03 2.06596591e-02
      1.55853573e-02 4.71185194e-03 6.16165297e-03 1.55853573e-02
      8.69880430e-03 1.08735049e-02 7.24900328e-03 1.12359552e-02
      1.12359552e-02 8.33635405e-03 3.26205138e-03 4.85683233e-02
      5.43675246e-03 5.07430220e-03 2.31968109e-02 7.61145353e-03
      1.05110547e-02 1.48604568e-02 5.07430220e-03 7.24900328e-03
      5.79920271e-03 9.06125363e-03 4.34940215e-03 6.16165297e-03
      8.69880430e-03 7.61145353e-03 1.41355563e-02 3.62450145e-02
      2.89960136e-03 1.55853573e-02 1.08735049e-02 1.08735054e-03
      6.52410276e-03 3.62450164e-03 1.23233059e-02 4.34940215e-03
      5.79920271e-03 3.98695190e-03 1.48604568e-02 4.34940215e-03
      7.24900328e-03 7.24900328e-03 5.07430220e-03 4.71185194e-03
      2.89960136e-03 3.98695190e-03 9.42370389e-03 1.19608557e-02
      7.24900328e-03 3.98695190e-03 2.39217114e-02 9.78615414e-03
      5.07430220e-03 9.42370389e-03 1.15984054e-02 1.05110547e-02
      2.89960136e-03 1.08735054e-03 9.78615414e-03 1.34106558e-02
      5.07430220e-03 6.16165297e-03 1.08735049e-02 6.52410276e-03
      6.88655302e-03 2.17470108e-03 1.15984054e-02 6.88655302e-03</_>
    <_>
      1.10330991e-02 9.52858571e-03 8.02407227e-03 1.30391177e-02
      5.51654957e-03 1.30391177e-02 1.75526571e-02 1.35406218e-02
      4.51354077e-03 6.67001009e-02 8.02407227e-03 6.01805421e-03
      9.02708154e-03 6.01805421e-03 8.02407227e-03 4.21263799e-02
      9.02708154e-03 9.52858571e-03 5.51654957e-03 7.52256764e-03
      1.25376126e-02 7.52256764e-03 2.00601807e-03 7.02106301e-03
      1.40421260e-02 8.02407227e-03 8.02407227e-03 6.51955884e-03
      4.51354077e-03 7.52256764e-03 4.51354077e-03 1.50451353e-02
      6.51955884e-03 4.51354077e-03 5.01504494e-03 1.20361084e-02
      4.51354077e-03 7.02106301e-03 5.51654957e-03 1.05315950e-02
      9.52858571e-03 7.02106301e-03 2.50752247e-03 6.36910722e-02
      5.01504494e-03 2.50752247e-03 7.02106301e-03 5.01504494e-03
      9.02708154e-03 2.30692085e-02 9.52858571e-03 7.02106301e-03
      3.51053150e-03 1.25376126e-02 4.51354077e-03 1.00300899e-02
      9.52858571e-03 1.15346042e-02 1.65496487e-02 1.60481445e-02
      8.02407227e-03 2.35707127e-02 1.35406218e-02 1.50451355e-03
      4.01203614e-03 1.50451355e-03 7.02106301e-03 2.00601807e-03
      7.02106301e-03 3.51053150e-03 2.00601798e-02 2.50752247e-03
      7.52256764e-03 1.00300899e-02 3.00902710e-03 8.52557644e-03
      2.70812437e-02 1.00300899e-02 1.15346042e-02 1.50451353e-02
      4.51354077e-03 9.02708154e-03 7.02106301e-03 1.20361084e-02
      3.51053150e-03 1.15346042e-02 1.25376126e-02 5.51654957e-03
      3.51053150e-03 4.51354077e-03 5.51654957e-03 1.05315950e-02
      1.05315950e-02 2.50752247e-03 4.51354077e-03 1.15346042e-02
      4.51354077e-03 1.50451355e-03 1.10330991e-02 1.55466404e-02</_>
    <_>
      1.14408294e-02 6.43546646e-03 1.68037191e-02 1.43010365e-02
      5.00536291e-03 5.00536291e-03 1.53736146e-02 1.07257776e-02
      8.22309591e-03 5.25563098e-02 1.00107258e-02 8.22309591e-03
      1.17983557e-02 7.15051824e-03 6.43546646e-03 2.00214516e-02
      1.10833040e-02 7.86557049e-03 1.10833040e-02 4.29031113e-03
      1.17983557e-02 4.64783702e-03 3.57525912e-03 4.64783702e-03
      8.58062226e-03 1.32284593e-02 3.21773323e-03 2.10940298e-02
      3.93278524e-03 5.00536291e-03 2.50268145e-03 1.96639262e-02
      7.50804413e-03 4.64783702e-03 5.00536291e-03 2.21666079e-02
      6.07794058e-03 1.35859847e-02 4.29031113e-03 7.15051824e-03
      8.93814769e-03 7.86557049e-03 5.00536291e-03 4.61208448e-02
      5.72041469e-03 5.36288880e-03 2.68144440e-02 8.22309591e-03
      6.07794058e-03 2.21666079e-02 8.58062226e-03 6.07794058e-03
      6.79299235e-03 6.79299235e-03 2.50268145e-03 1.14408294e-02
      1.32284593e-02 3.93278524e-03 1.46585628e-02 3.43224891e-02
      5.36288880e-03 2.00214516e-02 1.28709329e-02 3.57525912e-03
      5.36288880e-03 1.78762956e-03 1.07257776e-02 9.65319946e-03
      6.43546646e-03 2.50268145e-03 3.46800126e-02 6.79299235e-03
      2.14515557e-03 5.72041469e-03 2.14515557e-03 2.50268145e-03
      1.32284593e-02 5.72041469e-03 1.00107258e-02 1.25134075e-02
      8.22309591e-03 4.29031113e-03 2.03789771e-02 1.53736146e-02
      6.79299235e-03 6.43546646e-03 3.21773323e-03 1.00107258e-02
      1.07257778e-03 1.43010367e-03 3.93278524e-03 1.32284593e-02
      7.15051824e-03 7.50804413e-03 6.43546646e-03 8.58062226e-03
      6.43546646e-03 6.43546646e-03 8.58062226e-03 1.39435111e-02</_>
    <_>
      1.03773586e-02 9.74842813e-03 1.10062892e-02 9.43396240e-03
      9.11949668e-03 5.34591172e-03 1.76100638e-02 6.60377368e-03
      1.19496854e-02 3.14465426e-02 1.13207549e-02 8.80503189e-03
      1.06918234e-02 1.41509436e-02 8.49056616e-03 1.98113210e-02
      1.28930816e-02 6.91823894e-03 1.41509436e-02 5.97484270e-03
      8.17610044e-03 1.19496854e-02 4.40251594e-03 5.97484270e-03
      1.03773586e-02 1.28930816e-02 7.23270420e-03 8.80503189e-03
      7.54716992e-03 8.49056616e-03 5.97484270e-03 1.10062892e-02
      1.13207549e-02 6.91823894e-03 9.74842813e-03 2.01257858e-02
      8.80503189e-03 1.66666675e-02 1.06918234e-02 5.03144646e-03
      4.08805022e-03 9.43396240e-03 2.83018872e-03 3.77358496e-02
      5.34591172e-03 5.97484270e-03 1.60377361e-02 9.43396240e-03
      8.49056616e-03 8.80503189e-03 5.66037744e-03 3.45911947e-03
      5.66037744e-03 1.44654084e-02 5.97484270e-03 5.34591172e-03
      6.91823894e-03 9.74842813e-03 8.80503189e-03 3.23899388e-02
      5.97484270e-03 1.35220122e-02 1.10062892e-02 5.03144646e-03
      6.60377368e-03 5.66037744e-03 9.11949668e-03 9.11949668e-03
      7.23270420e-03 1.25786159e-02 1.22641511e-02 9.74842813e-03
      6.91823894e-03 7.23270420e-03 7.23270420e-03 5.34591172e-03
      4.40251594e-03 9.43396240e-03 6.91823894e-03 1.44654084e-02
      5.66037744e-03 6.60377368e-03 2.07547173e-02 9.74842813e-03
      4.40251594e-03 1.10062892e-02 1.22641511e-02 1.35220122e-02
      8.17610044e-03 4.40251594e-03 5.97484270e-03 1.41509436e-02
      7.86163565e-03 6.91823894e-03 5.03144646e-03 1.00628929e-02
      8.80503189e-03 6.91823894e-03 2.20125783e-02 1.13207549e-02</_>
    <_>
      1.04311546e-02 9.04033426e-03 1.52990269e-02 1.80806685e-02
      7.64951343e-03 5.56328241e-03 3.47705139e-03 6.25869259e-03
      1.46036157e-02 9.73574445e-03 1.73852574e-02 6.95410278e-03
      1.46036157e-02 5.56328241e-03 1.04311546e-02 1.80806685e-02
      9.73574445e-03 7.64951343e-03 1.52990269e-02 1.04311546e-02
      5.56328241e-03 1.32127954e-02 6.95410278e-03 5.56328241e-03
      8.34492315e-03 1.04311546e-02 5.56328241e-03 4.86787222e-03
      9.04033426e-03 1.32127954e-02 9.73574445e-03 6.95410278e-03
      1.11265648e-02 6.95410278e-03 6.95410278e-03 2.29485389e-02
      6.25869259e-03 6.25869259e-03 7.64951343e-03 8.34492315e-03
      1.04311546e-02 2.78164120e-03 1.11265648e-02 1.80806685e-02
      8.34492315e-03 5.56328241e-03 1.52990269e-02 1.32127954e-02
      5.56328241e-03 2.08623079e-03 6.95410278e-03 1.18219750e-02
      8.34492315e-03 1.25173852e-02 4.86787222e-03 7.64951343e-03
      1.52990269e-02 1.52990269e-02 2.78164120e-03 3.54659259e-02
      1.46036157e-02 9.04033426e-03 1.04311546e-02 9.73574445e-03
      1.11265648e-02 4.17246157e-03 1.52990269e-02 6.25869259e-03
      1.32127954e-02 2.08623079e-03 1.32127954e-02 1.04311546e-02
      6.25869259e-03 8.34492315e-03 6.95410301e-04 9.04033426e-03
      2.78164120e-03 6.25869259e-03 8.34492315e-03 2.01668981e-02
      5.56328241e-03 2.29485389e-02 9.04033426e-03 1.39082056e-02
      1.32127954e-02 1.11265648e-02 1.39082056e-02 1.32127954e-02
      1.39082056e-02 7.64951343e-03 1.52990269e-02 9.73574445e-03
      9.04033426e-03 4.86787222e-03 6.25869259e-03 9.04033426e-03
      2.08623079e-03 7.64951343e-03 1.46036157e-02 9.73574445e-03</_>
    <_>
      1.65692009e-02 1.41325537e-02 1.94931775e-02 1.65692009e-02
      1.31578948e-02 8.28460045e-03 1.21832360e-02 9.74658877e-03
      4.87329438e-03 1.55945420e-02 7.79727101e-03 9.74658877e-03
      6.82261214e-03 6.82261214e-03 1.90058481e-02 2.48538014e-02
      1.46198831e-02 1.02339182e-02 1.02339182e-02 7.30994157e-03
      9.74658877e-03 1.46198831e-02 2.92397663e-03 8.28460045e-03
      1.21832360e-02 1.26705654e-02 4.87329438e-03 8.28460045e-03
      5.36062382e-03 1.21832360e-02 4.38596494e-03 1.31578948e-02
      1.12085771e-02 8.77192989e-03 1.21832360e-02 9.74658877e-03
      1.02339182e-02 1.65692009e-02 8.28460045e-03 7.79727101e-03
      3.41130607e-03 7.79727101e-03 9.25925933e-03 1.26705654e-02
      2.43664719e-03 6.33528270e-03 6.33528270e-03 1.12085771e-02
      9.25925933e-03 7.79727101e-03 5.36062382e-03 6.33528270e-03
      7.30994157e-03 1.31578948e-02 7.30994157e-03 1.12085771e-02
      8.28460045e-03 1.02339182e-02 1.16959065e-02 1.90058481e-02
      1.36452243e-02 9.74658877e-03 9.74658877e-03 6.82261214e-03
      5.84795326e-03 6.82261214e-03 1.31578948e-02 6.33528270e-03
      1.46198831e-02 8.77192989e-03 1.07212476e-02 4.38596494e-03
      4.38596494e-03 7.79727101e-03 2.92397663e-03 8.77192989e-03
      1.16959065e-02 6.33528270e-03 9.25925933e-03 1.65692009e-02
      6.33528270e-03 7.79727101e-03 1.60818715e-02 7.30994157e-03
      9.25925933e-03 1.21832360e-02 9.25925933e-03 1.12085771e-02
      9.25925933e-03 5.36062382e-03 1.60818715e-02 2.19298247e-02
      5.36062382e-03 1.21832360e-02 9.25925933e-03 5.36062382e-03
      8.28460045e-03 4.87329438e-03 1.60818715e-02 1.02339182e-02</_>
    <_>
      7.66057754e-03 1.00176781e-02 1.17855035e-02 1.11962287e-02
      1.76782557e-03 1.17855035e-02 1.94460806e-02 1.06069539e-02
      5.89275174e-03 3.35886851e-02 6.48202701e-03 3.53565114e-03
      8.24985281e-03 9.42840334e-03 1.41426045e-02 4.12492640e-02
      7.66057754e-03 6.48202701e-03 4.12492640e-03 5.30347694e-03
      8.24985281e-03 5.89275174e-03 2.94637587e-03 7.07130227e-03
      1.17855035e-02 1.17855035e-02 6.48202701e-03 1.17855035e-02
      5.89275174e-03 1.06069539e-02 4.12492640e-03 2.41602827e-02
      1.29640540e-02 8.24985281e-03 5.89275209e-04 9.42840334e-03
      4.71420167e-03 7.66057754e-03 4.71420167e-03 1.59104299e-02
      4.71420167e-03 8.83912761e-03 1.00176781e-02 2.82852091e-02
      6.48202701e-03 1.23747792e-02 1.41426045e-02 1.06069539e-02
      8.83912761e-03 2.29817331e-02 1.17855035e-02 5.89275174e-03
      1.76782557e-03 7.66057754e-03 4.71420167e-03 1.29640540e-02
      1.17855035e-02 8.83912761e-03 1.70889813e-02 2.53388342e-02
      1.35533297e-02 1.17855035e-02 5.89275174e-03 6.48202701e-03
      4.71420167e-03 2.94637587e-03 1.06069539e-02 8.83912761e-03
      7.07130227e-03 5.30347694e-03 1.35533297e-02 4.12492640e-03
      6.48202701e-03 7.07130227e-03 1.00176781e-02 5.30347694e-03
      6.48202701e-03 7.07130227e-03 1.29640540e-02 7.66057754e-03
      3.53565114e-03 1.29640540e-02 1.53211551e-02 1.23747792e-02
      1.06069539e-02 1.11962287e-02 1.17855035e-02 9.42840334e-03
      8.24985281e-03 6.48202701e-03 7.07130227e-03 1.06069539e-02
      1.00176781e-02 3.53565114e-03 1.00176781e-02 1.17855035e-02
      2.94637587e-03 6.48202701e-03 2.71066595e-02 1.00176781e-02</_>
    <_>
      8.58152471e-03 4.54316009e-03 1.31246848e-02 7.06713786e-03
      9.59111564e-03 4.03836463e-03 2.12014131e-02 1.11055020e-02
      1.61534585e-02 3.63452807e-02 6.56234240e-03 8.58152471e-03
      1.11055020e-02 4.54316009e-03 6.56234240e-03 3.78596671e-02
      1.21150929e-02 7.57193333e-03 7.06713786e-03 6.05754647e-03
      6.56234240e-03 9.59111564e-03 6.05754647e-03 5.04795555e-03
      6.05754647e-03 7.57193333e-03 2.52397778e-03 8.07672925e-03
      7.57193333e-03 6.05754647e-03 3.53356893e-03 2.42301859e-02
      7.57193333e-03 5.55275101e-03 5.55275101e-03 6.56234240e-03
      5.55275101e-03 1.61534585e-02 6.56234240e-03 1.81726404e-02
      1.26198893e-02 3.53356893e-03 4.54316009e-03 3.33165079e-02
      8.07672925e-03 2.52397778e-03 1.36294803e-02 7.57193333e-03
      7.57193333e-03 2.22110040e-02 8.07672925e-03 4.54316009e-03
      5.55275101e-03 8.07672925e-03 4.54316009e-03 1.16102975e-02
      1.00959111e-02 5.04795555e-03 1.46390712e-02 3.58404852e-02
      6.56234240e-03 7.06713786e-03 1.26198893e-02 8.58152471e-03
      3.53356893e-03 7.06713786e-03 6.05754647e-03 5.55275101e-03
      7.57193333e-03 5.04795555e-03 1.91822313e-02 1.16102975e-02
      5.04795555e-03 1.00959111e-02 1.51438667e-02 1.51438667e-02
      1.51438667e-02 1.21150929e-02 6.56234240e-03 8.58152471e-03
      5.04795555e-03 6.56234240e-03 2.01918222e-02 1.66582540e-02
      7.57193333e-03 4.54316009e-03 2.17062086e-02 1.21150929e-02
      7.06713786e-03 3.02877324e-03 6.56234240e-03 7.06713786e-03
      1.00959116e-03 6.05754647e-03 2.52397778e-03 7.06713786e-03
      7.57193333e-03 6.05754647e-03 2.47349832e-02 1.06007066e-02</_>
    <_>
      1.10668438e-02 8.41080118e-03 1.37228863e-02 1.50509076e-02
      4.86941123e-03 7.52545381e-03 2.25763619e-02 1.01814959e-02
      5.31208515e-03 2.83311196e-02 1.15095172e-02 8.41080118e-03
      7.96812773e-03 7.08277989e-03 8.41080118e-03 3.09871621e-02
      9.29614902e-03 4.42673732e-03 7.08277989e-03 6.19743252e-03
      6.64010644e-03 1.68216024e-02 3.54138995e-03 5.31208515e-03
      8.41080118e-03 1.46082342e-02 7.96812773e-03 1.50509076e-02
      8.41080118e-03 4.42673732e-03 8.41080118e-03 1.06241703e-02
      8.41080118e-03 7.52545381e-03 8.85347463e-03 1.50509076e-02
      6.64010644e-03 1.19521916e-02 7.08277989e-03 1.41655598e-02
      6.19743252e-03 5.31208515e-03 4.42673732e-03 2.47897301e-02
      6.19743252e-03 2.21336866e-03 1.37228863e-02 8.85347463e-03
      8.85347463e-03 2.39043832e-02 4.86941123e-03 1.01814959e-02
      6.19743252e-03 9.73882247e-03 4.42673732e-03 1.01814959e-02
      7.08277989e-03 4.42673732e-03 2.12483406e-02 2.03629918e-02
      7.52545381e-03 1.41655598e-02 6.19743252e-03 6.19743252e-03
      7.96812773e-03 4.86941123e-03 6.64010644e-03 9.29614902e-03
      1.10668438e-02 8.85347463e-03 1.68216024e-02 3.09871626e-03
      6.19743252e-03 9.73882247e-03 7.52545381e-03 8.85347463e-03
      7.52545381e-03 1.06241703e-02 7.52545381e-03 1.68216024e-02
      3.54138995e-03 1.23948650e-02 1.54935811e-02 1.59362555e-02
      5.75475860e-03 6.19743252e-03 1.81496236e-02 9.29614902e-03
      7.52545381e-03 5.75475860e-03 6.19743252e-03 1.63789280e-02
      6.64010644e-03 1.06241703e-02 6.64010644e-03 9.73882247e-03
      7.08277989e-03 4.42673732e-03 2.25763619e-02 1.06241703e-02</_>
    <_>
      7.52617791e-03 6.87172776e-03 1.11256549e-02 7.52617791e-03
      4.90837684e-03 1.11256549e-02 1.01439795e-02 9.48952883e-03
      9.16230399e-03 5.69371730e-02 7.19895307e-03 9.48952883e-03
      9.16230399e-03 6.54450245e-03 6.54450245e-03 2.02879589e-02
      9.81675368e-03 4.58115200e-03 1.27617801e-02 7.85340276e-03
      7.85340276e-03 3.92670138e-03 4.90837684e-03 5.89005230e-03
      4.90837684e-03 1.40706804e-02 7.85340276e-03 1.66884810e-02
      8.83507822e-03 6.21727761e-03 5.89005230e-03 1.70157067e-02
      6.87172776e-03 6.54450245e-03 5.89005230e-03 9.16230399e-03
      6.21727761e-03 8.83507822e-03 7.85340276e-03 4.90837684e-03
      8.50785337e-03 1.63612561e-03 5.89005230e-03 3.50130908e-02
      8.18062853e-03 5.89005230e-03 1.93062834e-02 7.85340276e-03
      6.54450245e-03 1.60340313e-02 3.27225123e-03 5.56282746e-03
      6.87172776e-03 1.14528798e-02 5.56282746e-03 1.43979061e-02
      9.16230399e-03 6.54450245e-03 1.83246080e-02 3.27225141e-02
      5.23560215e-03 1.86518319e-02 1.43979061e-02 7.52617791e-03
      4.58115200e-03 5.23560215e-03 1.07984291e-02 1.07984291e-02
      6.21727761e-03 4.25392669e-03 1.73429325e-02 6.87172776e-03
      5.56282746e-03 7.85340276e-03 4.25392669e-03 1.04712043e-02
      1.14528798e-02 5.89005230e-03 1.11256549e-02 1.30890049e-02
      5.56282746e-03 8.18062853e-03 3.14136110e-02 1.73429325e-02
      2.94502615e-03 5.89005230e-03 1.01439795e-02 9.81675368e-03
      8.50785337e-03 1.11256549e-02 7.85340276e-03 1.27617801e-02
      5.56282746e-03 4.25392669e-03 4.90837684e-03 1.11256549e-02
      7.85340276e-03 8.50785337e-03 8.83507822e-03 1.76701564e-02</_>
    <_>
      5.32350549e-03 1.06470110e-02 1.51515156e-02 1.96560193e-02
      1.06470110e-02 9.41850897e-03 2.29320228e-02 1.39230136e-02
      6.55200658e-03 2.78460272e-02 1.14660114e-02 1.14660114e-02
      1.06470110e-02 8.59950855e-03 1.43325143e-02 2.86650285e-02
      1.06470110e-02 5.73300570e-03 6.96150679e-03 1.06470110e-02
      1.02375103e-02 1.55610153e-02 5.73300570e-03 7.78050767e-03
      1.02375103e-02 1.10565107e-02 1.31040132e-02 6.96150679e-03
      4.09500394e-03 1.14660114e-02 4.91400482e-03 8.19000788e-03
      9.82800964e-03 6.14250591e-03 5.73300570e-03 9.41850897e-03
      9.82800964e-03 8.19000788e-03 8.19000788e-03 1.31040132e-02
      6.55200658e-03 5.32350549e-03 8.19000788e-03 1.63800158e-02
      3.68550373e-03 8.19000788e-03 6.14250591e-03 7.37100746e-03
      1.35135138e-02 1.35135138e-02 4.91400482e-03 9.00900923e-03
      1.02375103e-02 1.10565107e-02 7.37100746e-03 9.41850897e-03
      8.59950855e-03 8.59950855e-03 1.84275191e-02 1.26945125e-02
      1.06470110e-02 9.00900923e-03 8.59950855e-03 3.68550373e-03
      4.50450461e-03 1.63800165e-03 1.22850118e-02 6.14250591e-03
      1.06470110e-02 6.55200658e-03 1.26945125e-02 9.00900923e-03
      2.86650285e-03 1.31040132e-02 6.96150679e-03 1.06470110e-02
      1.26945125e-02 8.19000788e-03 1.18755121e-02 1.31040132e-02
      5.73300570e-03 1.10565107e-02 1.26945125e-02 1.26945125e-02
      4.09500394e-03 1.26945125e-02 1.06470110e-02 1.35135138e-02
      6.55200658e-03 4.50450461e-03 2.04750206e-02 2.12940220e-02
      5.73300570e-03 4.91400482e-03 6.96150679e-03 9.41850897e-03
      8.19000788e-03 6.55200658e-03 8.19000788e-03 9.00900923e-03</_>
    <_>
      3.18627469e-02 1.22549022e-02 0. 1.22549022e-02 1.22549022e-02
      2.45098048e-03 4.90196096e-03 0. 1.96078438e-02 9.31372568e-02
      7.35294120e-03 4.90196096e-03 9.80392192e-03 1.71568636e-02 0.
      2.69607846e-02 4.90196096e-03 2.45098043e-02 4.90196096e-03
      4.90196096e-03 4.90196096e-03 4.90196096e-03 9.80392192e-03
      4.90196096e-03 1.71568636e-02 1.71568636e-02 4.90196096e-03
      2.45098048e-03 0. 1.22549022e-02 7.35294120e-03 2.45098048e-03
      2.45098048e-03 4.90196096e-03 2.45098048e-03 1.96078438e-02
      1.22549022e-02 1.22549022e-02 7.35294120e-03 0. 2.45098048e-03
      1.47058824e-02 1.47058824e-02 3.43137272e-02 9.80392192e-03
      4.90196096e-03 1.71568636e-02 7.35294120e-03 0. 7.35294120e-03
      9.80392192e-03 4.90196096e-03 1.47058824e-02 2.45098048e-03
      2.45098048e-03 9.80392192e-03 2.45098048e-03 0. 2.45098048e-03
      1.47058824e-02 2.94117648e-02 0. 7.35294120e-03 7.35294120e-03
      2.45098048e-03 3.18627469e-02 1.47058824e-02 0. 9.80392192e-03
      9.80392192e-03 2.45098048e-03 1.96078438e-02 4.90196096e-03
      9.80392192e-03 7.35294120e-03 0. 2.20588241e-02 0. 0.
      9.80392192e-03 2.20588241e-02 9.80392192e-03 3.67647074e-02
      2.45098048e-03 1.47058824e-02 1.22549022e-02 1.47058824e-02
      2.45098048e-03 4.90196096e-03 2.45098048e-03 2.45098048e-03
      7.35294120e-03 4.90196096e-03 2.45098048e-03 7.35294120e-03
      1.71568636e-02 7.35294120e-03 9.80392192e-03 9.80392192e-03 0.</_>
    <_>
      2.08333340e-02 5.95238106e-03 2.97619053e-03 2.97619053e-03
      5.95238106e-03 8.92857183e-03 8.92857183e-03 5.95238106e-03
      1.48809524e-02 6.84523806e-02 1.19047621e-02 5.95238106e-03
      2.97619053e-03 2.97619049e-02 1.19047621e-02 2.67857146e-02
      5.95238106e-03 1.19047621e-02 2.97619053e-03 2.97619053e-03
      5.95238106e-03 0. 1.78571437e-02 1.19047621e-02 8.92857183e-03
      5.95238106e-03 0. 0. 2.67857146e-02 1.19047621e-02 5.95238106e-03
      2.97619053e-03 1.19047621e-02 5.95238106e-03 2.97619053e-03
      1.48809524e-02 2.97619053e-03 2.97619049e-02 8.92857183e-03
      8.92857183e-03 0. 1.48809524e-02 2.38095243e-02 8.92857183e-03 0.
      2.97619053e-03 5.95238106e-03 2.97619053e-03 2.97619053e-03
      1.48809524e-02 3.27380970e-02 0. 5.95238106e-03 5.95238106e-03
      1.48809524e-02 2.97619053e-03 2.97619053e-03 0. 2.97619053e-03
      2.08333340e-02 5.95238106e-03 0. 0. 3.86904776e-02 1.19047621e-02
      2.97619053e-03 2.08333340e-02 8.92857183e-03 8.92857183e-03 0. 0.
      8.92857183e-03 2.97619049e-02 2.97619053e-03 1.19047621e-02
      2.38095243e-02 1.48809524e-02 0. 0. 2.08333340e-02 1.19047621e-02
      1.19047621e-02 2.97619053e-03 0. 1.48809524e-02 5.95238106e-03
      1.48809524e-02 2.97619053e-03 5.95238106e-03 8.92857183e-03
      2.97619053e-03 1.19047621e-02 8.92857183e-03 1.19047621e-02
      2.08333340e-02 2.38095243e-02 5.95238106e-03 2.97619053e-03
      5.95238106e-03 2.97619053e-03</_>
    <_>
      2.43902430e-02 4.87804879e-03 2.43902439e-03 9.75609757e-03
      1.46341464e-02 9.75609757e-03 7.31707318e-03 2.43902439e-03
      9.75609757e-03 3.65853645e-02 1.46341464e-02 0. 2.43902439e-03
      2.43902430e-02 1.21951215e-02 3.17073166e-02 1.70731712e-02
      7.31707318e-03 2.43902439e-03 4.87804879e-03 0. 4.87804879e-03
      2.19512191e-02 4.87804879e-03 7.31707318e-03 1.46341464e-02
      2.43902439e-03 2.43902439e-03 7.31707318e-03 2.43902439e-03
      1.21951215e-02 0. 1.21951215e-02 4.87804879e-03 4.87804879e-03
      9.75609757e-03 1.21951215e-02 3.90243903e-02 2.43902439e-03
      1.70731712e-02 2.43902439e-03 7.31707318e-03 2.19512191e-02
      1.46341464e-02 1.21951215e-02 2.43902439e-03 2.92682927e-02 0.
      4.87804879e-03 2.68292688e-02 9.75609757e-03 4.87804879e-03
      1.70731712e-02 0. 7.31707318e-03 1.46341464e-02 0. 7.31707318e-03
      9.75609757e-03 3.90243903e-02 1.21951215e-02 9.75609757e-03
      4.87804879e-03 4.87804879e-03 4.87804879e-03 4.87804879e-03
      3.17073166e-02 4.87804879e-03 7.31707318e-03 1.70731712e-02 0.
      7.31707318e-03 1.46341464e-02 7.31707318e-03 4.87804879e-03
      1.21951215e-02 2.19512191e-02 4.87804879e-03 7.31707318e-03
      1.70731712e-02 4.87804879e-03 7.31707318e-03 2.43902430e-02
      7.31707318e-03 2.92682927e-02 2.43902439e-03 1.21951215e-02
      2.43902439e-03 4.87804879e-03 2.43902439e-03 0. 9.75609757e-03
      2.43902439e-03 7.31707318e-03 0. 7.31707318e-03 2.43902439e-03
      1.46341464e-02 4.87804879e-03 0.</_>
    <_>
      8.26446246e-03 8.26446246e-03 8.26446246e-03 5.50964195e-03
      5.50964195e-03 2.75482098e-03 5.50964177e-02 2.75482098e-03
      1.65289249e-02 3.58126722e-02 1.92837473e-02 0. 0. 8.26446246e-03
      0. 6.06060624e-02 5.50964195e-03 1.10192839e-02 0. 8.26446246e-03
      0. 2.75482098e-03 0. 1.10192839e-02 2.75482098e-03 8.26446246e-03
      0. 2.75482098e-03 2.20385678e-02 1.65289249e-02 1.37741044e-02
      1.10192839e-02 1.92837473e-02 2.75482098e-03 8.26446246e-03
      2.75482088e-02 2.75482098e-03 1.37741044e-02 2.75482098e-03
      2.20385678e-02 2.75482098e-03 5.50964195e-03 1.10192839e-02
      6.33608848e-02 8.26446246e-03 0. 3.58126722e-02 2.75482098e-03
      8.26446246e-03 2.75482088e-02 5.50964195e-03 2.75482098e-03
      1.92837473e-02 0. 8.26446246e-03 1.65289249e-02 2.75482098e-03
      2.75482098e-03 2.20385678e-02 2.75482088e-02 8.26446246e-03
      2.75482098e-03 0. 0. 2.75482098e-03 2.75482098e-03 1.37741044e-02
      2.20385678e-02 2.75482098e-03 5.50964195e-03 0. 5.50964195e-03
      8.26446246e-03 0. 2.75482098e-03 1.10192839e-02 2.20385678e-02
      5.50964195e-03 2.75482098e-03 2.20385678e-02 8.26446246e-03
      2.75482098e-03 1.10192839e-02 0. 3.30578499e-02 1.92837473e-02
      5.50964195e-03 2.75482098e-03 5.50964195e-03 5.50964195e-03 0.
      2.75482098e-03 0. 0. 2.75482098e-03 5.50964195e-03 0.
      1.37741044e-02 1.37741044e-02 2.75482098e-03</_>
    <_>
      1.66666672e-01 0. 0. 0. 1.66666672e-01 0. 0. 0. 0. 0. 0. 0. 0. 0.
      0. 0. 0. 0. 0. 0. 0. 0. 1.66666672e-01 0. 0. 1.66666672e-01 0. 0.
      0. 0. 0. 0. 0. 0. 0. 0. 0. 0. 0. 0. 0. 0. 0. 0. 0. 0. 0. 0. 0. 0.
      0. 0. 0. 0. 0. 0. 0. 0. 0. 0. 0. 0. 0. 0. 0. 0. 0. 0. 0. 0. 0. 0.
      0. 0. 0. 0. 0. 0. 0. 0. 0. 1.66666672e-01 0. 0. 1.66666672e-01 0.
      0. 0. 0. 0. 0. 0. 0. 0. 0. 0. 0. 0. 0. 0.</_>
    <_>
      1.47275403e-02 1.17820324e-02 4.41826228e-03 1.03092780e-02
      1.32547868e-02 1.47275405e-03 7.36377016e-03 5.89101622e-03
      8.83652456e-03 3.68188508e-02 1.47275403e-02 5.89101622e-03
      2.94550811e-03 1.47275403e-02 7.36377016e-03 4.12371121e-02
      5.89101622e-03 1.03092780e-02 7.36377016e-03 7.36377016e-03
      1.47275405e-03 8.83652456e-03 2.94550811e-03 5.89101622e-03
      2.94550811e-03 1.76730491e-02 7.36377016e-03 1.47275405e-03
      5.89101622e-03 4.41826228e-03 1.47275403e-02 4.56553772e-02
      8.83652456e-03 1.03092780e-02 1.17820324e-02 8.83652456e-03
      1.03092780e-02 1.47275403e-02 4.41826228e-03 2.06185561e-02
      1.32547868e-02 1.47275403e-02 5.89101622e-03 4.71281298e-02
      5.89101622e-03 1.03092780e-02 1.03092780e-02 4.41826228e-03
      5.89101622e-03 2.35640649e-02 1.47275405e-03 1.62002947e-02
      4.41826228e-03 1.03092780e-02 7.36377016e-03 1.47275403e-02 0.
      8.83652456e-03 1.32547868e-02 1.03092780e-02 1.47275403e-02
      5.89101622e-03 2.06185561e-02 7.36377016e-03 1.32547868e-02
      1.03092780e-02 7.36377016e-03 4.41826228e-03 5.89101622e-03
      8.83652456e-03 0. 1.17820324e-02 1.47275405e-03 2.94550811e-03
      5.89101622e-03 7.36377016e-03 7.36377016e-03 7.36377016e-03
      4.41826228e-03 5.89101622e-03 5.89101622e-03 8.83652456e-03
      1.62002947e-02 8.83652456e-03 1.76730491e-02 1.62002947e-02
      4.41826228e-03 7.36377016e-03 2.94550811e-03 4.41826228e-03
      5.89101622e-03 7.36377016e-03 1.47275405e-03 1.47275405e-03
      5.89101622e-03 2.06185561e-02 8.83652456e-03 1.47275403e-02
      1.03092780e-02 7.36377016e-03</_>
    <_>
      1.87793430e-02 6.25978084e-03 0. 1.56494528e-02 1.40845068e-02
      4.69483575e-03 1.25195617e-02 3.12989042e-03 1.25195617e-02
      3.91236320e-02 6.25978084e-03 6.25978084e-03 3.12989042e-03
      1.40845068e-02 1.25195617e-02 2.66040694e-02 2.19092332e-02
      7.82472640e-03 0. 7.82472640e-03 7.82472640e-03 1.25195617e-02
      9.38967150e-03 7.82472640e-03 1.56494521e-03 2.03442872e-02
      9.38967150e-03 0. 3.12989042e-03 1.25195617e-02 4.69483575e-03
      9.38967150e-03 3.59937400e-02 7.82472640e-03 4.69483575e-03
      9.38967150e-03 1.56494521e-03 2.97339596e-02 4.69483575e-03
      6.25978084e-03 6.25978084e-03 3.12989042e-03 1.72143970e-02
      1.09546166e-02 7.82472640e-03 4.69483575e-03 1.25195617e-02
      9.38967150e-03 6.25978084e-03 2.19092332e-02 7.82472640e-03
      4.69483575e-03 1.40845068e-02 4.69483575e-03 7.82472640e-03
      7.82472640e-03 6.25978084e-03 6.25978084e-03 1.09546166e-02
      2.03442872e-02 7.82472640e-03 3.12989042e-03 3.12989042e-03
      7.82472640e-03 6.25978084e-03 1.09546166e-02 2.03442872e-02
      7.82472640e-03 1.56494528e-02 1.56494528e-02 0. 6.25978084e-03
      1.09546166e-02 1.09546166e-02 1.09546166e-02 7.82472640e-03
      1.09546166e-02 0. 7.82472640e-03 2.81690136e-02 1.09546166e-02
      3.12989042e-03 1.40845068e-02 3.12989042e-03 2.34741792e-02
      9.38967150e-03 1.56494528e-02 1.56494521e-03 2.03442872e-02
      6.25978084e-03 4.69483575e-03 1.40845068e-02 3.12989042e-03
      6.25978084e-03 7.82472640e-03 6.25978084e-03 6.25978084e-03
      7.82472640e-03 1.25195617e-02 7.82472640e-03</_>
    <_>
      1.32743362e-02 2.21238937e-03 6.63716812e-03 1.32743362e-02
      1.76991150e-02 0. 0. 6.63716812e-03 8.84955749e-03 6.85840696e-02
      4.42477874e-03 0. 0. 2.21238937e-03 4.42477874e-03 3.09734512e-02
      1.10619469e-02 1.32743362e-02 6.63716812e-03 6.63716812e-03 0.
      8.84955749e-03 2.21238937e-03 1.32743362e-02 0. 1.10619469e-02
      4.42477874e-03 2.21238937e-03 4.42477874e-03 1.10619469e-02
      2.43362840e-02 2.65486725e-02 4.42477874e-03 8.84955749e-03
      1.99115053e-02 2.21238937e-02 4.42477874e-03 2.43362840e-02
      1.10619469e-02 1.54867256e-02 0. 4.42477874e-03 6.63716812e-03
      9.51327458e-02 6.63716812e-03 0. 1.32743362e-02 2.21238937e-03
      1.10619469e-02 2.21238937e-02 0. 8.84955749e-03 6.63716812e-03 0.
      2.21238937e-03 2.21238937e-03 6.63716812e-03 8.84955749e-03
      6.63716812e-03 3.31858397e-02 2.21238937e-02 6.63716812e-03
      6.63716812e-03 6.63716812e-03 4.42477874e-03 6.63716812e-03
      8.84955749e-03 6.63716812e-03 8.84955749e-03 8.84955749e-03
      4.42477874e-03 4.42477874e-03 1.76991150e-02 6.63716812e-03
      6.63716812e-03 8.84955749e-03 1.10619469e-02 4.42477874e-03
      2.21238937e-03 1.32743362e-02 0. 6.63716812e-03 1.10619469e-02
      4.42477874e-03 1.10619469e-02 1.54867256e-02 1.10619469e-02
      6.63716812e-03 8.84955749e-03 8.84955749e-03 8.84955749e-03
      1.54867256e-02 6.63716812e-03 6.63716812e-03 0. 1.32743362e-02
      2.21238937e-03 6.63716812e-03 1.10619469e-02 6.63716812e-03</_>
    <_>
      2.67857146e-02 1.11607146e-02 8.92857183e-03 2.00892854e-02
      8.92857183e-03 1.56250000e-02 2.23214291e-02 4.46428591e-03
      1.56250000e-02 1.11607146e-02 8.92857183e-03 8.92857183e-03
      4.46428591e-03 6.69642864e-03 2.45535709e-02 2.23214291e-02
      1.33928573e-02 1.78571437e-02 0. 4.46428591e-03 1.11607146e-02
      2.00892854e-02 8.92857183e-03 4.46428591e-03 6.69642864e-03
      1.11607146e-02 6.69642864e-03 2.23214296e-03 2.23214296e-03
      4.46428591e-03 6.69642864e-03 6.69642864e-03 1.56250000e-02
      6.69642864e-03 2.23214296e-03 2.23214291e-02 4.46428591e-03
      2.00892854e-02 2.23214296e-03 1.56250000e-02 4.46428591e-03
      1.33928573e-02 1.33928573e-02 1.33928573e-02 1.56250000e-02
      4.46428591e-03 4.46428591e-03 2.23214296e-03 1.11607146e-02
      3.34821418e-02 8.92857183e-03 4.46428591e-03 1.78571437e-02
      4.46428591e-03 0. 6.69642864e-03 6.69642864e-03 4.46428591e-03
      4.46428591e-03 1.33928573e-02 1.33928573e-02 8.92857183e-03
      6.69642864e-03 6.69642864e-03 6.69642864e-03 1.33928573e-02
      4.46428591e-03 1.11607146e-02 1.11607146e-02 4.46428591e-03
      1.11607146e-02 2.45535709e-02 2.23214296e-03 8.92857183e-03
      6.69642864e-03 1.11607146e-02 8.92857183e-03 1.11607146e-02
      1.11607146e-02 2.00892854e-02 1.11607146e-02 1.33928573e-02
      6.69642864e-03 0. 2.90178563e-02 6.69642864e-03 8.92857183e-03
      6.69642864e-03 2.23214296e-03 4.46428591e-03 0. 1.11607146e-02 0.
      4.46428591e-03 2.23214296e-03 2.23214291e-02 4.46428591e-03
      1.11607146e-02 2.67857146e-02 0.</_>
    <_>
      1.47679327e-02 8.43881816e-03 2.10970454e-03 1.47679327e-02
      8.43881816e-03 0. 1.26582282e-02 4.21940908e-03 8.43881816e-03
      4.43037972e-02 4.21940908e-03 1.05485236e-02 1.05485236e-02
      1.26582282e-02 4.21940908e-03 5.48523217e-02 1.68776363e-02
      1.47679327e-02 2.10970454e-03 4.21940908e-03 4.21940908e-03
      6.32911408e-03 2.10970454e-03 4.21940908e-03 4.21940908e-03
      1.47679327e-02 4.21940908e-03 8.43881816e-03 1.89873409e-02
      6.32911408e-03 6.32911408e-03 2.32067518e-02 8.43881816e-03
      4.21940908e-03 1.68776363e-02 2.74261609e-02 4.21940908e-03
      3.58649790e-02 0. 1.05485236e-02 1.05485236e-02 8.43881816e-03
      1.26582282e-02 2.10970473e-02 2.10970454e-03 4.21940908e-03
      4.21940908e-03 8.43881816e-03 2.10970454e-03 3.37552726e-02
      4.21940908e-03 6.32911408e-03 8.43881816e-03 6.32911408e-03
      4.21940908e-03 8.43881816e-03 4.21940908e-03 4.21940908e-03
      1.47679327e-02 1.68776363e-02 8.43881816e-03 2.10970454e-03
      8.43881816e-03 4.21940908e-03 4.21940908e-03 6.32911408e-03
      1.68776363e-02 2.32067518e-02 4.21940908e-03 1.26582282e-02
      4.21940908e-03 2.10970454e-03 0. 2.10970454e-03 0. 8.43881816e-03
      1.68776363e-02 4.21940908e-03 2.10970454e-03 2.32067518e-02
      2.10970454e-03 6.32911408e-03 2.53164563e-02 8.43881816e-03
      2.53164563e-02 2.10970454e-03 1.89873409e-02 1.05485236e-02
      8.43881816e-03 2.10970454e-03 2.10970454e-03 2.10970473e-02
      2.10970454e-03 4.21940908e-03 4.21940908e-03 1.89873409e-02
      4.21940908e-03 1.26582282e-02 4.21940908e-03 1.26582282e-02</_>
    <_>
      1.11111114e-02 3.70370364e-03 3.70370364e-03 1.29629625e-02
      1.29629625e-02 3.70370364e-03 3.70370364e-03 9.25925933e-03
      2.77777780e-02 1.38888896e-01 1.66666675e-02 2.59259250e-02 0.
      9.25925933e-03 0. 3.70370373e-02 1.85185182e-03 5.55555569e-03
      1.85185182e-03 5.55555569e-03 0. 1.11111114e-02 3.70370364e-03
      9.25925933e-03 7.40740728e-03 3.70370364e-03 3.70370364e-03
      9.25925933e-03 1.85185182e-03 7.40740728e-03 1.85185182e-03
      7.40740728e-03 1.11111114e-02 1.85185182e-03 3.70370364e-03
      3.88888903e-02 3.70370364e-03 4.25925925e-02 1.85185182e-03
      1.29629625e-02 1.85185182e-03 1.85185182e-03 3.70370364e-03
      7.77777806e-02 0. 3.70370364e-03 2.77777780e-02 1.85185182e-03
      1.11111114e-02 1.11111114e-02 3.70370364e-03 7.40740728e-03
      1.85185182e-03 5.55555569e-03 1.11111114e-02 1.29629625e-02
      5.55555569e-03 0. 3.70370364e-03 3.70370373e-02 5.55555569e-03
      5.55555569e-03 0. 5.55555569e-03 3.70370364e-03 3.70370364e-03
      5.55555569e-03 5.55555569e-03 9.25925933e-03 1.85185182e-03
      1.66666675e-02 3.70370364e-03 7.40740728e-03 3.70370364e-03
      1.29629625e-02 9.25925933e-03 7.40740728e-03 3.70370364e-03
      3.70370364e-03 1.11111114e-02 3.70370364e-03 5.55555569e-03
      1.48148146e-02 7.40740728e-03 5.55555569e-03 7.40740728e-03
      9.25925933e-03 1.29629625e-02 1.85185182e-03 0. 0. 3.70370364e-03
      1.85185182e-03 5.55555569e-03 5.55555569e-03 2.03703698e-02
      5.55555569e-03 3.70370364e-03 7.40740728e-03 7.40740728e-03</_>
    <_>
      0. 0. 0. 0. 0. 0. 0. 0. 0. 0. 0. 0. 0. 0. 0. 0. 0. 0. 0. 0. 0. 0.
      0. 0. 0. 0. 0. 0. 0. 0. 0. 0. 0. 0. 5.00000000e-01 0. 0. 0. 0. 0.
      0. 0. 0. 0. 0. 0. 0. 0. 0. 0. 0. 0. 0. 0. 0. 0. 0. 0. 0. 0. 0.
      5.00000000e-01 0. 0. 0. 0. 0. 0. 0. 0. 0. 0. 0. 0. 0. 0. 0. 0. 0.
      0. 0. 0. 0. 0. 0. 0. 0. 0. 0. 0. 0. 0. 0. 0. 0. 0. 0. 0. 0. 0.</_>
    <_>
      0. 0. 0. 0. 0. 0. 0. 0. 0. 0. 0. 0. 0. 0. 0. 0. 0. 0. 0. 0. 0. 0.
      0. 0. 0. 0. 0. 0. 0. 0. 0. 0. 0. 0. 0. 0. 0. 0. 0. 0. 0. 0. 0. 0.
      0. 0. 0. 0. 0. 0. 0. 0. 0. 0. 0. 0. 0. 0. 0. 0. 0. 5.00000000e-01
      0. 0. 0. 0. 0. 0. 0. 0. 0. 0. 0. 0. 0. 0. 0. 0. 0. 0. 0. 0. 0. 0.
      0. 0. 0. 0. 5.00000000e-01 0. 0. 0. 0. 0. 0. 0. 0. 0. 0. 0.</_>
    <_>
      0. 0. 0. 0. 0. 0. 0. 0. 0. 0. 0. 0. 0. 0. 0. 0. 0. 0. 0. 0. 0. 0.
      0. 0. 0. 0. 0. 0. 0. 0. 0. 0. 0. 0. 3.33333343e-01 0. 0.
      3.33333343e-01 0. 0. 0. 0. 0. 0. 0. 0. 0. 0. 0. 0. 0. 0. 0. 0. 0.
      0. 0. 0. 0. 0. 0. 0. 0. 0. 0. 0. 0. 0. 0. 0. 0. 0. 0. 0.
      3.33333343e-01 0. 0. 0. 0. 0. 0. 0. 0. 0. 0. 0. 0. 0. 0. 0. 0. 0.
      0. 0. 0. 0. 0. 0. 0. 0.</_>
    <_>
      0. 0. 0. 0. 0. 0. 0. 0. 0. 0. 0. 0. 0. 0. 0. 0. 0. 0. 0. 0. 0. 0.
      0. 0. 0. 0. 0. 0. 0. 0. 0. 0. 0. 0. 0. 0. 0. 0. 0. 5.00000000e-01
      0. 0. 0. 0. 0. 0. 0. 0. 0. 0. 0. 0. 0. 0. 0. 0. 0. 0. 0. 0. 0. 0.
      0. 0. 0. 0. 0. 0. 0. 0. 0. 0. 0. 0. 0. 5.00000000e-01 0. 0. 0. 0.
      0. 0. 0. 0. 0. 0. 0. 0. 0. 0. 0. 0. 0. 0. 0. 0. 0. 0. 0. 0.</_>
    <_>
      1.97368413e-02 8.77192989e-03 0. 6.57894742e-03 4.38596494e-03 0.
      3.94736826e-02 2.19298247e-03 1.53508773e-02 1.75438598e-02
      1.97368413e-02 2.19298247e-03 0. 1.75438598e-02 4.38596494e-03
      3.72807011e-02 1.09649124e-02 1.31578948e-02 4.38596494e-03
      2.19298247e-03 2.19298247e-03 8.77192989e-03 1.31578948e-02
      8.77192989e-03 2.19298247e-03 4.38596494e-03 1.31578948e-02 0.
      4.38596494e-03 1.53508773e-02 6.57894742e-03 3.94736826e-02
      1.09649124e-02 4.38596494e-03 4.38596494e-03 1.31578948e-02
      2.19298247e-03 1.09649124e-02 4.38596494e-03 3.50877196e-02
      1.09649124e-02 1.97368413e-02 8.77192989e-03 3.28947380e-02
      6.57894742e-03 8.77192989e-03 8.77192989e-03 4.38596494e-03
      2.19298247e-03 3.28947380e-02 1.75438598e-02 4.38596494e-03
      8.77192989e-03 4.38596494e-03 2.19298247e-03 2.41228063e-02
      2.19298247e-03 2.19298247e-03 2.19298247e-02 1.53508773e-02
      6.57894742e-03 2.19298247e-03 2.19298247e-03 2.19298247e-03 0.
      4.38596494e-03 1.97368413e-02 1.31578948e-02 6.57894742e-03
      1.53508773e-02 0. 6.57894742e-03 6.57894742e-03 8.77192989e-03
      2.19298247e-03 2.19298247e-03 2.41228063e-02 4.38596494e-03 0.
      1.09649124e-02 6.57894742e-03 2.19298247e-03 4.16666679e-02
      2.19298247e-03 2.41228063e-02 1.31578948e-02 6.57894742e-03 0.
      6.57894742e-03 4.38596494e-03 4.38596494e-03 8.77192989e-03 0.
      8.77192989e-03 4.38596494e-03 3.07017546e-02 2.19298247e-03
      1.31578948e-02 4.38596494e-03 8.77192989e-03</_>
    <_>
      1.37931034e-02 1.37931034e-02 0. 6.89655170e-03 6.89655170e-03
      6.89655170e-03 0. 6.89655170e-03 6.89655170e-03 4.82758619e-02 0.
      0. 1.37931034e-02 2.06896551e-02 6.89655170e-03 0. 1.37931034e-02
      1.37931034e-02 6.89655170e-03 6.89655170e-03 1.37931034e-02 0.
      6.89655170e-03 0. 0. 1.37931034e-02 1.37931034e-02 0. 0.
      1.37931034e-02 0. 0. 3.44827585e-02 2.06896551e-02 6.89655170e-03
      5.51724136e-02 0. 4.13793102e-02 1.37931034e-02 3.44827585e-02
      2.75862068e-02 0. 6.89655170e-03 6.89655170e-03 6.89655170e-03 0.
      6.89655170e-03 0. 0. 0. 1.37931034e-02 1.37931034e-02
      1.37931034e-02 0. 6.89655170e-03 0. 0. 6.89655170e-03
      1.37931034e-02 4.13793102e-02 2.06896551e-02 0. 0. 6.89655170e-03
      0. 0. 2.06896551e-02 2.06896551e-02 0. 0. 6.89655170e-03
      2.75862068e-02 6.89655170e-03 6.89655170e-03 6.89655170e-03
      6.89655170e-03 6.89655170e-03 6.89655170e-03 0. 3.44827585e-02 0.
      6.89655170e-03 0. 6.89655170e-03 4.13793102e-02 3.44827585e-02
      1.37931034e-02 6.89655170e-03 6.89655170e-03 0. 0. 0. 0.
      2.75862068e-02 6.89655170e-03 6.89655170e-03 1.37931034e-02 0.
      2.06896551e-02 0.</_>
    <_>
      1.33333337e-02 0. 0. 0. 1.33333337e-02 0. 0. 0. 0. 6.66666701e-02
      6.66666683e-03 0. 0. 6.66666683e-03 0. 1.99999996e-02 0. 0.
      1.33333337e-02 0. 0. 0. 0. 0. 0. 1.33333337e-02 0. 0. 0.
      6.66666683e-03 6.66666683e-03 5.33333346e-02 0. 0. 0.
      5.33333346e-02 0. 4.66666669e-02 0. 6.66666683e-03 6.66666683e-03
      6.66666683e-03 0. 2.00000003e-01 1.99999996e-02 0. 1.33333337e-02
      6.66666683e-03 0. 0. 1.33333337e-02 0. 1.33333337e-02 0.
      6.66666683e-03 4.66666669e-02 6.66666683e-03 0. 1.33333337e-02
      1.33333337e-02 6.66666683e-03 0. 5.99999987e-02 0. 0.
      1.33333337e-02 0. 6.66666683e-03 1.33333337e-02 0. 0.
      6.66666683e-03 0. 0. 0. 6.66666683e-03 0. 0. 0. 3.33333351e-02 0.
      1.33333337e-02 7.99999982e-02 6.66666683e-03 0. 6.66666683e-03
      1.33333337e-02 0. 0. 6.66666683e-03 0. 0. 0. 1.33333337e-02 0. 0.
      0. 1.99999996e-02 0. 0.</_>
    <_>
      1.07913669e-02 5.39568346e-03 0. 7.19424477e-03 1.43884895e-02 0.
      3.23740989e-02 1.79856119e-03 7.19424477e-03 1.38489202e-01
      7.19424477e-03 1.79856119e-03 0. 2.51798555e-02 0. 5.39568327e-02
      7.19424477e-03 7.19424477e-03 0. 1.25899278e-02 1.79856119e-03
      5.39568346e-03 5.39568346e-03 8.99280608e-03 1.79856119e-03
      8.99280608e-03 3.59712238e-03 1.79856119e-03 7.19424477e-03
      3.59712238e-03 1.79856119e-03 1.79856119e-03 1.43884895e-02
      3.59712238e-03 1.07913669e-02 1.97841730e-02 0. 2.51798555e-02
      5.39568346e-03 3.05755399e-02 5.39568346e-03 5.39568346e-03
      5.39568346e-03 4.49640304e-02 1.07913669e-02 3.59712238e-03
      1.25899278e-02 1.79856119e-03 1.79856119e-03 5.39568327e-02
      3.59712238e-03 1.79856119e-03 1.25899278e-02 0. 7.19424477e-03
      1.79856119e-03 3.59712238e-03 1.79856119e-03 2.15827338e-02
      1.43884895e-02 8.99280608e-03 3.59712238e-03 5.39568346e-03
      1.61870494e-02 5.39568346e-03 5.39568346e-03 1.25899278e-02
      5.39568346e-03 5.39568346e-03 1.79856119e-03 1.79856119e-03
      1.25899278e-02 1.79856119e-03 3.59712238e-03 0. 3.59712238e-03
      2.51798555e-02 0. 1.79856119e-03 1.97841730e-02 5.39568346e-03
      3.59712238e-03 1.61870494e-02 3.59712238e-03 1.07913669e-02
      7.19424477e-03 8.99280608e-03 0. 1.25899278e-02 1.79856119e-03
      5.39568346e-03 8.99280608e-03 0. 7.19424477e-03 3.59712238e-03
      3.05755399e-02 3.59712238e-03 1.79856119e-03 1.61870494e-02
      3.59712238e-03</_>
    <_>
      1.58227850e-02 1.58227852e-03 7.91139249e-03 1.10759493e-02
      3.16455704e-03 4.74683521e-03 3.32278498e-02 6.32911408e-03
      1.10759493e-02 3.79746817e-02 4.74683521e-03 4.74683521e-03
      1.58227852e-03 1.42405061e-02 3.16455704e-03 4.90506329e-02
      1.10759493e-02 7.91139249e-03 9.49367043e-03 6.32911408e-03
      7.91139249e-03 9.49367043e-03 1.58227850e-02 3.16455704e-03
      4.74683521e-03 7.91139249e-03 6.32911408e-03 4.74683521e-03
      6.32911408e-03 6.32911408e-03 1.10759493e-02 3.16455704e-03
      1.42405061e-02 4.74683521e-03 1.10759493e-02 2.84810122e-02
      1.58227852e-03 2.37341765e-02 0. 1.26582282e-02 4.74683521e-03
      1.42405061e-02 4.74683521e-03 3.95569615e-02 2.53164563e-02
      9.49367043e-03 7.91139249e-03 4.74683521e-03 1.10759493e-02
      3.00632920e-02 6.32911408e-03 1.58227852e-03 7.91139249e-03
      1.58227852e-03 7.91139249e-03 1.58227852e-03 1.58227852e-03
      3.16455704e-03 1.89873409e-02 1.74050629e-02 6.32911408e-03
      1.10759493e-02 0. 3.16455704e-03 3.16455704e-03 2.05696207e-02
      7.91139249e-03 6.32911408e-03 9.49367043e-03 1.58227852e-03
      3.16455704e-03 3.16455704e-03 1.10759493e-02 0. 4.74683521e-03
      1.42405061e-02 2.05696207e-02 7.91139249e-03 1.10759493e-02
      1.26582282e-02 2.05696207e-02 1.58227852e-03 1.58227850e-02
      9.49367043e-03 6.32911408e-03 9.49367043e-03 6.32911408e-03
      1.10759493e-02 1.58227852e-03 7.91139249e-03 4.74683521e-03
      2.37341765e-02 4.74683521e-03 3.16455704e-03 7.91139249e-03
      2.21518986e-02 3.16455704e-03 6.32911408e-03 9.49367043e-03
      1.74050629e-02</_>
    <_>
      0. 0. 0. 0. 0. 0. 0. 0. 0. 0. 2.00000003e-01 0. 0. 0. 0. 0. 0.
      2.00000003e-01 0. 0. 0. 0. 0. 0. 0. 0. 0. 0. 2.00000003e-01 0. 0.
      0. 0. 0. 0. 0. 0. 0. 0. 0. 0. 0. 0. 0. 0. 0. 0. 0. 0. 0. 0. 0. 0.
      0. 0. 0. 0. 0. 0. 2.00000003e-01 0. 0. 0. 2.00000003e-01 0. 0. 0.
      0. 0. 0. 0. 0. 0. 0. 0. 0. 0. 0. 0. 0. 0. 0. 0. 0. 0. 0. 0. 0. 0.
      0. 0. 0. 0. 0. 0. 0. 0. 0. 0. 0.</_>
    <_>
      1.36752138e-02 1.53846154e-02 0. 1.70940179e-02 1.02564106e-02
      3.41880345e-03 1.02564106e-02 1.19658122e-02 1.02564106e-02
      1.04273506e-01 2.05128212e-02 1.02564106e-02 1.70940172e-03
      1.02564106e-02 1.70940172e-03 5.64102568e-02 0. 5.12820529e-03
      1.70940172e-03 1.02564106e-02 6.83760690e-03 1.36752138e-02
      8.54700897e-03 5.12820529e-03 1.02564106e-02 1.02564106e-02
      8.54700897e-03 1.70940172e-03 6.83760690e-03 3.41880345e-03
      5.12820529e-03 6.83760690e-03 1.88034195e-02 1.70940172e-03
      1.88034195e-02 1.53846154e-02 8.54700897e-03 1.53846154e-02
      6.83760690e-03 1.02564106e-02 5.12820529e-03 8.54700897e-03
      1.70940179e-02 6.49572685e-02 5.12820529e-03 1.70940172e-03
      2.73504276e-02 0. 1.53846154e-02 2.05128212e-02 1.36752138e-02
      3.41880345e-03 1.70940172e-03 1.70940172e-03 8.54700897e-03
      3.41880345e-03 3.41880345e-03 5.12820529e-03 1.70940172e-03
      2.22222228e-02 2.90598292e-02 3.41880345e-03 5.12820529e-03
      6.83760690e-03 3.41880345e-03 3.41880345e-03 1.02564106e-02
      3.41880345e-03 3.41880345e-03 5.12820529e-03 3.41880345e-03
      6.83760690e-03 0. 1.70940172e-03 3.41880345e-03 3.41880345e-03
      1.88034195e-02 0. 0. 6.83760690e-03 8.54700897e-03 5.12820529e-03
      3.41880345e-03 5.12820529e-03 1.70940179e-02 1.19658122e-02
      1.36752138e-02 5.12820529e-03 3.41880345e-03 1.70940172e-03
      1.70940172e-03 2.05128212e-02 3.41880345e-03 1.70940172e-03
      5.12820529e-03 6.83760690e-03 5.12820529e-03 1.70940172e-03
      2.90598292e-02 3.41880345e-03</_>
    <_>
      7.75193796e-03 0. 7.75193796e-03 0. 0. 0. 7.75193796e-03 0.
      7.75193796e-03 4.65116277e-02 0. 0. 0. 0. 0. 2.32558139e-02 0. 0.
      7.75193796e-03 0. 0. 0. 2.32558139e-02 0. 0. 7.75193796e-03 0.
      7.75193796e-03 0. 0. 7.75193796e-03 5.42635657e-02 0. 0. 0.
      5.42635657e-02 0. 6.97674453e-02 0. 3.10077518e-02 3.10077518e-02
      1.55038759e-02 7.75193796e-03 9.30232555e-02 0. 0. 1.55038759e-02
      0. 0. 7.75193796e-03 0. 7.75193796e-03 0. 0. 7.75193796e-03 0.
      7.75193796e-03 0. 3.10077518e-02 6.97674453e-02 7.75193796e-03
      7.75193796e-03 3.87596898e-02 0. 7.75193796e-03 5.42635657e-02
      7.75193796e-03 4.65116277e-02 0. 7.75193796e-03 7.75193796e-03 0.
      7.75193796e-03 0. 1.55038759e-02 0. 0. 0. 0. 7.75193796e-03 0. 0.
      3.10077518e-02 0. 3.87596898e-02 0. 0. 0. 0. 0. 0. 1.55038759e-02
      0. 0. 7.75193796e-03 0. 0. 0. 2.32558139e-02 7.75193796e-03</_>
    <_>
      9.05797072e-03 3.62318847e-03 5.43478271e-03 1.26811592e-02
      1.08695654e-02 5.43478271e-03 7.24637695e-03 5.43478271e-03
      1.44927539e-02 6.34057969e-02 2.71739122e-02 5.43478271e-03
      9.05797072e-03 1.44927539e-02 1.08695654e-02 2.53623184e-02
      1.26811592e-02 2.53623184e-02 0. 1.08695654e-02 0. 9.05797072e-03
      0. 3.62318847e-03 1.08695654e-02 9.05797072e-03 5.43478271e-03
      1.81159424e-03 7.24637695e-03 7.24637695e-03 5.43478271e-03
      1.63043477e-02 5.43478271e-03 5.43478271e-03 1.26811592e-02
      2.71739122e-02 1.08695654e-02 3.26086953e-02 1.26811592e-02
      1.26811592e-02 3.62318847e-03 5.43478271e-03 9.05797072e-03
      5.79710156e-02 3.62318847e-03 1.81159424e-03 1.08695654e-02
      7.24637695e-03 1.81159424e-03 1.44927539e-02 7.24637695e-03
      5.43478271e-03 1.08695654e-02 1.81159424e-03 1.81159424e-03
      1.26811592e-02 1.81159424e-03 9.05797072e-03 1.99275371e-02
      2.71739122e-02 5.43478271e-03 1.81159424e-03 5.43478271e-03
      9.05797072e-03 9.05797072e-03 0. 1.44927539e-02 7.24637695e-03
      1.08695654e-02 3.62318847e-03 1.81159424e-03 1.26811592e-02
      3.62318847e-03 3.62318847e-03 7.24637695e-03 5.43478271e-03
      7.24637695e-03 7.24637695e-03 5.43478271e-03 1.99275371e-02 0.
      5.43478271e-03 1.99275371e-02 1.81159424e-03 7.24637695e-03
      7.24637695e-03 1.26811592e-02 7.24637695e-03 1.44927539e-02
      1.26811592e-02 3.62318847e-03 3.62318847e-03 5.43478271e-03
      5.43478271e-03 1.81159414e-02 7.24637695e-03 9.05797072e-03
      1.26811592e-02 1.44927539e-02 1.81159424e-03</_>
    <_>
      9.28792544e-03 3.09597515e-03 4.64396272e-03 9.28792544e-03
      7.73993786e-03 1.54798757e-03 6.19195029e-03 9.28792544e-03
      1.23839006e-02 8.51393193e-02 1.70278642e-02 1.54798757e-03
      9.28792544e-03 1.54798757e-02 3.09597515e-03 4.17956673e-02
      2.16718260e-02 1.39318882e-02 0. 4.64396272e-03 1.54798757e-03
      6.19195029e-03 1.54798757e-03 0. 6.19195029e-03 1.70278642e-02
      7.73993786e-03 0. 1.54798757e-03 7.73993786e-03 6.19195029e-03
      2.01238394e-02 6.19195029e-03 3.09597515e-03 1.54798757e-02
      2.63157897e-02 1.54798757e-03 2.32198145e-02 0. 1.54798757e-02
      4.64396272e-03 3.09597515e-03 6.19195029e-03 8.82352963e-02
      6.19195029e-03 1.54798757e-03 3.09597515e-02 1.54798757e-03
      9.28792544e-03 3.56037170e-02 6.19195029e-03 0. 0. 1.54798757e-03
      3.09597515e-03 3.09597515e-03 6.19195029e-03 6.19195029e-03
      1.54798757e-02 2.01238394e-02 9.28792544e-03 4.64396272e-03 0.
      1.54798757e-03 6.19195029e-03 4.64396272e-03 2.16718260e-02
      3.09597515e-03 3.09597515e-03 1.54798757e-03 1.54798757e-03
      7.73993786e-03 7.73993786e-03 0. 3.09597515e-03 1.54798757e-03
      6.19195029e-03 3.09597515e-03 1.23839006e-02 2.01238394e-02
      6.19195029e-03 1.23839006e-02 7.73993786e-03 3.09597515e-03
      7.73993786e-03 1.54798757e-02 1.54798757e-02 3.09597515e-03
      7.73993786e-03 1.54798757e-03 6.19195029e-03 1.39318882e-02
      6.19195029e-03 6.19195029e-03 4.64396272e-03 3.09597515e-02
      3.09597515e-03 1.08359130e-02 2.32198145e-02 1.54798757e-03</_>
    <_>
      5.86510263e-03 2.93255132e-03 5.86510263e-03 1.75953079e-02
      1.75953079e-02 5.86510263e-03 8.79765395e-03 2.93255132e-03
      1.46627566e-02 6.45161271e-02 1.17302053e-02 0. 2.93255132e-03
      8.79765395e-03 0. 1.75953079e-02 1.17302053e-02 8.79765395e-03
      5.86510263e-03 2.93255132e-03 2.93255132e-03 2.93255132e-03
      5.86510263e-03 5.86510263e-03 2.93255132e-03 1.75953079e-02
      5.86510263e-03 0. 5.86510263e-03 1.17302053e-02 8.79765395e-03
      4.39882688e-02 0. 5.86510263e-03 2.93255132e-03 5.27859256e-02
      5.86510263e-03 2.34604105e-02 0. 5.86510263e-03 1.17302053e-02 0.
      2.93255132e-03 1.78885624e-01 5.86510263e-03 8.79765395e-03
      2.05278601e-02 2.93255132e-03 5.86510263e-03 5.86510263e-03
      1.17302053e-02 0. 8.79765395e-03 0. 0. 2.93255132e-03 0. 0.
      1.17302053e-02 3.81231681e-02 2.93255132e-03 2.93255132e-03 0.
      5.86510263e-03 2.93255132e-03 2.93255132e-03 5.86510263e-03
      8.79765395e-03 0. 8.79765395e-03 0. 8.79765395e-03 2.05278601e-02
      5.86510263e-03 2.93255132e-03 8.79765395e-03 5.86510263e-03
      2.93255132e-03 0. 2.34604105e-02 0. 1.46627566e-02 4.10557203e-02
      5.86510263e-03 2.93255132e-03 5.86510263e-03 2.93255132e-03
      2.93255132e-03 5.86510263e-03 0. 2.93255132e-03 1.17302053e-02
      2.93255132e-03 8.79765395e-03 2.93255132e-03 5.86510263e-03
      5.86510263e-03 8.79765395e-03 2.93255132e-03 0.</_>
    <_>
      1.17096016e-02 4.68384055e-03 2.34192028e-03 3.04449648e-02
      9.36768111e-03 7.02576106e-03 7.02576106e-03 0. 1.40515221e-02
      4.44964878e-02 4.68384055e-03 1.40515221e-02 2.34192028e-03
      1.40515221e-02 1.63934417e-02 2.10772827e-02 4.68384055e-03
      7.02576106e-03 2.34192028e-03 1.17096016e-02 2.34192028e-03
      4.68384055e-03 0. 7.02576106e-03 9.36768111e-03 0. 0. 0.
      4.68384055e-03 9.36768111e-03 4.68384055e-03 2.10772827e-02
      9.36768111e-03 9.36768111e-03 7.02576106e-03 1.63934417e-02
      2.34192028e-03 2.10772827e-02 2.34192028e-03 7.02576106e-03
      4.68384055e-03 1.17096016e-02 1.63934417e-02 1.03044495e-01
      7.02576106e-03 7.02576106e-03 3.04449648e-02 7.02576106e-03
      7.02576106e-03 4.68384055e-03 7.02576106e-03 1.17096016e-02
      4.68384055e-03 0. 1.40515221e-02 1.63934417e-02 2.34192028e-03
      9.36768111e-03 4.68384055e-03 3.04449648e-02 9.36768111e-03
      2.34192028e-03 4.68384055e-03 1.17096016e-02 1.17096016e-02
      9.36768111e-03 1.40515221e-02 4.68384055e-03 2.34192028e-03 0.
      2.34192028e-03 1.87353622e-02 7.02576106e-03 2.34192028e-03
      1.40515221e-02 2.34192028e-03 0. 0. 4.68384055e-03 9.36768111e-03
      7.02576106e-03 4.68384055e-03 2.10772827e-02 1.17096016e-02
      9.36768111e-03 2.81030443e-02 9.36768111e-03 7.02576106e-03
      4.68384055e-03 2.34192028e-03 1.17096016e-02 7.02576106e-03 0.
      1.17096016e-02 1.17096016e-02 1.40515221e-02 4.68384055e-03
      1.17096016e-02 1.40515221e-02 9.36768111e-03</_>
    <_>
      1.30505711e-02 9.78792831e-03 1.63132139e-03 1.63132139e-02
      1.46818925e-02 4.89396416e-03 1.63132139e-02 9.78792831e-03
      1.46818925e-02 1.95758566e-02 1.46818925e-02 4.89396416e-03
      3.26264277e-03 1.14192497e-02 8.15660693e-03 2.44698208e-02
      2.28384994e-02 6.52528554e-03 4.89396416e-03 6.52528554e-03
      3.26264277e-03 2.28384994e-02 3.26264277e-03 8.15660693e-03
      4.89396416e-03 6.52528554e-03 3.26264277e-03 1.63132139e-03
      2.28384994e-02 1.46818925e-02 6.52528554e-03 4.89396416e-03
      2.12071780e-02 9.78792831e-03 6.52528554e-03 2.61011422e-02
      8.15660693e-03 1.46818925e-02 9.78792831e-03 1.63132139e-03
      1.63132139e-03 1.63132139e-02 1.63132139e-02 5.87275699e-02
      4.89396416e-03 8.15660693e-03 1.30505711e-02 4.89396416e-03
      9.78792831e-03 1.63132139e-03 4.89396416e-03 3.26264277e-03
      1.14192497e-02 3.26264277e-03 1.63132139e-03 3.26264277e-03
      4.89396416e-03 4.89396416e-03 1.14192497e-02 2.77324636e-02
      8.15660693e-03 4.89396416e-03 3.26264277e-03 1.63132139e-03
      6.52528554e-03 8.15660693e-03 1.95758566e-02 6.52528554e-03
      1.14192497e-02 1.14192497e-02 0. 1.14192497e-02 6.52528554e-03
      3.26264277e-03 6.52528554e-03 9.78792831e-03 9.78792831e-03
      6.52528554e-03 1.63132139e-02 2.93637849e-02 9.78792831e-03
      6.52528554e-03 8.15660693e-03 0. 1.46818925e-02 8.15660693e-03
      6.52528554e-03 9.78792831e-03 3.26264277e-03 3.26264277e-03
      1.14192497e-02 1.79445352e-02 3.26264277e-03 6.52528554e-03
      1.14192497e-02 1.63132139e-02 6.52528554e-03 1.30505711e-02
      1.95758566e-02 1.63132139e-03</_>
    <_>
      4.36681230e-03 6.55021844e-03 2.18340615e-03 8.73362459e-03
      6.55021844e-03 0. 1.31004369e-02 0. 4.36681230e-03 5.67685589e-02
      6.55021844e-03 4.36681230e-03 4.36681230e-03 8.73362459e-03
      2.18340615e-03 5.24017476e-02 1.09170303e-02 1.52838426e-02
      2.18340615e-03 0. 2.18340615e-03 6.55021844e-03 6.55021844e-03
      6.55021844e-03 8.73362459e-03 1.52838426e-02 1.31004369e-02
      4.36681230e-03 6.55021844e-03 6.55021844e-03 8.73362459e-03
      8.73362459e-03 8.73362459e-03 0. 6.55021844e-03 2.40174681e-02
      1.31004369e-02 3.49344984e-02 0. 2.62008738e-02 0. 8.73362459e-03
      1.74672492e-02 6.76855892e-02 4.36681230e-03 0. 1.74672492e-02
      2.18340615e-03 0. 2.18340605e-02 4.36681230e-03 1.31004369e-02
      2.18340615e-03 6.55021844e-03 1.31004369e-02 1.09170303e-02
      2.18340615e-03 8.73362459e-03 6.55021844e-03 3.05676851e-02
      1.31004369e-02 4.36681230e-03 2.18340615e-03 6.55021844e-03 0.
      8.73362459e-03 1.74672492e-02 6.55021844e-03 4.36681230e-03
      4.36681230e-03 0. 1.09170303e-02 2.18340615e-03 4.36681230e-03
      8.73362459e-03 2.18340605e-02 2.18340605e-02 8.73362459e-03
      2.18340615e-03 1.09170303e-02 4.36681230e-03 6.55021844e-03
      1.74672492e-02 2.18340615e-03 1.31004369e-02 4.36681230e-03
      1.31004369e-02 8.73362459e-03 1.31004369e-02 2.18340615e-03
      8.73362459e-03 1.09170303e-02 2.18340615e-03 6.55021844e-03
      1.09170303e-02 2.18340605e-02 4.36681230e-03 1.96506549e-02
      1.52838426e-02 0.</_>
    <_>
      1.92837473e-02 8.26446246e-03 8.26446246e-03 5.50964195e-03
      5.50964195e-03 0. 0. 8.26446246e-03 5.50964195e-03 5.50964195e-03
      1.10192839e-02 1.65289249e-02 2.75482098e-03 2.75482098e-03 0.
      8.26446246e-03 7.71349892e-02 1.37741044e-02 0. 1.10192839e-02
      1.37741044e-02 2.75482098e-03 0. 0. 2.75482098e-03 3.03030312e-02
      8.26446246e-03 5.50964195e-03 1.92837473e-02 1.37741044e-02
      1.37741044e-02 8.26446246e-03 1.37741044e-02 5.50964195e-03
      2.75482098e-03 2.75482098e-03 0. 5.50964195e-03 5.50964195e-03
      1.37741044e-02 3.03030312e-02 2.75482098e-03 5.50964195e-03
      1.37741044e-02 0. 5.50964195e-03 0. 1.10192839e-02 0.
      8.26446246e-03 0. 2.75482098e-03 1.37741044e-02 2.75482098e-03
      2.75482098e-03 1.10192839e-02 3.58126722e-02 2.75482088e-02
      1.10192839e-02 5.50964195e-03 5.50964195e-03 1.10192839e-02 0.
      1.37741044e-02 0. 5.50964195e-03 1.37741044e-02 1.92837473e-02
      1.37741044e-02 0. 1.37741044e-02 5.50964195e-03 3.30578499e-02
      2.75482098e-03 0. 2.20385678e-02 0. 0. 2.47933883e-02
      5.50964195e-03 5.50964195e-03 2.75482088e-02 1.10192839e-02
      5.50964195e-03 5.50964195e-03 2.75482098e-03 1.65289249e-02
      2.75482098e-03 1.10192839e-02 2.75482088e-02 5.50964195e-03
      6.33608848e-02 1.37741044e-02 2.75482098e-03 5.50964195e-03
      2.75482098e-03 2.75482098e-03 8.26446246e-03 1.92837473e-02
      2.75482098e-03</_>
    <_>
      2.71370430e-02 8.14111251e-03 2.44233385e-02 1.35685215e-02
      1.35685215e-02 4.07055626e-03 1.35685212e-03 5.42740850e-03
      1.35685212e-03 0. 4.07055626e-03 4.07055626e-03 8.14111251e-03
      5.42740850e-03 1.62822250e-02 8.14111251e-03 6.78426074e-03
      8.14111251e-03 6.78426074e-03 6.78426074e-03 1.35685212e-03
      5.42740850e-03 2.84938943e-02 4.07055626e-03 9.49796475e-03
      6.78426074e-03 9.49796475e-03 1.35685212e-03 2.57801898e-02
      1.35685215e-02 1.08548170e-02 0. 2.17096340e-02 1.22116692e-02
      1.35685215e-02 6.78426074e-03 1.08548170e-02 8.14111251e-03
      8.14111251e-03 1.08548170e-02 2.71370425e-03 4.07055626e-03
      2.84938943e-02 1.35685212e-03 2.30664853e-02 1.22116692e-02
      8.14111251e-03 8.14111251e-03 1.89959295e-02 9.49796475e-03
      9.49796475e-03 8.14111251e-03 9.49796475e-03 6.78426074e-03
      1.49253728e-02 5.42740850e-03 4.07055626e-03 6.78426074e-03
      4.07055626e-03 5.42740850e-03 1.62822250e-02 0. 1.08548170e-02
      1.49253728e-02 5.42740850e-03 1.49253728e-02 5.42740850e-03
      4.07055626e-03 5.42740850e-03 1.22116692e-02 2.17096340e-02
      2.84938943e-02 9.49796475e-03 9.49796475e-03 1.35685215e-02
      1.49253728e-02 1.35685212e-03 8.14111251e-03 1.08548170e-02
      5.42740850e-03 1.35685215e-02 9.49796475e-03 9.49796475e-03
      5.42740850e-03 8.14111251e-03 1.49253728e-02 1.62822250e-02
      1.49253728e-02 1.62822250e-02 6.78426074e-03 2.03527808e-02
      9.49796475e-03 2.17096340e-02 5.42740850e-03 8.14111251e-03
      1.49253728e-02 6.78426074e-03 6.78426074e-03 4.07055626e-03 0.</_>
    <_>
      4.87804860e-02 0. 1.62601620e-02 0. 2.43902430e-02 0.
      2.43902430e-02 0. 8.13008100e-03 0. 8.13008100e-03 0. 0.
      8.13008100e-03 0. 0. 0. 0. 0. 0. 0. 8.13008100e-03 0.
      1.62601620e-02 0. 8.13008100e-03 0. 8.13008100e-03 3.25203240e-02
      2.43902430e-02 8.13008100e-03 0. 0. 0. 4.06504050e-02 0. 0.
      8.13008100e-03 8.13008100e-03 2.43902430e-02 0. 4.06504050e-02
      2.43902430e-02 8.13008100e-03 8.13008100e-03 0. 0. 8.13008100e-03
      1.62601620e-02 3.25203240e-02 1.62601620e-02 8.13008100e-03 0. 0.
      0. 8.13008100e-03 0. 0. 3.25203240e-02 8.13008100e-03
      3.25203240e-02 0. 4.87804860e-02 2.43902430e-02 8.13008100e-03
      4.06504050e-02 0. 1.62601620e-02 0. 0. 0. 2.43902430e-02
      1.62601620e-02 8.13008100e-03 8.13008100e-03 0. 1.62601620e-02
      8.13008100e-03 0. 8.13008100e-03 1.62601620e-02 0. 0.
      8.13008100e-03 3.25203240e-02 0. 8.13008100e-03 0. 2.43902430e-02
      0. 8.13008100e-03 0. 1.62601620e-02 8.13008100e-03 0.
      3.25203240e-02 8.13008100e-03 1.62601620e-02 8.13008100e-03
      1.62601620e-02</_>
    <_>
      2.29709037e-02 1.30168451e-02 7.65696808e-04 5.35987737e-03
      1.30168451e-02 1.53139362e-03 6.12557447e-03 5.35987737e-03
      3.13935690e-02 3.06278723e-03 1.45482393e-02 3.06278723e-03
      1.07197547e-02 1.07197547e-02 3.06278723e-03 6.12557447e-03
      1.60796326e-02 9.18836147e-03 1.37825422e-02 1.37825422e-02
      3.82848387e-03 4.59418073e-03 2.67993882e-02 1.14854518e-02
      1.14854518e-02 1.22511489e-02 1.53139362e-03 3.06278723e-03
      1.45482393e-02 1.07197547e-02 1.14854518e-02 7.65696808e-04
      5.35987737e-03 9.18836147e-03 1.60796326e-02 1.91424191e-02
      5.35987737e-03 7.65696773e-03 9.95405857e-03 2.29709037e-03
      1.07197547e-02 1.14854518e-02 4.59418073e-03 0. 1.60796326e-02
      1.37825422e-02 1.83767229e-02 7.65696773e-03 5.35987737e-03
      4.59418073e-03 1.76110268e-02 7.65696773e-03 2.29709037e-03
      1.07197547e-02 9.18836147e-03 4.59418073e-03 3.82848387e-03
      4.59418073e-03 1.07197547e-02 4.74731997e-02 1.07197547e-02
      3.06278723e-03 6.89127110e-03 1.22511489e-02 3.82848387e-03
      3.29249613e-02 1.30168451e-02 7.65696773e-03 3.82848387e-03
      6.12557447e-03 6.12557447e-03 1.60796326e-02 3.82848387e-03
      1.22511489e-02 2.45022979e-02 5.35987737e-03 4.59418073e-03
      1.14854518e-02 1.14854518e-02 6.89127110e-03 1.30168451e-02
      1.07197547e-02 6.12557447e-03 9.95405857e-03 6.89127110e-03
      6.89127110e-03 1.53139355e-02 3.82848387e-03 9.18836147e-03
      6.12557447e-03 9.95405857e-03 6.12557447e-03 2.29709037e-03
      1.22511489e-02 4.59418073e-03 3.59877497e-02 4.59418073e-03
      1.22511489e-02 1.53139355e-02 3.06278723e-03</_>
    <_>
      3.64050046e-02 2.27531279e-03 4.55062557e-03 6.82593836e-03
      2.84414105e-02 2.27531279e-03 3.41296918e-03 3.41296918e-03
      1.02389082e-02 3.41296918e-03 4.55062557e-03 3.41296918e-03
      6.82593836e-03 5.68828220e-03 4.55062557e-03 1.70648471e-02
      6.82593836e-03 9.10125114e-03 7.96359498e-03 5.68828220e-03
      4.55062557e-03 2.16154717e-02 2.38907859e-02 1.02389082e-02
      4.55062557e-03 1.25142206e-02 1.13765639e-03 3.41296918e-03
      1.47895338e-02 4.55062557e-03 9.10125114e-03 2.27531279e-03
      4.55062557e-03 3.41296918e-03 1.59271900e-02 1.36518767e-02
      1.13765639e-03 1.36518767e-02 2.27531279e-03 1.02389082e-02
      1.25142206e-02 7.39476681e-02 1.25142206e-02 2.27531279e-03
      2.38907859e-02 6.82593836e-03 2.04778165e-02 3.41296918e-03
      2.27531279e-03 1.25142206e-02 2.16154717e-02 2.27531288e-02
      4.55062557e-03 4.55062557e-03 9.10125114e-03 7.96359498e-03
      4.55062557e-03 3.41296918e-03 1.25142206e-02 3.52673493e-02
      2.27531288e-02 2.27531279e-03 6.82593836e-03 7.96359498e-03
      4.55062557e-03 2.27531288e-02 2.27531279e-03 5.68828220e-03
      2.27531279e-03 1.13765639e-03 1.13765639e-03 7.96359498e-03
      1.13765644e-02 1.47895338e-02 5.68828220e-03 1.47895338e-02
      5.68828220e-03 7.96359498e-03 3.41296918e-03 7.96359498e-03
      1.36518767e-02 1.02389082e-02 7.96359498e-03 2.27531279e-03
      1.13765639e-03 1.13765639e-03 1.36518767e-02 7.96359498e-03
      1.02389082e-02 1.02389082e-02 3.41296918e-03 5.68828220e-03
      9.10125114e-03 3.64050046e-02 1.13765639e-03 1.93401594e-02
      1.13765639e-03 5.68828220e-03 2.73037534e-02 5.68828220e-03</_>
    <_>
      2.07768753e-02 1.17434505e-02 1.35501353e-02 2.16802172e-02
      1.44534782e-02 3.61336954e-03 1.80668477e-03 2.89069563e-02
      5.42005431e-03 8.13008100e-03 3.61336954e-03 2.16802172e-02
      5.42005431e-03 8.13008100e-03 9.03342385e-03 1.17434505e-02
      9.03342385e-03 9.93676577e-03 7.22673908e-03 5.42005431e-03
      1.98735315e-02 1.44534782e-02 1.98735315e-02 6.32339669e-03
      4.51671192e-03 1.17434505e-02 1.35501353e-02 1.89701896e-02
      1.53568201e-02 8.13008100e-03 1.35501353e-02 9.03342385e-04
      1.35501353e-02 1.08401086e-02 1.35501353e-02 8.13008100e-03
      2.71002715e-03 9.93676577e-03 1.17434505e-02 4.51671192e-03
      7.22673908e-03 9.93676577e-03 9.03342385e-03 1.80668477e-03
      5.42005431e-03 5.42005431e-03 5.42005431e-03 5.42005431e-03
      1.26467934e-02 9.03342385e-03 1.17434505e-02 5.42005431e-03
      1.26467934e-02 6.32339669e-03 6.32339669e-03 3.61336954e-03
      2.71002715e-03 1.80668477e-03 8.13008100e-03 3.61336954e-03
      1.80668477e-02 1.98735315e-02 7.22673908e-03 1.62601620e-02
      5.42005431e-03 3.61336954e-03 9.03342385e-03 1.08401086e-02
      1.08401086e-02 6.32339669e-03 1.71635058e-02 1.35501353e-02
      1.08401086e-02 6.32339669e-03 8.13008100e-03 1.62601620e-02
      7.22673908e-03 5.42005431e-03 9.93676577e-03 9.03342385e-03
      6.32339669e-03 9.93676577e-03 7.22673908e-03 9.03342385e-03
      6.32339669e-03 1.08401086e-02 9.93676577e-03 8.13008100e-03
      1.80668477e-02 5.42005431e-03 9.03342385e-03 5.23938574e-02
      8.13008100e-03 4.51671192e-03 1.17434505e-02 1.08401086e-02
      5.42005431e-03 1.26467934e-02 3.61336954e-03 1.80668477e-03</_>
    <_>
      9.50118806e-03 4.75059403e-03 9.50118806e-03 7.12589081e-03
      4.75059403e-03 2.37529702e-03 1.42517816e-02 4.75059403e-03
      1.66270789e-02 1.16389550e-01 0. 2.37529688e-02 2.37529702e-03
      7.12589081e-03 0. 6.17577210e-02 2.37529702e-03 7.12589081e-03 0.
      0. 9.50118806e-03 2.37529702e-03 4.75059403e-03 0. 0.
      9.50118806e-03 2.37529702e-03 2.37529688e-02 2.37529702e-03
      4.75059403e-03 0. 9.50118806e-03 1.42517816e-02 0. 7.12589081e-03
      3.08788605e-02 0. 1.66270789e-02 2.37529702e-03 9.50118806e-03
      2.37529702e-03 0. 2.37529702e-03 4.75059375e-02 0. 9.50118806e-03
      5.22565320e-02 0. 7.12589081e-03 3.08788605e-02 1.42517816e-02 0.
      2.37529702e-03 0. 2.37529702e-03 0. 9.50118806e-03 4.75059403e-03
      2.37529702e-03 4.51306403e-02 4.75059403e-03 1.90023761e-02
      7.12589081e-03 4.75059403e-03 2.37529702e-03 0. 7.12589081e-03
      1.42517816e-02 2.37529702e-03 0. 3.32541578e-02 4.75059403e-03
      4.75059403e-03 7.12589081e-03 2.37529702e-03 4.75059403e-03
      3.56294550e-02 2.37529702e-03 4.75059403e-03 1.42517816e-02 0.
      1.90023761e-02 4.75059403e-03 4.75059403e-03 0. 0. 4.75059403e-03
      2.37529702e-03 7.12589081e-03 7.12589081e-03 2.37529702e-03
      1.90023761e-02 0. 0. 7.12589081e-03 2.13776715e-02 2.37529702e-03
      7.12589081e-03 1.18764844e-02 2.61282660e-02</_>
    <_>
      7.44047621e-03 1.48809527e-03 2.97619053e-03 2.97619053e-03
      1.48809527e-03 4.46428591e-03 2.08333340e-02 1.48809527e-03
      1.33928573e-02 5.95238097e-02 4.46428591e-03 1.48809524e-02
      5.95238106e-03 5.95238106e-03 0. 4.61309515e-02 7.44047621e-03
      5.95238106e-03 7.44047621e-03 0. 1.33928573e-02 7.44047621e-03
      7.44047621e-03 0. 4.46428591e-03 8.92857183e-03 2.97619053e-03
      1.33928573e-02 5.95238106e-03 2.97619053e-03 4.46428591e-03
      2.52976194e-02 5.95238106e-03 2.97619053e-03 1.93452388e-02
      2.08333340e-02 4.46428591e-03 2.52976194e-02 1.48809527e-03
      1.78571437e-02 7.44047621e-03 4.46428591e-03 4.46428591e-03
      1.27976194e-01 2.97619053e-03 2.97619053e-03 2.38095243e-02 0.
      1.48809527e-03 1.78571437e-02 8.92857183e-03 1.48809527e-03 0.
      5.95238106e-03 8.92857183e-03 2.97619053e-03 8.92857183e-03
      2.97619053e-03 3.27380970e-02 2.82738097e-02 4.46428591e-03
      1.48809524e-02 1.78571437e-02 7.44047621e-03 0. 8.92857183e-03
      4.46428591e-03 4.46428591e-03 8.92857183e-03 0. 1.19047621e-02
      2.97619053e-03 4.46428591e-03 1.48809527e-03 5.95238106e-03
      7.44047621e-03 1.04166670e-02 0. 0. 1.19047621e-02 1.48809527e-03
      8.92857183e-03 1.48809524e-02 8.92857183e-03 8.92857183e-03
      8.92857183e-03 2.52976194e-02 4.46428591e-03 1.19047621e-02
      4.46428591e-03 0. 4.46428591e-03 0. 4.46428591e-03 2.97619053e-03
      1.78571437e-02 1.48809527e-03 1.48809527e-03 3.27380970e-02
      4.46428591e-03</_>
    <_>
      5.42299356e-03 1.08459871e-03 6.50759228e-03 0. 1.08459871e-03
      1.08459871e-03 6.29067272e-02 4.33839485e-03 5.42299356e-03
      4.98915389e-02 7.59219099e-03 4.33839485e-03 9.76138841e-03
      3.25379614e-03 0. 5.09761386e-02 4.33839485e-03 2.16919743e-03
      4.33839485e-03 7.59219099e-03 2.16919743e-03 1.08459871e-03
      2.16919743e-03 2.16919743e-03 1.08459871e-03 6.50759228e-03
      2.16919743e-03 2.16919743e-03 6.50759228e-03 5.42299356e-03
      7.59219099e-03 2.81995665e-02 2.16919743e-03 1.08459871e-03
      5.42299356e-03 1.40997833e-02 2.16919743e-03 2.38611717e-02
      2.16919743e-03 3.47071588e-02 2.06073746e-02 5.42299356e-03
      9.76138841e-03 3.14533636e-02 2.16919743e-03 1.30151846e-02
      2.06073746e-02 1.08459871e-03 0. 4.55531441e-02 3.25379614e-03
      2.16919743e-03 3.25379614e-03 4.33839485e-03 0. 1.51843820e-02
      1.08459871e-02 6.50759228e-03 4.55531441e-02 5.53145334e-02
      4.33839485e-03 3.25379614e-03 1.73535794e-02 5.42299356e-03
      1.08459871e-03 7.59219099e-03 4.33839485e-03 1.73535794e-02
      1.08459871e-03 2.16919743e-03 9.76138841e-03 1.08459871e-02
      6.50759228e-03 1.08459871e-03 6.50759228e-03 7.59219099e-03
      3.14533636e-02 2.16919743e-03 2.16919743e-03 1.08459871e-02
      6.50759228e-03 8.67678970e-03 2.38611717e-02 4.33839485e-03
      2.49457695e-02 1.08459871e-03 9.76138841e-03 1.08459871e-03 0.
      4.33839485e-03 4.33839485e-03 1.30151846e-02 2.16919743e-03
      3.25379614e-03 1.08459871e-03 1.19305858e-02 1.08459871e-03
      3.25379614e-03 3.14533636e-02 9.76138841e-03</_>
    <_>
      1.56862754e-02 0. 7.84313772e-03 3.92156886e-03 0. 7.84313772e-03
      1.17647061e-02 3.92156886e-03 1.56862754e-02 1.96078438e-02 0.
      1.96078438e-02 0. 7.84313772e-03 0. 1.96078438e-02 3.92156886e-03
      3.92156886e-03 3.92156886e-03 0. 1.17647061e-02 7.84313772e-03
      3.92156886e-03 0. 0. 2.74509806e-02 3.92156886e-03 2.35294122e-02
      0. 0. 7.84313772e-03 1.56862754e-02 1.56862754e-02 0.
      7.84313772e-03 2.35294122e-02 3.92156886e-03 1.96078438e-02
      3.92156886e-03 4.31372561e-02 1.56862754e-02 2.35294122e-02
      1.56862754e-02 4.70588244e-02 1.17647061e-02 3.92156886e-03
      4.31372561e-02 3.92156886e-03 0. 0. 0. 0. 0. 3.92156886e-03
      3.92156886e-03 7.84313772e-03 1.96078438e-02 3.92156886e-03
      1.17647061e-02 5.09803928e-02 1.17647061e-02 7.84313772e-03
      3.52941193e-02 3.92156886e-03 0. 1.56862754e-02 7.84313772e-03
      2.35294122e-02 3.92156886e-03 3.92156886e-03 7.84313772e-03
      7.84313772e-03 1.17647061e-02 7.84313772e-03 1.17647061e-02
      1.17647061e-02 3.92156886e-03 3.92156886e-03 0. 7.84313772e-03
      3.92156886e-03 1.56862754e-02 3.13725509e-02 1.56862754e-02
      2.35294122e-02 0. 1.96078438e-02 0. 3.92156886e-03 1.56862754e-02
      0. 3.92156886e-03 0. 3.92156886e-03 7.84313772e-03 0.
      3.92156886e-03 0. 1.56862754e-02 1.56862754e-02</_>
    <_>
      9.01916530e-03 3.38218710e-03 4.50958265e-03 4.50958265e-03
      4.50958265e-03 0. 3.49492654e-02 4.50958265e-03 1.35287484e-02
      3.26944776e-02 5.63697843e-03 3.38218710e-03 1.12739566e-03
      1.57835409e-02 1.12739566e-03 3.04396842e-02 1.01465611e-02
      5.63697843e-03 7.89177045e-03 2.25479132e-03 6.76437421e-03
      2.25479132e-03 0. 2.25479132e-03 3.38218710e-03 2.81848926e-02
      3.38218710e-03 1.46561442e-02 2.25479132e-03 7.89177045e-03
      5.63697843e-03 2.36753095e-02 1.12739569e-02 2.25479132e-03
      3.38218710e-03 2.36753095e-02 1.12739566e-03 1.80383306e-02
      2.25479132e-03 1.91657264e-02 1.24013526e-02 9.01916530e-03
      1.12739566e-03 6.65163472e-02 3.38218710e-03 5.63697843e-03
      3.38218696e-02 2.25479132e-03 4.50958265e-03 2.93122884e-02
      5.63697843e-03 2.25479132e-03 7.89177045e-03 3.38218710e-03 0.
      2.14205179e-02 9.01916530e-03 6.76437421e-03 2.36753095e-02
      5.52423894e-02 2.25479132e-03 1.12739569e-02 9.01916530e-03
      2.25479132e-03 1.12739566e-03 4.50958265e-03 6.76437421e-03
      1.57835409e-02 1.12739566e-03 5.63697843e-03 1.24013526e-02
      4.50958265e-03 4.50958265e-03 3.38218710e-03 6.76437421e-03
      3.38218710e-03 1.57835409e-02 1.12739566e-03 7.89177045e-03
      1.57835409e-02 1.12739566e-03 1.24013526e-02 4.73506190e-02
      3.38218710e-03 2.14205179e-02 6.76437421e-03 1.01465611e-02 0.
      6.76437421e-03 4.50958265e-03 1.12739566e-03 2.25479132e-03
      6.76437421e-03 1.12739566e-03 3.38218710e-03 2.25479132e-03 0.
      1.57835409e-02 3.38218696e-02 4.50958265e-03</_>
    <_>
      1.20481923e-02 0. 0. 1.72117038e-03 3.44234076e-03 1.72117038e-03
      6.71256483e-02 0. 1.89328752e-02 3.95869203e-02 0. 1.72117038e-03
      3.44234076e-03 6.88468153e-03 1.72117038e-03 5.33562824e-02
      6.88468153e-03 6.88468153e-03 0. 1.72117038e-03 3.44234076e-03
      1.89328752e-02 3.44234076e-03 1.72117038e-03 5.16351126e-03
      3.44234072e-02 0. 6.88468153e-03 3.44234076e-03 1.54905338e-02
      1.72117038e-03 0. 3.44234076e-03 1.72117038e-03 5.16351126e-03
      8.60585179e-03 0. 1.72117036e-02 0. 3.61445770e-02 5.16351126e-03
      8.60585179e-03 3.44234076e-03 2.23752148e-02 5.16351126e-03
      3.44234076e-03 8.60585179e-03 0. 1.72117038e-03 4.64715995e-02
      1.20481923e-02 0. 1.54905338e-02 3.44234076e-03 5.16351126e-03
      2.23752148e-02 1.72117038e-03 3.44234076e-03 8.26161802e-02
      2.23752148e-02 8.60585179e-03 3.44234076e-03 1.03270225e-02
      8.60585179e-03 0. 3.44234076e-03 5.16351126e-03 3.27022374e-02
      3.44234076e-03 1.72117038e-03 6.88468153e-03 5.16351126e-03
      1.72117038e-03 1.72117038e-03 6.88468153e-03 8.60585179e-03
      1.37693631e-02 0. 1.72117038e-03 3.61445770e-02 0. 2.23752148e-02
      4.13080901e-02 5.16351126e-03 2.40963846e-02 1.72117038e-03
      2.06540450e-02 0. 1.72117038e-03 1.03270225e-02 0. 3.44234076e-03
      0. 1.72117038e-03 0. 5.16351126e-03 0. 3.09810676e-02
      3.44234076e-03 0.</_>
    <_>
      8.59598815e-03 8.59598815e-03 0. 0. 5.73065924e-03 0.
      5.73065924e-03 2.86532962e-03 0. 3.43839526e-02 5.73065924e-03
      1.43266479e-02 8.59598815e-03 0. 8.59598815e-03 2.29226369e-02
      2.57879663e-02 0. 0. 1.14613185e-02 0. 2.86532962e-03
      5.73065924e-03 8.59598815e-03 2.86532962e-03 4.01146114e-02 0.
      8.59598815e-03 1.71919763e-02 2.86532962e-03 5.73065924e-03
      2.00573057e-02 2.86532962e-03 0. 8.59598815e-03 2.86532957e-02 0.
      8.59598815e-03 0. 1.14613185e-02 1.71919763e-02 2.86532962e-03
      1.43266479e-02 1.37535810e-01 8.59598815e-03 8.59598815e-03
      1.14613185e-02 8.59598815e-03 0. 1.43266479e-02 1.14613185e-02
      2.86532962e-03 8.59598815e-03 0. 0. 2.00573057e-02 5.73065924e-03
      0. 0. 2.00573057e-02 2.57879663e-02 0. 2.29226369e-02
      8.59598815e-03 0. 2.00573057e-02 0. 2.86532962e-03 0. 0.
      8.59598815e-03 1.14613185e-02 5.73065924e-03 8.59598815e-03
      8.59598815e-03 2.86532962e-03 2.29226369e-02 0. 0. 3.72492820e-02
      0. 2.86532957e-02 2.29226369e-02 8.59598815e-03 8.59598815e-03 0.
      1.14613185e-02 0. 1.14613185e-02 1.43266479e-02 0. 1.43266479e-02
      0. 1.14613185e-02 0. 1.14613185e-02 0. 1.43266479e-02
      1.43266479e-02 1.14613185e-02</_>
    <_>
      1.06761567e-02 4.06710710e-03 1.22013222e-02 1.32180983e-02
      7.11743766e-03 4.57549561e-03 3.76207419e-02 8.13421421e-03
      2.03355355e-03 6.81240484e-02 5.08388411e-03 1.52516523e-02
      6.60904916e-03 9.15099122e-03 3.05033056e-03 2.99949162e-02
      1.32180983e-02 6.60904916e-03 7.11743766e-03 2.03355355e-03
      1.06761567e-02 3.05033056e-03 1.52516528e-03 5.59227262e-03
      6.60904916e-03 1.98271479e-02 8.64260271e-03 1.22013222e-02
      5.08388411e-03 7.11743766e-03 2.03355355e-03 8.64260271e-03
      1.11845452e-02 1.52516528e-03 5.59227262e-03 8.64260271e-03
      6.10066112e-03 3.40620242e-02 7.11743766e-03 1.47432638e-02
      3.05033056e-03 4.06710710e-03 4.06710710e-03 3.81291322e-02
      6.10066112e-03 4.57549561e-03 8.64260271e-03 6.60904916e-03
      1.22013222e-02 1.77935939e-02 2.54194206e-03 3.55871883e-03
      8.13421421e-03 6.60904916e-03 1.52516528e-03 1.62684284e-02
      7.11743766e-03 6.60904916e-03 3.76207419e-02 2.74529736e-02
      9.15099122e-03 1.37264868e-02 3.55871883e-03 5.08388411e-03
      1.52516528e-03 3.55871883e-03 9.15099122e-03 2.08439250e-02
      5.08388411e-03 7.62582617e-03 1.72852054e-02 3.55871883e-03
      6.10066112e-03 7.62582617e-03 3.55871883e-03 4.57549561e-03
      1.27097098e-02 2.03355355e-03 8.64260271e-03 5.59227262e-03
      5.08388411e-03 1.27097098e-02 2.54194196e-02 1.22013222e-02
      7.62582617e-03 7.62582617e-03 1.42348753e-02 8.64260271e-03
      4.06710710e-03 6.10066112e-03 5.08388411e-03 1.06761567e-02
      4.06710710e-03 1.06761567e-02 1.52516528e-03 2.03355355e-03
      7.11743766e-03 3.55871883e-03 1.62684284e-02 1.57600399e-02</_>
    <_>
      1.84331797e-02 2.30414746e-03 1.38248848e-02 9.21658985e-03
      6.91244239e-03 2.30414746e-03 1.15207378e-02 2.30414746e-03
      1.84331797e-02 5.52995391e-02 4.60829493e-03 6.91244239e-03
      2.30414746e-03 1.61290318e-02 0. 4.14746553e-02 1.61290318e-02
      2.30414746e-03 2.30414746e-03 2.30414746e-03 6.91244239e-03
      2.30414746e-03 1.38248848e-02 1.15207378e-02 0. 4.60829493e-03
      2.30414746e-03 1.84331797e-02 0. 1.84331797e-02 0. 1.61290318e-02
      1.15207378e-02 4.60829493e-03 1.61290318e-02 6.91244239e-03
      6.91244239e-03 1.15207378e-02 9.21658985e-03 3.91705073e-02 0.
      6.91244239e-03 1.15207378e-02 1.61290318e-02 1.15207378e-02
      1.61290318e-02 1.84331797e-02 6.91244239e-03 6.91244239e-03
      1.61290318e-02 1.84331797e-02 6.91244239e-03 4.60829493e-03
      1.61290318e-02 2.30414746e-03 1.38248848e-02 4.60829493e-03
      2.30414746e-03 1.15207378e-02 3.45622115e-02 4.60829493e-03
      1.15207378e-02 9.21658985e-03 4.60829493e-03 0. 1.84331797e-02
      1.15207378e-02 1.84331797e-02 2.30414746e-03 0. 4.60829493e-03
      9.21658985e-03 4.60829493e-03 9.21658985e-03 1.38248848e-02
      1.15207378e-02 2.99539175e-02 0. 4.60829493e-03 4.60829493e-03 0.
      9.21658985e-03 2.07373276e-02 1.15207378e-02 2.30414756e-02
      2.30414746e-03 1.61290318e-02 2.53456216e-02 2.30414746e-03
      2.30414746e-03 9.21658985e-03 1.15207378e-02 0. 9.21658985e-03
      2.30414746e-03 9.21658985e-03 0. 2.30414746e-03 4.60829493e-03
      4.60829493e-03</_>
    <_>
      1.38888890e-02 0. 0. 9.25925933e-03 4.62962966e-03 0.
      6.01851866e-02 4.62962966e-03 9.25925933e-03 6.48148134e-02
      4.62962966e-03 0. 4.62962966e-03 4.62962966e-03 0. 3.24074067e-02
      0. 9.25925933e-03 1.38888890e-02 0. 0. 3.70370373e-02 0. 0. 0.
      4.62962966e-03 4.62962966e-03 2.77777780e-02 0. 0. 0.
      2.77777780e-02 1.85185187e-02 0. 2.31481474e-02 2.77777780e-02 0.
      9.25925933e-03 0. 3.24074067e-02 2.31481474e-02 9.25925933e-03 0.
      4.16666679e-02 9.25925933e-03 4.62962966e-03 1.85185187e-02 0. 0.
      1.85185187e-02 9.25925933e-03 9.25925933e-03 0. 0. 0. 0. 0.
      4.62962966e-03 2.31481474e-02 3.24074067e-02 0. 1.38888890e-02
      2.31481474e-02 0. 0. 1.85185187e-02 1.38888890e-02 0.
      4.62962966e-03 0. 1.85185187e-02 1.85185187e-02 4.62962966e-03 0.
      1.85185187e-02 4.62962966e-03 0. 0. 0. 4.16666679e-02 0.
      1.85185187e-02 2.77777780e-02 0. 4.62962966e-03 0. 2.77777780e-02
      0. 0. 0. 4.62962966e-03 4.62962966e-03 0. 0. 0. 2.31481474e-02 0.
      9.25925933e-03 4.62962948e-02 0.</_>
    <_>
      1.44444443e-02 1.11111114e-03 7.77777797e-03 3.33333341e-03
      6.66666683e-03 0. 6.22222237e-02 8.88888910e-03 1.11111114e-02
      7.33333305e-02 4.44444455e-03 9.99999978e-03 8.88888910e-03
      4.44444455e-03 6.66666683e-03 4.88888882e-02 5.55555569e-03
      2.22222228e-03 3.33333341e-03 1.11111114e-03 1.11111114e-03
      7.77777797e-03 1.11111114e-03 2.22222228e-03 1.11111114e-03
      7.77777797e-03 1.11111114e-03 6.66666683e-03 6.66666683e-03
      1.11111114e-03 2.22222228e-03 1.33333337e-02 7.77777797e-03
      2.22222228e-03 1.88888889e-02 1.77777782e-02 1.11111114e-03
      1.88888889e-02 0. 2.22222228e-02 1.33333337e-02 1.99999996e-02 0.
      5.99999987e-02 6.66666683e-03 2.22222228e-03 2.11111102e-02 0.
      1.11111114e-03 3.44444439e-02 2.22222228e-03 2.22222228e-03
      3.33333341e-03 3.33333341e-03 2.22222228e-03 4.44444455e-03
      2.22222228e-03 4.44444455e-03 5.33333346e-02 4.22222205e-02
      5.55555569e-03 9.99999978e-03 9.99999978e-03 5.55555569e-03
      1.11111114e-03 1.99999996e-02 4.44444455e-03 5.55555569e-03
      1.11111114e-03 3.33333341e-03 1.77777782e-02 0. 7.77777797e-03
      3.33333341e-03 7.77777797e-03 6.66666683e-03 1.77777782e-02 0.
      1.11111114e-03 5.55555569e-03 7.77777797e-03 7.77777797e-03
      2.44444441e-02 7.77777797e-03 1.22222221e-02 1.11111114e-03
      1.99999996e-02 1.11111114e-03 5.55555569e-03 8.88888910e-03
      1.11111114e-03 1.22222221e-02 1.11111114e-03 3.33333341e-03 0.
      5.55555569e-03 9.99999978e-03 0. 2.33333334e-02 7.77777797e-03</_>
    <_>
      7.71775097e-03 2.20507174e-03 3.30760749e-03 1.10253580e-02
      1.10253587e-03 2.20507174e-03 2.64608599e-02 0. 2.20507174e-03
      1.60970226e-01 7.71775097e-03 0. 3.30760749e-03 3.30760749e-03
      2.20507174e-03 5.18191829e-02 4.41014348e-03 3.30760749e-03
      7.71775097e-03 0. 5.51267900e-03 6.61521498e-03 3.30760749e-03
      3.30760749e-03 1.10253587e-03 1.32304300e-02 3.30760749e-03
      2.20507174e-03 3.30760749e-03 8.82028695e-03 2.20507174e-03
      2.42557880e-02 1.10253587e-03 0. 4.41014348e-03 1.87431090e-02
      4.41014348e-03 1.76405739e-02 1.10253587e-03 4.41014348e-03
      2.42557880e-02 2.20507174e-03 2.20507174e-03 9.26130116e-02
      1.10253587e-03 2.20507174e-03 1.87431090e-02 1.10253587e-03
      6.61521498e-03 2.53583249e-02 4.41014348e-03 1.10253587e-03
      7.71775097e-03 1.10253587e-03 0. 1.87431090e-02 3.30760749e-03
      3.30760749e-03 3.19735408e-02 2.53583249e-02 1.10253580e-02
      4.41014348e-03 8.82028695e-03 1.65380370e-02 0. 1.10253580e-02
      5.51267900e-03 1.43329659e-02 0. 1.10253587e-03 3.30760749e-03
      4.41014348e-03 1.98456459e-02 1.10253587e-03 0. 5.51267900e-03
      6.61521498e-03 1.10253587e-03 0. 3.96912917e-02 4.41014348e-03
      1.10253580e-02 3.19735408e-02 5.51267900e-03 7.71775097e-03
      3.30760749e-03 9.92282294e-03 2.20507174e-03 5.51267900e-03
      5.51267900e-03 1.10253587e-03 1.54355019e-02 0. 1.10253587e-03 0.
      1.32304300e-02 1.10253587e-03 8.82028695e-03 5.51267900e-03
      8.82028695e-03</_>
    <_>
      7.91666657e-03 2.49999994e-03 8.33333377e-03 2.08333340e-02
      4.99999989e-03 4.16666688e-03 3.87500003e-02 9.99999978e-03
      7.08333356e-03 2.37499997e-02 8.33333377e-03 7.91666657e-03
      4.99999989e-03 7.49999983e-03 7.91666657e-03 2.54166666e-02
      7.91666657e-03 1.37499999e-02 4.99999989e-03 7.08333356e-03
      7.08333356e-03 1.41666671e-02 2.49999994e-03 6.66666683e-03
      4.16666688e-03 9.16666631e-03 7.49999983e-03 1.04166670e-02
      1.04166670e-02 7.08333356e-03 1.16666667e-02 1.37499999e-02
      6.66666683e-03 3.33333341e-03 2.91666668e-03 1.79166663e-02
      4.16666688e-03 1.49999997e-02 7.08333356e-03 2.54166666e-02
      7.08333356e-03 3.74999992e-03 5.83333336e-03 2.08333340e-02
      7.91666657e-03 3.33333341e-03 1.41666671e-02 3.74999992e-03
      6.66666683e-03 1.79166663e-02 4.16666688e-03 6.25000009e-03
      1.66666675e-02 8.33333377e-03 3.33333341e-03 9.58333351e-03
      5.41666662e-03 5.83333336e-03 2.37499997e-02 2.87500005e-02
      9.99999978e-03 1.16666667e-02 9.99999978e-03 7.91666657e-03
      5.41666662e-03 5.41666662e-03 4.16666688e-03 4.16666688e-03
      6.25000009e-03 4.99999989e-03 1.25000002e-02 4.16666688e-03
      3.74999992e-03 7.91666657e-03 3.74999992e-03 8.33333377e-03
      2.66666673e-02 6.66666683e-03 3.33333341e-03 2.04166658e-02
      2.91666668e-03 1.33333337e-02 1.95833333e-02 1.75000001e-02
      1.37499999e-02 5.83333336e-03 2.16666665e-02 5.83333336e-03
      1.54166669e-02 7.08333356e-03 6.25000009e-03 1.16666667e-02
      6.66666683e-03 4.99999989e-03 7.49999983e-03 5.83333336e-03
      5.83333336e-03 8.33333377e-03 2.45833341e-02 1.33333337e-02</_>
    <_>
      1.09657561e-02 8.08003079e-03 1.00038480e-02 1.46210082e-02
      1.00038480e-02 8.84955749e-03 1.17352828e-02 1.13505190e-02
      1.00038480e-02 3.61677557e-02 9.42670275e-03 1.09657561e-02
      9.23432130e-03 1.26971910e-02 8.46479461e-03 1.63524430e-02
      1.34667177e-02 1.13505190e-02 8.08003079e-03 9.61908419e-03
      6.34859549e-03 1.50057711e-02 2.11619865e-03 9.42670275e-03
      9.61908419e-03 1.09657561e-02 1.23124281e-02 8.27241223e-03
      6.34859549e-03 7.11812219e-03 8.65717605e-03 1.34667177e-02
      1.07733747e-02 5.38668735e-03 8.27241223e-03 1.55829163e-02
      7.31050409e-03 1.30819548e-02 8.08003079e-03 6.73335884e-03
      5.19430544e-03 6.92574074e-03 9.23432130e-03 4.05925363e-02
      7.11812219e-03 6.34859549e-03 1.63524430e-02 6.73335884e-03
      1.34667177e-02 8.08003079e-03 1.73143519e-03 8.08003079e-03
      6.92574074e-03 1.03886109e-02 5.38668735e-03 9.04193893e-03
      8.46479461e-03 7.50288554e-03 6.92574074e-03 2.02000774e-02
      1.53905349e-02 1.17352828e-02 9.81146563e-03 1.03886109e-02
      7.50288554e-03 5.96383214e-03 1.01962294e-02 4.42477874e-03
      6.54097740e-03 6.34859549e-03 1.17352828e-02 7.11812219e-03
      8.84955749e-03 9.23432130e-03 6.34859549e-03 7.88764935e-03
      5.38668735e-03 5.00192400e-03 7.69526744e-03 1.88534055e-02
      3.07810702e-03 1.67372059e-02 1.21200457e-02 1.09657561e-02
      6.73335884e-03 1.19276643e-02 1.05809923e-02 1.09657561e-02
      1.25048095e-02 9.81146563e-03 6.92574074e-03 1.42362444e-02
      8.08003079e-03 8.65717605e-03 5.77145070e-03 7.31050409e-03
      1.09657561e-02 5.57906879e-03 9.81146563e-03 9.81146563e-03</_>
    <_>
      2.34375000e-02 3.90625000e-03 2.34375000e-02 1.95312500e-02
