<?xml version="1.0"?>
<opencv_storage>
<my_svm type_id="opencv-ml-svm">
  <svm_type>C_SVC</svm_type>
  <kernel><type>RBF</type>
    <gamma>5.0625000000000009e-01</gamma></kernel>
  <C>3.1250000000000000e+02</C>
  <term_criteria><epsilon>2.2204460492503131e-16</epsilon>
    <iterations>100000</iterations></term_criteria>
  <var_all>100</var_all>
  <var_count>100</var_count>
  <class_count>6</class_count>
  <class_labels type_id="opencv-matrix">
    <rows>1</rows>
    <cols>6</cols>
    <dt>i</dt>
    <data>
      1 2 3 4 5 6</data></class_labels>
  <sv_total>121</sv_total>
  <support_vectors>
    <_>
      5.91510069e-03 1.35699371e-02 9.04662535e-03 1.87891442e-02
      6.26304792e-03 7.48086302e-03 7.13291578e-03 1.77453030e-02
      1.44398054e-02 8.69867764e-03 5.39318006e-03 5.21920668e-03
      7.30688917e-03 1.25260958e-02 7.13291578e-03 1.04384134e-02
      7.65483640e-03 1.25260958e-02 8.69867764e-03 4.87125944e-03
      1.09603340e-02 8.87265150e-03 8.87265150e-03 4.00139159e-03
      1.07863601e-02 1.21781491e-02 1.79192759e-02 8.87265150e-03
      1.18302014e-02 8.35073087e-03 1.27000697e-02 1.58315934e-02
      8.69867764e-03 1.11343078e-02 5.21920668e-03 4.52331267e-03
      7.82881025e-03 8.17675702e-03 8.87265150e-03 9.91649274e-03
      8.69867764e-03 1.86151713e-02 7.82881025e-03 9.22059827e-03
      8.52470379e-03 1.06123872e-02 1.16562285e-02 1.04384134e-02
      7.30688917e-03 1.65274870e-02 5.39318006e-03 1.14822546e-02
      7.82881025e-03 7.13291578e-03 1.06123872e-02 1.32219903e-02
      5.21920668e-03 6.95894239e-03 7.82881025e-03 1.20041752e-02
      2.73138490e-02 6.43702177e-03 8.52470379e-03 4.17536544e-03
      1.07863601e-02 1.49617260e-02 1.39178848e-02 4.69728606e-03
      9.91649274e-03 1.02644395e-02 8.00278317e-03 9.56854597e-03
      1.11343078e-02 6.61099516e-03 1.13082808e-02 1.42658316e-02
      1.40918577e-02 1.07863601e-02 1.33959642e-02 1.11343078e-02
      2.71398742e-02 9.04662535e-03 8.35073087e-03 1.04384134e-02
      3.65344458e-03 8.00278317e-03 4.69728606e-03 7.65483640e-03
      5.04523329e-03 5.74112730e-03 1.13082808e-02 6.95894239e-03
      1.16562285e-02 1.21781491e-02 8.69867764e-03 1.82672236e-02
      7.82881025e-03 9.56854597e-03 9.91649274e-03 9.04662535e-03</_>
    <_>
      1.03909830e-02 9.68650915e-03 7.39697088e-03 2.07819659e-02
      6.51637884e-03 5.63578727e-03 9.68650915e-03 1.37372315e-02
      1.79640725e-02 1.07432194e-02 5.63578727e-03 8.98203626e-03
      8.45368113e-03 1.72595978e-02 8.80591758e-03 1.76118352e-02
      9.86262783e-03 1.14476932e-02 6.86861575e-03 9.86262783e-03
      7.74920732e-03 9.86262783e-03 1.03909830e-02 1.32088764e-02
      7.92532600e-03 6.51637884e-03 1.46178231e-02 1.17999297e-02
      1.03909830e-02 5.10743214e-03 1.33849951e-02 1.00387456e-02
      8.27756245e-03 4.05072188e-03 8.62979889e-03 7.57308910e-03
      1.02148643e-02 1.02148643e-02 8.80591758e-03 1.14476932e-02
      8.10144376e-03 1.32088764e-02 5.81190549e-03 8.45368113e-03
      5.28355036e-03 7.22085219e-03 4.40295879e-03 9.15815402e-03
      8.62979889e-03 1.21521661e-02 5.28355036e-03 1.63790062e-02
      9.15815402e-03 1.05671007e-02 1.19760484e-02 1.19760484e-02
      1.14476932e-02 7.39697088e-03 5.45966905e-03 1.03909830e-02
      2.25431491e-02 1.03909830e-02 1.02148643e-02 1.67312436e-02
      9.86262783e-03 6.86861575e-03 9.15815402e-03 1.17999297e-02
      1.60267707e-02 9.86262783e-03 7.74920732e-03 9.68650915e-03
      1.05671007e-02 6.86861575e-03 8.62979889e-03 1.37372315e-02
      2.16625575e-02 1.10954558e-02 8.10144376e-03 1.28566399e-02
      1.60267707e-02 8.62979889e-03 8.27756245e-03 1.12715745e-02
      6.69249753e-03 8.80591758e-03 7.92532600e-03 1.02148643e-02
      5.81190549e-03 6.51637884e-03 8.80591758e-03 7.39697088e-03
      1.07432194e-02 8.27756245e-03 6.69249753e-03 8.27756245e-03
      3.52236698e-03 1.39133502e-02 9.68650915e-03 8.10144376e-03</_>
    <_>
      2.06362847e-02 6.44883933e-03 1.28976787e-02 2.45055892e-02
      3.00945831e-03 8.16852972e-03 4.29922622e-03 1.46173686e-02
      5.58899390e-03 1.16079105e-02 6.87876204e-03 8.16852972e-03
      1.07480651e-02 2.14961302e-02 1.03181424e-02 3.65434214e-02
      4.72914893e-03 1.89165957e-02 1.03181424e-02 8.59845243e-03
      2.70851254e-02 6.44883933e-03 3.43938102e-03 1.16079105e-02
      9.02837515e-03 7.73860700e-03 1.11779878e-02 1.16079105e-02
      1.67669822e-02 7.73860700e-03 1.33276014e-02 2.40756664e-02
      1.07480651e-02 7.30868429e-03 6.01891661e-03 1.33276014e-02
      7.30868429e-03 9.88822058e-03 6.44883933e-03 2.57953559e-03
      3.86930350e-03 4.72914893e-03 8.16852972e-03 6.01891661e-03
      9.88822058e-03 9.45829786e-03 6.87876204e-03 3.35339643e-02
      6.87876204e-03 7.30868429e-03 6.87876204e-03 4.72914893e-03
      1.11779878e-02 6.01891661e-03 1.37575241e-02 2.57953559e-03
      4.29922622e-03 7.73860700e-03 1.03181424e-02 1.16079105e-02
      7.73860700e-03 8.59845243e-03 5.58899390e-03 3.00945831e-03
      1.03181424e-02 2.14961311e-03 7.30868429e-03 7.30868429e-03
      1.59071367e-02 1.33276014e-02 7.30868429e-03 3.00945831e-03
      1.24677559e-02 8.59845243e-03 8.59845243e-03 1.89165957e-02
      1.76268276e-02 9.88822058e-03 3.43938102e-03 8.59845243e-03
      1.16079105e-02 9.02837515e-03 6.87876204e-03 2.27858983e-02
      9.02837515e-03 8.59845243e-03 6.01891661e-03 9.02837515e-03
      9.45829786e-03 6.44883933e-03 8.16852972e-03 1.24677559e-02
      9.88822058e-03 1.11779878e-02 3.43938102e-03 9.45829786e-03
      1.71969051e-03 1.46173686e-02 6.01891661e-03 6.44883933e-03</_>
    <_>
      1.34383691e-02 1.39017608e-02 1.11214090e-02 2.31696013e-02
      4.17052815e-03 7.87766464e-03 1.01946248e-02 1.25115849e-02
      3.24374414e-03 1.25115849e-02 7.87766464e-03 6.95088040e-03
      1.57553293e-02 8.34105629e-03 6.48748828e-03 3.24374437e-02
      6.95088040e-03 2.45597772e-02 9.26784053e-03 1.29749766e-02
      1.39017608e-02 5.09731239e-03 6.95088040e-03 1.29749766e-02
      7.41427252e-03 6.02409616e-03 1.11214090e-02 7.87766464e-03
      8.80444888e-03 6.02409616e-03 1.06580164e-02 2.08526421e-02
      1.43651525e-02 1.20481923e-02 6.95088040e-03 1.06580164e-02
      1.39017608e-02 5.09731239e-03 9.26784053e-03 3.24374414e-03
      1.15848007e-02 8.80444888e-03 8.80444888e-03 4.17052815e-03
      3.24374414e-03 9.73123219e-03 2.03892495e-02 1.89990737e-02
      7.87766464e-03 1.01946248e-02 1.39017608e-02 4.63392027e-03
      1.01946248e-02 1.15848007e-02 1.25115849e-02 5.09731239e-03
      5.56070451e-03 9.73123219e-03 8.34105629e-03 8.34105629e-03
      4.17052815e-03 4.63392027e-03 7.87766464e-03 8.34105629e-03
      4.17052815e-03 7.41427252e-03 7.41427252e-03 8.34105629e-03
      7.41427252e-03 1.25115849e-02 6.02409616e-03 8.34105629e-03
      1.57553293e-02 1.76088978e-02 1.34383691e-02 1.25115849e-02
      1.01946248e-02 3.70713626e-03 6.48748828e-03 8.34105629e-03
      1.29749766e-02 1.25115849e-02 9.73123219e-03 1.62187219e-02
      7.41427252e-03 8.80444888e-03 1.15848007e-02 1.01946248e-02
      7.87766464e-03 7.87766464e-03 5.09731239e-03 1.25115849e-02
      8.80444888e-03 4.17052815e-03 6.48748828e-03 1.29749766e-02
      1.71455052e-02 5.56070451e-03 6.02409616e-03 1.06580164e-02</_>
    <_>
      8.13008100e-03 1.35501353e-02 3.38753383e-03 1.62601620e-02
      4.06504050e-03 8.13008100e-03 1.35501353e-02 1.89701896e-02
      5.42005431e-03 6.09756075e-03 2.03252025e-03 4.74254740e-03
      8.80758837e-03 2.91327909e-02 8.13008100e-03 2.43902430e-02
      6.77506765e-03 1.42276427e-02 9.48509481e-03 6.77506765e-03
      1.01626012e-02 6.09756075e-03 6.09756075e-03 8.13008100e-03
      8.80758837e-03 4.06504050e-03 1.82926822e-02 1.15176151e-02
      2.03252025e-03 4.06504050e-03 1.08401086e-02 1.96476970e-02
      1.01626012e-02 8.13008100e-03 6.77506765e-03 8.80758837e-03
      8.13008100e-03 4.74254740e-03 8.80758837e-03 1.08401086e-02
      1.15176151e-02 6.09756075e-03 6.09756075e-03 6.09756075e-03
      5.42005431e-03 8.13008100e-03 1.49051491e-02 1.49051491e-02
      5.42005431e-03 9.48509481e-03 6.09756075e-03 1.08401086e-02
      3.52303535e-02 8.13008100e-03 1.76151767e-02 7.45257456e-03
      1.35501358e-03 6.77506765e-03 5.42005431e-03 1.42276427e-02
      4.06504050e-03 5.42005431e-03 8.13008100e-03 4.60704602e-02
      6.77506765e-03 4.06504050e-03 1.15176151e-02 3.59078608e-02
      2.10027099e-02 1.21951215e-02 6.09756075e-03 1.82926822e-02
      1.69376694e-02 6.09756075e-03 1.01626012e-02 8.80758837e-03
      1.01626012e-02 8.13008100e-03 6.09756075e-03 6.09756075e-03
      4.74254740e-03 6.09756075e-03 6.77506765e-03 1.35501353e-02
      2.03252025e-03 3.38753383e-03 4.06504050e-03 1.08401086e-02
      2.71002715e-03 3.38753383e-03 7.45257456e-03 1.15176151e-02
      1.69376694e-02 1.01626012e-02 6.77506765e-03 1.69376694e-02
      9.48509481e-03 5.42005431e-03 6.77506765e-03 9.48509481e-03</_>
    <_>
      1.27181308e-02 4.73232754e-03 2.07039341e-03 2.95770485e-02
      3.84501624e-03 7.09849177e-03 8.57734401e-03 8.28157365e-03
      1.36054419e-02 1.47885242e-02 6.50695059e-03 8.28157365e-03
      1.00561967e-02 2.09997036e-02 5.02809836e-03 2.51404904e-02
      4.14078683e-03 1.21265901e-02 8.57734401e-03 8.57734401e-03
      1.47885242e-02 6.80272095e-03 8.57734401e-03 1.44927539e-02
      1.15350485e-02 6.21118024e-03 9.16888472e-03 7.69003248e-03
      1.86335407e-02 8.57734401e-03 6.21118024e-03 9.16888472e-03
      1.15350485e-02 8.28157365e-03 6.21118024e-03 1.15350485e-02
      1.53800650e-02 1.15350485e-02 8.28157365e-03 3.84501624e-03
      1.03519671e-02 5.32386871e-03 9.16888472e-03 3.54924588e-03
      9.46465507e-03 1.30139012e-02 7.69003248e-03 3.16474400e-02
      1.21265901e-02 5.91540942e-03 1.24223605e-02 7.69003248e-03
      1.41969835e-02 7.98580330e-03 1.21265901e-02 5.61963907e-03
      5.91540942e-03 1.21265901e-02 3.25347530e-03 9.46465507e-03
      4.43655718e-03 6.21118024e-03 7.09849177e-03 2.01123934e-02
      7.69003248e-03 2.36616377e-03 4.14078683e-03 1.71546880e-02
      1.98166221e-02 1.36054419e-02 9.46465507e-03 8.87311436e-03
      1.65631473e-02 1.06477374e-02 4.14078683e-03 2.01123934e-02
      2.66193436e-03 1.06477374e-02 5.32386871e-03 8.87311436e-03
      9.46465507e-03 1.47885242e-02 8.87311436e-03 2.07039341e-02
      1.00561967e-02 1.24223605e-02 5.61963907e-03 7.09849177e-03
      1.15350485e-02 8.28157365e-03 3.25347530e-03 1.12392781e-02
      1.24223605e-02 7.09849177e-03 8.87311436e-03 1.00561967e-02
      5.32386871e-03 5.02809836e-03 5.91540942e-03 9.76042636e-03</_>
    <_>
      6.40439149e-03 4.57456522e-03 2.74473918e-03 3.29368711e-02
      2.74473918e-03 8.23421776e-03 1.37236966e-02 1.92131754e-02
      3.65965231e-03 8.23421776e-03 1.82982616e-03 2.74473918e-03
      4.57456522e-03 2.65324786e-02 2.74473918e-03 6.95333928e-02
      4.57456522e-03 2.01280881e-02 4.57456522e-03 7.31930463e-03
      2.37877406e-02 1.82982616e-03 2.74473918e-03 1.00640440e-02
      6.40439149e-03 9.14913078e-04 1.46386093e-02 9.14913043e-03
      7.31930463e-03 2.74473918e-03 4.57456522e-03 2.56175660e-02
      8.23421776e-03 9.14913043e-03 2.74473918e-03 8.23421776e-03
      4.57456522e-03 1.00640440e-02 6.40439149e-03 5.48947835e-03
      1.82982609e-02 1.00640440e-02 5.48947835e-03 5.48947835e-03
      9.14913043e-03 1.37236966e-02 1.09789567e-02 3.56816091e-02
      8.23421776e-03 1.28087830e-02 1.09789567e-02 6.40439149e-03
      7.31930463e-03 7.31930463e-03 1.09789567e-02 7.31930463e-03
      1.82982616e-03 5.48947835e-03 5.48947835e-03 1.46386093e-02
      6.40439149e-03 6.40439149e-03 1.82982616e-03 2.37877406e-02
      4.57456522e-03 6.40439149e-03 1.28087830e-02 1.55535229e-02
      1.73833482e-02 1.55535229e-02 6.40439149e-03 1.73833482e-02
      1.46386093e-02 2.74473918e-03 2.92772185e-02 8.23421776e-03
      1.55535229e-02 1.09789567e-02 2.74473918e-03 5.48947835e-03
      9.14913043e-03 6.40439149e-03 4.57456522e-03 1.92131754e-02
      2.74473918e-03 9.14913043e-03 3.65965231e-03 1.18938703e-02
      7.31930463e-03 6.40439149e-03 7.31930463e-03 5.48947835e-03
      1.46386093e-02 4.57456522e-03 4.57456522e-03 2.19579134e-02
      4.57456522e-03 4.57456522e-03 3.65965231e-03 4.57456522e-03</_>
    <_>
      8.78048781e-03 3.90243903e-03 7.80487806e-03 4.78048772e-02
      5.85365854e-03 7.80487806e-03 2.92682927e-03 1.26829268e-02
      1.95121951e-03 9.75609757e-03 2.92682927e-03 5.85365854e-03
      1.65853649e-02 4.29268293e-02 4.87804879e-03 3.60975601e-02
      1.95121951e-03 1.46341464e-02 4.87804879e-03 1.56097561e-02
      1.65853649e-02 1.95121951e-03 4.87804879e-03 4.87804879e-03
      5.85365854e-03 7.80487806e-03 2.92682927e-02 3.31707299e-02
      6.82926830e-03 5.85365854e-03 1.56097561e-02 3.90243903e-02
      6.82926830e-03 8.78048781e-03 5.85365854e-03 7.80487806e-03
      7.80487806e-03 5.85365854e-03 3.90243903e-03 2.92682927e-03
      8.78048781e-03 8.78048781e-03 1.26829268e-02 1.36585366e-02
      1.95121951e-03 1.65853649e-02 5.85365854e-03 1.46341464e-02
      6.82926830e-03 9.75609757e-03 1.95121951e-03 1.95121951e-03
      7.80487806e-03 3.90243903e-03 2.34146342e-02 1.07317073e-02
      5.85365854e-03 1.17073171e-02 1.17073171e-02 1.36585366e-02
      2.92682927e-03 6.82926830e-03 4.87804879e-03 3.90243903e-03
      5.85365854e-03 1.95121951e-03 1.26829268e-02 1.95121951e-03
      1.95121951e-02 1.65853649e-02 9.75609757e-03 5.85365854e-03
      1.07317073e-02 3.90243903e-03 1.75609756e-02 8.78048781e-03
      2.04878040e-02 1.36585366e-02 5.85365854e-03 4.87804879e-03
      2.34146342e-02 9.75609757e-03 3.90243903e-03 1.17073171e-02
      9.75609757e-04 4.87804879e-03 1.95121951e-03 1.56097561e-02
      4.87804879e-03 5.85365854e-03 8.78048781e-03 1.36585366e-02
      9.75609757e-03 3.90243903e-03 5.85365854e-03 1.36585366e-02 0.
      2.92682927e-03 3.90243903e-03 6.82926830e-03</_>
    <_>
      1.67826451e-02 3.68399499e-03 6.13999180e-03 2.78346296e-02
      2.45599682e-03 1.76013093e-02 3.68399499e-03 6.95865741e-03
      8.59598815e-03 1.92386415e-02 4.09332803e-03 9.41465423e-03
      1.06426524e-02 2.00573057e-02 6.95865741e-03 4.37986068e-02
      1.22799841e-03 3.64306197e-02 5.32132620e-03 9.00532119e-03
      1.47359800e-02 3.68399499e-03 5.73065924e-03 1.80106424e-02
      1.18706506e-02 7.77732302e-03 8.18665605e-03 9.82398726e-03
      1.96479745e-02 1.30986487e-02 1.26893166e-02 1.88293085e-02
      1.06426524e-02 9.00532119e-03 6.13999180e-03 1.59639791e-02
      6.54932437e-03 6.54932437e-03 4.91199363e-03 2.45599682e-03
      8.18665605e-03 2.45599682e-03 9.41465423e-03 5.32132620e-03
      4.50266059e-03 9.82398726e-03 1.10519854e-02 4.78919372e-02
      6.54932437e-03 1.35079818e-02 8.59598815e-03 5.73065924e-03
      6.95865741e-03 6.54932437e-03 1.10519854e-02 6.54932437e-03
      9.41465423e-03 1.18706506e-02 5.73065924e-03 9.82398726e-03
      4.50266059e-03 5.32132620e-03 5.73065924e-03 4.91199363e-03
      8.59598815e-03 4.91199363e-03 9.82398726e-03 4.91199363e-03
      1.43266479e-02 8.18665605e-03 9.41465423e-03 4.91199363e-03
      1.18706506e-02 6.95865741e-03 9.82398726e-03 1.84199754e-02
      1.22799836e-02 6.54932437e-03 5.73065924e-03 4.09332803e-03
      1.39173148e-02 9.41465423e-03 1.26893166e-02 1.88293085e-02
      2.86532962e-03 6.54932437e-03 3.68399499e-03 8.59598815e-03
      1.06426524e-02 6.13999180e-03 7.77732302e-03 6.13999180e-03
      1.18706506e-02 1.18706506e-02 3.27466219e-03 1.14613185e-02
      4.91199363e-03 8.59598815e-03 5.73065924e-03 6.54932437e-03</_>
    <_>
      2.08009928e-02 8.38248990e-03 3.41508840e-03 2.35951561e-02
      4.03601350e-03 1.08661903e-02 4.65693884e-03 5.27786417e-03
      6.51971437e-03 1.73859056e-02 9.31387767e-03 8.69295280e-03
      1.39708165e-02 1.52126672e-02 7.14063970e-03 5.83669655e-02
      4.03601350e-03 1.73859056e-02 6.51971437e-03 1.36603536e-02
      7.14063970e-03 5.58832660e-03 6.20925194e-03 9.62434057e-03
      1.11766532e-02 1.21080410e-02 1.08661903e-02 5.58832660e-03
      1.98696051e-02 6.20925194e-03 5.27786417e-03 1.24185039e-02
      1.49022043e-02 7.76156457e-03 6.20925194e-03 9.93480254e-03
      8.38248990e-03 8.69295280e-03 6.83017680e-03 9.00341477e-03
      4.34647640e-03 8.07202701e-03 8.38248990e-03 2.79416330e-03
      7.76156457e-03 1.55231291e-02 5.27786417e-03 5.99192791e-02
      1.02452654e-02 7.45110214e-03 5.27786417e-03 6.83017680e-03
      6.83017680e-03 7.76156457e-03 9.31387767e-03 3.10462597e-03
      5.58832660e-03 9.93480254e-03 4.34647640e-03 1.36603536e-02
      1.02452654e-02 4.96740127e-03 5.89878904e-03 4.03601350e-03
      5.27786417e-03 3.72555107e-03 5.89878904e-03 8.38248990e-03
      1.61440540e-02 9.31387767e-03 1.39708165e-02 5.58832660e-03
      1.21080410e-02 1.27289658e-02 3.10462597e-03 1.17975781e-02
      7.76156457e-03 4.96740127e-03 3.72555107e-03 9.93480254e-03
      1.52126672e-02 8.38248990e-03 1.49022043e-02 2.29742322e-02
      9.93480254e-03 8.07202701e-03 7.45110214e-03 9.93480254e-03
      9.62434057e-03 9.00341477e-03 7.45110214e-03 9.31387767e-03
      1.24185039e-02 5.58832660e-03 6.51971437e-03 1.14871161e-02
      5.27786417e-03 9.31387767e-03 5.27786417e-03 6.83017680e-03</_>
    <_>
      1.77283660e-02 5.70913451e-03 4.50721150e-03 3.48557681e-02
      5.70913451e-03 1.35216350e-02 6.00961549e-03 7.81250000e-03
      6.61057699e-03 2.01322120e-02 8.41346197e-03 9.31490399e-03
      1.59254801e-02 1.98317301e-02 7.81250000e-03 2.13341340e-02
      4.50721150e-03 1.56250000e-02 8.41346197e-03 5.70913451e-03
      7.21153850e-03 6.31009601e-03 9.01442301e-03 9.31490399e-03
      1.08173080e-02 8.41346197e-03 8.11298098e-03 9.91586503e-03
      1.47235580e-02 1.02163460e-02 4.80769249e-03 1.71274040e-02
      7.51201902e-03 7.51201902e-03 6.00961549e-03 7.81250000e-03
      8.11298098e-03 1.14182690e-02 1.02163460e-02 8.41346197e-03
      4.20673098e-03 1.08173080e-02 8.41346197e-03 8.71394202e-03
      8.11298098e-03 2.04326920e-02 6.00961549e-03 1.74278840e-02
      1.17187500e-02 4.80769249e-03 6.00961549e-03 6.91105751e-03
      4.20673098e-03 1.41225960e-02 1.26201920e-02 6.31009601e-03
      9.01442301e-03 2.19350960e-02 4.80769249e-03 1.29206730e-02
      1.02163460e-02 7.81250000e-03 6.91105751e-03 3.60576925e-03
      6.61057699e-03 9.31490399e-03 3.60576925e-03 3.30528850e-03
      2.19350960e-02 1.32211540e-02 1.08173080e-02 9.91586503e-03
      1.59254801e-02 1.47235580e-02 5.70913451e-03 1.92307699e-02
      9.91586503e-03 6.91105751e-03 4.20673098e-03 6.61057699e-03
      1.17187500e-02 1.41225960e-02 1.26201920e-02 8.71394202e-03
      7.81250000e-03 1.38221150e-02 9.91586503e-03 9.91586503e-03
      9.31490399e-03 6.31009601e-03 2.70432699e-03 1.08173080e-02
      1.80288460e-02 7.51201902e-03 7.81250000e-03 1.05168270e-02
      6.61057699e-03 4.80769249e-03 5.70913451e-03 8.71394202e-03</_>
    <_>
      1.36887608e-02 8.28530267e-03 1.11671472e-02 1.44092217e-02
      3.24207498e-03 7.56484130e-03 7.92507175e-03 1.83717571e-02
      2.52161385e-03 1.29682999e-02 7.56484130e-03 7.56484130e-03
      1.11671472e-02 1.04466863e-02 6.12391951e-03 4.57492806e-02
      3.60230543e-03 2.08933726e-02 5.76368859e-03 7.20461085e-03
      1.62103754e-02 6.12391951e-03 4.68299724e-03 8.64553358e-03
      1.11671472e-02 7.92507175e-03 1.18876081e-02 1.11671472e-02
      1.18876081e-02 7.92507175e-03 6.12391951e-03 1.47694526e-02
      9.36599448e-03 8.64553358e-03 5.76368859e-03 1.26080690e-02
      9.72622447e-03 4.68299724e-03 9.00576357e-03 9.72622447e-03
      1.22478390e-02 1.04466863e-02 8.28530267e-03 6.84438040e-03
      3.60230543e-03 8.28530267e-03 1.29682999e-02 1.98126808e-02
      2.88184430e-03 7.20461085e-03 1.33285299e-02 8.28530267e-03
      1.29682999e-02 9.36599448e-03 1.36887608e-02 2.88184430e-03
      5.04322769e-03 7.92507175e-03 6.48414996e-03 1.11671472e-02
      7.56484130e-03 3.60230543e-03 9.36599448e-03 2.98991352e-02
      8.28530267e-03 5.76368859e-03 6.12391951e-03 1.62103754e-02
      9.72622447e-03 1.33285299e-02 1.18876081e-02 1.29682999e-02
      1.26080690e-02 9.00576357e-03 6.12391951e-03 1.11671472e-02
      9.36599448e-03 6.48414996e-03 5.76368859e-03 6.12391951e-03
      5.40345814e-03 9.72622447e-03 1.08069163e-02 2.59365998e-02
      8.28530267e-03 1.54899135e-02 7.92507175e-03 1.00864554e-02
      8.28530267e-03 6.48414996e-03 6.84438040e-03 9.00576357e-03
      1.04466863e-02 7.56484130e-03 6.48414996e-03 1.47694526e-02
      1.29682999e-02 7.20461085e-03 6.84438040e-03 1.00864554e-02</_>
    <_>
      1.14285713e-02 6.34920644e-03 3.17460322e-03 1.90476198e-02
      3.17460322e-03 1.07936505e-02 3.80952377e-03 1.01587297e-02
      9.52380989e-03 1.20634921e-02 2.53968243e-03 4.44444455e-03
      9.52380989e-03 2.03174595e-02 6.98412675e-03 4.63492051e-02
      6.34920644e-03 2.92063486e-02 3.17460322e-03 1.39682535e-02
      1.01587297e-02 8.88888910e-03 8.25396832e-03 7.61904754e-03
      5.71428565e-03 5.07936487e-03 1.39682535e-02 1.71428565e-02
      6.34920644e-03 5.71428565e-03 2.28571426e-02 3.30158733e-02
      7.61904754e-03 5.71428565e-03 4.44444455e-03 8.25396832e-03
      8.25396832e-03 6.98412675e-03 4.44444455e-03 1.14285713e-02
      9.52380989e-03 1.20634921e-02 8.25396832e-03 2.03174595e-02
      1.01587297e-02 1.33333337e-02 3.80952377e-03 4.12698425e-02
      5.07936487e-03 1.39682535e-02 6.34920609e-04 9.52380989e-03
      3.17460322e-03 3.80952377e-03 1.52380951e-02 1.33333337e-02
      5.07936487e-03 9.52380989e-03 8.25396832e-03 1.14285713e-02
      8.25396832e-03 5.71428565e-03 5.71428565e-03 6.34920609e-04
      7.61904754e-03 1.07936505e-02 1.26984129e-02 2.53968243e-03
      1.65079366e-02 8.25396832e-03 4.44444455e-03 4.44444455e-03
      1.01587297e-02 6.34920644e-03 1.65079366e-02 5.07936487e-03
      2.15873010e-02 1.20634921e-02 1.14285713e-02 8.88888910e-03
      1.77777782e-02 8.25396832e-03 3.80952377e-03 1.90476198e-02
      3.17460322e-03 6.34920644e-03 3.17460322e-03 1.26984129e-02
      6.98412675e-03 3.80952377e-03 1.14285713e-02 8.25396832e-03
      9.52380989e-03 1.52380951e-02 3.80952377e-03 9.52380989e-03
      2.53968243e-03 7.61904754e-03 9.52380989e-03 5.71428565e-03</_>
    <_>
      5.79642924e-03 1.27521446e-02 6.72385795e-03 2.64317188e-02
      6.49200100e-03 6.95571536e-03 6.95571536e-03 1.22884307e-02
      1.22884307e-02 1.13610020e-02 9.04242974e-03 8.57871585e-03
      1.02017159e-02 2.36494318e-02 9.27428715e-03 1.71574317e-02
      8.11500102e-03 1.02017159e-02 7.65128667e-03 6.02828665e-03
      5.56457229e-03 8.57871585e-03 8.34685843e-03 9.50614456e-03
      7.88314361e-03 9.73800104e-03 2.04034317e-02 1.46070020e-02
      4.63714357e-03 7.65128667e-03 1.20565733e-02 2.04034317e-02
      7.65128667e-03 9.04242974e-03 8.11500102e-03 6.72385795e-03
      6.49200100e-03 5.33271488e-03 8.34685843e-03 1.18247159e-02
      6.72385795e-03 1.15928585e-02 7.18757231e-03 9.73800104e-03
      7.88314361e-03 1.25202872e-02 5.10085793e-03 8.81057233e-03
      6.72385795e-03 6.72385795e-03 6.02828665e-03 8.81057233e-03
      7.88314361e-03 5.56457229e-03 1.48388594e-02 9.73800104e-03
      9.04242974e-03 7.88314361e-03 6.72385795e-03 1.55344307e-02
      2.71272901e-02 9.04242974e-03 1.36795733e-02 7.18757231e-03
      1.27521446e-02 1.15928585e-02 8.57871585e-03 8.34685843e-03
      1.59981456e-02 8.81057233e-03 8.11500102e-03 9.27428715e-03
      1.13610020e-02 8.34685843e-03 1.11291446e-02 6.72385795e-03
      1.53025733e-02 1.11291446e-02 9.50614456e-03 1.36795733e-02
      1.25202872e-02 1.06654298e-02 8.34685843e-03 9.73800104e-03
      6.02828665e-03 8.34685843e-03 5.10085793e-03 7.88314361e-03
      5.33271488e-03 6.49200100e-03 1.22884307e-02 8.34685843e-03
      1.53025733e-02 1.13610020e-02 7.65128667e-03 1.18247159e-02
      6.72385795e-03 9.50614456e-03 1.39114307e-02 9.04242974e-03</_>
    <_>
      2.55220421e-02 7.73395225e-03 7.34725455e-03 1.74013916e-02
      3.86697613e-03 1.46945091e-02 6.18716143e-03 1.46945091e-02
      1.16009277e-03 1.16009284e-02 1.16009284e-02 9.66744032e-03
      1.31477183e-02 1.46945091e-02 3.09358072e-03 2.66821347e-02
      6.57385914e-03 1.74013916e-02 4.64037107e-03 9.66744032e-03
      1.35344164e-02 5.02706878e-03 3.09358072e-03 2.12683678e-02
      5.02706878e-03 1.04408357e-02 1.04408357e-02 1.08275330e-02
      1.97215769e-02 7.73395225e-03 9.66744032e-03 2.47486457e-02
      1.70146953e-02 9.66744032e-03 4.64037107e-03 1.93348806e-02
      6.57385914e-03 6.18716143e-03 7.73395225e-03 1.54679036e-03
      3.86697613e-03 4.25367383e-03 1.00541376e-02 9.28074215e-03
      7.73395225e-03 1.74013916e-02 8.12064949e-03 3.24825980e-02
      1.19876256e-02 6.96055684e-03 1.19876256e-02 8.50734767e-03
      7.73395225e-03 8.50734767e-03 1.19876256e-02 4.64037107e-03
      2.70688324e-03 9.66744032e-03 1.27610210e-02 1.50812063e-02
      3.48027842e-03 5.02706878e-03 6.18716143e-03 3.09358072e-03
      7.34725455e-03 1.93348806e-03 8.50734767e-03 6.96055684e-03
      1.46945091e-02 1.08275330e-02 5.02706878e-03 6.18716143e-03
      2.01082751e-02 6.57385914e-03 5.80046419e-03 1.62412990e-02
      6.96055684e-03 8.50734767e-03 1.54679036e-03 7.34725455e-03
      9.66744032e-03 1.04408357e-02 1.08275330e-02 2.28151586e-02
      5.02706878e-03 9.66744032e-03 8.50734767e-03 9.66744032e-03
      1.12142302e-02 8.12064949e-03 1.31477183e-02 1.27610210e-02
      1.27610210e-02 1.04408357e-02 4.64037107e-03 1.27610210e-02
      1.93348806e-03 1.23743229e-02 5.41376648e-03 8.12064949e-03</_>
    <_>
      1.98830403e-02 3.80116957e-03 6.14035083e-03 2.95321643e-02
      5.84795326e-03 1.16959065e-02 3.50877200e-03 4.38596494e-03
      1.25730997e-02 2.30994150e-02 4.67836251e-03 9.06432793e-03
      1.37426900e-02 1.54970763e-02 4.38596494e-03 4.59064320e-02
      6.43274840e-03 2.42690053e-02 6.14035083e-03 1.25730997e-02
      8.18713475e-03 4.67836251e-03 1.11111114e-02 1.08187133e-02
      1.22807017e-02 9.35672503e-03 1.49122803e-02 7.89473671e-03
      1.69590637e-02 7.01754401e-03 6.43274840e-03 1.22807017e-02
      5.26315812e-03 6.14035083e-03 3.80116957e-03 8.77192989e-03
      1.19883046e-02 6.43274840e-03 4.09356738e-03 2.63157906e-03
      4.97076008e-03 1.75438600e-03 1.25730997e-02 3.21637420e-03
      8.77192989e-03 2.22222228e-02 7.60233914e-03 4.21052650e-02
      6.14035083e-03 4.97076008e-03 8.77192989e-03 7.60233914e-03
      7.30994157e-03 8.77192989e-03 9.94152017e-03 4.67836251e-03
      5.84795326e-03 1.34502919e-02 8.47953185e-03 1.11111114e-02
      3.21637420e-03 9.94152017e-03 4.09356738e-03 2.04678369e-03
      3.80116957e-03 4.97076008e-03 6.14035083e-03 1.28654968e-02
      2.04678364e-02 1.69590637e-02 1.19883046e-02 5.84795326e-03
      1.81286559e-02 1.11111114e-02 3.21637420e-03 1.84210520e-02
      4.38596494e-03 8.77192989e-03 4.38596494e-03 7.60233914e-03
      1.02339182e-02 1.69590637e-02 1.19883046e-02 2.66081877e-02
      7.30994157e-03 8.18713475e-03 4.97076008e-03 1.08187133e-02
      1.19883046e-02 7.89473671e-03 5.55555569e-03 1.14035085e-02
      1.05263162e-02 6.72514597e-03 6.14035083e-03 1.28654968e-02
      2.33918126e-03 3.50877200e-03 3.21637420e-03 7.89473671e-03</_>
    <_>
      1.17563233e-02 7.48129655e-03 7.30317086e-03 1.78126115e-02
      4.80940519e-03 7.48129655e-03 1.22907022e-02 1.24688279e-02
      5.70003549e-03 1.62094757e-02 8.90630577e-03 9.26255807e-03
      5.70003549e-03 1.40719628e-02 9.97506268e-03 4.70252931e-02
      4.45315288e-03 1.21125756e-02 8.19380116e-03 6.59066625e-03
      7.83754885e-03 7.12504471e-03 7.65942270e-03 1.06875664e-02
      1.14000710e-02 9.79693606e-03 8.90630577e-03 6.59066625e-03
      1.37157105e-02 7.65942270e-03 6.05628779e-03 9.26255807e-03
      9.61881038e-03 7.65942270e-03 6.23441394e-03 1.05094407e-02
      8.01567547e-03 7.83754885e-03 6.05628779e-03 1.42500894e-02
      1.47844674e-02 9.79693606e-03 7.12504471e-03 9.26255807e-03
      7.12504471e-03 1.42500894e-02 1.37157105e-02 2.35126466e-02
      1.14000710e-02 5.34378318e-03 1.42500894e-02 7.30317086e-03
      1.37157105e-02 7.83754885e-03 1.03313150e-02 1.01531884e-02
      8.01567547e-03 1.05094407e-02 4.45315288e-03 1.21125756e-02
      4.45315288e-03 7.12504471e-03 7.12504471e-03 3.29533294e-02
      1.10438187e-02 8.37192778e-03 4.45315288e-03 1.19344499e-02
      1.28250802e-02 1.06875664e-02 8.90630577e-03 1.51407197e-02
      1.33594582e-02 7.83754885e-03 4.80940519e-03 1.28250802e-02
      6.05628779e-03 6.05628779e-03 5.16565749e-03 9.79693606e-03
      6.76879240e-03 1.15781976e-02 9.79693606e-03 9.44068376e-03
      1.46063417e-02 1.28250802e-02 6.94691855e-03 6.76879240e-03
      1.05094407e-02 6.05628779e-03 8.37192778e-03 9.79693606e-03
      8.72817915e-03 6.76879240e-03 7.65942270e-03 1.15781976e-02
      7.83754885e-03 1.01531884e-02 3.56252235e-03 7.83754885e-03</_>
    <_>
      1.70173272e-02 4.02227743e-03 4.02227743e-03 2.47524753e-02
      4.02227743e-03 1.05198016e-02 8.97277240e-03 1.02103958e-02
      1.29950494e-02 1.73267331e-02 7.73514854e-03 7.73514854e-03
      1.33044552e-02 1.60891097e-02 8.04455485e-03 2.56806929e-02
      5.56930713e-03 1.79455448e-02 6.49752468e-03 9.28217825e-03
      8.97277240e-03 6.18811883e-03 7.73514854e-03 8.97277240e-03
      1.42326737e-02 9.90098994e-03 5.25990082e-03 1.20668318e-02
      1.63985156e-02 1.08292075e-02 4.02227743e-03 9.59158409e-03
      1.02103958e-02 6.80693053e-03 7.42574269e-03 1.23762377e-02
      1.23762377e-02 1.08292075e-02 4.64108912e-03 2.16584164e-03
      6.80693053e-03 4.64108912e-03 1.14480201e-02 1.85643567e-03
      7.73514854e-03 1.91831682e-02 8.35396070e-03 3.06311883e-02
      8.04455485e-03 7.73514854e-03 1.05198016e-02 9.90098994e-03
      8.66336655e-03 8.66336655e-03 1.05198016e-02 7.11633684e-03
      8.35396070e-03 1.39232669e-02 6.49752468e-03 1.26856435e-02
      1.17574260e-02 4.33168327e-03 4.02227743e-03 1.67079214e-02
      6.49752468e-03 2.16584164e-03 5.56930713e-03 1.98019799e-02
      1.11386143e-02 1.73267331e-02 1.63985156e-02 6.49752468e-03
      1.82549506e-02 1.26856435e-02 4.02227743e-03 1.57797039e-02
      7.73514854e-03 6.18811883e-03 4.02227743e-03 5.56930713e-03
      6.49752468e-03 1.48514854e-02 1.05198016e-02 1.39232669e-02
      9.90098994e-03 8.97277240e-03 5.87871298e-03 1.17574260e-02
      1.45420795e-02 7.42574269e-03 4.64108912e-03 1.33044552e-02
      8.66336655e-03 8.66336655e-03 5.25990082e-03 1.51608912e-02
      4.95049497e-03 6.18811883e-03 8.66336655e-03 7.73514854e-03</_>
    <_>
      2.97894198e-02 3.33846943e-03 4.62249620e-03 3.46687213e-02
      4.10888530e-03 1.79763734e-02 5.39291231e-03 4.10888530e-03
      1.23266568e-02 1.56651251e-02 3.85208009e-03 1.12994350e-02
      2.41397023e-02 1.69491526e-02 5.64971752e-03 5.34155108e-02
      3.08166421e-03 3.41551118e-02 5.39291231e-03 6.93374407e-03
      7.70416018e-03 5.39291231e-03 8.73138197e-03 6.42013364e-03
      1.28402673e-02 8.47457629e-03 1.02722133e-02 5.39291231e-03
      1.90035962e-02 1.02722133e-02 5.13610663e-03 1.28402673e-02
      1.38674881e-02 8.21777061e-03 2.31124810e-03 6.67693885e-03
      1.66923478e-02 1.18130455e-02 6.42013364e-03 3.33846943e-03
      4.87930141e-03 6.93374407e-03 8.47457629e-03 3.08166421e-03
      5.90652274e-03 2.20852587e-02 2.82485876e-03 4.31432985e-02
      5.13610663e-03 3.85208009e-03 5.13610663e-03 4.36569098e-03
      6.42013364e-03 9.24499240e-03 1.18130455e-02 6.16332842e-03
      5.64971752e-03 1.54083204e-02 7.70416018e-03 6.67693885e-03
      7.19054975e-03 7.70416018e-03 5.13610663e-03 1.02722133e-03
      7.19054975e-03 8.73138197e-03 4.62249620e-03 3.08166421e-03
      1.66923478e-02 1.30970720e-02 1.12994350e-02 5.64971752e-03
      1.64355412e-02 1.97740104e-02 5.13610663e-03 1.54083204e-02
      6.16332842e-03 8.73138197e-03 4.87930141e-03 5.64971752e-03
      1.02722133e-02 1.38674881e-02 8.21777061e-03 2.46533137e-02
      3.85208009e-03 5.13610663e-03 7.19054975e-03 6.93374407e-03
      7.96096586e-03 6.42013364e-03 2.56805331e-03 1.18130455e-02
      8.73138197e-03 4.10888530e-03 6.93374407e-03 1.25834616e-02
      5.13610663e-03 2.82485876e-03 4.62249620e-03 8.98818672e-03</_>
    <_>
      2.22127289e-02 7.68902199e-03 6.40751794e-03 2.90474165e-02
      4.27167863e-03 1.11063644e-02 5.55318221e-03 1.70867145e-02
      5.55318221e-03 1.79410502e-02 8.54335725e-03 9.82486084e-03
      1.49508761e-02 8.11618939e-03 7.26185413e-03 2.34942324e-02
      6.40751794e-03 1.36693716e-02 5.12601435e-03 1.36693716e-02
      1.53780440e-02 4.27167863e-03 4.69884649e-03 1.70867145e-02
      5.12601435e-03 6.40751794e-03 9.82486084e-03 1.06791966e-02
      2.09312253e-02 6.83468580e-03 1.66595466e-02 1.96497217e-02
      7.26185413e-03 7.26185413e-03 6.83468580e-03 1.58052109e-02
      8.54335725e-03 6.83468580e-03 1.02520287e-02 5.98035008e-03
      9.39769298e-03 9.82486084e-03 1.11063644e-02 5.12601435e-03
      3.84451100e-03 1.36693716e-02 1.02520287e-02 2.30670646e-02
      5.98035008e-03 8.11618939e-03 4.69884649e-03 2.99017504e-03
      8.11618939e-03 1.02520287e-02 1.06791966e-02 6.40751794e-03
      7.26185413e-03 7.26185413e-03 8.54335725e-03 1.15335323e-02
      1.19607002e-02 5.12601435e-03 7.26185413e-03 3.84451100e-03
      7.68902199e-03 4.69884649e-03 1.32422037e-02 5.12601435e-03
      9.82486084e-03 1.32422037e-02 6.40751794e-03 3.41734290e-03
      9.39769298e-03 9.39769298e-03 1.15335323e-02 1.19607002e-02
      1.83682181e-02 1.32422037e-02 4.27167863e-03 7.26185413e-03
      1.40965404e-02 1.19607002e-02 1.36693716e-02 2.26398967e-02
      6.40751794e-03 7.68902199e-03 8.54335725e-03 1.49508761e-02
      1.53780440e-02 9.82486084e-03 6.83468580e-03 9.82486084e-03
      9.82486084e-03 7.26185413e-03 9.39769298e-03 7.26185413e-03
      1.28150359e-03 8.11618939e-03 3.41734290e-03 1.19607002e-02</_>
    <_>
      1.10576926e-02 1.12980772e-02 6.97115390e-03 3.43750007e-02
      3.12500005e-03 8.89423117e-03 6.25000009e-03 1.41826924e-02
      1.32211540e-02 1.17788464e-02 3.60576925e-03 4.80769249e-03
      7.45192310e-03 2.66826916e-02 6.25000009e-03 2.40384620e-02
      8.17307737e-03 1.56250000e-02 6.49038469e-03 9.13461577e-03
      8.41346197e-03 6.49038469e-03 8.89423117e-03 1.05769234e-02
      9.61538497e-03 8.89423117e-03 1.51442308e-02 9.37500037e-03
      1.44230770e-02 4.56730789e-03 1.05769234e-02 1.32211540e-02
      9.13461577e-03 7.21153850e-03 7.21153850e-03 8.17307737e-03
      9.13461577e-03 1.08173080e-02 9.13461577e-03 7.21153850e-03
      8.89423117e-03 1.22596156e-02 5.04807709e-03 6.49038469e-03
      5.76923089e-03 8.17307737e-03 1.46634616e-02 9.37500037e-03
      6.97115390e-03 7.45192310e-03 4.56730789e-03 1.32211540e-02
      7.93269277e-03 1.15384618e-02 1.61057692e-02 1.10576926e-02
      7.69230770e-03 1.20192310e-02 4.32692328e-03 1.05769234e-02
      1.51442308e-02 7.45192310e-03 5.76923089e-03 6.73076930e-03
      1.05769234e-02 8.89423117e-03 1.00961542e-02 3.12500005e-03
      2.04326920e-02 1.15384618e-02 9.37500037e-03 8.17307737e-03
      1.34615386e-02 8.89423117e-03 8.17307737e-03 1.44230770e-02
      1.15384618e-02 1.00961542e-02 6.00961549e-03 1.34615386e-02
      1.85096152e-02 9.13461577e-03 6.73076930e-03 1.29807694e-02
      7.45192310e-03 5.52884629e-03 3.84615385e-03 8.65384657e-03
      9.61538497e-03 5.76923089e-03 8.89423117e-03 8.65384657e-03
      1.44230770e-02 9.13461577e-03 6.73076930e-03 2.23557688e-02
      2.40384624e-03 1.29807694e-02 7.93269277e-03 9.13461577e-03</_>
    <_>
      1.47299506e-02 6.00109110e-03 1.90943806e-03 3.05510089e-02
      3.54609918e-03 1.60938352e-02 5.45553723e-03 9.81996767e-03
      1.44571736e-02 1.28205130e-02 4.63720690e-03 7.91052915e-03
      9.27441381e-03 1.69121660e-02 7.36497529e-03 6.16475716e-02
      3.54609918e-03 1.63666122e-02 6.54664496e-03 6.81942189e-03
      1.22749591e-02 7.91052915e-03 1.22749591e-02 9.81996767e-03
      1.00927437e-02 9.54719074e-03 8.72885995e-03 5.72831417e-03
      1.28205130e-02 9.54719074e-03 6.27386803e-03 1.25477361e-02
      8.45608301e-03 7.63775222e-03 3.81887611e-03 9.81996767e-03
      7.63775222e-03 1.00927437e-02 7.36497529e-03 2.45499192e-03
      8.18330608e-03 1.06382975e-02 8.72885995e-03 3.00054555e-03
      6.54664496e-03 1.58210583e-02 7.09219836e-03 3.13693397e-02
      6.00109110e-03 1.11838514e-02 8.18330608e-03 5.45553723e-03
      1.14566283e-02 8.18330608e-03 1.25477361e-02 5.45553723e-03
      7.91052915e-03 1.33660669e-02 1.00927437e-02 1.44571736e-02
      7.36497529e-03 6.00109110e-03 5.72831417e-03 5.72831417e-03
      7.63775222e-03 7.63775222e-03 6.00109110e-03 1.41843967e-02
      1.82760507e-02 1.82760507e-02 7.36497529e-03 1.11838514e-02
      1.90943815e-02 8.45608301e-03 2.72776862e-03 1.39116207e-02
      6.00109110e-03 8.72885995e-03 6.81942189e-03 4.36442997e-03
      1.66393891e-02 1.52755044e-02 1.09110745e-02 1.33660669e-02
      5.18276030e-03 9.00163688e-03 5.45553723e-03 1.20021822e-02
      7.09219836e-03 5.45553723e-03 2.18221499e-03 7.36497529e-03
      1.28205130e-02 8.72885995e-03 6.54664496e-03 1.03655206e-02
      3.27332248e-03 9.27441381e-03 6.27386803e-03 1.03655206e-02</_>
    <_>
      1.62205994e-02 8.92132986e-03 1.01378756e-02 8.11029971e-03
      8.51581525e-03 5.67721017e-03 2.83860508e-03 2.51419302e-02
      8.51581525e-03 1.29764797e-02 4.46066493e-03 5.27169509e-03
      6.89375494e-03 1.25709651e-02 4.86618001e-03 3.69018652e-02
      5.67721017e-03 1.82481743e-02 6.48823986e-03 1.37875099e-02
      1.33819953e-02 1.05433902e-02 3.64963501e-03 1.33819953e-02
      6.89375494e-03 6.48823986e-03 1.50040556e-02 2.31143553e-02
      1.90592054e-02 2.43309001e-03 2.06812657e-02 1.78426597e-02
      7.70478509e-03 7.29927002e-03 7.29927002e-03 8.11029971e-03
      5.27169509e-03 8.51581525e-03 6.48823986e-03 1.05433902e-02
      6.89375494e-03 7.70478509e-03 8.92132986e-03 6.48823986e-03
      5.27169509e-03 9.32684541e-03 4.86618001e-03 3.69018652e-02
      2.43309001e-03 9.73236002e-03 7.29927002e-03 6.48823986e-03
      8.51581525e-03 6.48823986e-03 1.05433902e-02 6.08272525e-03
      4.86618001e-03 6.08272525e-03 1.13544203e-02 1.21654505e-02
      1.58150848e-02 8.11029971e-03 5.27169509e-03 6.89375494e-03
      6.89375494e-03 8.51581525e-03 1.13544203e-02 1.66261159e-02
      9.32684541e-03 5.67721017e-03 5.27169509e-03 4.05514985e-03
      6.89375494e-03 4.46066493e-03 2.27088407e-02 1.25709651e-02
      2.59529594e-02 1.62205994e-02 5.67721017e-03 1.13544203e-02
      1.50040556e-02 8.51581525e-03 4.05514985e-03 2.18978096e-02
      5.27169509e-03 4.86618001e-03 8.51581525e-03 1.05433902e-02
      9.73236002e-03 8.92132986e-03 1.09489048e-02 7.70478509e-03
      8.11029971e-03 1.29764797e-02 5.67721017e-03 5.67721017e-03
      4.86618001e-03 9.32684541e-03 8.51581525e-03 4.86618001e-03</_>
    <_>
      1.54226962e-02 5.90251340e-03 5.33130253e-03 1.82787515e-02
      6.28332049e-03 6.66412804e-03 6.66412804e-03 7.23533891e-03
      1.10434117e-02 1.88499615e-02 6.85453182e-03 1.08530084e-02
      1.10434117e-02 1.56130996e-02 4.37928410e-03 4.45544571e-02
      5.71210962e-03 1.56130996e-02 7.80654978e-03 1.08530084e-02
      1.21858343e-02 5.71210962e-03 9.52018239e-03 1.38994670e-02
      1.19954301e-02 9.13937576e-03 9.90098994e-03 6.28332049e-03
      1.08530084e-02 7.61614600e-03 4.76009119e-03 1.18050268e-02
      1.21858343e-02 7.99695309e-03 5.90251340e-03 6.47372426e-03
      1.37090636e-02 7.23533891e-03 7.04493513e-03 7.99695309e-03
      7.99695309e-03 1.00913942e-02 9.13937576e-03 6.85453182e-03
      8.18735734e-03 1.37090636e-02 6.28332049e-03 4.56968769e-02
      1.16146225e-02 7.61614600e-03 8.56816489e-03 7.99695309e-03
      8.37776065e-03 9.32977907e-03 9.32977907e-03 6.47372426e-03
      8.56816489e-03 1.08530084e-02 6.47372426e-03 1.46610811e-02
      9.13937576e-03 6.66412804e-03 7.42574269e-03 5.14089875e-03
      7.99695309e-03 7.42574269e-03 8.37776065e-03 1.27570452e-02
      1.63747147e-02 9.71058663e-03 9.52018239e-03 5.90251340e-03
      1.52322920e-02 1.29474485e-02 7.99695309e-03 1.38994670e-02
      8.56816489e-03 7.80654978e-03 5.52170584e-03 6.28332049e-03
      1.31378518e-02 1.31378518e-02 1.06626051e-02 1.67555213e-02
      6.85453182e-03 7.80654978e-03 6.09291717e-03 9.32977907e-03
      1.00913942e-02 7.23533891e-03 5.14089875e-03 9.90098994e-03
      9.52018239e-03 7.04493513e-03 6.47372426e-03 9.32977907e-03
      4.18888032e-03 1.14242192e-02 5.90251340e-03 1.02817975e-02</_>
    <_>
      6.04423881e-03 1.06738685e-02 8.48765392e-03 1.96759254e-02
      4.24382696e-03 6.30144030e-03 8.87345709e-03 9.00205784e-03
      1.24742799e-02 1.01594655e-02 5.40123461e-03 6.30144030e-03
      4.50102892e-03 1.33744860e-02 6.68724300e-03 3.52366269e-02
      5.65843610e-03 1.49176959e-02 7.58744869e-03 1.99331269e-02
      2.12191362e-02 1.11882715e-02 7.07304524e-03 7.33024674e-03
      9.64506157e-03 6.30144030e-03 1.38888890e-02 9.90226306e-03
      1.33744860e-02 7.33024674e-03 6.55864179e-03 1.15740737e-02
      1.65895056e-02 1.14454729e-02 7.84465019e-03 6.81584375e-03
      6.43004104e-03 7.45884795e-03 6.04423881e-03 1.22170784e-02
      9.38786007e-03 1.32458843e-02 6.17283955e-03 6.94444450e-03
      7.33024674e-03 6.94444450e-03 6.55864179e-03 3.99948545e-02
      5.01543190e-03 1.45318927e-02 9.90226306e-03 1.23456791e-02
      4.11522621e-03 8.10185168e-03 9.51646082e-03 1.29886828e-02
      4.24382696e-03 8.23045243e-03 4.24382696e-03 8.48765392e-03
      2.03189310e-02 8.10185168e-03 6.94444450e-03 6.30144030e-03
      1.01594655e-02 1.06738685e-02 1.96759254e-02 1.10596707e-02
      1.22170784e-02 6.43004104e-03 7.45884795e-03 5.01543190e-03
      8.48765392e-03 4.37242817e-03 9.25925933e-03 1.46604935e-02
      1.31172836e-02 6.55864179e-03 7.97325093e-03 1.13168722e-02
      1.91615224e-02 9.90226306e-03 1.11882715e-02 2.37911530e-02
      4.50102892e-03 6.81584375e-03 4.75823041e-03 6.94444450e-03
      7.84465019e-03 5.52983535e-03 7.84465019e-03 9.64506157e-03
      8.87345709e-03 7.97325093e-03 8.10185168e-03 9.38786007e-03
      6.43004104e-03 1.11882715e-02 7.97325093e-03 7.97325093e-03</_>
    <_>
      2.49391720e-02 2.43309001e-03 1.82481750e-03 4.37956192e-02
      1.21654500e-03 7.29927002e-03 4.25790763e-03 1.15571776e-02
      4.86618001e-03 1.21654505e-02 4.86618001e-03 7.29927002e-03
      1.94647200e-02 1.70316305e-02 1.33819953e-02 3.71046215e-02
      2.43309001e-03 4.01459858e-02 3.04136262e-03 9.73236002e-03
      1.15571776e-02 2.43309001e-03 1.82481750e-03 9.73236002e-03
      7.90754240e-03 5.47445239e-03 1.21654505e-02 1.15571776e-02
      1.15571776e-02 6.69099763e-03 1.45985400e-02 2.73722634e-02
      1.45985400e-02 3.64963501e-03 2.43309001e-03 1.64233577e-02
      9.12408717e-03 1.15571776e-02 5.47445239e-03 3.04136262e-03
      9.12408717e-03 6.69099763e-03 9.12408717e-03 6.08272525e-03
      5.47445239e-03 2.31143553e-02 3.04136262e-03 3.34549882e-02
      2.43309001e-03 1.33819953e-02 1.21654500e-03 7.90754240e-03
      3.64963501e-03 7.29927002e-03 1.45985400e-02 6.08272501e-04
      3.64963501e-03 9.73236002e-03 4.25790763e-03 3.64963501e-03
      4.25790763e-03 5.47445239e-03 7.29927002e-03 6.08272501e-04
      4.86618001e-03 3.04136262e-03 1.58150848e-02 1.21654500e-03
      2.12895386e-02 1.52068129e-02 1.03406329e-02 3.64963501e-03
      2.00729929e-02 1.64233577e-02 1.21654505e-02 7.90754240e-03
      1.33819953e-02 1.52068129e-02 1.82481750e-03 9.73236002e-03
      1.76399034e-02 1.15571776e-02 1.09489048e-02 2.00729929e-02
      2.43309001e-03 5.47445239e-03 6.69099763e-03 1.03406329e-02
      7.90754240e-03 5.47445239e-03 5.47445239e-03 1.82481743e-02
      1.15571776e-02 1.45985400e-02 1.82481750e-03 1.45985400e-02
      1.21654500e-03 8.51581525e-03 3.04136262e-03 6.08272525e-03</_>
    <_>
      1.71128903e-02 4.14021546e-03 8.83245934e-03 2.62213629e-02
      2.48412928e-03 1.21446317e-02 3.58818658e-03 9.38448776e-03
      2.01490484e-02 1.84929613e-02 8.28043092e-03 9.38448776e-03
      1.68368760e-02 1.62848476e-02 6.07231585e-03 1.62848476e-02
      3.86420102e-03 1.54568041e-02 6.90035895e-03 7.45238736e-03
      1.15926024e-02 1.02125313e-02 1.21446317e-02 7.72840204e-03
      1.43527463e-02 7.45238736e-03 6.90035895e-03 7.45238736e-03
      1.18686175e-02 7.45238736e-03 4.41622967e-03 1.65608618e-02
      9.38448776e-03 9.38448776e-03 5.24427276e-03 1.04885455e-02
      1.40767321e-02 7.72840204e-03 8.55644513e-03 4.14021546e-03
      8.28043092e-03 8.55644513e-03 8.00441578e-03 4.96825855e-03
      6.62434427e-03 1.46287605e-02 4.96825855e-03 1.51807899e-02
      5.24427276e-03 2.18051337e-02 4.41622967e-03 7.72840204e-03
      5.79630118e-03 1.57328174e-02 1.38007179e-02 4.96825855e-03
      8.55644513e-03 1.10405739e-02 5.79630118e-03 8.00441578e-03
      1.13165881e-02 6.90035895e-03 3.31217214e-03 3.03615793e-03
      4.41622967e-03 1.04885455e-02 1.62848476e-02 4.41622967e-03
      1.04885455e-02 1.29726743e-02 9.66050196e-03 4.14021546e-03
      1.29726743e-02 1.40767321e-02 1.35247037e-02 1.57328174e-02
      2.76014358e-02 7.45238736e-03 3.58818658e-03 8.28043092e-03
      2.51173060e-02 1.29726743e-02 1.43527463e-02 1.24206459e-02
      4.96825855e-03 9.93651710e-03 4.14021546e-03 8.83245934e-03
      7.72840204e-03 1.07645597e-02 4.96825855e-03 7.72840204e-03
      1.18686175e-02 6.34833006e-03 7.17637315e-03 1.15926024e-02
      5.52028697e-03 5.52028697e-03 1.54568041e-02 1.13165881e-02</_>
    <_>
      9.39849578e-03 5.63909765e-03 4.17710934e-03 2.19298247e-02
      4.17710934e-03 1.33667504e-02 8.98078550e-03 4.38596494e-03
      1.31578948e-02 1.96324140e-02 9.18964110e-03 1.04427738e-02
      7.93650839e-03 1.94235593e-02 2.71512102e-03 1.69172939e-02
      6.68337522e-03 1.00250626e-02 2.92397663e-03 1.37844607e-02
      1.19047621e-02 1.12781953e-02 7.30994157e-03 1.33667504e-02
      8.77192989e-03 8.98078550e-03 1.02339182e-02 8.35421868e-03
      1.04427738e-02 5.43024205e-03 6.68337522e-03 2.50626560e-02
      1.10693397e-02 1.83792822e-02 5.01253130e-03 1.58730168e-02
      6.89223036e-03 7.30994157e-03 7.51879718e-03 5.63909765e-03
      6.05680887e-03 1.04427738e-02 9.81620699e-03 6.05680887e-03
      4.59482055e-03 1.31578948e-02 9.39849578e-03 8.14536307e-03
      6.68337522e-03 1.92147028e-02 5.22138691e-03 9.39849578e-03
      7.93650839e-03 1.92147028e-02 1.46198831e-02 6.89223036e-03
      6.89223036e-03 1.16959065e-02 5.22138691e-03 9.60735139e-03
      1.37844607e-02 5.84795326e-03 5.63909765e-03 2.50626565e-03
      7.10108597e-03 5.84795326e-03 1.44110275e-02 5.43024205e-03
      1.50375944e-02 1.19047621e-02 1.16959065e-02 7.93650839e-03
      1.14870509e-02 9.39849578e-03 1.64995827e-02 1.10693397e-02
      4.15622406e-02 7.10108597e-03 3.96825420e-03 7.30994157e-03
      1.62907261e-02 8.98078550e-03 1.35756060e-02 1.56641603e-02
      3.75939859e-03 1.10693397e-02 5.01253130e-03 8.56307428e-03
      1.19047621e-02 7.51879718e-03 6.47451961e-03 1.83792822e-02
      1.23224724e-02 4.59482055e-03 5.84795326e-03 4.17710934e-03
      6.26566401e-03 6.47451961e-03 1.02339182e-02 6.68337522e-03</_>
    <_>
      1.35482997e-02 6.77414984e-03 6.23221789e-03 1.80192385e-02
      7.18059903e-03 9.21284407e-03 9.48380958e-03 7.99349695e-03
      9.07736085e-03 1.53095787e-02 5.41931996e-03 1.09741231e-02
      9.21284407e-03 9.48380958e-03 8.94187763e-03 3.21094692e-02
      7.85801373e-03 1.24644358e-02 7.72253098e-03 1.07031567e-02
      7.85801373e-03 9.89025831e-03 1.07031567e-02 9.75477602e-03
      8.80639441e-03 9.61929280e-03 1.67998914e-02 6.50318386e-03
      1.09741231e-02 8.12898017e-03 7.99349695e-03 1.01612248e-02
      9.75477602e-03 1.36837829e-02 5.55480272e-03 8.26446246e-03
      9.07736085e-03 8.94187763e-03 9.07736085e-03 2.23546941e-02
      1.13805719e-02 1.01612248e-02 7.85801373e-03 1.01612248e-02
      8.26446246e-03 1.31418509e-02 1.19225038e-02 2.83159465e-02
      7.04511581e-03 5.41931996e-03 5.96125191e-03 1.05676735e-02
      9.48380958e-03 1.16515374e-02 8.94187763e-03 6.90963306e-03
      7.45156500e-03 1.08386399e-02 8.26446246e-03 1.17870206e-02
      7.31608178e-03 6.77414984e-03 7.58704776e-03 8.53542890e-03
      9.34832636e-03 7.85801373e-03 9.34832636e-03 1.09741231e-02
      1.11096054e-02 1.01612248e-02 9.21284407e-03 1.02967080e-02
      1.28708845e-02 8.12898017e-03 6.09673467e-03 1.12450887e-02
      7.31608178e-03 6.23221789e-03 6.09673467e-03 7.85801373e-03
      1.35482997e-02 1.08386399e-02 1.00257415e-02 1.66644081e-02
      5.14835399e-03 1.01612248e-02 5.14835399e-03 8.94187763e-03
      8.80639441e-03 9.07736085e-03 7.85801373e-03 1.43611981e-02
      6.77414984e-03 6.63866661e-03 5.69028594e-03 1.76127888e-02
      8.26446246e-03 1.76127888e-02 6.90963306e-03 8.39994568e-03</_>
    <_>
      2.40000002e-02 4.99999989e-03 4.25000023e-03 2.72499993e-02
      4.74999985e-03 1.07500004e-02 5.75000001e-03 7.00000022e-03
      1.62499994e-02 1.72499996e-02 8.99999961e-03 1.37499999e-02
      1.52500002e-02 1.37499999e-02 6.50000013e-03 2.05000006e-02
      7.24999979e-03 2.42500007e-02 4.74999985e-03 8.99999961e-03
      7.49999983e-03 9.75000020e-03 8.75000004e-03 1.20000001e-02
      1.09999999e-02 7.49999983e-03 1.30000003e-02 9.99999978e-03
      1.47500001e-02 6.25000009e-03 7.24999979e-03 9.99999978e-03
      1.07500004e-02 4.74999985e-03 5.49999997e-03 9.75000020e-03
      1.64999999e-02 8.24999996e-03 4.99999989e-03 7.00000022e-03
      1.42500000e-02 7.24999979e-03 1.04999999e-02 4.25000023e-03
      6.75000018e-03 1.09999999e-02 6.75000018e-03 9.75000020e-03
      9.75000020e-03 9.99999978e-03 1.20000001e-02 8.50000046e-03
      5.24999993e-03 1.12500004e-02 8.75000004e-03 5.24999993e-03
      8.24999996e-03 1.12500004e-02 8.00000038e-03 1.75000001e-02
      6.75000018e-03 5.75000001e-03 1.42500000e-02 8.99999961e-03
      9.75000020e-03 1.12500004e-02 7.49999983e-03 6.50000013e-03
      1.47500001e-02 2.02500001e-02 1.02500003e-02 6.25000009e-03
      1.37499999e-02 1.15000000e-02 7.74999987e-03 1.49999997e-02
      1.25000002e-02 1.02500003e-02 6.50000013e-03 8.99999961e-03
      1.49999997e-02 8.00000038e-03 8.24999996e-03 1.17499996e-02
      6.75000018e-03 1.04999999e-02 8.50000046e-03 1.02500003e-02
      8.00000038e-03 6.50000013e-03 5.49999997e-03 1.22499997e-02
      1.30000003e-02 5.49999997e-03 8.75000004e-03 1.37499999e-02
      2.49999994e-03 4.99999989e-03 9.25000012e-03 4.74999985e-03</_>
    <_>
      7.72071164e-03 1.34273246e-02 8.22423678e-03 1.89660955e-02
      4.86740516e-03 5.87445451e-03 8.39207787e-03 1.17489090e-02
      1.35951666e-02 8.89560301e-03 9.06344410e-03 5.70661295e-03
      6.54582074e-03 1.52735822e-02 6.54582074e-03 3.07150055e-02
      6.04229607e-03 1.22524342e-02 6.88150385e-03 1.22524342e-02
      1.14132259e-02 1.00704934e-02 6.21013762e-03 1.25881173e-02
      6.54582074e-03 7.04934541e-03 1.62806306e-02 1.09097017e-02
      8.55991989e-03 6.37797918e-03 1.27559584e-02 1.47700571e-02
      8.05639476e-03 1.19167510e-02 7.88855366e-03 4.53172205e-03
      7.38502853e-03 8.05639476e-03 7.04934541e-03 1.24202752e-02
      8.55991989e-03 2.16515604e-02 6.21013762e-03 1.15810679e-02
      5.87445451e-03 1.07418597e-02 8.05639476e-03 1.61127895e-02
      6.37797918e-03 1.00704934e-02 4.36388049e-03 1.10775428e-02
      6.54582074e-03 6.21013762e-03 1.40986908e-02 1.37630077e-02
      6.71366230e-03 6.21013762e-03 4.19603894e-03 1.57771073e-02
      2.23229267e-02 6.37797918e-03 8.39207787e-03 7.21718697e-03
      1.37630077e-02 1.72876809e-02 1.17489090e-02 4.36388049e-03
      1.64484736e-02 8.05639476e-03 8.55991989e-03 7.04934541e-03
      8.55991989e-03 5.87445451e-03 1.59449484e-02 9.90265235e-03
      2.56797578e-02 6.88150385e-03 1.42665328e-02 1.54414233e-02
      2.66868081e-02 7.21718697e-03 4.02819738e-03 9.23128612e-03
      4.69956361e-03 5.87445451e-03 4.69956361e-03 6.71366230e-03
      3.69251426e-03 5.87445451e-03 1.09097017e-02 8.89560301e-03
      1.00704934e-02 1.54414233e-02 4.69956361e-03 8.55991989e-03
      4.02819738e-03 9.23128612e-03 8.05639476e-03 9.23128612e-03</_>
    <_>
      5.27704507e-03 1.10817943e-02 9.49868094e-03 1.53034301e-02
      4.74934047e-03 6.33245381e-03 1.10817943e-02 1.16094984e-02
      4.74934047e-03 1.05540901e-02 7.91556761e-03 3.69393150e-03
      5.27704507e-03 8.97097588e-03 8.97097588e-03 4.85488139e-02
      5.80474921e-03 1.53034301e-02 7.38786301e-03 8.97097588e-03
      1.47757260e-02 6.86015841e-03 8.44327174e-03 1.26649076e-02
      7.38786301e-03 8.44327174e-03 1.47757260e-02 5.27704507e-03
      4.74934047e-03 8.97097588e-03 1.68865435e-02 1.79419518e-02
      7.38786301e-03 1.10817943e-02 4.74934047e-03 6.86015841e-03
      9.49868094e-03 5.80474921e-03 8.44327174e-03 8.97097588e-03
      1.68865435e-02 9.49868094e-03 7.38786301e-03 2.79683378e-02
      2.63852254e-03 7.38786301e-03 1.21372035e-02 1.63588393e-02
      5.80474921e-03 6.33245381e-03 1.00263851e-02 6.86015841e-03
      1.53034301e-02 1.16094984e-02 7.91556761e-03 8.44327174e-03
      6.33245381e-03 8.97097588e-03 6.86015841e-03 1.10817943e-02
      1.10817943e-02 5.27704507e-03 7.38786301e-03 1.63588393e-02
      7.91556761e-03 1.10817943e-02 1.00263851e-02 2.42744070e-02
      8.44327174e-03 5.27704507e-03 7.91556761e-03 1.68865435e-02
      7.91556761e-03 1.00263851e-02 2.95514520e-02 1.00263851e-02
      2.37467010e-02 7.91556761e-03 1.10817943e-02 5.80474921e-03
      6.86015841e-03 2.63852254e-03 8.44327174e-03 1.31926117e-02
      4.74934047e-03 6.86015841e-03 4.22163587e-03 1.84696577e-02
      4.22163587e-03 2.63852254e-03 1.05540901e-02 1.47757260e-02
      5.80474921e-03 8.97097588e-03 5.80474921e-03 8.97097588e-03
      6.33245381e-03 7.91556761e-03 4.22163587e-03 9.49868094e-03</_>
    <_>
      1.33058038e-02 7.79995415e-03 5.50585007e-03 3.09704058e-02
      7.34113343e-03 7.57054379e-03 4.58820816e-03 6.19408116e-03
      1.21587524e-02 1.85822435e-02 4.35879780e-03 8.25877488e-03
      1.12411100e-02 1.49116768e-02 8.94700643e-03 4.08350527e-02
      5.27643971e-03 1.37646245e-02 5.04702935e-03 1.21587524e-02
      2.86763012e-02 6.42349152e-03 8.25877488e-03 1.35352146e-02
      1.42234461e-02 5.96467080e-03 9.40582715e-03 8.02936498e-03
      1.14705209e-02 9.40582715e-03 7.79995415e-03 1.19293416e-02
      1.26175731e-02 1.42234461e-02 5.50585007e-03 8.94700643e-03
      9.17641632e-03 7.79995415e-03 6.65290188e-03 2.98233540e-03
      5.96467080e-03 7.57054379e-03 7.79995415e-03 5.27643971e-03
      8.48818570e-03 1.78940129e-02 6.19408116e-03 2.95939427e-02
      6.42349152e-03 1.19293416e-02 6.65290188e-03 7.34113343e-03
      5.73526043e-03 1.12411100e-02 1.03234686e-02 8.02936498e-03
      6.19408116e-03 1.30763939e-02 9.86464787e-03 1.35352146e-02
      7.79995415e-03 6.88231224e-03 8.02936498e-03 2.29410408e-03
      4.81761852e-03 7.11172307e-03 9.86464787e-03 2.06469372e-03
      1.67469606e-02 1.07822893e-02 1.10117001e-02 6.19408116e-03
      1.37646245e-02 7.57054379e-03 7.57054379e-03 1.12411100e-02
      7.11172307e-03 1.26175731e-02 8.48818570e-03 8.02936498e-03
      9.40582715e-03 1.03234686e-02 1.12411100e-02 1.53704975e-02
      5.73526043e-03 9.17641632e-03 6.65290188e-03 9.63523705e-03
      1.10117001e-02 7.57054379e-03 5.04702935e-03 1.28469830e-02
      1.39940353e-02 1.14705209e-02 6.65290188e-03 6.42349152e-03
      1.26175731e-02 5.73526043e-03 6.19408116e-03 1.19293416e-02</_>
    <_>
      1.71184018e-02 6.18164521e-03 7.13266758e-03 1.80694237e-02
      4.27960046e-03 9.03471187e-03 4.27960046e-03 4.27960046e-03
      9.03471187e-03 1.66428909e-02 1.42653356e-03 5.23062283e-03
      9.03471187e-03 2.33000480e-02 1.33143133e-02 3.18592489e-02
      7.13266758e-03 1.75939128e-02 2.85306713e-03 1.47408461e-02
      1.52163580e-02 6.18164521e-03 2.85306713e-03 1.28388014e-02
      1.09367566e-02 9.98573471e-03 1.71184018e-02 1.52163580e-02
      1.14122685e-02 4.75511188e-03 2.61531137e-02 1.75939128e-02
      1.09367566e-02 7.13266758e-03 5.23062283e-03 1.23632904e-02
      5.23062283e-03 9.98573471e-03 6.18164521e-03 4.27960046e-03
      5.70613425e-03 3.80408950e-03 4.27960046e-03 1.18877795e-02
      1.90204475e-03 1.37898242e-02 9.98573471e-03 3.23347598e-02
      7.13266758e-03 2.33000480e-02 2.85306713e-03 4.75511188e-03
      6.65715663e-03 9.51022375e-03 8.55920091e-03 6.18164521e-03
      9.03471187e-03 7.13266758e-03 9.03471187e-03 6.18164521e-03
      4.75511188e-03 5.70613425e-03 1.90204475e-03 2.85306713e-03
      1.04612457e-02 5.70613425e-03 1.14122685e-02 6.18164521e-03
      1.47408461e-02 5.23062283e-03 7.60817900e-03 9.98573471e-03
      1.61673799e-02 4.75511188e-03 1.80694237e-02 1.23632904e-02
      1.75939128e-02 1.56918690e-02 9.98573471e-03 1.09367566e-02
      1.14122685e-02 8.55920091e-03 5.70613425e-03 1.90204475e-02
      2.85306713e-03 5.23062283e-03 9.51022375e-03 2.28245370e-02
      8.08368996e-03 5.70613425e-03 9.03471187e-03 1.23632904e-02
      1.14122685e-02 7.13266758e-03 5.23062283e-03 1.66428909e-02
      2.85306713e-03 9.51022375e-03 8.08368996e-03 8.55920091e-03</_>
    <_>
      5.97054511e-03 1.48600237e-02 7.03197578e-03 1.85750294e-02
      5.30715147e-03 4.90911491e-03 8.09340551e-03 1.51253818e-02
      1.55234179e-02 1.00835878e-02 5.57250902e-03 5.17447246e-03
      5.30715147e-03 1.36659145e-02 1.11450180e-02 2.65357569e-02
      8.35876353e-03 1.68502051e-02 7.56269088e-03 1.32678784e-02
      1.34005575e-02 1.10123390e-02 7.56269088e-03 7.56269088e-03
      7.82804843e-03 7.29733333e-03 1.65848490e-02 1.24718053e-02
      1.15430541e-02 6.50126068e-03 9.42019373e-03 1.32678784e-02
      7.03197578e-03 9.95090883e-03 6.63393922e-03 5.04179392e-03
      7.82804843e-03 7.56269088e-03 8.62412062e-03 1.28698424e-02
      8.62412062e-03 1.04816239e-02 5.17447246e-03 1.07469819e-02
      6.63393922e-03 8.09340551e-03 9.15483572e-03 1.63194910e-02
      8.09340551e-03 1.14103751e-02 4.37839981e-03 8.75679962e-03
      6.89929677e-03 6.23590266e-03 1.22064482e-02 1.20737692e-02
      5.04179392e-03 7.03197578e-03 3.58232716e-03 1.19410902e-02
      2.13612840e-02 6.36858167e-03 1.02162668e-02 7.82804843e-03
      1.16757331e-02 1.64521690e-02 1.95037816e-02 6.50126068e-03
      1.35332365e-02 7.96072744e-03 1.23391273e-02 6.76661823e-03
      7.96072744e-03 6.36858167e-03 1.77789573e-02 1.04816239e-02
      1.99018177e-02 1.04816239e-02 1.44619877e-02 1.11450180e-02
      2.28207503e-02 7.03197578e-03 6.10322412e-03 1.39312726e-02
      3.98036372e-03 5.43983001e-03 4.77643637e-03 6.10322412e-03
      5.43983001e-03 6.36858167e-03 1.08796600e-02 8.09340551e-03
      1.03489449e-02 1.08796600e-02 4.90911491e-03 1.20737692e-02
      7.29733333e-03 1.08796600e-02 1.47273447e-02 7.03197578e-03</_>
    <_>
      9.46236588e-03 8.17204267e-03 9.89247300e-03 1.20430104e-02
      4.73118294e-03 1.20430104e-02 4.30107536e-03 1.33333337e-02
      7.31182797e-03 1.50537631e-02 3.87096778e-03 5.59139764e-03
      1.16129033e-02 1.20430104e-02 9.03225783e-03 2.75268815e-02
      3.87096778e-03 1.72043014e-02 4.73118294e-03 6.02150522e-03
      2.19354834e-02 8.17204267e-03 6.45161280e-03 8.17204267e-03
      1.03225810e-02 5.16129052e-03 9.46236588e-03 9.46236588e-03
      1.50537631e-02 6.45161280e-03 1.41935488e-02 1.46236559e-02
      7.74193555e-03 6.45161280e-03 3.44086019e-03 1.59139782e-02
      1.16129033e-02 6.88172039e-03 6.88172039e-03 6.88172039e-03
      1.20430104e-02 9.03225783e-03 6.88172039e-03 8.17204267e-03
      3.44086019e-03 8.60215072e-03 6.02150522e-03 1.89247318e-02
      5.59139764e-03 7.31182797e-03 7.74193555e-03 6.88172039e-03
      2.19354834e-02 5.16129052e-03 2.10752692e-02 3.44086019e-03
      3.87096778e-03 5.59139764e-03 6.88172039e-03 1.50537631e-02
      1.41935488e-02 3.44086019e-03 5.59139764e-03 2.96774190e-02
      9.89247300e-03 5.16129052e-03 1.46236559e-02 2.79569887e-02
      1.07526882e-02 1.89247318e-02 7.31182797e-03 1.76344085e-02
      1.24731185e-02 1.11827953e-02 2.10752692e-02 8.17204267e-03
      1.76344085e-02 6.02150522e-03 7.74193555e-03 6.45161280e-03
      1.33333337e-02 6.02150522e-03 2.58064526e-03 2.58064512e-02
      3.01075261e-03 7.31182797e-03 4.73118294e-03 8.60215072e-03
      9.03225783e-03 3.01075261e-03 6.88172039e-03 1.16129033e-02
      1.46236559e-02 1.07526882e-02 4.73118294e-03 8.60215072e-03
      4.30107536e-03 9.03225783e-03 6.88172039e-03 6.45161280e-03</_>
    <_>
      6.94136741e-03 1.12243388e-02 9.45207477e-03 2.46640090e-02
      5.02141472e-03 7.38443341e-03 4.43066005e-03 1.07812732e-02
      1.29966028e-02 9.74745210e-03 4.72603738e-03 6.79367874e-03
      6.94136741e-03 1.81657076e-02 8.56594276e-03 4.46019806e-02
      7.23674474e-03 1.74272638e-02 6.20292407e-03 1.21104708e-02
      9.89514124e-03 9.59976390e-03 6.05523540e-03 1.10766506e-02
      1.18150935e-02 9.00900923e-03 1.34396693e-02 1.07812732e-02
      9.30438656e-03 7.38443341e-03 1.46211786e-02 1.53596215e-02
      7.53212208e-03 8.27056542e-03 7.38443341e-03 7.08905607e-03
      6.20292407e-03 4.43066005e-03 7.82749988e-03 7.38443341e-03
      7.38443341e-03 1.27012255e-02 6.79367874e-03 1.09289614e-02
      6.94136741e-03 1.04858959e-02 7.38443341e-03 1.62457544e-02
      9.45207477e-03 1.52119333e-02 5.02141472e-03 9.15669743e-03
      6.35061273e-03 9.59976390e-03 1.16674053e-02 1.07812732e-02
      5.75985806e-03 9.59976390e-03 4.72603738e-03 1.21104708e-02
      1.24058481e-02 9.30438656e-03 7.97518808e-03 6.35061273e-03
      9.74745210e-03 8.27056542e-03 1.80180185e-02 3.10146203e-03
      1.53596215e-02 9.59976390e-03 1.10766506e-02 6.20292407e-03
      1.18150935e-02 8.56594276e-03 1.27012255e-02 1.04858959e-02
      1.63934417e-02 1.24058481e-02 9.00900923e-03 1.13720279e-02
      1.97902825e-02 1.06335841e-02 7.53212208e-03 1.41781121e-02
      5.31679206e-03 7.67981075e-03 6.49830140e-03 8.86132009e-03
      7.23674474e-03 7.67981075e-03 8.56594276e-03 4.72603738e-03
      1.27012255e-02 1.01905186e-02 8.27056542e-03 9.45207477e-03
      5.46448072e-03 1.07812732e-02 8.41825455e-03 7.67981075e-03</_>
    <_>
      9.15654190e-03 7.04349345e-03 6.86740642e-03 2.57087518e-02
      5.81088196e-03 3.69783421e-03 5.10653295e-03 8.45219195e-03
      2.11304799e-02 1.16217639e-02 5.45870746e-03 4.05000895e-03
      7.92392995e-03 1.56717729e-02 7.92392995e-03 1.14456769e-02
      7.74784293e-03 1.09174149e-02 7.57175544e-03 1.21500269e-02
      1.00369779e-02 8.62827990e-03 1.37348128e-02 8.45219195e-03
      7.04349345e-03 7.04349345e-03 1.17978519e-02 1.02130659e-02
      1.09174149e-02 7.04349345e-03 1.17978519e-02 1.49674239e-02
      8.10001791e-03 8.62827990e-03 8.10001791e-03 4.93044546e-03
      1.37348128e-02 9.33262892e-03 9.15654190e-03 9.68480390e-03
      8.62827990e-03 1.62000358e-02 5.45870746e-03 1.10935019e-02
      5.81088196e-03 8.45219195e-03 6.16305694e-03 5.45870746e-03
      6.69131894e-03 1.19739389e-02 5.45870746e-03 1.49674239e-02
      4.75435797e-03 9.50871594e-03 1.37348128e-02 1.42630748e-02
      9.33262892e-03 8.98045395e-03 3.87392147e-03 1.58478599e-02
      1.86652578e-02 6.69131894e-03 7.92392995e-03 5.98696945e-03
      1.16217639e-02 1.05652399e-02 1.46152489e-02 5.10653295e-03
      1.53195988e-02 1.21500269e-02 1.10935019e-02 9.15654190e-03
      1.49674239e-02 9.15654190e-03 1.42630748e-02 1.37348128e-02
      1.91935208e-02 1.00369779e-02 1.03891529e-02 1.23261139e-02
      3.15196328e-02 1.17978519e-02 8.10001791e-03 8.98045395e-03
      5.45870746e-03 7.21958093e-03 5.63479494e-03 7.92392995e-03
      6.33914443e-03 5.63479494e-03 8.98045395e-03 8.45219195e-03
      1.42630748e-02 8.10001791e-03 7.39566842e-03 1.14456769e-02
      5.45870746e-03 7.92392995e-03 1.33826379e-02 7.57175544e-03</_>
    <_>
      6.41413545e-03 1.13760140e-02 6.05107099e-03 2.63826698e-02
      5.08289970e-03 4.96187806e-03 5.20392088e-03 7.26128509e-03
      1.25862276e-02 8.47149920e-03 4.47779242e-03 5.44596370e-03
      6.41413545e-03 2.38412190e-02 7.62434956e-03 4.22364771e-02
      5.44596370e-03 1.36754205e-02 7.26128509e-03 1.99685339e-02
      2.28730477e-02 1.00447778e-02 7.14026392e-03 6.17209263e-03
      7.86639191e-03 5.56698535e-03 1.30703133e-02 1.16180563e-02
      1.18600996e-02 5.44596370e-03 1.25862276e-02 1.52486991e-02
      1.29492916e-02 1.05288634e-02 5.20392088e-03 4.47779242e-03
      7.74537073e-03 4.96187806e-03 4.84085688e-03 8.71354248e-03
      1.19811203e-02 1.53697208e-02 5.32494253e-03 1.17390780e-02
      5.08289970e-03 9.80273541e-03 3.75166396e-03 4.44148630e-02
      5.80902817e-03 2.08156835e-02 3.75166396e-03 1.10129490e-02
      3.75166396e-03 7.62434956e-03 1.13760140e-02 9.31864977e-03
      5.68800699e-03 7.62434956e-03 3.14655690e-03 7.38230674e-03
      1.76691283e-02 4.35677124e-03 7.14026392e-03 3.02553549e-03
      1.06498851e-02 1.44015495e-02 2.20258981e-02 4.11472842e-03
      1.37964422e-02 7.62434956e-03 8.59252084e-03 4.59881406e-03
      9.07660648e-03 4.71983524e-03 1.27072493e-02 9.92375612e-03
      2.10577268e-02 7.98741356e-03 1.00447778e-02 1.34333773e-02
      2.43253056e-02 6.05107099e-03 4.71983524e-03 1.85162779e-02
      3.26757831e-03 5.08289970e-03 6.65617827e-03 7.98741356e-03
      6.29311381e-03 6.17209263e-03 9.68171377e-03 9.19762813e-03
      1.05288634e-02 9.80273541e-03 5.08289970e-03 7.26128509e-03
      3.99370678e-03 8.83456413e-03 8.22945684e-03 7.50332791e-03</_>
    <_>
      1.10301357e-02 8.46956857e-03 6.49990141e-03 2.18633059e-02
      5.51506784e-03 1.12271030e-02 7.28776818e-03 6.49990141e-03
      9.06046852e-03 1.02422694e-02 7.09080184e-03 7.28776818e-03
      7.87866861e-03 1.59543045e-02 5.90900145e-03 3.89994085e-02
      4.72720107e-03 1.35907028e-02 8.27260222e-03 1.20149693e-02
      1.26058692e-02 7.28776818e-03 7.68170180e-03 5.71203465e-03
      1.24089029e-02 8.86350218e-03 1.06362021e-02 7.28776818e-03
      1.41816037e-02 7.68170180e-03 6.89383503e-03 1.14240693e-02
      1.29998028e-02 1.20149693e-02 1.00453021e-02 1.00453021e-02
      7.09080184e-03 7.68170180e-03 7.48473499e-03 1.20149693e-02
      8.46956857e-03 9.25743580e-03 6.30293461e-03 3.34843411e-03
      8.27260222e-03 1.39846364e-02 1.24089029e-02 4.68780771e-02
      8.07563495e-03 7.09080184e-03 4.72720107e-03 8.46956857e-03
      7.87866861e-03 1.33937364e-02 1.41816037e-02 9.65136848e-03
      5.12113469e-03 1.16210356e-02 6.30293461e-03 1.57573372e-02
      1.14240693e-02 7.68170180e-03 4.92416788e-03 2.95450073e-03
      7.09080184e-03 5.12113469e-03 8.46956857e-03 5.12113469e-03
      2.44238731e-02 1.35907028e-02 1.14240693e-02 8.86350218e-03
      1.89088043e-02 6.89383503e-03 5.71203465e-03 1.12271030e-02
      5.31810103e-03 1.02422694e-02 4.13630111e-03 7.87866861e-03
      9.65136848e-03 1.00453021e-02 1.71361044e-02 1.73330698e-02
      6.49990141e-03 7.48473499e-03 7.48473499e-03 7.68170180e-03
      8.27260222e-03 9.84833576e-03 7.28776818e-03 1.16210356e-02
      1.14240693e-02 6.30293461e-03 7.68170180e-03 1.26058692e-02
      4.72720107e-03 1.00453021e-02 5.31810103e-03 7.48473499e-03</_>
    <_>
      1.87593792e-02 5.25262626e-03 8.75437725e-03 3.77688855e-02
      3.50175076e-03 1.22561278e-02 5.25262626e-03 7.50375167e-03
      1.17558781e-02 1.65082533e-02 5.50275156e-03 9.75487754e-03
      1.35067534e-02 1.82591304e-02 3.75187583e-03 3.60180102e-02
      4.25212597e-03 2.25112550e-02 4.75237612e-03 1.25062531e-02
      1.20060034e-02 6.25312654e-03 4.25212597e-03 1.32566281e-02
      6.00300170e-03 8.00400227e-03 1.12556275e-02 5.50275156e-03
      1.92596298e-02 5.75287640e-03 5.50275156e-03 1.05052525e-02
      1.45072537e-02 5.75287640e-03 6.25312654e-03 1.20060034e-02
      1.12556275e-02 1.00050028e-02 8.00400227e-03 6.50325185e-03
      8.00400227e-03 5.25262626e-03 6.25312654e-03 3.50175076e-03
      5.00250142e-03 1.47573790e-02 7.75387697e-03 4.67733853e-02
      9.50475223e-03 4.25212597e-03 6.25312654e-03 6.75337669e-03
      9.75487754e-03 7.25362683e-03 1.37568787e-02 4.25212597e-03
      6.50325185e-03 9.25462693e-03 4.75237612e-03 6.50325185e-03
      7.25362683e-03 7.75387697e-03 3.50175076e-03 4.25212597e-03
      5.25262626e-03 7.00350152e-03 8.00400227e-03 1.65082533e-02
      1.37568787e-02 1.55077539e-02 1.05052525e-02 9.00450256e-03
      1.62581299e-02 1.17558781e-02 2.25112564e-03 1.47573790e-02
      8.50425195e-03 7.50375167e-03 3.75187583e-03 6.00300170e-03
      1.40070030e-02 9.25462693e-03 9.75487754e-03 2.52626315e-02
      9.50475223e-03 8.25412665e-03 9.00450256e-03 1.20060034e-02
      1.32566281e-02 9.75487754e-03 4.25212597e-03 8.50425195e-03
      1.22561278e-02 5.00250142e-03 6.50325185e-03 1.27563784e-02
      4.25212597e-03 8.00400227e-03 5.75287640e-03 7.50375167e-03</_>
    <_>
      5.15132025e-03 5.15132025e-03 1.48100452e-02 2.57565994e-02
      6.43914985e-03 1.15904696e-02 3.21957492e-03 1.28782997e-02
      3.86348995e-03 1.22343851e-02 9.01481044e-03 5.79523481e-03
      3.21957492e-03 1.60978753e-02 6.43914985e-03 4.24983911e-02
      5.79523481e-03 1.67417899e-02 5.15132025e-03 1.15904696e-02
      1.99613646e-02 5.79523481e-03 3.86348995e-03 1.09465551e-02
      1.15904696e-02 1.28782997e-02 1.28782997e-02 1.93174500e-02
      9.65872500e-03 4.50740522e-03 1.80296209e-02 2.57565994e-02
      7.08306488e-03 4.50740522e-03 5.15132025e-03 1.22343851e-02
      6.43914985e-03 5.79523481e-03 8.37089494e-03 1.03026405e-02
      5.79523481e-03 1.28782997e-02 7.08306488e-03 7.08306488e-03
      7.72697991e-03 1.03026405e-02 5.79523481e-03 4.37862203e-02
      9.01481044e-03 1.09465551e-02 7.72697991e-03 6.43914985e-03
      4.50740522e-03 1.54539598e-02 1.41661298e-02 9.01481044e-03
      7.08306488e-03 7.08306488e-03 7.72697991e-03 1.93174498e-03
      9.01481044e-03 5.15132025e-03 9.65872500e-03 5.79523481e-03
      7.72697991e-03 5.79523481e-03 1.35222152e-02 3.86348995e-03
      2.18931101e-02 9.01481044e-03 7.72697991e-03 9.01481044e-03
      1.41661298e-02 7.08306488e-03 7.08306488e-03 1.35222152e-02
      2.38248557e-02 1.54539598e-02 1.22343851e-02 5.15132025e-03
      1.28782997e-02 1.41661298e-02 7.72697991e-03 1.41661298e-02
      1.03026405e-02 3.21957492e-03 4.50740522e-03 1.09465551e-02
      9.01481044e-03 7.08306488e-03 4.50740522e-03 7.72697991e-03
      9.01481044e-03 1.15904696e-02 4.50740522e-03 5.15132025e-03
      2.57566012e-03 4.50740522e-03 2.57566012e-03 7.08306488e-03</_>
    <_>
      1.23647600e-02 7.34157627e-03 3.47758876e-03 2.26043276e-02
      6.95517752e-03 1.15919625e-02 6.95517752e-03 1.10123651e-02
      9.46677011e-03 1.50695518e-02 4.44358587e-03 9.08037089e-03
      9.46677011e-03 1.54559510e-02 1.02395676e-02 2.55023185e-02
      4.25038626e-03 9.46677011e-03 7.34157627e-03 1.25579601e-02
      3.05255018e-02 7.14837713e-03 1.12055643e-02 1.19783618e-02
      1.17851626e-02 9.27357003e-03 1.37171559e-02 1.02395676e-02
      1.71947442e-02 7.53477588e-03 6.18238002e-03 1.23647600e-02
      1.00463675e-02 1.08191650e-02 7.14837713e-03 9.27357003e-03
      1.13987634e-02 9.46677011e-03 1.23647600e-02 5.40958252e-03
      7.14837713e-03 5.98918088e-03 9.08037089e-03 3.67078814e-03
      8.88717175e-03 1.48763526e-02 6.37557963e-03 3.12982984e-02
      7.14837713e-03 7.53477588e-03 5.40958252e-03 8.88717175e-03
      6.56877877e-03 1.12055643e-02 1.33307576e-02 6.37557963e-03
      7.92117510e-03 1.12055643e-02 6.95517752e-03 1.35239568e-02
      5.98918088e-03 6.95517752e-03 6.18238002e-03 3.47758876e-03
      8.30757339e-03 4.44358587e-03 9.85316839e-03 2.70479126e-03
      1.58423502e-02 1.17851626e-02 1.08191650e-02 6.18238002e-03
      1.93199385e-02 7.14837713e-03 6.95517752e-03 1.73879452e-02
      7.53477588e-03 1.00463675e-02 2.89799063e-03 7.92117510e-03
      7.53477588e-03 1.25579601e-02 1.23647600e-02 2.06723344e-02
      7.53477588e-03 1.29443584e-02 6.37557963e-03 1.08191650e-02
      1.12055643e-02 6.37557963e-03 4.82998462e-03 1.19783618e-02
      1.23647600e-02 9.08037089e-03 6.76197838e-03 1.44899534e-02
      8.30757339e-03 7.34157627e-03 5.21638338e-03 6.37557963e-03</_>
    <_>
      1.12893647e-02 8.31847917e-03 4.15923959e-03 2.67379675e-02
      7.72430189e-03 8.91265552e-03 2.97088525e-03 1.01010101e-02
      9.50683281e-03 1.36660729e-02 6.53594779e-03 8.31847917e-03
      5.34759369e-03 1.78253110e-02 1.48544265e-02 3.80273312e-02
      1.78253115e-03 1.96078438e-02 2.97088525e-03 1.06951874e-02
      1.36660729e-02 5.34759369e-03 8.91265552e-03 1.01010101e-02
      9.50683281e-03 1.06951874e-02 1.18835410e-02 1.42602492e-02
      1.78253110e-02 4.75341640e-03 1.42602492e-02 2.67379675e-02
      1.12893647e-02 4.15923959e-03 2.97088525e-03 5.94177051e-03
      1.06951874e-02 1.36660729e-02 2.37670820e-03 5.34759369e-03
      8.31847917e-03 8.91265552e-03 1.24777183e-02 7.72430189e-03
      6.53594779e-03 1.78253110e-02 8.31847917e-03 2.25787293e-02
      8.31847917e-03 1.48544265e-02 4.75341640e-03 8.31847917e-03
      8.31847917e-03 4.75341640e-03 1.72311347e-02 4.15923959e-03
      2.37670820e-03 7.72430189e-03 1.18835410e-02 8.31847917e-03
      9.50683281e-03 1.06951874e-02 6.53594779e-03 1.18835410e-03
      1.06951874e-02 1.01010101e-02 1.42602492e-02 4.75341640e-03
      1.01010101e-02 9.50683281e-03 5.34759369e-03 3.56506230e-03
      1.18835410e-02 7.13012461e-03 1.60427801e-02 1.30718956e-02
      2.49554366e-02 9.50683281e-03 5.94177051e-03 4.75341640e-03
      1.24777183e-02 4.75341640e-03 4.15923959e-03 1.96078438e-02
      2.37670820e-03 3.56506230e-03 7.13012461e-03 2.37670820e-02
      9.50683281e-03 4.15923959e-03 9.50683281e-03 7.13012461e-03
      1.42602492e-02 7.13012461e-03 2.97088525e-03 1.42602492e-02
      3.56506230e-03 1.42602492e-02 5.94177051e-03 1.24777183e-02</_>
    <_>
      1.65032297e-02 6.21860800e-03 5.74025372e-03 3.92250642e-02
      5.02272183e-03 1.00454437e-02 4.54436755e-03 7.89284892e-03
      1.07629756e-02 1.91341788e-02 8.13202560e-03 9.32791177e-03
      1.50681660e-02 2.12867744e-02 5.50107611e-03 2.32001916e-02
      5.02272183e-03 1.41114565e-02 5.26189897e-03 1.48289884e-02
      1.21980384e-02 7.41449418e-03 6.69696229e-03 1.21980384e-02
      1.19588617e-02 9.56708938e-03 1.00454437e-02 9.08873510e-03
      1.86558235e-02 7.41449418e-03 7.89284892e-03 1.76991150e-02
      1.43506341e-02 6.45778514e-03 5.74025372e-03 1.53073426e-02
      1.12413298e-02 7.17531703e-03 5.97943086e-03 3.82683566e-03
      6.93613989e-03 6.69696229e-03 6.45778514e-03 3.10930400e-03
      7.17531703e-03 1.67424064e-02 6.93613989e-03 1.50681660e-02
      6.69696229e-03 1.38722798e-02 3.10930400e-03 6.69696229e-03
      8.13202560e-03 8.37120321e-03 1.57856978e-02 2.63094949e-03
      6.45778514e-03 1.50681660e-02 8.37120321e-03 6.93613989e-03
      5.97943086e-03 5.02272183e-03 3.58765852e-03 2.63094949e-03
      6.93613989e-03 5.74025372e-03 1.21980384e-02 3.10930400e-03
      1.14805074e-02 1.38722798e-02 9.32791177e-03 9.32791177e-03
      2.29610149e-02 1.10021522e-02 9.56708938e-03 1.36331022e-02
      2.24826597e-02 7.65367132e-03 4.30518994e-03 5.97943086e-03
      1.74599383e-02 1.31547479e-02 1.41114565e-02 1.74599383e-02
      8.61037988e-03 9.56708938e-03 5.50107611e-03 6.69696229e-03
      1.41114565e-02 1.07629756e-02 6.69696229e-03 1.10021522e-02
      1.00454437e-02 5.02272183e-03 5.74025372e-03 1.19588617e-02
      4.78354469e-03 6.69696229e-03 6.93613989e-03 7.89284892e-03</_>
    <_>
      9.98502225e-03 1.19820265e-02 1.34797804e-02 2.29655523e-02
      3.99400899e-03 6.98951585e-03 6.98951585e-03 1.54767847e-02
      8.48726928e-03 1.49775334e-02 7.48876669e-03 3.99400899e-03
      6.49026455e-03 1.74737889e-02 1.14827761e-02 3.44483294e-02
      6.49026455e-03 2.19670497e-02 4.49326029e-03 1.54767847e-02
      1.89715419e-02 6.49026455e-03 9.48577095e-03 1.39790317e-02
      6.98951585e-03 1.24812778e-02 1.14827761e-02 2.04692967e-02
      1.24812778e-02 4.49326029e-03 2.39640530e-02 2.14677975e-02
      1.24812778e-02 1.04842735e-02 3.49475793e-03 1.49775334e-02
      5.49176242e-03 3.49475793e-03 5.99101325e-03 1.49775331e-03
      7.48876669e-03 6.49026455e-03 3.49475793e-03 1.14827761e-02
      6.98951585e-03 6.49026455e-03 5.49176242e-03 2.59610582e-02
      4.49326029e-03 2.04692967e-02 5.99101325e-03 2.99550663e-03
      5.49176242e-03 4.99251112e-03 1.39790317e-02 8.48726928e-03
      2.99550663e-03 6.98951585e-03 6.49026455e-03 7.98801798e-03
      1.24812778e-02 5.99101325e-03 5.99101325e-03 1.99700450e-03
      1.14827761e-02 9.98502225e-03 1.24812778e-02 3.49475793e-03
      1.54767847e-02 8.48726928e-03 8.98652058e-03 3.49475793e-03
      7.98801798e-03 5.99101325e-03 8.98652058e-03 1.14827761e-02
      1.34797804e-02 2.14677975e-02 6.98951585e-03 6.49026455e-03
      7.48876669e-03 9.98502225e-03 8.98652058e-03 1.69745386e-02
      7.48876669e-03 7.48876669e-03 8.98652058e-03 1.19820265e-02
      1.34797804e-02 8.48726928e-03 1.09835248e-02 8.98652058e-03
      9.48577095e-03 9.98502225e-03 5.99101325e-03 1.19820265e-02
      2.49625556e-03 5.99101325e-03 9.98502225e-03 8.48726928e-03</_>
    <_>
      1.12453140e-02 8.74635577e-03 1.04123279e-02 1.83256976e-02
      4.16493136e-03 9.57934186e-03 8.32986273e-03 6.66389009e-03
      6.24739705e-03 1.66597255e-02 6.66389009e-03 7.49687618e-03
      7.49687618e-03 2.08246559e-02 3.33194504e-03 3.20699699e-02
      4.99791745e-03 1.79092046e-02 1.12453140e-02 9.57934186e-03
      1.62432324e-02 7.91336969e-03 3.33194504e-03 1.20783010e-02
      6.66389009e-03 5.83090400e-03 7.49687618e-03 1.12453140e-02
      2.16576420e-02 7.91336969e-03 8.32986273e-03 2.70720534e-02
      1.08288210e-02 8.74635577e-03 7.08038313e-03 1.54102454e-02
      9.57934186e-03 4.99791745e-03 4.58142441e-03 1.12453140e-02
      1.70762185e-02 1.04123279e-02 8.32986273e-03 1.66597252e-03
      5.41441049e-03 1.08288210e-02 5.41441049e-03 1.41607663e-02
      4.58142441e-03 1.20783010e-02 1.29112871e-02 1.12453140e-02
      9.99583490e-03 5.41441049e-03 1.04123279e-02 4.99791745e-03
      4.58142441e-03 9.16284882e-03 8.32986273e-03 1.83256976e-02
      1.24947941e-02 7.08038313e-03 4.58142441e-03 2.70720534e-02
      7.08038313e-03 1.08288210e-02 8.32986273e-03 2.79050395e-02
      1.12453140e-02 2.37401091e-02 6.24739705e-03 8.74635577e-03
      1.49937524e-02 3.74843809e-03 6.66389009e-03 1.04123279e-02
      9.16284882e-03 7.49687618e-03 8.32986273e-03 3.33194504e-03
      8.74635577e-03 8.32986273e-03 4.16493136e-03 1.54102454e-02
      8.32986273e-03 1.04123279e-02 4.16493136e-03 7.49687618e-03
      9.99583490e-03 5.83090400e-03 4.58142441e-03 7.49687618e-03
      1.45772593e-02 1.04123279e-02 5.41441049e-03 7.08038313e-03
      4.58142441e-03 9.57934186e-03 8.32986273e-03 9.99583490e-03</_>
    <_>
      1.15523469e-02 1.15523469e-02 1.01083033e-02 2.31046937e-02
      1.44404336e-03 9.38628148e-03 4.33212984e-03 1.58844758e-02
      6.49819477e-03 6.49819477e-03 3.61010828e-03 4.33212984e-03
      7.22021656e-03 1.37184113e-02 7.94223789e-03 2.96028890e-02
      7.94223789e-03 1.73285194e-02 4.33212984e-03 1.15523469e-02
      2.09386274e-02 8.66425969e-03 3.61010828e-03 1.08303251e-02
      3.61010828e-03 5.05415164e-03 1.66064985e-02 1.08303251e-02
      1.29963895e-02 3.61010828e-03 1.51624549e-02 2.88808662e-02
      1.58844758e-02 4.33212984e-03 6.49819477e-03 5.77617344e-03
      5.77617344e-03 5.05415164e-03 5.05415164e-03 9.38628148e-03
      5.77617344e-03 8.66425969e-03 5.05415164e-03 6.49819477e-03
      6.49819477e-03 1.22743687e-02 5.77617344e-03 5.48736453e-02
      3.61010828e-03 1.58844758e-02 3.61010828e-03 8.66425969e-03
      1.44404336e-03 8.66425969e-03 1.66064985e-02 8.66425969e-03
      5.05415164e-03 7.94223789e-03 1.51624549e-02 5.05415164e-03
      1.94945857e-02 5.05415164e-03 2.16606492e-03 4.33212984e-03
      1.01083033e-02 1.08303251e-02 7.94223789e-03 4.33212984e-03
      1.01083033e-02 5.05415164e-03 2.88808672e-03 3.61010828e-03
      7.94223789e-03 5.05415164e-03 2.16606501e-02 9.38628148e-03
      4.54873629e-02 1.01083033e-02 7.94223789e-03 1.66064985e-02
      1.94945857e-02 2.88808672e-03 5.05415164e-03 3.32129970e-02
      3.61010828e-03 2.16606492e-03 5.05415164e-03 1.08303251e-02
      1.01083033e-02 5.77617344e-03 7.22021656e-03 1.44404331e-02
      1.15523469e-02 3.61010828e-03 2.88808672e-03 1.01083033e-02
      5.05415164e-03 5.77617344e-03 1.29963895e-02 5.77617344e-03</_>
    <_>
      1.08757867e-02 1.05895819e-02 4.57927864e-03 3.34859751e-02
      4.86548385e-03 7.72753311e-03 1.20206065e-02 1.14481971e-02
      8.87235254e-03 1.17344018e-02 7.72753311e-03 6.29650848e-03
      1.20206065e-02 1.91757306e-02 6.01030327e-03 2.83342879e-02
      5.72409853e-03 1.28792217e-02 6.86891796e-03 9.44476202e-03
      2.06067543e-02 5.43789333e-03 8.29994306e-03 1.00171724e-02
      1.14481971e-02 6.01030327e-03 1.28792217e-02 7.44132791e-03
      1.68860909e-02 6.58271322e-03 7.72753311e-03 9.44476202e-03
      2.03205496e-02 1.65998861e-02 4.00686869e-03 1.05895819e-02
      1.28792217e-02 1.28792217e-02 8.29994306e-03 7.44132791e-03
      1.14481971e-02 9.44476202e-03 4.86548385e-03 5.43789333e-03
      6.86891796e-03 1.25930170e-02 1.00171724e-02 2.31825989e-02
      7.72753311e-03 6.29650848e-03 1.03033772e-02 7.15512317e-03
      9.15855728e-03 4.57927864e-03 1.45964511e-02 9.73096769e-03
      7.15512317e-03 1.31654264e-02 5.72409853e-03 1.23068113e-02
      3.72066395e-03 6.01030327e-03 7.44132791e-03 4.86548385e-03
      9.44476202e-03 4.29307390e-03 1.20206065e-02 5.72409853e-03
      1.68860909e-02 8.58614780e-03 1.14481971e-02 8.87235254e-03
      1.71722956e-02 1.11619923e-02 8.01373739e-03 1.03033772e-02
      5.15168859e-03 8.01373739e-03 4.29307390e-03 7.44132791e-03
      1.08757867e-02 1.45964511e-02 1.05895819e-02 1.65998861e-02
      7.72753311e-03 1.03033772e-02 7.15512317e-03 6.86891796e-03
      1.20206065e-02 7.44132791e-03 6.01030327e-03 1.45964511e-02
      1.03033772e-02 9.15855728e-03 6.58271322e-03 1.34516312e-02
      8.01373739e-03 7.72753311e-03 3.14825424e-03 7.72753311e-03</_>
    <_>
      1.18226605e-02 5.91133023e-03 1.37931034e-02 3.10344826e-02
      1.97044341e-03 4.92610829e-03 5.91133023e-03 1.37931034e-02
      2.46305414e-03 1.23152705e-02 5.91133023e-03 9.35960561e-03
      3.44827585e-03 2.11822651e-02 4.43349732e-03 5.27093597e-02
      2.95566511e-03 1.87192112e-02 3.94088682e-03 1.47783253e-02
      1.72413792e-02 4.92610829e-03 2.95566511e-03 1.28078815e-02
      9.85221658e-03 8.86699464e-03 1.57635473e-02 2.66009849e-02
      1.47783253e-02 6.40394073e-03 2.11822651e-02 2.06896551e-02
      1.18226605e-02 9.85221658e-03 3.44827585e-03 1.13300495e-02
      8.86699464e-03 6.40394073e-03 3.94088682e-03 2.95566511e-03
      1.03448275e-02 1.47783253e-02 7.38916267e-03 8.86699464e-03
      4.92610829e-03 1.03448275e-02 4.92610829e-03 4.08867002e-02
      7.38916267e-03 1.18226605e-02 6.89655170e-03 5.91133023e-03
      4.43349732e-03 8.86699464e-03 1.18226605e-02 8.86699464e-03
      9.85221704e-04 6.89655170e-03 8.37438460e-03 9.35960561e-03
      1.13300495e-02 5.91133023e-03 5.41871926e-03 4.92610829e-03
      8.37438460e-03 2.95566511e-03 1.08374385e-02 2.46305414e-03
      1.33004924e-02 6.40394073e-03 6.89655170e-03 5.91133023e-03
      1.18226605e-02 4.92610829e-03 8.37438460e-03 1.03448275e-02
      2.31527090e-02 2.16748770e-02 4.92610829e-03 1.03448275e-02
      1.28078815e-02 9.35960561e-03 7.38916267e-03 2.46305410e-02
      3.44827585e-03 5.91133023e-03 4.92610829e-03 8.86699464e-03
      7.88177364e-03 6.40394073e-03 9.85221658e-03 9.35960561e-03
      1.33004924e-02 6.89655170e-03 5.41871926e-03 7.88177364e-03
      4.92610852e-04 5.41871926e-03 4.92610829e-03 8.37438460e-03</_>
    <_>
      1.49006620e-02 8.69205315e-03 3.31125828e-03 2.13162247e-02
      3.10430466e-03 9.51986760e-03 4.75993380e-03 6.82947040e-03
      1.32450331e-02 1.90397352e-02 4.34602657e-03 7.86423869e-03
      1.42798014e-02 1.67632457e-02 3.93211935e-03 7.45033100e-02
      5.17384103e-03 1.59354303e-02 5.17384103e-03 9.10595991e-03
      1.15894042e-02 5.58774825e-03 8.27814545e-03 7.45033100e-03
      8.69205315e-03 6.82947040e-03 9.10595991e-03 1.05546359e-02
      1.77980140e-02 8.07119161e-03 6.82947040e-03 1.22102648e-02
      1.36589408e-02 4.34602657e-03 5.38079487e-03 5.17384103e-03
      1.24172186e-02 9.51986760e-03 6.20860932e-03 4.75993380e-03
      4.96688765e-03 9.93377529e-03 9.31291375e-03 6.00165548e-03
      7.03642378e-03 1.32450331e-02 7.86423869e-03 7.94702023e-02
      5.79470210e-03 9.10595991e-03 4.75993380e-03 6.00165548e-03
      4.96688765e-03 4.75993380e-03 1.61423832e-02 6.41556270e-03
      6.82947040e-03 1.11754965e-02 3.93211935e-03 1.30380793e-02
      8.48509930e-03 4.96688765e-03 3.72516550e-03 5.38079487e-03
      3.31125828e-03 4.75993380e-03 1.03476821e-02 4.96688765e-03
      1.26241725e-02 1.17963580e-02 1.01407282e-02 4.96688765e-03
      1.09685427e-02 9.10595991e-03 4.55297995e-03 1.22102648e-02
      8.89900699e-03 9.31291375e-03 4.96688765e-03 7.65728485e-03
      1.38658937e-02 1.01407282e-02 8.48509930e-03 2.44205296e-02
      5.38079487e-03 8.27814545e-03 5.38079487e-03 9.72682144e-03
      7.45033100e-03 9.51986760e-03 4.34602657e-03 1.01407282e-02
      1.32450331e-02 9.31291375e-03 6.20860932e-03 8.48509930e-03
      7.03642378e-03 6.00165548e-03 5.17384103e-03 7.24337762e-03</_>
    <_>
      2.29885057e-03 7.66283507e-03 5.36398450e-03 3.60153243e-02
      1.53256708e-03 9.19540226e-03 9.19540226e-03 1.22605367e-02
      3.06513417e-03 7.66283507e-03 7.66283541e-04 6.13026833e-03
      3.83141753e-03 2.37547886e-02 1.07279690e-02 4.90421467e-02
      7.66283507e-03 1.68582369e-02 1.30268196e-02 8.42911843e-03
      1.22605367e-02 5.36398450e-03 5.36398450e-03 1.53256701e-02
      7.66283507e-03 1.37931034e-02 1.60919540e-02 6.13026833e-03
      9.96168610e-03 2.29885057e-03 6.89655170e-03 1.37931034e-02
      6.89655170e-03 6.89655170e-03 5.36398450e-03 9.96168610e-03
      3.83141753e-03 1.14942528e-02 3.83141753e-03 6.13026833e-03
      1.68582369e-02 9.96168610e-03 3.83141753e-03 7.66283507e-03
      6.89655170e-03 9.19540226e-03 3.83141753e-03 2.98850574e-02
      7.66283507e-03 6.13026833e-03 1.07279690e-02 9.19540226e-03
      1.53256701e-02 6.13026833e-03 1.91570874e-02 9.96168610e-03
      7.66283541e-04 6.89655170e-03 5.36398450e-03 1.45593872e-02
      6.89655170e-03 6.13026833e-03 4.59770113e-03 2.45210733e-02
      1.07279690e-02 6.13026833e-03 1.07279690e-02 5.59386984e-02
      1.22605367e-02 1.60919540e-02 1.14942528e-02 1.45593872e-02
      9.19540226e-03 4.59770113e-03 1.45593872e-02 1.45593872e-02
      1.30268196e-02 1.53256708e-03 4.59770113e-03 7.66283507e-03
      9.19540226e-03 5.36398450e-03 6.13026833e-03 7.66283507e-03
      6.13026833e-03 8.42911843e-03 3.06513417e-03 7.66283507e-03
      6.13026833e-03 7.66283541e-04 7.66283507e-03 4.59770113e-03
      1.07279690e-02 1.14942528e-02 3.06513417e-03 1.53256701e-02
      4.59770113e-03 1.68582369e-02 7.66283507e-03 3.83141753e-03</_>
    <_>
      2.61473767e-02 4.75406833e-03 8.04534648e-03 2.92558055e-02
      3.47412680e-03 5.66831231e-03 8.77674203e-03 7.13110249e-03
      1.06052291e-02 1.35308104e-02 4.93691722e-03 9.14243888e-03
      1.66392401e-02 1.53592983e-02 6.03401009e-03 4.55293469e-02
      3.10842926e-03 2.88901087e-02 6.76540518e-03 9.69098601e-03
      1.38965072e-02 7.67964916e-03 6.03401009e-03 1.46279028e-02
      1.31651126e-02 7.31395138e-03 7.13110249e-03 6.58255629e-03
      1.77363325e-02 8.41104425e-03 6.94825361e-03 9.69098601e-03
      1.37136588e-02 6.58255629e-03 5.30261453e-03 9.50813666e-03
      1.27994148e-02 7.49680027e-03 6.03401009e-03 7.31395138e-03
      1.02395322e-02 7.13110249e-03 8.95959046e-03 5.66831231e-03
      7.13110249e-03 1.77363325e-02 4.02267324e-03 4.04095799e-02
      6.94825361e-03 8.04534648e-03 5.48546342e-03 7.13110249e-03
      8.04534648e-03 8.22819490e-03 1.17023224e-02 8.41104425e-03
      8.95959046e-03 1.37136588e-02 7.31395138e-03 1.64563898e-02
      5.66831231e-03 6.58255629e-03 4.38837102e-03 4.38837102e-03
      8.22819490e-03 3.83982458e-03 6.21685851e-03 3.10842926e-03
      1.99305173e-02 1.18851708e-02 9.69098601e-03 8.95959046e-03
      1.06052291e-02 1.02395322e-02 5.48546342e-03 1.42622050e-02
      7.13110249e-03 8.22819490e-03 4.93691722e-03 3.83982458e-03
      9.32528824e-03 1.24337170e-02 1.13366246e-02 1.93819720e-02
      9.14243888e-03 7.49680027e-03 4.75406833e-03 7.49680027e-03
      1.11537762e-02 9.50813666e-03 7.13110249e-03 6.76540518e-03
      9.50813666e-03 1.00566829e-02 7.49680027e-03 9.14243888e-03
      3.29127815e-03 1.29822632e-02 6.03401009e-03 4.75406833e-03</_>
    <_>
      6.63050031e-03 1.02471365e-02 8.43881816e-03 2.35081371e-02
      5.22403046e-03 6.02772739e-03 8.43881816e-03 7.23327324e-03
      1.44665465e-02 9.64436401e-03 5.02310647e-03 7.83604570e-03
      8.84066708e-03 2.00924259e-02 9.04159155e-03 2.23025922e-02
      7.03234877e-03 1.52702434e-02 4.42033354e-03 9.64436401e-03
      1.68776363e-02 1.20554548e-02 6.02772739e-03 5.42495493e-03
      1.14526823e-02 8.84066708e-03 1.14526823e-02 8.03697016e-03
      1.42656220e-02 8.23789462e-03 9.84528847e-03 1.68776363e-02
      5.22403046e-03 1.74804106e-02 7.23327324e-03 6.63050031e-03
      9.64436401e-03 7.43419724e-03 8.63974262e-03 8.23789462e-03
      8.63974262e-03 1.66767128e-02 9.64436401e-03 9.64436401e-03
      5.62587893e-03 1.24573037e-02 8.43881816e-03 1.18545312e-02
      6.83142478e-03 1.14526823e-02 7.63512170e-03 9.84528847e-03
      5.22403046e-03 5.62587893e-03 1.78822577e-02 9.24251601e-03
      8.63974262e-03 1.24573037e-02 7.43419724e-03 1.20554548e-02
      1.78822577e-02 6.42957585e-03 9.04159155e-03 5.02310647e-03
      6.42957585e-03 1.40646975e-02 1.06489854e-02 3.21478792e-03
      1.16536068e-02 1.34619251e-02 1.06489854e-02 8.03697016e-03
      8.63974262e-03 1.46674700e-02 1.18545312e-02 1.28591517e-02
      1.88868791e-02 1.48683945e-02 1.20554548e-02 1.18545312e-02
      1.72794852e-02 1.22563792e-02 4.82218200e-03 1.24573037e-02
      4.01848508e-03 8.43881816e-03 3.81756085e-03 1.04480609e-02
      6.42957585e-03 4.82218200e-03 6.02772739e-03 1.14526823e-02
      1.60739403e-02 1.30600762e-02 7.83604570e-03 5.22403046e-03
      4.62125801e-03 6.83142478e-03 6.83142478e-03 8.43881816e-03</_>
    <_>
      1.87771935e-02 7.78566534e-03 5.03778318e-03 3.38905416e-02
      4.35081311e-03 8.93061608e-03 6.18273392e-03 6.86970446e-03
      1.69452708e-02 1.46553703e-02 6.86970446e-03 8.01465567e-03
      1.32814292e-02 2.26700250e-02 4.35081311e-03 2.72498280e-02
      3.20586213e-03 1.92351732e-02 8.24364554e-03 1.12205176e-02
      1.48843601e-02 4.80879331e-03 1.16784982e-02 8.01465567e-03
      1.05335470e-02 1.19074881e-02 1.03045572e-02 8.70162621e-03
      2.38149762e-02 8.93061608e-03 7.78566534e-03 1.28234485e-02
      1.19074881e-02 9.84657649e-03 7.32768513e-03 8.24364554e-03
      1.30524384e-02 1.35104191e-02 4.80879331e-03 4.57980298e-03
      5.03778318e-03 5.49576385e-03 6.86970446e-03 4.35081311e-03
      9.38859675e-03 1.62583012e-02 9.38859675e-03 2.42729560e-02
      7.78566534e-03 6.18273392e-03 5.49576385e-03 6.64071459e-03
      6.18273392e-03 8.24364554e-03 1.21364780e-02 6.18273392e-03
      4.35081311e-03 1.48843601e-02 7.78566534e-03 1.32814292e-02
      7.32768513e-03 7.55667500e-03 5.49576385e-03 8.93061608e-03
      5.03778318e-03 5.26677351e-03 6.18273392e-03 6.86970446e-03
      1.96931530e-02 1.55713307e-02 1.12205176e-02 9.38859675e-03
      1.85482018e-02 1.32814292e-02 3.43485223e-03 1.69452708e-02
      5.95374405e-03 1.03045572e-02 5.26677351e-03 7.32768513e-03
      1.14495074e-02 1.39683997e-02 1.21364780e-02 2.22120453e-02
      4.80879331e-03 7.78566534e-03 4.12182277e-03 1.32814292e-02
      8.70162621e-03 5.72475372e-03 3.43485223e-03 1.09915277e-02
      1.37394089e-02 8.01465567e-03 6.64071459e-03 8.93061608e-03
      4.35081311e-03 3.66384257e-03 3.89283267e-03 7.09869480e-03</_>
    <_>
      1.33395381e-02 4.96354885e-03 5.11865970e-03 1.44253140e-02
      3.87777272e-03 4.80843801e-03 6.20443607e-03 1.17884288e-02
      8.37598927e-03 1.17884288e-02 5.73910354e-03 5.27377054e-03
      7.91065581e-03 1.52008682e-02 5.73910354e-03 7.66247883e-02
      6.04932522e-03 1.72173101e-02 6.97999075e-03 1.22537613e-02
      1.25639830e-02 5.89421438e-03 8.99643265e-03 1.31844273e-02
      8.99643265e-03 7.44532328e-03 1.31844273e-02 8.22087750e-03
      1.30293155e-02 7.29021244e-03 7.91065581e-03 1.28742047e-02
      1.47355357e-02 9.92709771e-03 2.79199635e-03 8.84132180e-03
      7.60043412e-03 7.60043412e-03 4.96354885e-03 6.97999075e-03
      1.05475411e-02 1.10128745e-02 6.82487991e-03 7.91065581e-03
      6.35954691e-03 1.16333179e-02 7.60043412e-03 8.01923349e-02
      7.13510159e-03 9.46176518e-03 4.96354885e-03 7.91065581e-03
      6.20443607e-03 7.44532328e-03 9.77198686e-03 7.29021244e-03
      5.73910354e-03 8.37598927e-03 4.49821632e-03 8.37598927e-03
      8.84132180e-03 7.91065581e-03 5.89421438e-03 7.13510159e-03
      1.00822086e-02 8.68621096e-03 1.16333179e-02 6.04932522e-03
      1.19435396e-02 9.77198686e-03 8.99643265e-03 7.44532328e-03
      8.06576665e-03 7.91065581e-03 5.73910354e-03 1.05475411e-02
      9.61687602e-03 6.97999075e-03 5.58399269e-03 1.05475411e-02
      1.22537613e-02 8.68621096e-03 8.22087750e-03 1.73724219e-02
      3.87777272e-03 5.11865970e-03 7.60043412e-03 1.00822086e-02
      1.10128745e-02 9.30665433e-03 6.04932522e-03 9.61687602e-03
      1.16333179e-02 1.05475411e-02 4.80843801e-03 9.46176518e-03
      4.03288333e-03 8.84132180e-03 5.58399269e-03 1.05475411e-02</_>
    <_>
      1.51133500e-02 6.04534009e-03 7.05289654e-03 3.42569277e-02
      3.02267005e-03 1.00755664e-02 2.51889159e-03 4.03022673e-03
      8.06045346e-03 8.06045346e-03 3.52644827e-03 8.06045346e-03
      1.05793448e-02 1.91435777e-02 1.15869017e-02 2.72040311e-02
      2.51889159e-03 1.30982371e-02 3.52644827e-03 1.05793448e-02
      1.25944586e-02 4.03022673e-03 6.04534009e-03 1.10831233e-02
      1.30982371e-02 9.06801037e-03 9.06801037e-03 1.51133500e-02
      8.56423192e-03 6.54911855e-03 1.05793448e-02 2.77078077e-02
      8.56423192e-03 1.15869017e-02 7.55667500e-03 1.05793448e-02
      8.56423192e-03 1.41057931e-02 6.54911855e-03 5.54156164e-03
      6.04534009e-03 1.10831233e-02 1.00755664e-02 5.54156164e-03
      4.03022673e-03 2.56926958e-02 4.53400519e-03 2.31738035e-02
      7.55667500e-03 1.81360207e-02 6.54911855e-03 6.54911855e-03
      5.03778318e-03 7.55667500e-03 2.01511327e-02 1.05793448e-02
      2.51889159e-03 1.15869017e-02 9.57178883e-03 7.55667500e-03
      9.57178883e-03 1.00755664e-02 6.04534009e-03 2.51889159e-03
      5.54156164e-03 7.55667500e-03 7.55667500e-03 4.03022673e-03
      1.15869017e-02 1.10831233e-02 7.55667500e-03 4.53400519e-03
      1.61209069e-02 5.54156164e-03 1.15869017e-02 1.36020156e-02
      1.96473543e-02 1.15869017e-02 7.05289654e-03 1.10831233e-02
      1.96473543e-02 1.25944586e-02 1.00755664e-02 1.66246854e-02
      5.54156164e-03 9.06801037e-03 6.04534009e-03 1.36020156e-02
      1.30982371e-02 4.53400519e-03 1.05793448e-02 1.05793448e-02
      1.36020156e-02 1.30982371e-02 4.03022673e-03 9.06801037e-03
      2.51889159e-03 6.04534009e-03 8.06045346e-03 9.57178883e-03</_>
    <_>
      1.31421741e-02 4.54002386e-03 3.82317812e-03 2.70011947e-02
      4.06212686e-03 1.05137397e-02 4.54002386e-03 8.36320221e-03
      7.88530428e-03 1.48148146e-02 5.73476683e-03 6.45161280e-03
      1.14695337e-02 1.69653520e-02 4.54002386e-03 7.86141008e-02
      3.10633215e-03 1.76821984e-02 4.77897236e-03 1.48148146e-02
      1.93548389e-02 3.82317812e-03 4.06212686e-03 1.55316610e-02
      9.31899622e-03 6.21266430e-03 1.07526882e-02 7.16845877e-03
      1.81600954e-02 7.88530428e-03 5.01792133e-03 1.14695337e-02
      1.48148146e-02 6.45161280e-03 3.34528065e-03 9.08004772e-03
      1.09916367e-02 6.45161280e-03 7.16845877e-03 3.58422939e-03
      6.21266430e-03 4.77897236e-03 6.92951027e-03 4.77897236e-03
      5.49581833e-03 1.24253286e-02 5.01792133e-03 7.83751458e-02
      8.84109922e-03 7.88530428e-03 4.54002386e-03 7.64635624e-03
      5.73476683e-03 7.40740728e-03 9.79689322e-03 4.77897236e-03
      3.10633215e-03 1.17084831e-02 8.60215072e-03 1.09916367e-02
      8.36320221e-03 5.73476683e-03 4.06212686e-03 3.34528065e-03
      3.34528065e-03 4.30107536e-03 8.84109922e-03 8.84109922e-03
      1.83990449e-02 1.36200720e-02 9.08004772e-03 4.54002386e-03
      1.29032256e-02 7.88530428e-03 8.12425371e-03 1.21863801e-02
      1.14695337e-02 8.60215072e-03 3.58422939e-03 6.45161280e-03
      1.19474316e-02 8.60215072e-03 1.12305852e-02 2.67622452e-02
      9.08004772e-03 7.64635624e-03 5.73476683e-03 1.12305852e-02
      8.12425371e-03 6.21266430e-03 5.49581833e-03 7.40740728e-03
      1.09916367e-02 7.16845877e-03 6.92951027e-03 1.02747912e-02
      6.92951027e-03 5.97371580e-03 3.34528065e-03 6.69056131e-03</_>
    <_>
      9.68309864e-03 3.52112669e-03 1.76056335e-03 1.40845068e-02
      9.68309864e-03 1.93661973e-02 1.05633801e-02 0. 6.16197195e-03
      1.67253520e-02 1.40845068e-02 2.11267602e-02 1.05633801e-02
      7.92253483e-03 1.23239439e-02 4.40140860e-03 7.04225339e-03
      7.04225339e-03 1.49647892e-02 1.49647892e-02 3.52112669e-03 0.
      1.40845068e-02 6.16197195e-03 8.80281720e-03 1.49647892e-02
      7.04225339e-03 0. 1.14436615e-02 2.20070425e-02 1.76056335e-03
      2.64084502e-03 7.04225339e-03 4.40140860e-03 5.28169004e-03
      1.67253520e-02 1.58450697e-02 1.40845068e-02 6.16197195e-03
      1.76056335e-03 2.64084502e-03 3.52112669e-03 2.55281683e-02
      3.52112669e-03 1.23239439e-02 1.93661973e-02 4.40140860e-03
      1.76056335e-03 7.92253483e-03 5.28169004e-03 3.60915475e-02
      1.14436615e-02 6.16197195e-03 1.32042253e-02 1.76056335e-03
      6.16197195e-03 1.23239439e-02 1.23239439e-02 9.68309864e-03
      8.80281674e-04 3.52112669e-03 8.80281720e-03 5.28169004e-03
      1.76056335e-03 3.52112669e-03 3.52112669e-03 3.52112669e-03
      1.23239439e-02 5.28169004e-03 1.05633801e-02 1.40845068e-02
      2.64084502e-03 8.80281720e-03 1.58450697e-02 8.80281674e-04
      1.76056344e-02 2.64084502e-03 6.16197195e-03 2.64084502e-03
      4.40140860e-03 8.80281674e-04 4.48943675e-02 2.20070425e-02
      5.28169004e-03 2.72887331e-02 1.40845068e-02 2.99295783e-02
      1.58450697e-02 1.93661973e-02 1.40845068e-02 3.52112669e-03
      1.23239439e-02 1.23239439e-02 4.40140860e-03 1.84859149e-02
      8.80281674e-04 8.80281720e-03 5.28169004e-03 6.16197195e-03
      3.43309864e-02</_>
    <_>
      1.38760405e-02 0. 3.70027754e-03 1.01757636e-02 1.01757636e-02
      1.85013879e-02 9.25069395e-03 9.25069384e-04 6.47548586e-03
      1.01757636e-02 3.33024971e-02 2.31267344e-02 1.66512486e-02
      3.70027754e-03 1.85013879e-02 4.62534698e-03 2.77520809e-03
      1.29509717e-02 1.38760405e-02 1.01757636e-02 2.77520809e-03
      1.85013877e-03 1.20259020e-02 2.77520809e-03 8.32562428e-03
      5.55041619e-03 4.62534698e-03 9.25069384e-04 1.29509717e-02
      1.38760405e-02 9.25069384e-04 3.70027754e-03 1.38760405e-02
      2.77520809e-03 4.62534698e-03 1.38760405e-02 1.85013879e-02
      1.48011101e-02 1.01757636e-02 0. 6.47548586e-03 1.85013877e-03
      2.59019434e-02 2.77520809e-03 1.29509717e-02 1.38760405e-02
      5.55041619e-03 1.85013877e-03 6.47548586e-03 2.77520809e-03
      3.70027758e-02 1.85013877e-03 6.47548586e-03 1.94264576e-02
      1.85013877e-03 4.62534698e-03 8.32562428e-03 1.38760405e-02
      1.01757636e-02 1.85013877e-03 3.70027754e-03 8.32562428e-03
      1.85013877e-03 9.25069384e-04 2.77520809e-03 4.62534698e-03
      1.85013877e-03 1.38760405e-02 1.01757636e-02 3.70027754e-03
      1.94264576e-02 4.62534698e-03 1.38760405e-02 1.48011101e-02
      2.77520809e-03 1.75763182e-02 4.62534698e-03 1.85013877e-03
      3.70027754e-03 3.70027754e-03 2.77520809e-03 3.33024971e-02
