<?xml version="1.0"?>
<opencv_storage>
<my_svm type_id="opencv-ml-svm">
  <svm_type>C_SVC</svm_type>
  <kernel><type>RBF</type>
    <gamma>5.0625000000000009e-01</gamma></kernel>
  <C>3.1250000000000000e+02</C>
  <term_criteria><epsilon>2.2204460492503131e-16</epsilon>
    <iterations>100000</iterations></term_criteria>
  <var_all>100</var_all>
  <var_count>100</var_count>
  <class_count>8</class_count>
  <class_labels type_id="opencv-matrix">
    <rows>1</rows>
    <cols>8</cols>
    <dt>i</dt>
    <data>
      1 2 3 4 5 6 7 8</data></class_labels>
  <sv_total>151</sv_total>
  <support_vectors>
    <_>
      1.14068445e-02 7.60456268e-03 7.60456268e-03 1.52091254e-02
      3.80228134e-03 7.60456268e-03 3.80228134e-03 3.42205316e-02
      3.80228134e-03 1.14068445e-02 3.80228134e-03 3.04182507e-02
      7.60456268e-03 1.14068445e-02 0. 1.14068445e-02 3.80228134e-03
      1.52091254e-02 3.80228134e-03 2.28136890e-02 3.80228134e-03 0.
      7.60456268e-03 1.90114062e-02 3.80228134e-03 2.28136890e-02
      1.14068445e-02 0. 3.80228134e-03 7.60456268e-03 7.60456268e-03
      3.80228134e-03 0. 0. 1.52091254e-02 1.52091254e-02 7.60456268e-03
      3.80228134e-03 4.56273779e-02 0. 1.90114062e-02 3.80228134e-03
      3.80228134e-03 0. 0. 1.52091254e-02 0. 1.52091254e-02
      1.90114062e-02 1.52091254e-02 2.28136890e-02 7.60456268e-03
      2.28136890e-02 3.80228134e-03 1.14068445e-02 7.60456268e-03
      3.80228134e-03 1.14068445e-02 3.80228134e-03 3.80228134e-03
      1.52091254e-02 0. 3.80228134e-03 3.42205316e-02 7.60456268e-03
      1.90114062e-02 7.60456268e-03 1.52091254e-02 7.60456268e-03
      3.80228134e-03 1.52091254e-02 2.66159698e-02 0. 2.28136890e-02
      7.60456268e-03 3.80228134e-03 0. 0. 3.80228134e-03 1.14068445e-02
      1.14068445e-02 3.80228134e-03 1.52091254e-02 1.52091254e-02
      1.90114062e-02 7.60456268e-03 0. 0. 1.90114062e-02 3.80228134e-03
      7.60456268e-03 1.52091254e-02 0. 2.28136890e-02 1.90114062e-02
      1.14068445e-02 1.14068445e-02 2.28136890e-02 0. 3.80228134e-03</_>
    <_>
      4.22832975e-03 1.90274846e-02 1.47991544e-02 1.05708241e-02
      2.53699794e-02 2.11416488e-03 4.22832975e-03 2.74841432e-02
      8.45665950e-03 1.47991544e-02 2.11416488e-03 1.05708241e-02
      6.34249486e-03 4.22832975e-03 6.34249486e-03 1.47991544e-02
      1.69133190e-02 2.95983087e-02 1.26849897e-02 1.05708241e-02
      1.05708241e-02 1.05708241e-02 2.11416488e-03 2.95983087e-02
      2.11416488e-03 2.11416488e-03 1.05708241e-02 2.11416488e-03
      8.45665950e-03 1.47991544e-02 1.05708241e-02 1.26849897e-02
      8.45665950e-03 2.11416488e-03 2.74841432e-02 0. 8.45665950e-03
      4.22832975e-03 6.34249486e-03 0. 3.17124724e-02 2.11416488e-03
      1.26849897e-02 1.47991544e-02 4.22832975e-03 1.05708241e-02
      1.05708241e-02 1.05708241e-02 6.34249486e-03 2.53699794e-02
      1.47991544e-02 4.22832975e-03 1.26849897e-02 2.11416488e-03 0.
      1.47991544e-02 2.11416488e-03 2.95983087e-02 2.11416488e-03
      2.11416488e-03 1.47991544e-02 6.34249486e-03 4.22832975e-03
      1.90274846e-02 8.45665950e-03 8.45665950e-03 4.22832975e-03
      2.53699794e-02 2.11416488e-03 0. 1.69133190e-02 1.90274846e-02
      1.05708241e-02 2.95983087e-02 2.11416483e-02 2.11416488e-03
      1.05708241e-02 6.34249486e-03 2.11416488e-03 2.11416488e-03
      6.34249486e-03 8.45665950e-03 1.69133190e-02 4.22832975e-03
      6.34249486e-03 2.11416488e-03 8.45665950e-03 4.22832975e-03
      2.11416488e-03 0. 2.11416488e-03 1.26849897e-02 0. 1.47991544e-02
      1.05708241e-02 1.69133190e-02 1.05708241e-02 1.90274846e-02
      6.34249486e-03 2.11416488e-03</_>
    <_>
      1.17370896e-02 1.40845068e-02 1.64319240e-02 2.34741792e-02
      8.21596198e-03 4.69483575e-03 2.34741787e-03 3.16901393e-02
      1.64319240e-02 7.04225339e-03 5.86854480e-03 2.58215964e-02
      3.52112669e-03 4.69483575e-03 1.17370896e-02 4.69483575e-03
      4.69483575e-03 5.86854480e-03 2.34741787e-03 1.76056344e-02
      3.52112669e-03 3.52112669e-03 8.21596198e-03 4.69483575e-03
      3.52112669e-03 4.69483575e-03 1.52582163e-02 4.69483575e-03
      7.04225339e-03 7.04225339e-03 1.29107982e-02 8.21596198e-03
      5.86854480e-03 9.38967150e-03 1.40845068e-02 3.52112669e-03
      9.38967150e-03 7.04225339e-03 1.76056344e-02 8.21596198e-03
      1.52582163e-02 2.34741787e-03 3.52112669e-03 1.87793430e-02
      9.38967150e-03 1.99530516e-02 3.52112669e-03 7.04225339e-03
      1.64319240e-02 3.28638479e-02 9.38967150e-03 5.86854480e-03
      5.86854480e-03 2.34741787e-03 5.86854480e-03 9.38967150e-03
      5.86854480e-03 8.21596198e-03 9.38967150e-03 4.69483575e-03
      1.64319240e-02 8.21596198e-03 8.21596198e-03 3.52112688e-02
      9.38967150e-03 1.17370896e-02 5.86854480e-03 8.21596198e-03
      5.86854480e-03 3.52112669e-03 3.52112669e-03 1.40845068e-02
      1.17370896e-02 1.99530516e-02 1.87793430e-02 5.86854480e-03
      5.86854480e-03 2.34741787e-03 7.04225339e-03 7.04225339e-03
      5.86854480e-03 1.40845068e-02 1.87793430e-02 4.69483575e-03
      1.76056344e-02 8.21596198e-03 2.23004688e-02 4.69483575e-03
      5.86854480e-03 3.52112669e-03 1.05633801e-02 8.21596198e-03
      1.40845068e-02 2.11267602e-02 1.52582163e-02 1.05633801e-02
      3.52112669e-03 1.17370896e-02 5.86854480e-03 7.04225339e-03</_>
    <_>
      4.96688765e-03 8.27814545e-03 4.96688765e-03 2.15231795e-02
      3.31125828e-03 1.65562914e-03 6.62251655e-03 2.15231795e-02
      2.15231795e-02 2.98013240e-02 3.31125828e-03 1.65562909e-02
      4.96688765e-03 4.96688765e-03 1.65562909e-02 4.96688765e-03
      3.31125828e-03 8.27814545e-03 8.27814545e-03 1.15894042e-02
      4.96688765e-03 0. 6.62251655e-03 9.93377529e-03 3.31125828e-03
      4.96688765e-03 2.31788084e-02 4.96688765e-03 4.96688765e-03
      1.15894042e-02 1.15894042e-02 1.98675506e-02 2.48344373e-02
      6.62251655e-03 2.15231795e-02 4.96688765e-03 4.96688765e-03
      1.49006620e-02 6.62251655e-03 0. 1.49006620e-02 3.31125828e-03
      1.65562914e-03 1.98675506e-02 9.93377529e-03 4.96688765e-03
      1.15894042e-02 1.15894042e-02 6.62251655e-03 2.15231795e-02
      3.31125818e-02 1.65562914e-03 8.27814545e-03 0. 3.31125828e-03
      1.15894042e-02 1.32450331e-02 6.62251655e-03 9.93377529e-03
      3.31125828e-03 6.62251655e-03 3.31125828e-03 4.96688765e-03
      1.82119198e-02 1.32450331e-02 1.15894042e-02 1.49006620e-02
      6.62251655e-03 4.96688765e-03 1.15894042e-02 1.32450331e-02
      1.82119198e-02 6.62251655e-03 1.65562909e-02 6.62251655e-03
      1.32450331e-02 4.96688765e-03 8.27814545e-03 1.65562914e-03
      8.27814545e-03 1.15894042e-02 8.27814545e-03 9.93377529e-03
      4.96688765e-03 3.31125828e-03 4.96688765e-03 1.49006620e-02
      6.62251655e-03 1.82119198e-02 1.98675506e-02 8.27814545e-03
      6.62251655e-03 9.93377529e-03 1.49006620e-02 1.15894042e-02
      2.48344373e-02 6.62251655e-03 1.32450331e-02 1.65562914e-03
      1.15894042e-02</_>
    <_>
      4.81540943e-03 6.42054575e-03 1.12359552e-02 2.40770467e-02
      1.44462278e-02 1.60513644e-03 3.21027287e-03 2.72873193e-02
      2.24719103e-02 2.24719103e-02 3.21027287e-03 1.12359552e-02
      9.63081885e-03 1.60513644e-03 1.60513651e-02 1.44462278e-02
      1.28410915e-02 6.42054575e-03 9.63081885e-03 1.12359552e-02
      1.44462278e-02 4.81540943e-03 3.21027287e-03 9.63081885e-03
      4.81540943e-03 8.02568253e-03 4.81540943e-03 4.81540943e-03
      1.60513644e-03 1.28410915e-02 1.12359552e-02 1.12359552e-02
      3.21027287e-03 3.21027287e-03 2.56821830e-02 1.44462278e-02
      1.12359552e-02 1.44462278e-02 6.42054575e-03 4.81540943e-03
      3.85232754e-02 4.81540943e-03 1.60513644e-03 1.28410915e-02
      8.02568253e-03 9.63081885e-03 0. 1.12359552e-02 1.60513651e-02
      1.92616377e-02 1.60513651e-02 9.63081885e-03 1.92616377e-02
      1.60513644e-03 1.60513644e-03 1.12359552e-02 4.81540943e-03
      8.02568253e-03 4.81540943e-03 4.81540943e-03 1.92616377e-02
      6.42054575e-03 3.21027287e-03 2.08667740e-02 3.21027287e-03
      4.81540943e-03 1.76565014e-02 1.76565014e-02 4.81540943e-03
      3.21027287e-03 1.44462278e-02 2.40770467e-02 9.63081885e-03
      1.28410915e-02 1.60513651e-02 3.21027287e-03 1.28410915e-02
      3.21027287e-03 1.60513644e-03 3.21027287e-03 1.28410915e-02
      2.72873193e-02 1.28410915e-02 3.21027287e-03 1.12359552e-02
      1.60513644e-03 1.28410915e-02 1.12359552e-02 0. 1.60513644e-03
      4.81540943e-03 1.44462278e-02 8.02568253e-03 1.28410915e-02
      3.21027287e-03 1.92616377e-02 4.81540943e-03 9.63081885e-03
      3.21027287e-03 9.63081885e-03</_>
    <_>
      5.15463902e-03 2.06185561e-02 5.15463902e-03 5.67010306e-02
      2.57731955e-02 5.15463902e-03 0. 1.03092780e-02 5.15463902e-03
      1.54639175e-02 0. 4.12371121e-02 1.03092780e-02 0. 5.15463902e-03
      0. 2.57731955e-02 0. 0. 2.57731955e-02 5.15463902e-03 0. 0.
      1.03092780e-02 2.06185561e-02 1.03092780e-02 5.15463902e-03 0. 0.
      1.03092780e-02 0. 0. 1.03092780e-02 0. 4.63917516e-02 0. 0.
      1.03092780e-02 3.60824727e-02 5.15463902e-03 5.67010306e-02
      1.03092780e-02 0. 0. 0. 2.06185561e-02 5.15463902e-03 0.
      5.15463902e-03 5.15463902e-03 2.57731955e-02 5.15463902e-03
      5.15463902e-03 1.03092780e-02 0. 1.54639175e-02 0. 0. 0. 0. 0.
      5.15463902e-03 5.15463902e-03 4.63917516e-02 0. 0. 5.15463902e-03
      5.15463902e-03 5.15463902e-03 1.03092780e-02 0. 1.54639175e-02
      5.15463902e-03 1.54639175e-02 1.03092780e-02 1.03092780e-02
      1.03092780e-02 5.15463902e-03 0. 1.03092780e-02 2.06185561e-02 0.
      0. 2.06185561e-02 5.15463902e-03 5.15463902e-03 5.15463911e-02
      5.15463902e-03 5.15463902e-03 0. 1.03092780e-02 1.54639175e-02
      1.03092780e-02 0. 5.15463902e-03 5.15463911e-02 1.03092780e-02
      5.15463902e-03 1.54639175e-02 5.15463902e-03</_>
    <_>
      7.77202053e-03 1.29533680e-02 5.18134702e-03 2.50431783e-02
      1.64075997e-02 7.77202053e-03 1.03626940e-02 2.50431783e-02
      9.49913636e-03 1.03626940e-02 5.18134702e-03 1.12262517e-02
      1.72711574e-02 5.18134702e-03 6.04490517e-03 9.49913636e-03
      6.04490517e-03 6.90846285e-03 1.03626940e-02 2.24525034e-02
      8.63557868e-03 4.31778934e-03 5.18134702e-03 9.49913636e-03
      6.90846285e-03 3.45423142e-03 1.89982727e-02 3.45423142e-03
      1.72711571e-03 1.20898103e-02 6.04490517e-03 9.49913636e-03
      1.12262517e-02 6.04490517e-03 1.81347150e-02 1.12262517e-02
      1.12262517e-02 6.04490517e-03 4.31778934e-03 1.81347150e-02
      2.33160630e-02 8.63557868e-03 6.90846285e-03 6.90846285e-03
      5.18134702e-03 1.03626940e-02 5.18134702e-03 7.77202053e-03
      5.18134702e-03 1.72711574e-02 2.41796207e-02 9.49913636e-03
      6.04490517e-03 3.45423142e-03 9.49913636e-03 7.77202053e-03
      1.38169257e-02 1.12262517e-02 6.90846285e-03 8.63557868e-03
      6.04490517e-03 1.29533680e-02 4.31778934e-03 2.24525034e-02
      8.63557868e-03 8.63557868e-03 1.03626940e-02 1.89982727e-02
      5.18134702e-03 5.18134702e-03 1.81347150e-02 7.77202053e-03
      4.31778934e-03 1.46804834e-02 7.77202053e-03 5.18134702e-03
      1.81347150e-02 3.45423142e-03 2.59067351e-03 8.63557868e-03
      1.46804834e-02 1.38169257e-02 1.55440411e-02 6.04490517e-03
      1.29533680e-02 3.45423142e-03 1.46804834e-02 6.90846285e-03
      4.31778934e-03 6.90846285e-03 6.90846285e-03 6.90846285e-03
      6.04490517e-03 1.03626940e-02 1.03626940e-02 2.84974091e-02
      1.03626940e-02 6.90846285e-03 6.04490517e-03 1.03626940e-02</_>
    <_>
      8.75656772e-03 7.00525381e-03 5.25394036e-03 1.75131354e-02
      8.75656772e-03 1.22591946e-02 1.05078807e-02 2.62697022e-02
      1.40105076e-02 1.22591946e-02 3.50262690e-03 1.22591946e-02
      2.62697022e-02 0. 1.05078807e-02 1.92644484e-02 1.75131345e-03
      5.25394036e-03 1.05078807e-02 1.75131354e-02 5.25394036e-03
      7.00525381e-03 5.25394036e-03 7.00525381e-03 8.75656772e-03
      1.05078807e-02 5.25394036e-03 3.50262690e-03 1.75131345e-03
      7.00525381e-03 1.05078807e-02 0. 1.22591946e-02 0. 1.22591946e-02
      7.00525381e-03 3.50262690e-03 1.57618206e-02 8.75656772e-03
      5.25394036e-03 2.62697022e-02 5.25394036e-03 8.75656772e-03
      1.40105076e-02 8.75656772e-03 8.75656772e-03 1.05078807e-02
      1.57618206e-02 1.22591946e-02 1.57618206e-02 2.27670744e-02
      3.50262690e-03 1.40105076e-02 8.75656772e-03 1.75131354e-02
      3.50262690e-03 1.40105076e-02 5.25394036e-03 1.22591946e-02
      3.50262690e-03 5.25394036e-03 7.00525381e-03 3.50262690e-03
      2.27670744e-02 3.50262690e-03 1.75131354e-02 1.05078807e-02
      2.10157614e-02 3.50262690e-03 7.00525381e-03 7.00525381e-03
      1.22591946e-02 1.75131345e-03 3.50262690e-03 1.57618206e-02
      1.57618206e-02 2.45183893e-02 8.75656772e-03 0. 1.05078807e-02
      2.10157614e-02 1.75131354e-02 8.75656772e-03 1.57618206e-02
      1.40105076e-02 1.75131345e-03 2.45183893e-02 0. 5.25394036e-03
      7.00525381e-03 3.50262690e-03 1.05078807e-02 1.57618206e-02
      5.25394036e-03 8.75656772e-03 1.75131354e-02 0. 1.05078807e-02
      8.75656772e-03 5.25394036e-03</_>
    <_>
      5.07292338e-03 1.07799619e-02 1.07799619e-02 1.33164236e-02
      1.20481923e-02 3.80469253e-03 5.07292338e-03 1.26823084e-02
      1.01458468e-02 1.71211157e-02 6.34115422e-03 1.20481923e-02
      1.33164236e-02 6.97526941e-03 1.07799619e-02 7.60938507e-03
      8.24350026e-03 1.07799619e-02 9.51173156e-03 1.58528853e-02
      8.24350026e-03 5.70703857e-03 6.97526941e-03 7.60938507e-03
      8.87761544e-03 5.70703857e-03 1.71211157e-02 3.17057711e-03
      2.53646169e-03 6.97526941e-03 1.20481923e-02 6.34115422e-03
      1.52187701e-02 3.17057711e-03 1.71211157e-02 1.58528853e-02
      1.52187701e-02 1.33164236e-02 8.24350026e-03 1.26823084e-02
      3.23398858e-02 8.24350026e-03 3.17057711e-03 5.70703857e-03
      9.51173156e-03 1.01458468e-02 1.14140771e-02 5.07292338e-03
      1.01458468e-02 2.59987321e-02 1.71211157e-02 1.20481923e-02
      8.87761544e-03 3.17057711e-03 8.87761544e-03 1.39505388e-02
      6.34115422e-03 1.14140771e-02 6.97526941e-03 8.87761544e-03
      1.39505388e-02 5.70703857e-03 3.80469253e-03 1.71211157e-02
      4.43880772e-03 6.34115422e-03 7.60938507e-03 1.52187701e-02
      3.80469253e-03 4.43880772e-03 1.58528853e-02 1.14140771e-02
      4.43880772e-03 1.64870005e-02 1.07799619e-02 5.07292338e-03
      1.45846540e-02 1.20481923e-02 8.87761544e-03 8.24350026e-03
      1.58528853e-02 1.20481923e-02 1.01458468e-02 4.43880772e-03
      8.24350026e-03 8.24350026e-03 1.07799619e-02 7.60938507e-03
      5.07292338e-03 5.07292338e-03 4.43880772e-03 1.07799619e-02
      9.51173156e-03 1.33164236e-02 1.33164236e-02 2.28281543e-02
      8.87761544e-03 5.70703857e-03 8.87761544e-03 1.07799619e-02</_>
    <_>
      7.68049154e-03 1.07526882e-02 1.53609831e-02 2.15053763e-02
      9.21658985e-03 4.60829493e-03 9.21658985e-03 9.21658985e-03
      9.21658985e-03 1.07526882e-02 6.14439324e-03 1.22887865e-02
      1.68970823e-02 3.07219662e-03 1.07526882e-02 1.22887865e-02
      1.53609831e-03 7.68049154e-03 1.07526882e-02 1.84331797e-02
      1.53609831e-02 3.07219662e-03 7.68049154e-03 9.21658985e-03
      1.22887865e-02 6.14439324e-03 7.68049154e-03 1.38248848e-02
      1.53609831e-03 1.07526882e-02 1.38248848e-02 2.30414756e-02
      9.21658985e-03 1.53609831e-03 1.68970823e-02 1.53609831e-03
      1.53609831e-02 1.07526882e-02 1.07526882e-02 1.07526882e-02
      2.61136722e-02 3.07219662e-03 4.60829493e-03 1.22887865e-02
      3.07219662e-03 1.68970823e-02 1.07526882e-02 1.07526882e-02
      1.38248848e-02 2.30414756e-02 6.14439324e-03 1.22887865e-02
      9.21658985e-03 3.07219662e-03 0. 1.38248848e-02 4.60829493e-03
      7.68049154e-03 9.21658985e-03 4.60829493e-03 7.68049154e-03
      6.14439324e-03 6.14439324e-03 1.38248848e-02 7.68049154e-03
      1.07526882e-02 1.07526882e-02 1.84331797e-02 1.22887865e-02
      9.21658985e-03 4.60829493e-03 1.68970823e-02 1.84331797e-02
      6.14439324e-03 1.07526882e-02 9.21658985e-03 1.07526882e-02
      1.53609831e-03 6.14439324e-03 1.07526882e-02 1.22887865e-02
      6.14439324e-03 7.68049154e-03 1.22887865e-02 1.07526882e-02
      3.07219662e-03 1.07526882e-02 1.07526882e-02 1.53609831e-02
      1.07526882e-02 7.68049154e-03 4.60829493e-03 1.22887865e-02
      4.60829493e-03 1.07526882e-02 1.84331797e-02 9.21658985e-03
      1.38248848e-02 7.68049154e-03 9.21658985e-03</_>
    <_>
      4.02414473e-03 1.81086510e-02 1.40845068e-02 3.82293761e-02
      2.01207250e-02 4.02414473e-03 1.00603625e-02 2.21327972e-02
      8.04828946e-03 8.04828946e-03 0. 2.81690136e-02 2.21327972e-02
      2.01207236e-03 1.00603625e-02 4.02414473e-03 2.01207236e-03
      1.20724346e-02 1.40845068e-02 8.04828946e-03 6.03621732e-03 0.
      8.04828946e-03 1.20724346e-02 0. 2.01207236e-03 1.00603625e-02
      8.04828946e-03 4.02414473e-03 1.00603625e-02 6.03621732e-03
      1.20724346e-02 1.40845068e-02 8.04828946e-03 1.20724346e-02
      4.02414473e-03 1.20724346e-02 1.60965789e-02 1.20724346e-02
      4.02414473e-03 6.84104636e-02 0. 2.01207236e-03 6.03621732e-03
      1.00603625e-02 2.81690136e-02 4.02414473e-03 8.04828946e-03
      6.03621732e-03 2.41448693e-02 2.01207236e-03 8.04828946e-03
      4.02414473e-03 8.04828946e-03 1.00603625e-02 1.40845068e-02
      2.01207236e-03 2.01207236e-03 1.00603625e-02 2.01207236e-03
      4.02414473e-03 1.20724346e-02 2.01207236e-03 2.01207250e-02
      4.02414473e-03 1.40845068e-02 1.00603625e-02 1.40845068e-02 0.
      8.04828946e-03 6.03621732e-03 2.41448693e-02 8.04828946e-03
      8.04828946e-03 8.04828946e-03 6.03621732e-03 1.20724346e-02 0.
      2.01207236e-03 6.03621732e-03 1.40845068e-02 6.03621732e-03
      8.04828946e-03 1.20724346e-02 1.81086510e-02 8.04828946e-03
      2.01207236e-03 4.02414473e-03 2.01207250e-02 1.20724346e-02
      4.02414473e-03 1.20724346e-02 2.01207236e-03 1.20724346e-02
      2.01207236e-03 2.81690136e-02 4.02414473e-03 2.21327972e-02
      1.00603625e-02 0.</_>
    <_>
      3.57781746e-03 1.43112699e-02 7.15563493e-03 1.78890880e-02
      3.57781746e-03 5.36672631e-03 1.78890873e-03 1.25223612e-02
      2.32558139e-02 5.36672631e-03 5.36672631e-03 1.43112699e-02
      1.25223612e-02 1.07334526e-02 5.36672631e-03 8.94454401e-03
      8.94454401e-03 1.07334526e-02 8.94454401e-03 1.43112699e-02
      1.07334526e-02 3.57781746e-03 1.07334526e-02 7.15563493e-03
      3.57781746e-03 8.94454401e-03 1.25223612e-02 1.07334526e-02
      1.78890873e-03 7.15563493e-03 7.15563493e-03 3.22003588e-02
      1.78890873e-03 3.57781746e-03 2.32558139e-02 1.07334526e-02
      1.25223612e-02 1.07334526e-02 1.61001794e-02 3.57781746e-03
      3.22003588e-02 5.36672631e-03 3.57781746e-03 1.78890873e-03
      7.15563493e-03 8.94454401e-03 1.78890873e-03 1.78890873e-03
      1.43112699e-02 2.50447225e-02 1.25223612e-02 7.15563493e-03
      1.07334526e-02 1.78890873e-03 5.36672631e-03 1.07334526e-02
      7.15563493e-03 0. 3.57781746e-03 1.07334526e-02 1.78890880e-02
      1.61001794e-02 7.15563493e-03 1.96779966e-02 3.57781746e-03
      1.43112699e-02 1.78890873e-03 1.61001794e-02 3.57781746e-03
      1.61001794e-02 1.25223612e-02 1.07334526e-02 8.94454401e-03
      3.22003588e-02 8.94454401e-03 1.43112699e-02 8.94454401e-03
      7.15563493e-03 8.94454401e-03 7.15563493e-03 1.25223612e-02
      5.36672631e-03 1.07334526e-02 0. 1.43112699e-02 1.43112699e-02
      1.61001794e-02 3.57781746e-03 1.25223612e-02 5.36672631e-03
      7.15563493e-03 8.94454401e-03 1.78890873e-03 7.15563493e-03
      1.07334526e-02 3.57781760e-02 7.15563493e-03 1.78890880e-02
      1.78890873e-03 5.36672631e-03</_>
    <_>
      1.78571437e-02 1.98412705e-02 3.96825420e-03 1.58730168e-02
      5.95238106e-03 3.96825420e-03 7.93650839e-03 3.37301604e-02
      1.98412705e-02 0. 9.92063526e-03 3.57142873e-02 5.95238106e-03
      3.96825420e-03 1.98412710e-03 3.96825420e-03 3.96825420e-03
      3.96825420e-03 1.58730168e-02 1.38888890e-02 1.38888890e-02
      1.98412710e-03 2.38095243e-02 1.19047621e-02 5.95238106e-03
      1.98412710e-03 2.38095243e-02 1.98412710e-03 3.96825420e-03
      1.19047621e-02 3.96825420e-03 1.98412710e-03 5.95238106e-03
      3.96825420e-03 1.98412705e-02 0. 3.96825420e-03 1.78571437e-02
      2.38095243e-02 9.92063526e-03 3.57142873e-02 0. 1.98412710e-03
      1.19047621e-02 5.95238106e-03 1.78571437e-02 7.93650839e-03
      7.93650839e-03 5.95238106e-03 1.38888890e-02 1.19047621e-02
      5.95238106e-03 9.92063526e-03 3.96825420e-03 1.98412710e-03
      1.19047621e-02 9.92063526e-03 3.96825420e-03 9.92063526e-03
      3.96825420e-03 1.19047621e-02 3.96825420e-03 0. 2.18253974e-02
      5.95238106e-03 1.58730168e-02 7.93650839e-03 1.78571437e-02
      7.93650839e-03 3.96825420e-03 1.98412705e-02 1.78571437e-02
      9.92063526e-03 1.58730168e-02 9.92063526e-03 3.96825420e-03
      3.96825420e-03 9.92063526e-03 0. 1.98412710e-03 1.19047621e-02
      3.96825420e-03 1.58730168e-02 1.98412710e-03 5.95238106e-03
      1.98412710e-03 2.57936511e-02 1.98412710e-03 7.93650839e-03
      1.58730168e-02 1.98412710e-03 3.96825420e-03 7.93650839e-03
      1.38888890e-02 1.38888890e-02 3.17460336e-02 3.96825420e-03
      1.78571437e-02 1.38888890e-02 3.96825420e-03</_>
    <_>
      8.54700897e-03 5.34188049e-03 1.28205130e-02 1.60256419e-02
      1.70940179e-02 3.20512825e-03 8.54700897e-03 1.38888890e-02
      8.54700897e-03 3.20512825e-03 5.34188049e-03 1.28205130e-02
      1.49572650e-02 5.34188049e-03 7.47863250e-03 5.34188049e-03
      7.47863250e-03 3.20512825e-03 1.06837610e-02 2.02991460e-02
      1.60256419e-02 3.20512825e-03 9.61538497e-03 9.61538497e-03
      4.27350448e-03 5.34188049e-03 1.28205130e-02 7.47863250e-03
      1.06837612e-03 8.54700897e-03 1.28205130e-02 2.13675220e-02
      1.17521370e-02 4.27350448e-03 1.28205130e-02 2.13675224e-03
      1.06837610e-02 1.06837610e-02 1.06837610e-02 4.27350448e-03
      3.41880359e-02 2.13675224e-03 4.27350448e-03 5.34188049e-03
      8.54700897e-03 8.54700897e-03 1.06837610e-02 7.47863250e-03
      8.54700897e-03 2.24358980e-02 1.81623939e-02 7.47863250e-03
      1.49572650e-02 8.54700897e-03 8.54700897e-03 1.92307699e-02
      1.17521370e-02 9.61538497e-03 4.27350448e-03 3.20512825e-03
      1.06837610e-02 3.20512825e-03 2.13675224e-03 1.60256419e-02
      3.20512825e-03 5.34188049e-03 1.60256419e-02 2.24358980e-02
      1.06837612e-03 1.17521370e-02 1.49572650e-02 1.17521370e-02
      1.49572650e-02 2.45726500e-02 1.38888890e-02 5.34188049e-03
      2.02991460e-02 3.20512825e-03 1.38888890e-02 4.27350448e-03
      2.13675220e-02 7.47863250e-03 8.54700897e-03 6.41025649e-03
      1.17521370e-02 4.27350448e-03 1.60256419e-02 1.28205130e-02
      9.61538497e-03 4.27350448e-03 6.41025649e-03 7.47863250e-03
      2.13675224e-03 1.38888890e-02 1.28205130e-02 1.49572650e-02
      8.54700897e-03 1.06837610e-02 2.13675224e-03 1.17521370e-02</_>
    <_>
      1.02040814e-02 0. 0. 7.14285746e-02 4.08163257e-02 0. 0.
      1.02040814e-02 1.02040814e-02 0. 0. 1.02040814e-02 5.10204099e-02
      0. 1.02040814e-02 0. 0. 0. 2.04081628e-02 3.06122452e-02
      2.04081628e-02 0. 1.02040814e-02 0. 0. 2.04081628e-02 0. 0. 0. 0.
      0. 2.04081628e-02 1.02040814e-02 1.02040814e-02 1.02040814e-02 0.
      0. 1.02040814e-02 0. 3.06122452e-02 9.18367356e-02 0.
      1.02040814e-02 3.06122452e-02 1.02040814e-02 1.02040814e-02 0.
      2.04081628e-02 5.10204099e-02 0. 2.04081628e-02 1.02040814e-02 0.
      0. 1.02040814e-02 0. 0. 0. 1.02040814e-02 0. 2.04081628e-02 0. 0.
      0. 1.02040814e-02 0. 1.02040814e-02 0. 0. 0. 1.02040814e-02
      2.04081628e-02 1.02040814e-02 3.06122452e-02 0. 1.02040814e-02
      2.04081628e-02 1.02040814e-02 0. 0. 1.02040814e-02 0. 0. 0.
      3.06122452e-02 0. 2.04081628e-02 1.02040814e-02 1.02040814e-02 0.
      0. 0. 0. 0. 0. 2.04081628e-02 0. 3.06122452e-02 1.02040814e-02
      2.04081628e-02</_>
    <_>
      1.04602510e-02 1.04602510e-02 4.18410031e-03 3.97489555e-02
      2.51046028e-02 2.09205016e-03 6.27615070e-03 3.76569033e-02
      1.04602510e-02 1.67364012e-02 0. 6.27615070e-03 8.36820062e-03
      6.27615070e-03 8.36820062e-03 8.36820062e-03 1.46443518e-02
      8.36820062e-03 8.36820062e-03 1.04602510e-02 1.04602510e-02
      8.36820062e-03 4.18410031e-03 2.09205016e-03 4.18410031e-03
      2.09205016e-03 1.04602510e-02 6.27615070e-03 0. 6.27615070e-03
      4.18410031e-03 8.36820062e-03 6.27615070e-03 2.09205016e-03
      1.67364012e-02 6.27615070e-03 1.46443518e-02 8.36820062e-03
      6.27615070e-03 3.34728025e-02 1.88284516e-02 4.18410031e-03
      2.09205016e-03 1.25523014e-02 8.36820062e-03 1.46443518e-02
      6.27615070e-03 4.18410031e-03 8.36820062e-03 3.34728025e-02
      1.25523014e-02 8.36820062e-03 6.27615070e-03 6.27615070e-03
      1.04602510e-02 1.88284516e-02 2.09205016e-03 1.25523014e-02
      2.09205016e-03 8.36820062e-03 6.27615070e-03 4.18410031e-03 0.
      3.34728025e-02 4.18410031e-03 1.04602510e-02 6.27615070e-03
      1.25523014e-02 2.09205016e-03 4.18410031e-03 1.67364012e-02
      1.25523014e-02 6.27615070e-03 8.36820062e-03 1.04602510e-02
      8.36820062e-03 6.27615070e-03 1.67364012e-02 1.25523014e-02
      6.27615070e-03 1.25523014e-02 1.25523014e-02 2.09205020e-02
      1.04602510e-02 1.04602510e-02 4.18410031e-03 8.36820062e-03
      1.46443518e-02 1.04602510e-02 1.04602510e-02 8.36820062e-03
      4.18410031e-03 4.18410031e-03 1.88284516e-02 0. 3.13807540e-02
      2.09205016e-03 4.18410031e-03 1.04602510e-02 8.36820062e-03</_>
    <_>
      1.21654505e-02 8.51581525e-03 6.08272525e-03 3.16301696e-02
      8.51581525e-03 3.64963501e-03 4.86618001e-03 3.16301696e-02
      1.58150848e-02 8.51581525e-03 2.43309001e-03 7.29927002e-03
      1.70316305e-02 6.08272525e-03 1.21654505e-02 7.29927002e-03
      8.51581525e-03 6.08272525e-03 7.29927002e-03 2.06812657e-02
      8.51581525e-03 2.43309001e-03 6.08272525e-03 1.33819953e-02
      6.08272525e-03 8.51581525e-03 2.31143553e-02 3.64963501e-03
      1.21654500e-03 9.73236002e-03 9.73236002e-03 8.51581525e-03
      7.29927002e-03 4.86618001e-03 2.67639905e-02 1.33819953e-02
      9.73236002e-03 1.09489048e-02 1.09489048e-02 4.86618001e-03
      5.23114353e-02 4.86618001e-03 6.08272525e-03 8.51581525e-03
      9.73236002e-03 7.29927002e-03 7.29927002e-03 7.29927002e-03
      1.09489048e-02 2.43309010e-02 2.06812657e-02 9.73236002e-03
      8.51581525e-03 6.08272525e-03 6.08272525e-03 1.33819953e-02
      2.43309001e-03 6.08272525e-03 6.08272525e-03 1.21654500e-03
      1.09489048e-02 8.51581525e-03 2.43309001e-03 2.31143553e-02
      7.29927002e-03 6.08272525e-03 1.09489048e-02 1.82481743e-02
      9.73236002e-03 2.43309001e-03 4.86618001e-03 1.94647200e-02
      1.21654500e-03 9.73236002e-03 7.29927002e-03 1.21654505e-02
      9.73236002e-03 6.08272525e-03 1.21654500e-03 1.09489048e-02
      1.21654505e-02 8.51581525e-03 9.73236002e-03 1.33819953e-02
      6.08272525e-03 0. 8.51581525e-03 9.73236002e-03 3.64963501e-03
      7.29927002e-03 2.43309001e-03 8.51581525e-03 7.29927002e-03
      1.58150848e-02 4.86618001e-03 3.16301696e-02 6.08272525e-03
      1.45985400e-02 7.29927002e-03 4.86618001e-03</_>
    <_>
      8.26446246e-03 8.26446246e-03 8.26446246e-03 4.54545468e-02
      1.44628100e-02 8.26446246e-03 4.13223123e-03 3.92562002e-02
      1.65289249e-02 4.13223123e-03 8.26446246e-03 8.26446246e-03
      1.03305783e-02 0. 6.19834708e-03 6.19834708e-03 1.44628100e-02
      1.44628100e-02 1.65289249e-02 2.89256200e-02 2.06611562e-03
      1.23966942e-02 6.19834708e-03 2.06611562e-03 1.03305783e-02
      4.13223123e-03 2.06611566e-02 8.26446246e-03 1.03305783e-02
      1.03305783e-02 6.19834708e-03 8.26446246e-03 8.26446246e-03 0.
      2.27272734e-02 1.03305783e-02 4.13223123e-03 1.23966942e-02
      1.65289249e-02 3.09917349e-02 4.33884300e-02 6.19834708e-03 0.
      2.06611562e-03 4.13223123e-03 8.26446246e-03 6.19834708e-03
      4.13223123e-03 8.26446246e-03 1.44628100e-02 1.65289249e-02
      2.47933883e-02 2.06611562e-03 4.13223123e-03 6.19834708e-03
      8.26446246e-03 8.26446246e-03 4.13223123e-03 4.13223123e-03 0.
      1.23966942e-02 2.06611562e-03 2.06611562e-03 2.68595032e-02
      2.06611562e-03 6.19834708e-03 1.03305783e-02 8.26446246e-03
      6.19834708e-03 4.13223123e-03 8.26446246e-03 1.85950417e-02
      4.13223123e-03 2.47933883e-02 2.06611562e-03 0. 8.26446246e-03
      2.89256200e-02 2.06611562e-03 4.13223123e-03 1.03305783e-02
      2.06611562e-03 4.13223123e-03 4.13223123e-03 1.23966942e-02
      8.26446246e-03 8.26446246e-03 1.23966942e-02 8.26446246e-03
      1.65289249e-02 4.13223123e-03 8.26446246e-03 1.65289249e-02
      1.23966942e-02 0. 1.44628100e-02 4.13223123e-03 6.19834708e-03
      6.19834708e-03 6.19834708e-03</_>
    <_>
      0. 8.54700897e-03 0. 3.41880359e-02 1.70940179e-02 0. 0.
      8.54700897e-03 0. 0. 8.54700897e-03 1.70940179e-02 0.
      8.54700897e-03 0. 8.54700897e-03 2.56410260e-02 1.70940179e-02
      3.41880359e-02 8.54700897e-03 0. 8.54700897e-03 0. 8.54700897e-03
      0. 8.54700897e-03 0. 0. 0. 2.56410260e-02 1.70940179e-02
      1.70940179e-02 1.70940179e-02 8.54700897e-03 8.54700897e-03 0.
      3.41880359e-02 1.70940179e-02 8.54700897e-03 8.54700897e-03
      3.41880359e-02 0. 0. 0. 0. 1.70940179e-02 0. 0. 0. 8.54700897e-03
      8.54700897e-03 8.54700897e-03 0. 0. 8.54700897e-03 8.54700897e-03
      8.54700897e-03 0. 8.54700897e-03 8.54700897e-03 0. 0. 0.
      4.27350439e-02 8.54700897e-03 0. 0. 8.54700897e-03 8.54700897e-03
      0. 1.70940179e-02 5.12820520e-02 0. 3.41880359e-02 0. 0.
      8.54700897e-03 0. 8.54700897e-03 8.54700897e-03 8.54700897e-03 0.
      0. 2.56410260e-02 0. 0. 2.56410260e-02 2.56410260e-02
      8.54700897e-03 5.12820520e-02 8.54700897e-03 1.70940179e-02
      8.54700897e-03 0. 0. 3.41880359e-02 1.70940179e-02 5.12820520e-02
      1.70940179e-02 0.</_>
    <_>
      7.29927002e-03 7.29927002e-03 0. 2.18978096e-02 1.45985400e-02 0.
      0. 7.29927002e-03 1.45985400e-02 2.18978096e-02 0. 7.29927002e-03
      0. 0. 1.45985400e-02 1.45985400e-02 7.29927002e-03 1.45985400e-02
      3.64963487e-02 7.29927002e-03 0. 0. 2.18978096e-02 0.
      7.29927002e-03 1.45985400e-02 2.18978096e-02 0. 0. 2.18978096e-02
      2.18978096e-02 7.29927002e-03 7.29927002e-03 7.29927002e-03
      7.29927002e-03 0. 2.18978096e-02 7.29927002e-03 2.18978096e-02
      7.29927002e-03 6.56934306e-02 3.64963487e-02 0. 0. 0.
      5.10948896e-02 0. 0. 7.29927002e-03 0. 7.29927002e-03
      7.29927002e-03 1.45985400e-02 7.29927002e-03 7.29927002e-03 0. 0.
      0. 7.29927002e-03 1.45985400e-02 4.37956192e-02 7.29927002e-03 0.
      3.64963487e-02 0. 7.29927002e-03 0. 0. 0. 0. 1.45985400e-02
      2.91970801e-02 7.29927002e-03 7.29927002e-03 7.29927002e-03 0. 0.
      2.18978096e-02 1.45985400e-02 0. 0. 7.29927002e-03 0.
      2.18978096e-02 0. 7.29927002e-03 0. 1.45985400e-02 7.29927002e-03
      2.91970801e-02 2.91970801e-02 7.29927002e-03 7.29927002e-03 0. 0.
      7.29927002e-03 0. 2.18978096e-02 2.18978096e-02 0.</_>
    <_>
      0. 0. 0. 0. 1.78571437e-02 0. 0. 0. 1.78571437e-02 0. 0. 0.
      1.78571437e-02 0. 0. 1.78571437e-02 5.35714291e-02 1.78571437e-02
      1.78571437e-02 1.78571437e-02 3.57142873e-02 0. 1.78571437e-02 0.
      1.78571437e-02 0. 0. 1.78571437e-02 0. 0. 1.78571437e-02
      3.57142873e-02 0. 0. 1.78571437e-02 0. 0. 0. 0. 3.57142873e-02
      3.57142873e-02 0. 0. 1.78571437e-02 0. 7.14285746e-02 0.
      1.78571437e-02 0. 1.78571437e-02 0. 1.78571437e-02 1.78571437e-02
      1.78571437e-02 0. 1.78571437e-02 0. 0. 0. 0. 1.78571437e-02 0. 0.
      1.78571437e-02 0. 1.78571437e-02 0. 0. 0. 0. 0. 0. 0. 0. 0. 0. 0.
      0. 0. 0. 0. 0. 1.78571437e-02 5.35714291e-02 0. 7.14285746e-02
      1.78571437e-02 0. 3.57142873e-02 1.78571437e-02 3.57142873e-02 0.
      0. 1.78571437e-02 0. 0. 7.14285746e-02 0. 0. 0.</_>
    <_>
      1.40280565e-02 1.00200400e-02 0. 3.40681374e-02 1.40280565e-02
      2.00400804e-03 4.00801608e-03 2.60521043e-02 0. 6.01202389e-03 0.
      1.60320643e-02 4.00801608e-03 6.01202389e-03 4.00801608e-03
      8.01603217e-03 6.01202389e-03 8.01603217e-03 1.00200400e-02
      4.00801608e-03 2.00400804e-03 6.01202389e-03 8.01603217e-03 0.
      2.00400804e-03 6.01202389e-03 3.40681374e-02 0. 0. 6.01202389e-03
      1.80360731e-02 2.00400804e-03 6.01202389e-03 6.01202389e-03
      2.60521043e-02 2.00400804e-03 2.20440887e-02 2.20440887e-02
      6.01202389e-03 8.01603217e-03 4.20841686e-02 6.01202389e-03
      1.00200400e-02 6.01202389e-03 1.20240478e-02 1.40280565e-02
      2.00400804e-03 6.01202389e-03 1.00200400e-02 5.61122261e-02
      6.01202389e-03 2.00400804e-03 1.20240478e-02 0. 6.01202389e-03
      8.01603217e-03 1.00200400e-02 2.00400804e-03 0. 4.00801608e-03
      8.01603217e-03 4.00801608e-03 8.01603217e-03 3.20641287e-02
      1.40280565e-02 1.20240478e-02 0. 1.00200400e-02 8.01603217e-03
      4.00801608e-03 2.00400800e-02 1.60320643e-02 8.01603217e-03
      1.80360731e-02 8.01603217e-03 8.01603217e-03 0. 1.60320643e-02
      2.00400804e-03 4.00801608e-03 2.00400804e-03 1.60320643e-02
      8.01603217e-03 4.00801608e-03 4.00801608e-03 4.00801608e-03
      1.00200400e-02 8.01603217e-03 8.01603217e-03 1.20240478e-02
      4.00801608e-03 8.01603217e-03 2.00400804e-03 2.60521043e-02
      1.80360731e-02 3.40681374e-02 2.00400804e-03 3.00601199e-02
      8.01603217e-03 1.80360731e-02</_>
    <_>
      0. 2.77777780e-02 2.77777780e-02 0. 0. 2.77777780e-02
      2.77777780e-02 0. 0. 0. 0. 0. 0. 0. 0. 0. 2.77777780e-02 0. 0.
      2.77777780e-02 0. 0. 0. 0. 0. 0. 0. 0. 2.77777780e-02
      1.11111112e-01 0. 0. 0. 2.77777780e-02 2.77777780e-02 0.
      5.55555560e-02 0. 2.77777780e-02 0. 8.33333358e-02 0. 0. 0. 0.
      5.55555560e-02 0. 0. 0. 0. 0. 0. 0. 2.77777780e-02 0. 0. 0. 0. 0.
      0. 0. 0. 0. 0. 2.77777780e-02 5.55555560e-02 5.55555560e-02 0. 0.
      5.55555560e-02 0. 2.77777780e-02 0. 2.77777780e-02 0. 0. 0. 0. 0.
      0. 0. 0. 0. 2.77777780e-02 0. 2.77777780e-02 2.77777780e-02
      2.77777780e-02 0. 0. 0. 2.77777780e-02 0. 0. 0. 0. 0. 0. 0. 0.</_>
    <_>
      6.94444450e-03 1.38888890e-02 1.38888890e-02 2.77777780e-02
      3.47222239e-02 0. 6.94444450e-03 2.77777780e-02 6.94444450e-03 0.
      6.94444450e-03 0. 6.94444450e-03 0. 0. 6.94444450e-03 0.
      3.47222239e-02 0. 6.94444450e-03 6.94444450e-03 0. 6.94444450e-03
      6.94444450e-03 0. 6.94444450e-03 2.77777780e-02 0. 2.77777780e-02
      2.77777780e-02 6.94444450e-03 6.94444450e-03 6.94444450e-03
      6.94444450e-03 1.04166664e-01 0. 1.38888890e-02 0. 0. 0.
      6.94444478e-02 0. 6.94444450e-03 0. 6.94444450e-03 2.77777780e-02
      0. 0. 6.94444450e-03 0. 2.08333340e-02 6.94444450e-03 0.
      6.94444450e-03 6.94444450e-03 0. 0. 1.38888890e-02 6.94444450e-03
      2.08333340e-02 0. 6.94444450e-03 6.94444450e-03 2.08333340e-02
      1.38888890e-02 2.08333340e-02 0. 1.38888890e-02 6.94444450e-03 0.
      1.38888890e-02 6.94444450e-03 0. 2.77777780e-02 0. 6.94444450e-03
      0. 0. 0. 4.16666679e-02 0. 1.38888890e-02 6.94444450e-03
      6.94444450e-03 1.38888890e-02 6.94444450e-03 6.94444450e-03
      1.38888890e-02 4.86111119e-02 0. 0. 6.94444450e-03 6.94444450e-03
      0. 6.94444450e-03 0. 0. 6.94444450e-03 6.94444450e-03 0.</_>
    <_>
      0. 0. 0. 0. 9.52380970e-02 0. 0. 0. 0. 0. 0. 0. 0. 0. 0.
      9.52380970e-02 0. 0. 0. 0. 0. 0. 0. 0. 0. 0. 9.52380970e-02 0. 0.
      0. 0. 0. 0. 0. 9.52380970e-02 4.76190485e-02 0. 0. 0. 0.
      9.52380970e-02 0. 0. 0. 4.76190485e-02 4.76190485e-02 0. 0.
      4.76190485e-02 0. 4.76190485e-02 0. 0. 4.76190485e-02 0.
      4.76190485e-02 0. 0. 0. 0. 0. 0. 0. 0. 0. 0. 0. 0. 0. 0. 0. 0. 0.
      0. 0. 4.76190485e-02 0. 0. 0. 0. 0. 0. 0. 0. 0. 0. 9.52380970e-02
      0. 0. 0. 0. 0. 0. 0. 0. 0. 0. 4.76190485e-02 0. 0.</_>
    <_>
      0. 0. 1.80180185e-02 6.30630627e-02 9.00900923e-03 0. 0. 0. 0.
      9.00900923e-03 0. 9.00900923e-03 0. 9.00900923e-03 0.
      9.00900923e-03 2.70270277e-02 1.80180185e-02 3.60360369e-02
      9.00900923e-03 1.80180185e-02 9.00900923e-03 2.70270277e-02
      1.80180185e-02 0. 9.00900923e-03 0. 0. 0. 0. 9.00900923e-03
      1.80180185e-02 9.00900923e-03 0. 0. 9.00900923e-03 2.70270277e-02
      9.00900923e-03 9.00900923e-03 9.00900923e-03 4.50450443e-02
      1.80180185e-02 0. 0. 0. 4.50450443e-02 0. 0. 1.80180185e-02
      9.00900923e-03 0. 0. 0. 1.80180185e-02 0. 0. 2.70270277e-02 0. 0.
      0. 0. 0. 0. 4.50450443e-02 0. 9.00900923e-03 0. 0. 0. 0. 0.
      6.30630627e-02 9.00900923e-03 2.70270277e-02 0. 9.00900923e-03 0.
      0. 0. 0. 0. 9.00900923e-03 9.00900923e-03 9.00900923e-03
      9.00900923e-03 9.00900923e-03 0. 2.70270277e-02 9.00900923e-03 0.
      0. 9.00900923e-03 0. 0. 0. 9.00900885e-02 0. 6.30630627e-02
      1.80180185e-02 0.</_>
    <_>
      2.70270277e-02 0. 0. 1.08108111e-01 0. 0. 0. 0. 2.70270277e-02 0.
      0. 0. 0. 0. 0. 0. 0. 2.70270277e-02 0. 0. 0. 2.70270277e-02
      2.70270277e-02 0. 0. 0. 0. 0. 0. 0. 0. 2.70270277e-02 0. 0. 0. 0.
      0. 0. 0. 0. 5.40540554e-02 0. 0. 2.70270277e-02 0. 2.70270277e-02
      0. 0. 0. 0. 2.70270277e-02 0. 0. 0. 2.70270277e-02 2.70270277e-02
      0. 0. 0. 0. 0. 0. 0. 2.70270258e-01 0. 0. 0. 0. 0. 8.10810775e-02
      0. 0. 0. 2.70270277e-02 0. 0. 0. 0. 0. 0. 0. 0. 2.70270277e-02 0.
      0. 0. 2.70270277e-02 0. 2.70270277e-02 0. 0. 2.70270277e-02 0. 0.
      0. 0. 0. 0. 2.70270277e-02 2.70270277e-02</_>
    <_>
      2.32558139e-02 2.32558139e-02 0. 2.32558139e-02 2.32558139e-02 0.
      0. 0. 0. 0. 0. 0. 0. 0. 0. 2.32558139e-02 2.32558139e-02
      2.32558139e-02 2.32558139e-02 4.65116277e-02 0. 0. 2.32558139e-02
      0. 0. 0. 2.32558139e-02 1.16279073e-01 0. 4.65116277e-02 0. 0.
      2.32558139e-02 0. 0. 0. 0. 0. 0. 0. 1.16279073e-01 0. 0. 0. 0.
      4.65116277e-02 0. 0. 0. 0. 0. 0. 0. 0. 0. 0. 0. 0. 0. 0. 0. 0. 0.
      0. 0. 2.32558139e-02 0. 0. 0. 2.32558139e-02 0. 0. 2.32558139e-02
      6.97674453e-02 0. 0. 0. 0. 0. 0. 0. 0. 0. 2.32558139e-02
      2.32558139e-02 0. 2.32558139e-02 2.32558139e-02 0. 0. 0.
      2.32558139e-02 0. 0. 2.32558139e-02 2.32558139e-02 2.32558139e-02
      4.65116277e-02 0. 0.</_>
    <_>
      0. 0. 0. 0. 2.73972601e-02 1.36986300e-02 0. 1.36986300e-02
      2.73972601e-02 2.73972601e-02 1.36986300e-02 0. 0. 1.36986300e-02
      0. 0. 1.36986300e-02 2.73972601e-02 1.36986300e-02 0. 0. 0.
      2.73972601e-02 0. 1.36986300e-02 0. 0. 0. 0. 5.47945201e-02
      1.36986300e-02 0. 4.10958901e-02 0. 1.36986300e-02 0. 0.
      1.36986300e-02 1.36986300e-02 6.84931502e-02 4.10958901e-02
      2.73972601e-02 0. 1.36986300e-02 0. 0. 1.36986300e-02 0. 0.
      1.36986300e-02 0. 0. 0. 0. 1.36986300e-02 1.36986300e-02 0.
      1.36986300e-02 1.36986300e-02 0. 0. 0. 0. 1.36986300e-02
      2.73972601e-02 2.73972601e-02 2.73972601e-02 1.36986300e-02 0.
      1.36986300e-02 1.36986300e-02 1.36986300e-02 1.36986300e-02 0. 0.
      0. 0. 2.73972601e-02 1.36986300e-02 0. 0. 0. 2.73972601e-02
      1.36986300e-02 2.73972601e-02 0. 0. 0. 0. 0. 0. 1.36986300e-02 0.
      1.36986300e-02 0. 1.36986300e-02 4.10958901e-02 1.36986300e-02
      1.36986300e-02 0.</_>
    <_>
      0. 0. 0. 6.32911399e-02 6.32911399e-02 0. 0. 1.26582282e-02 0. 0.
      0. 0. 0. 0. 0. 2.53164563e-02 0. 0. 5.06329127e-02 1.26582282e-02
      0. 1.26582282e-02 0. 1.26582282e-02 0. 1.26582282e-02 0. 0. 0.
      1.26582282e-02 0. 0. 0. 0. 0. 0. 2.53164563e-02 0. 0. 0.
      2.15189874e-01 1.26582282e-02 1.26582282e-02 0. 0. 1.26582282e-02
      0. 0. 0. 0. 1.26582282e-02 0. 0. 0. 0. 1.26582282e-02
      3.79746817e-02 1.26582282e-02 1.26582282e-02 0. 0. 0. 0.
      1.26582282e-02 0. 1.26582282e-02 0. 0. 1.26582282e-02
      1.26582282e-02 2.53164563e-02 3.79746817e-02 0. 1.26582282e-02 0.
      0. 0. 2.53164563e-02 0. 0. 0. 1.26582282e-02 2.53164563e-02 0. 0.
      0. 0. 1.26582282e-02 0. 1.26582282e-02 1.26582282e-02 0.
      1.26582282e-02 1.26582282e-02 3.79746817e-02 6.32911399e-02 0. 0.
      0. 0.</_>
    <_>
      1.32211540e-02 2.40384624e-03 1.44230770e-02 2.28365380e-02
      7.21153850e-03 9.61538497e-03 1.32211540e-02 3.96634601e-02
      1.68269239e-02 1.08173080e-02 9.61538497e-03 1.20192310e-02
      1.80288460e-02 1.20192312e-03 6.00961549e-03 1.32211540e-02
      6.00961549e-03 4.80769249e-03 1.32211540e-02 1.08173080e-02
      6.00961549e-03 1.20192312e-03 4.80769249e-03 7.21153850e-03
      9.61538497e-03 8.41346197e-03 1.80288460e-02 6.00961549e-03
      4.80769249e-03 4.80769249e-03 1.68269239e-02 1.08173080e-02
      6.00961549e-03 2.40384624e-03 2.40384620e-02 1.92307699e-02
      6.00961549e-03 9.61538497e-03 2.40384624e-03 6.00961549e-03
      4.08653840e-02 2.40384624e-03 7.21153850e-03 7.21153850e-03
      1.08173080e-02 1.56250000e-02 1.44230770e-02 6.00961549e-03
      1.80288460e-02 2.16346160e-02 1.56250000e-02 9.61538497e-03
      1.32211540e-02 1.20192312e-03 7.21153850e-03 7.21153850e-03
      3.60576925e-03 1.44230770e-02 9.61538497e-03 8.41346197e-03
      1.44230770e-02 8.41346197e-03 7.21153850e-03 1.80288460e-02
      7.21153850e-03 3.60576925e-03 1.56250000e-02 2.40384620e-02
      4.80769249e-03 1.20192310e-02 6.00961549e-03 8.41346197e-03
      7.21153850e-03 7.21153850e-03 9.61538497e-03 3.60576925e-03
      1.08173080e-02 3.60576925e-03 2.40384624e-03 7.21153850e-03
      2.04326920e-02 1.56250000e-02 4.80769249e-03 7.21153850e-03
      7.21153850e-03 0. 1.32211540e-02 9.61538497e-03 6.00961549e-03
      7.21153850e-03 4.80769249e-03 8.41346197e-03 6.00961549e-03
      2.16346160e-02 8.41346197e-03 7.21153850e-03 4.80769249e-03
      4.80769249e-03 3.60576925e-03 3.60576925e-03</_>
    <_>
      1.36986300e-02 0. 0. 2.73972601e-02 0. 0. 0. 0. 0. 0. 0.
      1.36986300e-02 0. 0. 0. 0. 2.73972601e-02 2.73972601e-02
      1.36986300e-02 4.10958901e-02 0. 0. 0. 0. 0. 1.36986300e-02 0. 0.
      1.36986300e-02 0. 0. 1.36986300e-02 0. 0. 0. 0. 4.10958901e-02 0.
      8.21917802e-02 2.73972601e-02 1.50684938e-01 1.36986300e-02 0. 0.
      0. 0. 0. 1.36986300e-02 0. 5.47945201e-02 0. 0. 0. 0. 0. 0. 0. 0.
      2.73972601e-02 0. 1.36986300e-02 0. 0. 6.84931502e-02 0. 0.
      1.36986300e-02 0. 0. 0. 1.36986300e-02 2.73972601e-02
      1.36986300e-02 2.73972601e-02 1.36986300e-02 1.36986300e-02 0.
      2.73972601e-02 0. 0. 0. 0. 0. 0. 0. 0. 1.36986300e-02
      1.36986300e-02 0. 1.36986300e-02 0. 0. 1.36986300e-02
      2.73972601e-02 0. 2.73972601e-02 0. 4.10958901e-02 0. 0.</_>
    <_>
      1.04166670e-02 1.04166670e-02 0. 1.14583336e-01 0. 0.
      1.04166670e-02 1.04166670e-02 0. 2.08333340e-02 1.04166670e-02 0.
      0. 0. 0. 0. 1.04166670e-02 1.04166670e-02 5.20833321e-02
      1.04166670e-02 0. 1.04166670e-02 0. 0. 0. 0. 2.08333340e-02 0. 0.
      3.12500000e-02 0. 3.12500000e-02 5.20833321e-02 0. 0. 0.
      5.20833321e-02 0. 1.04166670e-02 1.04166670e-02 9.37500000e-02
      1.04166670e-02 0. 0. 0. 0. 1.04166670e-02 0. 0. 2.08333340e-02 0.
      1.04166670e-02 1.04166670e-02 0. 0. 0. 0. 1.04166670e-02 0. 0. 0.
      0. 1.04166670e-02 3.12500000e-02 0. 1.04166670e-02 0. 0. 0.
      2.08333340e-02 1.04166670e-02 4.16666679e-02 1.04166670e-02
      1.04166670e-02 1.04166670e-02 0. 0. 1.04166670e-02 1.04166670e-02
      1.04166670e-02 0. 0. 0. 1.04166670e-02 1.04166670e-02
      1.04166670e-02 3.12500000e-02 2.08333340e-02 0. 0. 1.04166670e-02
      1.04166670e-02 3.12500000e-02 0. 0. 1.04166670e-02 0.
      1.04166670e-02 0. 0.</_>
    <_>
      0. 2.38095243e-02 1.19047621e-02 0. 2.38095243e-02 0. 0. 0. 0. 0.
      0. 0. 0. 0. 0. 0. 3.57142873e-02 2.38095243e-02 0. 0.
      1.19047621e-02 0. 0. 1.19047621e-02 0. 0. 1.19047621e-02 0. 0. 0.
      1.19047621e-02 2.38095243e-02 0. 4.76190485e-02 0. 0.
      1.19047621e-02 1.19047621e-02 2.38095243e-02 0. 1.54761910e-01 0.
      1.19047621e-02 0. 0. 0. 1.19047621e-02 1.19047621e-02 0.
      2.38095243e-02 2.38095243e-02 0. 0. 0. 0. 0. 0. 2.38095243e-02 0.
      0. 1.19047621e-02 0. 0. 2.38095243e-02 0. 1.19047621e-02
      1.19047621e-02 0. 0. 0. 1.19047621e-02 8.33333358e-02 0.
      3.57142873e-02 1.19047621e-02 0. 1.19047621e-02 3.57142873e-02 0.
      0. 0. 0. 1.19047621e-02 2.38095243e-02 0. 0. 1.19047621e-02
      2.38095243e-02 0. 1.19047621e-02 0. 0. 0. 0. 0. 7.14285746e-02 0.
      2.38095243e-02 1.19047621e-02 1.19047621e-02</_>
    <_>
      1.16156284e-02 4.22386499e-03 7.39176339e-03 1.58394929e-02
      1.90073922e-02 1.68954600e-02 1.16156284e-02 2.53431890e-02
      8.44772998e-03 8.44772998e-03 6.33579725e-03 1.47835268e-02
      1.26715945e-02 4.22386499e-03 4.22386499e-03 6.33579725e-03
      1.05596622e-02 8.44772998e-03 1.26715945e-02 9.50369611e-03
      1.16156284e-02 7.39176339e-03 2.11193250e-03 2.11193250e-03
      1.05596622e-02 1.58394929e-02 2.42872220e-02 7.39176339e-03
      4.22386499e-03 8.44772998e-03 1.68954600e-02 1.26715945e-02
      5.27983112e-03 1.05596625e-03 3.59028503e-02 1.05596625e-03
      6.33579725e-03 8.44772998e-03 2.11193250e-03 4.22386499e-03
      3.27349529e-02 4.22386499e-03 1.37275606e-02 1.16156284e-02
      1.47835268e-02 1.47835268e-02 6.33579725e-03 8.44772998e-03
      2.42872220e-02 2.63991561e-02 8.44772998e-03 8.44772998e-03
      9.50369611e-03 4.22386499e-03 6.33579725e-03 5.27983112e-03
      8.44772998e-03 8.44772998e-03 7.39176339e-03 4.22386499e-03
      1.16156284e-02 1.37275606e-02 5.27983112e-03 4.22386499e-03
      7.39176339e-03 4.22386499e-03 8.44772998e-03 1.79514252e-02
      1.26715945e-02 9.50369611e-03 7.39176339e-03 5.27983112e-03
      5.27983112e-03 6.33579725e-03 9.50369611e-03 7.39176339e-03
      2.00633574e-02 2.11193250e-03 0. 1.05596622e-02 2.53431890e-02
      1.90073922e-02 5.27983112e-03 4.22386499e-03 1.47835268e-02
      5.27983112e-03 1.26715945e-02 4.22386499e-03 1.90073922e-02
      5.27983112e-03 4.22386499e-03 6.33579725e-03 3.16789863e-03
      1.47835268e-02 8.44772998e-03 2.00633574e-02 7.39176339e-03
      7.39176339e-03 4.22386499e-03 5.27983112e-03</_>
    <_>
      6.76818937e-03 9.30626038e-03 1.09983077e-02 2.53807101e-02
      7.61421304e-03 4.23011836e-03 4.23011836e-03 2.03045681e-02
      7.61421304e-03 1.01522841e-02 8.46023671e-04 8.46023671e-03
      6.76818937e-03 5.07614203e-03 3.38409469e-03 4.23011836e-03
      8.46023671e-03 1.60744507e-02 1.26903551e-02 1.86125208e-02
      9.30626038e-03 2.45346874e-02 5.92216570e-03 8.46023671e-03
      5.92216570e-03 1.43824024e-02 2.79187821e-02 3.38409469e-03
      5.92216570e-03 5.92216570e-03 3.38409469e-02 5.07614203e-03
      1.35363787e-02 1.69204734e-03 1.43824024e-02 7.61421304e-03
      1.26903551e-02 1.77664980e-02 5.92216570e-03 2.53807101e-03
      3.63790169e-02 2.53807101e-02 5.92216570e-03 4.23011836e-03
      4.23011836e-03 1.35363787e-02 3.38409469e-03 2.53807101e-03
      5.92216570e-03 4.23011854e-02 8.46023671e-03 8.46023671e-04
      1.09983077e-02 4.23011836e-03 2.53807101e-03 7.61421304e-03
      4.23011836e-03 4.23011836e-03 3.38409469e-03 9.30626038e-03
      9.30626038e-03 3.38409469e-03 2.11505927e-02 3.13028768e-02
      5.07614203e-03 6.76818937e-03 4.23011836e-03 1.09983077e-02
      4.23011836e-03 1.69204734e-03 7.61421304e-03 1.26903551e-02
      2.53807101e-03 5.92216570e-03 2.03045681e-02 5.92216570e-03
      1.09983077e-02 2.11505927e-02 3.38409469e-03 5.07614203e-03
      1.01522841e-02 9.30626038e-03 9.30626038e-03 2.53807101e-03
      1.35363787e-02 2.53807101e-03 1.18443314e-02 7.61421304e-03
      1.26903551e-02 4.23011836e-03 5.07614203e-03 1.01522841e-02
      3.13028768e-02 5.07614203e-03 1.69204734e-02 7.61421304e-03
      7.61421304e-03 1.09983077e-02 7.61421304e-03 2.53807101e-03</_>
    <_>
      9.45626479e-03 5.51615423e-03 7.09219836e-03 1.10323085e-02
      7.09219836e-03 3.15208826e-03 3.15208826e-03 1.10323085e-02
      7.09219836e-03 1.02442866e-02 6.30417652e-03 1.02442866e-02
      7.09219836e-03 7.88022019e-03 5.51615423e-03 3.94011009e-03
      1.18203312e-02 9.45626479e-03 1.41843967e-02 8.66824295e-03
      7.09219836e-03 1.26083530e-02 5.51615423e-03 9.45626479e-03
      2.36406620e-03 2.28526406e-02 3.30969281e-02 3.94011009e-03
      7.88022066e-04 7.09219836e-03 4.64933030e-02 8.66824295e-03
      1.97005514e-02 2.36406620e-03 1.89125296e-02 7.09219836e-03
      1.10323085e-02 1.49724195e-02 5.51615423e-03 1.26083530e-02
      2.75807716e-02 2.60047279e-02 5.51615423e-03 9.45626479e-03
      1.57604413e-03 1.73364859e-02 7.09219836e-03 1.57604413e-03
      7.09219836e-03 2.83687934e-02 1.57604404e-02 4.72813239e-03
      4.72813239e-03 0. 4.72813239e-03 1.02442866e-02 7.09219836e-03
      5.51615423e-03 3.15208826e-03 3.15208826e-03 1.18203312e-02
      4.72813239e-03 1.18203312e-02 1.41843967e-02 3.94011009e-03
      5.51615423e-03 7.88022019e-03 7.88022019e-03 2.36406620e-03
      4.72813239e-03 1.33963749e-02 1.89125296e-02 3.94011009e-03
      1.81245077e-02 2.36406624e-02 6.30417652e-03 3.94011009e-03
      1.10323085e-02 2.36406620e-03 3.94011009e-03 8.66824295e-03
      1.33963749e-02 1.02442866e-02 3.94011009e-03 1.02442866e-02
      5.51615423e-03 1.26083530e-02 3.15208826e-03 3.15208826e-03
      7.09219836e-03 2.36406620e-03 1.89125296e-02 2.60047279e-02
      1.18203312e-02 1.81245077e-02 2.91568171e-02 3.15208826e-03
      1.49724195e-02 8.66824295e-03 5.51615423e-03</_>
    <_>
      6.77966094e-03 7.90960435e-03 2.59886999e-02 3.27683613e-02
      1.24293789e-02 1.01694912e-02 1.12994353e-03 1.46892658e-02
      3.38983047e-03 3.38983047e-03 1.12994353e-03 1.01694912e-02
      7.90960435e-03 1.12994353e-03 6.77966094e-03 5.64971752e-03
      7.90960435e-03 7.90960435e-03 1.46892658e-02 2.59886999e-02
      1.46892658e-02 4.51977411e-03 3.38983047e-03 7.90960435e-03
      6.77966094e-03 5.64971752e-03 9.03954823e-03 7.90960435e-03
      1.01694912e-02 9.03954823e-03 1.35593219e-02 1.69491526e-02
      3.38983047e-03 6.77966094e-03 1.69491526e-02 2.25988706e-03
      6.77966094e-03 3.38983047e-03 5.64971752e-03 1.35593219e-02
      4.40677963e-02 3.38983047e-03 9.03954823e-03 6.77966094e-03
      2.25988706e-03 2.82485876e-02 5.64971752e-03 4.51977411e-03
      7.90960435e-03 7.11864382e-02 9.03954823e-03 1.35593219e-02
      3.38983047e-03 5.64971752e-03 0. 2.25988701e-02 2.25988706e-03
      4.51977411e-03 6.77966094e-03 3.38983047e-03 1.12994350e-02
      5.64971752e-03 1.12994353e-03 1.46892658e-02 6.77966094e-03
      2.25988706e-03 3.38983047e-03 9.03954823e-03 5.64971752e-03
      9.03954823e-03 9.03954823e-03 1.35593219e-02 1.24293789e-02
      1.24293789e-02 1.35593219e-02 4.51977411e-03 5.64971752e-03
      7.90960435e-03 6.77966094e-03 4.51977411e-03 4.51977411e-03
      1.92090403e-02 1.01694912e-02 7.90960435e-03 1.01694912e-02
      9.03954823e-03 1.69491526e-02 1.24293789e-02 1.12994350e-02
      5.64971752e-03 6.77966094e-03 1.35593219e-02 4.51977411e-03
      4.51977411e-03 1.80790965e-02 2.03389823e-02 9.03954823e-03
      1.35593219e-02 5.64971752e-03 6.77966094e-03</_>
    <_>
      2.89855078e-02 0. 1.44927539e-02 1.15942031e-01 0. 0. 0. 0. 0.
      1.44927539e-02 0. 0. 0. 0. 0. 1.44927539e-02 0. 0. 1.44927539e-02
      0. 0. 0. 1.44927539e-02 1.44927539e-02 0. 1.44927539e-02
      1.44927539e-02 0. 0. 0. 2.89855078e-02 0. 1.44927539e-02 0.
      1.44927539e-02 0. 1.44927539e-02 0. 0. 0. 2.46376812e-01 0. 0. 0.
      0. 0. 0. 0. 2.89855078e-02 2.89855078e-02 0. 0. 0. 1.44927539e-02
      0. 1.44927539e-02 0. 0. 0. 0. 0. 0. 0. 7.24637657e-02 0. 0. 0. 0.
      0. 0. 1.44927539e-02 0. 0. 5.79710156e-02 1.44927539e-02 0. 0.
      1.44927539e-02 0. 0. 0. 1.44927539e-02 0. 0. 0. 0. 0. 0. 0.
      1.44927539e-02 0. 0. 0. 0. 0. 7.24637657e-02 0. 5.79710156e-02 0.
      0.</_>
    <_>
      1.76991150e-02 0. 8.84955749e-03 8.84955749e-03 8.84955749e-03 0.
      0. 1.76991150e-02 8.84955749e-03 0. 0. 0. 0. 8.84955749e-03 0.
      1.76991150e-02 1.76991150e-02 2.65486725e-02 0. 3.53982300e-02
      1.76991150e-02 0. 0. 1.76991150e-02 0. 8.84955749e-03 0.
      1.76991150e-02 1.76991150e-02 8.84955749e-03 8.84955749e-03
      8.84955749e-03 8.84955749e-03 0. 0. 0. 8.84955749e-03 0.
      8.84955749e-03 8.84955749e-03 4.42477874e-02 0. 0. 8.84955749e-03
      8.84955749e-03 8.84955749e-03 0. 8.84955749e-03 8.84955749e-03
      8.84955749e-03 8.84955749e-03 0. 1.76991150e-02 5.30973449e-02 0.
      3.53982300e-02 0. 0. 2.65486725e-02 0. 8.84955749e-03 0. 0.
      8.84955749e-03 1.76991150e-02 0. 8.84955749e-03 8.84955749e-03
      1.76991150e-02 1.76991150e-02 8.84955749e-03 1.76991150e-02
      3.53982300e-02 0. 1.76991150e-02 1.76991150e-02 0. 1.76991150e-02
      0. 2.65486725e-02 0. 8.84955749e-03 2.65486725e-02 2.65486725e-02
      0. 0. 3.53982300e-02 2.65486725e-02 0. 0. 8.84955749e-03
      1.76991150e-02 0. 0. 1.76991150e-02 1.76991150e-02 0.
      1.76991150e-02 0. 8.84955749e-03</_>
    <_>
      0. 1.83486231e-02 1.83486231e-02 5.50458729e-02 3.66972461e-02 0.
      9.17431153e-03 9.17431153e-03 0. 0. 0. 9.17431153e-03 0. 0. 0.
      9.17431153e-03 9.17431153e-03 9.17431153e-03 9.17431153e-03
      1.83486231e-02 9.17431153e-03 0. 0. 9.17431153e-03 0.
      9.17431153e-03 4.58715595e-02 1.83486231e-02 0. 1.83486231e-02 0.
      0. 9.17431153e-03 0. 2.75229365e-02 0. 1.83486231e-02 0.
      9.17431153e-03 0. 1.10091746e-01 0. 0. 0. 0. 0. 0. 2.75229365e-02
      1.83486231e-02 3.66972461e-02 0. 0. 0. 0. 9.17431153e-03
      9.17431153e-03 9.17431153e-03 0. 0. 0. 9.17431153e-03
      9.17431153e-03 0. 5.50458729e-02 9.17431153e-03 9.17431153e-03 0.
      0. 0. 9.17431153e-03 0. 1.83486231e-02 0. 2.75229365e-02 0. 0. 0.
      0. 0. 0. 0. 0. 2.75229365e-02 0. 1.83486231e-02 0. 0.
      2.75229365e-02 0. 0. 0. 1.83486231e-02 9.17431153e-03 0. 0.
      1.00917429e-01 0. 3.66972461e-02 0. 9.17431153e-03</_>
    <_>
      1.18421055e-02 6.57894742e-03 1.05263162e-02 1.84210520e-02
      6.57894742e-03 5.26315812e-03 0. 5.26315812e-03 1.18421055e-02
      5.26315812e-03 1.31578953e-03 1.18421055e-02 5.26315812e-03
      6.57894742e-03 6.57894742e-03 2.63157906e-03 1.05263162e-02
      1.18421055e-02 1.18421055e-02 1.44736841e-02 6.57894742e-03
      7.89473671e-03 1.44736841e-02 5.26315812e-03 0. 6.57894742e-03
      1.84210520e-02 1.18421055e-02 1.18421055e-02 1.71052627e-02
      1.97368413e-02 1.44736841e-02 1.05263162e-02 1.31578953e-03
      1.71052627e-02 3.94736836e-03 5.26315812e-03 6.57894742e-03
      1.05263162e-02 1.05263162e-02 3.02631576e-02 7.89473671e-03
      5.26315812e-03 3.94736836e-03 5.26315812e-03 1.57894734e-02
      6.57894742e-03 6.57894742e-03 9.21052601e-03 6.97368458e-02
      3.94736836e-03 2.63157906e-03 3.94736836e-03 3.55263166e-02
      3.94736836e-03 5.26315812e-03 1.18421055e-02 7.89473671e-03
      6.57894742e-03 6.57894742e-03 7.89473671e-03 1.18421055e-02
      1.31578953e-03 1.31578948e-02 6.57894742e-03 1.57894734e-02
      9.21052601e-03 1.18421055e-02 1.31578953e-03 9.21052601e-03
      5.26315812e-03 5.26315812e-03 7.89473671e-03 1.84210520e-02
      1.05263162e-02 9.21052601e-03 3.94736836e-03 1.57894734e-02
      3.94736836e-03 5.26315812e-03 3.94736836e-03 1.31578953e-03
      3.15789469e-02 1.57894734e-02 1.57894734e-02 1.31578953e-03
      2.23684218e-02 6.57894742e-03 6.57894742e-03 9.21052601e-03
      7.89473671e-03 1.31578948e-02 1.31578948e-02 1.05263162e-02
      9.21052601e-03 1.05263162e-02 6.57894742e-03 2.10526325e-02
      2.63157906e-03 3.94736836e-03</_>
    <_>
      0. 4.29184549e-03 4.29184549e-03 4.29184549e-02 0. 4.29184549e-03
      4.29184549e-03 1.28755365e-02 8.58369097e-03 4.29184549e-03
      1.28755365e-02 3.00429184e-02 1.28755365e-02 0. 0. 4.29184549e-03
      8.58369097e-03 8.58369097e-03 8.58369097e-03 5.15021458e-02
      8.58369097e-03 8.58369097e-03 0. 4.29184549e-03 0. 0.
      3.43347639e-02 4.29184549e-03 8.58369097e-03 8.58369097e-03
      4.29184549e-03 3.43347639e-02 1.71673819e-02 0. 2.14592274e-02
      4.29184549e-03 1.71673819e-02 0. 4.29184549e-03 8.58369097e-03
      3.00429184e-02 1.28755365e-02 4.29184549e-03 4.29184549e-03
      4.29184549e-03 3.00429184e-02 0. 2.57510729e-02 8.58369097e-03
      1.28755365e-02 8.58369097e-03 0. 8.58369097e-03 4.29184549e-03
      8.58369097e-03 0. 0. 8.58369097e-03 4.29184549e-03 1.28755365e-02
      0. 0. 0. 4.72103022e-02 8.58369097e-03 0. 0. 0. 0. 1.28755365e-02
      2.14592274e-02 2.57510729e-02 8.58369097e-03 4.29184549e-02
      8.58369097e-03 2.57510729e-02 4.29184549e-03 1.71673819e-02 0.
      8.58369097e-03 8.58369097e-03 8.58369097e-03 4.29184549e-03
      1.28755365e-02 1.71673819e-02 0. 1.28755365e-02 4.29184549e-03
      8.58369097e-03 8.58369097e-03 1.71673819e-02 1.71673819e-02
      2.14592274e-02 4.29184549e-03 8.58369097e-03 8.58369097e-03 0.
      4.29184549e-03 0. 0.</_>
    <_>
      1.14416480e-02 1.29672009e-02 6.10221224e-03 1.90694127e-02
      1.29672009e-02 4.57665883e-03 4.57665883e-03 9.91609413e-03
      2.28832942e-03 1.29672009e-02 1.52555306e-03 1.14416480e-02
      7.62776518e-03 7.62776518e-03 3.05110612e-03 4.57665883e-03
      1.14416480e-02 8.39054119e-03 1.29672009e-02 1.52555304e-02
      9.91609413e-03 3.05110612e-03 5.33943577e-03 3.05110612e-03
      6.86498871e-03 1.98321883e-02 6.48360029e-02 3.81388259e-03
      2.28832942e-03 1.14416480e-02 1.06788715e-02 1.06788715e-02
      8.39054119e-03 5.33943577e-03 1.52555304e-02 5.33943577e-03
      6.86498871e-03 2.05949657e-02 3.81388259e-03 3.81388259e-03
      2.36460716e-02 6.10221224e-03 2.28832942e-03 5.33943577e-03
      3.81388259e-03 1.83066353e-02 6.86498871e-03 5.33943577e-03
      8.39054119e-03 9.83981714e-02 9.91609413e-03 9.15331766e-03
      7.62776518e-03 3.81388259e-03 3.81388259e-03 1.37299774e-02
      3.81388259e-03 4.57665883e-03 3.81388259e-03 4.57665883e-03
      7.62776518e-03 6.10221224e-03 7.62776530e-04 1.14416480e-02
      9.15331766e-03 1.14416480e-02 4.57665883e-03 8.39054119e-03
      3.81388259e-03 4.57665883e-03 7.62776518e-03 8.39054119e-03
      1.06788715e-02 1.67810824e-02 2.21205186e-02 7.62776530e-04
      6.10221224e-03 1.29672009e-02 2.28832942e-03 9.91609413e-03
      3.05110612e-03 1.52555304e-02 1.06788715e-02 3.05110612e-03
      1.14416480e-02 9.91609413e-03 1.22044245e-02 7.62776518e-03
      1.52555306e-03 1.83066353e-02 4.57665883e-03 1.06788715e-02
      9.15331766e-03 8.39054119e-03 1.44927539e-02 1.83066353e-02
      5.33943577e-03 1.29672009e-02 9.15331766e-03 3.05110612e-03</_>
    <_>
      3.07062431e-03 3.07062431e-03 1.22824972e-02 2.14943700e-02
      1.02354148e-02 1.33060385e-02 5.11770742e-03 1.12589560e-02
      9.21187270e-03 9.21187270e-03 5.11770742e-03 9.21187270e-03
      3.07062431e-03 7.16479030e-03 5.11770742e-03 6.14124862e-03
      1.02354148e-02 6.14124862e-03 1.12589560e-02 6.14124862e-03
      2.25179121e-02 8.18833150e-03 5.11770742e-03 4.09416575e-03
      2.04708287e-03 1.02354148e-02 5.01535311e-02 1.02354148e-02
      4.09416575e-03 1.02354148e-02 1.43295806e-02 1.53531218e-02
      9.21187270e-03 5.11770742e-03 2.14943700e-02 1.02354144e-03
      9.21187270e-03 1.02354148e-02 8.18833150e-03 7.16479030e-03
      4.81064469e-02 6.14124862e-03 4.09416575e-03 3.07062431e-03
      3.07062431e-03 1.43295806e-02 7.16479030e-03 1.02354144e-03
      4.09416575e-03 5.11770733e-02 1.12589560e-02 0. 3.07062431e-03
      6.14124862e-03 9.21187270e-03 5.42476960e-02 5.11770742e-03
      3.07062431e-03 5.11770742e-03 4.09416575e-03 1.33060385e-02
      5.11770742e-03 2.04708287e-03 2.25179121e-02 2.04708287e-03
      4.09416575e-03 4.09416575e-03 7.16479030e-03 1.02354144e-03
      9.21187270e-03 1.12589560e-02 1.33060385e-02 9.21187270e-03
      1.63766630e-02 1.43295806e-02 8.18833150e-03 5.11770742e-03
      5.11770742e-03 6.14124862e-03 3.07062431e-03 5.11770742e-03
      6.14124862e-03 7.16479030e-03 5.11770742e-03 9.21187270e-03
      6.14124862e-03 8.18833150e-03 6.14124862e-03 1.02354148e-02
      7.16479030e-03 6.14124862e-03 1.53531218e-02 7.16479030e-03
      7.16479030e-03 4.09416575e-03 3.17297839e-02 1.63766630e-02
      2.14943700e-02 8.18833150e-03 9.21187270e-03</_>
    <_>
      3.16789863e-03 1.05596625e-03 1.05596622e-02 2.11193245e-02
      1.68954600e-02 7.39176339e-03 5.27983112e-03 7.39176339e-03
      6.33579725e-03 7.39176339e-03 8.44772998e-03 8.44772998e-03
      3.16789863e-03 6.33579725e-03 6.33579725e-03 6.33579725e-03
      7.39176339e-03 7.39176339e-03 1.47835268e-02 1.05596622e-02
      2.11193245e-02 7.39176339e-03 8.44772998e-03 3.16789863e-03
      2.11193250e-03 1.47835268e-02 1.16156284e-02 5.27983112e-03
      5.27983112e-03 2.11193250e-03 2.11193245e-02 2.42872220e-02
      1.05596625e-03 5.27983112e-03 1.58394929e-02 5.27983112e-03
      4.22386499e-03 1.26715945e-02 6.33579725e-03 1.68954600e-02
      3.80147845e-02 1.37275606e-02 8.44772998e-03 6.33579725e-03
      1.05596625e-03 1.37275606e-02 3.16789863e-03 4.22386499e-03
      8.44772998e-03 8.23653638e-02 1.16156284e-02 3.16789863e-03
      4.22386499e-03 6.33579725e-03 3.16789863e-03 1.26715945e-02
      5.27983112e-03 8.44772998e-03 4.22386499e-03 2.11193250e-03
      2.53431890e-02 6.33579725e-03 0. 1.47835268e-02 1.05596625e-03
      1.26715945e-02 8.44772998e-03 6.33579725e-03 2.11193250e-03
      1.47835268e-02 1.16156284e-02 9.50369611e-03 3.16789863e-03
      1.26715945e-02 2.95670535e-02 7.39176339e-03 6.33579725e-03
      1.58394929e-02 1.16156284e-02 6.33579725e-03 2.11193250e-03
      1.47835268e-02 6.33579725e-03 1.16156284e-02 6.33579725e-03
      4.22386499e-03 1.47835268e-02 8.44772998e-03 8.44772998e-03
      1.37275606e-02 4.22386499e-03 7.39176339e-03 6.33579725e-03
      8.44772998e-03 2.53431890e-02 2.11193245e-02 6.33579725e-03
      1.16156284e-02 1.16156284e-02 0.</_>
    <_>
      7.88288284e-03 5.63063053e-03 1.23873875e-02 3.15315314e-02
      7.88288284e-03 1.01351347e-02 1.12612615e-03 1.35135138e-02
      1.23873875e-02 1.57657657e-02 2.25225231e-03 6.75675692e-03
      3.37837846e-03 1.23873875e-02 2.25225231e-03 4.50450461e-03
      4.50450461e-03 3.37837846e-03 2.36486495e-02 1.12612611e-02
      5.63063053e-03 3.37837846e-03 1.12612615e-03 1.46396393e-02
      2.25225231e-03 6.75675692e-03 6.75675645e-02 2.25225231e-03
      4.50450461e-03 5.63063053e-03 9.00900923e-03 1.68918911e-02
      1.57657657e-02 5.63063053e-03 2.36486495e-02 3.37837846e-03
      6.75675692e-03 1.80180185e-02 2.25225231e-03 1.80180185e-02
      4.27927934e-02 3.37837846e-03 3.37837846e-03 5.63063053e-03
      1.12612615e-03 1.46396393e-02 2.25225231e-03 5.63063053e-03
      3.37837846e-03 9.57207233e-02 1.23873875e-02 2.25225231e-03
      7.88288284e-03 3.37837846e-03 1.12612615e-03 2.02702694e-02
      3.37837846e-03 4.50450461e-03 5.63063053e-03 1.12612611e-02
      1.68918911e-02 2.25225231e-03 1.12612615e-03 2.02702694e-02
      2.25225231e-03 2.25225231e-03 1.12612615e-03 4.50450461e-03
      3.37837846e-03 6.75675692e-03 4.50450461e-03 2.02702694e-02
      5.63063053e-03 1.68918911e-02 1.91441439e-02 2.25225231e-03
      5.63063053e-03 2.25225231e-03 6.75675692e-03 2.25225231e-03
      1.01351347e-02 1.12612611e-02 1.68918911e-02 1.35135138e-02
      4.50450461e-03 2.25225231e-03 9.00900923e-03 1.57657657e-02
      5.63063053e-03 7.88288284e-03 3.37837846e-03 7.88288284e-03
      7.88288284e-03 5.63063053e-03 1.35135138e-02 1.12612611e-02
      1.01351347e-02 1.01351347e-02 3.37837846e-03 7.88288284e-03</_>
    <_>
      2.72727273e-02 9.09090880e-03 0. 3.63636352e-02 4.54545468e-02 0.
      0. 0. 0. 9.09090880e-03 0. 9.09090880e-03 0. 9.09090880e-03
      1.81818176e-02 0. 0. 9.09090880e-03 2.72727273e-02 9.09090880e-03
      9.09090880e-03 0. 0. 9.09090880e-03 9.09090880e-03 9.09090880e-03
      2.72727273e-02 0. 0. 9.09090880e-03 0. 9.09090880e-03 0. 0.
      3.63636352e-02 0. 9.09090880e-03 9.09090880e-03 9.09090880e-03 0.
      1.63636357e-01 0. 0. 2.72727273e-02 0. 9.09090880e-03
      3.63636352e-02 1.81818176e-02 9.09090880e-03 1.81818176e-02 0. 0.
      0. 9.09090880e-03 0. 0. 0. 9.09090880e-03 9.09090880e-03
      9.09090880e-03 1.81818176e-02 0. 0. 0. 0. 0. 1.81818176e-02
      1.81818176e-02 9.09090880e-03 9.09090880e-03 1.81818176e-02
      1.81818176e-02 0. 1.81818176e-02 0. 0. 0. 0. 0. 0. 0.
      2.72727273e-02 0. 0. 9.09090880e-03 0. 3.63636352e-02
      9.09090880e-03 0. 0. 0. 0. 0. 9.09090880e-03 9.09090880e-03
      9.09090936e-02 0. 0. 9.09090880e-03 0.</_>
    <_>
      1.12359552e-02 0. 0. 2.24719103e-02 2.24719103e-02 1.12359552e-02
      0. 2.24719103e-02 1.12359552e-02 0. 0. 1.12359552e-02
      2.24719103e-02 0. 1.12359552e-02 0. 2.24719103e-02 1.12359552e-02
      2.24719103e-02 2.24719103e-02 0. 0. 1.12359552e-02 1.12359552e-02
      0. 0. 3.37078646e-02 0. 0. 0. 0. 0. 1.12359552e-02 0. 0. 0.
      2.24719103e-02 0. 0. 0. 8.98876414e-02 0. 0. 0. 1.12359552e-02
      2.24719103e-02 0. 0. 0. 1.12359552e-02 0. 0. 2.24719103e-02
      2.24719103e-02 1.12359552e-02 0. 0. 1.12359552e-02 0. 0. 0. 0.
      1.12359552e-02 7.86516890e-02 0. 2.24719103e-02 0. 0. 0. 0.
      1.12359552e-02 4.49438207e-02 0. 2.24719103e-02 2.24719103e-02
      1.12359552e-02 0. 0. 0. 0. 1.12359552e-02 3.37078646e-02
      1.12359552e-02 3.37078646e-02 0. 2.24719103e-02 3.37078646e-02
      2.24719103e-02 0. 0. 0. 1.12359552e-02 0. 2.24719103e-02 0.
      1.12359552e-02 0. 1.12359552e-02 2.24719103e-02 1.12359552e-02</_>
    <_>
      7.65306130e-03 8.92857183e-03 6.37755124e-03 3.18877548e-02
      3.82653065e-03 7.65306130e-03 3.82653065e-03 1.27551025e-02
      7.65306130e-03 6.37755124e-03 2.55102036e-03 1.27551025e-02
      7.65306130e-03 6.37755124e-03 3.82653065e-03 5.10204071e-03
      7.65306130e-03 1.02040814e-02 2.04081628e-02 2.42346935e-02
      5.10204071e-03 1.27551018e-03 5.10204071e-03 1.14795920e-02
      5.10204071e-03 5.22959195e-02 8.67346972e-02 6.37755124e-03
      1.27551018e-03 6.37755124e-03 1.40306121e-02 1.27551018e-03
      5.10204071e-03 8.92857183e-03 1.65816322e-02 0. 5.10204071e-03
      3.57142873e-02 1.14795920e-02 3.82653065e-03 3.31632644e-02
      1.27551018e-03 1.27551018e-03 8.92857183e-03 6.37755124e-03
      2.04081628e-02 1.02040814e-02 5.10204071e-03 1.27551018e-03
      1.27551025e-02 1.02040814e-02 8.92857183e-03 7.65306130e-03
      5.10204071e-03 5.10204071e-03 7.65306130e-03 1.14795920e-02
      3.82653065e-03 1.14795920e-02 5.10204071e-03 2.55102036e-03
      5.10204071e-03 1.27551018e-03 3.06122452e-02 1.02040814e-02
      1.40306121e-02 1.27551018e-03 1.14795920e-02 3.82653065e-03
      6.37755124e-03 2.55102036e-03 8.92857183e-03 3.82653065e-03
      8.92857183e-03 6.37755124e-03 6.37755124e-03 1.02040814e-02
      6.37755124e-03 1.27551018e-03 3.82653065e-03 3.82653065e-03
      7.65306130e-03 1.02040814e-02 1.27551025e-02 1.02040814e-02
      1.53061226e-02 6.37755124e-03 1.53061226e-02 1.27551018e-03
      8.92857183e-03 1.02040814e-02 6.37755124e-03 2.80612241e-02
      7.65306130e-03 1.27551018e-03 1.02040814e-02 8.92857183e-03
      1.78571437e-02 7.65306130e-03 6.37755124e-03</_>
    <_>
      1.02145048e-02 1.53217567e-02 1.22574056e-02 2.34933607e-02
      9.19305440e-03 4.08580201e-03 3.06435139e-03 1.22574056e-02
      1.12359552e-02 9.19305440e-03 1.02145050e-03 1.32788559e-02
      4.08580201e-03 1.02145050e-03 2.04290100e-03 3.06435139e-03
      4.08580201e-03 9.19305440e-03 1.53217567e-02 1.83861088e-02
      9.19305440e-03 2.04290100e-03 6.12870278e-03 2.04290100e-03
      1.02145050e-03 3.77936661e-02 3.06435134e-02 2.34933607e-02
      8.17160401e-03 8.17160401e-03 3.37078646e-02 7.15015316e-03
      1.43003063e-02 5.10725239e-03 2.04290096e-02 4.08580201e-03
      4.08580201e-03 2.34933607e-02 9.19305440e-03 7.15015316e-03
      4.08580191e-02 1.02145048e-02 4.08580201e-03 5.10725239e-03
      1.02145048e-02 3.06435134e-02 3.06435139e-03 5.10725239e-03
      3.06435139e-03 3.06435139e-03 6.12870278e-03 8.17160401e-03
      1.22574056e-02 2.65577119e-02 6.12870278e-03 7.15015316e-03
      3.06435139e-03 7.15015316e-03 5.10725239e-03 4.08580201e-03
      4.08580201e-03 2.04290100e-03 5.10725239e-03 2.55362615e-02
      1.63432080e-02 1.63432080e-02 7.15015316e-03 9.19305440e-03
      3.06435139e-03 4.08580201e-03 4.08580201e-03 1.73646584e-02
      7.15015316e-03 6.12870278e-03 2.04290100e-03 5.10725239e-03
      7.15015316e-03 2.04290100e-03 2.04290100e-03 3.06435139e-03
      2.04290100e-03 3.06435139e-03 7.15015316e-03 8.17160401e-03
      1.22574056e-02 5.10725239e-03 1.83861088e-02 1.73646584e-02
      6.12870278e-03 7.15015316e-03 5.10725239e-03 9.19305440e-03
      3.98365669e-02 1.02145048e-02 6.12870278e-03 2.14504600e-02
      5.10725239e-03 1.32788559e-02 1.02145048e-02 3.06435139e-03</_>
    <_>
      4.30107536e-03 7.88530428e-03 8.60215072e-03 1.64874550e-02
      1.36200720e-02 3.58422939e-03 7.88530428e-03 7.88530428e-03
      6.45161280e-03 8.60215072e-03 4.30107536e-03 7.16845877e-03
      7.88530428e-03 1.64874550e-02 5.01792133e-03 4.30107536e-03
      7.16845877e-03 8.60215072e-03 1.36200720e-02 9.31899622e-03
      7.16845877e-03 8.60215072e-03 6.45161280e-03 1.21863801e-02
      5.01792133e-03 2.58064512e-02 3.51254493e-02 5.73476683e-03
      7.16845854e-04 1.21863801e-02 4.94623668e-02 1.00358427e-02
      1.36200720e-02 3.58422939e-03 1.57706086e-02 2.86738342e-03
      7.88530428e-03 2.58064512e-02 3.58422939e-03 3.58422939e-03
      3.22580636e-02 1.07526882e-02 8.60215072e-03 5.73476683e-03
      4.30107536e-03 1.43369175e-02 1.00358427e-02 2.15053768e-03
      7.16845877e-03 1.57706086e-02 1.72043014e-02 5.73476683e-03
      1.72043014e-02 5.01792133e-03 5.01792133e-03 2.00716853e-02
      5.01792133e-03 4.30107536e-03 5.73476683e-03 3.58422939e-03
      7.88530428e-03 5.73476683e-03 2.15053763e-02 1.50537631e-02
      4.30107536e-03 7.16845877e-03 6.45161280e-03 5.73476683e-03
      2.86738342e-03 7.16845877e-03 1.50537631e-02 1.86379924e-02
      6.45161280e-03 6.45161280e-03 1.64874550e-02 5.73476683e-03
      6.45161280e-03 6.45161280e-03 6.45161280e-03 5.73476683e-03
      1.29032256e-02 1.43369175e-02 1.29032256e-02 3.58422939e-03
      5.01792133e-03 3.58422939e-03 1.07526882e-02 4.30107536e-03
      7.16845877e-03 7.88530428e-03 3.58422939e-03 5.73476683e-03
      3.15412171e-02 1.64874550e-02 6.45161280e-03 1.21863801e-02
      6.45161280e-03 2.29390673e-02 2.86738342e-03 7.16845877e-03</_>
    <_>
      3.73831787e-03 1.02803735e-02 5.60747646e-03 3.17757018e-02
      5.60747646e-03 1.86915894e-03 4.67289705e-03 1.96261685e-02
      1.02803735e-02 1.40186911e-02 4.67289705e-03 1.49532715e-02
      8.41121469e-03 9.34579468e-04 6.54205587e-03 7.47663574e-03
      2.80373823e-03 8.41121469e-03 9.34579410e-03 1.49532715e-02
      3.73831787e-03 2.14953274e-02 4.67289705e-03 1.12149529e-02
      4.67289705e-03 5.60747646e-03 2.24299058e-02 1.12149529e-02
      2.80373823e-03 3.73831787e-03 2.80373823e-02 8.41121469e-03
      1.12149529e-02 7.47663574e-03 1.77570097e-02 5.60747646e-03
      2.80373823e-03 8.41121469e-03 5.60747646e-03 1.12149529e-02
      2.99065430e-02 4.11214940e-02 5.60747646e-03 3.73831787e-03
      3.73831787e-03 2.14953274e-02 3.73831787e-03 9.34579468e-04
      2.80373823e-03 2.99065430e-02 9.34579410e-03 9.34579410e-03
      8.41121469e-03 6.54205587e-03 9.34579410e-03 7.47663574e-03
      5.60747646e-03 2.80373823e-03 6.54205587e-03 5.60747646e-03
      1.30841117e-02 5.60747646e-03 1.96261685e-02 2.61682235e-02
      6.54205587e-03 1.40186911e-02 9.34579410e-03 1.02803735e-02
      1.86915894e-03 4.67289705e-03 1.02803735e-02 1.77570097e-02
      5.60747646e-03 4.67289705e-03 2.14953274e-02 2.80373823e-03
      7.47663574e-03 1.86915882e-02 2.80373823e-03 4.67289705e-03
      1.12149529e-02 7.47663574e-03 1.68224294e-02 3.73831787e-03
      8.41121469e-03 2.80373823e-03 1.30841117e-02 2.80373823e-03
      7.47663574e-03 1.02803735e-02 8.41121469e-03 1.02803735e-02
      9.34579410e-03 5.60747646e-03 1.96261685e-02 1.58878509e-02
      9.34579410e-03 1.58878509e-02 3.73831787e-03 1.21495323e-02</_>
    <_>
      1.63265299e-02 1.02040814e-02 0. 2.04081628e-02 1.63265299e-02
      6.12244895e-03 4.08163248e-03 2.85714287e-02 2.24489793e-02
      6.12244895e-03 2.04081624e-03 1.22448979e-02 1.22448979e-02
      2.04081624e-03 1.63265299e-02 1.02040814e-02 1.42857144e-02
      1.02040814e-02 1.83673464e-02 1.22448979e-02 2.04081624e-03 0.
      8.16326495e-03 2.24489793e-02 6.12244895e-03 4.08163248e-03
      1.02040814e-02 0. 4.08163248e-03 8.16326495e-03 8.16326495e-03
      6.12244895e-03 1.22448979e-02 4.08163248e-03 8.16326495e-03
      4.08163248e-03 6.12244895e-03 2.04081624e-03 6.12244895e-03
      1.02040814e-02 1.83673464e-02 4.08163248e-03 1.22448979e-02
      6.12244895e-03 1.02040814e-02 8.16326495e-03 2.04081624e-03
      1.02040814e-02 1.63265299e-02 6.12244895e-03 4.08163248e-03
      1.22448979e-02 1.22448979e-02 1.83673464e-02 6.12244895e-03
      1.02040814e-02 8.16326495e-03 6.12244895e-03 4.08163248e-03
      8.16326495e-03 1.42857144e-02 2.44897958e-02 0. 1.22448979e-02
      1.02040814e-02 1.22448979e-02 1.22448979e-02 0. 2.04081624e-03
      2.04081624e-03 2.24489793e-02 2.24489793e-02 4.08163248e-03
      2.04081628e-02 4.08163248e-03 8.16326495e-03 1.22448979e-02
      6.12244895e-03 4.08163248e-03 1.02040814e-02 1.22448979e-02 0.
      2.04081628e-02 2.44897958e-02 1.22448979e-02 4.08163248e-03
      2.24489793e-02 8.16326495e-03 4.08163248e-03 8.16326495e-03
      1.42857144e-02 8.16326495e-03 4.08163248e-03 6.12244895e-03
      1.42857144e-02 3.87755111e-02 8.16326495e-03 1.42857144e-02
      8.16326495e-03 6.12244895e-03</_>
    <_>
      5.29100513e-03 1.05820103e-02 1.32275131e-02 6.61375653e-03
      5.29100513e-03 7.93650839e-03 7.93650839e-03 1.71957668e-02
      3.96825420e-03 1.71957668e-02 1.58730168e-02 1.58730168e-02
      1.05820103e-02 7.93650839e-03 1.32275128e-03 7.93650839e-03
      1.71957668e-02 7.93650839e-03 1.32275131e-02 1.32275131e-02
      7.93650839e-03 1.05820103e-02 2.24867724e-02 1.58730168e-02
      1.19047621e-02 3.96825420e-03 1.71957668e-02 2.64550257e-03
      1.32275128e-03 6.61375653e-03 9.25925933e-03 1.32275131e-02
      1.98412705e-02 6.61375653e-03 1.58730168e-02 6.61375653e-03
      1.32275131e-02 6.61375653e-03 9.25925933e-03 7.93650839e-03
      2.38095243e-02 3.96825420e-03 1.32275128e-03 6.61375653e-03
      5.29100513e-03 1.71957668e-02 5.29100513e-03 7.93650839e-03
      6.61375653e-03 9.25925933e-03 1.32275131e-02 7.93650839e-03
      6.61375653e-03 1.32275128e-03 1.32275131e-02 1.58730168e-02
      1.32275131e-02 5.29100513e-03 2.64550257e-03 9.25925933e-03
      1.58730168e-02 1.05820103e-02 5.29100513e-03 7.93650839e-03
      2.64550257e-03 7.93650839e-03 6.61375653e-03 1.58730168e-02
      9.25925933e-03 1.05820103e-02 1.98412705e-02 2.24867724e-02
      3.96825420e-03 1.85185187e-02 6.61375653e-03 6.61375653e-03
      6.61375653e-03 9.25925933e-03 1.58730168e-02 2.64550257e-03
      1.32275131e-02 1.05820103e-02 2.64550257e-03 9.25925933e-03
      1.85185187e-02 7.93650839e-03 1.58730168e-02 1.05820103e-02
      9.25925933e-03 5.29100513e-03 3.96825420e-03 9.25925933e-03
      5.29100513e-03 3.96825420e-03 5.29100513e-03 2.38095243e-02
      1.05820103e-02 1.45502649e-02 1.32275131e-02 1.05820103e-02</_>
    <_>
      1.44927539e-02 1.44927539e-02 0. 8.69565234e-02 1.44927539e-02 0.
      0. 0. 0. 0. 0. 0. 0. 0. 0. 1.44927539e-02 0. 1.44927539e-02
      1.44927539e-02 2.89855078e-02 0. 0. 0. 0. 0. 0. 0. 0. 0.
      7.24637657e-02 0. 0. 1.44927539e-02 1.44927539e-02 5.79710156e-02
      0. 1.44927539e-02 0. 1.44927539e-02 1.44927539e-02 7.24637657e-02
      0. 0. 1.44927539e-02 1.44927539e-02 2.89855078e-02 2.89855078e-02
      0. 1.44927539e-02 0. 0. 1.44927539e-02 0. 2.89855078e-02 0.
      1.44927539e-02 0. 0. 0. 0. 0. 0. 0. 2.89855078e-02 0. 0. 0.
      1.44927539e-02 0. 0. 0. 1.44927539e-02 0. 4.34782617e-02 0. 0.
      1.44927539e-02 2.89855078e-02 0. 0. 1.44927539e-02 0. 0.
      1.44927539e-02 1.44927539e-02 0. 1.44927539e-02 1.44927539e-02 0.
      1.44927539e-02 0. 0. 0. 1.44927539e-02 1.44927539e-02
      5.79710156e-02 0. 2.89855078e-02 1.44927539e-02 0.</_>
    <_>
      7.89473671e-03 1.31578948e-02 5.26315812e-03 1.57894734e-02
      5.26315812e-03 5.26315812e-03 5.26315812e-03 1.31578948e-02
      1.57894734e-02 2.63157906e-03 1.05263162e-02 1.84210520e-02
      2.63157906e-03 5.26315812e-03 2.63157897e-02 1.31578948e-02
      2.63157906e-03 1.05263162e-02 2.36842111e-02 5.26315812e-03
      7.89473671e-03 2.63157906e-03 1.57894734e-02 1.31578948e-02
      5.26315812e-03 2.63157906e-03 5.26315812e-03 5.26315812e-03
      2.63157906e-03 0. 1.05263162e-02 1.84210520e-02 1.05263162e-02
      5.26315812e-03 2.63157897e-02 0. 7.89473671e-03 7.89473671e-03
      7.89473671e-03 2.63157906e-03 1.57894734e-02 0. 1.05263162e-02
      7.89473671e-03 5.26315812e-03 1.31578948e-02 0. 1.31578948e-02
      2.63157906e-03 5.26315812e-03 5.26315812e-03 5.26315812e-03
      1.57894734e-02 2.63157906e-03 7.89473671e-03 2.36842111e-02
      7.89473671e-03 1.31578948e-02 1.31578948e-02 1.31578948e-02
      1.05263162e-02 7.89473671e-03 0. 7.89473671e-03 1.05263162e-02
      1.05263162e-02 2.63157906e-03 7.89473671e-03 5.26315812e-03
      1.84210520e-02 1.84210520e-02 1.31578948e-02 2.63157906e-03
      2.10526325e-02 0. 1.05263162e-02 5.26315812e-03 0. 1.05263162e-02
      1.84210520e-02 1.05263162e-02 7.89473671e-03 2.36842111e-02
      1.05263162e-02 1.31578948e-02 2.10526325e-02 2.63157906e-03
      2.63157906e-03 1.05263162e-02 7.89473671e-03 1.31578948e-02
      5.26315812e-03 1.31578948e-02 2.63157906e-03 0. 2.89473683e-02
      2.89473683e-02 3.94736826e-02 2.10526325e-02 7.89473671e-03</_>
    <_>
      0. 0. 0. 0. 2.50000004e-02 0. 0. 2.50000004e-02 0. 2.50000004e-02
      0. 2.50000004e-02 0. 0. 0. 0. 0. 5.00000007e-02 5.00000007e-02
      2.50000004e-02 0. 2.50000004e-02 0. 0. 2.50000004e-02 0.
      2.50000004e-02 0. 0. 0. 0. 0. 0. 0. 2.50000004e-02 0. 0. 0.
      2.50000004e-02 0. 2.24999994e-01 0. 0. 0. 0. 0. 2.50000004e-02
      2.50000004e-02 0. 0. 0. 0. 0. 0. 0. 0. 0. 0. 0. 0. 0. 0. 0.
      5.00000007e-02 0. 2.50000004e-02 0. 0. 0. 2.50000004e-02 0.
      2.50000004e-02 0. 0. 0. 0. 2.50000004e-02 0. 0. 0. 0.
      2.50000004e-02 0. 0. 0. 0. 0. 2.50000004e-02 0. 0. 0. 0. 0. 0. 0.
      1.25000000e-01 0. 5.00000007e-02 0. 0.</_>
    <_>
      8.42105225e-03 1.26315793e-02 1.47368424e-02 2.10526306e-03
      1.05263162e-02 6.31578965e-03 4.21052612e-03 1.47368424e-02
      1.26315793e-02 1.05263162e-02 6.31578965e-03 8.42105225e-03
      2.10526306e-03 4.21052612e-03 4.21052612e-03 2.10526306e-03
      1.47368424e-02 1.68421045e-02 1.89473685e-02 1.26315793e-02
      1.26315793e-02 2.10526306e-03 2.10526325e-02 1.05263162e-02
      2.10526306e-03 8.42105225e-03 1.26315793e-02 1.05263162e-02
      2.10526306e-03 1.05263162e-02 1.89473685e-02 4.63157892e-02
      8.42105225e-03 1.26315793e-02 1.26315793e-02 2.10526306e-03
      4.21052612e-03 4.21052612e-03 1.47368424e-02 6.31578965e-03
      1.05263162e-02 2.10526306e-03 8.42105225e-03 1.05263162e-02
      2.10526306e-03 8.42105225e-03 4.21052612e-03 2.10526306e-03 0.
      2.10526325e-02 2.31578946e-02 6.31578965e-03 0. 1.47368424e-02
      4.21052612e-03 1.47368424e-02 6.31578965e-03 1.05263162e-02
      4.21052612e-03 8.42105225e-03 6.31578965e-03 2.10526306e-03
      4.21052612e-03 4.21052612e-03 4.21052612e-03 4.21052612e-03
      2.10526306e-03 1.26315793e-02 0. 3.57894748e-02 2.10526306e-03
      2.94736847e-02 6.31578965e-03 2.94736847e-02 6.31578965e-03
      1.05263162e-02 2.10526306e-03 8.42105225e-03 6.31578965e-03
      1.68421045e-02 0. 1.05263162e-02 1.05263162e-02 2.94736847e-02
      1.26315793e-02 4.21052612e-03 6.31578965e-03 1.26315793e-02
      2.31578946e-02 1.26315793e-02 6.31578965e-03 8.42105225e-03
      4.21052612e-03 2.10526306e-03 1.26315793e-02 1.68421045e-02
      1.05263162e-02 2.52631586e-02 6.31578965e-03 1.89473685e-02</_>
    <_>
      4.44444455e-03 8.88888910e-03 4.44444455e-03 8.88888910e-03
      2.22222228e-02 4.44444455e-03 4.44444455e-03 4.44444455e-02
      8.88888910e-03 0. 0. 0. 4.44444455e-03 4.44444455e-03 0. 0.
      1.33333337e-02 1.33333337e-02 1.77777782e-02 1.33333337e-02
      4.44444455e-03 4.44444455e-03 1.33333337e-02 2.22222228e-02
      8.88888910e-03 4.44444455e-03 4.44444455e-03 8.88888910e-03
      4.44444455e-03 8.88888910e-03 8.88888910e-03 1.33333337e-02
      4.44444455e-03 0. 3.11111119e-02 0. 4.44444455e-03 0.
      8.88888910e-03 1.33333337e-02 8.88888910e-03 8.88888910e-03 0. 0.
      1.33333337e-02 2.22222228e-02 1.33333337e-02 0. 1.77777782e-02
      1.33333337e-02 4.44444455e-03 0. 0. 1.33333337e-02 0.
      3.11111119e-02 4.44444455e-03 2.22222228e-02 8.88888910e-03
      4.44444455e-03 8.88888910e-03 0. 4.44444455e-03 3.11111119e-02
      4.44444455e-03 1.33333337e-02 4.44444455e-03 8.88888910e-03 0.
      1.33333337e-02 1.77777782e-02 2.22222228e-02 8.88888910e-03
      3.11111119e-02 0. 1.33333337e-02 0. 8.88888910e-03 8.88888910e-03
      1.77777782e-02 4.44444455e-03 4.44444455e-03 8.88888910e-03
      3.55555564e-02 8.88888910e-03 8.88888910e-03 1.33333337e-02 0.
      8.88888910e-03 0. 4.44444455e-03 1.77777782e-02 8.88888910e-03
      2.22222228e-02 4.44444455e-03 3.11111119e-02 4.44444455e-03
      3.99999991e-02 4.44444455e-03 1.77777782e-02</_>
    <_>
      3.52112669e-03 8.80281720e-03 1.05633801e-02 1.23239439e-02
      1.23239439e-02 3.52112669e-03 1.76056335e-03 1.23239439e-02
      7.04225339e-03 2.64084507e-02 0. 2.64084507e-02 7.04225339e-03
      1.76056335e-03 0. 0. 1.76056335e-03 8.80281720e-03 1.76056344e-02
      1.76056344e-02 1.23239439e-02 3.52112669e-03 3.52112669e-03
      1.58450697e-02 1.76056335e-03 8.80281720e-03 7.04225376e-02 0.
      3.52112669e-03 7.04225339e-03 3.52112669e-03 1.93661973e-02
      1.58450697e-02 1.76056335e-03 8.80281720e-03 1.76056335e-03
      1.40845068e-02 5.28169004e-03 1.23239439e-02 3.52112669e-03
      4.04929593e-02 7.04225339e-03 0. 8.80281720e-03 8.80281720e-03
      1.23239439e-02 1.76056335e-03 1.23239439e-02 3.52112669e-03
      7.21830949e-02 8.80281720e-03 1.76056335e-03 7.04225339e-03
      3.52112669e-03 3.52112669e-03 7.04225339e-03 5.28169004e-03
      1.58450697e-02 7.04225339e-03 1.23239439e-02 5.28169004e-03
      3.52112669e-03 3.52112669e-03 3.69718298e-02 7.04225339e-03
      3.52112669e-03 3.52112669e-03 7.04225339e-03 1.76056335e-03
      5.28169004e-03 2.64084507e-02 2.28873231e-02 3.52112669e-03
      3.69718298e-02 1.93661973e-02 1.76056335e-03 3.52112669e-03
      5.28169004e-03 5.28169004e-03 1.76056335e-03 1.23239439e-02
      1.76056335e-03 7.04225339e-03 1.76056335e-03 1.23239439e-02
      3.52112669e-03 2.46478878e-02 3.52112669e-03 7.04225339e-03
      3.52112669e-03 7.04225339e-03 7.04225339e-03 7.04225339e-03
      1.05633801e-02 1.76056335e-03 2.99295783e-02 1.76056335e-03
      1.40845068e-02 3.52112669e-03 3.52112669e-03</_>
    <_>
      9.75609757e-04 4.87804879e-03 1.95121951e-03 2.53658537e-02
      1.75609756e-02 3.90243903e-03 9.75609757e-04 1.56097561e-02
      4.87804879e-03 1.46341464e-02 3.90243903e-03 1.17073171e-02
      7.80487806e-03 2.34146342e-02 1.95121951e-03 1.95121951e-03
      1.85365845e-02 4.87804879e-03 1.36585366e-02 1.95121951e-03
      5.85365854e-03 3.60975601e-02 6.82926830e-03 2.82926820e-02
      4.87804879e-03 4.87804879e-03 2.34146342e-02 2.92682927e-03
      1.95121951e-03 1.46341464e-02 2.92682927e-03 5.85365854e-03
      1.56097561e-02 9.75609757e-03 1.95121951e-02 3.90243903e-03
      1.07317073e-02 6.82926830e-03 6.82926830e-03 1.26829268e-02
      4.58536595e-02 1.26829268e-02 2.92682927e-03 6.82926830e-03
      4.87804879e-03 6.82926830e-03 1.95121951e-03 5.85365854e-03
      2.92682927e-03 6.24390244e-02 1.36585366e-02 4.87804879e-03
      3.90243903e-03 1.95121951e-03 2.92682927e-03 3.90243903e-03
      5.85365854e-03 2.92682927e-03 3.90243903e-03 1.46341464e-02
      5.85365854e-03 1.36585366e-02 8.78048781e-03 1.65853649e-02
      5.85365854e-03 5.85365854e-03 2.14634147e-02 1.46341464e-02
      9.75609757e-04 7.80487806e-03 1.46341464e-02 2.24390235e-02
      3.90243903e-03 1.85365845e-02 2.53658537e-02 3.90243903e-03
      2.92682927e-03 1.26829268e-02 3.90243903e-03 3.90243903e-03
      1.75609756e-02 3.90243903e-03 5.85365854e-03 5.85365854e-03
      6.82926830e-03 9.75609757e-04 1.17073171e-02 6.82926830e-03
      9.75609757e-04 8.78048781e-03 6.82926830e-03 4.87804879e-03
      3.90243903e-03 8.78048781e-03 3.90243903e-03 3.02439015e-02
      4.87804879e-03 2.34146342e-02 5.85365854e-03 7.80487806e-03</_>
    <_>
      0. 0. 0. 1.44927539e-02 2.89855078e-02 0. 0. 1.44927539e-02 0.
      1.44927539e-02 1.44927539e-02 0. 0. 0. 2.89855078e-02
      1.44927539e-02 1.44927539e-02 0. 1.44927539e-02 1.44927539e-02 0.
      0. 0. 0. 0. 1.44927539e-02 0. 1.44927539e-02 0. 4.34782617e-02
      1.44927539e-02 1.44927539e-02 7.24637657e-02 0. 1.44927539e-02 0.
      1.44927539e-02 0. 1.44927539e-02 1.44927539e-02 1.01449274e-01 0.
      2.89855078e-02 0. 0. 0. 0. 0. 0. 0. 0. 0. 0. 1.44927539e-02 0.
      1.44927539e-02 0. 1.44927539e-02 0. 1.44927539e-02 0. 0. 0.
      2.89855078e-02 5.79710156e-02 0. 0. 0. 0. 1.44927539e-02 0. 0.
      1.44927539e-02 1.44927539e-02 0. 0. 0. 1.44927539e-02 0. 0. 0. 0.
      2.89855078e-02 0. 0. 1.44927539e-02 2.89855078e-02 8.69565234e-02
      0. 1.44927539e-02 0. 1.44927539e-02 1.44927539e-02 0. 0.
      1.44927539e-02 0. 1.44927539e-02 2.89855078e-02 0.</_>
    <_>
      5.82524249e-03 1.06796119e-02 5.82524249e-03 2.23300979e-02
      5.82524249e-03 4.85436898e-03 4.85436898e-03 2.81553399e-02
      1.26213590e-02 1.45631069e-02 5.82524249e-03 1.65048540e-02
      2.03883499e-02 4.85436898e-03 6.79611648e-03 9.70873795e-03
      9.70873795e-03 8.73786397e-03 1.74757279e-02 1.26213590e-02
      1.94174761e-03 3.88349523e-03 5.82524249e-03 7.76699046e-03
      3.88349523e-03 8.73786397e-03 1.45631069e-02 4.85436898e-03
      6.79611648e-03 9.70873795e-03 1.94174759e-02 5.82524249e-03
      1.35922330e-02 3.88349523e-03 1.16504850e-02 1.65048540e-02
      1.35922330e-02 5.82524249e-03 6.79611648e-03 8.73786397e-03
      2.81553399e-02 2.91262125e-03 2.91262125e-03 5.82524249e-03
      6.79611648e-03 1.26213590e-02 1.35922330e-02 4.85436898e-03
      8.73786397e-03 4.17475738e-02 2.52427179e-02 6.79611648e-03
      5.82524249e-03 3.88349523e-03 3.88349523e-03 6.79611648e-03
      4.85436898e-03 2.91262125e-03 7.76699046e-03 4.85436898e-03
      8.73786397e-03 2.91262125e-03 2.91262125e-03 1.35922330e-02
      2.91262125e-03 1.06796119e-02 1.84466019e-02 2.62135919e-02
      5.82524249e-03 7.76699046e-03 7.76699046e-03 1.35922330e-02
      4.85436898e-03 1.94174759e-02 8.73786397e-03 6.79611648e-03
      9.70873795e-03 6.79611648e-03 3.88349523e-03 1.26213590e-02
      1.16504850e-02 1.06796119e-02 5.82524249e-03 9.70873807e-04
      1.65048540e-02 6.79611648e-03 9.70873795e-03 1.35922330e-02
      4.85436898e-03 9.70873795e-03 5.82524249e-03 5.82524249e-03
      3.88349523e-03 2.42718440e-02 5.82524249e-03 2.33009700e-02
      8.73786397e-03 1.45631069e-02 1.45631069e-02 5.82524249e-03</_>
    <_>
      0. 8.00000038e-03 3.19999992e-03 3.04000005e-02 3.19999992e-03
      2.08000001e-02 1.59999996e-03 2.40000002e-02 9.60000046e-03
      6.39999984e-03 4.80000023e-03 9.60000046e-03 4.80000023e-03
      3.19999992e-03 4.80000023e-03 6.39999984e-03 1.11999996e-02
      1.27999997e-02 1.75999999e-02 9.60000046e-03 0. 1.27999997e-02
      1.59999996e-03 8.00000038e-03 3.19999992e-03 3.19999992e-03
      5.92000000e-02 1.59999996e-03 0. 1.11999996e-02 0. 8.00000038e-03
      1.43999998e-02 6.39999984e-03 2.55999994e-02 0. 1.60000008e-02
      7.03999996e-02 8.00000038e-03 6.39999984e-03 2.08000001e-02
      4.80000023e-03 8.00000038e-03 6.39999984e-03 6.39999984e-03
      4.80000023e-03 1.59999996e-03 6.39999984e-03 4.80000023e-03
      8.00000038e-03 1.11999996e-02 3.19999992e-03 1.59999996e-03 0.
      4.80000023e-03 0. 1.59999996e-03 8.00000038e-03 1.59999996e-03
      1.43999998e-02 9.60000046e-03 3.19999992e-03 0. 4.32000011e-02
      1.60000008e-02 1.59999996e-03 0. 9.60000046e-03 1.59999996e-03
      6.39999984e-03 9.60000046e-03 2.87999995e-02 1.27999997e-02
      2.08000001e-02 8.00000038e-03 4.80000023e-03 8.00000038e-03
      8.00000038e-03 8.00000038e-03 4.80000023e-03 1.11999996e-02
      1.59999996e-03 1.11999996e-02 4.80000023e-03 6.39999984e-03
      3.19999992e-03 2.08000001e-02 1.27999997e-02 6.39999984e-03
      2.40000002e-02 6.39999984e-03 1.11999996e-02 4.80000004e-02
      3.19999992e-03 4.80000023e-03 1.92000009e-02 0. 1.60000008e-02
      1.43999998e-02 3.19999992e-03</_>
    <_>
      0. 1.55131267e-02 9.54653975e-03 8.35322216e-03 2.14797128e-02
      7.15990458e-03 4.77326987e-03 9.54653975e-03 7.15990458e-03
      9.54653975e-03 3.57995229e-03 1.31264916e-02 8.35322216e-03
      1.90930795e-02 2.38663494e-03 3.57995229e-03 1.19331740e-02
      7.15990458e-03 9.54653975e-03 8.35322216e-03 1.90930795e-02
      1.19331740e-02 5.96658699e-03 3.46062034e-02 1.43198092e-02
      5.96658699e-03 4.77326987e-03 5.96658699e-03 2.38663494e-03
      5.96658699e-03 1.19331740e-02 2.98329350e-02 1.43198092e-02
      5.96658699e-03 8.35322216e-03 4.77326987e-03 1.55131267e-02
      7.15990458e-03 1.31264916e-02 1.55131267e-02 8.35322216e-03
      3.57995229e-03 1.07398564e-02 7.15990458e-03 7.15990458e-03
      9.54653975e-03 9.54653975e-03 3.57995229e-03 7.15990458e-03
      8.35322216e-03 1.55131267e-02 9.54653975e-03 3.57995229e-03
      7.15990458e-03 1.19331740e-02 7.15990458e-03 1.43198092e-02
      8.35322216e-03 3.57995229e-03 1.67064443e-02 7.15990458e-03
      9.54653975e-03 4.77326987e-03 4.77326987e-03 5.96658699e-03
      1.07398564e-02 4.77326987e-03 2.38663480e-02 1.19331740e-02
      1.19331740e-02 1.78997610e-02 3.46062034e-02 8.35322216e-03
      2.26730313e-02 9.54653975e-03 4.77326987e-03 3.57995229e-03
      1.43198092e-02 7.15990458e-03 3.57995229e-03 1.55131267e-02
      2.38663494e-03 8.35322216e-03 2.38663494e-03 1.43198092e-02
      3.57995229e-03 1.19331740e-02 1.19331740e-02 1.67064443e-02
      9.54653975e-03 1.43198092e-02 5.96658699e-03 3.57995229e-03
      1.07398564e-02 4.77326987e-03 7.15990458e-03 1.07398564e-02
      1.31264916e-02 1.19331740e-02 8.35322216e-03</_>
    <_>
      0. 0. 0. 1.13636367e-02 1.13636367e-02 0. 0. 2.27272734e-02 0.
      2.27272734e-02 0. 5.68181835e-02 0. 0. 0. 0. 3.40909101e-02
      1.13636367e-02 2.27272734e-02 3.40909101e-02 1.13636367e-02
      1.13636367e-02 0. 2.27272734e-02 0. 0. 0. 0. 0. 1.13636367e-02 0.
      1.13636367e-02 1.13636367e-02 0. 1.13636367e-02 1.13636367e-02
      6.81818202e-02 0. 1.13636367e-02 3.40909101e-02 4.54545468e-02 0.
      0. 0. 0. 4.54545468e-02 0. 0. 0. 0. 0. 0. 0. 0. 0. 0. 0. 0. 0.
      2.27272734e-02 0. 0. 0. 0. 1.13636367e-02 1.13636367e-02
      2.27272734e-02 1.13636367e-02 0. 1.13636367e-02 0. 1.13636367e-02
      0. 2.27272734e-02 0. 0. 0. 7.95454532e-02 0. 1.13636367e-02 0. 0.
      1.13636367e-02 1.13636367e-02 1.13636367e-02 2.27272734e-02
      1.13636367e-02 1.13636367e-02 1.13636367e-02 0. 2.27272734e-02
      2.27272734e-02 0. 0. 0. 3.40909101e-02 0. 5.68181835e-02
      2.27272734e-02 0.</_>
    <_>
      0. 0. 0. 3.03030312e-02 0. 0. 0. 6.06060624e-02 0. 0. 0. 0. 0. 0.
      0. 0. 6.06060624e-02 0. 3.03030312e-02 0. 0. 0. 3.03030312e-02 0.
      0. 0. 0. 0. 0. 0. 0. 0. 0. 0. 0. 3.03030312e-02 3.03030312e-02 0.
      9.09090936e-02 0. 3.03030312e-02 0. 0. 0. 0. 0. 0. 0. 0. 0. 0. 0.
      3.03030312e-02 3.03030312e-02 0. 0. 0. 0. 0. 0. 0. 0. 0.
      6.06060624e-02 0. 3.03030312e-02 0. 0. 3.03030312e-02 0.
      1.21212125e-01 3.03030312e-02 0. 3.03030312e-02 0. 0. 0.
      3.03030312e-02 0. 0. 0. 0. 3.03030312e-02 0. 0. 3.03030312e-02
      3.03030312e-02 0. 0. 0. 0. 0. 0. 3.03030312e-02 0. 6.06060624e-02
      0. 0. 0. 3.03030312e-02</_>
    <_>
      5.26315812e-03 1.40350880e-02 8.77192989e-03 1.92982461e-02
      1.40350880e-02 0. 5.26315812e-03 3.15789469e-02 5.26315812e-03
      1.22807017e-02 3.50877200e-03 1.40350880e-02 5.26315812e-03
      8.77192989e-03 3.50877200e-03 3.50877200e-03 2.28070170e-02
      1.75438600e-03 1.75438598e-02 7.01754401e-03 1.40350880e-02
      8.77192989e-03 1.40350880e-02 4.56140339e-02 3.50877200e-03
      8.77192989e-03 1.40350880e-02 7.01754401e-03 3.50877200e-03
      5.26315812e-03 5.26315812e-03 1.92982461e-02 5.26315812e-03
      5.26315812e-03 3.68421040e-02 5.26315812e-03 1.22807017e-02
      1.75438600e-03 1.57894734e-02 1.22807017e-02 2.28070170e-02
      7.01754401e-03 7.01754401e-03 1.05263162e-02 0. 5.26315812e-03
      3.50877200e-03 1.75438600e-03 3.50877200e-03 1.05263162e-02
      2.10526325e-02 8.77192989e-03 3.50877200e-03 3.50877200e-03
      8.77192989e-03 3.50877200e-03 1.05263162e-02 3.50877200e-03
      7.01754401e-03 8.77192989e-03 1.22807017e-02 8.77192989e-03
      8.77192989e-03 5.26315812e-03 8.77192989e-03 3.50877200e-03
      1.57894734e-02 2.98245605e-02 5.26315812e-03 1.05263162e-02
      1.22807017e-02 2.10526325e-02 8.77192989e-03 1.05263162e-02
      7.01754401e-03 8.77192989e-03 1.05263162e-02 1.22807017e-02
      8.77192989e-03 7.01754401e-03 1.75438598e-02 3.50877200e-03 0.
      1.75438600e-03 7.01754401e-03 1.75438600e-03 2.28070170e-02
      1.57894734e-02 5.26315812e-03 8.77192989e-03 7.01754401e-03
      8.77192989e-03 1.75438600e-03 1.22807017e-02 3.50877200e-03
      2.45614033e-02 8.77192989e-03 1.22807017e-02 1.40350880e-02
      8.77192989e-03</_>
    <_>
      4.61680535e-03 1.20036937e-02 9.23361070e-03 1.56971384e-02
      9.23361070e-03 1.01569714e-02 1.01569714e-02 2.30840258e-02
      7.38688838e-03 1.29270544e-02 7.38688838e-03 9.23361070e-03
      8.31024908e-03 1.84672214e-02 5.54016605e-03 4.61680535e-03
      1.38504151e-02 3.69344419e-03 1.56971384e-02 1.01569714e-02
      5.54016605e-03 6.46352721e-03 2.77008303e-03 1.20036937e-02
      8.31024908e-03 1.66204982e-02 1.38504151e-02 4.61680535e-03
      3.69344419e-03 6.46352721e-03 1.01569714e-02 6.46352721e-03
      2.21606642e-02 5.54016605e-03 2.30840258e-02 1.20036937e-02
      1.29270544e-02 9.23361070e-03 7.38688838e-03 7.38688838e-03
      3.78578007e-02 7.38688838e-03 4.61680535e-03 1.47737768e-02
      5.54016605e-03 6.46352721e-03 4.61680535e-03 1.84672209e-03
      5.54016605e-03 2.03139428e-02 1.01569714e-02 6.46352721e-03
      1.01569714e-02 2.77008303e-03 5.54016605e-03 5.54016605e-03
      9.23361070e-03 6.46352721e-03 3.69344419e-03 7.38688838e-03
      6.46352721e-03 5.54016605e-03 0. 1.66204982e-02 9.23361070e-03
      9.23361070e-03 1.29270544e-02 3.32409963e-02 8.31024908e-03
      3.69344419e-03 1.66204982e-02 1.38504151e-02 1.84672209e-03
      2.03139428e-02 1.20036937e-02 7.38688838e-03 1.66204982e-02
      6.46352721e-03 1.01569714e-02 2.77008303e-03 1.56971384e-02
      1.38504151e-02 1.01569714e-02 8.31024908e-03 7.38688838e-03
      9.23361047e-04 1.47737768e-02 1.10803321e-02 1.84672209e-03
      6.46352721e-03 4.61680535e-03 8.31024908e-03 6.46352721e-03
      1.75438598e-02 8.31024908e-03 2.86241919e-02 8.31024908e-03
      1.20036937e-02 6.46352721e-03 1.10803321e-02</_>
    <_>
      2.54129595e-03 1.52477762e-02 6.35323999e-03 1.52477762e-02
      1.39771281e-02 2.54129595e-03 8.89453664e-03 1.52477762e-02
      1.14358319e-02 2.03303676e-02 0. 1.65184252e-02 1.39771281e-02
      1.27064800e-02 1.27064798e-03 2.54129595e-03 1.39771281e-02
      1.01651838e-02 1.39771281e-02 5.08259190e-03 5.08259190e-03
      1.52477762e-02 3.81194404e-03 1.90597214e-02 1.27064798e-03
      5.08259190e-03 3.43074985e-02 2.54129595e-03 7.62388809e-03
      1.27064800e-02 8.89453664e-03 1.01651838e-02 8.89453664e-03
      7.62388809e-03 2.16010157e-02 3.81194404e-03 1.27064800e-02
      1.65184252e-02 1.14358319e-02 8.89453664e-03 3.55781466e-02
      1.01651838e-02 5.08259190e-03 2.54129595e-03 0. 1.52477762e-02
      2.54129595e-03 5.08259190e-03 1.27064798e-03 2.41423119e-02
      1.65184252e-02 0. 1.27064798e-03 2.54129595e-03 2.54129595e-03
      1.39771281e-02 1.01651838e-02 5.08259190e-03 3.81194404e-03
      1.27064800e-02 5.08259190e-03 6.35323999e-03 1.14358319e-02
      2.41423119e-02 3.81194404e-03 8.89453664e-03 8.89453664e-03
      1.39771281e-02 1.27064798e-03 7.62388809e-03 8.89453664e-03
      1.77890733e-02 1.27064798e-03 2.28716638e-02 2.16010157e-02
      2.54129595e-03 7.62388809e-03 5.08259190e-03 7.62388809e-03
      5.08259190e-03 1.39771281e-02 3.81194404e-03 3.81194404e-03
      3.81194404e-03 1.01651838e-02 2.54129595e-03 1.65184252e-02
      1.14358319e-02 8.89453664e-03 7.62388809e-03 8.89453664e-03
      1.14358319e-02 1.77890733e-02 6.35323999e-03 6.35323999e-03
      4.06607352e-02 8.89453664e-03 2.03303676e-02 8.89453664e-03
      6.35323999e-03</_>
    <_>
      1.07858246e-02 9.24499240e-03 6.16332842e-03 1.54083204e-02
      1.23266568e-02 6.16332842e-03 1.07858246e-02 1.07858246e-02
      7.70416018e-03 7.70416018e-03 1.23266568e-02 1.23266568e-02
      1.07858246e-02 1.54083211e-03 1.23266568e-02 6.16332842e-03
      4.62249620e-03 6.16332842e-03 2.31124815e-02 7.70416018e-03
      1.84899848e-02 7.70416018e-03 6.16332842e-03 2.77349763e-02
      4.62249620e-03 4.62249620e-03 1.54083204e-02 3.08166421e-03 0.
      1.38674881e-02 9.24499240e-03 7.70416018e-03 9.24499240e-03
      4.62249620e-03 1.38674881e-02 4.62249620e-03 6.16332842e-03
      3.08166421e-03 7.70416018e-03 4.62249620e-03 2.31124815e-02
      3.08166421e-03 3.08166421e-03 1.07858246e-02 9.24499240e-03
      9.24499240e-03 4.62249620e-03 1.54083211e-03 1.69491526e-02
      7.70416018e-03 2.31124815e-02 7.70416018e-03 4.62249620e-03
      7.70416018e-03 1.38674881e-02 9.24499240e-03 1.69491526e-02
      3.08166421e-03 6.16332842e-03 7.70416018e-03 1.84899848e-02
      9.24499240e-03 0. 1.07858246e-02 1.54083204e-02 7.70416018e-03
      4.62249620e-03 1.54083211e-03 7.70416018e-03 1.23266568e-02
      1.69491526e-02 3.08166407e-02 3.08166421e-03 2.00308170e-02
      1.07858246e-02 6.16332842e-03 1.23266568e-02 6.16332842e-03
      1.54083211e-03 1.23266568e-02 3.08166421e-03 1.07858246e-02
      1.23266568e-02 1.07858246e-02 4.62249620e-03 9.24499240e-03
      1.69491526e-02 1.07858246e-02 7.70416018e-03 1.23266568e-02
      1.54083204e-02 6.16332842e-03 7.70416018e-03 9.24499240e-03
      9.24499240e-03 2.15716492e-02 2.15716492e-02 1.54083204e-02
      1.54083204e-02 1.54083204e-02</_>
    <_>
      9.36768111e-03 1.63934417e-02 7.02576106e-03 2.10772827e-02
      3.04449648e-02 2.34192028e-03 0. 3.27868834e-02 7.02576106e-03
      2.34192028e-03 0. 9.36768111e-03 1.17096016e-02 4.68384055e-03 0.
      4.68384055e-03 2.10772827e-02 1.17096016e-02 1.17096016e-02
      2.34192032e-02 1.17096016e-02 2.34192028e-03 4.68384055e-03
      1.87353622e-02 4.68384055e-03 4.68384055e-03 1.87353622e-02
      4.68384055e-03 4.68384055e-03 9.36768111e-03 4.68384055e-03
      2.57611237e-02 1.40515221e-02 0. 1.63934417e-02 9.36768111e-03
      1.63934417e-02 9.36768111e-03 4.68384055e-03 0. 2.57611237e-02
      4.68384055e-03 4.68384055e-03 1.17096016e-02 1.40515221e-02
      1.63934417e-02 0. 7.02576106e-03 1.17096016e-02 7.02576106e-03
      2.81030443e-02 9.36768111e-03 4.68384055e-03 4.68384055e-03 0.
      4.68384055e-03 1.40515221e-02 2.34192028e-03 1.17096016e-02
      2.34192028e-03 0. 2.34192028e-03 0. 2.10772827e-02 2.34192028e-03
      9.36768111e-03 9.36768111e-03 3.51288058e-02 2.34192028e-03 0.
      1.87353622e-02 2.57611237e-02 0. 2.81030443e-02 7.02576106e-03
      2.34192028e-03 1.17096016e-02 2.34192028e-03 4.68384055e-03
      1.17096016e-02 2.10772827e-02 2.34192028e-03 9.36768111e-03
      4.68384055e-03 7.02576106e-03 0. 2.34192032e-02 4.68384055e-03
      7.02576106e-03 4.68384055e-03 4.68384055e-03 3.04449648e-02
      4.68384055e-03 1.63934417e-02 2.34192028e-03 3.04449648e-02
      9.36768111e-03 1.63934417e-02 7.02576106e-03 2.34192028e-03</_>
    <_>
      0. 6.43086806e-03 0. 2.89389063e-02 9.64630209e-03 0. 0.
      4.50160764e-02 3.21543403e-03 3.21543403e-03 9.64630209e-03
      1.28617361e-02 1.92926042e-02 3.21543403e-03 9.64630209e-03
      1.92926042e-02 2.89389063e-02 1.28617361e-02 1.60771701e-02
      9.64630209e-03 0. 9.64630209e-03 9.64630209e-03 3.21543403e-03
