<?xml version="1.0"?>
<opencv_storage>
<my_svm type_id="opencv-ml-svm">
  <svm_type>C_SVC</svm_type>
  <kernel><type>RBF</type>
    <gamma>5.0625000000000009e-01</gamma></kernel>
  <C>3.1250000000000000e+02</C>
  <term_criteria><epsilon>2.2204460492503131e-16</epsilon>
    <iterations>100000</iterations></term_criteria>
  <var_all>100</var_all>
  <var_count>100</var_count>
  <class_count>5</class_count>
  <class_labels type_id="opencv-matrix">
    <rows>1</rows>
    <cols>5</cols>
    <dt>i</dt>
    <data>
      1 2 3 4 5</data></class_labels>
  <sv_total>120</sv_total>
  <support_vectors>
    <_>
      0. 0. 0. 0. 7.69230798e-02 0. 0. 0. 0. 0. 0. 0. 0. 0. 0. 0. 0.
      3.07692319e-01 0. 0. 0. 0. 1.53846160e-01 0. 0. 0. 0. 0. 0. 0. 0.
      7.69230798e-02 0. 0. 0. 0. 0. 0. 0. 0. 7.69230798e-02 0.
      1.53846160e-01 0. 0. 0. 0. 0. 0. 0. 0. 0. 0. 7.69230798e-02 0. 0.
      0. 7.69230798e-02 0. 0. 0. 0. 0. 0. 0. 0. 0. 0. 0. 0. 0. 0. 0. 0.
      0. 0. 0. 0. 0. 0. 0. 0. 0. 0. 0. 0. 0. 0. 0. 0. 0. 0. 0. 0. 0. 0.
      0. 0. 0. 0.</_>
    <_>
      1.71489809e-02 6.43086806e-03 9.64630209e-03 1.07181130e-03
      9.64630209e-03 1.07181130e-03 3.00107189e-02 1.17899254e-02
      4.28724522e-03 5.03751338e-02 4.28724522e-03 3.21543403e-03
      1.17899254e-02 6.43086806e-03 6.43086806e-03 4.07288335e-02
      4.28724522e-03 3.85852084e-02 1.82207935e-02 0. 5.35905687e-03
      1.07181137e-02 6.43086806e-03 2.14362261e-03 6.43086806e-03
      9.64630209e-03 8.57449044e-03 2.14362261e-03 5.35905687e-03
      1.28617361e-02 2.14362275e-02 3.21543403e-03 3.21543403e-03
      4.28724522e-03 8.57449044e-03 2.14362261e-03 4.18006442e-02
      6.43086806e-03 9.64630209e-03 2.78670955e-02 2.78670955e-02
      3.21543403e-03 1.50053594e-02 1.07181137e-02 1.07181130e-03
      3.42979617e-02 5.35905687e-03 7.50267971e-03 7.50267971e-03
      4.28724522e-03 3.21543403e-03 2.14362261e-03 9.64630209e-03
      6.43086806e-03 5.35905687e-03 5.35905687e-03 1.07181130e-03
      3.21543403e-03 9.64630209e-03 2.67952848e-02 8.57449044e-03
      6.43086806e-03 1.60771701e-02 1.07181130e-03 3.21543403e-03
      4.28724522e-03 3.21543403e-03 1.07181130e-03 3.21543403e-03
      8.57449044e-03 7.50267971e-03 2.14362261e-03 8.57449044e-03
      3.21543403e-03 2.14362261e-03 2.14362261e-03 6.43086806e-03
      3.21543403e-03 2.14362261e-03 1.71489809e-02 1.07181130e-03
      2.14362261e-03 1.60771701e-02 5.35905687e-03 6.43086806e-03
      4.50160764e-02 6.43086806e-03 3.21543403e-03 6.43086806e-03
      5.35905687e-03 8.57449044e-03 1.17899254e-02 3.21543403e-03
      2.14362261e-03 1.60771701e-02 3.21543403e-03 5.35905687e-03 0.
      1.07181137e-02 6.75241128e-02</_>
    <_>
      2.30769236e-02 2.30769236e-02 0. 7.69230770e-03 1.53846154e-02
      7.69230770e-03 7.69230770e-03 0. 7.69230770e-03 7.69230770e-03
      7.69230770e-03 0. 0. 7.69230770e-03 2.30769236e-02 7.69230798e-02
      0. 1.53846154e-02 2.30769236e-02 0. 7.69230770e-03 7.69230770e-03
      2.30769236e-02 0. 0. 0. 7.69230770e-03 0. 0. 2.30769236e-02
      1.53846154e-02 7.69230770e-03 7.69230770e-03 0. 1.53846154e-02
      3.07692308e-02 7.69230770e-03 0. 7.69230770e-03 7.69230770e-03
      1.53846154e-02 7.69230770e-03 4.61538471e-02 7.69230770e-03
      7.69230770e-03 7.69230770e-03 0. 0. 0. 0. 0. 7.69230770e-03 0.
      1.53846154e-02 0. 0. 0. 0. 0. 5.38461544e-02 0. 1.53846154e-02
      7.69230770e-03 0. 0. 7.69230770e-03 0. 0. 7.69230770e-03 0.
      1.53846154e-02 0. 0. 7.69230770e-03 1.53846154e-02 7.69230770e-03
      0. 0. 7.69230770e-03 0. 0. 7.69230770e-03 3.07692308e-02
      2.30769236e-02 1.53846154e-02 1.30769238e-01 0. 0. 0.
      7.69230770e-03 7.69230770e-03 0. 7.69230770e-03 3.84615399e-02
      7.69230770e-03 7.69230770e-03 0. 7.69230770e-03 7.69230770e-03
      1.53846154e-02</_>
    <_>
      2.27272734e-02 2.27272734e-02 1.13636367e-02 0. 5.68181835e-02 0.
      1.13636367e-02 0. 5.68181835e-02 2.27272734e-02 1.13636367e-02
      1.13636367e-02 0. 4.54545468e-02 1.13636367e-02 0. 2.27272734e-02
      0. 2.27272734e-02 1.13636367e-02 0. 0. 0. 0. 1.13636367e-02
      1.13636367e-02 1.13636367e-02 0. 1.13636367e-02 0. 0.
      4.54545468e-02 0. 0. 0. 0. 1.13636367e-02 1.13636367e-02
      1.13636367e-02 0. 1.13636367e-02 0. 1.13636367e-02 1.13636367e-02
      0. 1.13636367e-02 0. 0. 1.13636367e-02 0. 1.13636367e-02
      1.13636367e-02 0. 1.13636367e-02 0. 1.13636367e-02 0. 0. 0. 0.
      4.54545468e-02 0. 0. 0. 0. 0. 1.13636367e-02 0. 0. 0. 0. 0.
      1.13636367e-02 0. 0. 0. 0. 1.13636367e-02 6.81818202e-02
      3.40909101e-02 1.13636367e-02 1.13636367e-02 5.68181835e-02 0.
      1.13636367e-02 1.13636367e-02 0. 0. 2.27272734e-02 2.27272734e-02
      0. 0. 0. 3.40909101e-02 2.27272734e-02 0. 0. 1.13636367e-02
      1.13636367e-02 2.27272734e-02</_>
    <_>
      4.68750000e-02 0. 0. 0. 0. 1.56250000e-02 3.12500000e-02 0.
      6.25000000e-02 0. 0. 0. 0. 4.68750000e-02 0. 0. 0. 0.
      3.12500000e-02 0. 0. 6.25000000e-02 0. 0. 0. 0. 0. 0. 0. 0. 0.
      1.56250000e-02 0. 0. 0. 0. 1.56250000e-02 3.12500000e-02
      6.25000000e-02 1.40625000e-01 1.56250000e-02 0. 1.25000000e-01
      3.12500000e-02 0. 7.81250000e-02 0. 0. 0. 0. 0. 0. 0. 0. 0. 0. 0.
      4.68750000e-02 1.56250000e-02 0. 1.56250000e-02 0. 0. 0. 0. 0.
      1.56250000e-02 0. 0. 0. 0. 0. 0. 0. 1.56250000e-02 0. 0.
      1.56250000e-02 0. 0. 0. 0. 1.56250000e-02 0. 0. 1.56250000e-02 0.
      0. 0. 0. 1.56250000e-02 0. 0. 0. 1.56250000e-02 0. 0. 0. 0. 0.</_>
    <_>
      8.02568253e-03 1.04333870e-02 0. 8.02568218e-04 5.61797759e-03
      1.60513644e-03 3.21027287e-03 4.81540943e-03 5.61797759e-03
      8.02568253e-03 6.42054575e-03 1.60513644e-03 7.22311391e-03
      1.28410915e-02 4.01284127e-03 2.31942222e-01 2.40770471e-03
      1.52487960e-02 1.12359552e-02 8.02568218e-04 4.81540943e-03
      2.40770471e-03 1.12359552e-02 8.02568218e-04 2.40770471e-03
      5.61797759e-03 1.60513651e-02 1.60513644e-03 0. 1.28410915e-02
      1.20385233e-02 6.42054575e-03 3.21027287e-03 4.01284127e-03
      4.81540943e-03 1.04333870e-02 1.60513651e-02 2.40770471e-03
      6.42054575e-03 8.02568253e-03 1.68539323e-02 1.28410915e-02
      9.63081885e-03 8.82825069e-03 5.61797759e-03 1.36436597e-01
      4.81540943e-03 3.21027287e-03 4.81540943e-03 5.61797759e-03
      4.81540943e-03 4.01284127e-03 3.21027287e-03 8.02568253e-03
      1.60513644e-03 3.21027287e-03 4.81540943e-03 6.42054575e-03
      6.42054575e-03 2.40770467e-02 3.21027287e-03 1.60513644e-03
      2.00642049e-02 8.02568218e-04 2.40770471e-03 1.60513644e-03
      4.01284127e-03 2.40770471e-03 1.04333870e-02 4.81540943e-03
      1.04333870e-02 1.60513644e-03 5.61797759e-03 1.60513644e-03
      2.40770471e-03 4.81540943e-03 8.02568218e-04 8.02568218e-04 0.
      3.21027287e-03 2.40770471e-03 3.21027287e-03 3.21027287e-03
      1.28410915e-02 1.60513644e-03 6.66131601e-02 0. 4.81540943e-03
      1.60513644e-03 0. 8.02568253e-03 6.42054575e-03 4.81540943e-03
      1.84590686e-02 1.04333870e-02 5.61797759e-03 8.02568218e-04
      2.40770471e-03 8.02568218e-04 1.44462278e-02</_>
    <_>
      0. 6.10997947e-03 6.10997947e-03 0. 2.03665998e-03 8.14663991e-03
      2.85132378e-02 0. 4.07331996e-03 2.03665979e-02 4.07331996e-03
      6.10997947e-03 0. 1.42566189e-02 1.42566189e-02 1.28309578e-01
      8.14663991e-03 8.14663991e-03 1.22199589e-02 4.07331996e-03
      4.07331996e-03 4.07331996e-03 6.10997947e-03 6.10997947e-03
      2.03665998e-03 6.10997947e-03 2.03665998e-03 0. 0. 2.03665998e-03
      1.22199589e-02 1.22199589e-02 2.03665998e-03 2.03665998e-03
      2.03665998e-03 4.07331996e-03 2.24032588e-02 0. 2.03665998e-03
      1.42566189e-02 1.62932798e-02 8.14663991e-03 2.85132378e-02
      2.03665998e-03 1.42566189e-02 1.67006105e-01 6.10997947e-03
      2.03665998e-03 2.03665998e-03 0. 8.14663991e-03 0. 8.14663991e-03
      2.24032588e-02 4.07331996e-03 8.14663991e-03 2.03665998e-03
      8.14663991e-03 4.07331996e-03 4.48065177e-02 3.86965387e-02
      4.07331996e-03 1.83299389e-02 0. 0. 6.10997947e-03 4.07331996e-03
      2.03665998e-03 1.22199589e-02 4.07331996e-03 4.07331996e-03
      2.03665998e-03 4.07331996e-03 0. 8.14663991e-03 6.10997947e-03
      2.03665998e-03 0. 0. 8.14663991e-03 0. 1.01832990e-02
      6.10997947e-03 8.14663991e-03 4.07331996e-03 3.86965387e-02 0. 0.
      1.42566189e-02 0. 1.01832990e-02 2.03665998e-03 4.07331996e-03
      8.14663991e-03 4.07331996e-03 2.03665998e-03 2.03665998e-03 0.
      6.10997947e-03 1.83299389e-02</_>
    <_>
      1.08695654e-02 6.52173907e-02 0. 0. 2.17391308e-02 0. 0.
      1.08695654e-02 4.34782617e-02 1.08695654e-02 0. 1.08695654e-02 0.
      0. 0. 3.26086953e-02 0. 0. 1.08695654e-02 1.08695654e-02 0.
      1.08695654e-02 1.08695654e-02 1.08695654e-02 0. 5.43478243e-02 0.
      1.08695654e-02 0. 1.08695654e-02 6.52173907e-02 0. 0.
      1.08695654e-02 0. 0. 0. 0. 1.08695654e-02 0. 0. 1.08695654e-02 0.
      1.08695654e-02 2.17391308e-02 0. 2.17391308e-02 1.08695654e-02
      2.17391308e-02 1.08695654e-02 0. 0. 1.08695654e-02 1.08695654e-02
      0. 0. 0. 2.17391308e-02 0. 0. 3.26086953e-02 0. 1.08695654e-02 0.
      0. 0. 0. 0. 1.08695654e-02 0. 2.17391308e-02 0. 0. 1.08695654e-02
      0. 2.17391308e-02 0. 0. 0. 0. 3.26086953e-02 2.17391308e-02
      2.17391308e-02 0. 0. 2.17391308e-02 0. 0. 0. 2.17391308e-02 0.
      1.08695654e-02 2.17391308e-02 1.08695654e-02 5.43478243e-02 0. 0.
      3.26086953e-02 3.26086953e-02 3.26086953e-02</_>
    <_>
      4.29184549e-03 4.29184549e-03 0. 4.29184549e-03 4.29184549e-03
      8.58369097e-03 1.71673819e-02 4.29184549e-03 1.71673819e-02 0. 0.
      8.58369097e-03 0. 2.23175973e-01 8.58369097e-03 3.00429184e-02 0.
      0. 0. 0. 8.58369097e-03 1.28755365e-02 0. 0. 0. 0. 1.28755365e-02
      0. 4.29184549e-03 8.58369097e-03 0. 4.29184549e-03 4.29184549e-03
      0. 8.58369097e-03 0. 6.00858368e-02 0. 2.14592274e-02
      8.58369097e-03 0. 1.28755365e-02 8.58369097e-03 0. 0.
      1.37339056e-01 2.14592274e-02 0. 0. 8.58369097e-03 4.29184549e-03
      0. 0. 4.29184549e-03 4.29184549e-03 8.58369097e-03 0. 0.
      1.28755365e-02 1.28755365e-02 2.14592274e-02 8.58369097e-03
      3.86266112e-02 0. 0. 0. 4.29184549e-03 0. 4.29184549e-03 0.
      4.29184549e-03 0. 0. 0. 3.00429184e-02 0. 1.71673819e-02
      1.28755365e-02 0. 0. 0. 0. 4.29184549e-03 0. 0. 6.43776804e-02 0.
      0. 1.28755365e-02 0. 8.58369097e-03 0. 4.29184549e-03 0.
      1.71673819e-02 8.58369097e-03 0. 4.29184549e-03 4.29184549e-03
      4.29184549e-03</_>
    <_>
      0. 6.25000009e-03 0. 0. 1.25000002e-02 6.25000009e-03
      6.25000009e-03 0. 1.25000002e-02 1.25000002e-02 6.25000009e-03
      1.25000002e-02 6.25000009e-03 2.50000004e-02 6.25000009e-03
      3.12500000e-02 0. 1.25000002e-02 1.25000002e-02 0. 0.
      6.25000009e-03 1.87500007e-02 0. 0. 6.25000009e-03 6.25000009e-03
      0. 0. 1.25000002e-02 2.50000004e-02 1.25000002e-02 6.25000009e-03
      1.25000002e-02 0. 4.37499993e-02 1.25000002e-02 1.25000002e-02
      6.25000009e-03 6.25000009e-03 1.87500007e-02 1.25000002e-02
      8.12499970e-02 0. 0. 1.25000002e-02 0. 0. 1.25000002e-02
      6.25000009e-03 0. 0. 0. 2.50000004e-02 6.25000009e-03
      6.25000009e-03 6.25000009e-03 6.25000009e-03 0. 3.75000015e-02
      6.25000009e-03 6.25000009e-03 1.87500007e-02 0. 6.25000009e-03
      2.50000004e-02 2.50000004e-02 0. 1.87500007e-02 6.25000009e-03
      3.12500000e-02 0. 1.25000002e-02 0. 6.25000009e-03 0. 0. 0. 0.
      3.12500000e-02 6.25000009e-03 1.25000002e-02 1.25000002e-02
      6.25000009e-03 0. 1.87500007e-02 1.25000002e-02 6.25000009e-03
      1.25000002e-02 0. 6.25000009e-03 0. 1.87500007e-02 3.12500000e-02
      6.25000009e-03 3.12500000e-02 6.25000009e-03 1.25000002e-02
      6.25000009e-03 1.25000002e-02</_>
    <_>
      4.00000019e-03 1.20000001e-02 8.00000038e-03 0. 0. 4.00000019e-03
      4.00000019e-03 0. 4.00000019e-03 1.60000008e-02 0. 1.60000008e-02
      1.60000008e-02 8.00000038e-03 8.00000038e-03 5.99999987e-02
      4.00000019e-03 0. 2.80000009e-02 4.00000019e-03 8.00000038e-03 0.
      1.99999996e-02 8.00000038e-03 0. 1.20000001e-02 8.00000038e-03 0.
      1.20000001e-02 3.20000015e-02 1.60000008e-02 0. 8.00000038e-03
      4.00000019e-03 4.00000019e-03 4.00000019e-03 1.99999996e-02
      1.60000008e-02 2.40000002e-02 0. 1.20000001e-02 8.00000038e-03
      3.20000015e-02 4.00000019e-03 1.20000001e-02 8.00000038e-03
      1.20000001e-02 4.00000019e-03 4.00000019e-03 8.00000038e-03
      1.60000008e-02 0. 8.00000038e-03 3.20000015e-02 1.20000001e-02
      4.00000019e-03 4.00000019e-03 4.00000019e-03 0. 1.99999996e-02 0.
      2.40000002e-02 1.20000001e-02 4.00000019e-03 1.20000001e-02 0.
      4.00000019e-03 0. 1.20000001e-02 1.20000001e-02 1.20000001e-02 0.
      1.60000008e-02 1.60000008e-02 1.99999996e-02 4.00000019e-03
      1.60000008e-02 1.20000001e-02 0. 1.20000001e-02 0. 0. 0.
      4.00000019e-03 8.00000038e-03 6.40000030e-02 8.00000038e-03
      8.00000038e-03 8.00000038e-03 0. 8.00000038e-03 8.00000038e-03
      8.00000038e-03 1.99999996e-02 1.60000008e-02 4.00000019e-03
      4.00000019e-03 4.00000019e-03 2.40000002e-02 1.99999996e-02</_>
    <_>
      1.67785236e-03 1.00671137e-02 8.38926155e-03 1.67785236e-03
      6.71140943e-03 3.35570471e-03 1.84563752e-02 5.03355684e-03
      1.00671137e-02 2.68456377e-02 0. 0. 0. 2.51677856e-02
      1.34228189e-02 2.68456377e-02 1.67785236e-03 1.00671137e-02
      8.38926155e-03 5.03355684e-03 1.00671137e-02 5.03355684e-03
      5.03355684e-03 6.71140943e-03 3.35570471e-03 1.00671137e-02
      3.52348983e-02 1.67785236e-03 5.03355684e-03 1.67785231e-02
      1.17449667e-02 6.71140943e-03 5.03355684e-03 3.35570471e-03
      1.00671137e-02 5.03355684e-03 4.86577190e-02 3.35570471e-03
      6.71140943e-03 1.00671137e-02 6.71140943e-03 1.84563752e-02
      4.19463105e-02 1.00671137e-02 3.35570471e-03 1.07382551e-01
      5.03355684e-03 0. 1.17449667e-02 0. 1.67785236e-03 6.71140943e-03
      1.51006710e-02 2.85234898e-02 1.67785236e-03 5.03355684e-03 0.
      1.67785236e-03 3.35570471e-03 1.00671137e-02 5.03355684e-03
      3.35570471e-03 8.38926155e-03 0. 0. 0. 3.35570471e-03
      1.67785236e-03 5.03355684e-03 8.38926155e-03 2.01342274e-02
      5.03355684e-03 6.71140943e-03 5.03355684e-03 2.51677856e-02
      1.67785236e-03 8.38926155e-03 0. 3.35570471e-03 8.38926155e-03
      5.03355684e-03 1.67785236e-03 1.17449667e-02 8.38926155e-03
      5.03355684e-03 5.70469797e-02 3.35570471e-03 1.67785236e-03
      1.51006710e-02 6.71140943e-03 6.71140943e-03 1.67785236e-03
      5.03355684e-03 5.03355684e-03 1.51006710e-02 6.71140943e-03
      3.35570471e-03 3.35570471e-03 6.71140943e-03 4.02684547e-02</_>
    <_>
      8.62068962e-03 1.72413792e-02 0. 0. 8.62068962e-03 0.
      1.72413792e-02 0. 2.58620698e-02 1.72413792e-02 8.62068962e-03 0.
      0. 1.72413792e-02 1.72413792e-02 4.31034490e-02 0. 1.72413792e-02
      0. 0. 2.58620698e-02 8.62068962e-03 4.31034490e-02 8.62068962e-03
      8.62068962e-03 0. 0. 0. 0. 0. 0. 3.44827585e-02 0. 0. 0.
      8.62068962e-03 2.58620698e-02 0. 1.72413792e-02 8.62068962e-03
      1.72413792e-02 8.62068962e-03 6.03448264e-02 2.58620698e-02 0.
      7.75862038e-02 1.72413792e-02 0. 1.72413792e-02 8.62068962e-03
      8.62068962e-03 0. 8.62068962e-03 5.17241396e-02 8.62068962e-03 0.
      0. 8.62068962e-03 8.62068962e-03 1.72413792e-02 8.62068962e-03
      8.62068962e-03 8.62068962e-03 0. 0. 0. 8.62068962e-03 0. 0.
      2.58620698e-02 1.72413792e-02 0. 0. 0. 8.62068962e-03
      1.72413792e-02 0. 0. 0. 1.72413792e-02 0. 0. 8.62068962e-03
      1.72413792e-02 0. 1.72413792e-02 8.62068962e-03 0. 0.
      8.62068962e-03 3.44827585e-02 8.62068962e-03 0. 1.72413792e-02
      8.62068962e-03 0. 0. 0. 8.62068962e-03 8.62068962e-03</_>
    <_>
      2.12765951e-02 1.27659570e-02 4.25531901e-03 4.25531901e-03 0.
      1.27659570e-02 8.51063803e-03 0. 4.25531901e-03 1.70212761e-02
      4.25531901e-03 0. 1.27659570e-02 2.12765951e-02 8.51063803e-03
      3.40425521e-02 0. 4.25531901e-03 8.51063803e-03 4.25531901e-03
      4.25531901e-03 2.55319141e-02 8.51063803e-03 0. 0. 1.70212761e-02
      8.51063803e-03 0. 1.27659570e-02 2.97872350e-02 1.70212761e-02
      1.70212761e-02 1.27659570e-02 0. 4.25531901e-03 4.25531901e-03
      8.51063803e-03 4.25531901e-03 4.25531901e-03 4.25531901e-03
      8.51063803e-03 1.27659570e-02 2.12765951e-02 2.12765951e-02
      1.70212761e-02 2.97872350e-02 8.51063803e-03 4.25531901e-03
      1.27659570e-02 8.51063803e-03 0. 4.25531901e-03 0. 2.97872350e-02
      0. 4.25531901e-03 4.25531901e-03 2.55319141e-02 4.25531901e-03
      4.25531901e-03 8.51063803e-03 1.70212761e-02 2.97872350e-02 0. 0.
      0. 8.51063803e-03 0. 8.51063803e-03 1.70212761e-02 2.12765951e-02
      1.27659570e-02 1.27659570e-02 8.51063803e-03 1.27659570e-02
      1.27659570e-02 8.51063803e-03 1.27659570e-02 8.51063803e-03
      1.70212761e-02 0. 4.25531901e-03 1.27659570e-02 4.25531901e-03
      1.70212761e-02 3.82978730e-02 1.27659570e-02 8.51063803e-03
      4.25531901e-03 0. 4.25531901e-03 4.25531901e-03 1.27659570e-02
      2.97872350e-02 0. 1.27659570e-02 1.27659570e-02 0. 4.25531901e-03
      1.27659570e-02</_>
    <_>
      4.44444455e-02 4.44444455e-02 4.44444455e-02 2.22222228e-02 0. 0.
      0. 0. 0. 0. 0. 2.22222228e-02 2.22222228e-02 4.44444455e-02 0.
      2.22222228e-02 0. 0. 0. 0. 0. 0. 2.22222228e-02 0. 0. 0. 0. 0. 0.
      0. 0. 2.22222228e-02 0. 0. 0. 2.22222228e-02 0. 0. 0. 0. 0. 0.
      1.11111112e-01 2.22222228e-02 0. 0. 0. 0. 6.66666701e-02 0. 0. 0.
      2.22222228e-02 4.44444455e-02 0. 0. 0. 2.22222228e-02 0. 0. 0. 0.
      0. 0. 0. 0. 0. 0. 0. 0. 4.44444455e-02 0. 2.22222228e-02 0. 0.
      4.44444455e-02 0. 0. 0. 0. 0. 0. 2.22222228e-02 4.44444455e-02 0.
      6.66666701e-02 0. 0. 0. 0. 4.44444455e-02 0. 2.22222228e-02
      4.44444455e-02 0. 0. 0. 2.22222228e-02 0. 0.</_>
    <_>
      0. 0. 0. 9.61538497e-03 2.88461540e-02 0. 9.61538497e-03 0. 0. 0.
      9.61538497e-03 0. 0. 5.76923080e-02 0. 1.53846160e-01 0.
      9.61538497e-03 0. 0. 2.88461540e-02 9.61538497e-03 0. 0. 0. 0.
      9.61538497e-03 0. 0. 9.61538497e-03 0. 9.61538497e-03 0. 0. 0.
      9.61538497e-03 9.61538497e-03 1.92307699e-02 0. 0. 0.
      1.92307699e-02 6.73076957e-02 9.61538497e-03 0. 2.01923072e-01 0.
      0. 9.61538497e-03 0. 1.92307699e-02 0. 1.92307699e-02
      9.61538497e-03 0. 2.88461540e-02 0. 0. 0. 9.61538497e-03 0. 0.
      5.76923080e-02 0. 0. 0. 0. 0. 0. 0. 0. 0. 0. 0. 9.61538497e-03 0.
      0. 0. 0. 9.61538497e-03 0. 0. 3.84615399e-02 0. 9.61538497e-03
      9.61538497e-03 9.61538497e-03 1.92307699e-02 0. 0. 9.61538497e-03
      0. 0. 0. 9.61538497e-03 1.92307699e-02 9.61538497e-03 0. 0.
      9.61538497e-03</_>
    <_>
      1.73796788e-02 1.06951874e-02 2.67379684e-03 0. 6.68449188e-03 0.
      2.94117648e-02 1.33689842e-03 8.02139007e-03 9.62566808e-02
      5.34759369e-03 0. 2.67379684e-03 8.02139007e-03 5.34759369e-03
      3.34224589e-02 1.33689842e-03 8.28877017e-02 1.33689842e-03 0. 0.
      5.48128337e-02 1.33689842e-03 0. 1.33689842e-03 1.33689842e-03 0.
      0. 1.33689842e-03 1.33689842e-03 1.33689842e-03 2.67379684e-03 0.
      1.33689842e-03 6.68449188e-03 1.33689842e-03 2.27272734e-02 0. 0.
      8.82352963e-02 9.62566808e-02 2.67379684e-03 8.02139007e-03
      2.67379684e-03 1.33689842e-03 1.99197859e-01 1.33689842e-03 0.
      2.67379684e-03 2.67379684e-03 2.67379684e-03 5.34759369e-03
      1.33689842e-03 1.33689842e-03 0. 0. 0. 1.33689838e-02 0.
      1.33689838e-02 1.33689842e-03 0. 0. 0. 0. 0. 2.67379684e-03 0. 0.
      0. 0. 0. 0. 0. 0. 0. 0. 0. 1.33689842e-03 0. 0. 1.33689842e-03
      2.67379684e-03 1.33689842e-03 0. 1.60427801e-02 0. 0.
      9.35828872e-03 2.67379684e-03 2.67379684e-03 0. 1.33689842e-03
      1.33689842e-03 1.33689842e-03 2.67379684e-03 1.33689842e-03
      2.67379684e-03 0. 9.49197859e-02</_>
    <_>
      0. 0. 0. 0. 0. 1.25000000e-01 0. 0. 0. 0. 0. 0. 2.50000000e-01 0.
      0. 0. 0. 1.25000000e-01 0. 0. 0. 0. 0. 0. 0. 0. 0. 0. 0. 0. 0. 0.
      0. 0. 0. 0. 0. 0. 1.25000000e-01 0. 1.25000000e-01 0.
      2.50000000e-01 0. 0. 0. 0. 0. 0. 0. 0. 0. 0. 0. 0. 0. 0. 0. 0. 0.
      0. 0. 0. 0. 0. 0. 0. 0. 0. 0. 0. 0. 0. 0. 0. 0. 0. 0. 0. 0. 0. 0.
      0. 0. 0. 0. 0. 0. 0. 0. 0. 0. 0. 0. 0. 0. 0. 0. 0. 0.</_>
    <_>
      0. 3.64963501e-03 7.29927002e-03 0. 1.09489048e-02 0.
      1.82481743e-02 0. 7.29927002e-03 5.10948896e-02 0. 0.
      7.29927002e-03 7.66423345e-02 4.74452563e-02 1.60583943e-01 0.
      2.91970801e-02 0. 0. 0. 3.64963487e-02 3.64963501e-03 0. 0. 0.
      3.64963501e-03 3.64963501e-03 3.64963501e-03 0. 0. 1.09489048e-02
      0. 0. 0. 3.64963501e-03 2.91970801e-02 0. 7.29927002e-03
      6.20437972e-02 1.09489048e-02 7.29927002e-03 1.82481743e-02
      1.09489048e-02 0. 1.31386861e-01 3.64963501e-03 0. 7.29927002e-03
      0. 0. 0. 0. 2.18978096e-02 0. 0. 0. 1.45985400e-02 1.09489048e-02
      3.64963501e-03 3.64963501e-03 0. 1.82481743e-02 0. 0. 0. 0. 0.
      3.64963501e-03 0. 7.29927002e-03 0. 0. 0. 3.64963501e-03 0. 0.
      3.64963501e-03 0. 0. 0. 0. 1.82481743e-02 3.64963501e-03
      3.64963501e-03 1.82481743e-02 0. 3.64963501e-03 3.64963501e-03 0.
      1.82481743e-02 0. 0. 3.64963501e-03 7.29927002e-03 3.64963501e-03
      0. 0. 0. 5.10948896e-02</_>
    <_>
      0. 0. 0. 0. 0. 0. 0. 0. 0. 3.57142873e-02 0. 0. 0. 3.57142873e-02
      0. 2.14285716e-01 3.57142873e-02 3.57142873e-02 0. 0. 0. 0. 0. 0.
      0. 0. 0. 0. 0. 0. 0. 0. 3.57142873e-02 0. 0. 0. 1.78571437e-02
      1.78571437e-02 1.78571437e-02 1.78571437e-02 1.78571437e-02
      1.78571437e-02 0. 3.57142873e-02 0. 0. 0. 0. 1.78571437e-02 0. 0.
      0. 0. 1.25000000e-01 3.57142873e-02 0. 0. 1.78571437e-02 0. 0. 0.
      0. 0. 0. 0. 0. 0. 0. 0. 5.35714291e-02 0. 0. 3.57142873e-02 0. 0.
      0. 1.78571437e-02 0. 0. 0. 0. 3.57142873e-02 0. 0. 1.78571437e-02
      3.57142873e-02 0. 0. 0. 0. 0. 0. 0. 7.14285746e-02 0. 0. 0. 0. 0.
      0.</_>
    <_>
      2.63157897e-02 0. 5.26315793e-02 0. 0. 0. 2.63157897e-02 0.
      1.31578948e-02 0. 0. 0. 3.94736826e-02 0. 6.57894760e-02
      2.63157897e-02 0. 1.31578948e-02 5.26315793e-02 0. 0.
      1.31578948e-02 1.31578948e-02 3.94736826e-02 0. 0. 5.26315793e-02
      0. 0. 1.31578948e-02 0. 1.31578948e-02 0. 0. 3.94736826e-02 0. 0.
      0. 0. 6.57894760e-02 0. 1.31578948e-02 3.94736826e-02
      2.63157897e-02 0. 6.57894760e-02 0. 0. 1.31578948e-02 0. 0.
      1.31578948e-02 0. 3.94736826e-02 0. 0. 0. 2.63157897e-02 0. 0.
      1.31578948e-02 0. 0. 0. 0. 0. 0. 0. 0. 0. 0. 0. 0. 0. 0. 0.
      1.31578948e-02 0. 0. 0. 0. 1.31578948e-02 1.31578948e-02 0. 0.
      1.31578948e-02 0. 0. 2.63157897e-02 0. 0. 3.94736826e-02 0.
      1.31578948e-02 1.31578948e-02 1.31578948e-02 0. 0. 1.31578948e-02
      1.31578948e-02</_>
    <_>
      0. 0. 0. 0. 0. 0. 0. 0. 0. 0. 0. 0. 0. 0. 0. 0. 0. 1.66666672e-01
      0. 0. 0. 0. 0. 0. 0. 0. 0. 0. 0. 0. 0. 0. 0. 0. 1.66666672e-01 0.
      0. 0. 0. 0. 1.66666672e-01 0. 0. 0. 0. 0. 0. 0. 0. 0. 0. 0. 0. 0.
      0. 0. 0. 0. 0. 0. 0. 0. 0. 0. 0. 0. 0. 0. 0. 0. 0. 0. 0. 0. 0. 0.
      0. 0. 1.66666672e-01 0. 0. 0. 0. 0. 0. 0. 0. 0. 0. 0. 0. 0. 0.
      1.66666672e-01 1.66666672e-01 0. 0. 0. 0. 0.</_>
    <_>
      2.10526325e-02 0. 2.10526325e-02 0. 0. 0. 2.10526325e-02 0. 0. 0.
      0. 0. 2.10526325e-02 0. 0. 1.78947374e-01 0. 1.05263162e-02
      4.21052650e-02 1.05263162e-02 0. 2.10526325e-02 0. 0. 0.
      2.10526325e-02 3.15789469e-02 0. 0. 0. 3.15789469e-02
      1.05263162e-02 0. 0. 0. 0. 0. 0. 0. 3.15789469e-02 0. 0.
      7.36842081e-02 3.15789469e-02 0. 1.05263162e-02 0. 3.15789469e-02
      0. 0. 0. 1.05263162e-02 3.15789469e-02 1.05263162e-02 0. 0. 0.
      5.26315793e-02 0. 0. 0. 0. 2.10526325e-02 0. 0. 0. 0. 0. 0. 0. 0.
      0. 2.10526325e-02 0. 0. 5.26315793e-02 0. 0. 1.05263162e-02 0. 0.
      0. 0. 0. 3.15789469e-02 7.36842081e-02 0. 0. 0. 0. 1.05263162e-02
      0. 0. 3.15789469e-02 2.10526325e-02 0. 0. 0. 0. 0.</_>
    <_>
      0. 5.00000007e-02 0. 0. 0. 0. 2.50000004e-02 0. 2.50000004e-02
      2.50000004e-02 0. 0. 0. 0. 0. 2.50000004e-02 2.50000004e-02
      5.00000007e-02 2.50000004e-02 2.50000004e-02 0. 2.50000004e-02 0.
      0. 0. 0. 0. 0. 0. 0. 0. 0. 0. 0. 2.50000004e-02 0. 2.50000004e-02
      0. 0. 0. 2.50000004e-02 0. 7.50000030e-02 5.00000007e-02 0.
      2.50000004e-02 0. 0. 2.50000004e-02 2.50000004e-02 0.
      2.50000004e-02 0. 7.50000030e-02 0. 0. 0. 2.50000004e-02 0.
      7.50000030e-02 2.50000004e-02 0. 0. 0. 0. 0. 2.50000004e-02 0. 0.
      2.50000004e-02 0. 0. 0. 0. 0. 0. 0. 0. 0. 0. 0. 0. 0. 0. 0.
      2.50000004e-02 0. 0. 2.50000004e-02 0. 2.50000004e-02
      5.00000007e-02 0. 0. 0. 0. 0. 0. 0. 2.50000004e-02</_>
    <_>
      0. 0. 0. 0. 9.34579410e-03 0. 3.73831764e-02 0. 9.34579410e-03
      6.54205605e-02 1.86915882e-02 0. 9.34579410e-03 1.21495329e-01
      9.34579410e-03 1.86915882e-02 0. 3.73831764e-02 9.34579410e-03 0.
      0. 1.86915882e-02 0. 9.34579410e-03 0. 0. 9.34579410e-03 0. 0. 0.
      0. 9.34579410e-03 0. 0. 9.34579410e-03 0. 5.60747646e-02 0. 0.
      5.60747646e-02 2.80373823e-02 0. 1.86915882e-02 3.73831764e-02 0.
      9.34579447e-02 0. 0. 0. 0. 0. 1.86915882e-02 9.34579410e-03 0. 0.
      0. 0. 2.80373823e-02 2.80373823e-02 9.34579410e-03 1.12149529e-01
      0. 0. 0. 0. 0. 0. 0. 0. 0. 0. 0. 0. 0. 0. 0. 0. 9.34579410e-03 0.
      0. 0. 0. 2.80373823e-02 9.34579410e-03 0. 0. 0. 0. 0. 0.
      9.34579410e-03 0. 0. 0. 9.34579410e-03 0. 0. 0. 0. 3.73831764e-02</_>
    <_>
      0. 7.51879718e-03 0. 0. 0. 0. 0. 2.25563906e-02 0. 0. 0. 0. 0.
      7.51879718e-03 2.25563906e-02 9.02255625e-02 0. 7.51879718e-03
      3.00751887e-02 0. 1.50375944e-02 0. 3.00751887e-02 0.
      7.51879718e-03 0. 1.50375944e-02 7.51879718e-03 0. 0.
      7.51879662e-02 7.51879718e-03 7.51879718e-03 0. 7.51879718e-03
      3.00751887e-02 0. 7.51879718e-03 5.26315793e-02 0. 7.51879718e-03
      1.50375944e-02 4.51127812e-02 7.51879718e-03 0. 7.51879718e-03 0.
      0. 0. 7.51879718e-03 0. 1.50375944e-02 2.25563906e-02
      2.25563906e-02 7.51879718e-03 0. 0. 7.51879718e-03 1.50375944e-02
      3.00751887e-02 0. 7.51879718e-03 0. 0. 0. 0. 0. 0. 0. 0.
      4.51127812e-02 7.51879718e-03 0. 7.51879718e-03 0. 7.51879718e-03
      0. 0. 0. 0. 2.25563906e-02 0. 0. 2.25563906e-02 3.00751887e-02
      9.77443606e-02 0. 7.51879718e-03 0. 0. 3.00751887e-02 0. 0.
      4.51127812e-02 0. 0. 0. 0. 0. 7.51879718e-03</_>
    <_>
      1.04166670e-02 0. 0. 0. 0. 1.04166670e-02 0. 0. 0. 6.25000000e-02
      0. 0. 0. 1.04166670e-02 0. 9.37500000e-02 0. 0. 2.08333340e-02 0.
      2.08333340e-02 2.08333340e-02 1.04166670e-02 0. 3.12500000e-02 0.
      0. 1.04166670e-02 1.04166670e-02 0. 0. 1.04166670e-02
      1.04166670e-02 0. 1.04166670e-02 0. 2.08333340e-02 0.
      1.04166670e-02 5.20833321e-02 5.20833321e-02 1.04166670e-02
      7.29166642e-02 1.04166670e-02 0. 1.66666672e-01 0. 0.
      1.04166670e-02 0. 0. 0. 0. 2.08333340e-02 0. 0. 0. 0. 0.
      1.04166670e-02 1.04166670e-02 3.12500000e-02 2.08333340e-02 0. 0.
      0. 0. 0. 0. 1.04166670e-02 0. 0. 0. 0. 0. 0. 0. 0. 0. 0. 0. 0. 0.
      1.04166670e-02 0. 2.08333340e-02 0. 0. 3.12500000e-02 0. 0. 0.
      1.04166670e-02 1.04166670e-02 1.04166670e-02 1.04166670e-02 0. 0.
      0. 4.16666679e-02</_>
    <_>
      0. 0. 7.14285746e-02 0. 0. 0. 0. 0. 0. 0. 0. 0. 0. 0. 0.
      2.14285716e-01 0. 0. 0. 0. 0. 7.14285746e-02 0. 0. 0. 0. 0. 0. 0.
      0. 0. 0. 0. 0. 0. 0. 0. 0. 0. 0. 0. 0. 0. 0. 0. 0. 0. 0. 0. 0. 0.
      0. 0. 7.14285746e-02 0. 0. 0. 0. 0. 1.42857149e-01 0. 0. 0. 0. 0.
      7.14285746e-02 0. 0. 0. 0. 0. 0. 0. 0. 1.42857149e-01 0. 0. 0. 0.
      0. 0. 0. 0. 0. 0. 7.14285746e-02 0. 0. 0. 7.14285746e-02 0. 0. 0.
      0. 0. 0. 0. 0. 0. 7.14285746e-02</_>
    <_>
      1.03092780e-02 2.06185561e-02 0. 1.03092780e-02 0. 0.
      3.09278350e-02 1.03092780e-02 2.06185561e-02 2.06185561e-02 0. 0.
      0. 4.12371121e-02 0. 2.06185561e-02 0. 3.09278350e-02 0. 0. 0.
      3.09278350e-02 0. 0. 0. 0. 0. 0. 1.03092780e-02 0. 0.
      2.06185561e-02 0. 0. 0. 4.12371121e-02 2.06185561e-02
      1.03092780e-02 2.06185561e-02 1.03092782e-01 0. 1.03092780e-02
      9.27835032e-02 0. 0. 1.23711340e-01 1.03092780e-02 0.
      2.06185561e-02 1.03092780e-02 0. 2.06185561e-02 0. 0. 0. 0. 0. 0.
      0. 0. 2.06185561e-02 1.03092780e-02 0. 0. 0. 0. 2.06185561e-02
      1.03092780e-02 0. 0. 0. 0. 0. 0. 0. 0. 0. 0. 1.03092780e-02 0. 0.
      0. 7.21649453e-02 1.03092780e-02 0. 0. 0. 0. 1.03092780e-02
      1.03092780e-02 2.06185561e-02 0. 0. 1.03092780e-02 0. 0. 0. 0. 0.
      3.09278350e-02</_>
    <_>
      1.77935939e-02 2.49110311e-02 7.11743766e-03 0. 0. 0. 0.
      3.55871883e-03 3.55871883e-03 2.49110311e-02 0. 0. 0. 0.
      3.55871883e-03 2.45551601e-01 3.55871883e-03 1.10320285e-01
      1.06761567e-02 0. 0. 0. 0. 0. 0. 0. 0. 3.55871883e-03 0.
      3.55871883e-03 1.42348753e-02 0. 7.11743766e-03 0. 3.55871883e-03
      1.06761567e-02 0. 0. 3.55871883e-03 0. 7.11743766e-03 0.
      2.13523135e-02 7.11743766e-03 0. 3.20284702e-02 0. 3.55871883e-03
      0. 0. 3.55871883e-03 0. 7.11743766e-03 3.20284702e-02 0. 0. 0.
      1.77935939e-02 0. 5.69395013e-02 7.11743766e-03 0. 3.55871883e-03
      0. 0. 0. 0. 0. 0. 0. 3.55871883e-03 0. 5.69395013e-02 0. 0. 0. 0.
      0. 0. 3.55871883e-03 3.55871883e-03 0. 0. 1.42348753e-02
      3.55871883e-03 1.03202850e-01 0. 3.55871883e-03 3.55871883e-03 0.
      3.55871883e-03 0. 0. 7.82918185e-02 7.11743766e-03 3.55871883e-03
      0. 0. 0. 1.06761567e-02</_>
    <_>
      4.34782617e-02 1.30434781e-01 0. 0. 0. 0. 4.34782617e-02 0.
      4.34782617e-02 0. 0. 0. 0. 0. 8.69565234e-02 0. 0. 0. 0. 0. 0. 0.
      0. 0. 0. 0. 0. 4.34782617e-02 0. 0. 4.34782617e-02 0. 0. 0.
      1.30434781e-01 0. 4.34782617e-02 0. 0. 0. 0. 0. 4.34782617e-02 0.
      0. 0. 0. 0. 0. 4.34782617e-02 4.34782617e-02 4.34782617e-02 0. 0.
      0. 0. 0. 4.34782617e-02 0. 0. 4.34782617e-02 0. 0. 0. 0. 0. 0. 0.
      0. 0. 0. 0. 0. 0. 0. 0. 0. 0. 0. 0. 0. 0. 0. 0. 0. 0. 0. 0. 0. 0.
      4.34782617e-02 8.69565234e-02 0. 0. 0. 0. 0. 0. 0. 0.</_>
    <_>
      0. 1.96078438e-02 0. 0. 0. 1.96078438e-02 0. 0. 0. 1.96078438e-02
      3.92156877e-02 0. 0. 0. 3.92156877e-02 3.92156877e-02 0. 0.
      1.96078438e-02 0. 0. 0. 0. 0. 1.96078438e-02 0. 1.96078438e-02 0.
      0. 1.96078438e-02 1.96078438e-02 0. 0. 0. 0. 0. 1.96078438e-02
      1.96078438e-02 1.96078438e-02 0. 0. 0. 1.96078438e-02
      1.96078438e-02 3.92156877e-02 1.96078438e-02 1.96078438e-02 0.
      1.96078438e-02 0. 0. 0. 3.92156877e-02 3.92156877e-02 0. 0. 0. 0.
      0. 1.96078438e-02 3.92156877e-02 0. 0. 0. 0. 1.96078438e-02
      1.96078438e-02 0. 3.92156877e-02 0. 0. 0. 1.96078438e-02 0. 0. 0.
      0. 0. 1.96078438e-02 3.92156877e-02 0. 0. 1.96078438e-02 0.
      1.96078438e-02 1.96078438e-02 1.96078438e-02 0. 5.88235296e-02 0.
      0. 0. 3.92156877e-02 0. 0. 0. 1.96078438e-02 1.96078438e-02 0.
      1.96078438e-02</_>
    <_>
      2.18978096e-02 7.29927002e-03 1.45985400e-02 7.29927002e-03 0. 0.
      7.29927002e-03 0. 1.45985400e-02 7.29927002e-03 0. 0.
      1.45985400e-02 1.45985400e-02 1.45985400e-02 7.29926974e-02 0.
      7.29927002e-03 2.18978096e-02 0. 7.29927002e-03 2.18978096e-02 0.
      0. 7.29927002e-03 2.18978096e-02 7.29927002e-03 0. 0.
      2.91970801e-02 7.29927002e-03 2.18978096e-02 7.29927002e-03 0.
      7.29927002e-03 7.29927002e-03 7.29927002e-03 0. 7.29927002e-03
      1.45985400e-02 7.29927002e-03 0. 4.37956192e-02 1.45985400e-02 0.
      7.29927002e-03 0. 7.29927002e-03 1.45985400e-02 1.45985400e-02 0.
      1.45985400e-02 7.29927002e-03 2.18978096e-02 7.29927002e-03
      7.29927002e-03 0. 2.18978096e-02 7.29927002e-03 7.29927002e-03
      7.29927002e-03 1.45985400e-02 7.29927002e-03 0. 0. 0.
      7.29927002e-03 1.45985400e-02 7.29927002e-03 1.45985400e-02 0. 0.
      7.29927002e-03 7.29927002e-03 0. 0. 0. 0. 7.29927002e-03 0. 0.
      7.29927002e-03 1.45985400e-02 3.64963487e-02 0. 8.02919716e-02 0.
      7.29927002e-03 0. 7.29927002e-03 5.10948896e-02 0. 2.18978096e-02
      2.91970801e-02 1.45985400e-02 1.45985400e-02 7.29927002e-03 0. 0.
      7.29927002e-03</_>
    <_>
      4.57665883e-03 1.14416480e-02 4.57665883e-03 6.86498871e-03
      4.57665883e-03 2.28832942e-03 4.11899313e-02 0. 9.15331766e-03
      9.15331766e-03 2.28832942e-03 2.28832942e-03 6.86498871e-03
      8.92448500e-02 1.37299774e-02 3.20366137e-02 2.28832942e-03
      9.15331766e-03 1.14416480e-02 0. 2.28832942e-03 1.14416480e-02
      6.86498871e-03 6.86498871e-03 4.57665883e-03 6.86498871e-03
      2.28832942e-03 4.57665883e-03 4.57665883e-03 9.15331766e-03
      4.57665883e-03 2.28832942e-03 0. 0. 9.15331766e-03 4.57665883e-03
      8.23798627e-02 6.86498871e-03 6.86498871e-03 2.28832960e-02
      4.57665883e-03 9.15331766e-03 5.26315793e-02 1.60183068e-02
      4.57665883e-03 1.46453083e-01 4.57665883e-03 6.86498871e-03
      2.28832942e-03 4.57665883e-03 0. 0. 0. 2.74599548e-02
      2.28832942e-03 6.86498871e-03 0. 6.86498871e-03 4.57665883e-03
      1.14416480e-02 2.05949657e-02 6.86498871e-03 1.14416480e-02
      2.28832942e-03 4.57665883e-03 2.28832942e-03 4.57665883e-03 0. 0.
      6.86498871e-03 2.28832942e-03 0. 0. 2.28832942e-03 2.28832942e-03
      0. 4.57665883e-03 6.86498871e-03 0. 0. 0. 4.57665883e-03
      1.60183068e-02 1.14416480e-02 0. 9.15331766e-03 0. 0.
      2.74599548e-02 2.28832942e-03 2.28832942e-03 6.86498871e-03
      4.11899313e-02 4.57665883e-03 0. 2.28832942e-03 2.28832942e-03 0.
      0. 1.83066353e-02</_>
    <_>
      1.36116156e-02 7.25952815e-03 9.07441019e-04 0. 0. 9.07441019e-04
      1.08892918e-02 1.81488204e-03 6.35208702e-03 8.25771317e-02 0.
      9.07441019e-04 1.45190563e-02 1.63339376e-02 9.98185109e-03
      1.14337571e-01 0. 2.26860251e-02 9.98185109e-03 9.07441019e-04
      1.81488204e-03 2.35934667e-02 1.81488204e-03 3.62976408e-03
      9.07441019e-04 0. 1.27041740e-02 9.07441019e-04 9.07441019e-04
      7.25952815e-03 2.72232294e-03 1.08892918e-02 9.07441019e-04
      9.07441019e-04 1.17967334e-02 0. 1.63339376e-02 0. 4.53720521e-03
      1.63339376e-02 6.44283146e-02 4.53720521e-03 9.07441042e-03
      9.07441042e-03 0. 1.37931034e-01 9.07441019e-04 0. 3.62976408e-03
      9.07441019e-04 1.81488204e-03 9.07441019e-04 6.35208702e-03
      2.26860251e-02 9.07441019e-04 9.07441019e-04 9.07441019e-04
      1.45190563e-02 0. 5.26315793e-02 1.45190563e-02 1.81488204e-03
      9.07441042e-03 0. 0. 0. 1.81488204e-03 0. 9.07441019e-04
      9.07441019e-04 3.62976408e-03 0. 0. 0. 1.81488204e-03 0.
      9.07441019e-04 9.07441019e-04 9.07441019e-04 9.07441019e-04 0. 0.
      6.35208702e-03 4.53720521e-03 1.81488204e-03 7.16878399e-02 0.
      2.72232294e-03 1.08892918e-02 3.62976408e-03 9.98185109e-03
      1.81488204e-03 9.07441019e-04 1.45190563e-02 2.72232294e-03
      5.44464588e-03 9.07441019e-04 0. 9.07441019e-04 5.89836650e-02</_>
    <_>
      9.07029491e-03 1.13378689e-02 1.36054419e-02 2.26757373e-03
      2.26757373e-03 6.80272095e-03 2.26757373e-03 4.53514745e-03
      1.58730168e-02 4.53514745e-03 6.80272095e-03 0. 4.53514745e-03
      5.44217676e-02 2.04081628e-02 3.17460336e-02 2.26757373e-03
      9.07029491e-03 6.80272095e-03 2.26757373e-03 6.80272095e-03
      4.53514745e-03 9.07029491e-03 6.80272095e-03 0. 1.13378689e-02
      4.53514745e-03 0. 4.53514745e-03 9.07029491e-03 1.58730168e-02
      2.72108838e-02 4.53514745e-03 2.26757373e-03 1.13378689e-02
      4.53514745e-03 1.81405898e-02 4.53514745e-03 6.80272095e-03
      9.07029491e-03 4.53514745e-03 1.13378689e-02 4.76190485e-02
      1.36054419e-02 0. 1.67800456e-01 2.26757373e-03 9.07029491e-03
      4.53514745e-03 6.80272095e-03 4.53514745e-03 1.81405898e-02
      1.81405898e-02 1.13378689e-02 2.26757373e-03 2.26757373e-03 0.
      2.26757373e-03 9.07029491e-03 9.07029491e-03 9.07029491e-03
      2.26757373e-03 0. 2.26757373e-03 0. 4.53514745e-03 4.53514745e-03
      4.53514745e-03 2.26757373e-03 2.26757373e-03 1.13378689e-02
      4.53514745e-03 1.13378689e-02 2.26757373e-03 4.53514745e-03
      9.07029491e-03 0. 2.26757373e-03 6.80272095e-03 2.26757373e-03
      1.13378689e-02 1.36054419e-02 1.36054419e-02 1.58730168e-02 0.
      1.58730168e-02 0. 2.26757373e-03 2.26757373e-03 0. 1.58730168e-02
      2.26757373e-03 2.26757377e-02 2.49433108e-02 1.36054419e-02
      1.58730168e-02 0. 0. 1.36054419e-02 1.36054419e-02</_>
    <_>
      3.99999991e-02 0. 0. 0. 0. 0. 3.99999991e-02 0. 0. 7.99999982e-02
      0. 0. 0. 1.99999996e-02 1.99999996e-02 0. 0. 0. 0. 0. 0. 0. 0. 0.
      0. 0. 0. 0. 0. 0. 0. 0. 0. 0. 0. 5.99999987e-02 1.99999996e-02
      1.99999996e-02 0. 0. 5.99999987e-02 1.99999996e-02 0.
      1.99999996e-02 0. 1.99999996e-02 0. 0. 1.99999996e-02 0. 0. 0. 0.
      1.99999996e-02 0. 0. 0. 7.99999982e-02 0. 7.99999982e-02 0.
      1.99999996e-02 0. 0. 0. 0. 0. 0. 0. 0. 1.99999996e-02
      1.99999996e-02 0. 0. 0. 0. 1.99999996e-02 0. 1.99999996e-02
      1.99999996e-02 0. 0. 3.99999991e-02 1.99999996e-02 0.
      1.99999996e-02 0. 0. 1.99999996e-02 0. 0. 0. 0. 7.99999982e-02 0.
      0. 0. 0. 1.99999996e-02 5.99999987e-02</_>
    <_>
      1.33587783e-02 1.24045806e-02 2.86259549e-03 0. 1.62213743e-02
      2.86259549e-03 1.62213743e-02 1.90839695e-03 1.04961833e-02
      4.10305336e-02 1.04961833e-02 4.77099232e-03 1.33587783e-02
      1.04961833e-02 9.54198465e-03 2.57633589e-02 3.81679391e-03
      1.62213743e-02 1.14503819e-02 3.81679391e-03 6.67938916e-03
      4.77099232e-03 5.72519097e-03 3.81679391e-03 8.58778600e-03
      9.54198465e-03 9.54198465e-03 5.72519097e-03 9.54198476e-04
      6.67938916e-03 5.72519097e-03 4.77099232e-03 5.72519097e-03 0.
      1.04961833e-02 7.63358781e-03 4.10305336e-02 7.63358781e-03
      9.54198465e-03 1.62213743e-02 1.62213743e-02 5.72519097e-03
      3.05343512e-02 1.43129770e-02 8.58778600e-03 2.86259539e-02
      1.04961833e-02 5.72519097e-03 8.58778600e-03 5.72519097e-03
      4.77099232e-03 3.81679391e-03 6.67938916e-03 3.43511440e-02
      2.86259549e-03 2.86259549e-03 0. 1.62213743e-02 3.81679391e-03
      2.38549616e-02 4.77099232e-03 6.67938916e-03 4.77099232e-03 0.
      3.81679391e-03 3.81679391e-03 6.67938916e-03 1.90839695e-03
      6.67938916e-03 3.81679391e-03 5.72519097e-03 4.77099232e-03
      6.67938916e-03 6.67938916e-03 3.81679391e-03 3.81679391e-03
      4.77099232e-03 1.04961833e-02 0. 1.14503819e-02 9.54198476e-04
      2.29007639e-02 1.43129770e-02 1.43129770e-02 5.72519097e-03
      2.19465643e-02 9.54198476e-04 2.86259549e-03 3.14885490e-02
      7.63358781e-03 1.24045806e-02 9.54198465e-03 2.09923666e-02
      1.90839693e-02 1.52671756e-02 7.63358781e-03 2.86259549e-03
      8.58778600e-03 1.14503819e-02 3.62595432e-02</_>
    <_>
      9.00900923e-03 6.00600615e-03 0. 3.00300308e-03 1.20120123e-02
      3.00300308e-03 1.50150154e-02 3.00300308e-03 6.00600615e-03
      2.10210215e-02 3.00300308e-03 0. 1.20120123e-02 6.00600615e-03
      9.00900923e-03 9.60960984e-02 3.00300308e-03 0. 3.90390381e-02
      3.00300308e-03 3.00300308e-03 6.00600615e-03 9.00900923e-03
      3.00300308e-03 0. 3.00300308e-03 1.20120123e-02 1.20120123e-02 0.
      6.00600615e-03 4.80480492e-02 6.00600615e-03 0. 0. 1.20120123e-02
      0. 0. 6.00600615e-03 1.80180185e-02 1.20120123e-02 6.00600615e-03
      9.00900923e-03 5.40540554e-02 1.80180185e-02 1.20120123e-02
      2.70270277e-02 0. 3.00300308e-03 1.50150154e-02 0. 0.
      6.00600615e-03 2.40240246e-02 3.60360369e-02 0. 3.00300308e-03 0.
      1.50150154e-02 9.00900923e-03 5.40540554e-02 3.00300308e-03
      6.00600615e-03 1.20120123e-02 0. 3.00300308e-03 9.00900923e-03 0.
      0. 3.00300308e-03 6.00600615e-03 0. 6.00600615e-03 0.
      3.00300308e-03 6.00600615e-03 3.00300308e-03 3.00300308e-03 0.
      3.00300308e-03 1.80180185e-02 9.00900923e-03 1.20120123e-02
      1.50150154e-02 6.00600615e-03 1.50150154e-02 7.50750750e-02
      3.00300308e-03 6.00600615e-03 3.00300308e-03 0. 2.10210215e-02 0.
      6.00600615e-03 2.10210215e-02 3.00300308e-03 3.00300308e-03 0.
      3.00300308e-03 6.00600615e-03 1.20120123e-02</_>
    <_>
      7.59013277e-03 1.13851996e-02 0. 1.89753319e-03 3.79506638e-03
      2.46679317e-02 1.32827321e-02 0. 5.69259981e-03 1.51802655e-02
      3.79506638e-03 1.89753324e-02 1.51802655e-02 1.70777980e-02
      1.32827321e-02 1.70777980e-02 1.89753319e-03 1.13851996e-02
      3.79506638e-03 5.69259981e-03 9.48766619e-03 7.59013277e-03
      1.70777980e-02 5.69259981e-03 1.32827321e-02 3.79506638e-03
      1.51802655e-02 9.48766619e-03 3.79506638e-03 1.13851996e-02
      5.69259981e-03 1.89753324e-02 7.59013277e-03 5.69259981e-03
      1.13851996e-02 5.69259981e-03 7.59013277e-03 7.59013277e-03
      1.32827321e-02 5.69259981e-03 1.51802655e-02 3.79506638e-03
      2.84629986e-02 1.32827321e-02 7.59013277e-03 1.70777980e-02
      1.89753324e-02 3.79506638e-03 1.51802655e-02 1.70777980e-02
      1.13851996e-02 0. 9.48766619e-03 2.27703992e-02 1.89753319e-03
      3.79506638e-03 1.89753319e-03 1.89753319e-03 3.22580636e-02
      1.13851996e-02 1.70777980e-02 1.13851996e-02 7.59013277e-03
      1.89753319e-03 9.48766619e-03 1.13851996e-02 5.69259981e-03
      3.79506638e-03 7.59013277e-03 3.79506638e-03 1.89753319e-03
      7.59013277e-03 1.89753319e-03 9.48766619e-03 2.27703992e-02
      9.48766619e-03 1.32827321e-02 3.79506638e-03 5.69259981e-03
      1.13851996e-02 5.69259981e-03 3.79506638e-03 9.48766619e-03
      2.84629986e-02 7.59013277e-03 7.59013277e-03 1.13851996e-02
      1.13851996e-02 5.69259981e-03 7.59013277e-03 2.46679317e-02
      3.79506638e-03 1.32827321e-02 1.89753319e-03 1.13851996e-02
      1.70777980e-02 9.48766619e-03 5.69259981e-03 1.89753324e-02
      1.32827321e-02</_>
    <_>
      3.98936169e-03 8.64361692e-03 7.31382985e-03 6.64893596e-04
      5.31914877e-03 3.98936169e-03 1.99468085e-03 1.32978719e-03
      7.97872338e-03 1.06382975e-02 6.64893596e-04 2.65957438e-03
      5.98404277e-03 1.52925532e-02 9.30851046e-03 2.65957445e-01
      4.65425523e-03 6.64893631e-03 1.06382975e-02 0. 6.64893631e-03
      5.31914877e-03 9.30851046e-03 1.99468085e-03 5.98404277e-03
      2.65957438e-03 1.26329791e-02 4.65425523e-03 3.98936169e-03
      1.32978726e-02 3.32446815e-03 4.65425523e-03 3.98936169e-03
      1.32978719e-03 9.97340400e-03 5.31914877e-03 1.26329791e-02
      5.31914877e-03 5.98404277e-03 6.64893631e-03 7.31382985e-03
      1.39627662e-02 2.32712757e-02 7.31382985e-03 6.64893631e-03
      8.11170191e-02 3.98936169e-03 5.98404277e-03 1.52925532e-02
      2.65957438e-03 2.65957438e-03 1.99468085e-03 4.65425523e-03
      3.39095742e-02 0. 6.64893596e-04 0. 7.97872338e-03 1.99468085e-03
      2.99202129e-02 7.97872338e-03 3.32446815e-03 1.99468080e-02 0.
      3.98936169e-03 6.64893596e-04 1.99468085e-03 0. 3.32446815e-03
      2.65957438e-03 3.98936169e-03 5.31914877e-03 6.64893631e-03
      4.65425523e-03 4.65425523e-03 6.64893596e-04 2.65957438e-03
      2.65957438e-03 8.64361692e-03 5.31914877e-03 6.64893596e-04
      1.39627662e-02 3.98936169e-03 5.98404277e-03 3.32446815e-03
      5.45212775e-02 1.32978719e-03 6.64893596e-04 3.98936169e-03
      1.99468085e-03 1.26329791e-02 3.98936169e-03 7.97872338e-03
      1.79521274e-02 3.32446815e-03 5.98404277e-03 1.32978719e-03
      1.99468085e-03 4.65425523e-03 9.97340400e-03</_>
    <_>
      1.69082116e-02 4.83091781e-03 4.83091781e-03 7.24637695e-03
      1.69082116e-02 7.24637695e-03 4.83091781e-03 2.41545890e-03
      9.66183562e-03 1.93236712e-02 1.69082116e-02 9.66183562e-03
      1.44927539e-02 3.14009674e-02 1.93236712e-02 6.52173907e-02
      1.44927539e-02 4.83091781e-03 0. 2.41545890e-03 4.83091781e-03
      1.69082116e-02 7.24637695e-03 0. 7.24637695e-03 1.20772943e-02
      1.44927539e-02 1.20772943e-02 2.41545890e-03 1.69082116e-02
      2.41545890e-03 9.66183562e-03 4.83091781e-03 0. 1.44927539e-02
      7.24637695e-03 1.44927539e-02 2.41545890e-03 4.83091781e-03
      1.20772943e-02 9.66183562e-03 9.66183562e-03 5.31400964e-02
      1.69082116e-02 2.41545886e-02 4.10628021e-02 1.20772943e-02
      4.83091781e-03 9.66183562e-03 0. 0. 2.41545890e-03 9.66183562e-03
      2.65700482e-02 0. 2.41545890e-03 0. 9.66183562e-03 2.41545890e-03
      1.20772943e-02 2.41545890e-03 2.41545890e-03 1.44927539e-02
      2.41545890e-03 2.41545890e-03 0. 1.69082116e-02 2.41545890e-03
      9.66183562e-03 4.83091781e-03 2.41545890e-03 7.24637695e-03 0.
      4.83091781e-03 9.66183562e-03 0. 7.24637695e-03 7.24637695e-03
      2.65700482e-02 4.83091781e-03 7.24637695e-03 2.17391308e-02
      1.69082116e-02 9.66183562e-03 0. 3.62318829e-02 0. 4.83091781e-03
      1.20772943e-02 4.83091781e-03 1.69082116e-02 0. 1.20772943e-02
      9.66183562e-03 7.24637695e-03 7.24637695e-03 2.41545890e-03 0.
      9.66183562e-03 7.24637695e-03</_>
    <_>
      0. 0. 0. 0. 0. 0. 0. 0. 0. 0. 0. 0. 0. 0. 1.25000000e-01 0. 0. 0.
      0. 0. 0. 0. 0. 0. 0. 0. 0. 0. 0. 0. 0. 6.25000000e-02 0. 0. 0. 0.
      0. 0. 0. 6.25000000e-02 0. 0. 1.25000000e-01 6.25000000e-02 0. 0.
      0. 0. 6.25000000e-02 0. 0. 0. 0. 1.87500000e-01 0. 0. 0.
      6.25000000e-02 0. 0. 0. 0. 0. 0. 0. 0. 0. 0. 0. 0. 0. 0. 0. 0. 0.
      0. 0. 0. 0. 0. 0. 0. 0. 0. 0. 6.25000000e-02 0. 0. 0. 0. 0. 0. 0.
      1.87500000e-01 0. 0. 0. 0. 0. 0.</_>
    <_>
      2.12765951e-02 4.25531901e-02 2.55319141e-02 0. 8.51063803e-03
      8.51063803e-03 8.51063803e-03 8.51063803e-03 1.70212761e-02
      2.55319141e-02 8.51063803e-03 0. 1.70212761e-02 1.27659570e-02
      3.82978730e-02 1.27659570e-02 0. 2.55319141e-02 4.25531901e-03 0.
      8.51063803e-03 4.25531901e-03 4.25531901e-03 4.25531901e-03
      4.25531901e-03 4.25531901e-03 4.25531901e-03 4.25531901e-03
      8.51063803e-03 8.51063803e-03 0. 1.27659570e-02 4.25531901e-03 0.
      8.51063803e-03 0. 0. 8.51063803e-03 1.70212761e-02 3.40425521e-02
      8.51063803e-03 8.51063803e-03 3.40425521e-02 1.70212761e-02
      1.70212761e-02 3.82978730e-02 8.51063803e-03 1.27659570e-02
      4.25531901e-03 0. 4.25531901e-03 4.25531901e-03 1.27659570e-02
      5.53191490e-02 0. 0. 0. 1.27659570e-02 0. 1.70212761e-02
      5.10638282e-02 0. 4.25531901e-03 0. 4.25531901e-03 0. 0. 0. 0. 0.
      0. 4.25531901e-03 4.25531901e-03 0. 4.25531901e-03 2.12765951e-02
      8.51063803e-03 8.51063803e-03 2.97872350e-02 4.25531901e-03 0.
      4.25531901e-02 8.51063803e-03 2.12765951e-02 0. 2.12765951e-02 0.
      0. 4.25531901e-03 0. 4.25531901e-03 1.70212761e-02 4.25531901e-03
      2.97872350e-02 4.25531901e-03 0. 0. 4.25531901e-03 4.25531901e-03
      8.51063803e-03</_>
    <_>
      1.97657403e-02 1.68374814e-02 7.32064433e-03 5.12445113e-03
      9.51683708e-03 7.32064433e-03 1.97657403e-02 7.32064422e-04
      1.39092244e-02 3.58711556e-02 1.02489023e-02 6.58857962e-03
      1.09809665e-02 1.53733529e-02 1.53733529e-02 1.61054172e-02
      5.12445113e-03 1.90336742e-02 2.56222542e-02 7.32064422e-04
      6.58857962e-03 1.17130307e-02 9.51683708e-03 8.78477283e-03
      4.39238641e-03 2.92825769e-03 9.51683708e-03 8.78477283e-03
      2.19619321e-03 1.02489023e-02 3.66032217e-03 7.32064433e-03
      4.39238641e-03 2.19619321e-03 1.02489023e-02 3.66032217e-03
      2.34260615e-02 7.32064433e-03 8.05270858e-03 2.26939972e-02
      2.26939972e-02 1.24450950e-02 2.41581257e-02 1.39092244e-02
      5.12445113e-03 3.87994125e-02 6.58857962e-03 2.19619321e-03
      1.02489023e-02 2.92825769e-03 2.92825769e-03 5.12445113e-03
      1.17130307e-02 2.70863827e-02 1.46412884e-03 2.92825769e-03 0.
      1.39092244e-02 3.66032217e-03 3.58711556e-02 1.83016099e-02
      3.66032217e-03 8.05270858e-03 0. 5.85651537e-03 2.92825769e-03
      3.66032217e-03 0. 9.51683708e-03 1.02489023e-02 2.19619321e-03
      1.09809665e-02 5.85651537e-03 3.66032217e-03 5.12445113e-03
      2.92825769e-03 2.92825769e-03 1.46412884e-03 7.32064433e-03
      8.05270858e-03 3.66032217e-03 1.02489023e-02 1.24450950e-02
      1.46412887e-02 5.85651537e-03 3.87994125e-02 2.19619321e-03
      2.92825769e-03 1.31771592e-02 2.19619321e-03 1.17130307e-02
      4.39238641e-03 1.39092244e-02 1.97657403e-02 1.09809665e-02
      1.02489023e-02 2.19619321e-03 3.66032217e-03 1.02489023e-02
      2.12298688e-02</_>
    <_>
      1.93370171e-02 1.93370171e-02 1.10497242e-02 8.28729291e-03
      1.65745858e-02 2.76243105e-03 5.52486209e-03 8.28729291e-03
      1.93370171e-02 2.76243091e-02 0. 5.52486209e-03 1.38121545e-02
      1.38121545e-02 2.48618778e-02 2.76243105e-03 2.76243105e-03
      1.38121545e-02 8.28729291e-03 0. 3.31491716e-02 1.10497242e-02
      1.10497242e-02 2.76243105e-03 5.52486209e-03 0. 3.59116010e-02
      2.76243105e-03 2.76243105e-03 1.38121545e-02 8.28729291e-03
      3.31491716e-02 5.52486209e-03 5.52486209e-03 2.76243091e-02
      1.10497242e-02 2.76243105e-03 2.76243105e-03 1.38121545e-02
      5.52486209e-03 8.28729291e-03 2.76243105e-03 4.41988967e-02
      3.03867403e-02 2.76243105e-03 8.28729291e-03 8.28729291e-03 0.
      3.59116010e-02 2.76243105e-03 8.28729291e-03 5.52486209e-03
      1.10497242e-02 3.31491716e-02 5.52486209e-03 5.52486209e-03
      2.76243105e-03 1.38121545e-02 5.52486209e-03 5.52486209e-03
      1.65745858e-02 1.10497242e-02 5.52486209e-03 2.76243105e-03
      2.76243105e-03 1.10497242e-02 1.65745858e-02 0. 2.76243105e-03
      1.10497242e-02 5.52486209e-03 5.52486209e-03 0. 5.52486209e-03
      5.52486209e-03 2.76243105e-03 0. 0. 2.76243105e-03 1.38121545e-02
      2.76243105e-03 1.38121545e-02 2.20994484e-02 0. 2.76243105e-03
      1.38121545e-02 0. 2.76243105e-03 1.10497242e-02 1.10497242e-02
      5.52486209e-03 1.65745858e-02 1.38121545e-02 2.76243091e-02
      1.38121545e-02 8.28729291e-03 2.76243105e-03 0. 5.52486209e-03
      5.52486209e-03</_>
    <_>
      5.12820520e-02 7.69230798e-02 0. 0. 2.56410260e-02 0. 0. 0. 0.
      5.12820520e-02 2.56410260e-02 0. 0. 5.12820520e-02 0.
      5.12820520e-02 0. 7.69230798e-02 0. 0. 0. 0. 0. 0. 0. 0. 0. 0. 0.
      0. 0. 0. 0. 0. 7.69230798e-02 0. 0. 2.56410260e-02 0.
      5.12820520e-02 0. 0. 5.12820520e-02 2.56410260e-02 0.
      2.56410260e-02 2.56410260e-02 0. 0. 0. 0. 0. 0. 0. 0. 0. 0.
      5.12820520e-02 0. 0. 0. 2.56410260e-02 0. 0. 0. 0. 0. 0. 0. 0. 0.
      0. 0. 0. 2.56410260e-02 0. 0. 0. 0. 0. 0. 0. 7.69230798e-02 0. 0.
      0. 0. 2.56410260e-02 0. 0. 2.56410260e-02 0. 2.56410260e-02 0. 0.
      2.56410260e-02 0. 0. 0. 2.56410260e-02</_>
    <_>
      0. 2.38095243e-02 0. 0. 0. 2.38095243e-02 0. 1.19047621e-02 0.
      5.95238097e-02 1.19047621e-02 0. 1.19047621e-02 0. 3.57142873e-02
      3.57142873e-02 0. 0. 2.38095243e-02 0. 0. 4.76190485e-02
      2.38095243e-02 0. 0. 0. 1.19047621e-02 0. 0. 0. 0. 1.19047621e-02
      0. 0. 0. 2.38095243e-02 0. 0. 0. 7.14285746e-02 1.19047621e-02 0.
      8.33333358e-02 1.19047621e-02 0. 3.57142873e-02 0. 0.
      1.19047621e-02 0. 0. 0. 0. 5.95238097e-02 0. 0. 0. 2.38095243e-02
      3.57142873e-02 0. 1.19047621e-02 0. 0. 0. 0. 0. 0. 0. 0. 0.
      1.19047621e-02 0. 2.38095243e-02 0. 0. 0. 0. 0. 2.38095243e-02
      1.19047621e-02 0. 2.38095243e-02 1.19047621e-02 2.38095243e-02
      1.19047621e-02 3.57142873e-02 0. 0. 0. 0. 0. 0. 2.38095243e-02
      4.76190485e-02 1.19047621e-02 1.19047621e-02 0. 0. 1.19047621e-02
      0.</_>
    <_>
      8.03212821e-03 2.00803205e-02 2.00803205e-02 4.01606411e-03
      1.60642564e-02 0. 8.03212821e-03 0. 2.00803205e-02 2.00803205e-02
      4.01606411e-03 0. 8.03212821e-03 3.61445770e-02 2.00803205e-02
      1.20481923e-02 4.01606411e-03 8.03212821e-03 2.40963846e-02
      4.01606411e-03 0. 2.40963846e-02 1.20481923e-02 4.01606411e-03
      4.01606411e-03 4.01606411e-03 0. 8.03212821e-03 0. 0. 0.
      1.60642564e-02 4.01606411e-03 0. 1.20481923e-02 8.03212821e-03
      2.40963846e-02 0. 1.20481923e-02 2.40963846e-02 4.01606411e-03
      1.60642564e-02 2.81124506e-02 3.21285129e-02 0. 6.42570257e-02
      4.01606411e-03 0. 1.60642564e-02 4.01606411e-03 1.60642564e-02
      4.01606411e-03 4.01606411e-03 3.21285129e-02 4.01606411e-03
      4.01606411e-03 0. 1.20481923e-02 8.03212821e-03 4.01606411e-03
      2.40963846e-02 0. 1.20481923e-02 0. 1.20481923e-02 8.03212821e-03
      1.20481923e-02 0. 4.01606411e-03 4.01606411e-03 1.20481923e-02 0.
      8.03212821e-03 0. 4.01606411e-03 8.03212821e-03 4.01606411e-03
      4.01606411e-03 1.60642564e-02 1.60642564e-02 1.20481923e-02 0.
      1.60642564e-02 1.60642564e-02 8.03212821e-03 8.03212821e-03
      4.01606411e-03 1.20481923e-02 1.60642564e-02 0. 2.81124506e-02 0.
      8.03212821e-03 1.60642564e-02 2.40963846e-02 8.03212821e-03 0.
      4.01606411e-03 0. 2.00803205e-02</_>
    <_>
      2.06896551e-02 6.89655170e-03 9.19540226e-03 4.59770113e-03
      6.89655170e-03 0. 1.14942528e-02 2.29885057e-03 2.52873562e-02
      2.75862068e-02 1.14942528e-02 9.19540226e-03 2.52873562e-02
      2.29885057e-03 2.29885057e-02 6.89655170e-03 0. 2.98850574e-02
      1.14942528e-02 2.29885057e-03 4.59770113e-03 9.19540226e-03
      1.37931034e-02 9.19540226e-03 6.89655170e-03 1.60919540e-02
      1.14942528e-02 1.14942528e-02 0. 0. 0. 1.14942528e-02
      6.89655170e-03 9.19540226e-03 6.89655170e-03 1.37931034e-02
      9.19540226e-03 1.14942528e-02 1.14942528e-02 1.60919540e-02
      4.59770113e-03 1.14942528e-02 5.74712642e-02 1.37931034e-02
      6.89655170e-03 1.83908045e-02 1.37931034e-02 9.19540226e-03
      1.83908045e-02 2.29885057e-03 2.29885057e-03 4.59770113e-03
      9.19540226e-03 4.59770113e-02 2.29885057e-03 2.29885057e-03 0.
      1.37931034e-02 1.14942528e-02 9.19540226e-03 1.37931034e-02
      4.59770113e-03 2.29885057e-03 0. 4.59770113e-03 0. 1.60919540e-02
      2.29885057e-03 9.19540226e-03 9.19540226e-03 1.14942528e-02
      4.59770113e-03 2.29885057e-03 4.59770113e-03 4.59770113e-03
      1.14942528e-02 6.89655170e-03 0. 0. 1.14942528e-02 2.29885057e-03
      4.59770113e-03 2.52873562e-02 1.60919540e-02 2.29885057e-03
      1.37931034e-02 0. 2.29885057e-03 1.37931034e-02 4.59770113e-03
      2.29885057e-02 1.14942528e-02 1.83908045e-02 1.60919540e-02
      1.83908045e-02 4.59770113e-03 0. 2.29885057e-03 2.29885057e-03
      2.52873562e-02</_>
    <_>
      1.14068445e-02 1.52091254e-02 1.52091254e-02 1.14068445e-02 0.
      7.60456268e-03 7.60456268e-03 7.60456268e-03 2.28136890e-02
      3.80228134e-03 1.90114062e-02 1.14068445e-02 7.60456268e-03
      3.80228134e-03 0. 7.60456268e-03 3.04182507e-02 1.90114062e-02
      7.60456268e-03 0. 0. 1.90114062e-02 2.66159698e-02 1.14068445e-02
      1.14068445e-02 1.52091254e-02 1.14068445e-02 1.90114062e-02
      3.80228134e-03 7.60456268e-03 2.28136890e-02 7.60456268e-03 0. 0.
      1.90114062e-02 0. 0. 3.80228134e-03 7.60456268e-03 7.60456268e-03
      1.52091254e-02 3.80228134e-03 4.56273779e-02 1.90114062e-02
      7.60456268e-03 0. 2.28136890e-02 7.60456268e-03 3.04182507e-02 0.
      3.80228134e-03 3.80228134e-03 1.14068445e-02 3.04182507e-02 0.
      3.80228134e-03 0. 2.66159698e-02 1.14068445e-02 3.80228134e-03
      1.14068445e-02 1.14068445e-02 0. 0. 0. 3.80228134e-03
      1.14068445e-02 7.60456268e-03 7.60456268e-03 0. 0. 3.80228134e-03
      1.52091254e-02 3.80228134e-03 3.80228134e-03 1.52091254e-02 0.
      7.60456268e-03 2.28136890e-02 7.60456268e-03 7.60456268e-03
      1.90114062e-02 1.14068445e-02 1.14068445e-02 0. 1.52091254e-02
      1.52091254e-02 3.80228134e-03 3.80228134e-03 0. 7.60456268e-03
      3.80228134e-03 1.90114062e-02 4.56273779e-02 1.90114062e-02
      7.60456268e-03 0. 3.80228134e-03 1.90114062e-02 3.80228134e-03</_>
    <_>
      0. 1.11111112e-01 0. 0. 0. 0. 0. 0. 0. 0. 0. 0. 0. 0.
      2.22222224e-01 0. 0. 1.11111112e-01 0. 0. 0. 0. 0. 0. 0. 0. 0. 0.
      0. 0. 0. 1.11111112e-01 0. 0. 0. 0. 0. 0. 0. 1.11111112e-01 0. 0.
      1.11111112e-01 0. 0. 0. 0. 0. 0. 0. 0. 0. 0. 0. 0. 0. 0. 0. 0. 0.
      0. 1.11111112e-01 0. 0. 0. 0. 0. 0. 0. 0. 0. 0. 0. 0. 0. 0. 0. 0.
      0. 0. 0. 0. 0. 1.11111112e-01 0. 0. 0. 0. 0. 0. 0. 0. 0. 0. 0. 0.
      0. 0. 0. 0.</_>
    <_>
      2.70270277e-02 1.08108111e-02 1.08108111e-02 1.08108111e-02
      1.62162166e-02 1.62162166e-02 0. 5.40540554e-03 1.62162166e-02
      1.62162166e-02 2.70270277e-02 1.08108111e-02 5.40540554e-03
      2.70270277e-02 0. 3.78378369e-02 0. 2.16216221e-02 5.40540554e-03
      1.08108111e-02 1.08108111e-02 0. 1.62162166e-02 1.08108111e-02
      5.40540554e-03 0. 1.62162166e-02 0. 1.62162166e-02 5.40540554e-03
      0. 1.08108111e-02 0. 5.40540554e-03 1.62162166e-02 0.
      1.62162166e-02 5.40540554e-03 0. 2.16216221e-02 2.16216221e-02
      1.62162166e-02 5.40540554e-02 1.62162166e-02 5.40540554e-03
      2.16216221e-02 1.62162166e-02 0. 1.08108111e-02 0. 1.08108111e-02
      5.40540554e-03 5.40540554e-03 2.16216221e-02 0. 0. 0.
      1.08108111e-02 5.40540554e-03 5.40540554e-03 3.24324332e-02 0.
      1.08108111e-02 0. 5.40540554e-03 5.40540554e-03 1.62162166e-02 0.
      1.08108111e-02 5.40540554e-03 3.24324332e-02 0. 0. 0.
      1.62162166e-02 5.40540554e-03 0. 1.08108111e-02 1.62162166e-02
      2.16216221e-02 0. 0. 0. 0. 5.40540554e-03 0. 5.40540554e-03
      1.62162166e-02 1.08108111e-02 5.40540554e-03 1.08108111e-02
      5.40540554e-03 1.08108111e-02 1.08108111e-02 2.70270277e-02
      5.40540554e-03 5.40540554e-03 0. 1.08108111e-02 2.16216221e-02</_>
    <_>
      1.62790697e-02 4.65116277e-03 2.32558139e-03 0. 2.32558139e-03
      2.32558139e-03 1.86046511e-02 2.32558139e-03 2.32558139e-03
      2.09302325e-02 2.32558139e-03 4.65116277e-03 1.62790697e-02
      1.16279069e-02 0. 1.16279073e-01 1.16279069e-02 6.97674416e-03
      2.32558139e-02 1.16279069e-02 0. 2.32558139e-03 4.65116277e-03
      9.30232555e-03 4.65116277e-03 4.65116277e-03 3.25581394e-02
      2.32558139e-03 2.32558139e-03 3.25581394e-02 1.39534883e-02 0.
      2.32558139e-03 4.65116277e-03 2.32558139e-03 0. 1.62790697e-02
      2.32558139e-03 2.09302325e-02 0. 2.32558139e-02 4.65116277e-02
      4.18604650e-02 2.32558139e-03 0. 1.86046511e-02 2.32558139e-03 0.
      6.97674416e-03 0. 6.97674416e-03 0. 6.97674416e-03 1.16279069e-02
      2.32558139e-03 2.32558139e-03 2.32558139e-03 6.97674416e-03
      2.32558139e-03 4.88372110e-02 4.65116277e-03 4.65116277e-03
      3.48837227e-02 2.32558139e-03 2.32558139e-03 2.32558139e-03
      2.32558139e-03 0. 6.97674416e-03 2.55813953e-02 0. 2.32558139e-03
      0. 0. 1.86046511e-02 9.30232555e-03 4.65116277e-03 2.32558139e-03
      2.32558139e-03 2.09302325e-02 0. 4.65116277e-03 0. 2.32558139e-03
      2.32558139e-02 6.74418584e-02 1.39534883e-02 4.65116277e-03
      4.65116277e-03 4.65116277e-03 2.32558139e-03 6.97674416e-03
      9.30232555e-03 6.97674416e-03 2.32558139e-03 6.97674416e-03
      6.97674416e-03 0. 1.16279069e-02 6.97674416e-03</_>
    <_>
      0. 0. 0. 0. 0. 0. 0. 0. 0. 0. 0. 0. 0. 0. 0. 0. 0. 0. 0. 0. 0. 0.
      0. 0. 0. 0. 0. 0. 0. 0. 0. 0. 0. 0. 0. 0. 0. 0. 0. 0. 0. 0. 0. 0.
      0. 0. 0. 0. 0. 0. 0. 0. 0. 0. 0. 0. 0. 0. 2.00000003e-01 0. 0.
      2.00000003e-01 0. 0. 0. 0. 0. 0. 0. 0. 0. 0. 0. 0. 2.00000003e-01
      0. 0. 2.00000003e-01 0. 0. 0. 0. 0. 0. 0. 0. 0. 0. 0. 0.
      2.00000003e-01 0. 0. 0. 0. 0. 0. 0. 0. 0.</_>
    <_>
      5.50660770e-03 1.21145379e-02 1.43171810e-02 2.20264308e-03
      9.91189387e-03 1.21145379e-02 9.91189387e-03 2.20264308e-03
      7.70925125e-03 9.91189387e-03 0. 5.50660770e-03 6.60792971e-03
      2.20264308e-03 2.86343619e-02 5.06607927e-02 3.30396486e-03
      6.60792971e-03 1.10132154e-03 0. 1.21145379e-02 1.43171810e-02
      5.50660770e-03 2.20264308e-03 2.20264308e-03 5.50660770e-03
      7.70925125e-03 5.50660770e-03 1.10132154e-03 4.40528616e-03
      2.31277533e-02 1.65198240e-02 4.40528616e-03 0. 5.50660770e-03
      2.20264308e-03 6.60792971e-03 2.20264308e-03 1.10132154e-03
      3.08370050e-02 3.30396486e-03 3.30396486e-03 4.62555066e-02
      1.87224671e-02 1.10132154e-02 2.09251106e-01 1.10132154e-03
      2.20264308e-03 1.87224671e-02 2.20264308e-03 1.10132154e-03 0.
      5.50660770e-03 2.86343619e-02 0. 5.50660770e-03 1.10132154e-03
      8.81057233e-03 3.30396486e-03 7.70925125e-03 2.31277533e-02
      3.30396486e-03 5.50660770e-03 0. 9.91189387e-03 3.30396486e-03
      3.30396486e-03 2.20264308e-03 3.30396486e-03 2.20264308e-03
      3.30396486e-03 5.50660770e-03 9.91189387e-03 2.20264308e-03 0.
      1.10132154e-03 2.20264308e-03 1.10132154e-03 4.40528616e-03
      4.40528616e-03 6.60792971e-03 2.20264308e-02 9.91189387e-03
      7.70925125e-03 4.40528616e-03 1.65198240e-02 0. 1.10132154e-03
      6.60792971e-03 6.60792971e-03 1.98237877e-02 5.50660770e-03
      1.32158594e-02 2.97356825e-02 9.91189387e-03 9.91189387e-03
      1.10132154e-03 2.20264308e-03 5.50660770e-03 9.91189387e-03</_>
    <_>
      1.27388537e-02 1.27388537e-02 6.36942685e-03 6.36942685e-03
      1.91082805e-02 0. 1.27388537e-02 1.91082805e-02 1.91082805e-02
      1.91082805e-02 6.36942685e-03 0. 3.82165611e-02 2.54777074e-02 0.
      1.27388537e-02 0. 1.27388537e-02 0. 0. 6.36942685e-03
      6.36942685e-03 0. 0. 1.27388537e-02 1.91082805e-02 0.
      6.36942685e-03 0. 0. 6.36942685e-03 1.27388537e-02 6.36942685e-03
      0. 0. 1.91082805e-02 1.27388537e-02 0. 0. 0. 2.54777074e-02 0.
      7.00636953e-02 1.91082805e-02 3.82165611e-02 7.64331222e-02
      1.27388537e-02 6.36942685e-03 1.27388537e-02 1.27388537e-02
      6.36942685e-03 0. 0. 2.54777074e-02 6.36942685e-03 6.36942685e-03
      0. 1.27388537e-02 1.27388537e-02 2.54777074e-02 0. 0.
      6.36942685e-03 0. 0. 1.27388537e-02 0. 0. 1.27388537e-02 0.
      6.36942685e-03 0. 6.36942685e-03 6.36942685e-03 0. 6.36942685e-03
      0. 1.27388537e-02 0. 1.27388537e-02 1.27388537e-02 2.54777074e-02
      1.27388537e-02 0. 0. 0. 6.36942685e-03 0. 1.91082805e-02 0.
      1.91082805e-02 6.36942685e-03 1.27388537e-02 3.82165611e-02
      2.54777074e-02 1.91082805e-02 6.36942685e-03 0. 0. 1.27388537e-02</_>
    <_>
      0. 1.17647061e-02 0. 0. 1.17647061e-02 0. 1.76470596e-02 0.
      5.88235306e-03 2.35294122e-02 1.17647061e-02 5.88235306e-03
      2.35294122e-02 8.23529437e-02 1.17647061e-02 3.52941193e-02
      1.17647061e-02 0. 1.76470596e-02 5.88235306e-03 5.88235306e-03
      5.88235306e-03 5.88235306e-03 0. 0. 0. 1.17647061e-02
      5.88235306e-03 5.88235306e-03 1.17647061e-02 0. 5.88235306e-03 0.
      1.17647061e-02 0. 1.17647061e-02 5.88235306e-03 1.17647061e-02
      4.70588244e-02 0. 1.17647061e-02 0. 4.11764719e-02 1.76470596e-02
      5.88235306e-03 1.00000001e-01 2.35294122e-02 0. 5.88235306e-03 0.
      5.88235306e-03 0. 0. 5.88235306e-03 5.88235306e-03 1.17647061e-02
      0. 1.76470596e-02 1.76470596e-02 0. 3.52941193e-02 5.88235306e-03
      0. 5.88235306e-03 0. 0. 5.88235306e-03 0. 0. 5.88235306e-03
      2.35294122e-02 0. 0. 0. 0. 0. 1.17647061e-02 0. 0. 0. 0. 0.
      2.35294122e-02 2.35294122e-02 1.17647061e-02 1.76470596e-02 0.
      5.88235306e-03 2.35294122e-02 5.88235306e-03 2.94117648e-02
      1.17647061e-02 1.76470596e-02 5.88235306e-03 5.88235306e-03
      5.88235306e-03 0. 1.17647061e-02 5.88235306e-03 5.88235306e-03</_>
    <_>
      0. 0. 0. 0. 0. 0. 0. 0. 0. 0. 0. 0. 0. 4.34782617e-02
      1.73913047e-01 0. 0. 4.34782617e-02 0. 0. 0. 0. 4.34782617e-02 0.
      0. 0. 0. 0. 0. 0. 0. 4.34782617e-02 0. 0. 0. 0. 0. 0.
      4.34782617e-02 0. 0. 0. 4.34782617e-02 0. 0. 4.34782617e-02 0. 0.
      0. 0. 0. 0. 0. 4.34782617e-02 0. 0. 0. 8.69565234e-02 0. 0. 0.
      4.34782617e-02 0. 0. 0. 0. 0. 0. 0. 0. 0. 0. 0. 0. 0. 0. 0. 0. 0.
      0. 0. 4.34782617e-02 4.34782617e-02 4.34782617e-02 0. 0. 0. 0. 0.
      0. 0. 0. 8.69565234e-02 8.69565234e-02 0. 0. 0. 4.34782617e-02 0.
      0.</_>
    <_>
      1.34854773e-02 1.45228216e-02 1.24481330e-02 7.26141082e-03
      4.14937781e-03 1.34854773e-02 1.65975112e-02 1.03734445e-03
      1.45228216e-02 2.38589216e-02 1.14107886e-02 8.29875562e-03
      1.14107886e-02 8.29875562e-03 1.55601660e-02 2.48962659e-02
      6.22406648e-03 1.55601660e-02 1.65975112e-02 2.07468891e-03
      4.14937781e-03 5.18672215e-03 8.29875562e-03 8.29875562e-03
      8.29875562e-03 1.03734443e-02 6.22406648e-03 1.03734443e-02
      3.11203324e-03 1.24481330e-02 1.24481330e-02 9.33609996e-03
      2.07468891e-03 7.26141082e-03 1.86721999e-02 2.07468891e-03
      2.07468886e-02 9.33609996e-03 9.33609996e-03 1.34854773e-02
      1.24481330e-02 1.34854773e-02 3.31950225e-02 9.33609996e-03
      1.03734443e-02 2.07468886e-02 1.03734443e-02 1.34854773e-02
      1.14107886e-02 2.07468891e-03 5.18672215e-03 7.26141082e-03
      1.03734443e-02 2.38589216e-02 2.07468891e-03 2.07468891e-03
      3.11203324e-03 1.86721999e-02 5.18672215e-03 1.45228216e-02
      1.24481330e-02 4.14937781e-03 5.18672215e-03 3.11203324e-03
      5.18672215e-03 3.11203324e-03 1.14107886e-02 6.22406648e-03
      5.18672215e-03 3.11203324e-03 3.11203324e-03 8.29875562e-03
      6.22406648e-03 1.03734445e-03 1.24481330e-02 4.14937781e-03
      5.18672215e-03 5.18672215e-03 8.29875562e-03 4.14937781e-03
      1.34854773e-02 1.76348556e-02 1.76348556e-02 3.11203324e-03
      6.22406648e-03 2.59336103e-02 4.14937781e-03 3.11203324e-03
      5.18672215e-03 3.11203324e-03 5.18672215e-03 1.34854773e-02
      1.34854773e-02 1.97095443e-02 3.21576782e-02 8.29875562e-03
      5.18672215e-03 1.14107886e-02 5.18672215e-03 1.65975112e-02</_>
    <_>
      1.47551978e-02 1.34138167e-02 9.38967150e-03 3.35345417e-03
      6.03621732e-03 3.35345417e-03 1.14017436e-02 8.71898048e-03
      3.35345417e-03 4.15828303e-02 4.02414473e-03 2.01207236e-03
      8.04828946e-03 1.14017436e-02 1.20724346e-02 8.85311887e-02
      1.34138158e-03 8.71898048e-03 9.38967150e-03 3.35345417e-03
      7.37759890e-03 1.07310526e-02 5.36552630e-03 6.70690835e-03
      4.69483575e-03 4.02414473e-03 1.20724346e-02 2.68276315e-03
      4.69483575e-03 3.35345417e-03 3.35345417e-03 6.03621732e-03
      2.68276315e-03 1.34138158e-03 6.70690835e-03 6.70690788e-04
      3.62173021e-02 2.01207236e-03 7.37759890e-03 1.47551978e-02
      1.07310526e-02 6.03621732e-03 2.01207250e-02 1.20724346e-02
      8.04828946e-03 1.18712276e-01 9.38967150e-03 4.02414473e-03
      1.14017436e-02 1.34138158e-03 3.35345417e-03 8.71898048e-03
      1.27431257e-02 3.28638479e-02 2.01207236e-03 2.68276315e-03
      1.34138158e-03 1.67672709e-02 4.69483575e-03 3.28638479e-02
      8.04828946e-03 5.36552630e-03 2.01207236e-03 6.70690788e-04
      2.01207236e-03 1.34138158e-03 4.69483575e-03 1.34138158e-03
      4.02414473e-03 0. 4.02414473e-03 4.69483575e-03 2.68276315e-03
      7.37759890e-03 4.69483575e-03 2.68276315e-03 4.02414473e-03
      1.34138158e-03 8.71898048e-03 2.68276315e-03 2.68276315e-03
      1.94500331e-02 9.38967150e-03 2.01207236e-03 6.70690835e-03
      4.15828303e-02 3.35345417e-03 4.69483575e-03 1.14017436e-02
      5.36552630e-03 6.70690835e-03 2.01207236e-03 6.70690835e-03
      1.94500331e-02 4.69483575e-03 2.68276315e-03 2.01207236e-03
      5.36552630e-03 2.68276315e-03 4.15828303e-02</_>
    <_>
      3.38983051e-02 1.69491526e-02 0. 0. 0. 0. 0. 1.69491526e-02
      1.69491526e-02 3.38983051e-02 0. 0. 0. 0. 0. 1.69491526e-02 0.
      3.38983051e-02 0. 0. 0. 0. 0. 1.69491526e-02 6.77966103e-02 0.
      1.69491526e-02 0. 0. 0. 3.38983051e-02 0. 3.38983051e-02 0.
      1.69491526e-02 1.69491526e-02 0. 0. 1.69491526e-02 3.38983051e-02
      1.69491526e-02 1.69491526e-02 5.08474559e-02 1.69491526e-02 0. 0.
      1.69491526e-02 0. 5.08474559e-02 0. 0. 0. 3.38983051e-02 0. 0. 0.
      0. 3.38983051e-02 0. 0. 1.69491526e-02 0. 0. 0. 1.69491526e-02
      1.69491526e-02 3.38983051e-02 0. 1.69491526e-02 0. 0. 0. 0. 0.
      1.69491526e-02 0. 1.69491526e-02 0. 1.69491526e-02 1.69491526e-02
      1.69491526e-02 0. 0. 0. 0. 1.69491526e-02 1.69491526e-02
      1.69491526e-02 0. 0. 1.69491526e-02 5.08474559e-02 0.
      3.38983051e-02 0. 0. 0. 0. 0. 0.</_>
    <_>
      8.74635577e-03 3.20699699e-02 1.74927115e-02 0. 1.16618080e-02
      2.91545200e-03 5.83090400e-03 0. 1.16618080e-02 8.74635577e-03
      1.16618080e-02 0. 1.74927115e-02 8.74635577e-03 2.33236160e-02
      1.28279880e-01 2.91545200e-03 2.33236160e-02 3.20699699e-02
      2.91545200e-03 2.91545200e-03 5.83090400e-03 5.83090400e-03
      2.91545200e-03 5.83090400e-03 0. 0. 1.16618080e-02 2.91545200e-03
      1.16618080e-02 5.83090400e-03 1.74927115e-02 0. 5.83090400e-03
      8.74635577e-03 2.91545200e-03 2.91545200e-03 5.83090400e-03
      1.16618080e-02 2.91545186e-02 1.45772593e-02 0. 2.62390673e-02
      8.74635577e-03 0. 2.04081628e-02 0. 0. 2.33236160e-02 0. 0.
      5.83090400e-03 1.16618080e-02 2.91545186e-02 5.83090400e-03
      5.83090400e-03 2.91545200e-03 8.74635577e-03 0. 2.62390673e-02
      8.74635577e-03 0. 5.83090400e-03 0. 2.04081628e-02 0.
      2.91545200e-03 0. 1.74927115e-02 2.62390673e-02 1.16618080e-02
      5.83090400e-03 8.74635577e-03 0. 2.91545200e-03 5.83090400e-03
      2.91545200e-03 2.91545200e-03 2.04081628e-02 5.83090400e-03
      2.91545200e-03 1.16618080e-02 5.83090400e-03 1.16618080e-02 0.
      3.49854231e-02 2.91545200e-03 0. 1.16618080e-02 0. 5.83090400e-03
      5.83090400e-03 2.33236160e-02 4.08163257e-02 0. 1.16618080e-02 0.
      0. 0. 2.91545200e-03</_>
    <_>
      0. 0. 2.85714283e-03 2.85714283e-03 1.14285713e-02 2.85714283e-03
      1.99999996e-02 0. 2.85714283e-03 1.71428565e-02 1.42857144e-02 0.
      1.14285713e-02 8.57142825e-03 1.14285713e-02 1.05714284e-01
      8.57142825e-03 0. 5.71428565e-03 0. 1.99999996e-02 0. 0.
      2.85714283e-03 1.14285713e-02 0. 2.85714283e-03 5.71428565e-03
      2.85714283e-03 1.42857144e-02 8.57142825e-03 5.71428565e-03
      2.85714283e-03 2.85714283e-03 5.71428565e-03 2.85714283e-03
      2.57142857e-02 5.71428565e-03 5.71428565e-03 5.71428565e-03
      1.14285713e-02 8.57142825e-03 7.42857158e-02 1.71428565e-02 0.
      1.42857144e-02 1.14285713e-02 8.57142825e-03 2.28571426e-02
      8.57142825e-03 0. 5.71428565e-03 1.14285713e-02 2.28571426e-02
      2.85714283e-03 2.85714283e-03 2.85714283e-03 5.71428565e-03
      5.71428565e-03 2.28571426e-02 1.99999996e-02 5.71428565e-03
      2.28571426e-02 0. 1.14285713e-02 0. 5.71428565e-03 2.85714283e-03
      1.99999996e-02 3.14285718e-02 1.14285713e-02 2.85714283e-03
      5.71428565e-03 2.85714283e-03 0. 0. 2.85714283e-03 8.57142825e-03
      5.71428565e-03 2.85714283e-03 2.85714283e-03 1.99999996e-02
      8.57142825e-03 5.71428565e-03 5.71428565e-03 2.85714287e-02
      1.71428565e-02 5.71428565e-03 5.71428565e-03 5.71428565e-03
      2.57142857e-02 2.85714283e-03 1.42857144e-02 1.42857144e-02
      3.99999991e-02 0. 2.85714283e-03 2.85714283e-03 0. 1.14285713e-02</_>
    <_>
      1.51878493e-02 1.11910468e-02 8.79296567e-03 3.99680249e-03
      7.19424477e-03 6.39488408e-03 1.27897682e-02 4.79616318e-03
      1.67865716e-02 1.03916870e-02 5.59552340e-03 3.19744204e-03
      1.35891289e-02 3.19744200e-02 1.11910468e-02 7.91366920e-02
      4.79616318e-03 6.39488408e-03 3.75699438e-02 5.59552340e-03
      7.19424477e-03 3.99680249e-03 4.79616318e-03 1.11910468e-02
      7.19424477e-03 8.79296567e-03 1.19904075e-02 4.79616318e-03
      2.39808159e-03 2.31814552e-02 1.67865716e-02 6.39488408e-03
      1.59872102e-03 3.99680249e-03 1.03916870e-02 1.03916870e-02
      7.99360499e-03 6.39488408e-03 1.35891289e-02 1.27897682e-02
      1.03916870e-02 1.35891289e-02 4.79616318e-03 6.39488408e-03
      4.79616318e-03 4.07673866e-02 1.67865716e-02 4.79616318e-03
      1.03916870e-02 6.39488408e-03 1.59872102e-03 4.79616318e-03
      7.99360499e-03 1.59872100e-02 3.99680249e-03 9.59232636e-03
      1.59872102e-03 1.11910468e-02 2.39808159e-03 2.87769791e-02
      1.51878493e-02 1.59872102e-03 2.23820936e-02 2.39808159e-03
      3.99680249e-03 3.19744204e-03 4.79616318e-03 4.79616318e-03
      7.19424477e-03 7.19424477e-03 5.59552340e-03 1.03916870e-02
      6.39488408e-03 1.59872102e-03 5.59552340e-03 4.79616318e-03
      6.39488408e-03 3.99680249e-03 6.39488408e-03 3.19744204e-03
      1.59872102e-03 7.19424477e-03 1.03916870e-02 7.19424477e-03
      7.99360499e-03 7.19424486e-02 3.99680249e-03 7.99360510e-04
      7.99360499e-03 2.39808159e-03 9.59232636e-03 4.79616318e-03
      6.39488408e-03 9.59232636e-03 7.99360499e-03 1.03916870e-02
      2.39808159e-03 7.19424477e-03 1.59872102e-03 1.19904075e-02</_>
    <_>
      0. 0. 1.08695654e-02 0. 0. 0. 4.34782617e-02 0. 0. 1.08695654e-02
      0. 1.08695654e-02 0. 5.43478243e-02 1.08695654e-02 5.43478243e-02
      0. 1.08695654e-02 0. 0. 0. 0. 0. 1.08695654e-02 0. 0. 0. 0. 0.
      1.08695654e-02 0. 1.08695654e-02 0. 0. 0. 0. 3.26086953e-02 0. 0.
      0. 0. 1.08695654e-02 1.08695654e-02 0. 0. 3.26086968e-01 0. 0.
      1.08695654e-02 0. 1.08695654e-02 0. 1.08695654e-02 5.43478243e-02
      0. 0. 0. 0. 0. 0. 0. 2.17391308e-02 1.08695654e-02 0. 0. 0. 0. 0.
      0. 0. 0. 0. 0. 0. 0. 0. 0. 3.26086953e-02 0. 0. 0. 4.34782617e-02
      2.17391308e-02 0. 0. 2.17391308e-02 0. 0. 7.60869533e-02 0. 0. 0.
      0. 1.08695654e-02 1.08695654e-02 0. 0. 2.17391308e-02
      1.08695654e-02 1.08695654e-02</_>
    <_>
      3.11572710e-03 5.78635000e-03 7.12166168e-03 1.23145403e-02
      1.32047478e-02 1.97329372e-02 8.30860529e-03 1.03857564e-02
      8.16023722e-03 5.93471806e-03 6.08308613e-03 1.45400595e-02
      5.48961433e-03 6.97329361e-03 5.63798239e-03 7.41839781e-03
      1.00890212e-02 4.15430265e-03 8.75370950e-03 8.75370950e-03
      1.06824925e-02 4.89614252e-03 1.02373883e-02 9.34718084e-03
      1.21661723e-02 8.90207756e-03 8.90207756e-03 1.05341244e-02
      1.18694361e-02 2.09198818e-02 8.16023722e-03 7.12166168e-03
      1.08308606e-02 1.00890212e-02 6.08308613e-03 5.48961433e-03
      8.16023722e-03 1.26112755e-02 1.03857564e-02 5.78635000e-03
      6.08308613e-03 1.08308606e-02 1.02373883e-02 7.86350109e-03
      2.29970329e-02 6.67655794e-03 1.30563797e-02 7.41839781e-03
      1.09792287e-02 1.29080117e-02 1.17210681e-02 5.63798239e-03
      5.93471806e-03 1.23145403e-02 9.94065311e-03 1.20178042e-02
      5.34124626e-03 6.52818987e-03 8.01186915e-03 9.05044470e-03
      9.05044470e-03 1.02373883e-02 1.26112755e-02 4.00593458e-03
      1.51335308e-02 2.24035606e-02 4.89614252e-03 3.85756674e-03
      2.22551934e-02 1.24629084e-02 8.16023722e-03 1.09792287e-02
      6.67655794e-03 1.54302670e-02 2.09198818e-02 9.19881277e-03
      1.36498520e-02 1.24629084e-02 6.37982180e-03 1.42433234e-02
      4.89614252e-03 1.46884276e-02 7.41839781e-03 6.82492601e-03
      1.03857564e-02 1.64688434e-02 1.39465872e-02 1.06824925e-02
      1.12759648e-02 1.05341244e-02 8.01186915e-03 8.45697336e-03
      1.18694361e-02 6.08308613e-03 4.89614252e-03 8.01186915e-03
      1.29080117e-02 1.20178042e-02 1.45400595e-02 1.03857564e-02</_>
    <_>
      3.87034356e-03 4.83792927e-03 1.04015479e-02 7.74068711e-03
      8.95016920e-03 1.01596517e-02 8.46637599e-03 1.88679248e-02
      7.49879051e-03 7.25689391e-03 1.25786159e-02 1.01596517e-02
      4.83792927e-03 6.28930796e-03 9.19206534e-03 5.32172248e-03
      1.06434450e-02 4.83792927e-03 4.83792927e-03 1.06434450e-02
      1.37880985e-02 7.01499777e-03 1.69327520e-02 7.98258372e-03
      9.67585854e-03 8.22447985e-03 8.22447985e-03 1.01596517e-02
      9.67585854e-03 1.37880985e-02 1.35462023e-02 5.80551522e-03
      1.06434450e-02 1.18529266e-02 4.59603267e-03 9.19206534e-03
      6.04741182e-03 1.28205130e-02 9.19206534e-03 5.07982587e-03
      3.87034356e-03 8.22447985e-03 8.46637599e-03 7.98258372e-03
      1.54813742e-02 3.38655058e-03 7.49879051e-03 9.91775561e-03
      1.28205130e-02 1.42718917e-02 1.04015479e-02 1.42718917e-02
      8.22447985e-03 9.43396240e-03 1.20948236e-02 1.74165461e-02
      1.35462023e-02 5.80551522e-03 1.69327520e-02 7.25689391e-03
      9.43396240e-03 9.91775561e-03 1.08853411e-02 2.08030958e-02
      1.37880985e-02 1.06434450e-02 8.95016920e-03 1.59651674e-02
      1.25786159e-02 1.49975810e-02 9.67585854e-03 8.22447985e-03
      8.22447985e-03 1.18529266e-02 1.04015479e-02 1.30624091e-02
      1.08853411e-02 1.42718917e-02 9.19206534e-03 1.23367198e-02
      8.46637599e-03 1.01596517e-02 7.98258372e-03 7.01499777e-03
      1.08853411e-02 1.16110304e-02 1.06434450e-02 1.08853411e-02
      9.19206534e-03 1.23367198e-02 1.06434450e-02 7.49879051e-03
      1.33043062e-02 3.38655058e-03 5.56361862e-03 1.16110304e-02
      1.25786159e-02 1.18529266e-02 1.04015479e-02 8.95016920e-03</_>
    <_>
      3.67647060e-03 5.18048136e-03 9.52540152e-03 1.16978614e-02
      3.84358293e-03 1.32018719e-02 6.68449188e-03 1.50401071e-02
      5.18048136e-03 8.35561473e-03 6.85160421e-03 1.68783423e-02
      9.35828872e-03 8.68983939e-03 5.84893068e-03 4.17780736e-03
      1.18649732e-02 3.67647060e-03 8.68983939e-03 1.01938499e-02
      1.48729943e-02 5.18048136e-03 1.50401071e-02 4.84625669e-03
      8.68983939e-03 7.85427820e-03 1.23663098e-02 1.18649732e-02
      1.32018719e-02 1.82152409e-02 8.68983939e-03 6.01604255e-03
      9.35828872e-03 1.45387696e-02 7.85427820e-03 1.43716577e-02
      5.51470602e-03 8.85695219e-03 9.52540152e-03 4.17780736e-03
      4.67914436e-03 9.85962525e-03 7.35294120e-03 6.18315488e-03
      1.18649732e-02 3.67647060e-03 1.23663098e-02 8.35561473e-03
      1.21991979e-02 1.57085564e-02 1.55414436e-02 5.01336902e-03
      4.84625669e-03 1.37032084e-02 1.30347591e-02 1.00267380e-02
      1.45387696e-02 5.84893068e-03 1.47058824e-02 6.51737954e-03
      8.68983939e-03 1.03609627e-02 9.35828872e-03 1.13636367e-02
      1.60427801e-02 1.27005344e-02 5.68181835e-03 1.25334226e-02
      1.98863633e-02 1.90508030e-02 1.65441185e-02 1.05280746e-02
      1.11965239e-02 1.25334226e-02 1.27005344e-02 8.85695219e-03
      1.43716577e-02 1.60427801e-02 7.68716587e-03 1.45387696e-02
      2.17245985e-03 9.85962525e-03 4.84625669e-03 1.32018719e-02
      1.08622992e-02 8.35561473e-03 7.35294120e-03 9.35828872e-03
      8.68983939e-03 1.32018719e-02 8.52272753e-03 8.02139007e-03
      1.35360966e-02 8.35561473e-03 3.00802127e-03 1.28676472e-02
      1.27005344e-02 1.27005344e-02 1.10294120e-02 5.01336902e-03</_>
    <_>
      3.05654621e-03 6.87722862e-03 1.37544572e-02 9.67906229e-03
      5.60366781e-03 7.89607782e-03 5.34895575e-03 1.34997452e-02
      4.58481908e-03 6.11309242e-03 1.22261848e-02 1.09526236e-02
      7.64136529e-03 4.83953115e-03 5.60366781e-03 2.54712184e-03
      1.42638814e-02 3.56597034e-03 9.42435022e-03 1.19714718e-02
      9.42435022e-03 5.09424368e-03 2.06316859e-02 8.91492609e-03
      8.66021402e-03 7.64136529e-03 1.14620477e-02 9.67906229e-03
      1.06979115e-02 1.19714718e-02 1.22261848e-02 8.91492609e-03
      1.04431994e-02 1.52827306e-02 7.89607782e-03 1.01884874e-02
      6.11309242e-03 8.91492609e-03 1.29903210e-02 2.54712184e-03
      4.33010701e-03 7.38665322e-03 8.66021402e-03 5.60366781e-03
      9.67906229e-03 5.09424368e-04 8.66021402e-03 1.09526236e-02
      7.89607782e-03 1.19714718e-02 1.29903210e-02 2.36882325e-02
      7.64136529e-03 1.06979115e-02 2.01222617e-02 1.73204280e-02
      1.14620477e-02 5.85837988e-03 1.12073356e-02 5.09424368e-03
      5.85837988e-03 7.89607782e-03 8.15078989e-03 1.27356090e-02
      1.80845652e-02 8.40550195e-03 1.14620477e-02 1.22261848e-02
      1.40091693e-02 1.70657150e-02 1.01884874e-02 1.19714718e-02
      7.64136529e-03 9.42435022e-03 8.15078989e-03 1.55374426e-02
      1.24808969e-02 1.34997452e-02 5.60366781e-03 1.50280185e-02
      2.77636275e-02 7.89607782e-03 5.09424368e-03 1.22261848e-02
      1.09526236e-02 5.34895575e-03 8.91492609e-03 1.37544572e-02
      6.87722862e-03 1.60468668e-02 1.29903210e-02 9.16963816e-03
      1.14620477e-02 7.64136529e-03 6.36780448e-03 1.22261848e-02
      8.91492609e-03 9.16963816e-03 1.19714718e-02 8.91492609e-03</_>
    <_>
      2.97050714e-03 6.78973040e-03 1.14576705e-02 1.16698490e-02
      5.94101427e-03 1.14576705e-02 4.88011865e-03 1.48525359e-02
      5.72883524e-03 4.88011865e-03 9.97241680e-03 1.27307447e-02
      3.18268617e-03 4.45576059e-03 8.91152117e-03 2.54614884e-03
      1.20942071e-02 4.24358156e-03 6.15319330e-03 1.61256101e-02
      1.71865057e-02 8.27498455e-03 1.23063866e-02 7.85062555e-03
      8.91152117e-03 7.42626796e-03 8.06280505e-03 8.91152117e-03
      1.20942071e-02 1.29429242e-02 7.00190943e-03 5.09229768e-03
      1.31551027e-02 1.14576705e-02 8.69934261e-03 8.91152117e-03
      4.24358156e-03 1.10333124e-02 1.31551027e-02 7.63844699e-03
      5.09229768e-03 7.21408846e-03 9.76023730e-03 9.76023730e-03
      1.86717585e-02 2.75832810e-03 8.91152117e-03 1.46403564e-02
      1.06089544e-02 1.40038189e-02 1.67621467e-02 7.63844699e-03
      5.09229768e-03 1.12454910e-02 1.12454910e-02 1.12454910e-02
      1.65499691e-02 9.76023730e-03 1.54890725e-02 5.72883524e-03
      8.48716311e-03 1.03967749e-02 1.01845954e-02 1.82474013e-02
      1.10333124e-02 1.14576705e-02 8.91152117e-03 2.41884142e-02
      1.12454910e-02 1.01845954e-02 8.69934261e-03 1.12454910e-02
      1.08211329e-02 1.10333124e-02 1.03967749e-02 1.31551027e-02
      1.42159984e-02 1.42159984e-02 8.06280505e-03 1.48525359e-02
      5.51665621e-03 1.54890725e-02 4.45576059e-03 6.15319330e-03
      1.25185661e-02 6.57755136e-03 1.03967749e-02 1.10333124e-02
      5.94101427e-03 1.61256101e-02 9.97241680e-03 1.12454910e-02
      1.20942071e-02 5.94101427e-03 7.42626796e-03 7.63844699e-03
      1.08211329e-02 1.10333124e-02 1.23063866e-02 8.69934261e-03</_>
    <_>
      2.21238937e-02 4.42477874e-03 0. 8.84955749e-03 0. 8.84955749e-03
      4.42477874e-03 0. 8.84955749e-03 4.42477874e-03 4.42477874e-03
      4.42477874e-03 8.84955749e-03 3.53982300e-02 8.84955749e-03
      1.28318578e-01 4.42477874e-03 2.21238937e-02 1.32743362e-02 0.
      1.32743362e-02 4.42477874e-03 8.84955749e-03 0. 4.42477874e-03
      4.42477874e-03 1.32743362e-02 8.84955749e-03 4.42477874e-03
      8.84955749e-03 8.84955749e-03 0. 8.84955749e-03 0. 1.32743362e-02
      4.42477874e-03 0. 4.42477874e-03 2.65486725e-02 4.42477874e-03
      1.76991150e-02 8.84955749e-03 4.42477874e-02 1.76991150e-02
      8.84955749e-03 1.50442481e-01 0. 4.42477874e-03 1.32743362e-02
      4.42477874e-03 0. 0. 0. 2.21238937e-02 0. 4.42477874e-03 0.
      4.42477874e-03 3.09734512e-02 1.76991150e-02 8.84955749e-03 0.
      4.42477874e-03 0. 4.42477874e-03 4.42477874e-03 8.84955749e-03
      4.42477874e-03 8.84955749e-03 4.42477874e-03 0. 4.42477874e-03 0.
      8.84955749e-03 4.42477874e-03 0. 0. 4.42477874e-03 0.
      2.65486725e-02 0. 8.84955749e-03 0. 8.84955749e-03 4.42477874e-03
      2.65486725e-02 0. 0. 4.42477874e-03 0. 4.42477874e-03
      4.42477874e-03 8.84955749e-03 4.42477874e-03 0. 8.84955749e-03
      8.84955749e-03 1.32743362e-02 4.42477874e-03 8.84955749e-03</_>
    <_>
      4.76190485e-02 0. 0. 0. 4.76190485e-02 4.76190485e-02
      4.76190485e-02 0. 0. 0. 0. 0. 0. 0. 0. 0. 0. 4.76190485e-02 0. 0.
      0. 4.76190485e-02 4.76190485e-02 0. 4.76190485e-02 0. 0. 0. 0. 0.
      0. 0. 0. 0. 4.76190485e-02 4.76190485e-02 0. 0. 4.76190485e-02 0.
      0. 0. 0. 0. 0. 0. 0. 0. 0. 0. 0. 0. 0. 0. 0. 0. 0. 0. 0. 0.
      4.76190485e-02 0. 0. 0. 0. 0. 0. 0. 4.76190485e-02 0. 0.
      4.76190485e-02 0. 4.76190485e-02 0. 0. 0. 0. 4.76190485e-02 0. 0.
      0. 4.76190485e-02 0. 0. 0. 0. 4.76190485e-02 0. 0. 0.
      4.76190485e-02 4.76190485e-02 0. 4.76190485e-02 0. 0. 0. 0. 0.</_>
    <_>
      9.81266703e-03 1.60570927e-02 9.81266703e-03 3.56824254e-03
      1.51650310e-02 9.81266703e-03 1.69491526e-02 2.67618196e-03
      2.94380020e-02 8.92060623e-03 7.13648507e-03 4.46030311e-03
      1.24888495e-02 1.51650310e-02 2.14094557e-02 3.56824254e-03
      4.46030311e-03 1.24888495e-02 1.07047278e-02 4.46030311e-03
      5.35236392e-03 1.33809103e-02 1.07047278e-02 6.24442473e-03
      7.13648507e-03 1.96253341e-02 9.81266703e-03 8.92060623e-03
      4.46030311e-03 5.35236392e-03 1.15967887e-02 2.58697588e-02
      4.46030311e-03 1.78412127e-03 9.81266703e-03 9.81266703e-03
      1.24888495e-02 1.33809103e-02 8.02854635e-03 1.60570927e-02
      9.81266703e-03 7.13648507e-03 2.23015174e-02 1.87332742e-02
      1.60570927e-02 7.13648507e-03 1.42729701e-02 6.24442473e-03
      1.69491526e-02 6.24442473e-03 8.02854635e-03 9.81266703e-03
      1.87332742e-02 2.05173958e-02 4.46030311e-03 7.13648507e-03
      8.92060634e-04 1.96253341e-02 1.78412127e-03 8.92060623e-03
      1.96253341e-02 9.81266703e-03 3.56824254e-03 2.67618196e-03
      3.56824254e-03 6.24442473e-03 4.46030311e-03 6.24442473e-03
      8.02854635e-03 3.56824254e-03 3.56824254e-03 1.15967887e-02
      9.81266703e-03 6.24442473e-03 8.92060623e-03 1.24888495e-02
      7.13648507e-03 5.35236392e-03 1.51650310e-02 9.81266703e-03
      1.07047278e-02 1.87332742e-02 1.96253341e-02 1.87332742e-02
      3.56824254e-03 6.24442473e-03 2.67618196e-03 1.78412127e-03
      8.92060623e-03 7.13648507e-03 1.15967887e-02 7.13648507e-03
      8.92060623e-03 2.14094557e-02 1.78412125e-02 7.13648507e-03
      3.56824254e-03 3.56824254e-03 7.13648507e-03 8.02854635e-03</_>
    <_>
      1.21951215e-02 1.21951215e-02 3.65853645e-02 0. 1.21951215e-02 0.
      0. 0. 1.21951215e-02 2.43902430e-02 1.21951215e-02 0.
      3.65853645e-02 2.43902430e-02 2.43902430e-02 0. 0. 3.65853645e-02
      0. 0. 0. 6.09756112e-02 1.21951215e-02 0. 0. 0. 0. 0. 0. 0. 0.
      3.65853645e-02 0. 0. 3.65853645e-02 0. 0. 0. 0. 2.43902430e-02
      2.43902430e-02 0. 3.65853645e-02 0. 1.21951215e-02 0. 0. 0. 0. 0.
      0. 1.21951215e-02 3.65853645e-02 1.21951215e-02 0. 0. 0.
      1.21951222e-01 0. 0. 3.65853645e-02 0. 0. 0. 0. 0. 4.87804860e-02
      1.21951215e-02 2.43902430e-02 0. 0. 0. 0. 0. 2.43902430e-02 0. 0.
      0. 1.21951215e-02 0. 0. 0. 3.65853645e-02 7.31707290e-02 0. 0.
      1.21951215e-02 1.21951215e-02 0. 0. 0. 0. 0. 3.65853645e-02 0. 0.
      0. 0. 0. 0.</_>
    <_>
      1.51024815e-02 1.29449842e-02 1.94174759e-02 4.31499444e-03
      4.31499444e-03 7.55124073e-03 7.55124073e-03 1.07874861e-03
      1.83387268e-02 2.69687157e-02 1.18662352e-02 7.55124073e-03
      1.29449842e-02 8.62998888e-03 2.26537213e-02 1.07874861e-02
      1.07874861e-03 1.40237324e-02 1.18662352e-02 4.31499444e-03
      5.39374305e-03 9.70873795e-03 1.40237324e-02 1.07874861e-02
      3.23624606e-03 7.55124073e-03 1.29449842e-02 5.39374305e-03 0.
      8.62998888e-03 7.55124073e-03 2.04962250e-02 4.31499444e-03 0.
      1.07874861e-02 7.55124073e-03 6.47249212e-03 6.47249212e-03
      9.70873795e-03 9.70873795e-03 1.94174759e-02 1.29449842e-02
      5.17799370e-02 1.61812305e-02 7.55124073e-03 6.47249212e-03
      5.39374305e-03 3.23624606e-03 1.83387268e-02 4.31499444e-03
      2.15749722e-03 3.23624606e-03 1.83387268e-02 3.88349518e-02
      1.07874861e-03 5.39374305e-03 1.07874861e-03 1.72599778e-02
      3.23624606e-03 1.94174759e-02 2.37324703e-02 1.07874861e-02
      4.31499444e-03 1.07874861e-03 5.39374305e-03 5.39374305e-03
      8.62998888e-03 0. 5.39374305e-03 4.31499444e-03 2.15749722e-03
      7.55124073e-03 1.83387268e-02 1.07874861e-03 7.55124073e-03
      5.39374305e-03 3.23624606e-03 2.15749722e-03 1.07874861e-02
      6.47249212e-03 0. 1.51024815e-02 2.04962250e-02 1.29449842e-02
      6.47249212e-03 1.61812305e-02 1.07874861e-03 3.23624606e-03
      1.61812305e-02 4.31499444e-03 1.18662352e-02 9.70873795e-03
      1.18662352e-02 3.77562046e-02 1.61812305e-02 2.15749722e-03
      3.23624606e-03 1.07874861e-02 1.07874861e-02 1.61812305e-02</_>
    <_>
      9.68992244e-03 1.84108522e-02 8.72093067e-03 2.90697673e-03
      3.00387591e-02 3.87596898e-03 1.64728686e-02 3.87596898e-03
      1.64728686e-02 2.22868212e-02 7.75193796e-03 5.81395347e-03
      1.35658914e-02 3.77906971e-02 1.16279069e-02 3.87596898e-03
      6.78294571e-03 3.10077518e-02 3.87596898e-03 3.87596898e-03
      1.93798449e-03 1.25968996e-02 1.35658914e-02 1.35658914e-02
      1.93798449e-03 1.55038759e-02 1.55038759e-02 7.75193796e-03
      1.93798449e-03 9.68992244e-03 9.68992244e-03 1.74418613e-02
      9.68992244e-04 1.93798449e-03 1.45348841e-02 1.35658914e-02
      6.78294571e-03 5.81395347e-03 1.84108522e-02 1.64728686e-02
      4.84496122e-03 1.06589152e-02 1.84108522e-02 1.74418613e-02 0.
      5.81395347e-03 6.78294571e-03 1.16279069e-02 1.06589152e-02
      7.75193796e-03 3.87596898e-03 8.72093067e-03 1.55038759e-02
      3.58527116e-02 5.81395347e-03 3.87596898e-03 2.90697673e-03
      1.74418613e-02 3.87596898e-03 6.78294571e-03 1.16279069e-02
      3.87596898e-03 3.87596898e-03 2.90697673e-03 5.81395347e-03
      9.68992244e-04 1.06589152e-02 3.87596898e-03 2.90697673e-03
      3.87596898e-03 4.84496122e-03 2.90697673e-03 7.75193796e-03
      3.87596898e-03 9.68992244e-04 6.78294571e-03 9.68992244e-04
      9.68992244e-04 9.68992244e-03 3.87596898e-03 1.93798449e-03
      2.51937993e-02 2.22868212e-02 2.32558139e-02 7.75193796e-03
      1.35658914e-02 9.68992244e-04 9.68992244e-04 1.25968996e-02
      5.81395347e-03 1.74418613e-02 1.06589152e-02 1.64728686e-02
      2.61627901e-02 1.84108522e-02 1.16279069e-02 1.93798449e-03
      9.68992244e-03 5.81395347e-03 1.74418613e-02</_>
    <_>
      0. 4.34782617e-02 0. 0. 4.34782617e-02 0. 0. 0. 0. 4.34782617e-02
      0. 0. 4.34782617e-02 0. 8.69565234e-02 0. 0. 0. 0. 0. 0. 0.
      4.34782617e-02 0. 0. 0. 4.34782617e-02 0. 0. 0. 0. 4.34782617e-02
      0. 0. 0. 4.34782617e-02 0. 0. 0. 0. 0. 0. 1.30434781e-01 0. 0. 0.
      0. 0. 0. 0. 0. 0. 4.34782617e-02 8.69565234e-02 0. 0. 0. 0. 0.
      4.34782617e-02 0. 0. 0. 0. 4.34782617e-02 0. 0. 0. 0. 0. 0. 0. 0.
      4.34782617e-02 0. 0. 0. 0. 0. 0. 0. 0. 0. 4.34782617e-02
      4.34782617e-02 0. 0. 0. 0. 0. 4.34782617e-02 0. 0. 4.34782617e-02
      0. 0. 0. 0. 0. 0.</_>
    <_>
      0. 0. 0. 0. 0. 0. 0. 0. 0. 0. 0. 0. 1.11111112e-01 0.
      1.11111112e-01 0. 0. 1.11111112e-01 0. 0. 0. 0. 0. 0. 0. 0. 0. 0.
      0. 0. 0. 1.11111112e-01 0. 0. 0. 0. 0. 0. 0. 0. 1.11111112e-01 0.
      0. 0. 0. 0. 1.11111112e-01 0. 0. 0. 0. 0. 0. 0. 0. 0. 0.
      1.11111112e-01 0. 0. 0. 0. 0. 0. 0. 0. 0. 0. 0. 0. 0. 0. 0. 0. 0.
      0. 0. 0. 0. 0. 1.11111112e-01 0. 0. 0. 0. 0. 0. 0. 0. 0. 0. 0. 0.
      1.11111112e-01 0. 0. 0. 0. 0. 0.</_>
    <_>
      1.59744415e-02 5.59105445e-03 1.59744415e-02 7.18849851e-03
      1.51757188e-02 1.03833862e-02 1.19808307e-02 0. 3.27476040e-02
      1.27795525e-02 1.43769970e-02 9.58466437e-03 1.35782752e-02
      1.03833862e-02 1.67731624e-02 4.79233218e-03 7.98722077e-03
      1.43769970e-02 7.98722077e-03 5.59105445e-03 3.99361039e-03
      1.43769970e-02 1.19808307e-02 7.18849851e-03 6.38977624e-03
      8.78594257e-03 1.03833862e-02 1.19808307e-02 5.59105445e-03
      1.27795525e-02 6.38977624e-03 1.27795525e-02 3.19488812e-03
      4.79233218e-03 1.67731624e-02 1.27795525e-02 1.27795525e-02
      9.58466437e-03 7.98722077e-03 2.23642178e-02 1.43769970e-02
      3.19488812e-03 2.79552713e-02 9.58466437e-03 6.38977624e-03
      5.59105445e-03 1.75718851e-02 3.19488812e-03 1.43769970e-02
      7.18849851e-03 1.59744406e-03 6.38977624e-03 1.11821089e-02
      2.87539940e-02 1.59744406e-03 6.38977624e-03 2.39616609e-03
      1.11821089e-02 0. 8.78594257e-03 1.99680515e-02 1.67731624e-02
      1.59744406e-03 7.98722031e-04 7.18849851e-03 8.78594257e-03
      1.75718851e-02 7.98722031e-04 7.18849851e-03 8.78594257e-03
      1.03833862e-02 7.18849851e-03 1.11821089e-02 6.38977624e-03
      4.79233218e-03 7.98722077e-03 1.59744406e-03 2.39616609e-03
      1.35782752e-02 2.47603841e-02 1.59744406e-03 1.75718851e-02
      1.27795525e-02 7.98722077e-03 8.78594257e-03 8.78594257e-03
      1.59744406e-03 5.59105445e-03 9.58466437e-03 8.78594257e-03
      1.03833862e-02 1.03833862e-02 1.27795525e-02 1.43769970e-02
      1.67731624e-02 1.03833862e-02 3.99361039e-03 6.38977624e-03
      1.35782752e-02 1.43769970e-02</_>
    <_>
      6.85785525e-03 9.97506268e-03 2.61845384e-02 8.72817915e-03
      9.97506268e-03 3.11720697e-03 1.49625931e-02 0. 1.12219453e-02
      8.72817915e-03 6.85785525e-03 8.72817915e-03 1.18453866e-02
      6.23441394e-03 1.55860353e-02 8.85286778e-02 6.85785525e-03
      8.72817915e-03 9.97506268e-03 3.11720697e-03 8.10473785e-03
      1.30922692e-02 1.12219453e-02 3.74064827e-03 5.61097264e-03
      7.48129655e-03 2.43142135e-02 3.11720697e-03 4.98753134e-03
      1.05985040e-02 6.23441394e-03 9.35162138e-03 3.74064827e-03
      6.23441418e-04 9.97506268e-03 4.98753134e-03 2.49376558e-02
      8.10473785e-03 8.72817915e-03 1.24688279e-02 6.23441394e-03
      1.18453866e-02 4.30174582e-02 1.24688279e-02 4.36408957e-03
      3.30423936e-02 4.36408957e-03 1.18453866e-02 1.49625931e-02
      1.87032414e-03 1.24688284e-03 8.10473785e-03 1.24688279e-02
      1.87032428e-02 1.87032414e-03 1.12219453e-02 1.87032414e-03
      8.72817915e-03 0. 1.18453866e-02 1.12219453e-02 4.36408957e-03
      1.87032414e-03 0. 3.74064827e-03 3.11720697e-03 6.85785525e-03
      4.36408957e-03 4.36408957e-03 1.05985040e-02 6.23441394e-03
      9.97506268e-03 1.12219453e-02 1.24688284e-03 3.11720697e-03
      9.35162138e-03 5.61097264e-03 1.24688284e-03 1.55860353e-02
      1.18453866e-02 3.11720697e-03 1.80798005e-02 8.72817915e-03
      9.97506268e-03 9.35162138e-03 1.68329179e-02 8.72817915e-03
      4.98753134e-03 1.05985040e-02 6.23441394e-03 1.43391518e-02
      1.49625931e-02 1.30922692e-02 1.68329179e-02 1.18453866e-02
      7.48129655e-03 2.49376567e-03 2.49376567e-03 6.85785525e-03
      1.93266831e-02</_>
    <_>
      3.77595983e-03 4.40528616e-03 1.25865322e-02 5.66393975e-03
      7.55191967e-03 6.29326608e-03 1.69918183e-02 1.88797992e-03
      7.55191967e-03 6.92259287e-03 6.92259287e-03 9.43989959e-03
      9.43989959e-03 6.29326608e-03 3.14663304e-03 8.49590972e-02
      8.18124600e-03 2.51730648e-03 1.44745121e-02 8.81057233e-03
      8.18124600e-03 2.51730648e-03 6.92259287e-03 1.06985522e-02
      6.29326608e-03 1.32158594e-02 3.14663313e-02 2.51730648e-03
      2.51730648e-03 3.20956558e-02 4.59408425e-02 5.03461296e-03
      5.66393975e-03 1.88797992e-03 3.77595983e-03 5.03461296e-03
      2.13971045e-02 1.13278795e-02 8.81057233e-03 4.40528616e-03
      4.40528616e-03 3.14663313e-02 3.08370050e-02 6.92259287e-03
      6.29326608e-03 1.38451857e-02 5.66393975e-03 5.03461296e-03
      5.66393975e-03 2.51730648e-03 5.66393975e-03 8.18124600e-03
      1.51038393e-02 4.40528616e-03 1.25865324e-03 1.69918183e-02
      1.00692259e-02 4.40528616e-03 4.40528616e-03 3.02076787e-02
      6.29326608e-03 5.03461296e-03 3.27249840e-02 1.88797992e-03
      3.14663304e-03 3.14663304e-03 3.77595983e-03 6.29326620e-04
      1.38451857e-02 1.51038393e-02 5.03461296e-03 3.77595983e-03 0.
      7.55191967e-03 1.00692259e-02 1.88797992e-03 8.81057233e-03
      3.77595983e-03 2.51730648e-03 1.06985522e-02 5.66393975e-03
      1.88797992e-03 5.66393975e-03 5.03461296e-03 1.69918183e-02
      4.27942090e-02 1.19572058e-02 4.40528616e-03 6.29326608e-03
      4.40528616e-03 5.66393975e-03 1.44745121e-02 6.29326608e-03
      2.51730648e-03 2.45437380e-02 5.66393975e-03 3.14663304e-03
      5.03461296e-03 8.81057233e-03 8.18124600e-03</_>
    <_>
      9.61538497e-03 4.12087934e-03 6.86813192e-03 1.37362641e-03
      2.74725282e-03 6.86813192e-03 5.49450563e-03 5.49450563e-03
      5.49450563e-03 1.78571437e-02 6.86813192e-03 1.37362641e-03
      6.86813192e-03 1.09890113e-02 1.23626376e-02 1.37362644e-01
      5.49450563e-03 2.74725282e-03 5.49450563e-03 4.12087934e-03
      1.37362638e-02 1.37362641e-03 4.12087934e-03 4.12087934e-03
      9.61538497e-03 4.12087934e-03 9.61538497e-03 4.12087934e-03
      6.86813192e-03 1.64835174e-02 9.61538497e-03 9.61538497e-03
      8.24175868e-03 1.37362641e-03 6.86813192e-03 6.86813192e-03
      6.86813192e-03 6.86813192e-03 1.64835174e-02 2.74725282e-03
      4.12087934e-03 1.37362641e-03 1.37362638e-02 8.24175868e-03
      4.12087934e-03 1.23626374e-01 2.74725282e-03 6.86813192e-03
      9.61538497e-03 9.61538497e-03 1.37362641e-03 8.24175868e-03
      1.23626376e-02 9.61538497e-03 1.37362641e-03 8.24175868e-03
      2.74725282e-03 4.12087934e-03 1.64835174e-02 2.19780225e-02
      5.49450563e-03 6.86813192e-03 1.09890113e-02 0. 6.86813192e-03
      8.24175868e-03 9.61538497e-03 1.37362641e-03 5.49450563e-03
      6.86813192e-03 2.74725282e-03 4.12087934e-03 1.37362641e-03
      1.51098901e-02 8.24175868e-03 2.74725282e-03 2.74725282e-03
      1.23626376e-02 8.24175868e-03 1.64835174e-02 5.49450563e-03
      5.49450563e-03 5.49450563e-03 6.86813192e-03 9.61538497e-03
      4.12087925e-02 5.49450563e-03 5.49450563e-03 6.86813192e-03
      8.24175868e-03 1.09890113e-02 1.37362641e-03 9.61538497e-03
      1.09890113e-02 4.12087934e-03 9.61538497e-03 2.74725282e-03 0.
      6.86813192e-03 2.74725277e-02</_>
    <_>
      1.07978405e-02 8.39832053e-03 7.19856052e-03 4.79904003e-03
      7.19856052e-03 4.79904003e-03 1.37972403e-02 2.39952002e-03
      1.61967613e-02 3.41931619e-02 7.19856052e-03 5.99880004e-03
      9.59808007e-03 8.99820030e-03 1.31973606e-02 2.51949616e-02
      2.99940002e-03 1.25974808e-02 8.99820030e-03 2.39952002e-03
      5.39892027e-03 1.19976001e-02 8.99820030e-03 1.07978405e-02
      7.19856052e-03 4.79904003e-03 1.37972403e-02 4.79904003e-03
      4.79904003e-03 7.19856052e-03 3.59928026e-03 1.73965208e-02
      8.39832053e-03 1.19976001e-03 1.37972403e-02 5.99880004e-03
      1.73965208e-02 7.79844029e-03 1.01979608e-02 1.67966411e-02
      1.31973606e-02 4.79904003e-03 4.13917229e-02 1.13977203e-02
      2.39952002e-03 6.17876425e-02 1.01979608e-02 2.39952002e-03
      1.85962804e-02 2.99940002e-03 1.79964013e-03 4.19916026e-03
      3.59928026e-03 2.45950818e-02 1.79964013e-03 4.19916026e-03
      5.99880004e-04 2.93941218e-02 3.59928026e-03 1.85962804e-02
      2.57948413e-02 7.19856052e-03 1.79964013e-03 0. 1.79964013e-03
      1.19976001e-03 8.39832053e-03 1.19976001e-03 1.07978405e-02
      4.19916026e-03 1.79964013e-03 4.19916026e-03 4.19916026e-03
      5.39892027e-03 6.59868028e-03 8.99820030e-03 6.59868028e-03
      3.59928026e-03 9.59808007e-03 1.13977203e-02 0. 1.97960399e-02
      1.67966411e-02 5.99880004e-03 6.59868028e-03 1.01979608e-02
      2.39952002e-03 2.99940002e-03 2.03959215e-02 1.79964013e-03
      1.13977203e-02 9.59808007e-03 7.19856052e-03 1.67966411e-02
      1.61967613e-02 1.13977203e-02 4.79904003e-03 3.59928026e-03
      1.73965208e-02 3.89922000e-02</_>
    <_>
      8.15850776e-03 1.63170155e-02 1.04895104e-02 5.82750561e-03
      3.49650346e-03 3.49650346e-03 1.28205130e-02 0. 1.04895104e-02
      1.98135190e-02 8.15850776e-03 4.66200477e-03 4.66200477e-03
      9.32400953e-03 3.26340310e-02 3.37995328e-02 2.33100238e-03
      1.63170155e-02 5.82750561e-03 0. 5.82750561e-03 1.39860138e-02
      1.39860138e-02 5.82750561e-03 2.33100238e-03 6.99300691e-03
      1.98135190e-02 9.32400953e-03 8.15850776e-03 1.28205130e-02
      1.16550119e-03 2.56410260e-02 2.33100238e-03 2.33100238e-03
      1.28205130e-02 4.66200477e-03 8.15850776e-03 5.82750561e-03
      1.51515156e-02 2.21445225e-02 1.04895104e-02 8.15850776e-03
      4.31235433e-02 2.33100224e-02 8.15850776e-03 6.64335638e-02
      4.66200477e-03 1.16550119e-03 1.39860138e-02 3.49650346e-03
      2.33100238e-03 2.33100238e-03 5.82750561e-03 3.49650346e-02
      1.16550119e-03 4.66200477e-03 0. 1.98135190e-02 2.33100238e-03
      1.63170155e-02 2.09790207e-02 4.66200477e-03 8.15850776e-03 0.
      3.49650346e-03 5.82750561e-03 3.49650346e-03 2.33100238e-03
      6.99300691e-03 1.16550119e-03 3.49650346e-03 5.82750561e-03
      9.32400953e-03 2.33100238e-03 6.99300691e-03 6.99300691e-03
      3.49650346e-03 0. 1.04895104e-02 1.16550119e-03 2.33100238e-03
      2.68065259e-02 1.63170155e-02 5.82750561e-03 5.82750561e-03
      6.99300691e-03 0. 4.66200477e-03 3.49650346e-03 6.99300691e-03
      1.04895104e-02 9.32400953e-03 1.28205130e-02 2.56410260e-02
      9.32400953e-03 1.39860138e-02 4.66200477e-03 1.16550119e-03
      6.99300691e-03 3.84615399e-02</_>
    <_>
      0. 0. 0. 8.33333358e-02 8.33333358e-02 0. 0. 0. 0. 0. 0. 0.
      8.33333358e-02 0. 8.33333358e-02 0. 0. 0. 0. 0. 0. 0. 0. 0. 0. 0.
      0. 0. 0. 0. 0. 0. 0. 0. 0. 0. 0. 0. 0. 0. 8.33333358e-02 0.
      8.33333358e-02 0. 0. 0. 0. 0. 0. 0. 0. 0. 8.33333358e-02 0. 0. 0.
      0. 8.33333358e-02 0. 0. 0. 0. 0. 0. 0. 0. 8.33333358e-02 0. 0. 0.
      0. 0. 0. 0. 0. 0. 0. 8.33333358e-02 0. 0. 0. 0. 0. 0. 0. 0. 0. 0.
      0. 0. 0. 0. 0. 8.33333358e-02 0. 8.33333358e-02 0. 0. 0. 0.</_>
    <_>
